-1.114722061902284622e-02
3.123978897929191589e-02
4.018196463584899902e-02
-8.057662099599838257e-02
1.939197629690170288e-02
-1.242127120494842529e-01
-1.281889714300632477e-02
1.191466860473155975e-02
2.385905385017395020e-02
6.310851871967315674e-02
9.809867478907108307e-03
-2.780165895819664001e-02
-9.870664216578006744e-04
-4.302884917706251144e-03
-7.915914803743362427e-02
5.439064931124448776e-03
3.489997610449790955e-02
2.451310679316520691e-02
3.079783357679843903e-02
6.354358047246932983e-02
-4.397354274988174438e-02
-7.843762636184692383e-03
2.052959054708480835e-02
-2.234609052538871765e-02
2.591555751860141754e-02
1.316707395017147064e-02
-1.866886019706726074e-02
-1.889766007661819458e-02
-9.136089356616139412e-04
4.075246304273605347e-02
6.059702485799789429e-02
-4.538259655237197876e-02
3.260634467005729675e-02
7.732795178890228271e-02
2.425959147512912750e-02
2.249213494360446930e-02
-3.590328246355056763e-02
5.800576880574226379e-02
5.841591046191751957e-04
-8.765254914760589600e-02
9.050672501325607300e-02
4.755119234323501587e-02
3.896193206310272217e-02
2.799838781356811523e-03
5.247320979833602905e-02
-2.556408010423183441e-02
-3.545060381293296814e-02
-4.971950873732566833e-02
-6.833292543888092041e-02
7.097993046045303345e-02
4.410645738244056702e-02
8.816476911306381226e-02
3.601184487342834473e-02
1.246231258846819401e-03
1.364106871187686920e-02
-2.564935944974422455e-02
-1.185130421072244644e-02
3.775633499026298523e-02
-7.834459096193313599e-02
-2.835341542959213257e-02
-7.510446012020111084e-02
2.016796963289380074e-03
6.214257702231407166e-02
-5.101656168699264526e-02
3.693064674735069275e-02
3.145538270473480225e-02
6.188357621431350708e-02
7.820566743612289429e-02
-4.139100387692451477e-02
1.156515069305896759e-02
-6.006926670670509338e-02
2.190859802067279816e-02
-2.846628986299037933e-02
1.698970212601125240e-03
-2.298091165721416473e-02
2.907991968095302582e-02
-3.357161954045295715e-02
4.874144680798053741e-03
7.798627950251102448e-03
9.882415831089019775e-02
9.233938157558441162e-02
-5.999785847961902618e-03
2.969457535073161125e-03
-5.257551744580268860e-02
-1.901137828826904297e-02
-2.160944230854511261e-02
2.524149604141712189e-02
-1.421300880610942841e-02
-3.368291631340980530e-02
-5.014805495738983154e-02
4.123945254832506180e-03
7.589984685182571411e-02
-2.245579817099496722e-04
7.520474493503570557e-02
3.227550163865089417e-02
7.375319022685289383e-03
-7.973637431859970093e-03
-7.897394895553588867e-02
-7.044892758131027222e-03
5.936913192272186279e-02
-4.149020463228225708e-02
-1.731215976178646088e-02
-1.552628725767135620e-01
-2.571486867964267731e-02
-8.722983300685882568e-03
8.586966246366500854e-02
-6.099365651607513428e-02
-4.253909364342689514e-02
-1.112730707973241806e-02
-2.864165976643562317e-02
8.231434971094131470e-02
-4.332778602838516235e-02
2.374802250415086746e-03
-2.068668976426124573e-02
-9.274255484342575073e-03
1.062812749296426773e-02
7.597733289003372192e-02
3.473682701587677002e-02
1.171252876520156860e-02
3.323081508278846741e-02
2.688004449009895325e-02
4.290920868515968323e-02
-5.193215236067771912e-02
-5.650871433317661285e-03
-2.660618163645267487e-02
-8.087246865034103394e-02
-1.994956471025943756e-02
-4.639374464750289917e-02
