-7.656136155128479004e-02
-9.524983167648315430e-02
-1.942974701523780823e-02
-1.580348759889602661e-01
1.359769254922866821e-01
-9.007237106561660767e-02
-4.222109913825988770e-02
-1.100929826498031616e-01
-8.768174797296524048e-02
5.619514361023902893e-02
8.773662149906158447e-02
7.153476774692535400e-02
-9.597434848546981812e-02
-1.604636460542678833e-01
-7.967280596494674683e-02
-1.296438425779342651e-01
-6.797710806131362915e-02
9.158325195312500000e-02
5.790390446782112122e-02
1.210717335343360901e-01
9.974165260791778564e-02
3.435041382908821106e-02
1.952471882104873657e-01
-1.164858192205429077e-01
-4.285125434398651123e-02
1.363974660634994507e-01
-1.019332036375999451e-01
-1.045163050293922424e-01
-2.959402464330196381e-02
-2.613477641716599464e-03
1.203211322426795959e-01
-1.129633486270904541e-01
7.851036638021469116e-02
7.227402925491333008e-02
-3.704619780182838440e-02
2.082675993442535400e-01
-1.322980523109436035e-01
5.310370400547981262e-02
-8.062902837991714478e-02
-2.468868941068649292e-01
1.319390237331390381e-01
1.110353022813796997e-01
4.777526855468750000e-02
1.227441504597663879e-01
1.074196696281433105e-01
8.883363753557205200e-02
3.073835105169564486e-04
1.253836452960968018e-01
-4.465873911976814270e-02
7.437540590763092041e-02
1.206863448023796082e-01
1.045937314629554749e-01
-1.012249663472175598e-01
1.319386363029479980e-01
-1.093771234154701233e-01
-2.454157322645187378e-01
1.307355612516403198e-01
-2.780023496598005295e-03
-5.255285650491714478e-02
1.129678636789321899e-02
-1.000253930687904358e-01
4.138310253620147705e-02
5.076745897531509399e-02
3.791132569313049316e-02
-7.757260650396347046e-02
-6.327943503856658936e-02
8.440047502517700195e-02
1.216379106044769287e-01
1.554267406463623047e-01
1.012775972485542297e-01
-1.408479660749435425e-01
-3.336886316537857056e-02
-9.035009145736694336e-02
1.218647062778472900e-01
-1.957452669739723206e-02
-7.966824620962142944e-02
1.054349616169929504e-01
1.571360230445861816e-01
7.052975893020629883e-02
1.272448450326919556e-01
1.120457500219345093e-01
-4.131568595767021179e-02
-6.848459690809249878e-02
-2.264256477355957031e-01
2.894020378589630127e-01
-6.792270392179489136e-02
1.409519314765930176e-01
8.905726671218872070e-02
-7.564020156860351562e-02
-6.428719311952590942e-02
3.072640597820281982e-01
1.473412811756134033e-01
1.889362484216690063e-01
7.821407914161682129e-02
-4.563938453793525696e-02
-3.207317495252937078e-04
1.299074739217758179e-01
-2.107923328876495361e-01
7.049363851547241211e-02
1.962870955467224121e-01
2.074365038424730301e-03
-1.187420561909675598e-01
-1.371355503797531128e-01
-1.088813319802284241e-01
5.552183464169502258e-02
1.288630366325378418e-01
-1.010400652885437012e-01
-9.235892444849014282e-02
8.938434720039367676e-02
-9.928645193576812744e-02
1.016608700156211853e-01
1.591066457331180573e-02
-5.574655905365943909e-02
-1.131921783089637756e-01
-1.232622191309928894e-01
1.735451221466064453e-01
1.061611920595169067e-01
4.736205562949180603e-02
2.833741344511508942e-02
8.226478844881057739e-02
5.927736312150955200e-02
1.817802665755152702e-03
-1.349235475063323975e-01
8.451537042856216431e-02
-2.314425219083204865e-04
-1.054799407720565796e-01
5.511497147381305695e-04
-1.196895018219947815e-01
