-1.173002049326896667e-01
1.776771694421768188e-01
1.351899504661560059e-01
-9.166855365037918091e-02
-4.390738159418106079e-02
-9.468211978673934937e-02
-1.094916537404060364e-01
3.392683714628219604e-02
1.061040088534355164e-01
1.160976663231849670e-01
-4.123717918992042542e-02
-7.941210269927978516e-02
2.978729642927646637e-02
-1.331996917724609375e-01
-9.044215828180313110e-02
9.216924756765365601e-02
4.823044314980506897e-02
-1.511236876249313354e-01
-1.426021754741668701e-01
1.384523212909698486e-01
-4.596117883920669556e-02
7.932540029287338257e-02
4.572468996047973633e-02
-1.599273234605789185e-01
8.077798783779144287e-02
-3.778638690710067749e-02
4.057268798351287842e-02
1.256439685821533203e-01
1.780077442526817322e-02
-2.326522022485733032e-02
-1.244067251682281494e-01
9.600683697499334812e-04
-2.022359520196914673e-01
-1.728135943412780762e-01
-7.426572591066360474e-02
-2.471463382244110107e-02
-1.306992471218109131e-01
1.496212333440780640e-01
-5.313352867960929871e-02
7.492008805274963379e-02
1.892739981412887573e-01
-9.744382463395595551e-03
2.401330694556236267e-02
1.399377174675464630e-02
1.476134657859802246e-01
-1.306006163358688354e-01
-2.219390682876110077e-02
-8.759207278490066528e-02
-6.045899540185928345e-02
-7.263004034757614136e-02
-1.290731877088546753e-01
1.627778708934783936e-01
1.017317399382591248e-01
1.060317754745483398e-01
8.506126701831817627e-02
1.158119062893092632e-03
4.378248751163482666e-02
-1.452094018459320068e-01
-3.078096173703670502e-02
-5.197959393262863159e-02
1.646650582551956177e-01
-4.664648324251174927e-02
-5.426927283406257629e-02
-9.403831511735916138e-02
7.739214599132537842e-02
-3.234227374196052551e-02
1.523479968309402466e-01
2.044152840971946716e-02
5.550747364759445190e-02
8.618305623531341553e-02
-6.519708782434463501e-02
-1.963628083467483521e-01
-6.422611419111490250e-03
-9.620851278305053711e-02
5.814137309789657593e-02
2.819543890655040741e-02
-1.396471560001373291e-01
-6.486961245536804199e-02
8.686158061027526855e-02
-1.731889694929122925e-01
9.479258209466934204e-02
-1.050226315855979919e-01
1.541726142168045044e-01
1.448177248239517212e-01
1.145665347576141357e-02
1.479400396347045898e-01
-2.035959623754024506e-02
-6.574654579162597656e-02
-2.756903646513819695e-03
5.501746013760566711e-02
1.061206758022308350e-01
1.294847875833511353e-01
5.916380882263183594e-02
7.685017585754394531e-02
-6.914156675338745117e-02
7.435801625251770020e-02
1.843874342739582062e-02
-1.674350649118423462e-01
-8.031584438867866993e-04
2.623499929904937744e-02
3.820612654089927673e-02
-2.454032190144062042e-02
1.234671846032142639e-01
7.851376384496688843e-02
5.866667628288269043e-02
6.137921288609504700e-02
1.604305058717727661e-01
8.397278934717178345e-02
-9.700072929263114929e-03
2.411729097366333008e-02
-4.623281583189964294e-02
-9.921567887067794800e-02
-1.686155498027801514e-01
1.435936838388442993e-01
1.449880599975585938e-01
9.503745473921298981e-03
1.669353097677230835e-01
-1.065542101860046387e-01
-1.401394158601760864e-01
1.226826012134552002e-01
-3.935296460986137390e-02
-4.977897927165031433e-02
-1.008707508444786072e-01
-8.303572982549667358e-02
1.321471482515335083e-01
-4.287777468562126160e-02
-8.814235776662826538e-02
8.002666383981704712e-02
-5.968134477734565735e-02
-1.034924164414405823e-01
1.284483522176742554e-01
-1.188376396894454956e-01
-1.129612773656845093e-01
8.307707309722900391e-02
1.380336135625839233e-01
-1.663922704756259918e-02
-1.030603051185607910e-01
1.462708264589309692e-01
9.108680486679077148e-02
-1.595983356237411499e-01
-1.793531924486160278e-01
7.812658697366714478e-02
-8.790051564574241638e-03
-1.782320588827133179e-01
-8.282613009214401245e-02
1.057795509696006775e-01
3.585748001933097839e-02
-4.173347726464271545e-02
8.368480950593948364e-02
3.033493459224700928e-02
-1.175061985850334167e-01
-1.327646374702453613e-01
1.331750601530075073e-01
-6.974312663078308105e-02
-1.130288690328598022e-01
-4.820292443037033081e-02
-7.320806384086608887e-02
-1.565290242433547974e-01
-1.352720111608505249e-01
1.853350549936294556e-01
-7.584887742996215820e-02
-5.889576859772205353e-03
-3.158776089549064636e-02
1.135296598076820374e-01
7.032499462366104126e-02
-7.344935834407806396e-02
5.371383205056190491e-02
7.720422465354204178e-03
-2.466698177158832550e-02
2.489181235432624817e-02
1.137933414429426193e-02
1.377309113740921021e-01
-9.342116117477416992e-02
-1.004924997687339783e-01
-4.758839309215545654e-02
3.720721229910850525e-02
-1.502955257892608643e-01
-1.620617322623729706e-02
-5.742479115724563599e-03
-1.011582314968109131e-01
-5.118101090192794800e-02
1.040761396288871765e-01
1.536119282245635986e-01
1.407317519187927246e-01
-7.050955295562744141e-02
-4.278251901268959045e-02
-6.401776522397994995e-02
-1.442052423954010010e-02
-3.881869092583656311e-02
-6.570529937744140625e-02
-1.351787149906158447e-01
4.095509648323059082e-02
-2.348081022500991821e-02
-6.193513795733451843e-02
-1.355918943881988525e-01
8.758893609046936035e-02
1.811839193105697632e-01
-8.788182586431503296e-02
-1.624284125864505768e-02
9.236806631088256836e-02
6.985607743263244629e-02
2.543276920914649963e-02
-1.851865351200103760e-01
1.379532068967819214e-01
-1.505309194326400757e-01
-5.169909447431564331e-03
2.607842348515987396e-02
1.041765208356082439e-03
9.937722235918045044e-03
-1.048321351408958435e-01
1.748571693897247314e-01
-3.020872175693511963e-02
8.542587608098983765e-02
-7.726985216140747070e-02
9.196415543556213379e-02
-2.066416852176189423e-02
-7.178010791540145874e-02
4.666997864842414856e-02
4.004799202084541321e-02
-4.906731471419334412e-02
-4.107611998915672302e-02
-1.675355583429336548e-01
4.401889070868492126e-02
-1.320184208452701569e-02
1.044367477297782898e-01
1.602208912372589111e-01
-1.302071958780288696e-01
-6.040976941585540771e-02
1.037594676017761230e-01
-9.386638551950454712e-02
-1.173581331968307495e-01
-1.613048911094665527e-01
1.809963025152683258e-02
5.585296452045440674e-02
-3.278166055679321289e-03
9.316558390855789185e-02
-1.049889810383319855e-02
4.035397246479988098e-02
9.607376158237457275e-02
8.731704950332641602e-02
-1.070460379123687744e-01
1.346524432301521301e-02
-4.797011497430503368e-04
-6.783503293991088867e-02
5.067004822194576263e-03
6.966432929039001465e-02
-1.028720661997795105e-02
-1.445003002882003784e-01
-5.280237644910812378e-02
-2.479296177625656128e-02
1.111695989966392517e-01
-4.643054306507110596e-02
5.897559225559234619e-02
1.323758624494075775e-02
3.331714496016502380e-02
-1.134441047906875610e-01
-1.861444413661956787e-01
-4.037486389279365540e-02
-1.164426058530807495e-01
-1.587092429399490356e-01
9.939868748188018799e-02
2.326488122344017029e-02
-1.371817141771316528e-01
2.469727210700511932e-02
7.139462232589721680e-02
-5.267615988850593567e-02
1.616643369197845459e-01
-7.015600055456161499e-02
1.047466546297073364e-01
-1.010670326650142670e-02
-2.363171800971031189e-02
9.564302116632461548e-02
-1.387221813201904297e-01
2.934948727488517761e-02
8.287467807531356812e-02
8.265156298875808716e-02
-5.807799845933914185e-02
-4.302114620804786682e-02
1.267476286739110947e-02
-1.027373299002647400e-01
1.558007393032312393e-02
1.761079281568527222e-01
8.592370152473449707e-02
-1.258020251989364624e-01
-1.722184270620346069e-01
3.325390070676803589e-02
-1.825307682156562805e-02
1.768781691789627075e-01
4.484800249338150024e-02
-4.363106936216354370e-02
1.019008085131645203e-01
6.145977228879928589e-02
-1.390499770641326904e-01
7.469869405031204224e-02
-4.864591732621192932e-02
-1.318900287151336670e-01
4.839706420898437500e-02
1.271446943283081055e-01
1.029540821909904480e-01
1.608103066682815552e-01
1.205267310142517090e-01
-6.579411029815673828e-02
1.694117784500122070e-01
-9.594490379095077515e-02
3.345893695950508118e-02
7.514875847846269608e-03
-1.542192250490188599e-01
1.011976003646850586e-01
-6.164028868079185486e-02
1.272491514682769775e-01
-7.377412915229797363e-02
3.393356502056121826e-02
2.103163674473762512e-02
4.019631072878837585e-02
1.552663594484329224e-01
-9.081441164016723633e-02
-9.187605977058410645e-02
-9.637956321239471436e-02
-1.053686216473579407e-01
1.384521424770355225e-01
1.051326021552085876e-01
4.596658516675233841e-03
-5.878895148634910583e-02
-7.596836239099502563e-02
-8.202975243330001831e-02
3.865604475140571594e-02
9.474933892488479614e-02
-2.320784889161586761e-02
-1.970207132399082184e-02
-9.724508970975875854e-02
-3.087404370307922363e-02
-1.825535446405410767e-01
5.485858768224716187e-02
9.230965375900268555e-02
1.121598556637763977e-01
1.621251739561557770e-02
1.859479695558547974e-01
-7.352637499570846558e-02
-4.709379002451896667e-02
-1.286723315715789795e-01
-1.591628976166248322e-02
3.409026935696601868e-02
-1.624206602573394775e-01
1.996491849422454834e-01
-1.153128296136856079e-01
-1.056808456778526306e-01
1.020685955882072449e-01
-1.754363030195236206e-01
-1.712919473648071289e-01
-1.407709419727325439e-01
2.324497327208518982e-02
1.601185053586959839e-01
-1.377399079501628876e-02
4.324276745319366455e-02
1.437950581312179565e-01
7.307544350624084473e-02
-1.477606445550918579e-01
1.081165149807929993e-01
1.234343871474266052e-01
1.881593316793441772e-01
1.095486152917146683e-02
-8.865058422088623047e-02
-1.265776306390762329e-01
-5.646283179521560669e-02
-8.298518508672714233e-02
1.500829607248306274e-01
-4.529257863759994507e-02
3.663893043994903564e-02
-6.710319966077804565e-02
8.462288230657577515e-02
2.802290208637714386e-02
-1.019050702452659607e-01
-4.617175459861755371e-02
-4.226575605571269989e-03
-9.485191106796264648e-02
1.206203252077102661e-01
-3.055199608206748962e-02
2.255560271441936493e-02
-3.735565021634101868e-02
1.008725538849830627e-01
-1.325351446866989136e-01
-9.705750271677970886e-03
1.272044181823730469e-01
7.481396943330764771e-02
-6.428163498640060425e-02
2.705332450568675995e-02
-1.084667295217514038e-01
7.433064281940460205e-02
-1.023611426353454590e-01
4.995331168174743652e-02
-1.492128670215606689e-01
1.386201661080121994e-02
1.436534672975540161e-01
1.551203709095716476e-02
1.369666010141372681e-01
-6.445959955453872681e-02
1.321478933095932007e-01
-8.979102224111557007e-02
4.469338059425354004e-02
5.011478811502456665e-02
-1.396227627992630005e-01
-2.027825638651847839e-02
-1.366994380950927734e-01
8.322932571172714233e-02
6.566143780946731567e-02
5.680468305945396423e-02
-1.104302424937486649e-02
1.579590588808059692e-01
-7.684003561735153198e-02
1.353000700473785400e-01
1.096980720758438110e-01
5.790388584136962891e-02
-2.896246500313282013e-02
8.858696371316909790e-02
-3.421353921294212341e-02
-1.200078427791595459e-02
-3.522130474448204041e-02
2.029336094856262207e-01
-1.811712980270385742e-01
2.016519159078598022e-01
1.065249927341938019e-02
1.197369769215583801e-01
2.834851667284965515e-02
-5.249001085758209229e-03
6.923874840140342712e-03
1.168701648712158203e-01
1.283755642361938953e-03
-9.145330637693405151e-03
-6.517620384693145752e-02
-1.577219665050506592e-01
5.715469364076852798e-03
2.593647222965955734e-04
4.401503875851631165e-02
4.530745372176170349e-02
9.643218666315078735e-02
-6.943061202764511108e-02
-1.874543167650699615e-02
-1.029943376779556274e-01
-1.577220857143402100e-01
1.362879723310470581e-01
1.658894270658493042e-01
-1.268410533666610718e-01
-1.773782521486282349e-01
1.591322124004364014e-01
-1.353733800351619720e-02
1.717333495616912842e-01
-2.029314823448657990e-02
1.488939970731735229e-01
-7.678297162055969238e-02
1.418178677558898926e-01
1.055289134383201599e-01
-7.526659965515136719e-02
-1.087693050503730774e-01
-1.681373566389083862e-01
-1.680663377046585083e-01
1.570933461189270020e-01
-1.499917358160018921e-01
-1.004878357052803040e-01
2.143332362174987793e-02
2.077990770339965820e-02
-9.341929107904434204e-02
-7.448717951774597168e-02
3.035312145948410034e-02
-4.243376851081848145e-02
-7.467600703239440918e-02
-1.175095811486244202e-01
6.481272727251052856e-02
1.316335499286651611e-01
-2.153093181550502777e-02
-1.101048365235328674e-01
-1.466906815767288208e-01
-6.867107003927230835e-02
1.811837404966354370e-01
4.548067692667245865e-03
-5.703938659280538559e-03
1.441579014062881470e-01
-1.590029895305633545e-01
1.537758857011795044e-01
5.645078793168067932e-02
3.410814329981803894e-02
-4.798985086381435394e-03
1.455696970224380493e-01
-1.238300278782844543e-01
-3.188237547874450684e-02
-2.843368612229824066e-02
-8.896634727716445923e-02
1.875773817300796509e-02
4.731239750981330872e-02
-3.306073695421218872e-02
-3.540935739874839783e-02
-4.396625980734825134e-02
1.898021996021270752e-02
-1.832363903522491455e-01
-6.813250482082366943e-02
-1.778970658779144287e-02
1.407824158668518066e-01
-1.277547180652618408e-01
1.159825623035430908e-01
1.378653347492218018e-01
4.051282256841659546e-02
-9.923265129327774048e-02
3.359224647283554077e-02
-1.204900443553924561e-01
1.530377268791198730e-01
-5.622785538434982300e-02
-4.610574245452880859e-02
1.655015349388122559e-01
-3.261207416653633118e-02
1.076529398560523987e-01
-6.630726158618927002e-02
2.006683498620986938e-02
-5.804084241390228271e-02
