-9.101700037717819214e-02
-2.355744130909442902e-02
2.698646485805511475e-02
-3.192542493343353271e-02
1.907678507268428802e-02
-8.387507870793342590e-03
-6.891690939664840698e-02
-4.656990524381399155e-03
-4.375855904072523117e-03
4.106502048671245575e-03
-1.541445311158895493e-02
-5.873851478099822998e-02
4.673242196440696716e-02
6.131812464445829391e-03
-1.730308518745005131e-03
1.068971212953329086e-02
-1.353055518120527267e-02
-8.764137327671051025e-02
-2.400807291269302368e-02
-5.392744019627571106e-02
-7.175245881080627441e-02
-2.047023735940456390e-03
-1.885735616087913513e-02
2.662808820605278015e-02
-8.117401041090488434e-03
-2.944167703390121460e-02
-2.138220146298408508e-02
-7.831022888422012329e-02
-5.430357158184051514e-02
-2.023523906245827675e-03
2.417933009564876556e-02
-6.579150911420583725e-03
-3.646792471408843994e-02
-4.618137329816818237e-02
-3.295464813709259033e-02
7.938624359667301178e-03
-5.397088825702667236e-02
-3.896280378103256226e-02
-7.818706333637237549e-02
-1.103177759796380997e-02
-4.972371086478233337e-02
-1.729278825223445892e-02
1.980977877974510193e-02
-2.069648168981075287e-02
-8.317843824625015259e-02
3.235019370913505554e-02
4.546028096228837967e-03
-9.000654518604278564e-02
-6.301333196461200714e-03
-4.192790389060974121e-02
-4.107546061277389526e-02
-7.760574668645858765e-02
-1.864124462008476257e-02
1.409262232482433319e-02
-4.926514625549316406e-02
-7.428348809480667114e-02
-3.586676716804504395e-02
3.851679340004920959e-02
8.088460192084312439e-03
-3.473936766386032104e-02
-2.910674177110195160e-02
-5.454910174012184143e-02
-4.884002846665680408e-04
1.937814668053761125e-04
-1.548013463616371155e-02
-1.122959181666374207e-01
-1.317545622587203979e-01
2.810014411807060242e-02
-5.182556062936782837e-02
2.033912204205989838e-02
-3.110870718955993652e-02
-5.924759805202484131e-02
-4.737508296966552734e-02
-6.401973962783813477e-02
-4.774377122521400452e-02
-4.163998365402221680e-02
-6.114006787538528442e-02
1.842024177312850952e-02
-2.940569072961807251e-02
-2.042826078832149506e-02
-4.156607761979103088e-02
-1.250196620821952820e-02
-1.340913120657205582e-03
-3.149433806538581848e-02
2.273037470877170563e-02
2.795594371855258942e-02
2.924344688653945923e-02
1.737247221171855927e-02
-3.519774973392486572e-02
-9.192072600126266479e-02
-9.771824814379215240e-03
-9.842661023139953613e-02
2.475457638502120972e-02
2.443736232817173004e-02
-6.981594115495681763e-02
2.634450560435652733e-03
-1.017749980092048645e-01
-5.028825253248214722e-02
2.511861966922879219e-03
-1.252230443060398102e-02
1.065758895128965378e-02
3.116754628717899323e-02
-3.628322854638099670e-02
1.397261489182710648e-02
-3.492187708616256714e-02
-5.347476527094841003e-02
-8.428457379341125488e-02
3.012668900191783905e-02
-3.758473321795463562e-02
-5.176198109984397888e-02
1.642115600407123566e-02
-9.861246682703495026e-03
-9.172327816486358643e-03
1.240365765988826752e-02
2.080927975475788116e-02
8.849576115608215332e-03
-5.565542378462851048e-04
-2.825581468641757965e-02
1.628792844712734222e-02
9.044192731380462646e-03
2.583850873634219170e-03
-4.276850074529647827e-02
-1.914797909557819366e-02
-6.366937607526779175e-02
-6.806552410125732422e-03
-8.099024742841720581e-02
3.686403855681419373e-02
1.048850547522306442e-02
-8.045770227909088135e-02
-6.506423652172088623e-02
-2.893652021884918213e-02
1.932616531848907471e-02
-2.352213952690362930e-03
1.172405108809471130e-02
-5.990166962146759033e-02
-4.495781660079956055e-02
5.545080639421939850e-03
-4.351517185568809509e-02
1.342321373522281647e-02
3.435715660452842712e-02
-2.292863465845584869e-02
4.729464184492826462e-03
-9.271702915430068970e-02
-2.372418297454714775e-03
6.616598367691040039e-02
2.452112734317779541e-02
2.523704245686531067e-02
-4.497916251420974731e-02
-4.103331267833709717e-02
-2.951756678521633148e-02
-3.730390965938568115e-02
1.353644207119941711e-02
-7.305852323770523071e-02
-1.442946959286928177e-02
-5.761845037341117859e-02
-1.305737625807523727e-02
1.596057415008544922e-02
-8.243577927350997925e-02
-5.820856243371963501e-02
-7.713837921619415283e-02
-5.524375662207603455e-02
1.932911947369575500e-02
2.127579040825366974e-02
-2.440609969198703766e-02
-4.297422245144844055e-02
-2.370313927531242371e-02
1.820109412074089050e-02
-5.318179354071617126e-02
-4.916033893823623657e-02
-2.580639161169528961e-02
-2.474646270275115967e-02
-8.099656552076339722e-02
-4.376684501767158508e-02
-5.638826638460159302e-02
-6.396192312240600586e-02
3.000732697546482086e-02
1.139359083026647568e-03
1.788388006389141083e-02
-5.201622471213340759e-02
-1.227233931422233582e-02
-2.603018656373023987e-02
-3.378410637378692627e-02
-6.115551665425300598e-02
-6.436949968338012695e-02
-6.342392414808273315e-02
-9.150196611881256104e-02
3.738293889909982681e-03
-1.232214621268212795e-03
-2.774708205834031105e-03
-5.456403642892837524e-02
4.238112829625606537e-03
-1.117690559476613998e-02
-1.227061077952384949e-02
1.918697543442249298e-02
2.123604714870452881e-02
9.404165670275688171e-03
-3.759486228227615356e-02
-1.432459522038698196e-02
-1.505359727889299393e-02
3.140443935990333557e-02
-3.409838303923606873e-03
-6.159698963165283203e-02
-7.245822250843048096e-02
-4.320719093084335327e-02
8.893778547644615173e-03
-5.973020568490028381e-02
-4.351194947957992554e-02
-4.256910458207130432e-02
-5.072182789444923401e-02
3.047337941825389862e-02
-6.694422103464603424e-03
-2.421843446791172028e-02
-5.581417679786682129e-02
3.086625132709741592e-03
5.299153551459312439e-02
-3.854550421237945557e-02
-7.400891184806823730e-02
-4.720786586403846741e-02
-1.858567073941230774e-02
-4.455870762467384338e-02
6.241074297577142715e-03
-3.110936656594276428e-02
3.642064332962036133e-02
-7.577402889728546143e-02
-4.447989165782928467e-02
1.771137677133083344e-02
3.547335043549537659e-02
1.857187040150165558e-02
1.912723481655120850e-02
1.067475043237209320e-02
-4.353393614292144775e-02
-5.125813186168670654e-02
7.276865839958190918e-02
-7.193141430616378784e-02
1.804443658329546452e-03
1.105660572648048401e-02
-6.192529574036598206e-02
-6.917917728424072266e-02
-4.311568627599626780e-04
-5.532338097691535950e-02
-2.534829638898372650e-02
-2.403656765818595886e-02
2.635733038187026978e-02
-3.624009434133768082e-03
-4.226392135024070740e-02
-8.005189895629882812e-02
-2.446091920137405396e-02
-4.306377377361059189e-03
-2.666392596438527107e-03
2.029298432171344757e-02
-1.728504663333296776e-03
-1.041155774146318436e-02
-1.665930636227130890e-02
4.877519328147172928e-03
3.625489771366119385e-02
-3.272826969623565674e-02
