-1.550946533679962158e-01
-1.929992809891700745e-02
-3.821689262986183167e-02
8.314599841833114624e-02
7.535406947135925293e-02
-4.246866703033447266e-02
-6.273459177464246750e-03
-1.266359984874725342e-01
6.006713956594467163e-02
-2.687445143237709999e-03
-3.765266016125679016e-02
1.107461079955101013e-01
-6.210627779364585876e-02
7.051127403974533081e-02
-5.529191344976425171e-02
-2.290787547826766968e-02
-7.658183574676513672e-02
-5.848469212651252747e-02
-1.160927210003137589e-02
2.288137190043926239e-02
3.402984514832496643e-02
2.286892570555210114e-02
-1.698811771348118782e-03
1.436819583177566528e-01
-7.421267032623291016e-02
3.420181199908256531e-02
-7.747241854667663574e-02
3.649089112877845764e-02
2.936664968729019165e-02
-1.130634695291519165e-01
-9.355198591947555542e-02
-5.443028174340724945e-03
-5.632025003433227539e-02
-5.964819714426994324e-02
-6.664766371250152588e-02
-4.873719438910484314e-02
-9.742145426571369171e-03
-5.908784270286560059e-02
1.908096484839916229e-02
-4.668390378355979919e-02
-7.624255120754241943e-02
-4.214193613734096289e-04
-3.260351717472076416e-02
-7.166448980569839478e-02
2.301927097141742706e-02
2.869614586234092712e-02
-7.535262964665889740e-03
-1.365543156862258911e-02
4.584819078445434570e-02
4.467527568340301514e-02
-2.854927442967891693e-02
1.135099604725837708e-01
4.012813419103622437e-02
1.046966984868049622e-01
1.571893393993377686e-01
9.701263159513473511e-03
2.422159165143966675e-02
1.346754580736160278e-01
-1.143470779061317444e-01
1.264840946532785892e-03
-4.615082219243049622e-02
4.552840441465377808e-02
3.406023606657981873e-02
3.553457930684089661e-02
1.046420037746429443e-01
-8.922464400529861450e-02
2.270161546766757965e-02
-2.301990054547786713e-02
2.317934110760688782e-02
-8.573494851589202881e-02
-6.326959282159805298e-02
-4.728237167000770569e-02
-8.706924505531787872e-03
-1.074448600411415100e-01
3.779172152280807495e-02
-7.062825560569763184e-02
-5.447183921933174133e-02
-4.090310260653495789e-02
3.324127942323684692e-02
-5.389864370226860046e-02
7.646190933883190155e-03
5.195625126361846924e-02
1.178780384361743927e-02
-7.498276419937610626e-03
-1.631277240812778473e-02
-8.077528327703475952e-02
2.918964624404907227e-02
4.443573951721191406e-02
6.847622245550155640e-02
-9.653822635300457478e-04
-1.515988633036613464e-02
5.575994029641151428e-02
3.991680964827537537e-02
-3.306264989078044891e-03
-8.055659942328929901e-03
-7.908570766448974609e-02
3.120363503694534302e-02
9.003089740872383118e-03
2.881855005398392677e-03
1.117665786296129227e-02
6.158571317791938782e-02
-2.654181607067584991e-02
-4.639483988285064697e-02
6.457591056823730469e-02
8.069238066673278809e-02
-4.430579487234354019e-03
-8.007766306400299072e-02
4.047657363116741180e-03
-5.599348992109298706e-02
7.830794155597686768e-02
-7.787559181451797485e-02
1.062221638858318329e-02
-4.124152008444070816e-03
1.560986600816249847e-02
-6.994234025478363037e-02
-3.593692556023597717e-02
5.358858034014701843e-02
1.021823957562446594e-01
-2.920806035399436951e-02
3.374814987182617188e-02
-7.199550420045852661e-02
3.084437735378742218e-02
4.175452515482902527e-02
2.792350202798843384e-02
9.323082119226455688e-02
1.004749462008476257e-01
-1.125363186001777649e-01
4.858536180108785629e-03
-1.907748728990554810e-02
-4.009527154266834259e-03
-6.242458149790763855e-02
6.977527588605880737e-02
-5.449283495545387268e-02
-2.263787388801574707e-02
7.441826164722442627e-02
-2.181422710418701172e-02
-6.489362567663192749e-03
-7.774104923009872437e-02
2.338351309299468994e-02
2.931641787290573120e-02
-4.324240610003471375e-02
-5.672745779156684875e-02
2.823259122669696808e-02
1.330512575805187225e-02
-4.354632273316383362e-02
-4.671177640557289124e-02
-1.033658441156148911e-02
-8.773154765367507935e-02
1.232975646853446960e-01
5.141047388315200806e-02
5.737516656517982483e-02
2.364421449601650238e-02
-6.071510910987854004e-02
5.094121769070625305e-02
3.672204166650772095e-02
7.961760461330413818e-02
-6.961461901664733887e-02
-3.375815227627754211e-02
2.653829194605350494e-02
5.808267276734113693e-03
1.646224409341812134e-01
-4.003263264894485474e-02
1.889548078179359436e-02
-1.194327846169471741e-01
1.250425577163696289e-01
-3.459140285849571228e-02
-5.063088238239288330e-02
-1.054355427622795105e-01
1.165905129164457321e-02
-3.391560539603233337e-02
-8.625591546297073364e-02
-4.782758653163909912e-02
7.238481938838958740e-02
-5.847942829132080078e-02
-2.870482625439763069e-03
-7.963130250573158264e-03
2.674027346074581146e-02
7.319235708564519882e-03
9.843809157609939575e-02
-3.203583136200904846e-02
-6.617917865514755249e-02
-1.843357225880026817e-03
4.652828350663185120e-02
3.757633268833160400e-02
3.158784285187721252e-02
2.100561186671257019e-02
-2.079665288329124451e-02
2.929495833814144135e-02
1.051252707839012146e-01
3.884753584861755371e-02
-1.447344198822975159e-02
9.595517814159393311e-02
-6.665304303169250488e-03
3.606284409761428833e-02
1.786635071039199829e-02
9.268166613765060902e-04
-6.217243894934654236e-02
-5.450512096285820007e-02
-3.404534980654716492e-02
-1.489864289760589600e-01
7.432677596807479858e-02
-1.065476387739181519e-01
-2.996684052050113678e-02
9.521827101707458496e-02
-8.725226856768131256e-03
-3.787655755877494812e-02
-8.457343094050884247e-03
5.365060642361640930e-02
4.258439689874649048e-02
-1.344969272613525391e-01
4.562146030366420746e-03
-1.295217964798212051e-02
-1.674349792301654816e-02
8.382334560155868530e-02
8.740944415330886841e-02
-2.557150088250637054e-02
1.080233007669448853e-01
3.372534736990928650e-02
1.981217041611671448e-02
4.024372622370719910e-02
-1.596353761851787567e-02
6.535096466541290283e-02
-1.195889413356781006e-01
2.510163746774196625e-02
1.314602047204971313e-01
-2.450588718056678772e-02
4.973762854933738708e-02
2.609561756253242493e-02
-9.346779435873031616e-02
-6.000818219035863876e-03
-5.745556950569152832e-02
-8.381266891956329346e-02
-6.571216136217117310e-02
-6.394558586180210114e-04
2.739266678690910339e-02
-1.054982282221317291e-02
-6.391169503331184387e-03
6.231639906764030457e-02
-6.036981940269470215e-02
-1.139128953218460083e-01
1.475689653307199478e-02
-3.473965451121330261e-02
1.005261763930320740e-01
3.895010054111480713e-02
-2.608964219689369202e-02
-1.021069241687655449e-03
-4.992078244686126709e-02
-4.985539987683296204e-02
-6.846238672733306885e-02
4.963678866624832153e-02
3.882470354437828064e-02
-5.152681842446327209e-02
-7.124991714954376221e-02
4.728139378130435944e-03
-1.219077222049236298e-02
5.001401156187057495e-02
-5.239813402295112610e-02
-1.828031986951828003e-02
2.721094153821468353e-02
-5.497239902615547180e-02
3.811710327863693237e-02
2.121748775243759155e-02
9.371992200613021851e-02
-2.955088019371032715e-02
1.094197183847427368e-01
-6.560403853654861450e-02
-7.244888693094253540e-02
4.148149117827415466e-02
-4.836059361696243286e-02
2.774105779826641083e-02
9.502430260181427002e-02
-8.359460532665252686e-02
1.470409147441387177e-02
-2.012470811605453491e-01
-7.846824079751968384e-02
4.671793058514595032e-02
-6.223147362470626831e-02
7.317275553941726685e-02
1.768069714307785034e-02
-3.145990148186683655e-02
-4.260084778070449829e-02
9.182320907711982727e-03
-3.278713300824165344e-02
-2.345022559165954590e-02
-2.314442954957485199e-02
-1.971544139087200165e-02
2.355298725888133049e-03
-6.534162908792495728e-02
-1.313931941986083984e-01
-1.605314016342163086e-02
-6.439601629972457886e-02
3.590586036443710327e-02
-5.719625949859619141e-02
4.673778638243675232e-02
1.963924430310726166e-02
4.710937291383743286e-02
1.032639062032103539e-03
-2.007563039660453796e-02
-5.495788529515266418e-02
-5.202159285545349121e-02
-4.910930618643760681e-02
-2.746074169408529997e-04
-2.119060419499874115e-02
-1.457206755876541138e-01
1.051309555768966675e-01
-1.090559177100658417e-02
2.402108535170555115e-02
-4.233951121568679810e-02
9.114192426204681396e-02
1.467958092689514160e-02
5.495639517903327942e-02
-3.468089178204536438e-02
3.308015316724777222e-02
-2.031138725578784943e-02
-7.890829443931579590e-02
-4.026716575026512146e-02
1.735310256481170654e-02
-9.902651607990264893e-02
-1.311217434704303741e-02
-4.103099927306175232e-02
-1.133445091545581818e-02
-2.352764457464218140e-02
-2.627093344926834106e-02
1.141003593802452087e-01
-1.106805056333541870e-01
6.638202816247940063e-02
1.147415563464164734e-01
7.267221063375473022e-02
7.491503655910491943e-02
6.917607784271240234e-02
-5.983234196901321411e-02
2.251650951802730560e-02
-1.653170734643936157e-01
-3.584529459476470947e-02
-1.199475824832916260e-01
5.297737196087837219e-02
8.091494441032409668e-02
-4.210803657770156860e-02
-3.769936505705118179e-03
-5.083603784441947937e-02
-9.500658139586448669e-03
-1.362980157136917114e-01
5.561845004558563232e-02
-1.239824108779430389e-02
1.128629297018051147e-01
-4.391878377646207809e-03
2.138719707727432251e-02
-3.882934898138046265e-02
9.308409690856933594e-02
2.362543018534779549e-03
-1.538707315921783447e-02
9.581062197685241699e-02
-7.742570247501134872e-03
1.426680665463209152e-02
1.043449388816952705e-03
-5.666193738579750061e-02
1.119198948144912720e-01
1.914986060000956059e-03
6.644707755185663700e-04
-4.836925119161605835e-02
8.742874860763549805e-02
-2.089247107505798340e-03
-2.680204063653945923e-02
-1.851473748683929443e-02
1.223806105554103851e-02
-1.292474335059523582e-03
-9.856776334345340729e-03
6.073155999183654785e-02
7.381330430507659912e-02
-3.762899339199066162e-02
-2.370079420506954193e-02
-1.715866290032863617e-02
2.336838841438293457e-02
6.178218871355056763e-02
-6.137753650546073914e-02
-2.997117862105369568e-02
1.203889250755310059e-01
6.796593964099884033e-02
-7.666737772524356842e-03
3.627300634980201721e-02
2.019952237606048584e-02
-4.729459062218666077e-02
1.041994430124759674e-03
-8.671580813825130463e-03
-5.243676900863647461e-02
-7.534991949796676636e-02
-3.892835229635238647e-02
-4.011827334761619568e-02
-8.794936351478099823e-03
8.663231134414672852e-02
-2.634750120341777802e-02
3.789256885647773743e-02
2.799388580024242401e-02
5.079428851604461670e-02
-2.643570676445960999e-02
-9.327155351638793945e-02
9.588476386852562428e-04
1.483691632747650146e-01
1.005266681313514709e-01
-3.331145644187927246e-02
1.499607041478157043e-02
-8.458031713962554932e-02
7.117214053869247437e-02
-2.106164209544658661e-02
-6.955672800540924072e-02
-5.604196805506944656e-03
5.314615368843078613e-02
-1.237298026680946350e-01
-7.081608474254608154e-02
2.352263964712619781e-02
-4.006499052047729492e-02
3.211660683155059814e-02
6.573568284511566162e-02
5.004459246993064880e-02
4.144285991787910461e-02
9.389130771160125732e-02
-7.240000367164611816e-02
-1.811447204090654850e-03
-1.745492033660411835e-02
1.234110910445451736e-03
1.128254532814025879e-01
-1.270300745964050293e-01
1.511955074965953827e-02
-1.894279569387435913e-02
8.907062932848930359e-03
-9.979874640703201294e-02
-1.034993454813957214e-01
-3.162259235978126526e-02
-2.571505680680274963e-02
3.503572195768356323e-02
-5.548397824168205261e-02
-7.020579278469085693e-02
-3.547738306224346161e-03
-4.342848435044288635e-02
4.144104942679405212e-02
-1.222195029258728027e-01
-3.793689829763025045e-04
-6.006956472992897034e-02
2.942173182964324951e-02
3.884302079677581787e-02
2.008557878434658051e-02
4.036867991089820862e-02
-3.504458069801330566e-02
-5.605174228549003601e-02
-6.977720558643341064e-02
-1.604983210563659668e-02
1.588731445372104645e-02
-1.151257157325744629e-01
1.350440667010843754e-03
-5.261307209730148315e-02
1.432266552001237869e-02
8.641076087951660156e-02
-3.087818389758467674e-03
9.839612990617752075e-02
-5.971440987195819616e-05
3.776996955275535583e-02
6.885477900505065918e-02
-1.358197350054979324e-02
-3.697393834590911865e-02
-4.664248973131179810e-02
-4.339101910591125488e-02
3.207755740731954575e-03
-1.163707114756107330e-02
-7.966618239879608154e-02
4.323869571089744568e-02
8.040231466293334961e-02
1.116957217454910278e-01
3.068632259964942932e-02
-6.610064208507537842e-02
3.143332526087760925e-02
-1.004564389586448669e-01
4.859669134020805359e-03
4.145521670579910278e-02
1.644193008542060852e-02
1.270660459995269775e-01
1.020737960934638977e-01
1.009735930711030960e-02
-7.510539144277572632e-03
1.215664949268102646e-02
2.819511294364929199e-02
-1.177314110100269318e-02
5.295589193701744080e-02
1.474272646009922028e-02
-2.491818927228450775e-02
2.687391452491283417e-02
6.008712202310562134e-02
1.198679115623235703e-02
-5.534118390642106533e-04
-1.018505394458770752e-01
-6.897236406803131104e-02
-2.869969047605991364e-02
5.337395146489143372e-02
5.411409959197044373e-02
1.280676107853651047e-03
-8.681215345859527588e-02
8.972540497779846191e-02
5.451143905520439148e-02
-8.569429814815521240e-02
-8.425880223512649536e-03
-1.254360307939350605e-03
4.852207005023956299e-02
-3.013285063207149506e-02
-7.587137818336486816e-02
-9.457937628030776978e-02
-9.849676489830017090e-02
1.697833836078643799e-02
6.220813095569610596e-02
5.684648081660270691e-02
-1.218607798218727112e-01
-1.117254123091697693e-01
-4.642336443066596985e-02
-1.052920799702405930e-02
-3.492501005530357361e-02
-4.785256087779998779e-02
-7.974615693092346191e-02
-6.029818952083587646e-02
8.779861032962799072e-03
4.636115394532680511e-03
1.101332134567201138e-03
-1.187407672405242920e-01
6.843224167823791504e-02
-1.243591234087944031e-01
3.538006916642189026e-02
-1.018173620104789734e-01
-7.113051414489746094e-02
1.400489825755357742e-02
1.617601141333580017e-02
-2.014773897826671600e-02
9.870411828160285950e-03
-1.409193221479654312e-02
4.366736486554145813e-02
1.040505617856979370e-01
-6.450533121824264526e-02
5.494395270943641663e-02
-4.606446251273155212e-02
7.141477614641189575e-02
2.856303239241242409e-03
9.561120718717575073e-02
-2.359216101467609406e-02
1.530389785766601562e-01
1.113818213343620300e-01
-5.382043495774269104e-02
-1.528653502464294434e-01
-4.195845127105712891e-02
-3.412815555930137634e-02
-1.125873997807502747e-02
-9.669840335845947266e-02
1.386465132236480713e-02
-3.429440408945083618e-02
7.000811398029327393e-02
-6.367232184857130051e-03
-1.017436385154724121e-02
-5.199097469449043274e-02
-1.160834357142448425e-02
-1.954121887683868408e-02
1.968064717948436737e-02
-8.990433067083358765e-03
-1.352860964834690094e-02
4.729777947068214417e-02
4.272394999861717224e-02
8.810813724994659424e-02
6.155075132846832275e-02
3.949076402932405472e-03
-2.732016704976558685e-02
3.044357337057590485e-02
8.417109027504920959e-03
9.599200636148452759e-02
5.336998496204614639e-03
-4.602458328008651733e-02
3.742545610293745995e-03
2.290503494441509247e-02
-4.686955828219652176e-03
3.153071552515029907e-02
-1.640276238322257996e-02
2.115210751071572304e-03
-4.414189141243696213e-03
7.667089253664016724e-02
7.811520248651504517e-02
1.063965260982513428e-02
-2.578993327915668488e-02
-1.785137504339218140e-02
-4.231946915388107300e-02
1.242213230580091476e-02
-2.390969730913639069e-02
1.076306328177452087e-01
5.566999316215515137e-04
-2.647629566490650177e-02
-1.358707435429096222e-02
-4.022004082798957825e-02
1.240940392017364502e-01
-2.841403894126415253e-02
-6.396584957838058472e-02
-1.353224217891693115e-01
-7.691394537687301636e-02
3.214341029524803162e-02
1.062589213252067566e-01
2.331349812448024750e-02
1.463106423616409302e-01
-7.945709675550460815e-02
1.092682499438524246e-02
1.253516878932714462e-02
1.654227846302092075e-03
6.788841634988784790e-02
-4.864131286740303040e-02
4.273935779929161072e-02
1.062866300344467163e-01
-1.247141435742378235e-01
9.820446372032165527e-02
1.864475314505398273e-03
-1.638638600707054138e-02
-7.132898271083831787e-02
2.442969009280204773e-02
6.105066463351249695e-02
2.901164349168539047e-03
5.599276348948478699e-02
8.022277802228927612e-02
8.173000812530517578e-02
5.790643393993377686e-03
1.288277655839920044e-02
-1.009723544120788574e-02
8.521694689989089966e-03
5.446702614426612854e-02
-8.344555273652076721e-03
-1.335677457973361015e-03
-8.318361639976501465e-02
-1.312955841422080994e-02
-5.010712519288063049e-02
-3.360291197896003723e-02
5.321231111884117126e-02
-1.029038950800895691e-01
3.669678047299385071e-02
-1.722947694361209869e-02
-8.764401078224182129e-03
-6.730640679597854614e-02
-1.823011785745620728e-02
2.255673520267009735e-02
3.402892872691154480e-02
-3.954270854592323303e-02
-4.180181305855512619e-03
3.448240458965301514e-02
3.390004113316535950e-02
2.979895332828164101e-03
1.664497330784797668e-02
-6.187394261360168457e-02
-9.887397289276123047e-02
9.194461256265640259e-02
-4.768113419413566589e-02
-8.403947204351425171e-02
-6.752728670835494995e-02
4.662444442510604858e-02
1.134864091873168945e-01
-5.272696912288665771e-02
6.881938129663467407e-02
-6.685845553874969482e-02
1.143938973546028137e-01
-4.302967712283134460e-02
3.357639908790588379e-02
1.261745691299438477e-01
3.051550313830375671e-02
-6.467936933040618896e-02
2.209412865340709686e-02
1.017211303114891052e-01
-4.491842165589332581e-02
4.988918825984001160e-02
5.316053330898284912e-02
-1.237558107823133469e-02
-4.827691614627838135e-02
-1.153260841965675354e-01
4.208418354392051697e-02
4.167580977082252502e-03
-1.566473767161369324e-02
4.656630754470825195e-02
-4.724431782960891724e-02
4.566873237490653992e-02
4.370620101690292358e-02
-5.127737298607826233e-03
-2.193000912666320801e-02
4.084055777639150620e-03
-2.088133059442043304e-02
1.779169775545597076e-02
-2.313845045864582062e-02
-1.193951070308685303e-02
4.152297601103782654e-02
8.782446384429931641e-02
6.320137530565261841e-02
4.484792798757553101e-02
5.648086778819561005e-03
-9.779377281665802002e-02
-1.488961745053529739e-02
4.573553055524826050e-02
-1.742177456617355347e-02
-5.091854557394981384e-02
-2.338309399783611298e-02
7.862258702516555786e-02
-5.528090149164199829e-02
2.665355056524276733e-02
-9.541520476341247559e-02
2.290384098887443542e-02
3.303094208240509033e-02
1.197799816727638245e-01
7.545880973339080811e-03
-1.844698935747146606e-02
2.714289352297782898e-02
-3.483520075678825378e-02
-3.786107525229454041e-02
6.484933197498321533e-02
-1.014407351613044739e-02
5.698183085769414902e-03
-1.307870745658874512e-01
-4.963228106498718262e-02
-3.098757751286029816e-02
8.641337603330612183e-02
-5.544995889067649841e-02
5.501597002148628235e-02
2.961980365216732025e-02
-1.090550515800714493e-02
8.083588629961013794e-02
-8.546653389930725098e-02
-3.202778846025466919e-02
8.080124855041503906e-02
-4.755665734410285950e-02
-1.066662464290857315e-02
1.216303929686546326e-01
-4.670869186520576477e-02
-3.977569937705993652e-02
5.128300189971923828e-02
-7.067390717566013336e-03
2.265570499002933502e-02
-3.303959965705871582e-02
3.445994108915328979e-02
-8.852925151586532593e-02
-1.251688897609710693e-01
4.561666573863476515e-04
1.889695413410663605e-02
-2.444407530128955841e-02
-3.738349676132202148e-02
1.231717914342880249e-01
3.332527354359626770e-02
6.176792085170745850e-02
-1.977970264852046967e-02
-1.272192224860191345e-02
-4.136935342103242874e-03
-7.692500948905944824e-02
4.269788041710853577e-02
-2.418185770511627197e-02
7.558125257492065430e-02
7.164421677589416504e-02
6.344542652368545532e-02
8.172456175088882446e-03
-1.556865684688091278e-02
6.229848787188529968e-02
1.031096279621124268e-01
5.190012603998184204e-02
-1.150236874818801880e-01
5.613716319203376770e-02
3.986261039972305298e-02
1.011644303798675537e-02
6.641033291816711426e-02
-1.375322788953781128e-02
5.275819450616836548e-02
4.571413993835449219e-02
-2.102948725223541260e-02
4.254356771707534790e-02
-5.531956255435943604e-02
3.258794546127319336e-02
-7.506405562162399292e-02
1.274844631552696228e-03
-6.298136711120605469e-02
