2.390454337000846863e-02
-3.691994026303291321e-02
-4.938070103526115417e-02
4.718368127942085266e-02
-2.659122401382774115e-04
-6.146216765046119690e-02
-4.071335867047309875e-02
-4.763294383883476257e-02
-2.374178357422351837e-02
-4.070445522665977478e-02
-2.656006487086415291e-03
9.988168254494667053e-03
-1.291157584637403488e-02
-2.460418455302715302e-02
-2.001227997243404388e-02
-5.028511583805084229e-02
-5.739161372184753418e-02
-7.702525705099105835e-02
6.049437448382377625e-03
-9.174738079309463501e-03
-1.095885410904884338e-02
-7.901304960250854492e-02
3.894406836479902267e-03
-1.661434210836887360e-02
-3.274557739496231079e-02
-1.606309115886688232e-01
-1.644265279173851013e-02
-1.950021833181381226e-02
-1.028416678309440613e-01
-8.501087129116058350e-02
-3.259735554456710815e-02
2.244225144386291504e-02
-1.264727179659530520e-04
-4.450909793376922607e-02
1.699086278676986694e-02
2.002193033695220947e-02
-6.481133401393890381e-02
-4.268057271838188171e-02
-1.289940997958183289e-02
-4.441501945257186890e-02
-3.667702153325080872e-02
-1.856508781202137470e-03
-3.538743034005165100e-02
-4.095305129885673523e-02
5.315235629677772522e-02
-1.355686690658330917e-02
-1.382971927523612976e-02
-8.351314067840576172e-02
-6.947536021471023560e-02
3.407365828752517700e-02
-1.807000674307346344e-02
-1.923892274498939514e-02
-1.396524906158447266e-02
-5.974860116839408875e-02
-2.913346514105796814e-02
1.227491535246372223e-02
-3.491941094398498535e-02
1.299788150936365128e-02
7.052409928292036057e-04
-6.384339928627014160e-02
1.336379256099462509e-02
-1.146008074283599854e-02
-3.389231488108634949e-02
-1.185641512274742126e-01
4.766636341810226440e-02
-3.525926172733306885e-02
-9.007592685520648956e-03
3.460204601287841797e-02
4.555501416325569153e-02
-3.291457518935203552e-02
3.824064880609512329e-02
-7.945760339498519897e-02
-4.752203449606895447e-02
-7.938517257571220398e-03
-4.222318530082702637e-02
1.342050824314355850e-02
3.957515582442283630e-02
-5.337180197238922119e-02
-3.673374280333518982e-02
-1.047614440321922302e-01
-1.062644273042678833e-01
-3.856236487627029419e-02
-4.843370616436004639e-02
-4.846681654453277588e-02
-8.474799245595932007e-02
-5.495988950133323669e-02
-1.373831629753112793e-01
6.683651357889175415e-02
-2.584269456565380096e-02
-8.346652239561080933e-02
-7.348632812500000000e-02
7.083598989993333817e-03
-6.654512882232666016e-02
-1.035647094249725342e-02
-3.270869702100753784e-02
-5.839017778635025024e-02
-9.617958962917327881e-02
-2.164326980710029602e-02
-9.165045619010925293e-02
-9.379685670137405396e-02
8.086178451776504517e-03
-4.800859093666076660e-02
-4.038443043828010559e-02
4.391786456108093262e-02
4.311860725283622742e-02
-2.288041263818740845e-02
-9.528546035289764404e-02
4.314174130558967590e-02
-8.742727339267730713e-02
2.491186745464801788e-02
-3.356546908617019653e-02
-2.751405350863933563e-02
-8.074426651000976562e-02
-4.035552591085433960e-02
7.681471295654773712e-03
5.118406191468238831e-02
-8.745949715375900269e-02
3.783312067389488220e-02
-7.498999685049057007e-02
5.277809873223304749e-02
-3.689805790781974792e-02
-2.694010175764560699e-02
-5.259528383612632751e-02
-8.957491070032119751e-02
-8.063521981239318848e-02
-1.145627871155738831e-01
-9.956877678632736206e-03
-9.696413576602935791e-02
4.192283004522323608e-02
3.655750304460525513e-02
1.306264661252498627e-02
3.240628540515899658e-02
-7.769412547349929810e-02
-3.568267077207565308e-02
1.784663298167288303e-03
-2.578121144324541092e-03
1.181163452565670013e-02
3.262468427419662476e-02
6.521167606115341187e-02
-1.018401831388473511e-01
-8.368816226720809937e-02
-7.783242315053939819e-02
4.380798339843750000e-02
-1.560658589005470276e-02
-3.941559419035911560e-02
-3.588892286643385887e-03
-1.068759188055992126e-01
-1.837715059518814087e-01
3.570145368576049805e-02
1.938858069479465485e-02
-3.624106943607330322e-02
-6.437961012125015259e-02
2.761989459395408630e-02
1.506880484521389008e-02
-4.209456592798233032e-02
-4.510836303234100342e-02
-4.535216465592384338e-02
5.600030720233917236e-02
2.390212565660476685e-02
-9.787624329328536987e-02
1.571792550384998322e-02
-1.156079582870006561e-02
-4.078051541000604630e-03
-6.451157480478286743e-02
-9.108870476484298706e-02
-4.529564082622528076e-02
3.376365825533866882e-02
-6.109020859003067017e-02
3.119212575256824493e-03
-4.489228595048189163e-03
4.489698912948369980e-03
-3.844007104635238647e-02
-6.120767816901206970e-02
3.808992728590965271e-02
4.874046891927719116e-02
9.702119044959545135e-03
-3.604305163025856018e-02
3.444039821624755859e-02
-1.662760600447654724e-02
-2.613979764282703400e-02
-9.585233777761459351e-02
-5.623541027307510376e-02
4.895600304007530212e-02
-2.944492548704147339e-02
-3.623015433549880981e-02
3.266362100839614868e-02
-8.163063973188400269e-02
4.492730274796485901e-02
5.410360638052225113e-03
-7.080907374620437622e-02
-1.809263229370117188e-02
-4.224490746855735779e-02
8.459104225039482117e-03
-6.742695719003677368e-02
-2.284148521721363068e-02
-7.145404070615768433e-02
1.006256882101297379e-02
-3.420891985297203064e-02
-2.081252261996269226e-02
-4.297272488474845886e-02
-1.971105113625526428e-02
-1.323281377553939819e-01
-8.127997815608978271e-02
-7.948489487171173096e-02
-9.827649593353271484e-02
-4.547350853681564331e-02
4.195718094706535339e-02
3.703795745968818665e-02
2.040667459368705750e-02
-4.050403833389282227e-02
-3.771481662988662720e-02
-1.273871771991252899e-02
3.930030763149261475e-02
5.916694179177284241e-03
-7.086993008852005005e-02
-5.726719275116920471e-02
-5.139443278312683105e-02
3.440460935235023499e-02
-1.777019351720809937e-02
5.231949687004089355e-02
-6.396695040166378021e-03
-1.018374338746070862e-01
-1.499279495328664780e-02
6.304439902305603027e-02
-8.687207475304603577e-03
-3.506655246019363403e-02
-2.587845362722873688e-02
-7.752043008804321289e-02
7.236184924840927124e-02
-6.065514311194419861e-02
-6.212387979030609131e-02
-4.219153523445129395e-02
-7.022976875305175781e-02
-1.158228237181901932e-02
-1.207426488399505615e-01
2.654472738504409790e-02
1.525428495369851589e-03
-4.133928194642066956e-02
2.282897382974624634e-02
2.852795273065567017e-02
-3.918411582708358765e-02
1.035305671393871307e-02
-4.104935005307197571e-02
-8.214255422353744507e-02
-1.069849133491516113e-01
7.241242378950119019e-02
-9.546966850757598877e-02
-5.212536454200744629e-02
-1.255101989954710007e-02
-1.108357682824134827e-02
3.161577507853507996e-02
-1.294387876987457275e-01
-3.567786142230033875e-02
-6.986422091722488403e-02
-4.993709549307823181e-02
-4.017753526568412781e-02
