-1.367125213146209717e-01
7.116634398698806763e-02
8.560457080602645874e-02
-2.680157311260700226e-02
-5.257233232259750366e-02
-5.813140422105789185e-02
-6.985031533986330032e-03
-5.347450450062751770e-02
6.166664138436317444e-02
6.912492215633392334e-03
-1.207954995334148407e-02
4.877158626914024353e-02
-3.469573706388473511e-02
-7.142036408185958862e-02
1.467328425496816635e-02
-1.276420056819915771e-01
4.767854884266853333e-02
-6.537579931318759918e-03
-5.238780751824378967e-02
-1.076123304665088654e-02
-1.928322389721870422e-02
-1.074122712016105652e-01
6.486016511917114258e-02
2.588781062513589859e-04
-7.946506887674331665e-02
-2.410874702036380768e-02
-3.340371325612068176e-02
-7.159434258937835693e-02
-4.496905207633972168e-02
1.721956208348274231e-02
-6.899218074977397919e-03
8.807035163044929504e-03
-4.792241007089614868e-02
-1.729284785687923431e-02
-6.134251505136489868e-02
-1.908716000616550446e-02
-2.239630557596683502e-02
-5.451631732285022736e-03
4.112656041979789734e-02
4.140843823552131653e-02
4.785320907831192017e-02
-9.329016320407390594e-03
-4.083215817809104919e-02
2.961864508688449860e-02
-6.853489577770233154e-02
3.214138373732566833e-02
-2.088077925145626068e-02
-1.249018460512161255e-01
-3.154969960451126099e-02
4.228113219141960144e-02
1.869214884936809540e-02
7.671385537832975388e-03
-1.178526785224676132e-03
-3.039907850325107574e-02
5.278497561812400818e-02
-1.474399212747812271e-02
8.169320225715637207e-02
-6.341012567281723022e-02
-5.028040334582328796e-02
-5.194646865129470825e-02
-4.464491829276084900e-02
-1.699803322553634644e-01
-1.126766577363014221e-01
1.071226783096790314e-02
9.513910859823226929e-02
-1.738701015710830688e-02
-2.918130904436111450e-02
2.761255204677581787e-02
6.672639399766921997e-02
-1.804936863481998444e-02
2.230524551123380661e-03
-1.455553174018859863e-01
8.100528270006179810e-03
-3.089484758675098419e-02
2.577866986393928528e-02
2.312888763844966888e-02
-5.110717937350273132e-02
-6.108214333653450012e-02
1.395674794912338257e-02
5.905407294631004333e-02
-7.893934845924377441e-02
-6.953008472919464111e-02
-6.637639552354812622e-02
-7.159689068794250488e-02
-3.324847668409347534e-02
-1.484736893326044083e-02
1.742819882929325104e-02
-5.133790150284767151e-02
-6.226647645235061646e-02
-2.003757283091545105e-03
-3.471298888325691223e-02
-6.668776273727416992e-02
-6.884201616048812866e-02
7.249347120523452759e-02
-5.793911218643188477e-02
1.084715873003005981e-02
7.216372340917587280e-02
8.999183028936386108e-02
9.321843273937702179e-03
9.156130999326705933e-02
-6.479230523109436035e-02
-7.221288979053497314e-02
-5.871234461665153503e-02
-3.195398673415184021e-02
-6.942466646432876587e-02
-4.817636683583259583e-03
2.083363244310021400e-03
1.094536017626523972e-02
3.313713520765304565e-02
-1.084549203515052795e-01
-4.995445255190134048e-03
-5.183863639831542969e-02
-7.719550281763076782e-02
7.428652048110961914e-02
-5.180490761995315552e-02
-7.397876679897308350e-02
-4.312003962695598602e-03
-7.227209210395812988e-02
-2.959519624710083008e-02
-2.073597908020019531e-02
-6.167571619153022766e-02
9.324903599917888641e-03
1.523429900407791138e-02
-1.901553273200988770e-01
-9.444393217563629150e-02
-4.387452825903892517e-02
-2.529805153608322144e-02
2.456389740109443665e-02
