3.276183456182479858e-02
6.893595308065414429e-02
-4.612268880009651184e-03
-1.525229029357433319e-02
2.611473016440868378e-02
-7.965791970491409302e-02
-5.619921907782554626e-02
-6.995860487222671509e-02
8.928345143795013428e-02
-4.999089986085891724e-03
-1.830783113837242126e-02
-9.633397310972213745e-02
-1.780230179429054260e-02
7.253608852624893188e-02
6.148006394505500793e-02
5.334307998418807983e-02
-1.307368092238903046e-02
9.479414671659469604e-02
1.314638461917638779e-02
-5.985048785805702209e-02
5.757848545908927917e-02
-5.552971852011978626e-04
1.002812758088111877e-01
-1.236893236637115479e-02
2.852036058902740479e-02
5.240062996745109558e-02
-8.709921687841415405e-02
-1.759606064297258854e-03
2.107872441411018372e-02
6.859208643436431885e-02
1.956294849514961243e-02
9.337612241506576538e-02
2.043011784553527832e-02
-9.059479832649230957e-02
-2.643267437815666199e-02
6.010996177792549133e-02
4.511539265513420105e-02
3.611670434474945068e-02
-6.097315996885299683e-02
-5.969642102718353271e-02
-1.265413127839565277e-02
1.393239200115203857e-02
-2.225228212773799896e-02
-8.104168623685836792e-02
-9.119319170713424683e-02
-6.152483634650707245e-03
3.872794285416603088e-02
-9.087317436933517456e-02
6.626980844885110855e-03
-7.750359177589416504e-02
-2.521474286913871765e-02
4.557155817747116089e-02
2.363607659935951233e-02
-4.990205168724060059e-02
3.777192207053303719e-03
-7.178483903408050537e-02
-9.241703897714614868e-02
7.902643084526062012e-02
-3.948765248060226440e-02
6.404729187488555908e-02
-9.361986815929412842e-02
6.015994399785995483e-02
-4.025602713227272034e-02
4.145533591508865356e-02
-8.810424804687500000e-02
-5.958912521600723267e-02
5.472959950566291809e-02
7.606924325227737427e-02
-1.103038340806961060e-02
3.348427126184105873e-03
-7.386065274477005005e-02
8.506398648023605347e-02
-8.140269666910171509e-02
3.572319820523262024e-02
2.383273793384432793e-03
-6.868366897106170654e-02
8.136960119009017944e-02
6.262409687042236328e-02
-7.978643476963043213e-02
5.335083603858947754e-02
6.218625605106353760e-02
-7.212667912244796753e-02
5.476551875472068787e-02
5.553130432963371277e-02
5.060605332255363464e-02
1.063269302248954773e-01
-4.016660898923873901e-02
-8.930054306983947754e-02
4.910570383071899414e-02
-5.060992389917373657e-02
1.774846808984875679e-03
5.774844065308570862e-02
1.044513061642646790e-01
-5.177752673625946045e-02
5.777979642152786255e-02
-6.110243126749992371e-02
-2.780419960618019104e-02
-8.526422828435897827e-02
-2.404317259788513184e-02
3.408800065517425537e-02
-5.448152869939804077e-02
-7.110009342432022095e-02
1.552188768982887268e-02
1.322508230805397034e-02
-8.523008786141872406e-03
-8.808038383722305298e-02
-9.331221878528594971e-02
-4.402901045978069305e-03
-8.822724968194961548e-02
4.054198041558265686e-02
-8.075531572103500366e-02
7.437633723020553589e-02
6.353823840618133545e-02
5.789688229560852051e-02
4.679644852876663208e-02
7.682174444198608398e-02
-9.804219752550125122e-02
-4.326354712247848511e-03
5.475796386599540710e-02
5.204644054174423218e-02
-5.511790979653596878e-03
1.108374446630477905e-01
-2.572670765221118927e-02
-1.930948719382286072e-02
3.057858534157276154e-02
-6.969761848449707031e-02
5.114479735493659973e-02
-4.215244203805923462e-02
8.699861913919448853e-02
-2.407674305140972137e-02
3.236352279782295227e-02
7.809948176145553589e-02
-5.314211174845695496e-02
-3.377538872882723808e-03
-2.082388103008270264e-02
1.272755768150091171e-02
4.730432853102684021e-02
-5.177212134003639221e-02
2.129671350121498108e-02
7.572960108518600464e-02
4.854165762662887573e-02
2.903627417981624603e-02
5.713115632534027100e-02
-2.503784745931625366e-02
-9.585449844598770142e-02
5.099880322813987732e-02
-3.041539154946804047e-02
4.194478690624237061e-02
-4.066975414752960205e-02
-1.986157894134521484e-02
-4.178234562277793884e-02
-6.995745003223419189e-02
8.836781233549118042e-02
-1.671296730637550354e-02
1.789027079939842224e-02
-3.454180806875228882e-02
2.451033145189285278e-02
1.369112054817378521e-03
-3.348975628614425659e-02
6.226658821105957031e-02
-5.073003843426704407e-02
5.692834779620170593e-02
-5.195866897702217102e-02
2.748062647879123688e-02
1.953434757888317108e-02
5.955503135919570923e-02
-2.156893908977508545e-02
2.218009904026985168e-02
4.800578206777572632e-02
-2.632953599095344543e-02
9.452844411134719849e-02
3.096441365778446198e-02
6.165862549096345901e-03
5.164189729839563370e-03
4.415916278958320618e-02
6.629506498575210571e-02
6.862264126539230347e-02
5.137461423873901367e-02
-2.135481871664524078e-02
4.225540533661842346e-02
-9.112261235713958740e-02
2.913507446646690369e-02
-2.136417105793952942e-02
-5.337090790271759033e-02
-6.939265877008438110e-02
-6.249821931123733521e-02
-6.846268475055694580e-02
-2.533608349040150642e-03
2.971426583826541901e-02
-3.907964378595352173e-02
3.831849992275238037e-02
6.333011388778686523e-02
1.203687302768230438e-02
-8.796644210815429688e-02
2.405660599470138550e-02
-4.941865801811218262e-02
1.033346354961395264e-01
-2.839787118136882782e-02
-6.108540575951337814e-03
-3.762927278876304626e-02
3.361224383115768433e-02
-2.190130949020385742e-02
-4.039136692881584167e-02
-9.552655369043350220e-02
4.476644098758697510e-03
-8.771938830614089966e-02
-6.363578140735626221e-03
-4.824183508753776550e-02
-5.789860710501670837e-02
1.048238016664981842e-03
-1.099828537553548813e-02
-5.982690677046775818e-02
5.810645595192909241e-02
-3.372350335121154785e-02
-8.351835608482360840e-02
5.587460938841104507e-03
3.407716006040573120e-02
-8.406832814216613770e-02
3.730331314727663994e-03
9.407768398523330688e-02
5.208125710487365723e-02
1.765025034546852112e-02
-1.459355000406503677e-02
-1.066201701760292053e-01
-5.254223197698593140e-02
4.492945596575737000e-02
-8.265759050846099854e-02
-7.465992867946624756e-02
-7.098057866096496582e-02
1.592639484442770481e-03
-3.370465338230133057e-02
5.803284794092178345e-02
7.011796534061431885e-02
8.508926630020141602e-02
3.723704069852828979e-02
3.309445828199386597e-02
2.030479349195957184e-02
-7.926526665687561035e-02
1.081390827894210815e-01
-2.363186702132225037e-02
-7.844460010528564453e-02
-7.065771520137786865e-02
6.832648068666458130e-02
9.083656966686248779e-02
7.080318778753280640e-02
3.274096921086311340e-02
8.269780874252319336e-02
2.513865754008293152e-02
-5.819933488965034485e-02
6.979543715715408325e-03
9.467978775501251221e-02
9.071982651948928833e-02
9.372126311063766479e-02
-6.483469903469085693e-02
-5.074879899621009827e-02
-1.295109372586011887e-02
-5.566396564245223999e-02
2.307749167084693909e-02
1.117865461856126785e-02
-1.792932115495204926e-02
2.599580958485603333e-02
-1.216928940266370773e-03
3.154414519667625427e-02
2.540605515241622925e-02
-8.769829571247100830e-02
-3.467718511819839478e-02
5.702870339155197144e-02
-3.687631711363792419e-02
-2.608507499098777771e-02
-3.714339062571525574e-02
-1.891052722930908203e-02
-1.039407849311828613e-01
4.294148832559585571e-02
7.788839936256408691e-02
4.373705759644508362e-02
1.018569543957710266e-01
-7.493484765291213989e-02
-6.171972677111625671e-02
2.476914413273334503e-02
-3.055869787931442261e-02
3.285352513194084167e-02
-7.791475951671600342e-02
4.611939191818237305e-02
-9.490660578012466431e-02
7.643702626228332520e-02
3.208498284220695496e-02
-1.215711534023284912e-01
2.360264398157596588e-02
-7.053244113922119141e-02
6.523531675338745117e-02
-2.898507192730903625e-02
-6.562620401382446289e-02
2.063872106373310089e-02
6.570758670568466187e-02
5.507460981607437134e-02
5.189174413681030273e-02
7.149250805377960205e-02
5.747368931770324707e-02
-6.288699060678482056e-02
9.453873336315155029e-02
-4.659277200698852539e-02
-2.748966217041015625e-02
-4.290970973670482635e-03
8.059016615152359009e-02
2.956470660865306854e-02
4.027280956506729126e-02
-9.202076494693756104e-02
-6.511351466178894043e-02
1.122476765885949135e-03
-5.713859200477600098e-02
-4.881734773516654968e-02
-8.002987504005432129e-02
-5.639505758881568909e-02
3.619480878114700317e-02
9.760729968547821045e-02
7.813268154859542847e-02
3.851168975234031677e-02
6.101332232356071472e-02
-1.348089575767517090e-01
-8.478551357984542847e-02
4.793312773108482361e-02
-4.840958118438720703e-02
2.256249077618122101e-02
-6.400851160287857056e-02
-8.238444477319717407e-02
-7.792596518993377686e-02
5.161977559328079224e-02
1.869845576584339142e-02
-2.954370900988578796e-02
7.721500843763351440e-02
-1.742386631667613983e-02
6.321887671947479248e-02
8.620016276836395264e-02
5.629143118858337402e-02
-8.501123636960983276e-02
-5.590625852346420288e-02
7.215484511107206345e-03
-1.353799924254417419e-02
-6.187111139297485352e-02
-1.228605676442384720e-02
-9.564854204654693604e-02
-5.052143707871437073e-03
9.632463753223419189e-02
-3.438837826251983643e-03
-3.299284353852272034e-02
-2.651300514116883278e-03
-4.953703284263610840e-02
7.649320363998413086e-02
3.096377011388540268e-03
-1.030684262514114380e-01
-6.059986725449562073e-02
-5.901992321014404297e-02
6.652238219976425171e-02
3.743604943156242371e-02
3.998585510998964310e-03
-1.106463558971881866e-02
-2.307580225169658661e-02
-7.356189191341400146e-03
-9.421680122613906860e-02
-8.472666889429092407e-02
3.351202979683876038e-02
-8.515676110982894897e-02
-7.410392910242080688e-02
3.675862774252891541e-02
-9.466184675693511963e-02
-6.922411173582077026e-02
-1.804829947650432587e-02
-4.659169167280197144e-02
-6.317295879125595093e-02
1.652367226779460907e-02
1.203662063926458359e-02
-1.211408380186185241e-04
-4.760712385177612305e-02
4.925937205553054810e-02
-3.494475409388542175e-02
2.274287864565849304e-02
2.993089519441127777e-02
7.908110320568084717e-02
9.723432362079620361e-02
5.732063949108123779e-02
7.016031444072723389e-02
-1.568696089088916779e-02
-8.191758394241333008e-02
-1.771385548636317253e-03
-4.725585877895355225e-02
3.380385041236877441e-02
4.824656248092651367e-02
-4.459027945995330811e-02
5.536913126707077026e-02
-6.346913427114486694e-02
-8.370581269264221191e-02
-1.958989351987838745e-02
-1.017741188406944275e-01
5.794337019324302673e-03
2.722827345132827759e-02
-2.665217965841293335e-03
-8.623421937227249146e-02
8.669579774141311646e-02
7.847846299409866333e-02
9.204102307558059692e-02
6.787525024265050888e-03
5.523808300495147705e-02
4.112124070525169373e-02
6.349311023950576782e-02
-1.121860146522521973e-01
-3.066108562052249908e-02
-8.189757354557514191e-03
-4.362185299396514893e-02
-1.548820734024047852e-02
-5.104598030447959900e-02
3.683799132704734802e-02
4.615507274866104126e-02
-2.933449298143386841e-02
-1.981401443481445312e-02
-2.234151773154735565e-02
7.770839333534240723e-02
-8.272746205329895020e-02
-9.563712030649185181e-02
-3.183279931545257568e-02
-7.620304077863693237e-02
-5.790707468986511230e-02
-9.160304069519042969e-02
7.006935030221939087e-02
3.949206322431564331e-02
-7.800697535276412964e-02
-8.508242666721343994e-02
-6.544481217861175537e-02
6.742722541093826294e-02
2.144040726125240326e-02
-6.642893701791763306e-02
9.956273436546325684e-02
2.003517933189868927e-03
-7.723452895879745483e-02
-4.581559076905250549e-02
8.474776893854141235e-02
6.041871011257171631e-02
-5.607659928500652313e-03
7.774768024682998657e-02
-4.510055854916572571e-02
-2.627388946712017059e-02
-7.451577484607696533e-02
4.019385948777198792e-02
3.063485957682132721e-02
-4.771975055336952209e-02
1.018340140581130981e-02
-5.538795143365859985e-02
4.885533452033996582e-02
6.886535137891769409e-02
-5.755502358078956604e-02
9.866029769182205200e-02
-2.272533066570758820e-02
3.276278264820575714e-03
4.463899414986371994e-03
3.990849852561950684e-02
-2.322916872799396515e-02
7.396803051233291626e-02
-2.663896232843399048e-02
-6.026823818683624268e-02
4.246307909488677979e-02
-1.011603549122810364e-01
1.602205634117126465e-02
-5.973299592733383179e-02
7.773612439632415771e-02
8.084211498498916626e-02
2.711396850645542145e-02
5.205578729510307312e-02
-6.059424579143524170e-02
4.782482981681823730e-02
-6.553304195404052734e-02
6.210183352231979370e-02
5.136052891612052917e-02
6.706320680677890778e-03
2.405486069619655609e-02
8.214560151100158691e-02
-2.673378959298133850e-02
-8.895593136548995972e-02
-2.509502321481704712e-02
-9.732574969530105591e-02
2.684409543871879578e-02
-3.103167749941349030e-02
-4.290365613996982574e-03
-4.585152491927146912e-03
6.400191783905029297e-02
8.170985430479049683e-02
5.894485488533973694e-02
-7.492868602275848389e-02
-7.371436804533004761e-02
-9.000530838966369629e-02
7.100107520818710327e-02
2.888735383749008179e-02
-6.898019462823867798e-02
2.518264204263687134e-02
3.180481866002082825e-02
8.989588916301727295e-02
-3.732957318425178528e-02
-8.080413192510604858e-02
-9.769842773675918579e-02
5.237666144967079163e-02
-4.113403707742691040e-02
8.640357106924057007e-02
-2.282103709876537323e-02
-3.376827389001846313e-02
2.155675366520881653e-02
1.004432700574398041e-02
-5.874611064791679382e-02
-7.718430459499359131e-02
-4.746472090482711792e-02
-4.449288360774517059e-03
5.306811630725860596e-02
4.373405501246452332e-02
-7.504373043775558472e-02
6.402663886547088623e-02
-5.895092338323593140e-02
1.523912698030471802e-02
-3.688667714595794678e-02
-2.302897162735462189e-02
9.040652215480804443e-02
3.327467292547225952e-02
4.753757640719413757e-02
-3.771036118268966675e-02
1.217642985284328461e-02
-5.783408507704734802e-02
-9.691303968429565430e-02
-1.789554581046104431e-02
-1.007542312145233154e-01
3.228726983070373535e-02
-2.566041611135005951e-02
-2.066965587437152863e-02
1.052161492407321930e-02
-2.077135071158409119e-02
5.539259314537048340e-02
1.685515232384204865e-02
-1.688218675553798676e-02
-2.877329848706722260e-02
4.566274583339691162e-02
8.253763616085052490e-02
-2.319254539906978607e-02
-8.268441259860992432e-02
-2.946370281279087067e-02
-7.903233915567398071e-02
-1.716760545969009399e-02
-8.829723298549652100e-02
6.333471089601516724e-02
2.358760684728622437e-02
2.564162947237491608e-02
-4.105022549629211426e-02
7.242462038993835449e-02
-3.121495619416236877e-02
-7.551111280918121338e-02
5.662857741117477417e-02
-5.530314520001411438e-02
5.506101995706558228e-02
9.428074210882186890e-02
-4.857179522514343262e-02
1.230319403111934662e-02
-2.950433827936649323e-02
-7.266932632774114609e-03
7.189002633094787598e-02
6.959982961416244507e-02
-7.881169766187667847e-02
7.441568374633789062e-02
1.671162806451320648e-02
1.077059749513864517e-02
4.558555036783218384e-02
5.037230998277664185e-02
5.784092471003532410e-02
2.332510054111480713e-02
-4.514297470450401306e-02
-1.379024982452392578e-02
-6.764008849859237671e-02
-5.597702041268348694e-02
6.809114664793014526e-02
5.301388725638389587e-02
1.493217516690492630e-02
-7.706610113382339478e-02
-2.707603760063648224e-02
-3.758056089282035828e-02
-2.363407239317893982e-02
3.734282404184341431e-02
-8.965503424406051636e-02
-8.316342532634735107e-02
8.694868534803390503e-03
-4.620772227644920349e-02
2.408488094806671143e-02
1.879053935408592224e-02
-7.256980985403060913e-02
9.979519248008728027e-02
-5.943619459867477417e-02
-2.313934266567230225e-02
-7.526416331529617310e-03
1.575709879398345947e-02
-3.829504549503326416e-02
1.469099894165992737e-02
-6.329242885112762451e-02
6.335680186748504639e-02
-3.434715047478675842e-02
7.673727720975875854e-02
5.068619549274444580e-02
6.852235645055770874e-02
4.246209282428026199e-04
2.296865358948707581e-02
5.322055518627166748e-02
-7.550788670778274536e-02
-5.684557929635047913e-02
5.523508042097091675e-02
1.278636045753955841e-02
4.465777054429054260e-02
2.617090754210948944e-02
-4.985377192497253418e-02
-5.083003267645835876e-02
-5.928729474544525146e-02
-5.598825216293334961e-02
9.998930245637893677e-02
8.588469028472900391e-02
8.647111058235168457e-02
4.509747028350830078e-02
-8.533896505832672119e-02
5.089808255434036255e-02
7.169513404369354248e-02
6.187291443347930908e-02
-5.390298366546630859e-02
8.556818962097167969e-02
-5.604546517133712769e-02
5.146366730332374573e-02
-6.614945828914642334e-02
-6.275448203086853027e-02
2.112491242587566376e-02
2.924538590013980865e-02
-2.108298428356647491e-02
1.076474934816360474e-01
-8.048569411039352417e-02
1.679105311632156372e-02
9.266018867492675781e-02
-6.966371834278106689e-02
-9.229483455419540405e-02
-3.531479090452194214e-02
6.702195852994918823e-02
-9.560070000588893890e-03
2.856555802281945944e-04
-2.627065032720565796e-02
-9.374047815799713135e-02
2.642147243022918701e-02
-4.702170565724372864e-02
3.872126340866088867e-02
-8.227013051509857178e-02
3.626216202974319458e-02
-6.378287822008132935e-02
-8.447532355785369873e-02
2.992622740566730499e-02
3.382609412074089050e-02
-4.197571426630020142e-02
6.465020030736923218e-02
3.667600452899932861e-02
-7.832811772823333740e-02
-7.854517549276351929e-02
-2.299257740378379822e-02
1.022599413990974426e-01
-5.653139948844909668e-02
-2.682849764823913574e-02
3.432647883892059326e-02
4.361694678664207458e-02
-4.214950650930404663e-02
4.526111111044883728e-02
1.146423965692520142e-01
-2.769205346703529358e-02
4.131533950567245483e-02
-5.610561370849609375e-02
9.264910221099853516e-02
1.324591785669326782e-02
-7.122092694044113159e-02
-8.714747428894042969e-02
1.020127013325691223e-01
1.923764124512672424e-02
-3.800175711512565613e-02
-3.710912168025970459e-02
1.771220564842224121e-02
-2.039249986410140991e-02
-7.179564237594604492e-02
5.010522156953811646e-02
6.724301725625991821e-02
4.913726449012756348e-02
-1.613675057888031006e-02
-2.096583507955074310e-02
5.068438127636909485e-02
-6.673718243837356567e-02
8.088682591915130615e-02
3.027335368096828461e-02
-6.186769902706146240e-02
4.301734641194343567e-02
9.043803811073303223e-02
-3.035601228475570679e-02
-7.189396768808364868e-02
3.227626159787178040e-02
7.267587631940841675e-02
5.071061849594116211e-02
5.837672948837280273e-02
-6.583862006664276123e-02
2.492370828986167908e-02
2.464940957725048065e-02
4.841863643378019333e-03
-8.320388197898864746e-02
3.699342906475067139e-02
-5.364209040999412537e-02
-1.735740341246128082e-02
6.889459490776062012e-02
-5.725627020001411438e-02
5.764693021774291992e-02
-3.082715719938278198e-02
-2.280295640230178833e-02
9.004269540309906006e-02
1.037527546286582947e-01
1.608954160474240780e-03
-6.393465399742126465e-02
1.348126213997602463e-02
1.017367020249366760e-01
-9.268365800380706787e-02
7.692661136388778687e-02
1.830952614545822144e-02
-7.675990462303161621e-02
6.575389951467514038e-02
-6.085031479597091675e-02
6.542167067527770996e-02
5.751974508166313171e-02
4.387555271387100220e-02
7.577218860387802124e-02
3.221884369850158691e-02
8.496925979852676392e-02
-6.913040578365325928e-02
8.506623655557632446e-02
-5.629011243581771851e-02
4.344153031706809998e-02
1.326826866716146469e-02
-6.606748700141906738e-02
-1.000762917101383209e-02
-5.862468853592872620e-02
-4.659860208630561829e-02
-3.480177838355302811e-04
-7.880339771509170532e-02
-3.547238558530807495e-02
3.091492876410484314e-02
2.751409262418746948e-02
-7.293269783258438110e-02
6.037272140383720398e-02
1.561583951115608215e-02
1.854475215077400208e-02
-6.703875958919525146e-02
6.841637194156646729e-02
3.833703696727752686e-03
7.226755376905202866e-03
-3.477308899164199829e-02
6.099344417452812195e-02
-9.385272115468978882e-02
-7.497368752956390381e-02
-6.716973334550857544e-02
-7.293593138456344604e-02
-3.771884832531213760e-03
6.379718333482742310e-02
-8.040443062782287598e-02
-3.364183753728866577e-02
-4.610431194305419922e-02
-3.366977721452713013e-02
-5.655401572585105896e-02
-5.118836835026741028e-02
-4.173131287097930908e-02
-4.625440761446952820e-02
-1.418141461908817291e-02
4.896565899252891541e-02
5.468954145908355713e-02
-2.676593512296676636e-02
-6.741921603679656982e-02
4.777941852807998657e-02
5.229735746979713440e-02
4.063591361045837402e-02
-3.629913553595542908e-02
4.669012501835823059e-02
4.164992272853851318e-02
-4.517788439989089966e-02
-1.090978831052780151e-01
-3.554746508598327637e-02
-3.450384363532066345e-02
5.615620687603950500e-02
-4.676916822791099548e-02
5.417896434664726257e-02
5.362752452492713928e-02
1.015815138816833496e-01
-5.337266996502876282e-02
3.679873421788215637e-02
-2.828421443700790405e-02
2.782381325960159302e-02
9.195154532790184021e-03
-2.545586600899696350e-02
-5.275476723909378052e-02
8.592710644006729126e-02
1.756103895604610443e-02
5.181482061743736267e-03
4.727668128907680511e-03
8.367960155010223389e-02
-6.911841779947280884e-02
-3.576257824897766113e-02
-8.915192633867263794e-02
-4.395655170083045959e-02
-7.453441619873046875e-02
-9.820336848497390747e-02
5.762186273932456970e-02
2.276196517050266266e-02
8.318071812391281128e-02
-4.072874039411544800e-02
7.292251102626323700e-03
-8.031535148620605469e-02
-6.117944419384002686e-02
7.500386983156204224e-02
7.530637085437774658e-02
6.448495388031005859e-02
-3.166409209370613098e-02
1.205377746373414993e-02
3.823197633028030396e-02
5.993189662694931030e-02
-1.990461908280849457e-02
1.446298975497484207e-02
-8.047198504209518433e-02
-2.716341055929660797e-02
7.913339883089065552e-02
-5.495555698871612549e-02
3.490280732512474060e-02
2.549197291955351830e-03
9.308599680662155151e-02
-3.290419280529022217e-02
9.956965595483779907e-02
5.155362933874130249e-02
-1.424211636185646057e-02
-1.117627322673797607e-02
5.182828009128570557e-02
-6.851489841938018799e-02
-2.944176830351352692e-02
9.646396152675151825e-03
-3.331582993268966675e-02
-4.580998793244361877e-02
-5.624668300151824951e-02
6.739670038223266602e-02
-4.631117358803749084e-02
8.291976526379585266e-03
1.053413003683090210e-01
7.546761631965637207e-02
4.802841693162918091e-02
1.146364491432905197e-02
-5.661045387387275696e-02
5.089451000094413757e-02
7.295082509517669678e-02
-9.068206697702407837e-02
4.883987829089164734e-02
8.400289341807365417e-03
9.141647815704345703e-02
3.186409920454025269e-02
4.507977049797773361e-03
2.973873913288116455e-02
-3.541678190231323242e-02
3.809539228677749634e-02
-2.956801280379295349e-02
-6.703700125217437744e-02
-9.203711897134780884e-02
-4.754537716507911682e-02
-2.173681929707527161e-02
4.550216719508171082e-02
3.971145302057266235e-02
-1.345258578658103943e-02
-5.481027811765670776e-02
-7.389486581087112427e-02
-5.742481350898742676e-02
5.048455297946929932e-02
-9.515693038702011108e-02
-6.359840929508209229e-02
2.930177934467792511e-02
-1.877117902040481567e-02
2.246513962745666504e-02
7.847530394792556763e-02
-6.529968231916427612e-02
-3.889058157801628113e-02
1.775746792554855347e-02
8.710715174674987793e-02
8.610848337411880493e-02
5.680862069129943848e-02
-9.625147283077239990e-02
7.828545570373535156e-02
1.096809282898902893e-02
-6.389856804162263870e-03
2.555840648710727692e-02
8.216591924428939819e-02
-9.829854220151901245e-02
2.978265099227428436e-02
9.735654294490814209e-02
-6.168648600578308105e-02
1.155220251530408859e-02
9.258680045604705811e-03
1.352664828300476074e-02
7.077111303806304932e-02
7.364516705274581909e-02
-4.174474626779556274e-02
-7.200734317302703857e-02
-7.839749008417129517e-02
4.784488305449485779e-02
9.041438251733779907e-02
-3.347657993435859680e-02
7.860904932022094727e-02
-2.714955806732177734e-02
1.291810255497694016e-02
-5.988560244441032410e-02
-2.195466682314872742e-02
2.623408101499080658e-02
-1.297765318304300308e-02
8.793526887893676758e-02
4.404089599847793579e-02
-2.593247964978218079e-02
-3.654637187719345093e-02
7.669450342655181885e-02
-2.183113619685173035e-02
2.325532026588916779e-02
5.866837874054908752e-02
4.746155440807342529e-02
-9.625489264726638794e-02
8.281576633453369141e-02
-4.643494635820388794e-02
6.975449621677398682e-02
1.155939791351556778e-02
4.566555097699165344e-02
1.723818480968475342e-02
1.124186813831329346e-02
8.309212327003479004e-02
-6.841413676738739014e-02
5.359118804335594177e-02
3.727339208126068115e-02
7.116026431322097778e-02
8.448784798383712769e-02
6.654009222984313965e-02
3.754524141550064087e-02
-8.244755864143371582e-02
1.004803776741027832e-01
-2.881921268999576569e-02
2.264835406094789505e-03
4.190431535243988037e-02
8.457893133163452148e-02
-9.470921009778976440e-02
3.006441891193389893e-02
1.953250914812088013e-02
-4.971674084663391113e-02
7.041369099169969559e-03
-8.262953162193298340e-02
7.711526006460189819e-02
5.028485879302024841e-02
-1.086307782679796219e-02
-8.936313539743423462e-02
2.226646989583969116e-03
6.549546122550964355e-02
-4.593968018889427185e-02
1.027045119553804398e-02
7.913187891244888306e-02
-1.345655322074890137e-02
-8.943426609039306641e-02
-1.414071023464202881e-02
4.172297194600105286e-03
9.380640834569931030e-02
-3.798874095082283020e-02
1.578618027269840240e-02
6.704732030630111694e-02
2.164230868220329285e-02
-1.059851497411727905e-01
-6.940654665231704712e-02
2.165766805410385132e-02
-1.526489667594432831e-02
-4.112194478511810303e-02
-4.935264587402343750e-02
1.140708383172750473e-02
1.911403611302375793e-02
5.318601801991462708e-02
8.254530280828475952e-02
-2.987743914127349854e-02
-6.999901682138442993e-02
-7.811300456523895264e-02
-1.087656430900096893e-02
-1.671100966632366180e-02
-4.524097964167594910e-02
-3.647956252098083496e-02
-7.980465888977050781e-02
-8.484161458909511566e-03
1.477169990539550781e-02
7.013609260320663452e-02
9.177236258983612061e-02
-3.054018691182136536e-02
4.454393684864044189e-02
4.503098875284194946e-02
1.738467440009117126e-02
1.386455819010734558e-02
7.636261731386184692e-02
4.234929755330085754e-02
-7.350267469882965088e-02
-8.670368790626525879e-02
-1.853015832602977753e-02
-6.816755980253219604e-02
1.101105473935604095e-02
-1.453766133636236191e-02
-7.900610566139221191e-02
3.945712931454181671e-03
2.863128110766410828e-02
-5.371511727571487427e-02
-5.289198458194732666e-02
5.453538522124290466e-02
-3.960976377129554749e-02
1.344425883144140244e-02
-7.386595010757446289e-02
4.542408883571624756e-02
-2.636069990694522858e-02
7.266014814376831055e-02
-5.099874362349510193e-02
5.135102197527885437e-02
6.090744957327842712e-02
-5.998783931136131287e-02
-8.504816889762878418e-02
-7.121550291776657104e-02
-8.800086379051208496e-02
7.192414999008178711e-02
-1.015683263540267944e-01
1.049482356756925583e-02
1.142399571835994720e-02
2.825385145843029022e-02
3.339045122265815735e-02
-6.382314860820770264e-02
8.320229500532150269e-02
5.103795602917671204e-02
-9.370096377097070217e-04
6.865690648555755615e-02
-7.576952129602432251e-02
7.832548022270202637e-02
-6.198263168334960938e-02
3.338040038943290710e-02
-2.758740633726119995e-02
-7.811781764030456543e-02
6.561908125877380371e-02
7.876665145158767700e-02
-5.665700882673263550e-02
6.771569699048995972e-02
-2.609261125326156616e-02
-5.155989900231361389e-02
7.888989150524139404e-02
-4.814663529396057129e-02
8.407691866159439087e-02
-4.474259167909622192e-02
5.857383459806442261e-02
7.350869476795196533e-02
6.950125843286514282e-02
9.250314533710479736e-02
-2.168032713234424591e-02
8.490469306707382202e-03
-1.508655119687318802e-02
-6.280563771724700928e-02
8.563207089900970459e-02
-1.010221540927886963e-01
-6.455523520708084106e-02
-2.366464585065841675e-02
4.118492826819419861e-02
5.378391593694686890e-02
8.731818944215774536e-02
7.329507917165756226e-02
3.244894091039896011e-03
5.716060101985931396e-02
-5.289877206087112427e-02
-7.884360104799270630e-02
-7.732765376567840576e-02
1.945769973099231720e-02
8.513240516185760498e-02
-6.495741009712219238e-02
7.040824741125106812e-02
4.991537332534790039e-02
-8.702139556407928467e-02
-7.804749161005020142e-02
-4.715997353196144104e-02
5.832385271787643433e-02
1.650898344814777374e-02
3.517039492726325989e-02
-7.822731137275695801e-02
-4.649821296334266663e-02
9.681119024753570557e-02
6.208520382642745972e-02
5.377342458814382553e-03
2.990839816629886627e-02
8.201150596141815186e-02
-5.668415874242782593e-02
-6.994535028934478760e-02
-1.139546036720275879e-01
7.095389068126678467e-02
-5.253527313470840454e-02
-6.574942171573638916e-02
9.240548312664031982e-02
9.108707308769226074e-03
-2.544922567903995514e-02
1.632560417056083679e-02
-8.280202001333236694e-02
2.041299827396869659e-02
-7.378581911325454712e-02
5.045730620622634888e-02
-8.215181878767907619e-04
-2.263928763568401337e-02
6.427751481533050537e-02
-6.152975931763648987e-02
-5.960644036531448364e-02
1.724405214190483093e-02
1.043452546000480652e-01
5.681766569614410400e-02
3.275244683027267456e-02
-6.086993217468261719e-02
8.006908744573593140e-02
-5.836039781570434570e-02
4.017717018723487854e-02
-9.331029839813709259e-03
-5.706519633531570435e-02
5.276525020599365234e-02
-2.739297412335872650e-02
3.544609295204281807e-03
-7.524225860834121704e-02
9.446892142295837402e-02
4.722547903656959534e-02
7.338313013315200806e-02
8.240763843059539795e-02
7.756936550140380859e-02
9.468375146389007568e-02
-6.230154633522033691e-02
-1.094547845423221588e-02
7.320716977119445801e-02
7.638023793697357178e-02
2.307006902992725372e-02
-1.192491594702005386e-02
5.111977458000183105e-02
-6.379996985197067261e-02
-3.643243387341499329e-02
1.836233958601951599e-02
2.739631012082099915e-02
-4.174294695258140564e-02
-5.886982008814811707e-02
5.354933440685272217e-02
-7.129002362489700317e-02
-5.253228172659873962e-02
7.071406394243240356e-02
6.311097741127014160e-02
1.341904513537883759e-02
6.612566858530044556e-02
-7.781192660331726074e-02
4.379259794950485229e-02
7.719630002975463867e-02
-1.480028592050075531e-02
9.831623733043670654e-02
9.319714456796646118e-02
-2.059460431337356567e-02
-4.545086249709129333e-02
-2.587264403700828552e-02
6.989961862564086914e-02
5.978708341717720032e-02
3.385235741734504700e-02
3.942134976387023926e-02
6.123875826597213745e-02
5.957767367362976074e-02
-9.785336442291736603e-03
-4.883375391364097595e-02
1.153031811118125916e-01
5.429258942604064941e-02
9.905967861413955688e-02
-1.578099653124809265e-02
-1.479046512395143509e-02
-9.928176552057266235e-02
5.690745264291763306e-02
-2.254699543118476868e-02
-2.439810894429683685e-02
3.663466498255729675e-02
2.159084752202033997e-02
-2.065064571797847748e-02
-4.178162664175033569e-03
9.279535710811614990e-02
-1.045731678605079651e-01
7.079472392797470093e-02
-8.310291916131973267e-02
2.747545577585697174e-02
-5.644303932785987854e-02
5.381254944950342178e-03
-7.440859079360961914e-02
-1.026239842176437378e-01
-8.457808941602706909e-02
-1.992687582969665527e-02
4.410340264439582825e-02
-9.401025623083114624e-02
-5.684302747249603271e-02
-4.455318301916122437e-02
-8.463514596223831177e-02
7.831481099128723145e-02
-7.154509425163269043e-02
7.250551134347915649e-02
3.184763714671134949e-02
-3.496092557907104492e-02
4.811797291040420532e-03
-5.475772544741630554e-02
-7.681940495967864990e-02
-9.367637336254119873e-02
3.411351889371871948e-02
-4.597983136773109436e-02
-1.537961326539516449e-02
-5.494002252817153931e-02
8.956413716077804565e-02
-9.438886307179927826e-03
8.762403577566146851e-02
4.843063186854124069e-03
-1.056625228375196457e-02
-8.116984367370605469e-02
-4.390199109911918640e-02
4.511872306466102600e-02
6.210827827453613281e-02
9.367251396179199219e-02
-7.605739682912826538e-02
5.149029567837715149e-02
3.071767836809158325e-02
9.504960849881172180e-03
-6.420616060495376587e-02
7.994458079338073730e-02
2.303766831755638123e-02
8.109735697507858276e-02
3.730500489473342896e-02
4.763400554656982422e-02
-1.328713493421673775e-03
1.520334929227828979e-02
2.743902616202831268e-02
8.097474277019500732e-02
-9.565956145524978638e-02
2.617197297513484955e-02
-8.041204512119293213e-02
4.252060130238533020e-02
3.742735832929611206e-02
-4.884698241949081421e-02
3.601029142737388611e-02
6.640987098217010498e-02
4.675787314772605896e-02
-3.178896009922027588e-02
3.651266917586326599e-02
-6.173530593514442444e-02
-3.848272189497947693e-02
-8.162357658147811890e-02
4.470663517713546753e-02
-7.543995976448059082e-02
-8.286287635564804077e-02
-6.819191575050354004e-02
-4.958661645650863647e-02
6.406436115503311157e-02
9.688719362020492554e-02
-5.790315568447113037e-02
-9.343607723712921143e-02
6.969066709280014038e-02
9.026037901639938354e-02
-9.477280825376510620e-02
3.770856931805610657e-02
-3.241583704948425293e-02
5.720121040940284729e-02
-4.824701696634292603e-03
6.541530456161126494e-05
-5.847257561981678009e-03
1.561235520057380199e-03
6.395909190177917480e-02
6.763701885938644409e-02
-7.678984850645065308e-02
-5.870223511010408401e-03
-4.090264812111854553e-02
8.770369738340377808e-02
-2.212933823466300964e-02
-1.031436622142791748e-01
2.311401069164276123e-03
-1.955650746822357178e-02
-3.774450393393635750e-03
2.324683824554085732e-03
7.148600369691848755e-02
-9.337927401065826416e-02
5.754663050174713135e-02
4.966106265783309937e-02
1.270914729684591293e-02
4.488174989819526672e-02
2.542033605277538300e-02
-1.795784570276737213e-02
3.298684954643249512e-03
4.024223238229751587e-02
6.473241001367568970e-02
8.841925114393234253e-02
-8.743133395910263062e-02
8.245456218719482422e-02
4.361068829894065857e-02
3.733647987246513367e-02
3.619480878114700317e-03
7.180760055780410767e-02
5.363187193870544434e-02
8.310276269912719727e-02
-1.906301593407988548e-03
3.857429698109626770e-02
7.447831798344850540e-03
9.029611945152282715e-02
7.852816581726074219e-02
2.507948875427246094e-02
-4.900609329342842102e-02
-6.273643672466278076e-02
-2.116481587290763855e-02
-2.452426962554454803e-02
4.687682911753654480e-02
-3.746069222688674927e-02
1.020414382219314575e-01
9.068371355533599854e-02
-3.174366056919097900e-02
-7.346910983324050903e-02
-1.028013881295919418e-02
1.644109492190182209e-03
7.449491415172815323e-03
8.308471180498600006e-03
6.002211943268775940e-02
-5.928023532032966614e-02
-4.013588652014732361e-02
3.708779066801071167e-02
3.750598058104515076e-02
5.969961732625961304e-02
6.438282132148742676e-02
3.591760247945785522e-02
1.005934029817581177e-01
3.746963292360305786e-02
8.175448328256607056e-02
2.323143184185028076e-02
-2.851474564522504807e-03
7.810251787304878235e-03
-8.400937169790267944e-02
-2.776576438918709755e-03
-2.706280350685119629e-02
-3.999599069356918335e-02
-5.797190591692924500e-02
-4.042412620037794113e-03
1.614414714276790619e-02
-5.853383615612983704e-02
-4.464277625083923340e-02
-5.029654130339622498e-02
-9.174831956624984741e-02
6.356678437441587448e-03
-7.407233119010925293e-02
-3.533391654491424561e-02
-2.831911295652389526e-02
-5.631749331951141357e-02
1.015846729278564453e-01
-3.685705736279487610e-02
-7.211267948150634766e-02
9.335198439657688141e-03
-6.439013779163360596e-02
8.748010545969009399e-02
1.189905777573585510e-02
-7.057665288448333740e-02
5.489627644419670105e-02
6.774276494979858398e-02
8.435784280300140381e-02
1.880120299756526947e-02
6.388796120882034302e-02
4.427909106016159058e-02
1.201271917670965195e-02
1.304393168538808823e-03
-3.284507989883422852e-02
8.841291815042495728e-02
6.867504213005304337e-03
-1.377256307750940323e-02
1.490569789893925190e-03
3.378301486372947693e-02
-4.636549577116966248e-02
-1.567790750414133072e-03
-6.634727120399475098e-02
-8.888939023017883301e-02
-2.566991001367568970e-02
-8.844962716102600098e-02
-1.909360662102699280e-02
1.092949509620666504e-01
-1.259000785648822784e-02
3.074237704277038574e-02
-2.123974962159991264e-03
-8.420977741479873657e-02
5.240704864263534546e-02
2.595847286283969879e-02
1.015184540301561356e-02
-2.754230797290802002e-02
4.385405033826828003e-02
6.515155732631683350e-02
-2.814337611198425293e-02
2.691837493330240250e-03
1.029893197119235992e-02
-6.550888717174530029e-02
4.362955316901206970e-02
-1.878887414932250977e-02
8.324479311704635620e-02
8.996361494064331055e-02
-7.618368417024612427e-02
3.656345233321189880e-02
1.718760281801223755e-02
8.830366283655166626e-02
2.290752157568931580e-02
8.210767060518264771e-02
1.423965394496917725e-02
-5.772447213530540466e-03
5.727318674325942993e-02
-5.765490606427192688e-02
3.401712700724601746e-02
3.056508302688598633e-02
3.190724644809961319e-03
-1.143389269709587097e-01
-6.822048872709274292e-02
8.960006386041641235e-02
-3.309062495827674866e-02
3.127494826912879944e-03
-5.846995860338211060e-02
-6.958603858947753906e-02
1.812308840453624725e-02
-7.051842659711837769e-02
6.064203754067420959e-02
-2.670760825276374817e-02
8.855799585580825806e-02
5.264819040894508362e-02
-6.156644225120544434e-02
2.456856705248355865e-02
-1.066785119473934174e-02
-1.656945422291755676e-02
7.804243266582489014e-02
3.158137842547148466e-04
-9.075786918401718140e-02
5.144783109426498413e-02
-8.567276410758495331e-03
-7.095503807067871094e-02
-3.633231669664382935e-02
-4.116096347570419312e-02
-9.006042778491973877e-02
8.542689681053161621e-02
-1.092862244695425034e-02
-7.706838846206665039e-02
2.690253779292106628e-02
-2.390003390610218048e-02
3.332743793725967407e-02
2.627567760646343231e-02
-5.039510130882263184e-02
-6.665591150522232056e-02
9.129536896944046021e-02
-8.438755571842193604e-02
2.944588195532560349e-03
4.215372353792190552e-02
-1.987103186547756195e-02
1.707803457975387573e-02
-8.277628570795059204e-02
8.085922151803970337e-02
3.005856089293956757e-02
1.016810387372970581e-01
7.969828695058822632e-02
-7.572600990533828735e-02
-5.653120577335357666e-03
1.137845963239669800e-01
3.306262195110321045e-02
8.551009930670261383e-03
-6.059552729129791260e-02
7.876705378293991089e-02
-6.163780391216278076e-02
1.275901589542627335e-02
2.031672559678554535e-02
-8.399932831525802612e-02
-3.527972474694252014e-02
-8.638285100460052490e-02
-9.343067556619644165e-02
1.224286202341318130e-02
-7.348321378231048584e-02
-7.383524626493453979e-02
-2.043721266090869904e-03
-5.588030908256769180e-03
-7.984904944896697998e-02
8.937754482030868530e-02
4.812407866120338440e-02
-3.414975851774215698e-02
5.050392076373100281e-02
6.840377300977706909e-02
7.806186913512647152e-04
4.355693235993385315e-02
-2.670059539377689362e-02
-9.628277271986007690e-02
-4.267004877328872681e-02
1.226390805095434189e-02
8.171699196100234985e-02
-2.554205246269702911e-02
-5.976118147373199463e-02
-6.524623930454254150e-02
-7.435670495033264160e-02
6.515973806381225586e-02
-5.521674826741218567e-02
6.403516232967376709e-02
3.278907760977745056e-02
-1.382183167152106762e-03
-1.266221329569816589e-02
5.805119499564170837e-02
-3.409733250737190247e-02
-8.101847767829895020e-02
-3.725150227546691895e-02
1.004269123077392578e-01
1.102411653846502304e-02
5.634665489196777344e-03
3.786632046103477478e-02
-5.009558424353599548e-02
2.426273562014102936e-02
-8.944938331842422485e-02
2.506262063980102539e-02
-4.402409540489315987e-04
6.797885149717330933e-02
-4.576046764850616455e-02
5.330639332532882690e-02
-3.775205463171005249e-02
5.671381577849388123e-02
8.924525976181030273e-02
-8.774872985668480396e-04
2.272484637796878815e-02
2.990310639142990112e-02
2.287658629938960075e-03
-2.544239535927772522e-02
-8.833033591508865356e-02
-8.421911299228668213e-02
-8.611596375703811646e-02
-7.694076746702194214e-02
7.895858585834503174e-02
9.162809699773788452e-02
8.690585196018218994e-02
9.713037312030792236e-02
1.058395132422447205e-01
6.528463214635848999e-02
8.053014986217021942e-03
-3.347989916801452637e-02
-7.364202290773391724e-02
9.508525580167770386e-02
4.839688166975975037e-02
6.198944896459579468e-02
-2.148742787539958954e-02
7.415089011192321777e-02
-8.417431265115737915e-02
1.741992682218551636e-02
-8.406620472669601440e-02
2.334921993315219879e-02
