-3.217470273375511169e-02
-4.815000295639038086e-02
-1.502048224210739136e-01
-1.718651875853538513e-02
2.988347411155700684e-02
5.513401329517364502e-02
-5.789890512824058533e-02
-8.922523818910121918e-03
2.258958853781223297e-02
5.140433460474014282e-02
-2.759198099374771118e-02
-6.981295347213745117e-02
1.872594803571701050e-01
2.002429962158203125e-02
8.007749915122985840e-02
8.658727630972862244e-03
8.250889927148818970e-02
1.141417846083641052e-01
2.663425356149673462e-02
-6.896317750215530396e-02
-1.032043397426605225e-01
-7.614742219448089600e-02
-8.905760943889617920e-03
-8.942738920450210571e-02
6.931826472282409668e-02
-1.352653205394744873e-01
-9.622257202863693237e-02
-1.910252124071121216e-02
-4.762218892574310303e-02
7.436323910951614380e-02
4.161277040839195251e-02
1.736603304743766785e-02
4.191567655652761459e-03
4.079979658126831055e-02
-2.266604080796241760e-02
8.928842842578887939e-02
7.719212770462036133e-02
4.947593435645103455e-02
5.142472684383392334e-02
-3.477243334054946899e-02
1.804347895085811615e-02
-8.193222433328628540e-02
-1.605394780635833740e-01
6.893896311521530151e-02
3.686336427927017212e-02
9.371479600667953491e-02
6.304583698511123657e-02
-1.579500734806060791e-01
9.028645232319831848e-03
1.158977076411247253e-01
2.209593355655670166e-02
-1.200036052614450455e-02
-1.141274198889732361e-01
-6.606555730104446411e-02
-9.137462079524993896e-02
6.215261667966842651e-02
-7.139980327337980270e-03
-9.614468365907669067e-02
7.104747742414474487e-02
5.638140067458152771e-02
2.073038555681705475e-02
-1.014868319034576416e-01
5.735206976532936096e-02
-8.607026934623718262e-02
3.358903573825955391e-03
-2.014647424221038818e-01
2.243175543844699860e-02
2.565091848373413086e-02
7.488194853067398071e-02
-2.730337344110012054e-02
1.412254422903060913e-01
1.433804035186767578e-01
-4.607031494379043579e-02
-3.417110815644264221e-02
1.850314997136592865e-02
1.263966131955385208e-02
-7.305134832859039307e-02
-4.494965076446533203e-02
6.784532219171524048e-02
-6.756348162889480591e-02
7.051025331020355225e-02
1.197197884321212769e-01
5.382191389799118042e-02
-6.953542679548263550e-02
-4.506009072065353394e-02
-1.060988232493400574e-01
-2.871127054095268250e-02
1.437311293557286263e-03
5.548964813351631165e-02
3.295653685927391052e-02
2.395062148571014404e-02
-5.417771264910697937e-02
1.991674862802028656e-02
-3.878266364336013794e-02
-7.347472757101058960e-02
7.126162946224212646e-02
1.228971257805824280e-01
-6.435657292604446411e-02
6.614568084478378296e-02
3.047449747100472450e-03
-7.032008469104766846e-02
8.387482911348342896e-02
-3.925406932830810547e-02
-9.328646212816238403e-02
7.149115949869155884e-02
7.706404663622379303e-03
4.381083324551582336e-02
6.495306640863418579e-02
3.842074796557426453e-02
-7.037241011857986450e-02
-6.050029024481773376e-02
-6.316670682281255722e-03
-4.577724635601043701e-02
-8.337420411407947540e-03
-4.542634263634681702e-02
5.607360973954200745e-02
2.378919348120689392e-02
-1.053921692073345184e-02
1.253499686717987061e-01
7.266192231327295303e-03
-8.281416445970535278e-02
1.568865217268466949e-02
1.107349246740341187e-02
-3.211494768038392067e-03
6.848287582397460938e-02
9.329410642385482788e-02
5.621898174285888672e-02
-7.898639887571334839e-03
-2.006924152374267578e-02
-3.129808604717254639e-02
-2.399249188601970673e-02
5.506901443004608154e-02
5.424188915640115738e-03
5.907691642642021179e-02
-1.652947999536991119e-02
-1.163692492991685867e-02
-1.166949123144149780e-01
-7.449121028184890747e-02
-1.653834804892539978e-02
-5.974953249096870422e-02
-4.979069903492927551e-02
-2.085299417376518250e-02
2.219135314226150513e-02
1.031264849007129669e-02
2.943940274417400360e-02
5.216203629970550537e-02
2.598237805068492889e-02
-8.302632719278335571e-02
2.581276465207338333e-03
9.573467075824737549e-02
5.048313643783330917e-03
-9.608206339180469513e-03
5.719000473618507385e-02
2.585324691608548164e-03
2.233640849590301514e-02
-3.707191348075866699e-02
-1.001715138554573059e-01
-5.373751372098922729e-02
1.473752781748771667e-02
-1.651243888773024082e-03
9.583204239606857300e-02
1.248164940625429153e-02
-5.032411590218544006e-02
-1.035593375563621521e-01
-1.294754073023796082e-02
-5.813264101743698120e-02
-1.769600436091423035e-02
-3.496960550546646118e-02
-5.084244906902313232e-02
-4.661790654063224792e-02
4.229573905467987061e-02
1.921034045517444611e-02
6.717658042907714844e-02
-2.195730060338973999e-02
4.752299189567565918e-02
-5.562868341803550720e-02
1.461767498403787613e-02
-3.201984614133834839e-02
8.551530539989471436e-02
8.386008441448211670e-02
-7.354193925857543945e-02
-8.350447565317153931e-02
3.591514006257057190e-02
-4.674745351076126099e-02
-5.718367174267768860e-02
7.718759030103683472e-02
4.956385120749473572e-02
7.083245366811752319e-02
-2.581955865025520325e-03
-8.214706182479858398e-02
7.761818915605545044e-02
6.387353874742984772e-03
-9.457677369937300682e-04
1.122690141201019287e-01
-1.034057978540658951e-02
-5.495859682559967041e-02
-1.578868478536605835e-01
-3.552823327481746674e-03
-1.024058684706687927e-01
-1.379527598619461060e-01
3.751773620024323463e-04
7.804367691278457642e-03
-1.452866592444479465e-03
3.513804171234369278e-03
-5.292997136712074280e-02
-7.976407557725906372e-02
4.110856354236602783e-02
-2.881026640534400940e-02
-6.739455420756712556e-05
-6.202331930398941040e-02
3.096960671246051788e-02
-5.771898850798606873e-02
8.489149622619152069e-03
-1.086798980832099915e-01
2.870419993996620178e-02
-1.093481387943029404e-02
-3.778723999857902527e-02
9.068814665079116821e-02
-2.544180955737829208e-03
1.751422695815563202e-02
1.001897603273391724e-01
-1.388199776411056519e-01
-1.447577960789203644e-02
5.891248583793640137e-02
8.671092800796031952e-04
4.376922920346260071e-02
1.470609754323959351e-02
-6.019250303506851196e-02
1.114164143800735474e-01
9.535492956638336182e-02
-4.267346858978271484e-02
-1.295042131096124649e-02
8.424866199493408203e-02
-3.328141942620277405e-02
-4.620750620961189270e-02
1.005917415022850037e-01
5.407680198550224304e-02
-2.801437675952911377e-02
7.838984602130949497e-04
9.703840129077434540e-03
2.201382443308830261e-02
-4.655194282531738281e-02
-8.544281125068664551e-02
1.596037647686898708e-03
-3.367519006133079529e-02
2.650056220591068268e-02
4.229612648487091064e-02
-7.202908396720886230e-02
6.339396536350250244e-02
-5.948417820036411285e-03
1.398262102156877518e-02
-1.436712965369224548e-02
7.572704553604125977e-02
1.826993189752101898e-02
8.025847375392913818e-03
-3.851454937830567360e-03
-9.703011065721511841e-02
4.593927040696144104e-02
-2.284999005496501923e-02
-1.000386849045753479e-02
5.225106701254844666e-02
7.164091803133487701e-03
-6.432957947254180908e-02
7.353731989860534668e-02
2.738248184323310852e-02
-2.578552253544330597e-02
-9.802885353565216064e-03
1.529171615839004517e-01
-4.282797500491142273e-02
6.007451564073562622e-02
9.815696626901626587e-03
-6.699364632368087769e-02
1.011182516813278198e-01
9.562207758426666260e-02
4.008066654205322266e-02
-3.261732682585716248e-02
1.727741584181785583e-02
-1.526477932929992676e-02
7.570586353540420532e-02
1.087798848748207092e-01
-5.658139660954475403e-02
-6.856595724821090698e-02
-6.059874314814805984e-03
-2.606482058763504028e-02
-4.799915850162506104e-02
1.720180921256542206e-02
-2.015495486557483673e-02
5.269771208986639977e-04
1.737961918115615845e-02
5.723844096064567566e-02
1.781281456351280212e-02
8.681382238864898682e-02
3.388780727982521057e-02
6.727789342403411865e-02
4.891848191618919373e-03
4.677704535424709320e-03
2.760523371398448944e-02
2.209331607446074486e-03
-1.217938810586929321e-01
4.940878972411155701e-02
-6.939862668514251709e-02
-9.537912905216217041e-03
-8.431562036275863647e-02
-1.473636478185653687e-01
7.215688377618789673e-02
-6.707743555307388306e-02
4.673684388399124146e-02
7.844021171331405640e-02
-4.614474251866340637e-02
-4.114143922924995422e-02
-5.188909173011779785e-02
-9.715868160128593445e-03
9.348949044942855835e-02
-3.477677330374717712e-02
6.042370945215225220e-02
3.784913942217826843e-02
7.740356493741273880e-03
-9.009104967117309570e-02
-1.395942866802215576e-01
1.474305987358093262e-01
2.033429779112339020e-02
-1.133823469281196594e-01
3.648107126355171204e-02
1.968051493167877197e-02
4.153300076723098755e-02
-4.451387096196413040e-03
-8.918043971061706543e-02
-1.117145791649818420e-01
-1.329811784671619534e-04
-8.903752267360687256e-02
-5.218670517206192017e-02
3.324167802929878235e-02
-1.700219511985778809e-02
-4.552406072616577148e-02
4.256943985819816589e-02
5.737390369176864624e-02
-9.891754947602748871e-03
-1.089334636926651001e-01
-6.762825697660446167e-02
-3.874553740024566650e-02
4.497047886252403259e-02
-1.023482680320739746e-01
1.805747672915458679e-02
2.611509151756763458e-02
-4.173575341701507568e-02
8.742569386959075928e-02
5.591383203864097595e-03
-1.651501804590225220e-01
1.323647797107696533e-02
-6.907586939632892609e-03
5.073632299900054932e-02
5.626939702779054642e-03
7.387070357799530029e-02
4.338818043470382690e-02
6.506610196083784103e-03
7.528094202280044556e-02
-7.352920249104499817e-03
6.635451316833496094e-02
5.897997412830591202e-03
-1.558539364486932755e-02
1.772884465754032135e-02
4.393346980214118958e-02
3.728201240301132202e-02
-1.814937684684991837e-03
-2.165857143700122833e-02
-9.884841740131378174e-02
-1.441584620624780655e-02
1.828830456361174583e-03
-1.861618645489215851e-02
6.922356039285659790e-02
-5.239122360944747925e-02
4.277952015399932861e-02
1.156570296734571457e-02
5.567210726439952850e-03
-4.389943927526473999e-02
-9.970833361148834229e-02
8.553124219179153442e-02
2.833793126046657562e-02
2.321563474833965302e-02
-1.152619346976280212e-01
3.148054704070091248e-02
2.083546482026576996e-02
2.107221446931362152e-02
3.384209005162119865e-03
1.795152015984058380e-02
-2.518679201602935791e-02
2.175339870154857635e-02
1.047763079404830933e-01
8.240142464637756348e-02
1.333956718444824219e-01
-9.495642036199569702e-03
6.826090067625045776e-02
5.684483051300048828e-02
-3.348102793097496033e-02
4.085385426878929138e-02
1.467857789248228073e-02
-1.142138894647359848e-02
7.695630937814712524e-02
-6.385184079408645630e-02
2.026695944368839264e-02
-4.208619706332683563e-03
2.407515048980712891e-02
8.766157925128936768e-02
6.777422875165939331e-02
1.240804977715015411e-02
-9.916651993989944458e-02
4.333008453249931335e-02
3.861714154481887817e-02
2.871114760637283325e-02
-9.597012773156166077e-03
3.001992125064134598e-03
-4.465769976377487183e-02
-3.648326918482780457e-02
-7.497343420982360840e-02
-3.164147213101387024e-02
-1.086933817714452744e-02
-3.279392048716545105e-02
1.016889605671167374e-02
7.934502512216567993e-02
-4.279460012912750244e-02
1.092410385608673096e-01
1.126416996121406555e-01
-9.476910531520843506e-02
-3.581630066037178040e-03
-1.499516703188419342e-02
4.566564783453941345e-02
-3.947638347744941711e-02
9.244287759065628052e-02
-4.190462827682495117e-02
2.254573442041873932e-02
2.082985453307628632e-02
-6.407617032527923584e-02
6.927680969238281250e-02
3.193722665309906006e-02
4.086561501026153564e-02
2.069914527237415314e-02
6.153046619147062302e-03
-2.175090648233890533e-02
3.436939045786857605e-02
-7.535783201456069946e-02
2.327358117327094078e-03
-3.566937521100044250e-02
-4.298614338040351868e-02
1.732813380658626556e-02
-1.340383081696927547e-03
1.069488096982240677e-02
-4.697703942656517029e-02
-1.115020811557769775e-01
-1.853004284203052521e-02
-1.056040748953819275e-01
3.168467665091156960e-03
2.542579313740134239e-03
9.453757852315902710e-02
-4.190618544816970825e-02
3.713231533765792847e-02
3.638300672173500061e-02
-1.070673111826181412e-02
-1.082713082432746887e-01
-6.567654013633728027e-02
-1.033103279769420624e-02
4.805543646216392517e-02
-3.741057589650154114e-02
-3.759371815249323845e-03
-1.158036142587661743e-01
-1.815021969377994537e-02
-4.498077556490898132e-02
1.279503665864467621e-02
2.068660454824566841e-03
-1.103406995534896851e-01
3.289009258151054382e-02
4.851455986499786377e-02
3.220678493380546570e-02
3.928785398602485657e-02
2.270092628896236420e-02
2.780890837311744690e-02
1.119045191444456577e-04
5.845268443226814270e-02
-2.783554047346115112e-02
7.973281294107437134e-02
-8.185637742280960083e-02
-5.054007098078727722e-02
-4.193314164876937866e-02
-3.099278360605239868e-02
-1.769800297915935516e-02
-5.992280691862106323e-02
1.783660054206848145e-02
1.088699772953987122e-01
-5.744371563196182251e-02
2.911371644586324692e-03
6.885317713022232056e-02
8.215480297803878784e-02
-1.001834943890571594e-01
-7.922314107418060303e-02
-1.522939745336771011e-02
-3.547065705060958862e-02
4.386544972658157349e-02
-2.933012694120407104e-02
1.075262501835823059e-01
-4.543670266866683960e-02
-6.709792464971542358e-02
3.454655408859252930e-02
3.629571199417114258e-02
-5.571444053202867508e-03
1.286575347185134888e-01
7.204671949148178101e-02
5.705143883824348450e-02
2.775397524237632751e-02
-7.283611595630645752e-02
-8.896283805370330811e-02
-1.279584169387817383e-01
-3.424980863928794861e-02
1.549155116081237793e-01
-2.149172313511371613e-02
-2.461362164467573166e-03
2.505369018763303757e-03
-3.574920445680618286e-02
-7.736266590654850006e-03
-4.833691194653511047e-02
-1.573278568685054779e-02
-5.917808972299098969e-03
-9.204505383968353271e-02
-8.420802652835845947e-02
-7.001764327287673950e-02
4.438962205313146114e-04
5.310993175953626633e-03
-1.854966278187930584e-03
-1.178806088864803314e-02
5.198154598474502563e-02
6.120706722140312195e-02
-1.478223595768213272e-02
-8.017639815807342529e-02
3.570572286844253540e-02
-1.135704107582569122e-02
-5.989237129688262939e-02
3.468004614114761353e-02
-6.908566504716873169e-02
4.313417896628379822e-02
-7.847417145967483521e-03
-2.470682607963681221e-03
1.749098673462867737e-02
6.797787547111511230e-02
5.712614953517913818e-02
-1.252465229481458664e-02
-4.613044112920761108e-02
-1.078754514455795288e-01
-3.492195531725883484e-02
5.481983721256256104e-02
1.255418062210083008e-01
-3.732791543006896973e-02
-8.736561983823776245e-02
4.820889607071876526e-02
3.864147933200001717e-03
3.304415196180343628e-02
-1.416927017271518707e-02
2.507720142602920532e-02
5.176398903131484985e-02
-4.279252886772155762e-02
4.962771013379096985e-02
4.513106495141983032e-02
1.206157878041267395e-01
-1.537380646914243698e-02
2.342798933386802673e-02
-5.596078932285308838e-02
7.674822956323623657e-02
8.153232187032699585e-02
-5.501510202884674072e-02
-1.010865811258554459e-02
9.446857497096061707e-03
-7.101411372423171997e-02
9.565789252519607544e-02
-3.215441107749938965e-02
6.969918310642242432e-02
2.521711960434913635e-02
6.593306362628936768e-02
-1.741150766611099243e-02
1.873503252863883972e-02
1.847399026155471802e-02
-1.502527203410863876e-02
7.869454100728034973e-03
7.711525540798902512e-03
-2.678712084889411926e-02
1.939840242266654968e-02
-2.683736011385917664e-02
5.917468667030334473e-02
3.310996398795396090e-04
5.443351343274116516e-02
-1.958777895197272301e-03
4.945008084177970886e-03
3.599544521421194077e-03
-1.121126487851142883e-01
1.315522473305463791e-02
7.076679170131683350e-02
6.463967263698577881e-03
1.280584931373596191e-02
-3.217740356922149658e-02
3.326273057609796524e-03
3.358971327543258667e-02
6.002240628004074097e-02
-4.173364490270614624e-02
1.665847934782505035e-02
9.184717200696468353e-03
7.303885370492935181e-02
1.569283381104469299e-02
5.626636091619729996e-03
-9.472686052322387695e-02
-1.224089190363883972e-01
9.518880979157984257e-04
-2.344457060098648071e-02
-1.160571002401411533e-03
-4.697611182928085327e-02
7.358486298471689224e-03
-5.927761644124984741e-02
5.536601319909095764e-02
-1.496405154466629028e-02
5.206780042499303818e-03
6.804186850786209106e-02
3.388288989663124084e-02
2.205766364932060242e-02
-1.887335442006587982e-02
-1.147484704852104187e-01
-4.325667396187782288e-02
9.794325567781925201e-03
1.305168867111206055e-02
1.784805324859917164e-03
-1.191220339387655258e-02
-6.083230674266815186e-02
-7.445427775382995605e-02
-8.849802613258361816e-02
2.395926229655742645e-02
-7.604845333844423294e-03
8.698898367583751678e-03
-7.783110439777374268e-02
-1.050348673015832901e-02
-3.346283361315727234e-02
9.580809623003005981e-03
1.333126984536647797e-02
-5.631437152624130249e-02
-1.569020748138427734e-02
-6.245641969144344330e-03
5.179351940751075745e-02
-9.867921471595764160e-02
8.458456024527549744e-03
1.091779544949531555e-01
1.107707712799310684e-02
-8.965337183326482773e-04
-7.382822781801223755e-02
5.705510824918746948e-02
-5.103530734777450562e-02
-9.809924662113189697e-02
-3.622182831168174744e-02
7.434569299221038818e-02
5.934953223913908005e-04
4.715732857584953308e-02
-4.458508267998695374e-02
-2.919282950460910797e-02
-1.707151159644126892e-02
-1.557120238430798054e-03
-1.150777316070161760e-04
-4.283921420574188232e-02
-1.013902761042118073e-02
1.530636101961135864e-03
-4.984874650835990906e-02
8.119710534811019897e-02
-7.497232407331466675e-02
7.636436074972152710e-02
-9.380498901009559631e-03
1.039583701640367508e-02
4.891101270914077759e-04
-2.200438082218170166e-02
-7.519348710775375366e-02
-2.290538698434829712e-02
9.957193396985530853e-04
-1.058531180024147034e-01
-3.071587719023227692e-02
-4.168396815657615662e-03
-4.340512305498123169e-02
-9.270292520523071289e-02
1.072942316532135010e-01
3.389696031808853149e-02
6.464304029941558838e-02
7.102106697857379913e-03
-2.239001914858818054e-02
4.512196034193038940e-02
-4.081483930349349976e-03
-5.935891345143318176e-02
8.910696953535079956e-02
1.375262290239334106e-01
8.122061938047409058e-02
-2.385774813592433929e-02
1.207949444651603699e-01
2.455251477658748627e-02
8.759857714176177979e-02
-2.097299881279468536e-02
-4.345771670341491699e-02
1.171160936355590820e-01
5.888211727142333984e-02
2.106939256191253662e-02
6.500361114740371704e-02
-6.813816726207733154e-02
-1.044219508767127991e-01
-7.510129828006029129e-03
1.626767404377460480e-02
7.421438395977020264e-02
-5.535962805151939392e-02
5.374248698353767395e-02
1.045707892626523972e-02
-4.593054577708244324e-02
6.507760379463434219e-03
-1.643964834511280060e-02
4.510118067264556885e-02
-1.304040662944316864e-02
1.919656246900558472e-02
3.086442302446812391e-04
8.642221242189407349e-02
-3.840753436088562012e-02
2.064550993964076042e-03
1.897272840142250061e-02
-1.006426066160202026e-01
3.898702189326286316e-02
1.787381432950496674e-02
-4.387224093079566956e-02
8.055792003870010376e-02
2.490435261279344559e-03
3.353581577539443970e-02
2.628257498145103455e-02
6.183116883039474487e-02
-1.201421488076448441e-02
-2.995201013982295990e-02
-3.665663674473762512e-02
-3.564035519957542419e-02
-1.503604091703891754e-02
5.146744102239608765e-02
3.342239186167716980e-02
8.397692441940307617e-02
-8.275322616100311279e-03
-3.029509074985980988e-02
2.608418278396129608e-02
4.041963815689086914e-02
-1.493881177157163620e-02
6.104805320501327515e-02
-2.110743336379528046e-02
-1.185883432626724243e-01
1.797289215028285980e-02
3.574589267373085022e-02
-1.921750791370868683e-02
-5.566791817545890808e-02
5.225756764411926270e-02
1.656593196094036102e-02
4.784498363733291626e-02
3.009339980781078339e-02
8.351231366395950317e-02
3.031364409253001213e-03
2.316722832620143890e-02
-2.351999282836914062e-02
-9.333021193742752075e-02
-1.300527006387710571e-01
3.979193570557981730e-04
1.679319515824317932e-02
1.760269701480865479e-02
-4.399043321609497070e-02
-1.179277896881103516e-01
-1.426315959542989731e-02
-1.208020746707916260e-02
1.002548146061599255e-03
-1.320617645978927612e-01
-1.364416908472776413e-02
2.809215709567070007e-02
-7.036158442497253418e-02
