3.112533129751682281e-03
2.409830987453460693e-01
-2.337993867695331573e-02
1.180318146944046021e-01
-9.500921703875064850e-03
-1.602741479873657227e-01
-1.540282815694808960e-01
1.998370289802551270e-01
3.631469095125794411e-03
2.025199234485626221e-01
1.940504014492034912e-01
-1.103932663681916893e-05
1.199408397078514099e-01
8.417990058660507202e-02
-6.686866283416748047e-02
-2.478698045015335083e-01
-6.189966946840286255e-02
-2.325479686260223389e-01
-3.823025524616241455e-01
1.152709797024726868e-01
1.610638946294784546e-01
4.866894707083702087e-02
-1.834226846694946289e-01
-5.554365739226341248e-02
-2.680151164531707764e-01
2.086647599935531616e-01
1.033453047275543213e-01
1.592920720577239990e-02
8.103149384260177612e-02
5.583804566413164139e-03
-1.052183937281370163e-02
1.859101280570030212e-02
-6.001072749495506287e-02
1.491039842367172241e-01
-6.445953994989395142e-02
6.697809696197509766e-02
1.619069837033748627e-02
3.077013976871967316e-02
1.201261803507804871e-01
-9.757251292467117310e-02
-1.576358079910278320e-01
-1.101490035653114319e-01
1.203887611627578735e-01
1.627413034439086914e-01
-3.003404475748538971e-02
2.636370807886123657e-02
1.017014123499393463e-02
-1.590953916311264038e-01
1.073900759220123291e-01
-1.262902766466140747e-01
-9.101360291242599487e-02
-1.591374874114990234e-01
-1.234143003821372986e-01
6.966651231050491333e-02
2.922210656106472015e-02
4.962372779846191406e-02
-3.808233514428138733e-02
6.334149092435836792e-02
-2.288228869438171387e-01
-9.978168457746505737e-02
8.459533751010894775e-02
-4.528764635324478149e-02
-3.390608727931976318e-02
-2.511282823979854584e-02
-1.371262595057487488e-02
4.699603840708732605e-02
2.324289083480834961e-01
-2.205756306648254395e-01
-6.025354564189910889e-02
-3.595068305730819702e-02
-1.393077820539474487e-01
-1.037893369793891907e-01
-2.094203955493867397e-04
5.520433187484741211e-02
3.792122006416320801e-01
-5.112449824810028076e-02
2.872073054313659668e-01
5.613549798727035522e-02
-5.159898102283477783e-02
4.300026223063468933e-03
-3.938768506050109863e-01
3.782564699649810791e-01
1.095026358962059021e-01
-1.049938946962356567e-01
-2.804425358772277832e-01
3.206377848982810974e-02
6.424739211797714233e-02
2.659718394279479980e-01
9.404378384351730347e-02
1.020559458993375301e-03
-3.804416954517364502e-02
2.153040617704391479e-01
-9.201750159263610840e-02
-1.048277467489242554e-01
-7.285185903310775757e-02
-6.791150569915771484e-02
-5.557205528020858765e-02
-7.416730374097824097e-02
1.127026453614234924e-01
-1.389736533164978027e-01
-1.040706783533096313e-01
1.610198467969894409e-01
1.431967318058013916e-01
1.646250039339065552e-01
-1.405729651451110840e-01
5.247654393315315247e-02
-4.527293145656585693e-02
1.422904431819915771e-01
-1.761347651481628418e-01
1.430522650480270386e-01
-7.238717377185821533e-02
-4.822047427296638489e-02
-2.756996778771281242e-03
1.400208324193954468e-01
1.737728118896484375e-01
2.003757208585739136e-01
-1.994007229804992676e-01
-4.099889695644378662e-01
1.917171031236648560e-01
2.204460501670837402e-01
1.641031354665756226e-01
2.705880440771579742e-02
6.001933664083480835e-02
-2.768601477146148682e-01
6.712930649518966675e-02
1.796439439058303833e-01
4.296804592013359070e-02
-6.192111223936080933e-02
-2.189199253916740417e-02
3.377667744643986225e-04
7.459650188684463501e-02
-4.511208087205886841e-02
8.974494040012359619e-02
2.683836780488491058e-02
-1.565553396940231323e-01
-5.507520958781242371e-02
2.103479206562042236e-02
2.170101553201675415e-02
3.492778167128562927e-02
-8.013734966516494751e-02
-2.199240922927856445e-01
-1.200649216771125793e-01
8.431151509284973145e-02
1.358929276466369629e-01
7.411101460456848145e-02
7.628022134304046631e-02
-6.694031506776809692e-02
-7.380966562777757645e-04
-1.039132699370384216e-01
3.958167508244514465e-02
1.577723473310470581e-01
-2.124088853597640991e-01
-2.916333973407745361e-01
2.319727540016174316e-01
-3.176009654998779297e-01
-1.531491428613662720e-02
7.595621794462203979e-02
2.348305135965347290e-01
-1.011671572923660278e-01
-1.886931434273719788e-02
-8.808285929262638092e-03
1.809684745967388153e-02
-7.465368509292602539e-02
-7.339955121278762817e-02
-4.985314235091209412e-02
1.453061103820800781e-01
-2.451686263084411621e-01
-1.928666383028030396e-01
1.397349983453750610e-01
9.470921754837036133e-02
-1.757368743419647217e-01
1.372788697481155396e-01
-1.208988353610038757e-01
-1.766239553689956665e-01
4.216807708144187927e-02
4.252835512161254883e-01
1.881392896175384521e-01
6.111941859126091003e-02
1.136274412274360657e-01
7.822909951210021973e-02
-1.990544199943542480e-01
-1.498642861843109131e-01
-2.918931841850280762e-01
-9.934424608945846558e-02
9.381856769323348999e-02
-1.511176973581314087e-01
-3.268839046359062195e-02
1.736535280942916870e-01
1.536505967378616333e-01
-6.694540381431579590e-02
-4.081320390105247498e-02
1.289613395929336548e-01
-3.130236640572547913e-02
6.977792829275131226e-02
-3.959554806351661682e-02
-4.411794990301132202e-02
5.124527588486671448e-02
-2.224819213151931763e-01
2.124010398983955383e-02
9.764622896909713745e-02
-4.260268062353134155e-02
5.196521431207656860e-02
2.230903059244155884e-01
-1.108021065592765808e-01
1.869626529514789581e-02
-1.072054058313369751e-01
3.031598627567291260e-01
1.614504456520080566e-01
4.768658429384231567e-02
-1.321691274642944336e-02
-7.903859019279479980e-02
6.768302619457244873e-02
-2.743725478649139404e-01
-2.528475522994995117e-01
3.893624246120452881e-02
1.345406025648117065e-01
2.552698254585266113e-01
-1.726505458354949951e-01
-7.927070558071136475e-02
-2.395852506160736084e-01
2.104555368423461914e-01
-1.229264289140701294e-01
3.134472668170928955e-01
-3.073262870311737061e-01
2.718386985361576080e-02
-4.715336544904857874e-04
-7.512305863201618195e-03
-6.759654730558395386e-02
-1.842359267175197601e-02
7.221153378486633301e-02
-4.208769649267196655e-02
-3.039065515622496605e-03
1.509764194488525391e-01
-2.381370216608047485e-01
-8.130738139152526855e-02
-2.198754251003265381e-02
-1.053236871957778931e-01
-5.328397080302238464e-02
-1.392460707575082779e-02
1.016096919775009155e-01
8.206851035356521606e-02
-2.237289994955062866e-01
1.624570339918136597e-01
-4.559586197137832642e-02
4.108108207583427429e-02
-9.580940753221511841e-02
-1.766921579837799072e-01
-1.714039444923400879e-01
3.759690001606941223e-02
-2.408679872751235962e-01
-3.034848868846893311e-01
-2.072388539090752602e-03
-1.251832395792007446e-01
-2.060356438159942627e-01
5.031878128647804260e-02
-1.433483213186264038e-01
-9.165076166391372681e-02
-5.030637606978416443e-02
-1.323974109254777431e-03
-3.397813811898231506e-02
-1.180758848786354065e-01
9.120197035372257233e-03
4.647250473499298096e-02
1.168069839477539062e-01
-2.006253004074096680e-01
1.134319230914115906e-01
-1.164107546210289001e-01
-1.376697719097137451e-01
-1.340597122907638550e-01
6.238537654280662537e-02
-9.754901379346847534e-02
-1.617300212383270264e-01
-3.117010556161403656e-02
-1.964977383613586426e-01
-2.418532371520996094e-01
-1.084066107869148254e-01
-3.361779451370239258e-02
-5.068119149655103683e-03
-2.747604846954345703e-01
3.163791000843048096e-01
-1.714819967746734619e-01
1.327564008533954620e-02
-2.335028052330017090e-01
-1.994325071573257446e-01
-1.227810680866241455e-01
2.074170857667922974e-01
4.737848788499832153e-02
-9.237351268529891968e-02
-1.240136623382568359e-01
-5.486235767602920532e-02
-2.047845534980297089e-02
7.345177978277206421e-02
-7.748678792268037796e-03
1.762351579964160919e-02
-5.892701819539070129e-02
5.758272483944892883e-02
6.591978669166564941e-02
-9.900362789630889893e-02
4.812859743833541870e-02
8.261943608522415161e-02
-7.587606459856033325e-02
-1.538281291723251343e-01
-1.715402901172637939e-01
3.512090444564819336e-02
1.449828147888183594e-01
3.126801550388336182e-01
8.580463379621505737e-02
-8.869718760251998901e-03
-1.299387067556381226e-01
6.817755848169326782e-02
-3.418587893247604370e-02
3.036255016922950745e-02
3.158624097704887390e-02
1.124628819525241852e-02
-1.033836510032415390e-02
-3.369994834065437317e-02
3.472495973110198975e-01
2.146037369966506958e-01
1.060929372906684875e-01
2.105172276496887207e-01
7.856333255767822266e-02
-2.076990753412246704e-01
9.878464043140411377e-02
-6.290598772466182709e-03
-6.138576939702033997e-02
-9.477171301841735840e-02
-7.539435476064682007e-02
-1.325377821922302246e-01
1.052409410476684570e-01
7.008229196071624756e-02
-7.807908207178115845e-02
1.098197400569915771e-01
1.963776499032974243e-01
-3.934207931160926819e-02
4.099875316023826599e-02
1.165329813957214355e-01
-6.782887876033782959e-02
2.304068058729171753e-01
1.808955371379852295e-01
9.025747328996658325e-02
-8.776327595114707947e-03
1.505732238292694092e-01
-1.122228503227233887e-01
6.159804388880729675e-02
-4.894112050533294678e-02
-5.298476219177246094e-01
2.982519753277301788e-02
-2.195004075765609741e-01
2.339029312133789062e-01
-1.604650542140007019e-02
-8.834006637334823608e-02
-3.400461077690124512e-01
1.084843724966049194e-01
-1.680387556552886963e-01
1.499053388833999634e-01
1.628112792968750000e-01
1.270115971565246582e-01
5.175441503524780273e-02
5.257211998105049133e-02
-7.873862981796264648e-02
-4.306216214899905026e-05
1.205905750393867493e-01
-1.589001715183258057e-02
-2.531097531318664551e-01
-4.550680052489042282e-03
1.710990071296691895e-01
-1.697981506586074829e-01
-6.173966825008392334e-02
1.792992502450942993e-01
-5.858273711055517197e-03
2.088955342769622803e-01
-1.297836750745773315e-01
-1.478619873523712158e-01
-3.152726590633392334e-02
1.155582368373870850e-01
1.032718569040298462e-01
-1.754431240260601044e-02
-1.583137065172195435e-01
1.356137841939926147e-01
3.298055380582809448e-02
-3.808368369936943054e-02
1.462872475385665894e-01
-1.195201352238655090e-01
1.308651175349950790e-02
1.213295087218284607e-01
-1.501881889998912811e-02
-7.207810133695602417e-02
-1.416376978158950806e-01
-3.058505058288574219e-02
-1.982615739107131958e-01
-4.982991516590118408e-02
1.425331924110651016e-02
-1.075252145528793335e-01
6.092282384634017944e-02
9.385351091623306274e-03
1.020745187997817993e-01
4.101206734776496887e-02
2.041790187358856201e-01
4.163369908928871155e-02
3.845838457345962524e-02
2.108431421220302582e-02
1.410621480317786336e-04
3.849299624562263489e-02
-1.327768713235855103e-01
-2.573635280132293701e-01
9.029995650053024292e-02
-4.241646528244018555e-01
-6.887210905551910400e-02
1.047055944800376892e-01
1.114177983254194260e-02
4.331092536449432373e-01
-1.669848803430795670e-03
1.424520909786224365e-01
-5.903067812323570251e-02
-3.700213879346847534e-02
-6.436299532651901245e-02
-1.172624826431274414e-01
-5.337529256939888000e-02
6.670527905225753784e-02
1.582333259284496307e-02
1.116484925150871277e-01
1.423478722572326660e-01
1.028819307684898376e-01
-5.806925892829895020e-02
-1.395804286003112793e-01
-1.479930430650711060e-01
-1.336369961500167847e-01
-7.501380145549774170e-02
-4.278849810361862183e-02
9.681038558483123779e-02
-2.040430009365081787e-01
-9.984596818685531616e-02
1.729899793863296509e-01
2.197181135416030884e-01
2.130977213382720947e-01
1.149854585528373718e-01
1.480747908353805542e-01
-2.285587638616561890e-01
1.032487023621797562e-02
1.407827138900756836e-01
1.067645177245140076e-01
3.455368056893348694e-02
-6.096464768052101135e-02
4.099768102169036865e-01
6.514441221952438354e-02
2.137854099273681641e-01
5.049316678196191788e-03
-1.905157864093780518e-01
-1.383219659328460693e-01
-6.761455535888671875e-02
1.266939938068389893e-01
1.038318797945976257e-01
-1.142409443855285645e-02
-1.803084760904312134e-01
4.245777428150177002e-02
-7.352423854172229767e-03
1.769333705306053162e-02
5.116706714034080505e-02
3.450614959001541138e-02
-1.213653106242418289e-02
7.691872864961624146e-02
6.968933157622814178e-03
1.076485812664031982e-01
1.597783863544464111e-01
4.244113370077684522e-05
-2.402854338288307190e-02
1.137458309531211853e-01
-2.577170357108116150e-02
-8.764991909265518188e-02
1.069234982132911682e-01
3.849793225526809692e-02
1.407132595777511597e-01
2.955150306224822998e-01
1.624242663383483887e-01
-6.349017471075057983e-02
1.273666024208068848e-01
-2.791140079498291016e-01
-4.095658659934997559e-01
-2.683572769165039062e-01
-4.430755600333213806e-02
1.283028572797775269e-01
3.591482294723391533e-03
-1.007551178336143494e-01
1.287221326492726803e-03
-2.018438279628753662e-01
-1.876637786626815796e-01
1.282745599746704102e-01
8.447899669408798218e-02
7.897344231605529785e-02
-2.013084478676319122e-03
-1.195184588432312012e-01
1.068566590547561646e-01
-6.517753005027770996e-02
5.653471872210502625e-02
-7.605253159999847412e-02
1.318527162075042725e-01
-4.818974528461694717e-03
-6.206798553466796875e-02
1.289389580488204956e-01
-5.359870195388793945e-02
-1.742831803858280182e-02
-1.115173771977424622e-01
1.590007096529006958e-01
3.707569539546966553e-01
2.215515077114105225e-02
9.477037936449050903e-02
-8.879090845584869385e-02
-1.087845489382743835e-01
1.376748532056808472e-01
-2.178299576044082642e-01
1.356628537178039551e-01
-1.680324524641036987e-01
1.353391557931900024e-01
-2.708663642406463623e-01
-8.204161375761032104e-02
1.583322696387767792e-02
-1.721022725105285645e-01
1.219400316476821899e-01
1.253133565187454224e-01
-7.904659956693649292e-02
-3.876164257526397705e-01
-1.689326763153076172e-01
5.958961322903633118e-02
7.462523132562637329e-02
-7.083138078451156616e-02
2.113373950123786926e-02
-8.824560791254043579e-02
5.623745173215866089e-02
7.139959931373596191e-02
-1.724882051348686218e-02
-9.862019121646881104e-02
9.059839881956577301e-03
1.177525073289871216e-01
-4.144528880715370178e-02
7.989420741796493530e-02
1.360626071691513062e-01
1.051376685500144958e-01
9.339419007301330566e-02
2.399313747882843018e-01
4.272035881876945496e-02
-1.059774756431579590e-01
1.189649254083633423e-01
-1.492744535207748413e-01
-5.888221040368080139e-02
-1.593326032161712646e-01
-1.231597140431404114e-01
-7.597328629344701767e-03
-1.419497877359390259e-01
-7.234618067741394043e-02
-2.243000268936157227e-01
-3.879547119140625000e-02
-5.897977575659751892e-02
1.000902280211448669e-01
-2.089174091815948486e-01
1.552489101886749268e-01
1.031493917107582092e-01
-1.331645995378494263e-01
7.131993770599365234e-02
-8.917493373155593872e-02
1.005507782101631165e-01
-7.223255187273025513e-02
3.910924121737480164e-02
-5.562178790569305420e-03
-1.939304918050765991e-02
6.277685053646564484e-03
-2.064395844936370850e-01
2.268883772194385529e-02
8.796124905347824097e-02
-1.595144271850585938e-01
4.755824208259582520e-01
-2.198535650968551636e-01
1.161054074764251709e-01
-3.173185884952545166e-02
8.476388454437255859e-02
1.839396543800830841e-02
-5.297245979309082031e-01
-1.351271271705627441e-01
2.464728057384490967e-01
1.566073745489120483e-01
2.139547467231750488e-01
-7.046847790479660034e-02
2.762559242546558380e-02
1.663981005549430847e-03
-2.218037992715835571e-01
-2.009475789964199066e-02
3.657132387161254883e-02
-6.239788606762886047e-02
9.183177351951599121e-02
-4.425090923905372620e-02
8.021782338619232178e-02
5.166379734873771667e-02
-2.811490558087825775e-02
4.513462260365486145e-02
-2.894826419651508331e-02
1.598841249942779541e-01
-1.176143214106559753e-01
-1.401577293872833252e-01
4.141937941312789917e-02
1.482832282781600952e-01
-7.765338290482759476e-03
8.678176254034042358e-02
1.820746213197708130e-01
-1.442010402679443359e-01
-3.484756918624043465e-03
1.738927066326141357e-01
-1.542018819600343704e-02
-1.070154756307601929e-01
7.338661700487136841e-03
1.240839734673500061e-01
1.395016461610794067e-01
-2.723800539970397949e-01
-1.488320622593164444e-02
-3.311367928981781006e-01
1.754252314567565918e-01
1.591883040964603424e-02
1.695428341627120972e-01
-5.380596593022346497e-02
-7.785460352897644043e-02
-2.266507446765899658e-01
-1.651502400636672974e-01
6.400972604751586914e-02
1.265411078929901123e-01
-3.462730348110198975e-02
2.442003600299358368e-02
1.325526237487792969e-01
5.574892833828926086e-02
3.484290838241577148e-02
-5.580330640077590942e-02
3.903547301888465881e-02
7.126396894454956055e-02
-1.381784081459045410e-01
1.446200311183929443e-01
-1.434704065322875977e-01
1.820868439972400665e-02
1.175833120942115784e-01
3.407940566539764404e-01
-6.569147109985351562e-02
3.084257543087005615e-01
-1.268192380666732788e-01
-7.109497487545013428e-02
1.852007582783699036e-02
-4.919094145298004150e-01
2.911035530269145966e-02
-3.487432897090911865e-01
-3.227528184652328491e-02
6.369263678789138794e-02
4.449472762644290924e-03
4.341765120625495911e-02
-8.773292601108551025e-02
-1.202290877699851990e-01
-2.953423932194709778e-02
-7.567591965198516846e-02
-1.186026632785797119e-01
-1.970212906599044800e-02
1.142006665468215942e-01
1.963037066161632538e-02
3.871340304613113403e-02
-2.243124693632125854e-02
-6.683713942766189575e-02
-3.902509808540344238e-02
1.626112014055252075e-01
4.834187030792236328e-02
-9.389937669038772583e-02
1.299256533384323120e-01
-1.315526217222213745e-01
-5.458136275410652161e-02
-3.129868581891059875e-02
2.102966010570526123e-01
4.251810312271118164e-01
3.488295674324035645e-01
2.389017641544342041e-01
7.181260734796524048e-02
-3.689507767558097839e-02
1.091898139566183090e-02
-2.446929365396499634e-01
-1.553577184677124023e-01
1.127231046557426453e-01
8.598691225051879883e-02
-2.253728210926055908e-01
-2.395651489496231079e-02
-2.120521813631057739e-01
6.910993158817291260e-02
1.292296946048736572e-01
5.047260783612728119e-03
-2.101026177406311035e-01
2.381608039140701294e-01
7.773292250931262970e-03
-5.236387997865676880e-02
-1.274846941232681274e-01
4.796515777707099915e-02
-4.569052904844284058e-02
-4.779508709907531738e-02
-2.503192611038684845e-02
-4.131954535841941833e-02
7.996072620153427124e-02
-1.358466148376464844e-01
6.865764409303665161e-02
2.426699697971343994e-01
-1.789485514163970947e-01
1.160135772079229355e-02
5.280647426843643188e-02
4.686502516269683838e-01
2.197194248437881470e-01
1.709806919097900391e-02
-7.925768941640853882e-02
-7.206380367279052734e-02
-8.906944096088409424e-02
-4.881250858306884766e-01
-5.014190077781677246e-01
7.672113925218582153e-02
4.985473677515983582e-02
3.351165950298309326e-01
4.331836849451065063e-02
-3.704533353447914124e-02
-1.155886724591255188e-01
1.610933095216751099e-01
1.085834056138992310e-01
2.726031839847564697e-01
9.049303084611892700e-02
7.281999289989471436e-02
1.197042409330606461e-02
2.653113100677728653e-03
-8.309470117092132568e-02
-5.197990313172340393e-02
1.726612215861678123e-03
-5.204745754599571228e-02
-3.031691350042819977e-02
1.908227801322937012e-01
-9.066243655979633331e-03
4.151028394699096680e-02
1.253881752490997314e-01
1.959738582372665405e-01
-7.409630715847015381e-02
7.258310168981552124e-02
1.361346244812011719e-01
2.149449139833450317e-01
3.660690188407897949e-01
2.324402332305908203e-02
-5.225183442234992981e-02
-6.197483465075492859e-02
8.813209831714630127e-02
-1.697369217872619629e-01
2.919037938117980957e-01
1.532132476568222046e-01
2.016339153051376343e-01
1.322294771671295166e-01
-8.527224510908126831e-02
-9.204612672328948975e-02
2.508570672944188118e-03
-8.158992230892181396e-02
-1.391725689172744751e-01
2.184906899929046631e-01
2.665034681558609009e-02
3.824081271886825562e-02
-3.487819060683250427e-02
7.435487955808639526e-02
-2.201925963163375854e-02
2.846962958574295044e-02
3.232510061934590340e-03
-3.816338628530502319e-02
-3.183181956410408020e-02
-1.236837208271026611e-01
1.157901436090469360e-01
1.085976734757423401e-01
-1.054092198610305786e-01
5.268033593893051147e-02
-1.202841401100158691e-01
-2.166944146156311035e-01
1.717788726091384888e-01
-1.001840457320213318e-01
1.061624065041542053e-01
-1.139320433139801025e-01
-4.842017963528633118e-02
1.349121239036321640e-02
2.143836766481399536e-01
-2.769675254821777344e-01
-7.120436429977416992e-02
-1.576396226882934570e-01
-2.575335502624511719e-01
-7.552971690893173218e-02
1.871607899665832520e-01
-1.974470466375350952e-01
1.657059490680694580e-01
4.334638640284538269e-02
-2.622789442539215088e-01
1.817218959331512451e-01
1.109955385327339172e-01
-1.089089065790176392e-01
9.136190637946128845e-03
1.291592568159103394e-01
4.744752775877714157e-03
-1.016824394464492798e-01
-1.681071221828460693e-01
-7.661529630422592163e-02
9.152520447969436646e-02
-5.391720309853553772e-02
7.250995188951492310e-02
-8.215791732072830200e-02
-1.470920443534851074e-01
3.235203027725219727e-02
-1.291647553443908691e-01
-1.242280453443527222e-01
2.448094636201858521e-01
-1.304863542318344116e-01
3.657714277505874634e-02
-9.119740128517150879e-02
8.497307449579238892e-02
-2.731368541717529297e-01
1.704356372356414795e-01
-9.178575873374938965e-02
7.151314616203308105e-02
2.960370182991027832e-01
1.332643628120422363e-01
-1.634760051965713501e-01
1.622459441423416138e-01
1.869147270917892456e-01
9.824322164058685303e-02
-1.782205887138843536e-02
-1.014303788542747498e-01
1.158347204327583313e-01
3.325861413031816483e-03
-1.092017367482185364e-01
-1.246358230710029602e-01
-2.759712375700473785e-02
1.541132479906082153e-01
-1.430016569793224335e-02
-8.286376297473907471e-02
3.785189613699913025e-02
5.645415186882019043e-02
-5.661524832248687744e-02
-1.475086510181427002e-01
1.210619807243347168e-01
2.357485592365264893e-01
8.036417514085769653e-02
7.994927465915679932e-02
-5.257565644569694996e-04
9.761396795511245728e-02
4.504211246967315674e-02
1.227306723594665527e-01
2.522064745426177979e-01
3.158180043101310730e-02
1.477279067039489746e-01
1.472787708044052124e-01
-1.904007941484451294e-01
-1.180100366473197937e-01
-3.800823539495468140e-02
2.786629498004913330e-01
3.811044618487358093e-02
1.277956515550613403e-01
-6.706938892602920532e-02
1.795325726270675659e-01
1.528074964880943298e-02
-5.994721315801143646e-03
6.179174780845642090e-02
-3.948958590626716614e-02
-3.217842429876327515e-02
-1.291771382093429565e-01
-1.249373145401477814e-02
-1.394425034523010254e-01
8.787643909454345703e-02
-1.113328523933887482e-02
-4.030637443065643311e-02
1.483050733804702759e-01
1.194808781147003174e-01
1.708891429007053375e-02
1.576574146747589111e-01
-3.001040816307067871e-01
4.605177789926528931e-02
3.171982467174530029e-01
-2.429912984371185303e-02
5.249989777803421021e-02
7.292210310697555542e-02
3.863910138607025146e-01
7.386563718318939209e-02
-8.109317719936370850e-02
5.279706418514251709e-02
-1.262509971857070923e-01
1.633763313293457031e-01
5.653571709990501404e-02
6.615808606147766113e-02
-2.692026793956756592e-01
-9.023504331707954407e-03
-3.336584568023681641e-01
4.046927988529205322e-01
2.540168352425098419e-02
3.469443321228027344e-02
3.317954018712043762e-02
6.209915131330490112e-02
-3.359408117830753326e-03
3.802050277590751648e-02
5.186319723725318909e-02
3.944335877895355225e-02
3.840669244527816772e-02
-1.078814640641212463e-01
-3.297812491655349731e-02
-4.184596985578536987e-02
-2.081921696662902832e-01
-2.596981590613722801e-03
1.978558301925659180e-01
1.706893593072891235e-01
3.595979809761047363e-01
-2.381955236196517944e-01
1.345573663711547852e-01
-5.361599102616310120e-02
-6.429651379585266113e-02
-2.691184878349304199e-01
3.229713439941406250e-02
2.154938131570816040e-01
-1.071619763970375061e-01
8.546964824199676514e-02
2.158778607845306396e-01
-3.233802691102027893e-02
6.341972202062606812e-02
4.552299156785011292e-02
-1.168803218752145767e-02
-6.186061725020408630e-02
-2.845933660864830017e-02
-1.234338730573654175e-01
7.971493899822235107e-02
-8.299598842859268188e-02
-4.661491606384515762e-03
9.383243322372436523e-02
1.190352067351341248e-01
6.490001827478408813e-02
1.956788897514343262e-01
1.166262999176979065e-01
-2.543245814740657806e-02
1.326792240142822266e-01
4.743620380759239197e-02
1.950786113739013672e-01
1.442612111568450928e-01
-5.149451084434986115e-03
-4.125188291072845459e-01
1.355984956026077271e-01
-3.939690068364143372e-02
6.852321326732635498e-02
6.732955574989318848e-02
2.787579968571662903e-02
3.330821394920349121e-01
-2.436300218105316162e-01
-1.035584807395935059e-01
-9.161985479295253754e-03
2.124945819377899170e-01
-1.841076016426086426e-01
-5.897513031959533691e-02
5.315268039703369141e-02
-1.404484361410140991e-01
-4.314907267689704895e-02
1.964236497879028320e-01
-2.399148494005203247e-01
-8.408974856138229370e-03
-7.516910135746002197e-02
2.594783157110214233e-02
-1.427941769361495972e-01
-1.108378916978836060e-01
5.902836471796035767e-02
-5.093957111239433289e-02
6.748885661363601685e-02
8.947222493588924408e-03
-6.049839779734611511e-02
-1.639747619628906250e-01
-1.044608131051063538e-01
-1.384207047522068024e-02
-4.732344672083854675e-02
4.394259303808212280e-02
3.523068428039550781e-01
1.320467442274093628e-01
1.723853200674057007e-01
-1.286425441503524780e-02
4.666023701429367065e-02
-6.409212201833724976e-02
-1.892062090337276459e-02
-1.125684455037117004e-01
2.019236609339714050e-02
-8.563389629125595093e-02
3.744319975376129150e-01
1.067039649933576584e-02
2.428480423986911774e-02
-2.691293060779571533e-01
5.085318163037300110e-02
-2.741416683420538902e-03
9.998546540737152100e-02
2.942969501018524170e-01
2.367278002202510834e-02
3.094921074807643890e-02
2.048652991652488708e-02
8.245355635881423950e-02
1.568701118230819702e-02
-2.695305459201335907e-02
2.307136915624141693e-02
3.269353136420249939e-02
8.293481171131134033e-02
-2.103105373680591583e-02
-5.902184173464775085e-02
9.613579139113426208e-03
-1.239616647362709045e-01
1.155180558562278748e-01
-1.559341251850128174e-01
3.493256866931915283e-01
-1.409367471933364868e-01
-3.326595425605773926e-01
6.287759542465209961e-02
3.658225014805793762e-02
8.752742409706115723e-02
-1.601883023977279663e-01
-2.110533714294433594e-01
2.200648337602615356e-01
2.372763156890869141e-01
1.397921890020370483e-01
3.928980603814125061e-02
1.089204996824264526e-01
-1.017597243189811707e-01
-1.015005931258201599e-01
-1.637689620256423950e-01
1.368330568075180054e-01
1.692073643207550049e-01
4.691027104854583740e-03
-1.668860949575901031e-02
1.540450938045978546e-02
7.663051038980484009e-02
3.016135469079017639e-02
-7.759181410074234009e-02
8.565870230086147785e-04
-9.007710963487625122e-02
-7.744882255792617798e-02
-5.538787227123975754e-03
2.355988025665283203e-01
4.971975577063858509e-04
-1.847559362649917603e-01
-6.081055104732513428e-02
2.102199047803878784e-01
1.619944125413894653e-01
3.520885407924652100e-01
1.769733428955078125e-01
1.625419855117797852e-01
1.397077888250350952e-01
7.563217729330062866e-02
-4.592278897762298584e-01
-2.512660063803195953e-02
1.291896998882293701e-01
1.540807336568832397e-01
-5.114039778709411621e-02
1.123342365026473999e-01
-4.562827572226524353e-02
-1.174459084868431091e-01
1.097444817423820496e-01
-6.112028658390045166e-02
1.207614764571189880e-01
1.041239127516746521e-02
1.109638214111328125e-01
1.343456679023802280e-03
-4.517500475049018860e-02
2.881896309554576874e-02
-1.031811386346817017e-01
-2.430744282901287079e-02
-6.094654649496078491e-02
1.132663153111934662e-02
-2.640789151191711426e-01
3.815989941358566284e-02
4.911969602108001709e-02
-2.324482984840869904e-02
-1.521880831569433212e-02
1.182848289608955383e-01
-1.212007999420166016e-01
4.374761581420898438e-01
-1.109833829104900360e-02
3.236480951309204102e-01
-7.488110661506652832e-02
-5.825261399149894714e-02
1.768950521945953369e-01
-5.428845882415771484e-01
2.573941051959991455e-01
-2.256927043199539185e-01
-1.786568015813827515e-01
2.215010821819305420e-01
-9.622930735349655151e-02
2.131261676549911499e-01
-5.503614246845245361e-02
-1.724695786833763123e-03
1.360370195470750332e-03
-1.143336202949285507e-02
-5.675033852458000183e-02
1.128979995846748352e-01
-6.878039240837097168e-02
-1.500264368951320648e-02
5.353714525699615479e-02
7.481612265110015869e-02
3.215297311544418335e-02
7.819247990846633911e-02
-1.517666131258010864e-01
8.776094019412994385e-02
5.403908342123031616e-02
1.381575316190719604e-01
1.770043522119522095e-01
8.075993508100509644e-02
8.134520612657070160e-03
-1.138259395956993103e-01
1.893572807312011719e-01
8.850285410881042480e-02
8.174985647201538086e-02
6.140597164630889893e-02
-6.802605837583541870e-02
-7.120529562234878540e-02
2.991252578794956207e-03
-1.587489843368530273e-01
2.130188494920730591e-01
-1.567699313163757324e-01
4.685020446777343750e-02
2.213719636201858521e-01
-1.794124990701675415e-01
-2.043565548956394196e-02
1.386985778808593750e-01
1.225500851869583130e-01
1.562783680856227875e-02
1.637973785400390625e-01
-6.721182912588119507e-02
-7.844297587871551514e-02
-5.073607712984085083e-02
-1.167519986629486084e-01
-6.051461026072502136e-02
-7.399009913206100464e-02
1.180972903966903687e-01
-4.993198439478874207e-02
1.440703421831130981e-01
1.299110502004623413e-01
6.099176825955510139e-04
1.099719628691673279e-01
2.372768074274063110e-01
-1.305634975433349609e-01
-1.147537305951118469e-01
-2.140837721526622772e-02
-5.624793842434883118e-02
1.035854667425155640e-01
8.918778598308563232e-02
6.084308400750160217e-02
1.428204327821731567e-01
-5.073281750082969666e-02
1.748445779085159302e-01
3.742921650409698486e-01
1.970505155622959137e-02
-2.237626761198043823e-01
1.110394392162561417e-02
1.464411318302154541e-01
3.988488018512725830e-02
1.922648996114730835e-01
-8.717225492000579834e-02
-1.726787239313125610e-01
1.423686295747756958e-01
6.322962045669555664e-02
6.380299478769302368e-02
1.042756363749504089e-01
6.556482613086700439e-02
-2.331354096531867981e-02
-7.156614214181900024e-02
3.384605050086975098e-02
1.567836403846740723e-01
-4.196034371852874756e-02
1.675714738667011261e-02
2.297588735818862915e-01
-1.613591909408569336e-01
1.182782649993896484e-01
-8.336718380451202393e-02
-5.946651473641395569e-02
-1.801128387451171875e-01
-1.894888095557689667e-02
1.274200677871704102e-01
-4.381821677088737488e-02
-7.923726737499237061e-02
-7.505211979150772095e-02
3.861685469746589661e-02
-2.185818403959274292e-01
2.630198597908020020e-01
4.628071933984756470e-02
2.480643540620803833e-01
2.277729064226150513e-01
-1.384300440549850464e-01
-1.045348942279815674e-01
1.677316576242446899e-01
4.177254438400268555e-02
-5.380516126751899719e-02
-5.344853922724723816e-02
1.130589693784713745e-01
7.839049398899078369e-02
-1.405866146087646484e-01
-1.062625050544738770e-01
-7.382301241159439087e-02
3.081523254513740540e-02
-8.337737619876861572e-02
1.437256038188934326e-01
-3.727487847208976746e-02
4.831009730696678162e-02
9.476640075445175171e-02
2.610161900520324707e-02
-1.507201939821243286e-01
-2.832161635160446167e-02
-1.094333529472351074e-01
1.156832501292228699e-01
-1.888468861579895020e-01
3.015413880348205566e-01
-2.458472363650798798e-02
1.397849172353744507e-01
-2.156877890229225159e-02
1.449459344148635864e-01
-2.932311296463012695e-01
1.368565410375595093e-01
9.204577654600143433e-03
1.020851656794548035e-01
7.882236689329147339e-02
-5.822410061955451965e-02
-8.055830001831054688e-02
3.716740384697914124e-02
-1.562427431344985962e-01
2.168273031711578369e-01
2.827782034873962402e-01
4.082585871219635010e-02
1.053716242313385010e-01
-7.418330013751983643e-02
6.832889467477798462e-02
-7.476657629013061523e-02
-8.773297816514968872e-02
-2.144533954560756683e-02
2.095319926738739014e-01
1.525967568159103394e-02
-1.920806914567947388e-01
-4.092051088809967041e-02
-1.300539523363113403e-01
3.186580166220664978e-02
4.412362352013587952e-02
1.875637024641036987e-01
-3.355521261692047119e-01
-1.991670429706573486e-01
2.158062607049942017e-01
-7.688850909471511841e-02
4.840752854943275452e-02
-1.058087777346372604e-02
3.662784695625305176e-01
1.652743965387344360e-01
-2.754645347595214844e-01
-4.562641959637403488e-03
7.578457146883010864e-02
5.512505024671554565e-02
-7.713113725185394287e-02
3.172856196761131287e-02
-2.450339309871196747e-02
-1.199034750461578369e-01
-7.708170264959335327e-02
-2.805607914924621582e-01
-1.071082949638366699e-01
-6.826495379209518433e-02
-6.009813770651817322e-02
2.157773636281490326e-02
-8.079832047224044800e-02
1.051494777202606201e-01
2.495417185127735138e-02
1.666437536478042603e-01
4.644479230046272278e-02
2.037081122398376465e-01
-1.306245476007461548e-01
-9.108570963144302368e-02
-1.879273951053619385e-01
4.563313350081443787e-02
-1.034480556845664978e-01
-6.253642495721578598e-03
-2.263763844966888428e-01
-4.140679836273193359e-01
1.017315089702606201e-01
-8.786244317889213562e-03
-2.934097126126289368e-02
-2.106641381978988647e-01
3.832643032073974609e-01
-1.577467769384384155e-01
3.749845176935195923e-02
1.130947247147560120e-01
2.116538435220718384e-01
-1.705974526703357697e-02
4.503916949033737183e-02
6.423811614513397217e-02
7.768263667821884155e-02
-2.479542419314384460e-02
2.149823009967803955e-01
-2.161895036697387695e-01
8.555729687213897705e-02
-1.037076860666275024e-01
1.376509107649326324e-02
-5.209350213408470154e-02
-7.110939174890518188e-02
1.657185256481170654e-01
-3.344819881021976471e-03
9.127177298069000244e-02
1.249233931303024292e-01
-4.083089530467987061e-02
1.653839647769927979e-02
2.501451373100280762e-01
1.247258931398391724e-01
6.959737837314605713e-02
6.340946536511182785e-03
-2.682519853115081787e-01
-3.493752181529998779e-01
-1.135050226002931595e-02
-4.055916145443916321e-02
4.119004309177398682e-02
-8.741154521703720093e-02
-3.665478229522705078e-01
1.733054071664810181e-01
5.960534326732158661e-03
3.962093591690063477e-01
-3.158289939165115356e-02
1.630641818046569824e-01
-1.750294864177703857e-01
-1.131998226046562195e-01
-1.572811603546142578e-01
3.042407631874084473e-01
2.322404682636260986e-01
-1.157543510198593140e-01
7.097602635622024536e-02
3.831384936347603798e-03
1.293840557336807251e-01
7.231194525957107544e-02
-8.289970457553863525e-02
7.111646980047225952e-02
1.382030099630355835e-01
1.396100874990224838e-02
1.089911907911300659e-01
-1.710207313299179077e-01
-6.259660422801971436e-02
-3.522976860404014587e-02
-3.800161927938461304e-02
9.255368262529373169e-02
4.128271937370300293e-01
1.024462282657623291e-02
1.705110669136047363e-01
1.087003126740455627e-01
-4.157458618283271790e-02
9.197008609771728516e-02
-3.589196503162384033e-01
-2.215539962053298950e-01
-2.041863799095153809e-01
1.630746275186538696e-01
-1.282830238342285156e-01
1.773265749216079712e-01
1.081748530268669128e-01
-1.216544955968856812e-02
-1.765110194683074951e-01
-2.361960895359516144e-02
-8.314114809036254883e-02
1.321885138750076294e-01
-4.897328466176986694e-02
-6.775063276290893555e-02
-1.312649697065353394e-01
-2.617603912949562073e-02
8.105520904064178467e-02
6.948695331811904907e-02
8.008453249931335449e-02
5.669269338250160217e-02
1.949260085821151733e-01
-3.920941054821014404e-02
4.469275102019309998e-02
1.065243482589721680e-01
-1.287578325718641281e-02
-3.667949885129928589e-02
-1.726774126291275024e-01
-2.106147855520248413e-01
-1.453398261219263077e-02
1.124384440481662750e-02
-9.100391715764999390e-02
-7.155879586935043335e-02
-1.556145101785659790e-01
-2.198883332312107086e-03
-4.874991253018379211e-02
-1.392074674367904663e-01
2.074768096208572388e-01
1.880712620913982391e-02
-2.730316817760467529e-01
-1.401637792587280273e-01
1.425865143537521362e-01
-2.796510420739650726e-02
1.079726265743374825e-03
-3.592962026596069336e-02
-2.678227424621582031e-01
-1.255436427891254425e-02
-1.130202878266572952e-02
6.869753450155258179e-02
-2.160432562232017517e-02
6.884561479091644287e-02
2.358033694326877594e-02
8.558028191328048706e-02
-1.961914002895355225e-01
1.092627644538879395e-01
-1.153563857078552246e-01
1.476860046386718750e-01
8.957088738679885864e-02
-3.686223179101943970e-02
-2.810450270771980286e-02
9.890537708997726440e-02
-7.930511236190795898e-02
-1.153211295604705811e-01
2.625201456248760223e-02
-1.336908638477325439e-01
4.047927632927894592e-02
6.826730817556381226e-02
2.705258429050445557e-01
-2.334533631801605225e-01
-1.280760485678911209e-02
-2.322595193982124329e-02
-2.432516813278198242e-01
-2.271341681480407715e-01
-1.154615357518196106e-01
1.221385672688484192e-01
-1.262509077787399292e-01
1.733299940824508667e-01
2.835580147802829742e-03
-9.342818707227706909e-02
-7.344230264425277710e-02
7.401151955127716064e-02
-3.769301110878586769e-03
-1.370488405227661133e-01
6.753179430961608887e-02
1.203012615442276001e-01
-6.067835167050361633e-02
2.251925133168697357e-02
-8.592806011438369751e-02
-1.545275282114744186e-02
1.536712422966957092e-02
1.034304574131965637e-01
1.041819900274276733e-01
-1.226755306124687195e-01
-9.356877766549587250e-03
-2.711172103881835938e-01
1.566997021436691284e-01
2.216151356697082520e-01
-1.136325746774673462e-01
1.010604649782180786e-01
-1.181261762976646423e-01
2.071789801120758057e-01
-2.704036533832550049e-01
3.445036113262176514e-01
1.258449703454971313e-01
2.943338453769683838e-01
1.746151894330978394e-01
2.146887332201004028e-01
-3.224726915359497070e-01
9.195564687252044678e-02
5.118022486567497253e-02
3.671802952885627747e-02
-1.912261694669723511e-01
1.651167720556259155e-01
8.086757361888885498e-02
5.852944683283567429e-03
2.050343714654445648e-02
9.516659379005432129e-02
-1.208817362785339355e-01
-1.573877632617950439e-01
1.331963986158370972e-01
1.378434151411056519e-01
-1.090892106294631958e-01
-3.362473100423812866e-02
-4.504328221082687378e-02
-1.138029545545578003e-01
1.208934560418128967e-02
-1.488323062658309937e-01
-1.693292558193206787e-01
-1.516854912042617798e-01
2.313241064548492432e-01
-1.272669285535812378e-01
-9.284371137619018555e-02
1.258062869310379028e-01
-6.428373511880636215e-03
3.481654524803161621e-01
-2.346965819597244263e-01
1.046426594257354736e-01
-3.265648782253265381e-01
1.288243830204010010e-01
6.398267578333616257e-03
1.420536935329437256e-01
-3.370670080184936523e-01
-1.624097973108291626e-01
-1.342376172542572021e-01
-4.766596853733062744e-02
1.243416368961334229e-01
4.481679946184158325e-02
-1.136934980750083923e-01
8.220798522233963013e-02
5.618701502680778503e-02
-4.285387694835662842e-02
-5.724710226058959961e-02
-5.853659287095069885e-02
-1.163879930973052979e-01
1.604934781789779663e-01
-1.402421891689300537e-01
5.982805415987968445e-02
3.375351428985595703e-02
-1.362139917910099030e-02
5.146918818354606628e-02
2.083551883697509766e-01
1.463201344013214111e-01
1.003822833299636841e-01
-1.291158646345138550e-01
2.130849100649356842e-02
6.340343505144119263e-02
-2.950196862220764160e-01
-3.388129174709320068e-01
1.193136572837829590e-01
1.576130241155624390e-01
2.563162744045257568e-01
1.937951892614364624e-01
1.944815367460250854e-01
-1.662417352199554443e-01
2.131606936454772949e-01
1.222186461091041565e-01
1.018432974815368652e-01
-8.361660689115524292e-02
-1.674776524305343628e-02
-5.681107565760612488e-02
5.847379192709922791e-02
-1.235961169004440308e-01
-1.041482314467430115e-01
1.143639087677001953e-01
-1.196036391775123775e-04
-7.827825099229812622e-02
-4.079148918390274048e-02
-1.251592189073562622e-01
1.236691251397132874e-01
2.347458600997924805e-01
-1.480286121368408203e-01
2.850390039384365082e-02
8.917529135942459106e-02
-4.175004959106445312e-01
-2.592724747955799103e-02
-1.035198941826820374e-01
-1.645298004150390625e-01
-8.757141232490539551e-02
-8.777350187301635742e-02
4.445841014385223389e-01
2.070702910423278809e-01
2.727520763874053955e-01
1.497059911489486694e-01
-1.603868454694747925e-01
-4.187315702438354492e-02
2.608467824757099152e-02
2.548704668879508972e-02
3.299714997410774231e-02
1.945942789316177368e-01
-1.188197880983352661e-01
-1.226354241371154785e-01
4.101620614528656006e-02
-9.535692632198333740e-02
-5.609697476029396057e-02
-1.956181786954402924e-02
-1.238390803337097168e-01
1.354639139026403427e-02
6.761105358600616455e-02
1.177726089954376221e-01
-2.002629935741424561e-01
1.125607639551162720e-01
-1.431451588869094849e-01
1.892409920692443848e-01
1.686462201178073883e-02
-5.866716802120208740e-02
1.148974448442459106e-01
-1.671542972326278687e-01
1.692662835121154785e-01
4.410056471824645996e-01
5.490246787667274475e-02
-7.073449343442916870e-02
1.009155064821243286e-01
-1.775426864624023438e-01
-9.179432690143585205e-02
-2.730717062950134277e-01
-1.806612163782119751e-01
3.835406601428985596e-01
-1.980868168175220490e-02
-2.665755711495876312e-02
-1.447276473045349121e-01
-1.824883967638015747e-01
-1.041103377938270569e-01
2.177291214466094971e-01
-1.653775274753570557e-01
-1.225346475839614868e-01
-3.519669547677040100e-02
6.342459470033645630e-02
-1.786434557288885117e-03
1.045763045549392700e-01
7.473398000001907349e-02
7.912169396877288818e-02
-1.783649325370788574e-01
-9.195858240127563477e-02
-1.428013443946838379e-01
6.618456449359655380e-03
-1.910212822258472443e-02
8.827882260084152222e-02
1.207690387964248657e-01
-1.382064372301101685e-01
-1.671394854784011841e-01
-2.743468582630157471e-01
-3.175296485424041748e-01
-1.055522933602333069e-01
-3.997910395264625549e-02
-3.744056820869445801e-02
2.884253561496734619e-01
2.113555669784545898e-01
2.663177065551280975e-02
7.504840195178985596e-02
6.342163309454917908e-03
-2.736389636993408203e-01
-9.167467802762985229e-02
1.052741147577762604e-02
-1.366575956344604492e-01
-5.097743496298789978e-02
5.830698460340499878e-02
-3.020185604691505432e-02
-4.146156460046768188e-02
6.727141444571316242e-04
1.153060197830200195e-01
-1.244747862219810486e-01
-1.037975400686264038e-01
5.565327778458595276e-02
7.665668427944183350e-02
4.094097390770912170e-02
1.102564390748739243e-02
-2.272147394251078367e-04
1.076989620923995972e-01
1.318441778421401978e-01
-8.450877852737903595e-03
-5.368708819150924683e-02
-9.315860271453857422e-02
-3.507924079895019531e-01
2.447955459356307983e-01
4.200730323791503906e-01
1.125902011990547180e-01
4.410354793071746826e-02
-8.055472373962402344e-02
4.990241229534149170e-01
6.460369378328323364e-02
5.662561953067779541e-02
5.714429542422294617e-02
-3.196498146280646324e-03
-1.944669783115386963e-01
1.023094635456800461e-02
-1.736654490232467651e-01
1.307498365640640259e-01
4.393261671066284180e-02
-6.280888617038726807e-02
-9.709890186786651611e-02
8.397087454795837402e-02
4.846965894103050232e-02
-3.120595961809158325e-02
1.874505355954170227e-02
1.889931224286556244e-02
-4.585412889719009399e-02
-8.039146661758422852e-02
-4.867535084486007690e-02
-6.250654906034469604e-02
-8.754389733076095581e-02
8.186677098274230957e-02
1.486897915601730347e-01
-1.736435741186141968e-01
2.276074327528476715e-02
4.435925185680389404e-02
1.133572012186050415e-01
3.000624179840087891e-01
9.994925931096076965e-03
1.548482924699783325e-01
-1.398251503705978394e-01
1.214544326066970825e-01
-1.400417089462280273e-01
-2.325237542390823364e-01
-2.444159537553787231e-01
-9.675258398056030273e-02
-9.883431345224380493e-02
-8.241067826747894287e-02
-7.055348902940750122e-02
7.949659228324890137e-02
-1.650840789079666138e-01
-8.048202097415924072e-02
6.100939959287643433e-02
-1.799959689378738403e-01
-8.942821621894836426e-02
3.810836374759674072e-02
-3.435241803526878357e-02
4.220272973179817200e-02
-3.236906975507736206e-02
-6.973905116319656372e-02
1.115817110985517502e-02
-1.441232264041900635e-01
1.901292353868484497e-01
5.183808878064155579e-02
-1.143144629895687103e-02
-1.223122552037239075e-01
1.645677350461483002e-02
1.967885494232177734e-01
-1.157757937908172607e-01
-1.544925570487976074e-01
-2.749567031860351562e-01
-4.689067602157592773e-01
1.097043603658676147e-02
4.474857077002525330e-02
-8.540647104382514954e-03
3.476775884628295898e-01
-2.141990214586257935e-01
1.699341237545013428e-01
1.618758291006088257e-01
1.660601049661636353e-01
-1.890756748616695404e-02
-1.643352955579757690e-01
6.075511127710342407e-02
-1.781864091753959656e-03
1.884021423757076263e-02
1.203163564205169678e-01
-1.390179395675659180e-01
6.279616057872772217e-02
-6.528868526220321655e-02
1.213082894682884216e-01
1.832818984985351562e-02
9.277854859828948975e-02
-7.339511811733245850e-02
-1.073707416653633118e-01
8.753457665443420410e-02
-5.877111852169036865e-02
-9.046262502670288086e-02
8.759572356939315796e-02
-2.040394246578216553e-01
1.370506584644317627e-01
-1.629118472337722778e-01
9.605660289525985718e-02
2.296672761440277100e-01
2.261570841073989868e-01
-1.151067093014717102e-01
-4.548864439129829407e-02
-4.649491980671882629e-02
-5.211487039923667908e-02
-1.548947095870971680e-01
2.750304937362670898e-01
-6.418056786060333252e-02
1.666244715452194214e-01
-4.147952198982238770e-01
2.558955550193786621e-01
1.244511008262634277e-01
2.867119610309600830e-01
-7.834355533123016357e-02
-6.773528456687927246e-02
-3.513111472129821777e-01
1.275463849306106567e-01
8.050736039876937866e-02
-3.355526179075241089e-02
-7.398997992277145386e-02
8.219654113054275513e-02
8.022750914096832275e-02
5.492905527353286743e-02
2.260597236454486847e-02
-5.951561033725738525e-02
-7.778623700141906738e-02
-9.451099485158920288e-02
1.140438020229339600e-01
2.249887213110923767e-03
-1.122333705425262451e-01
-3.762453794479370117e-02
-2.082360237836837769e-01
1.627565175294876099e-01
-8.201000280678272247e-03
2.844701707363128662e-01
-1.855775713920593262e-01
-1.360093802213668823e-01
-9.382180124521255493e-02
-1.964577287435531616e-01
4.440037012100219727e-01
-1.837010681629180908e-01
1.224504262208938599e-01
-3.084147274494171143e-01
-2.218767702579498291e-01
-1.997180581092834473e-01
2.648046016693115234e-01
2.431647479534149170e-02
-6.806678324937820435e-02
-2.725653946399688721e-01
-7.391875237226486206e-02
9.688154608011245728e-02
7.623622566461563110e-02
-5.772190541028976440e-02
1.014568060636520386e-01
-8.269953727722167969e-02
-2.895906940102577209e-02
-8.340553194284439087e-02
6.225228309631347656e-02
5.989098455756902695e-03
1.574598848819732666e-01
-1.205348782241344452e-02
-5.269111599773168564e-03
-5.377153307199478149e-02
8.155203424394130707e-03
8.231622725725173950e-02
-3.129583597183227539e-01
-1.099718362092971802e-01
-1.781926453113555908e-01
8.123866468667984009e-02
7.850080728530883789e-02
1.245308890938758850e-01
2.626944780349731445e-01
3.657313436269760132e-02
-1.324519068002700806e-01
-1.680698245763778687e-01
3.952972888946533203e-01
1.106080785393714905e-01
6.082612648606300354e-02
-8.455894142389297485e-02
1.443967670202255249e-01
1.803895458579063416e-02
2.777513563632965088e-01
-3.885263204574584961e-01
2.724107541143894196e-02
-1.149556599557399750e-02
-2.521989867091178894e-02
1.273102220147848129e-02
8.955964818596839905e-03
3.571158507838845253e-03
-6.259667873382568359e-02
-1.614694111049175262e-02
-1.046946495771408081e-01
1.399797499179840088e-01
-4.289212450385093689e-02
-1.039589196443557739e-01
-1.608940660953521729e-01
1.780231297016143799e-01
-1.888830363750457764e-01
2.518081367015838623e-01
1.297400295734405518e-01
-3.931194543838500977e-01
5.141060799360275269e-02
8.318631350994110107e-02
-9.828004054725170135e-03
-3.995693847537040710e-02
1.166818067431449890e-01
1.004238650202751160e-01
2.097619622945785522e-01
-3.779429495334625244e-01
7.521759718656539917e-02
1.367184817790985107e-01
3.143601119518280029e-01
-2.594999037683010101e-02
-1.133125200867652893e-01
8.267481811344623566e-03
1.564553231000900269e-01
1.141885146498680115e-01
-1.125101372599601746e-01
7.397781312465667725e-02
1.403244491666555405e-02
-5.817127414047718048e-03
-2.396485069766640663e-05
7.260161638259887695e-02
7.380674779415130615e-02
5.356863606721162796e-03
3.755859285593032837e-02
1.174627244472503662e-02
2.099650502204895020e-01
1.347651630640029907e-01
-1.214649602770805359e-01
8.427385985851287842e-02
1.587880253791809082e-01
-6.991525739431381226e-02
6.002432480454444885e-02
-1.891554743051528931e-01
-2.438876219093799591e-02
-9.767004847526550293e-02
-5.597044155001640320e-02
-2.001368701457977295e-01
-1.103892773389816284e-01
1.528232246637344360e-01
-8.876537531614303589e-02
2.490839362144470215e-02
1.811514049768447876e-01
-2.690357565879821777e-01
4.958045855164527893e-02
-7.977539300918579102e-02
1.604804694652557373e-01
7.399280369281768799e-02
6.449449062347412109e-02
-5.038187652826309204e-02
1.147199198603630066e-01
-9.174542874097824097e-02
-1.550685316324234009e-01
-9.619934856891632080e-02
7.775862514972686768e-02
-1.460232436656951904e-01
-2.890084870159626007e-02
-1.648717820644378662e-01
-1.362201124429702759e-01
-3.852314874529838562e-02
-2.432697638869285583e-02
4.908730834722518921e-02
1.449430920183658600e-02
-8.285374939441680908e-02
8.627582341432571411e-02
1.891639232635498047e-01
1.166510134935379028e-01
5.943720042705535889e-02
-1.020253524184226990e-01
-1.792946457862854004e-01
2.210064325481653214e-03
-3.194094896316528320e-01
-8.719414472579956055e-02
1.229991018772125244e-01
-8.085455000400543213e-02
-1.858393847942352295e-01
-1.060878857970237732e-01
-1.958512365818023682e-01
7.720268517732620239e-02
1.856982707977294922e-01
-2.026644796133041382e-01
-1.839482337236404419e-01
9.862646460533142090e-02
5.454827472567558289e-02
-1.592154428362846375e-02
2.139578200876712799e-02
-9.779976308345794678e-02
6.165467575192451477e-02
-8.287255465984344482e-02
-8.888144046068191528e-02
7.336996495723724365e-02
-2.865489339455962181e-03
-2.697817981243133545e-02
-8.502316474914550781e-02
3.453954309225082397e-02
1.074929982423782349e-01
7.140313088893890381e-02
3.562111258506774902e-01
-1.747881919145584106e-01
1.146899834275245667e-01
-8.804330974817276001e-02
9.510625153779983521e-02
6.593593955039978027e-02
-2.358166277408599854e-01
-2.965955436229705811e-01
-1.543768346309661865e-01
4.979822039604187012e-02
6.694754958152770996e-02
1.058922857046127319e-01
-7.683960348367691040e-02
-1.874409168958663940e-01
6.538589298725128174e-02
1.503960341215133667e-01
1.373302340507507324e-01
-9.659551829099655151e-02
1.035524979233741760e-01
-9.415109455585479736e-02
1.573495194315910339e-02
5.507412366569042206e-03
-4.851260036230087280e-02
5.957644805312156677e-02
2.076551765203475952e-01
-1.252441108226776123e-01
-1.722748205065727234e-02
6.737313419580459595e-02
8.185818046331405640e-02
-9.426180273294448853e-02
-1.137640774250030518e-01
3.708372637629508972e-02
1.497209072113037109e-01
2.682527005672454834e-01
1.477239727973937988e-01
2.715279534459114075e-02
-6.026139110326766968e-02
1.041772216558456421e-01
-2.230706661939620972e-01
-1.177760735154151917e-01
1.710576564073562622e-01
-1.405152231454849243e-01
2.569358050823211670e-01
3.210729658603668213e-01
-9.863204509019851685e-02
-1.283633112907409668e-01
-7.018397003412246704e-02
-7.374259829521179199e-02
-1.820871531963348389e-01
6.219630688428878784e-02
-1.781738996505737305e-01
-8.891022950410842896e-02
-1.098164841532707214e-01
-1.123823747038841248e-01
-4.447570536285638809e-03
7.555070519447326660e-02
6.777236610651016235e-02
5.800990015268325806e-02
3.903215005993843079e-02
-1.040145754814147949e-01
7.907307147979736328e-02
-3.196760267019271851e-02
-1.758830696344375610e-01
1.784651726484298706e-01
-1.112328693270683289e-01
-4.515180289745330811e-01
2.838436663150787354e-01
-2.120244204998016357e-01
4.163342528045177460e-03
2.640444785356521606e-03
3.483065590262413025e-02
3.846491873264312744e-01
-6.453179568052291870e-02
5.823682621121406555e-02
1.162899956107139587e-01
-2.468259483575820923e-01
-1.615778058767318726e-01
-2.059519477188587189e-02
2.938974648714065552e-02
-1.490636318922042847e-01
-4.092213511466979980e-02
-1.876002997159957886e-01
-1.767014712095260620e-01
-7.065705209970474243e-02
8.854473382234573364e-02
-1.096304282546043396e-01
-3.448797017335891724e-02
8.426374942064285278e-02
7.571171224117279053e-02
-3.364072367548942566e-02
2.073364704847335815e-01
2.580335736274719238e-02
3.764399886131286621e-02
-1.482482850551605225e-01
-1.480173021554946899e-01
-1.203606128692626953e-01
-8.516262471675872803e-02
5.732628703117370605e-02
-4.060103297233581543e-01
1.258938610553741455e-01
-1.413338184356689453e-01
1.414654552936553955e-01
1.696731150150299072e-01
-8.221419900655746460e-02
4.526101350784301758e-01
-5.472387745976448059e-02
-1.969098448753356934e-01
-1.570446640253067017e-01
-4.748524352908134460e-02
-1.758363097906112671e-01
5.585762485861778259e-02
1.345629990100860596e-01
-4.998973757028579712e-02
1.061774492263793945e-01
1.052290052175521851e-01
-1.969003677368164062e-01
-1.178674027323722839e-01
-9.188755601644515991e-02
7.452056556940078735e-02
-8.972401171922683716e-02
-2.588161826133728027e-02
1.146027445793151855e-01
5.195593088865280151e-02
1.707863658666610718e-01
-5.796088278293609619e-02
-1.719941794872283936e-01
6.138574331998825073e-02
6.642149388790130615e-02
-1.483489423990249634e-01
-2.845060266554355621e-02
-7.036899775266647339e-02
1.145731881260871887e-01
-3.470690846443176270e-01
1.146111264824867249e-01
-6.536220759153366089e-02
1.217129081487655640e-01
-9.067554026842117310e-02
5.452093202620744705e-03
5.524679273366928101e-02
-4.997527599334716797e-02
5.116729438304901123e-02
2.397654056549072266e-01
3.965794667601585388e-02
6.942921783775091171e-03
-2.186507582664489746e-01
1.590813994407653809e-01
1.199410110712051392e-02
3.507083654403686523e-01
-1.352067738771438599e-01
9.289961308240890503e-02
1.347527001053094864e-02
1.185848657041788101e-02
7.888564467430114746e-02
-4.723845049738883972e-02
-7.220186293125152588e-03
1.220009010285139084e-02
4.785335808992385864e-02
1.323474198579788208e-02
2.479135543107986450e-01
5.213436204940080643e-03
1.335076405666768551e-03
8.000434935092926025e-02
-5.629780143499374390e-02
7.423952221870422363e-02
1.091537550091743469e-01
1.523330062627792358e-01
-2.761321701109409332e-02
5.234985798597335815e-02
-8.168609440326690674e-02
2.789583615958690643e-02
-2.331954091787338257e-01
3.065436184406280518e-01
-3.782956302165985107e-01
-1.428108364343643188e-01
-5.267762541770935059e-01
-5.062937363982200623e-02
7.763708382844924927e-02
2.790776081383228302e-02
-1.830716580152511597e-01
7.351306080818176270e-02
-1.141975298523902893e-01
-4.662173986434936523e-02
6.709338724613189697e-02
3.112303651869297028e-02
-1.001882366836071014e-02
-1.012931540608406067e-01
4.800491407513618469e-02
-1.143506076186895370e-02
-4.393798485398292542e-02
2.106301188468933105e-01
-4.075841978192329407e-02
-6.884873658418655396e-02
7.663908600807189941e-02
-8.150399476289749146e-02
-6.785282492637634277e-02
-2.811237797141075134e-02
1.400578916072845459e-01
4.302891492843627930e-01
1.098073273897171021e-01
-2.353852987289428711e-01
-7.582339644432067871e-02
1.098781358450651169e-02
9.864511340856552124e-02
1.593850255012512207e-01
-1.527004092931747437e-01
-6.521952152252197266e-02
-2.353460155427455902e-02
-1.687201112508773804e-01
-1.447383314371109009e-01
2.830250859260559082e-01
7.917805016040802002e-02
1.184843406081199646e-01
1.048119515180587769e-01
1.468636989593505859e-01
-6.517104059457778931e-02
8.841547369956970215e-02
-8.216074854135513306e-02
-2.210648171603679657e-02
-6.968966126441955566e-02
2.258693985641002655e-02
5.614826455712318420e-02
-9.404703974723815918e-02
1.504840999841690063e-01
2.235736697912216187e-01
-1.426348835229873657e-01
1.678948402404785156e-01
1.061099171638488770e-01
2.178042680025100708e-01
-9.622746706008911133e-02
1.646063029766082764e-01
3.943580985069274902e-01
2.300496399402618408e-01
3.235579729080200195e-01
-4.565910995006561279e-02
-1.477439999580383301e-01
-4.016745835542678833e-02
-4.665834009647369385e-01
-1.479241997003555298e-01
2.436670213937759399e-01
2.700980901718139648e-01
-1.019720584154129028e-01
1.035563182085752487e-02
-3.452165424823760986e-02
3.168014436960220337e-02
-1.078822538256645203e-01
8.847804367542266846e-02
-6.811305880546569824e-02
-1.620358228683471680e-02
-1.359960734844207764e-01
-5.087427794933319092e-02
-1.315236836671829224e-02
-5.728969350457191467e-02
-6.462299078702926636e-02
3.555543720722198486e-02
8.367062360048294067e-02
4.343787208199501038e-02
4.163176193833351135e-02
2.441627532243728638e-02
2.161763608455657959e-02
4.930696915835142136e-03
2.119649052619934082e-01
6.391138583421707153e-02
-1.166813001036643982e-01
2.520253062248229980e-01
-3.449743390083312988e-01
-5.574493855237960815e-02
-1.132537871599197388e-01
-1.225353479385375977e-01
-1.312541365623474121e-01
-7.368254009634256363e-03
1.764733577147126198e-03
-1.505643427371978760e-01
1.686605811119079590e-01
6.279572844505310059e-02
-2.215075045824050903e-01
-1.122580990195274353e-01
-2.282376028597354889e-02
-1.019034311175346375e-01
-1.448288373649120331e-02
2.513131797313690186e-01
-1.501634716987609863e-01
-2.774652792140841484e-03
-3.598380088806152344e-02
-7.547333091497421265e-02
-1.286388337612152100e-01
-1.485502906143665314e-02
8.212140947580337524e-02
-1.634530350565910339e-02
6.417172402143478394e-02
-4.274089634418487549e-02
3.102801926434040070e-02
-6.772545725107192993e-02
9.664754569530487061e-02
1.874679327011108398e-02
3.068926930427551270e-02
1.094031240791082382e-02
2.585367485880851746e-02
3.889981657266616821e-02
-6.210771203041076660e-02
3.137190267443656921e-02
-6.522668898105621338e-02
-4.516311362385749817e-02
2.927036583423614502e-01
-2.168380916118621826e-01
-1.386677622795104980e-01
4.117830097675323486e-02
-2.229594066739082336e-02
-1.778944432735443115e-01
-2.061818093061447144e-01
2.914347127079963684e-02
-2.895196080207824707e-01
-2.408040221780538559e-03
2.165705859661102295e-01
3.632433116436004639e-01
1.129608675837516785e-01
-5.821996368467807770e-03
3.645342215895652771e-02
-7.899055629968643188e-02
-5.324792489409446716e-02
-3.680221363902091980e-02
-1.501358207315206528e-02
-9.818018227815628052e-02
8.524396270513534546e-02
4.132676869630813599e-02
-9.595975279808044434e-02
4.860838502645492554e-02
-5.279666185379028320e-02
-7.580129802227020264e-02
4.414422810077667236e-02
-2.270604670047760010e-01
-1.854054071009159088e-02
-3.535689413547515869e-01
1.436790376901626587e-01
5.224846303462982178e-03
8.668506145477294922e-02
5.414923429489135742e-01
2.951004505157470703e-01
-7.975362986326217651e-02
-9.885939955711364746e-02
-2.556341700255870819e-02
-7.420401275157928467e-02
1.146814823150634766e-01
1.805451214313507080e-01
1.565757244825363159e-01
-1.235613450407981873e-01
-5.568372458219528198e-02
5.218413099646568298e-02
5.403061583638191223e-02
7.749315816909074783e-03
-8.265943825244903564e-02
-3.954093530774116516e-02
8.683076500892639160e-02
9.492744505405426025e-02
-1.053659897297620773e-02
7.369910925626754761e-02
1.918814145028591156e-02
-9.318351745605468750e-02
-8.013375848531723022e-02
1.932722479104995728e-01
5.129272118210792542e-02
-2.320208400487899780e-02
-4.263881593942642212e-02
-1.079510226845741272e-01
1.182487234473228455e-01
-9.106712788343429565e-02
9.763602167367935181e-02
-6.498374044895172119e-02
-3.588434308767318726e-02
3.377132350578904152e-03
-2.288008853793144226e-02
-2.700040638446807861e-01
5.081643909215927124e-02
2.607241272926330566e-01
3.504987061023712158e-02
7.781071215867996216e-02
-1.673582755029201508e-02
-1.442155539989471436e-01
-7.081538438796997070e-03
9.813192486763000488e-02
-3.194090425968170166e-01
-6.847562640905380249e-02
-4.578379169106483459e-02
1.073729544878005981e-01
-5.209571123123168945e-02
4.704674705862998962e-02
-1.006824597716331482e-01
9.765558689832687378e-02
1.614051125943660736e-02
5.194224417209625244e-02
2.482380159199237823e-02
-1.468333005905151367e-01
-9.307005256414413452e-02
7.220210134983062744e-02
-1.503607332706451416e-01
1.327396184206008911e-01
-1.722510457038879395e-01
1.736763268709182739e-01
-7.902815192937850952e-02
6.831566244363784790e-02
-1.110622212290763855e-01
-8.031393587589263916e-02
-1.358403116464614868e-01
1.604269593954086304e-01
-3.825298249721527100e-01
-9.213694930076599121e-02
1.917394548654556274e-01
-1.698738187551498413e-01
1.553789526224136353e-01
-1.747829318046569824e-01
-9.517366439104080200e-02
1.475319564342498779e-01
4.636414721608161926e-02
-3.386779129505157471e-02
-1.742726713418960571e-01
-7.027082890272140503e-02
5.168852210044860840e-02
3.275324823334813118e-03
-4.769024904817342758e-03
-1.022161617875099182e-01
-5.981170013546943665e-02
2.949466556310653687e-02
-1.408664882183074951e-01
-2.078445255756378174e-02
1.345465779304504395e-01
-1.502586305141448975e-01
1.220443919301033020e-01
-1.132875531911849976e-01
1.460901498794555664e-01
1.991567313671112061e-01
8.941488713026046753e-02
3.397152423858642578e-01
2.196069248020648956e-02
1.591250672936439514e-02
7.102624326944351196e-02
1.969794034957885742e-01
2.896553874015808105e-01
-2.935325205326080322e-01
-9.792649745941162109e-02
3.104010224342346191e-02
-1.344041228294372559e-01
-1.179889515042304993e-01
-2.214210852980613708e-02
-9.501557797193527222e-02
4.493303224444389343e-02
-2.064090035855770111e-02
2.518288791179656982e-01
1.247337274253368378e-02
3.600538894534111023e-02
8.345638215541839600e-02
-5.588959157466888428e-02
5.060288310050964355e-02
1.241866499185562134e-02
8.400226384401321411e-02
-2.451791465282440186e-01
-1.299230847507715225e-02
-4.515419155359268188e-02
4.413804039359092712e-02
-1.475864797830581665e-01
1.791452765464782715e-01
-6.286045908927917480e-02
2.637627720832824707e-02
-2.138987779617309570e-01
2.876546084880828857e-01
-2.114062607288360596e-01
1.442126184701919556e-01
1.560357119888067245e-02
-5.664207786321640015e-02
4.902200102806091309e-01
-1.404177844524383545e-01
1.309136152267456055e-01
1.714537292718887329e-01
-1.810167878866195679e-01
7.046686112880706787e-02
-2.539951205253601074e-01
-3.010061569511890411e-02
-1.360636502504348755e-01
-1.071998625993728638e-01
-5.080841016024351120e-03
3.367475569248199463e-01
-1.583794355392456055e-01
-9.127284586429595947e-02
4.258223809301853180e-03
8.365033566951751709e-02
-4.898366332054138184e-02
3.292313590645790100e-02
1.644410490989685059e-01
-1.302273273468017578e-01
1.885053664445877075e-01
1.463357955217361450e-01
-8.966692537069320679e-02
5.224074423313140869e-02
-1.452025026082992554e-01
-4.253669828176498413e-02
1.437950283288955688e-01
-1.445201337337493896e-01
-8.655733615159988403e-02
-3.153736293315887451e-01
1.365730911493301392e-01
-1.328955739736557007e-01
9.495879523456096649e-03
7.826967537403106689e-02
1.559444814920425415e-01
1.429487615823745728e-01
-1.680295467376708984e-01
-1.147576123476028442e-01
1.668203920125961304e-01
-9.921074658632278442e-02
9.233187884092330933e-02
2.517820596694946289e-01
-1.207513287663459778e-01
4.108168557286262512e-02
-6.978974211961030960e-03
1.166801527142524719e-02
-1.101894769817590714e-02
-1.079079136252403259e-01
-6.924508512020111084e-02
-1.070480644702911377e-01
-5.493987724184989929e-02
1.180210411548614502e-01
-1.211223006248474121e-01
9.109320491552352905e-02
8.542659878730773926e-02
8.293734490871429443e-02
-3.504225611686706543e-02
2.167388796806335449e-02
1.010228991508483887e-01
-1.390629708766937256e-01
2.801569402217864990e-01
1.465832442045211792e-02
2.032067775726318359e-01
1.586689203977584839e-01
-7.938417792320251465e-02
9.228055179119110107e-02
-2.097748219966888428e-01
-2.821686863899230957e-01
-3.093707263469696045e-01
-1.211740598082542419e-01
-1.492457091808319092e-01
-2.938556373119354248e-01
-1.671023815870285034e-01
-1.867970377206802368e-01
-1.294732242822647095e-01
-9.379740059375762939e-02
5.433363839983940125e-02
-1.512945890426635742e-01
9.069917141459882259e-04
-1.872037723660469055e-02
2.117692492902278900e-02
1.100221872329711914e-01
1.183627545833587646e-01
-1.253459900617599487e-01
-4.169528186321258545e-02
-1.106092035770416260e-01
6.549702584743499756e-02
1.902319788932800293e-01
6.867711246013641357e-02
1.032634153962135315e-01
1.796284615993499756e-01
5.736554786562919617e-02
3.596879541873931885e-02
2.457504272460937500e-01
-3.303292766213417053e-02
-1.218245327472686768e-01
8.166724443435668945e-02
1.217317208647727966e-01
1.017447933554649353e-01
5.011304467916488647e-02
-3.336105048656463623e-01
-3.933882340788841248e-02
1.434711962938308716e-01
2.025535106658935547e-01
2.681670188903808594e-01
1.675046086311340332e-01
-1.545501053333282471e-01
6.863436847925186157e-02
-1.193271875381469727e-01
3.174927830696105957e-02
1.105261147022247314e-01
7.266802340745925903e-02
6.799247115850448608e-02
-1.536002755165100098e-01
-1.024686172604560852e-01
5.365777760744094849e-02
1.188830956816673279e-01
-2.711804211139678955e-02
-1.645594835281372070e-01
-3.770889015868306160e-03
1.246758028864860535e-01
1.882322132587432861e-01
-1.749099045991897583e-01
5.219514947384595871e-03
6.908038258552551270e-02
1.750260591506958008e-01
3.530921041965484619e-01
-1.126147285103797913e-01
-2.109756767749786377e-01
4.647708684206008911e-02
8.184887468814849854e-02
8.285845071077346802e-02
4.724591597914695740e-02
3.468698561191558838e-01
2.437083795666694641e-02
5.583941470831632614e-03
1.294013299047946930e-02
3.434850871562957764e-01
8.767809718847274780e-02
2.481258213520050049e-01
-7.590628415346145630e-02
7.236814498901367188e-02
-1.096678450703620911e-01
2.588366866111755371e-01
-7.092351466417312622e-02
-9.352898597717285156e-02
-8.597763627767562866e-02
4.874129779636859894e-03
1.348667964339256287e-02
-9.193680435419082642e-02
2.315355837345123291e-02
1.152198612689971924e-01
-1.024513393640518188e-01
-9.559664130210876465e-02
-2.761382423341274261e-02
1.732859462499618530e-01
-1.993959695100784302e-01
-3.417706862092018127e-02
1.868914812803268433e-01
4.157289266586303711e-01
4.274051487445831299e-01
9.495145082473754883e-02
9.606421738862991333e-02
-8.962454646825790405e-02
2.080919221043586731e-02
-2.237332612276077271e-01
-2.167547643184661865e-01
5.980342626571655273e-03
-9.365304373204708099e-03
-8.267868310213088989e-02
-5.121995881199836731e-02
-9.912060946226119995e-02
-1.272439658641815186e-01
-1.887170481495559216e-03
-4.449171572923660278e-02
-1.549042910337448120e-01
1.730208098888397217e-02
-5.018758773803710938e-02
1.449880306608974934e-03
-1.825321465730667114e-02
-2.195150358602404594e-03
6.542514264583587646e-02
4.949948191642761230e-02
3.215434774756431580e-02
9.706097841262817383e-02
-1.514347502961754799e-03
-5.342246033251285553e-03
7.290736585855484009e-02
8.843728899955749512e-02
1.004491820931434631e-01
1.014816612005233765e-01
1.541679948568344116e-01
3.464305102825164795e-01
-1.078390628099441528e-01
1.971171945333480835e-01
-1.394221037626266479e-01
5.587562173604965210e-02
-2.617165073752403259e-02
-3.678405424579977989e-03
-4.948240518569946289e-01
-1.020093560218811035e-01
1.971835047006607056e-01
2.239723056554794312e-01
2.068988047540187836e-02
-1.428947597742080688e-01
-3.246666193008422852e-01
-1.223974302411079407e-01
1.938242092728614807e-02
2.364984750747680664e-01
1.524090915918350220e-01
7.851652055978775024e-02
1.112114265561103821e-01
4.522709175944328308e-03
-2.331567928194999695e-02
1.044447198510169983e-01
2.984475577250123024e-04
-5.713275820016860962e-02
8.373270183801651001e-02
-8.814276009798049927e-02
2.116875723004341125e-02
-7.136130332946777344e-02
1.218480318784713745e-01
2.466861624270677567e-03
6.392678618431091309e-02
-8.769424632191658020e-03
2.978062033653259277e-01
1.419067382812500000e-02
2.965605584904551506e-03
1.493511348962783813e-01
1.274722516536712646e-01
4.157831519842147827e-02
-3.577198088169097900e-01
-3.382275700569152832e-01
1.520213335752487183e-01
-1.208659037947654724e-01
3.386397063732147217e-01
-1.178069114685058594e-01
-7.851140201091766357e-02
-1.663996726274490356e-01
-8.931652456521987915e-02
1.501234769821166992e-01
1.163613796234130859e-01
-1.752311736345291138e-01
-2.129291594028472900e-01
-9.138964116573333740e-02
-1.951538026332855225e-02
-5.636238306760787964e-02
9.938578307628631592e-02
-6.261133402585983276e-02
3.212150558829307556e-02
7.784461230039596558e-02
3.000810276716947556e-03
1.108734086155891418e-01
1.324697732925415039e-01
-2.972884103655815125e-02
-7.550547271966934204e-02
1.310178171843290329e-02
4.069554433226585388e-02
-9.369022399187088013e-02
1.736503094434738159e-01
-4.803594052791595459e-01
1.330113261938095093e-01
-1.570399999618530273e-01
-8.918545395135879517e-02
2.340600788593292236e-01
-3.427852988243103027e-01
2.718958854675292969e-01
-8.168501406908035278e-02
8.752091228961944580e-02
-5.797995626926422119e-02
5.479418206959962845e-03
9.677766263484954834e-02
-1.421103812754154205e-02
1.520837396383285522e-01
-3.580910712480545044e-02
1.102969720959663391e-01
-2.584802918136119843e-02
-6.009837612509727478e-02
-6.641807407140731812e-02
-4.527980089187622070e-02
-2.079311944544315338e-02
3.293869271874427795e-02
-2.648938074707984924e-02
2.543655689805746078e-03
-6.771578639745712280e-02
5.437955632805824280e-02
5.962809547781944275e-02
3.842510050162672997e-03
1.180614158511161804e-01
-1.304371207952499390e-01
-7.214470952749252319e-02
-1.551929712295532227e-01
-1.585479676723480225e-01
2.072662711143493652e-01
2.949557639658451080e-02
-6.235615164041519165e-02
-1.343055665493011475e-01
2.605937719345092773e-01
-5.500760301947593689e-02
-3.059724867343902588e-01
8.233038336038589478e-02
-4.008900225162506104e-01
-1.389916241168975830e-01
-1.151691004633903503e-01
1.567788567626848817e-04
1.338684745132923126e-02
-3.743670880794525146e-02
-2.515353858470916748e-01
-2.591450810432434082e-01
1.630104929208755493e-01
7.801774144172668457e-02
7.807612419128417969e-02
7.862586528062820435e-02
5.514294281601905823e-02
1.183753386139869690e-01
-4.214328899979591370e-02
1.502722501754760742e-01
1.735163182020187378e-01
-7.312849909067153931e-02
-1.260208338499069214e-01
-4.332377389073371887e-02
2.297579795122146606e-01
1.059560198336839676e-02
1.778617352247238159e-01
7.010611146688461304e-02
2.993285059928894043e-01
-7.149232085794210434e-03
4.879066720604896545e-02
2.142781019210815430e-02
1.363399624824523926e-01
3.743162006139755249e-02
-9.590412676334381104e-02
8.345101028680801392e-02
1.709062755107879639e-01
-2.834478318691253662e-01
-2.261420190334320068e-01
4.554717452265322208e-04
9.982006251811981201e-02
-1.221244037151336670e-01
-2.240107022225856781e-02
-5.147365480661392212e-02
-8.752535283565521240e-02
-6.511437892913818359e-02
-2.778613753616809845e-02
-5.333299189805984497e-02
-9.697311557829380035e-03
4.421029239892959595e-02
-1.111866757273674011e-01
-7.178222294896841049e-03
1.724230945110321045e-01
-2.198339104652404785e-01
2.969508804380893707e-02
6.824512779712677002e-02
7.090861443430185318e-03
2.094280570745468140e-01
1.354811061173677444e-02
-1.452160924673080444e-01
-1.846228241920471191e-01
2.069817930459976196e-01
1.485469937324523926e-01
5.897498875856399536e-02
5.670201405882835388e-02
3.874723240733146667e-02
3.156122565269470215e-01
-1.501534879207611084e-01
2.985039055347442627e-01
-9.053192101418972015e-03
3.136896789073944092e-01
1.176963001489639282e-01
-8.164197206497192383e-03
-2.923348248004913330e-01
-1.481872797012329102e-01
6.208553910255432129e-02
1.672925949096679688e-01
-9.221812337636947632e-02
9.432114660739898682e-03
4.788046330213546753e-02
9.719690680503845215e-02
1.146233528852462769e-01
2.310902252793312073e-02
-1.107936501502990723e-01
-3.995532542467117310e-02
4.156172275543212891e-02
-1.718567013740539551e-01
1.717654168605804443e-01
6.707920879125595093e-02
-9.283363819122314453e-02
4.607199504971504211e-02
6.187461689114570618e-02
8.850507438182830811e-02
2.641374170780181885e-01
-2.393379658460617065e-01
3.877851366996765137e-01
-1.209995299577713013e-01
-3.780670091509819031e-02
5.860899761319160461e-02
-4.655238091945648193e-01
2.583194375038146973e-01
-6.532340496778488159e-02
9.732888638973236084e-02
1.615570634603500366e-01
-7.599873840808868408e-02
-1.507236715406179428e-02
2.692417241632938385e-02
9.336136281490325928e-02
1.668874472379684448e-01
1.705062985420227051e-01
7.189293950796127319e-02
9.422341734170913696e-02
-3.579543903470039368e-03
4.476365447044372559e-02
-2.711051329970359802e-02
6.180854886770248413e-02
-4.048001952469348907e-03
-1.974687725305557251e-02
2.167910486459732056e-01
5.501219257712364197e-02
-3.654786851257085800e-03
1.781568825244903564e-01
7.371012121438980103e-02
-2.912084385752677917e-02
-7.198503613471984863e-02
-1.283814758062362671e-01
-4.252072870731353760e-01
1.724161803722381592e-01
1.293678432703018188e-01
1.668679341673851013e-02
7.103677839040756226e-03
6.789492070674896240e-02
2.958674728870391846e-01
-2.996001839637756348e-01
1.907868385314941406e-01
1.557536423206329346e-01
-8.118475228548049927e-02
5.786845088005065918e-02
5.568842589855194092e-02
-1.686742715537548065e-02
2.044726163148880005e-02
2.213469333946704865e-02
1.787600852549076080e-02
2.863172590732574463e-01
-1.291936635971069336e-01
5.947811901569366455e-02
7.907002419233322144e-02
-3.528028354048728943e-02
-1.555919367820024490e-02
-7.207206450402736664e-03
1.074381619691848755e-01
6.308253388851881027e-03
1.441918909549713135e-01
1.102517396211624146e-01
9.274966269731521606e-02
1.772674620151519775e-01
-5.548240989446640015e-02
-1.037472486495971680e-01
-9.979795664548873901e-02
5.763438344001770020e-01
7.896875590085983276e-02
-1.493335813283920288e-01
1.113202348351478577e-01
-5.699101835489273071e-02
-1.510198265314102173e-01
-3.854039311408996582e-01
-2.431456744670867920e-01
1.705557554960250854e-01
-6.967936456203460693e-02
-3.256275504827499390e-02
-2.086585462093353271e-01
1.770626157522201538e-01
-2.429524958133697510e-01
-1.792505979537963867e-01
4.807798191905021667e-03
4.341147094964981079e-02
-2.015871554613113403e-01
-9.326188266277313232e-02
-7.274040952324867249e-03
-1.220651809126138687e-02
4.188657179474830627e-02
7.933978736400604248e-02
-1.177153438329696655e-01
1.214054506272077560e-02
-1.420197486877441406e-01
-1.184903010725975037e-01
-6.290637701749801636e-02
-8.460338413715362549e-02
2.309892624616622925e-01
-4.342744499444961548e-02
8.478245884180068970e-02
-9.781976044178009033e-02
1.713687181472778320e-01
2.052006870508193970e-01
-2.759895026683807373e-01
3.963787853717803955e-02
-6.846386939287185669e-02
-1.345113813877105713e-01
-3.035462200641632080e-01
-4.088966846466064453e-01
2.354452572762966156e-02
-1.189223825931549072e-01
-1.942944228649139404e-01
4.295189678668975830e-02
-1.505601406097412109e-01
1.392101496458053589e-01
2.962925732135772705e-01
8.182987570762634277e-02
9.222955442965030670e-03
-1.231161281466484070e-01
-2.968610450625419617e-02
2.115089073777198792e-02
-5.979011952877044678e-02
-1.035475805401802063e-01
-6.463135033845901489e-02
4.541632905602455139e-02
-6.803724169731140137e-02
7.638449221849441528e-02
1.671565920114517212e-01
1.497673690319061279e-01
-6.190326809883117676e-02
-1.328801959753036499e-01
-8.621173352003097534e-02
-4.737883433699607849e-02
-9.316543117165565491e-03
-2.317905575037002563e-01
1.568244397640228271e-01
-1.709327697753906250e-01
1.656301021575927734e-01
-1.220264583826065063e-01
-9.349440038204193115e-02
-8.855324238538742065e-02
-1.099961996078491211e-01
1.851751357316970825e-01
2.018394023180007935e-01
2.193216979503631592e-01
3.282721936702728271e-01
-1.321310698986053467e-01
-4.425238817930221558e-02
6.422621011734008789e-02
1.207216084003448486e-02
-7.839017361402511597e-02
2.700883746147155762e-01
-3.804726526141166687e-02
-6.114022061228752136e-02
-1.016974672675132751e-01
4.165052622556686401e-02
8.783436566591262817e-02
3.682993352413177490e-02
-2.963210269808769226e-02
-1.805354952812194824e-01
-1.571975797414779663e-01
-1.416896283626556396e-01
-3.993281722068786621e-02
1.612331122159957886e-01
-3.136890381574630737e-02
1.564669907093048096e-01
-1.151853948831558228e-01
1.766850799322128296e-01
-5.730115622282028198e-02
-2.039699405431747437e-01
-1.457562297582626343e-02
-1.235515475273132324e-01
1.214961782097816467e-01
-3.799363374710083008e-01
-4.237069748342037201e-03
-1.788034439086914062e-01
1.522458046674728394e-01
-5.124128460884094238e-01
1.389480084180831909e-01
1.116566658020019531e-01
2.347394227981567383e-01
-1.890513673424720764e-02
-1.839556843042373657e-01
-3.416700661182403564e-01
1.051378399133682251e-01
-3.896959498524665833e-02
1.081802994012832642e-01
1.096081081777811050e-02
1.061450392007827759e-01
-1.176982969045639038e-01
5.103698372840881348e-02
1.673976890742778778e-02
-2.033200114965438843e-02
1.093386299908161163e-02
1.501165479421615601e-01
1.825742572546005249e-01
3.714592009782791138e-02
-1.316060405224561691e-02
-2.777083776891231537e-02
-1.565907746553421021e-01
5.223254859447479248e-02
-2.856484651565551758e-01
-3.686521574854850769e-02
-1.337360739707946777e-01
9.312147647142410278e-02
9.026805311441421509e-02
-8.517732471227645874e-02
1.288002431392669678e-01
-5.467347428202629089e-02
4.298755526542663574e-02
-4.415178596973419189e-01
1.625007688999176025e-01
-1.136672794818878174e-01
8.323954790830612183e-02
-1.622095406055450439e-01
-7.445523887872695923e-02
-3.191594481468200684e-01
2.410571128129959106e-01
1.327998787164688110e-01
-7.682137191295623779e-03
9.659351408481597900e-02
6.240187585353851318e-02
-8.360475301742553711e-02
-5.125682218931615353e-04
-4.612683132290840149e-02
-1.966351568698883057e-01
3.057671710848808289e-02
6.047248840332031250e-02
-4.873902350664138794e-02
1.811617761850357056e-01
-8.242765441536903381e-03
1.471063047647476196e-01
8.179767429828643799e-02
4.455049633979797363e-01
-4.566567391157150269e-02
2.123624086380004883e-01
-1.554953400045633316e-02
-1.342556625604629517e-01
3.387163579463958740e-02
-6.785588264465332031e-01
6.981869041919708252e-02
2.008585184812545776e-01
-3.788261860609054565e-02
-2.506041526794433594e-01
-7.117528934031724930e-03
-6.244666501879692078e-02
6.771577894687652588e-02
3.997351601719856262e-02
-7.845538854598999023e-02
-5.684939026832580566e-02
-2.288677841424942017e-01
4.120200127363204956e-02
6.078927218914031982e-02
-2.820508088916540146e-03
-9.129811078310012817e-02
7.195302098989486694e-02
1.120588853955268860e-01
-1.112284958362579346e-01
-9.432854503393173218e-02
-4.100862517952919006e-02
-1.237998344004154205e-02
-4.429366067051887512e-02
-4.902036162093281746e-04
-1.612575352191925049e-01
1.742746978998184204e-01
-8.453236520290374756e-02
-4.252445325255393982e-02
-2.482295483350753784e-01
-4.164477288722991943e-01
-1.436047554016113281e-01
1.099340245127677917e-01
-1.135352924466133118e-01
2.506218254566192627e-01
-2.121923863887786865e-01
-8.635315299034118652e-02
2.322946786880493164e-01
2.636470273137092590e-02
1.334182322025299072e-01
2.686562836170196533e-01
2.262003719806671143e-02
-1.976908147335052490e-01
-1.189465448260307312e-01
-6.128743290901184082e-02
-7.355987280607223511e-02
1.892090588808059692e-02
-6.934689730405807495e-02
3.444304689764976501e-02
-1.568059623241424561e-02
-5.023023113608360291e-02
1.387359946966171265e-02
-3.566240146756172180e-02
-2.820062339305877686e-01
1.607786566019058228e-01
-5.136996507644653320e-02
1.745701283216476440e-01
-2.933092042803764343e-02
1.169754192233085632e-01
2.313301339745521545e-02
-6.319569796323776245e-02
8.754868805408477783e-02
-2.322041988372802734e-01
4.024311527609825134e-02
-1.236354783177375793e-01
-4.359478130936622620e-02
6.156799197196960449e-02
7.016358431428670883e-03
1.415530145168304443e-01
9.402222931385040283e-02
1.598849594593048096e-01
-3.271104097366333008e-01
2.354435250163078308e-02
-1.549416035413742065e-01
-1.214068979024887085e-01
2.627791464328765869e-01
2.079080790281295776e-03
-1.041200086474418640e-01
-2.147973179817199707e-01
4.879181832075119019e-02
-4.350326955318450928e-02
5.429075658321380615e-02
4.869360476732254028e-02
9.865052066743373871e-03
9.813616424798965454e-02
-5.910947546362876892e-02
1.751307165250182152e-03
-1.029998287558555603e-01
1.253556087613105774e-02
8.562831208109855652e-03
1.182515770196914673e-01
7.963123917579650879e-02
-4.635864868760108948e-02
-2.321680448949337006e-02
4.641923680901527405e-02
5.536480993032455444e-02
5.339345335960388184e-02
3.604929894208908081e-02
-1.673596352338790894e-02
-2.001115586608648300e-03
-2.391130775213241577e-01
-3.353410959243774414e-01
-2.528415918350219727e-01
8.592759072780609131e-02
-1.321084946393966675e-01
-1.689740717411041260e-01
-4.374663811177015305e-03
6.328148394823074341e-02
2.338009774684906006e-01
-5.667483434081077576e-03
7.876236736774444580e-02
-1.200732067227363586e-01
9.711574018001556396e-02
-4.860449582338333130e-02
8.687282353639602661e-02
7.819318026304244995e-02
-1.333854049444198608e-01
-8.410479128360748291e-02
7.558879256248474121e-02
1.716512627899646759e-02
-2.051563467830419540e-03
2.734555862843990326e-03
-1.182003840804100037e-01
-6.748965382575988770e-02
-1.215921640396118164e-01
1.261946260929107666e-01
-3.069435060024261475e-02
3.719652295112609863e-01
2.600567340850830078e-01
-2.384850010275840759e-02
5.963791906833648682e-02
-7.362964004278182983e-02
1.021149158477783203e-01
-1.622826159000396729e-01
-2.608588337898254395e-01
-4.733112081885337830e-02
2.185278534889221191e-01
2.184899598360061646e-01
-1.158391609787940979e-01
2.481380850076675415e-01
-1.269423514604568481e-01
-6.533447653055191040e-02
-2.905802056193351746e-02
6.782778073102235794e-03
4.794553667306900024e-02
8.478142321109771729e-02
8.917936682701110840e-02
-3.781382739543914795e-02
1.203455850481987000e-01
4.634071514010429382e-02
-1.140991523861885071e-01
1.113480888307094574e-02
-1.963193565607070923e-01
-6.798712164163589478e-02
1.302243862301111221e-02
1.867877691984176636e-02
-1.000838726758956909e-01
-4.534439370036125183e-02
-1.916557922959327698e-02
1.296316236257553101e-01
2.101705968379974365e-01
-3.155260384082794189e-01
7.479916512966156006e-02
-1.231627389788627625e-01
-9.019787609577178955e-02
-1.318771392107009888e-01
-2.156870961189270020e-01
-1.556327380239963531e-02
-2.121941000223159790e-01
-4.333146288990974426e-02
1.378215383738279343e-02
3.466633334755897522e-02
6.966225802898406982e-02
-2.033626139163970947e-01
-9.990717470645904541e-02
-1.265490502119064331e-01
9.357716888189315796e-02
5.947995558381080627e-02
-1.500036474317312241e-02
3.271864354610443115e-02
-3.696196526288986206e-02
1.031384542584419250e-01
6.393485516309738159e-02
3.129681199789047241e-02
-3.309136256575584412e-02
-8.805883675813674927e-02
-1.664707213640213013e-01
-1.980820894241333008e-01
-2.032504826784133911e-01
-1.916592940688133240e-02
1.111678481101989746e-01
3.950710967183113098e-02
-1.111171394586563110e-01
6.436268240213394165e-02
-2.209116518497467041e-01
-3.284726142883300781e-01
1.238937750458717346e-01
-9.696312993764877319e-02
-9.972919523715972900e-02
-3.637970685958862305e-01
-1.381968557834625244e-01
5.701021291315555573e-03
-1.777820438146591187e-01
2.223400026559829712e-01
-1.561761349439620972e-01
7.379986811429262161e-03
6.772524863481521606e-02
1.953341215848922729e-01
1.214100718498229980e-01
1.509588807821273804e-01
1.252305656671524048e-01
7.818286865949630737e-02
-1.203764462843537331e-03
-4.958562552928924561e-02
9.740521013736724854e-02
1.912159286439418793e-02
5.671541392803192139e-02
3.623118996620178223e-02
1.695709675550460815e-01
-1.130374372005462646e-01
9.280487149953842163e-02
1.245113685727119446e-01
5.783404782414436340e-02
-1.896369010210037231e-01
1.119459699839353561e-02
-1.026369854807853699e-01
6.578189879655838013e-02
-1.617179834283888340e-03
-1.716399490833282471e-01
1.559462696313858032e-01
-3.279723972082138062e-02
2.580336295068264008e-02
1.268159896135330200e-01
2.409408539533615112e-01
2.055342793464660645e-01
-1.100656227208673954e-04
-3.289648592472076416e-01
2.812081277370452881e-01
7.408481836318969727e-02
-1.795800030231475830e-02
-4.657988995313644409e-02
-8.567649871110916138e-02
-2.461858093738555908e-01
7.598096132278442383e-02
6.528624147176742554e-02
-2.148562483489513397e-02
-2.755823917686939240e-02
8.493245393037796021e-02
5.301110818982124329e-02
7.217900454998016357e-02
-2.444568462669849396e-02
-4.325669631361961365e-02
1.464076787233352661e-01
9.034070372581481934e-02
2.778588831424713135e-01
-1.386019885540008545e-01
7.202969491481781006e-02
-1.399104744195938110e-01
1.671762317419052124e-01
-2.065510116517543793e-02
7.093385327607393265e-03
1.800399646162986755e-02
1.037378013134002686e-01
1.233124211430549622e-01
-6.506661418825387955e-03
-1.269988268613815308e-01
3.092497885227203369e-01
-1.416748613119125366e-01
1.274050921201705933e-01
-1.993432492017745972e-01
1.318735927343368530e-01
1.457849591970443726e-01
2.850511372089385986e-01
4.367771744728088379e-02
1.045285686850547791e-01
8.360587060451507568e-02
-9.609615802764892578e-02
7.830991595983505249e-02
1.269188970327377319e-01
-1.378273069858551025e-01
1.385753452777862549e-01
-5.458254367113113403e-03
-8.538376539945602417e-02
-8.076919615268707275e-02
1.187669560313224792e-01
-1.059572696685791016e-01
-2.894612029194831848e-02
-1.093689799308776855e-01
-1.787648648023605347e-01
5.428723618388175964e-02
1.389942616224288940e-01
1.579363197088241577e-01
1.586931496858596802e-01
-2.253580689430236816e-01
-5.850391462445259094e-02
2.955265343189239502e-02
-5.757894739508628845e-02
1.521199792623519897e-01
-2.929254770278930664e-01
-1.459030956029891968e-01
1.889638304710388184e-01
-1.088855415582656860e-01
4.596242010593414307e-01
2.173479050397872925e-01
-5.531629547476768494e-02
-2.332373112440109253e-01
-9.385968744754791260e-02
6.053115054965019226e-02
3.078416883945465088e-01
1.834983527660369873e-01
1.428760439157485962e-01
5.212132632732391357e-02
-5.121025443077087402e-02
8.554295450448989868e-02
-6.129092071205377579e-03
3.153501823544502258e-02
-6.030552461743354797e-02
-4.516975954174995422e-02
3.750162944197654724e-02
-1.645043939352035522e-01
-5.795602127909660339e-02
-3.946874663233757019e-02
7.799874991178512573e-02
1.842652559280395508e-01
5.792282521724700928e-02
2.927238643169403076e-01
-2.202149778604507446e-01
-1.343876570463180542e-01
-1.318932790309190750e-02
-9.507352858781814575e-02
-1.393829379230737686e-02
-4.649136587977409363e-02
-8.464073389768600464e-02
6.870857626199722290e-02
-4.289717599749565125e-02
-3.209955096244812012e-01
2.604919373989105225e-01
-6.017991527915000916e-02
1.621575504541397095e-01
-1.982979774475097656e-01
-1.624315530061721802e-01
-1.699393391609191895e-01
3.384473919868469238e-01
1.298176497220993042e-01
-6.122213788330554962e-03
-7.414891570806503296e-02
1.955496706068515778e-02
-1.030234247446060181e-01
-4.092659056186676025e-02
-1.527455076575279236e-02
6.059619411826133728e-02
6.653565168380737305e-02
-9.953617304563522339e-02
2.390697225928306580e-02
1.778990030288696289e-02
-5.676894634962081909e-02
-4.023570194840431213e-02
-1.092840582132339478e-01
-8.212801069021224976e-02
-7.695377338677644730e-03
-2.875789105892181396e-01
2.601393684744834900e-02
-4.375558346509933472e-02
4.811177030205726624e-02
1.597613096237182617e-01
4.141427204012870789e-02
-5.736672133207321167e-02
-1.412985622882843018e-01
1.269879788160324097e-01
-2.467742413282394409e-01
-1.393677890300750732e-01
6.965553760528564453e-02
-1.128956601023674011e-01
-2.258168533444404602e-02
6.365799345076084137e-03
-7.783690933138132095e-03
-8.333308249711990356e-02
1.955309137701988220e-02
-6.873860210180282593e-02
8.184318989515304565e-02
1.884609460830688477e-02
-3.502462059259414673e-02
5.647093430161476135e-02
1.430206000804901123e-01
9.145817905664443970e-02
1.803459413349628448e-02
-3.384297341108322144e-02
-1.338747292757034302e-01
7.068031281232833862e-02
1.022055651992559433e-02
1.371353864669799805e-01
2.515501081943511963e-01
1.955328434705734253e-01
1.979964375495910645e-01
4.873551800847053528e-02
-6.136510521173477173e-02
2.181600220501422882e-02
-1.822270750999450684e-01
2.151367366313934326e-01
-3.663747906684875488e-01
4.838246107101440430e-02
-1.129765659570693970e-01
-3.193139731884002686e-01
1.462420821189880371e-01
8.522621542215347290e-02
4.528218135237693787e-02
-1.807499974966049194e-01
9.594628214836120605e-02
-2.378520816564559937e-01
1.321019697934389114e-02
-2.135275630280375481e-03
-8.022578060626983643e-02
8.345481753349304199e-02
-8.718343079090118408e-02
2.800790220499038696e-02
1.805378851713612676e-04
-5.763741675764322281e-03
-8.861573785543441772e-02
1.962148696184158325e-01
1.372113972902297974e-01
2.306179851293563843e-01
-5.232616513967514038e-02
1.345938351005315781e-02
9.840690530836582184e-03
2.294791638851165771e-01
2.078153640031814575e-01
-1.091851666569709778e-02
1.235121116042137146e-01
-7.813826203346252441e-02
4.801088478416204453e-03
-3.324698805809020996e-01
-2.549863159656524658e-01
4.373044520616531372e-02
5.387807637453079224e-02
1.428686082363128662e-01
2.622936666011810303e-01
2.358250021934509277e-01
-3.078734278678894043e-01
1.325882412493228912e-02
2.025451064109802246e-01
-3.389004990458488464e-02
-4.845598712563514709e-02
-8.304295130074024200e-03
-2.515963651239871979e-02
-5.076253414154052734e-02
-9.218583256006240845e-02
3.100106259807944298e-04
-3.577592223882675171e-02
7.825511693954467773e-02
1.136891245841979980e-01
1.051008254289627075e-01
1.023291051387786865e-01
6.783740967512130737e-02
-6.122127175331115723e-02
-7.165822386741638184e-02
-1.051013171672821045e-01
-1.684138625860214233e-01
-3.522686660289764404e-02
9.058423340320587158e-02
-9.243194758892059326e-02
-1.307058185338973999e-01
-2.346815727651119232e-02
5.674811452627182007e-02
1.375340223312377930e-01
5.911108106374740601e-02
1.309583336114883423e-01
-6.064251065254211426e-03
-7.655324414372444153e-03
2.066432684659957886e-01
-1.037573963403701782e-01
-1.433866620063781738e-01
-9.796184301376342773e-02
4.092383384704589844e-02
1.361719220876693726e-01
1.967274248600006104e-01
3.269675001502037048e-02
-4.231211263686418533e-03
6.327158957719802856e-02
-1.246525794267654419e-01
-1.407142430543899536e-01
-3.475280851125717163e-02
-5.716727301478385925e-02
-9.479030221700668335e-02
1.556662768125534058e-01
-1.343312114477157593e-01
6.492486223578453064e-03
-1.619172394275665283e-01
-6.649538129568099976e-02
-4.571004956960678101e-02
1.903313770890235901e-02
-3.850080668926239014e-01
-1.480695009231567383e-01
2.413805723190307617e-01
-6.899773329496383667e-02
-2.867356501519680023e-02
7.224866747856140137e-02
5.472404956817626953e-01
4.925474524497985840e-02
-2.463714629411697388e-01
-1.074894424527883530e-02
1.471271067857742310e-01
-1.235417425632476807e-01
5.105645582079887390e-02
6.727430224418640137e-02
-2.139506042003631592e-01
-1.083299666643142700e-01
-1.536465156823396683e-02
4.250521212816238403e-02
2.792725712060928345e-02
4.652849212288856506e-02
1.027757301926612854e-01
8.948892354965209961e-02
-3.070812113583087921e-02
-4.506619274616241455e-02
-1.874016225337982178e-02
-1.577277085743844509e-03
-4.760606586933135986e-02
2.289102785289287567e-02
-8.508400991559028625e-03
1.152312830090522766e-01
-1.467661857604980469e-01
1.154008880257606506e-01
-1.852259784936904907e-01
-1.671243458986282349e-01
4.651973396539688110e-02
1.068343874067068100e-02
7.771391421556472778e-02
-1.428342163562774658e-01
4.031991586089134216e-03
2.288198024034500122e-01
-3.617799878120422363e-01
-1.196478605270385742e-01
6.050405278801918030e-02
3.035422861576080322e-01
-1.854461580514907837e-01
1.804617643356323242e-01
7.084998488426208496e-02
-2.213208004832267761e-02
7.354154437780380249e-02
3.127695024013519287e-01
-3.105334937572479248e-01
-8.027144707739353180e-03
1.825874298810958862e-02
8.608714677393436432e-03
1.000222191214561462e-01
1.094627007842063904e-01
7.783278822898864746e-02
7.035660743713378906e-02
-8.048968762159347534e-02
6.741071585565805435e-03
1.237351447343826294e-01
1.793212294578552246e-01
-9.833747893571853638e-02
-2.570685148239135742e-01
-6.319700181484222412e-02
6.749889999628067017e-02
-2.384071052074432373e-01
3.544115424156188965e-01
1.456786692142486572e-01
-1.113300472497940063e-01
1.577538810670375824e-02
-2.746412344276905060e-02
1.404987182468175888e-02
-7.127752155065536499e-02
-1.246148347854614258e-01
9.240414947271347046e-02
1.430701762437820435e-01
8.642934262752532959e-03
2.151916027069091797e-01
-1.550965756177902222e-01
1.526034064590930939e-02
-4.865539819002151489e-02
-1.594595313072204590e-01
2.640131302177906036e-02
8.791140280663967133e-03
-5.422592908143997192e-02
7.514349371194839478e-02
-1.463628956116735935e-03
-9.351690858602523804e-02
2.433954179286956787e-02
-3.753967583179473877e-02
1.401350349187850952e-01
-1.991151273250579834e-01
-3.999095410108566284e-02
4.446297511458396912e-02
5.315994843840599060e-02
-1.163044199347496033e-02
-2.896134741604328156e-02
-9.303013235330581665e-02
-2.458151802420616150e-02
1.631472110748291016e-01
-1.835335791110992432e-01
1.898888312280178070e-02
8.062600344419479370e-02
-2.098949849605560303e-01
1.580601632595062256e-01
-2.380170822143554688e-01
-1.812405735254287720e-01
-3.230283409357070923e-02
-1.562186479568481445e-01
-2.612120211124420166e-01
-1.440932899713516235e-01
5.994599312543869019e-02
-8.864057064056396484e-02
4.893247783184051514e-02
4.126618057489395142e-02
1.275170445442199707e-01
3.269414231181144714e-02
-7.522960752248764038e-02
-5.260146781802177429e-02
-6.867752224206924438e-02
-2.788648940622806549e-02
7.006104104220867157e-03
-9.691926836967468262e-02
6.789188832044601440e-02
3.390172496438026428e-02
-7.710103690624237061e-02
1.349806785583496094e-01
9.299767017364501953e-02
9.975157678127288818e-02
1.072957217693328857e-01
-9.424724616110324860e-03
3.675500452518463135e-01
1.157872900366783142e-01
-2.218657135963439941e-01
-4.858467355370521545e-02
-9.043198823928833008e-02
1.048365309834480286e-01
-3.234582543373107910e-01
2.737514972686767578e-01
-3.511724295094609261e-03
2.914656698703765869e-02
-1.735515147447586060e-02
3.139509558677673340e-01
6.497596949338912964e-02
4.640678688883781433e-02
5.841091647744178772e-02
-5.104922130703926086e-02
8.746267855167388916e-02
-1.245102286338806152e-02
-8.963552117347717285e-02
6.608191132545471191e-02
-6.427587568759918213e-02
4.711776971817016602e-02
1.079425811767578125e-01
2.708804607391357422e-02
6.174126267433166504e-02
-7.321572303771972656e-02
-6.320510804653167725e-02
-9.762235730886459351e-02
3.178077563643455505e-02
1.133585944771766663e-01
9.061310440301895142e-03
4.266291484236717224e-02
9.776840358972549438e-02
2.203099131584167480e-01
1.272819489240646362e-01
1.260120868682861328e-01
3.474203869700431824e-02
3.611481748521327972e-03
-1.249003261327743530e-01
-4.575331136584281921e-02
-3.557790815830230713e-01
1.483729481697082520e-01
-1.397821456193923950e-01
3.215922117233276367e-01
1.002502813935279846e-01
7.996496558189392090e-02
-2.897309064865112305e-01
-1.345867365598678589e-01
3.844751417636871338e-02
1.034779250621795654e-01
2.645789980888366699e-01
-8.214408904314041138e-02
3.530494868755340576e-02
-9.025868028402328491e-02
1.097043305635452271e-01
4.371689632534980774e-02
-4.639377072453498840e-02
3.551479801535606384e-02
-4.618370905518531799e-02
1.733096688985824585e-01
-1.607545763254165649e-01
-1.508333683013916016e-01
1.348145455121994019e-01
-8.933832496404647827e-02
-5.871766805648803711e-02
-1.029500514268875122e-01
2.273907512426376343e-01
1.094783693552017212e-01
1.906409859657287598e-01
-6.507997959852218628e-02
9.319756925106048584e-02
-6.161781027913093567e-02
-8.364288508892059326e-02
-1.100603416562080383e-01
-3.323100805282592773e-01
5.504840612411499023e-02
-3.276036679744720459e-01
-1.288985759019851685e-01
-8.338221907615661621e-02
-1.276443153619766235e-01
-3.131038695573806763e-02
-1.363165974617004395e-01
-9.990013390779495239e-02
-2.537092268466949463e-01
2.205748297274112701e-02
-3.182334080338478088e-02
-6.013234332203865051e-02
6.911519169807434082e-02
7.628917694091796875e-02
-2.254436165094375610e-02
2.024951390922069550e-03
7.520822435617446899e-02
7.216239720582962036e-02
5.942804738879203796e-02
-2.808883227407932281e-02
1.929881423711776733e-02
6.335534900426864624e-02
1.980198472738265991e-01
-6.161943078041076660e-02
1.215746775269508362e-01
-1.674821525812149048e-01
1.282169371843338013e-01
-4.165922105312347412e-02
-1.406917534768581390e-02
4.200375452637672424e-02
2.581424415111541748e-01
9.758566506206989288e-03
-1.226106956601142883e-01
2.245603799819946289e-01
1.490645855665206909e-01
-1.370858997106552124e-01
-5.286507308483123779e-02
-1.715396493673324585e-01
-2.991549670696258545e-01
-6.368803977966308594e-02
3.501302003860473633e-01
-2.328681051731109619e-01
-7.384916394948959351e-02
3.860756009817123413e-02
2.007411234080791473e-02
-1.103109940886497498e-01
9.482442587614059448e-02
-5.378157272934913635e-02
-1.734400354325771332e-02
1.694846600294113159e-01
-1.403342932462692261e-01
1.885418295860290527e-01
-6.341324001550674438e-02
-1.208648532629013062e-01
3.472697734832763672e-02
-6.041680928319692612e-03
2.250448428094387054e-02
-1.896470934152603149e-01
-1.281122565269470215e-01
-3.459943234920501709e-01
-2.871355786919593811e-02
2.337682619690895081e-02
-3.208126872777938843e-02
2.733731269836425781e-01
-1.478155851364135742e-01
7.848747074604034424e-02
4.404957592487335205e-02
5.604630112648010254e-01
6.163042504340410233e-03
2.262111380696296692e-02
-2.354161292314529419e-01
-2.818914651870727539e-01
-1.702070087194442749e-01
2.127934694290161133e-01
2.631829082965850830e-01
-3.875581175088882446e-02
8.002300746738910675e-03
-2.499255351722240448e-02
-6.368056870996952057e-03
-7.150012999773025513e-02
-1.809175498783588409e-02
1.121403500437736511e-01
-1.444919556379318237e-01
2.212913185358047485e-01
-1.414210349321365356e-01
2.150891572237014771e-01
9.870544075965881348e-02
-1.471623033285140991e-01
-5.479462072253227234e-02
5.117434263229370117e-02
-1.682924032211303711e-01
2.263447344303131104e-01
-1.514511555433273315e-01
-1.591829508543014526e-01
-4.142973944544792175e-02
-9.642164222896099091e-03
3.591501712799072266e-02
4.985648393630981445e-02
3.106107935309410095e-02
6.319851428270339966e-02
-4.914282858371734619e-01
-6.402229517698287964e-02
2.417739666998386383e-02
3.071598410606384277e-01
-9.411435574293136597e-02
-4.228785634040832520e-02
-3.309375345706939697e-01
1.968739330768585205e-01
3.615292161703109741e-02
-6.252335011959075928e-02
3.062245622277259827e-02
-1.475920621305704117e-02
-1.213713828474283218e-02
7.536810636520385742e-02
2.333458326756954193e-02
-1.993365436792373657e-01
2.423699386417865753e-02
-8.056455850601196289e-02
-1.258696615695953369e-01
1.053485795855522156e-01
1.054932400584220886e-01
-1.596578061580657959e-01
1.182227432727813721e-01
-1.182804405689239502e-01
-7.989029586315155029e-02
1.197923123836517334e-01
-2.724071592092514038e-02
4.917142540216445923e-02
-9.887894988059997559e-02
9.694647789001464844e-02
2.366674244403839111e-01
-2.577693760395050049e-01
-7.160680741071701050e-02
-2.051222920417785645e-01
4.552233964204788208e-02
-1.943158507347106934e-01
-6.528911739587783813e-02
-1.025178804993629456e-01
-9.262730926275253296e-02
-3.390218615531921387e-01
-2.154528349637985229e-01
9.976098313927650452e-03
1.169060841202735901e-01
1.379240397363901138e-02
4.063510522246360779e-02
-5.920482799410820007e-02
4.961949959397315979e-02
-2.637742646038532257e-02
-1.751734763383865356e-01
-7.420085370540618896e-02
-1.340919733047485352e-01
9.229160845279693604e-02
-3.923493996262550354e-02
-4.070639982819557190e-02
-9.665326029062271118e-02
-7.287522405385971069e-02
-1.046159937977790833e-01
3.424229845404624939e-02
2.116025239229202271e-01
1.107428222894668579e-01
-1.596864499151706696e-02
-5.684224143624305725e-02
-3.127839788794517517e-02
4.278566241264343262e-01
1.975067257881164551e-01
-1.470948010683059692e-01
-3.543511629104614258e-01
3.924140706658363342e-02
-1.380109339952468872e-01
2.178231775760650635e-01
-6.920255720615386963e-02
-2.462942898273468018e-02
-2.979406416416168213e-01
-2.354123257100582123e-02
9.474720060825347900e-02
3.771130740642547607e-02
-1.567814499139785767e-02
-8.588135242462158203e-02
-1.938148401677608490e-02
1.283314377069473267e-01
-3.251781314611434937e-02
-9.116075187921524048e-02
1.277868598699569702e-01
-1.267932653427124023e-01
2.657705917954444885e-02
9.796053171157836914e-02
2.166456133127212524e-01
1.236406192183494568e-01
5.399024486541748047e-02
-1.435097754001617432e-01
-1.947173625230789185e-01
-3.642430901527404785e-01
-1.555059552192687988e-01
-9.236385673284530640e-02
-4.763690382242202759e-02
-1.479731500148773193e-01
9.734202176332473755e-02
1.332091689109802246e-01
-2.072895318269729614e-01
-4.746608138084411621e-01
8.373433351516723633e-02
1.476491987705230713e-01
9.273964166641235352e-02
-1.119628697633743286e-01
-1.291091442108154297e-01
-4.253040850162506104e-01
-3.965792059898376465e-02
-8.569755405187606812e-02
-6.470542401075363159e-02
