-9.939082711935043335e-02
1.116139255464076996e-02
5.005020275712013245e-02
1.332704871892929077e-01
-8.139405399560928345e-03
1.328812092542648315e-01
-1.545969694852828979e-01
1.231273934245109558e-01
8.704208768904209137e-03
-1.087480783462524414e-01
-1.035844236612319946e-01
-3.244749084115028381e-02
-6.555354595184326172e-02
1.064279675483703613e-01
-7.058447599411010742e-02
-1.666005514562129974e-02
-1.015646457672119141e-01
1.047832593321800232e-01
-2.112138550728559494e-03
-1.579944342374801636e-01
-1.189631819725036621e-01
-7.038271427154541016e-02
2.359965257346630096e-02
-8.461116254329681396e-02
-7.059595733880996704e-02
-1.137634366750717163e-02
1.004753038287162781e-01
-1.421215757727622986e-02
3.865448758006095886e-02
-9.763016551733016968e-02
1.236798167228698730e-01
1.817213296890258789e-01
-6.707450002431869507e-02
-5.627593491226434708e-03
1.441055238246917725e-01
5.575455352663993835e-02
-1.393946558237075806e-01
-7.058817893266677856e-02
-7.101020961999893188e-02
1.016548424959182739e-01
4.859299957752227783e-02
-1.502358764410018921e-01
-1.716934740543365479e-01
9.279632568359375000e-02
-9.118096530437469482e-02
1.236668601632118225e-01
-1.344961971044540405e-01
-8.297748863697052002e-02
8.285181969404220581e-02
1.129583865404129028e-01
-4.162627458572387695e-02
2.921206131577491760e-02
1.869032233953475952e-01
-7.073205709457397461e-02
2.780504710972309113e-02
1.312121301889419556e-01
-1.090131998062133789e-01
1.117061637341976166e-02
1.539946254342794418e-02
-8.654314279556274414e-02
-9.826783090829849243e-02
-8.195539563894271851e-02
3.076300956308841705e-02
-7.014563679695129395e-02
8.830485492944717407e-02
-2.058854559436440468e-03
7.645659893751144409e-02
-5.600126087665557861e-02
9.521277248859405518e-02
3.714163601398468018e-02
-8.143669366836547852e-02
3.199817612767219543e-02
1.012906730175018311e-01
-1.314627379179000854e-01
-5.062503740191459656e-03
5.461742356419563293e-02
5.044352635741233826e-02
-8.828617632389068604e-02
-4.835731163620948792e-02
-9.958311915397644043e-02
-5.716504901647567749e-02
-9.922505170106887817e-02
-7.907596975564956665e-02
8.344988524913787842e-02
-2.127031050622463226e-02
-5.051641911268234253e-02
-1.029695104807615280e-02
-3.629082068800926208e-02
3.792866319417953491e-02
5.844306200742721558e-02
-1.222532838582992554e-01
4.189980775117874146e-02
-2.557891421020030975e-02
6.500473618507385254e-02
-6.665974110364913940e-02
7.354052364826202393e-02
-6.217077001929283142e-02
6.024048477411270142e-02
1.916603744029998779e-01
1.022101119160652161e-01
-4.203794896602630615e-02
1.501887589693069458e-01
3.019534237682819366e-02
-1.157183758914470673e-02
1.504128128290176392e-01
5.698523670434951782e-02
8.712454885244369507e-02
-2.799188904464244843e-02
-1.058006659150123596e-01
-4.884752631187438965e-02
2.993714436888694763e-02
-7.563494145870208740e-02
-2.017439603805541992e-01
6.286840140819549561e-02
-1.546499431133270264e-01
-1.556948423385620117e-01
9.387646615505218506e-02
1.707140207290649414e-01
-8.189211040735244751e-02
5.893272534012794495e-02
-2.797022648155689240e-02
-6.273556500673294067e-02
1.431815177202224731e-01
-1.420482713729143143e-02
-2.026144647970795631e-03
1.240812391042709351e-01
1.241104900836944580e-01
8.151387423276901245e-02
-1.297612786293029785e-01
-1.895920038223266602e-01
1.083496138453483582e-01
1.042216569185256958e-01
1.272018402814865112e-01
-6.144622340798377991e-02
-2.357519045472145081e-02
1.516693830490112305e-01
-1.065998300909996033e-01
-2.229496464133262634e-02
-7.265058904886245728e-02
3.968649543821811676e-03
7.355958223342895508e-02
2.605072967708110809e-02
-7.169213145971298218e-02
-6.010963581502437592e-03
1.800555139780044556e-01
1.010164991021156311e-01
4.589662328362464905e-02
-3.056374937295913696e-02
-4.647097736597061157e-02
1.024661213159561157e-01
7.683748751878738403e-02
1.687227338552474976e-01
-3.336983919143676758e-02
-5.188720300793647766e-02
-5.341322347521781921e-02
-2.380875498056411743e-01
7.898472249507904053e-02
-1.847022771835327148e-02
-1.587160974740982056e-01
-7.276410609483718872e-02
-1.101199537515640259e-02
9.024862200021743774e-03
-6.757478415966033936e-02
-7.008236646652221680e-02
-9.971695393323898315e-02
5.940544605255126953e-02
-3.802652005106210709e-03
5.456187576055526733e-02
-5.716168880462646484e-02
-1.321732401847839355e-01
-2.159158326685428619e-02
1.240419074892997742e-01
-8.501303195953369141e-02
-2.445737458765506744e-02
-1.851439327001571655e-01
-7.791648805141448975e-02
-5.825822055339813232e-02
1.512987017631530762e-01
7.965683192014694214e-02
-5.076432973146438599e-02
1.575610339641571045e-01
1.541229039430618286e-01
3.637652471661567688e-02
-1.200933977961540222e-01
-1.728534102439880371e-01
1.377300918102264404e-01
1.443441957235336304e-01
5.038726329803466797e-02
-9.563702344894409180e-02
-6.130186468362808228e-02
-1.195770222693681717e-02
1.373159289360046387e-01
-9.622762352228164673e-02
6.977371126413345337e-02
3.261317312717437744e-02
-2.287197299301624298e-02
-6.948094815015792847e-02
-4.075489193201065063e-02
1.309332102537155151e-01
-1.478698551654815674e-01
-6.372077763080596924e-02
1.573290973901748657e-01
-6.847414374351501465e-02
-3.359186649322509766e-02
1.366513594985008240e-02
3.142989426851272583e-02
9.245444089174270630e-02
-6.274674087762832642e-02
1.226098239421844482e-01
-4.550664871931076050e-02
7.255856692790985107e-02
-1.556811928749084473e-01
-1.425649672746658325e-01
4.693398252129554749e-02
-3.252301365137100220e-02
-3.754955902695655823e-02
6.923014670610427856e-02
8.800153434276580811e-02
-1.466795653104782104e-01
1.577100455760955811e-01
5.619113892316818237e-02
-9.266898036003112793e-02
3.712842939421534538e-03
1.345839202404022217e-01
1.456564217805862427e-01
-1.208657249808311462e-01
-1.353023648262023926e-01
-2.567953988909721375e-02
-5.357297509908676147e-02
4.976104199886322021e-02
7.537161558866500854e-02
7.066698744893074036e-04
9.580568224191665649e-02
-9.071007370948791504e-02
1.382428258657455444e-01
-7.493207603693008423e-02
-7.826296985149383545e-02
1.834227740764617920e-01
8.596907556056976318e-02
5.960762873291969299e-02
7.410848885774612427e-02
-5.476889759302139282e-02
1.338938027620315552e-01
1.149502471089363098e-01
-9.702504426240921021e-02
-1.621725261211395264e-01
5.585242435336112976e-02
-1.594622135162353516e-01
8.541034907102584839e-02
-1.186290569603443146e-02
1.162765175104141235e-01
-2.062601968646049500e-02
-3.930716216564178467e-02
1.320765353739261627e-02
-1.858980357646942139e-01
-2.575835213065147400e-02
-1.368252336978912354e-01
1.105416864156723022e-01
-9.153369069099426270e-02
8.049120754003524780e-02
-7.101733237504959106e-02
-8.923367410898208618e-02
3.706821240484714508e-03
2.144452184438705444e-02
1.009400188922882080e-01
7.519084028899669647e-03
-4.805900901556015015e-02
-3.471932187676429749e-02
-4.216105211526155472e-03
8.133833110332489014e-02
-1.043479815125465393e-01
1.300986707210540771e-01
-6.985604017972946167e-02
-2.930504456162452698e-02
-5.337398871779441833e-02
3.016880340874195099e-02
-1.484225597232580185e-02
1.118482369929552078e-02
6.136386096477508545e-02
-2.747716009616851807e-02
-9.885470569133758545e-02
-1.158776059746742249e-01
-7.451266795396804810e-02
8.603987097740173340e-02
-1.619950532913208008e-01
-7.378372550010681152e-02
-9.378534555435180664e-02
-5.379172042012214661e-02
5.442624539136886597e-02
1.217469200491905212e-01
-1.279216259717941284e-01
9.361824020743370056e-03
-1.252632886171340942e-01
-1.094805002212524414e-01
1.368411779403686523e-01
-1.023158282041549683e-01
-3.843799978494644165e-02
-1.755401492118835449e-01
-1.777890138328075409e-02
1.500389277935028076e-01
7.620247453451156616e-02
6.308440864086151123e-02
7.704689353704452515e-02
6.167894974350929260e-02
4.929833114147186279e-02
-2.912781015038490295e-02
2.462544851005077362e-02
-9.835873544216156006e-02
-7.542655616998672485e-02
-2.723198570311069489e-02
5.533929541707038879e-02
3.530945396050810814e-03
-3.860053839161992073e-03
-4.025480151176452637e-02
-8.149445801973342896e-02
-1.349522918462753296e-01
-1.727545410394668579e-01
1.159066110849380493e-01
1.692256927490234375e-01
-5.233546718955039978e-02
1.568484902381896973e-01
5.477154627442359924e-03
6.228144839406013489e-02
-1.885115355253219604e-02
1.112903282046318054e-01
7.913426309823989868e-02
7.917442917823791504e-02
-2.585632540285587311e-02
5.545171722769737244e-02
5.861572548747062683e-02
3.959546983242034912e-02
1.229609921574592590e-02
-6.595146842300891876e-03
8.958829566836357117e-03
-1.762013286352157593e-01
3.101350367069244385e-02
3.506648913025856018e-02
1.667747646570205688e-01
8.000227808952331543e-02
2.666708081960678101e-02
-1.263905316591262817e-01
3.123569488525390625e-02
4.258044436573982239e-02
-2.750889398157596588e-02
-1.763523742556571960e-02
-1.073204427957534790e-01
-7.045634556561708450e-03
-1.474735289812088013e-01
7.400963455438613892e-02
7.997086644172668457e-02
-1.801035599783062935e-03
-3.445766493678092957e-02
-5.074668675661087036e-02
-1.873424053192138672e-01
-5.769634619355201721e-02
-3.383665904402732849e-02
8.693485707044601440e-02
-7.642368972301483154e-02
1.638439595699310303e-01
8.787097409367561340e-03
1.516368985176086426e-02
-1.515341829508543015e-02
9.827525168657302856e-02
7.095278799533843994e-02
-1.538249105215072632e-01
-1.287938356399536133e-01
-8.877994865179061890e-02
2.987061068415641785e-02
-7.627291977405548096e-02
4.280356317758560181e-02
2.850638516247272491e-02
-4.683525860309600830e-02
-1.435961127281188965e-01
1.069659516215324402e-01
-1.552304625511169434e-01
1.830481551587581635e-02
-1.526716351509094238e-01
-9.510705620050430298e-02
-3.263826668262481689e-02
9.289019554853439331e-02
3.284271770098712295e-06
9.543538093566894531e-02
-4.310404509305953979e-02
-1.249505952000617981e-01
1.219991445541381836e-01
9.052928537130355835e-02
-7.940538227558135986e-02
-2.374179102480411530e-02
1.002741884440183640e-02
-6.772512942552566528e-02
-2.283188886940479279e-02
5.310903862118721008e-02
-1.197969987988471985e-01
3.046391904354095459e-02
8.972562104463577271e-02
-6.258907914161682129e-02
-9.172766469419002533e-03
-4.005128517746925354e-02
1.542464196681976318e-01
1.435094773769378662e-01
3.975051641464233398e-02
1.013081818819046021e-01
9.137205034494400024e-02
2.384054474532604218e-02
-1.128165051341056824e-01
-8.437065780162811279e-02
1.079527009278535843e-02
1.203029826283454895e-01
-7.751845568418502808e-02
-5.734525620937347412e-02
1.125631779432296753e-01
-1.063023060560226440e-01
4.339906852692365646e-03
9.877225384116172791e-03
2.939653769135475159e-02
-1.030002087354660034e-01
-9.437534958124160767e-02
-1.467466540634632111e-02
-1.131245717406272888e-01
-9.138363599777221680e-02
-4.150700941681861877e-02
-3.422097116708755493e-02
-9.342411160469055176e-02
-8.722304552793502808e-02
-2.769847773015499115e-02
-8.741910010576248169e-02
-8.721403032541275024e-02
-2.444520592689514160e-02
5.242586135864257812e-02
-5.571881309151649475e-03
1.870770007371902466e-01
1.192975640296936035e-01
9.706926345825195312e-02
1.204636693000793457e-01
-8.449237793684005737e-02
3.300758823752403259e-02
-9.890869259834289551e-02
-1.188844367861747742e-01
-2.295644953846931458e-02
-5.283781886100769043e-02
1.518033444881439209e-01
9.114743024110794067e-02
-1.530409902334213257e-01
2.179118990898132324e-02
-1.753772497177124023e-01
3.112613037228584290e-02
4.221544042229652405e-02
4.509244486689567566e-02
-4.420873150229454041e-02
-6.106224656105041504e-02
-1.003214046359062195e-01
9.184433519840240479e-02
1.088332571089267731e-02
1.938331872224807739e-01
-7.053445279598236084e-02
6.471861898899078369e-02
-1.024050563573837280e-01
-1.743580102920532227e-01
8.973276615142822266e-02
-3.299505636096000671e-02
-6.650952249765396118e-02
-1.244855597615242004e-01
-1.564210206270217896e-01
9.487373381853103638e-02
8.889950066804885864e-02
5.096124112606048584e-02
-9.625250846147537231e-02
-1.012350916862487793e-01
-3.159627318382263184e-02
4.495534673333168030e-02
8.235109597444534302e-02
1.359506845474243164e-01
1.430555135011672974e-01
-5.574728175997734070e-02
-8.732818067073822021e-02
4.860608372837305069e-03
-1.299475282430648804e-01
2.232797676697373390e-03
-1.266447752714157104e-01
-1.617385149002075195e-01
-1.722034811973571777e-01
-6.394467502832412720e-02
-6.063881516456604004e-02
1.350219827145338058e-02
-5.937886983156204224e-02
-4.103811085224151611e-02
1.850724369287490845e-01
1.380009949207305908e-02
3.536073863506317139e-02
-1.195610407739877701e-02
-1.540674865245819092e-01
1.467461884021759033e-01
4.508778918534517288e-03
-1.027576029300689697e-01
-1.302353888750076294e-01
1.406849473714828491e-01
-1.322007179260253906e-01
1.489397734403610229e-01
5.272798240184783936e-02
2.759432978928089142e-02
1.544880401343107224e-02
8.534239977598190308e-02
4.687903076410293579e-02
-8.315785974264144897e-02
3.797914460301399231e-02
-6.427730619907379150e-02
6.571663916110992432e-02
9.236939996480941772e-02
-8.038324862718582153e-02
-9.966201335191726685e-02
-1.978667974472045898e-01
1.410179883241653442e-01
