2.347241155803203583e-02
-1.856302283704280853e-02
-6.342212855815887451e-02
-4.090254008769989014e-02
-8.065287023782730103e-03
-1.419579889625310898e-02
8.818875066936016083e-03
1.627423241734504700e-02
-9.205881506204605103e-02
3.984063863754272461e-02
-6.311208754777908325e-02
-3.662037476897239685e-02
-7.521717995405197144e-02
3.077638149261474609e-02
3.727223724126815796e-03
4.551620036363601685e-02
-4.434767737984657288e-02
1.131286029703915119e-03
5.430611968040466309e-02
3.154142200946807861e-02
2.446134574711322784e-02
-9.667661041021347046e-02
-4.342671111226081848e-02
4.109732806682586670e-02
-4.428614396601915359e-03
3.818166628479957581e-02
-1.825661957263946533e-02
-2.225062437355518341e-02
-3.544148802757263184e-02
-3.472292097285389900e-03
-1.034996099770069122e-02
-5.065008625388145447e-02
-6.196191161870956421e-02
-7.327625155448913574e-02
-2.260232158005237579e-02
-2.154845558106899261e-02
6.773111969232559204e-02
-9.284247644245624542e-03
-1.019396036863327026e-01
4.323550686240196228e-02
-5.950386449694633484e-02
-1.555502973496913910e-02
1.065147854387760162e-02
-1.453938055783510208e-02
-2.372233383357524872e-02
-4.948622360825538635e-02
-2.034374885261058807e-02
1.049233973026275635e-02
-6.243145093321800232e-02
-2.465038001537322998e-02
-1.527991984039545059e-02
-7.567261904478073120e-02
-1.878667622804641724e-02
-4.470409080386161804e-02
2.003827132284641266e-02
1.592346839606761932e-02
-2.505528973415493965e-03
-1.894601806998252869e-02
-8.834755979478359222e-03
3.703613579273223877e-02
-8.027834817767143250e-03
-4.556243494153022766e-02
-4.105906188488006592e-02
-2.710905298590660095e-02
-4.953901749104261398e-03
3.568689152598381042e-02
4.317871108651161194e-02
2.041281014680862427e-02
-3.588574007153511047e-02
-4.660839214920997620e-03
5.350961536169052124e-02
-2.527632005512714386e-02
-7.909239828586578369e-02
-5.288427323102951050e-02
-4.636620730161666870e-02
6.780920922756195068e-02
1.810243586078286171e-03
-2.122825384140014648e-02
-4.074306413531303406e-02
-1.742663607001304626e-02
3.757691010832786560e-02
1.544882357120513916e-02
1.111084036529064178e-02
1.374717336148023605e-02
-2.959848009049892426e-02
-3.833770006895065308e-02
1.028440147638320923e-02
-2.610355615615844727e-02
3.257356956601142883e-02
1.031660567969083786e-02
7.592256367206573486e-02
-3.356040269136428833e-02
-3.043693676590919495e-02
3.860381618142127991e-02
-1.661948673427104950e-02
-4.874778911471366882e-02
-2.784430421888828278e-02
4.910963587462902069e-03
-2.619223482906818390e-02
-1.551714632660150528e-02
-8.099494874477386475e-02
1.403416786342859268e-02
-1.585192419588565826e-02
1.804957725107669830e-02
-7.428283989429473877e-02
2.338918298482894897e-02
2.734606340527534485e-02
4.606068506836891174e-02
4.975403100252151489e-02
-7.204046472907066345e-03
6.662868708372116089e-02
-2.999313734471797943e-02
-7.538678497076034546e-02
4.369581863284111023e-02
-2.537286840379238129e-02
5.206798762083053589e-02
1.144168619066476822e-02
1.335700508207082748e-02
1.554026920348405838e-02
2.765884622931480408e-02
4.208540916442871094e-02
-5.809145048260688782e-02
-2.298416197299957275e-02
-9.541762992739677429e-03
-6.850751582533121109e-03
4.140666872262954712e-02
4.601432755589485168e-02
-1.080687716603279114e-01
5.610784143209457397e-02
-5.241813603788614273e-03
2.384190075099468231e-02
3.970732446759939194e-03
-8.154732733964920044e-02
-4.703518375754356384e-02
3.016212955117225647e-02
-4.082397092133760452e-03
-6.298929452896118164e-02
2.394799143075942993e-02
5.869252979755401611e-02
2.542574703693389893e-02
-7.581815123558044434e-02
-2.079389616847038269e-02
-5.406899377703666687e-03
-8.956307545304298401e-03
2.958626113831996918e-02
2.353294380009174347e-02
-7.609503227286040783e-04
7.577839773148298264e-03
-8.233298361301422119e-02
-5.302688106894493103e-02
1.560131739825010300e-02
-4.735078290104866028e-02
3.528093174099922180e-02
1.226467359811067581e-02
-9.768600761890411377e-02
-1.023670285940170288e-02
-5.285755544900894165e-02
-5.994442477822303772e-02
-5.691428482532501221e-02
4.581367224454879761e-02
-6.025121361017227173e-02
4.948244988918304443e-02
-5.907674133777618408e-02
7.205679267644882202e-02
-4.851935431361198425e-03
-4.995180666446685791e-02
2.462518587708473206e-02
-6.343316286802291870e-02
3.716277657076716423e-03
-4.477073252201080322e-02
-3.734308853745460510e-02
-8.463113754987716675e-02
-3.015689924359321594e-02
4.831662867218255997e-03
-6.415151804685592651e-02
-3.995410352945327759e-02
-2.802953496575355530e-02
-3.131758794188499451e-02
3.734894096851348877e-02
-5.498611927032470703e-02
-7.051762193441390991e-02
-2.443660981953144073e-03
-3.969491459429264069e-03
-3.847329318523406982e-02
3.343186900019645691e-02
2.760025113821029663e-02
-6.911596655845642090e-02
-3.147297771647572517e-03
-8.189452439546585083e-02
8.606724441051483154e-03
-6.314303725957870483e-02
1.983982324600219727e-02
-2.757237292826175690e-02
-1.018087863922119141e-01
-4.028447344899177551e-02
4.770869389176368713e-02
-3.628739714622497559e-02
2.174935676157474518e-02
5.648523569107055664e-02
6.436999142169952393e-02
-4.728230834007263184e-02
4.596174880862236023e-02
1.830481551587581635e-02
-4.288978129625320435e-02
-8.212548680603504181e-03
-3.126762434840202332e-02
-3.090064227581024170e-02
-8.711692877113819122e-03
3.378666192293167114e-02
-5.819763056933879852e-03
-9.028743952512741089e-03
-2.659341506659984589e-02
4.509479552507400513e-02
2.360394410789012909e-02
-5.189166218042373657e-02
2.789781801402568817e-02
2.147568948566913605e-02
-1.247608736157417297e-01
-6.953376531600952148e-02
1.712900213897228241e-02
-5.434168875217437744e-02
3.844805434346199036e-02
-3.652770444750785828e-02
6.798359006643295288e-02
6.577238440513610840e-02
-1.825056411325931549e-02
4.329975694417953491e-02
1.096339314244687557e-03
3.999497741460800171e-02
-6.015275791287422180e-02
4.469031095504760742e-02
6.815776228904724121e-02
2.618544362485408783e-02
-2.968899346888065338e-02
-4.261162132024765015e-02
-3.580000996589660645e-02
-9.298136457800865173e-03
-2.584038302302360535e-03
-5.818756471853703260e-05
-6.980827450752258301e-02
7.796177268028259277e-02
-6.851348280906677246e-02
-1.082184612751007080e-01
-5.501617211848497391e-03
-5.865180864930152893e-02
2.000029385089874268e-02
-5.741007160395383835e-03
-3.902294114232063293e-02
3.838592395186424255e-02
-2.594242431223392487e-02
7.076982408761978149e-02
-2.457925584167242050e-04
1.847804151475429535e-02
-1.610671356320381165e-02
2.583196014165878296e-02
1.472156401723623276e-02
