1.464580465108156204e-02
-2.263277070596814156e-03
1.050998363643884659e-02
2.494417130947113037e-02
-2.884563058614730835e-02
2.316397987306118011e-02
2.480495348572731018e-02
1.363405585289001465e-02
-1.067813765257596970e-02
4.321276769042015076e-02
1.110539771616458893e-02
4.179354384541511536e-02
8.816001936793327332e-03
-3.491495922207832336e-02
3.299272805452346802e-02
9.185251779854297638e-03
2.484209463000297546e-02
-1.561992149800062180e-02
8.582472801208496094e-03
1.079223677515983582e-02
-3.014481067657470703e-02
-2.096838504076004028e-02
-2.008811011910438538e-02
2.618595585227012634e-02
-4.155635833740234375e-02
5.508225783705711365e-02
-1.557702198624610901e-02
3.941447287797927856e-02
-8.078749291598796844e-03
3.055752441287040710e-02
2.571068145334720612e-02
3.882401064038276672e-02
4.597667977213859558e-02
2.298813685774803162e-02
2.461627684533596039e-02
9.813585318624973297e-03
-2.536538057029247284e-02
-2.814886718988418579e-02
-3.270866721868515015e-02
-2.743747457861900330e-02
2.661269903182983398e-02
2.077079145237803459e-03
3.350028768181800842e-02
3.289253264665603638e-02
-2.919914200901985168e-02
3.216061368584632874e-02
1.532559166662395000e-03
-1.076927874237298965e-02
4.632458835840225220e-02
-4.837261978536844254e-03
3.327302262187004089e-02
1.607593521475791931e-02
2.535544103011488914e-03
-1.237122528254985809e-02
3.784391656517982483e-02
4.861091449856758118e-02
1.169812865555286407e-03
-6.862559821456670761e-03
1.783665083348751068e-02
-1.955290138721466064e-02
2.814622782170772552e-02
3.118338435888290405e-02
-3.878836333751678467e-02
2.139360085129737854e-02
-2.283009700477123260e-02
-6.933372933417558670e-03
-4.751323722302913666e-03
2.586851269006729126e-02
-2.274848148226737976e-02
2.035861462354660034e-02
3.260955587029457092e-02
-2.043547295033931732e-02
-6.874328828416764736e-04
4.836880043148994446e-02
-1.620142906904220581e-02
3.754428820684552193e-03
-1.658563618548214436e-03
-1.107158325612545013e-02
-2.868775278329849243e-02
3.120373375713825226e-02
4.643218964338302612e-02
-4.268507659435272217e-02
5.789224058389663696e-03
-2.831459231674671173e-02
3.481111675500869751e-02
-2.330569084733724594e-03
1.135034766048192978e-02
-1.991639379411935806e-03
1.105136252590455115e-04
3.026056103408336639e-02
1.846767589449882507e-02
-3.502008039504289627e-03
-1.611431315541267395e-02
-2.473571803420782089e-03
-3.771836170926690102e-03
1.059915777295827866e-02
-7.035290356725454330e-03
3.827893175184726715e-03
7.629216182976961136e-03
4.106875509023666382e-02
1.597766391932964325e-02
4.173514991998672485e-02
4.557342734187841415e-03
2.763712778687477112e-02
-1.228210330009460449e-02
-3.672983031719923019e-03
2.684235200285911560e-02
-2.854780480265617371e-02
1.684011705219745636e-02
2.944188425317406654e-03
2.877928502857685089e-02
1.063407212495803833e-02
-2.361013740301132202e-02
-3.795348480343818665e-02
4.790235310792922974e-02
1.366201415657997131e-02
-3.684677183628082275e-02
-3.603892028331756592e-02
3.149595856666564941e-02
1.451368164271116257e-02
4.083312675356864929e-02
2.659531310200691223e-02
-9.602915495634078979e-03
4.085191711783409119e-02
3.141789510846138000e-02
5.162582732737064362e-03
-4.956319928169250488e-03
-1.085781771689653397e-02
-2.311515435576438904e-02
5.466218665242195129e-02
1.800015196204185486e-02
-2.248302660882472992e-02
3.575203567743301392e-02
-1.471664104610681534e-02
5.438817199319601059e-03
5.042059719562530518e-02
-4.346833378076553345e-02
3.722946718335151672e-02
1.882546953856945038e-02
2.928831800818443298e-02
-3.558279573917388916e-02
1.391030848026275635e-03
-1.431515847798436880e-04
2.492457628250122070e-02
-3.585822507739067078e-02
1.450234372168779373e-02
-1.548944041132926941e-02
-3.469455987215042114e-02
-3.187976405024528503e-02
1.472348254173994064e-02
-1.942728087306022644e-02
-1.841297000646591187e-02
4.708482883870601654e-03
4.088499397039413452e-02
5.644976161420345306e-03
-3.061695583164691925e-02
3.102874942123889923e-02
2.142657153308391571e-02
2.387860091403126717e-03
3.575914725661277771e-02
4.536233469843864441e-02
1.862194016575813293e-02
-1.090809796005487442e-02
1.694315113127231598e-02
3.246767818927764893e-02
-2.461352013051509857e-02
3.317938745021820068e-02
3.219719603657722473e-02
4.362938925623893738e-02
-8.046480827033519745e-03
2.898222394287586212e-02
-2.174864709377288818e-02
-1.839165459387004375e-03
3.180993348360061646e-02
3.255004808306694031e-02
1.047334633767604828e-02
4.076374322175979614e-02
1.266052480787038803e-02
3.219917416572570801e-02
-1.705212146043777466e-02
3.503199294209480286e-02
1.505407318472862244e-02
-2.963656932115554810e-02
3.699822723865509033e-02
-3.960631415247917175e-02
2.959294803440570831e-02
3.181014955043792725e-02
4.205904901027679443e-02
3.701367601752281189e-02
-2.368691563606262207e-02
-4.621232300996780396e-02
-1.536788325756788254e-02
2.679909951984882355e-02
-9.791475720703601837e-03
-3.206116706132888794e-02
-5.042181536555290222e-02
2.645274437963962555e-02
9.856780059635639191e-03
2.439560927450656891e-02
-3.961044177412986755e-02
1.423692982643842697e-02
4.605487361550331116e-02
-2.610884606838226318e-02
-4.482529684901237488e-02
1.601625233888626099e-02
4.256255179643630981e-02
-2.575679123401641846e-02
-4.840392502956092358e-04
1.856286264955997467e-02
3.281824290752410889e-02
-3.298716247081756592e-02
3.462804481387138367e-02
3.287837281823158264e-02
-3.232407942414283752e-02
-1.193766482174396515e-02
2.548208460211753845e-02
1.606720127165317535e-02
4.124614223837852478e-02
6.466343067586421967e-03
1.729506882838904858e-03
-3.917624801397323608e-02
3.476206958293914795e-02
2.940163202583789825e-02
2.822597324848175049e-02
-1.340559870004653931e-02
-1.020249165594577789e-02
1.830595079809427261e-03
2.734938077628612518e-02
-6.462958641350269318e-03
-2.555445581674575806e-02
-3.422515094280242920e-02
2.840571664273738861e-02
-1.975897140800952911e-02
-6.538828369230031967e-03
-1.651449128985404968e-03
3.572794422507286072e-02
4.861858859658241272e-02
3.795800730586051941e-02
1.395728997886180878e-02
4.453466087579727173e-02
-4.625984933227300644e-03
2.037786133587360382e-02
3.440570458769798279e-02
-2.932475879788398743e-02
-1.382530014961957932e-02
-1.219767797738313675e-02
-1.618361845612525940e-02
1.350228488445281982e-02
3.699072822928428650e-02
1.265566609799861908e-02
-1.787892170250415802e-02
4.691775422543287277e-03
-3.129645064473152161e-02
6.706160958856344223e-03
-2.054118178784847260e-02
1.542264502495527267e-02
