9.229327738285064697e-02
2.297969069331884384e-03
-7.492680847644805908e-02
-4.607240483164787292e-02
-3.266737982630729675e-02
1.125289499759674072e-02
-5.792252719402313232e-02
4.642457142472267151e-02
2.773896977305412292e-02
1.541277486830949783e-02
5.569555610418319702e-02
3.910650685429573059e-02
6.907845288515090942e-02
2.338372170925140381e-02
-5.967761576175689697e-02
-2.991768904030323029e-02
-6.562845408916473389e-02
-2.198161184787750244e-02
7.418170105665922165e-03
2.390706352889537811e-02
-1.195619441568851471e-02
-4.869008436799049377e-02
-3.030081838369369507e-02
1.081296727061271667e-01
1.704627647995948792e-02
-3.028120473027229309e-02
1.933858357369899750e-02
-1.619365997612476349e-02
2.401270903646945953e-02
-2.951693721115589142e-02
-7.687047123908996582e-02
5.870442464947700500e-02
-1.780357398092746735e-02
3.098836541175842285e-02
-6.618963927030563354e-02
-1.578615978360176086e-02
-3.618363663554191589e-02
-1.462090294808149338e-02
4.496160894632339478e-02
-5.519184470176696777e-02
-1.848547905683517456e-02
-8.082245476543903351e-03
3.194364160299301147e-02
4.192586988210678101e-02
7.757094502449035645e-02
-3.139534965157508850e-02
-2.927901782095432281e-02
3.017010539770126343e-02
7.540688663721084595e-02
-5.800266563892364502e-02
-5.328546091914176941e-02
-3.061009384691715240e-02
2.989039197564125061e-02
4.819080978631973267e-02
-3.931400179862976074e-02
-2.323783747851848602e-02
-4.231548681855201721e-02
7.672546058893203735e-02
-4.555159807205200195e-02
2.665199339389801025e-02
8.912803232669830322e-02
7.554721087217330933e-03
-4.226415604352951050e-02
-7.275536656379699707e-02
-4.784659668803215027e-02
-6.199253350496292114e-02
4.615635424852371216e-02
-2.645025402307510376e-02
6.670292466878890991e-02
6.673847138881683350e-02
-6.076686456799507141e-02
7.349082734435796738e-03
-1.317339763045310974e-02
4.003316536545753479e-02
-2.619368955492973328e-02
-6.038882210850715637e-02
3.042130544781684875e-02
-2.408511936664581299e-02
3.358341986313462257e-03
-1.014813780784606934e-02
6.627137959003448486e-02
3.824394196271896362e-02
-1.589928194880485535e-02
-2.409766986966133118e-02
-6.052945926785469055e-02
-4.036222398281097412e-02
-5.367975309491157532e-02
2.588355168700218201e-02
-1.165558118373155594e-02
-5.834725126624107361e-02
4.940950125455856323e-02
-8.132258057594299316e-02
-6.209138408303260803e-02
3.476573526859283447e-02
-4.043743386864662170e-02
-1.421843469142913818e-02
-1.691008731722831726e-02
-5.539916828274726868e-02
-8.842119015753269196e-03
1.134589500725269318e-02
-6.146359816193580627e-02
5.481823906302452087e-02
-4.873007535934448242e-02
-4.097843542695045471e-02
4.266287386417388916e-02
-1.473195105791091919e-02
5.091258138418197632e-02
-7.661439478397369385e-02
6.279087811708450317e-02
-7.490760646760463715e-03
-1.024501025676727295e-02
2.512597851455211639e-02
-4.478724673390388489e-03
-1.656601764261722565e-02
-2.307903021574020386e-03
7.938900962471961975e-03
3.771459311246871948e-02
6.807169318199157715e-02
1.647398248314857483e-02
-1.805011928081512451e-02
3.242058679461479187e-02
3.272477304562926292e-03
3.689760342240333557e-02
8.310070633888244629e-02
1.850719004869461060e-02
-6.436023861169815063e-02
-5.525006726384162903e-02
5.658767744898796082e-02
3.003894165158271790e-02
3.834369778633117676e-02
-7.675095461308956146e-03
-7.547407597303390503e-02
-3.713335469365119934e-02
-5.963417887687683105e-02
-5.853230133652687073e-02
1.808970794081687927e-02
2.678672224283218384e-02
8.106216043233871460e-02
4.639022424817085266e-02
-2.569092996418476105e-02
3.152102604508399963e-02
3.321326151490211487e-02
7.221020758152008057e-02
5.545241385698318481e-02
3.624990582466125488e-02
1.565142720937728882e-02
1.053052116185426712e-02
2.193512208759784698e-02
3.583134710788726807e-02
-1.120220217853784561e-02
-6.752040982246398926e-02
-6.811701506376266479e-02
-3.251672722399234772e-03
-1.378892082720994949e-02
1.333083305507898331e-02
-1.350165810436010361e-02
-2.540256828069686890e-03
-5.598663166165351868e-02
3.976128622889518738e-02
-2.605839073657989502e-02
6.148826703429222107e-02
8.812114596366882324e-02
9.610071778297424316e-03
-5.472803860902786255e-02
2.362081408500671387e-02
1.920391805469989777e-02
-2.740494906902313232e-02
9.119209833443164825e-03
-3.468908742070198059e-02
5.256510153412818909e-02
-1.496054045855998993e-02
-8.387720584869384766e-02
-2.991652116179466248e-02
-5.695402622222900391e-03
4.813733324408531189e-02
9.495296329259872437e-02
5.580145865678787231e-02
8.483216166496276855e-02
-2.546183951199054718e-02
-3.991832956671714783e-02
-3.243127092719078064e-02
2.840251661837100983e-02
4.879773780703544617e-02
-4.173037037253379822e-02
2.007916191359981894e-04
5.333048105239868164e-02
4.987753927707672119e-02
-5.382707715034484863e-02
3.519588336348533630e-02
-2.669625729322433472e-02
3.597610443830490112e-02
6.765213608741760254e-02
-5.076003819704055786e-02
-6.066950038075447083e-02
5.472397804260253906e-02
-8.047020062804222107e-03
2.857344783842563629e-02
1.357926800847053528e-02
6.185502279549837112e-03
9.672385454177856445e-02
1.260378770530223846e-02
3.905916959047317505e-02
3.531937673687934875e-02
3.793477639555931091e-02
-1.152401510626077652e-02
2.769263833761215210e-02
7.850615680217742920e-02
-1.744246110320091248e-02
1.950830779969692230e-02
-9.456862695515155792e-03
-3.961685299873352051e-02
-7.277009077370166779e-03
-5.097810178995132446e-02
-3.233401477336883545e-02
-1.872891187667846680e-02
3.995049372315406799e-02
7.920697331428527832e-02
-3.301392123103141785e-02
-6.383798271417617798e-02
-4.870723560452461243e-02
8.133777230978012085e-02
-4.581907764077186584e-02
-3.019871748983860016e-02
1.061563938856124878e-02
-2.854978851974010468e-02
2.933785133063793182e-02
1.633629016578197479e-02
3.150470927357673645e-02
5.852776113897562027e-03
-5.707565695047378540e-02
1.707435399293899536e-02
3.929173946380615234e-02
-1.895401254296302795e-02
-4.165562987327575684e-02
-5.582807958126068115e-02
-4.417790099978446960e-02
-6.252587586641311646e-02
6.356187164783477783e-02
1.746191829442977905e-02
7.021637260913848877e-02
-1.662257686257362366e-02
3.768868744373321533e-02
3.948317468166351318e-02
4.763702396303415298e-03
5.244757980108261108e-02
7.746120449155569077e-03
-5.995811522006988525e-02
-2.425890415906906128e-02
-1.683366112411022186e-02
4.740863665938377380e-02
-6.584646552801132202e-02
-3.910263255238533020e-02
7.015185058116912842e-02
-5.478684604167938232e-02
6.064872443675994873e-02
-2.978255413472652435e-02
2.009962685406208038e-02
6.642715632915496826e-02
3.786113485693931580e-02
6.670211255550384521e-02
5.812411010265350342e-02
-3.643884137272834778e-02
1.927087828516960144e-02
-4.284524917602539062e-02
8.072015643119812012e-02
1.095272134989500046e-02
-2.655616961419582367e-02
5.528062582015991211e-02
2.548657916486263275e-02
-3.856065124273300171e-02
-8.794028311967849731e-03
-4.404074698686599731e-02
4.103440418839454651e-02
9.958868473768234253e-02
-5.720236897468566895e-02
7.378815114498138428e-02
5.772221833467483521e-02
-5.217261239886283875e-02
-1.173440832644701004e-02
-1.716200262308120728e-02
3.986768051981925964e-02
5.234617367386817932e-02
3.959196433424949646e-02
-3.470220416784286499e-02
3.268489241600036621e-02
4.729242622852325439e-02
-3.542982414364814758e-02
-1.594321988523006439e-02
-2.467001788318157196e-02
-3.238017857074737549e-02
-2.409528009593486786e-02
1.178627088665962219e-02
4.860599711537361145e-02
-1.542219053953886032e-02
-3.767697140574455261e-02
-6.703061610460281372e-02
7.159439474344253540e-02
1.059969421476125717e-02
7.350249588489532471e-02
1.848171465098857880e-02
-5.621959269046783447e-02
-3.284827992320060730e-02
5.024749040603637695e-02
5.553436651825904846e-02
3.286712989211082458e-02
6.233460828661918640e-02
-4.898889735341072083e-02
6.654598563909530640e-02
-6.942738592624664307e-02
-3.942753002047538757e-02
3.249350562691688538e-02
6.017565727233886719e-02
7.490678876638412476e-02
-6.611859798431396484e-02
8.517514914274215698e-02
-8.415349572896957397e-02
-3.087036893703043461e-04
3.976015001535415649e-02
6.301546096801757812e-02
-6.036838516592979431e-02
-5.924738198518753052e-02
-3.786882152780890465e-03
-5.892765149474143982e-02
8.311398327350616455e-03
4.131261631846427917e-02
6.423984467983245850e-02
-5.013516545295715332e-02
-3.080432489514350891e-02
-5.459343269467353821e-02
-1.923701167106628418e-02
-8.243825286626815796e-02
5.897067487239837646e-03
5.997337400913238525e-02
3.589912876486778259e-02
1.368474774062633514e-02
5.030934512615203857e-02
5.995520576834678650e-02
9.697125852108001709e-02
2.209947258234024048e-02
-3.937590494751930237e-02
-3.455467149615287781e-02
-1.880808360874652863e-02
5.711912736296653748e-02
6.372835487127304077e-02
1.427769754081964493e-02
5.058170855045318604e-02
7.776047289371490479e-02
-9.122335352003574371e-03
-6.577853113412857056e-02
4.853546991944313049e-02
-2.738604135811328888e-02
6.130446121096611023e-02
1.448594219982624054e-02
3.633951023221015930e-02
-6.045090034604072571e-02
-1.085633970797061920e-02
7.033025473356246948e-02
-4.183103144168853760e-02
9.170648455619812012e-02
-6.578098982572555542e-02
-5.877793580293655396e-02
1.986305974423885345e-02
1.352613046765327454e-02
-2.549137920141220093e-02
-3.144939616322517395e-02
6.193848326802253723e-02
3.265198320150375366e-02
3.376991301774978638e-02
-1.273406296968460083e-02
-2.309233136475086212e-02
1.769808866083621979e-02
-3.212285041809082031e-02
3.941290825605392456e-02
1.074336376041173935e-02
6.578183174133300781e-02
7.416226714849472046e-02
2.914021722972393036e-02
-2.500821836292743683e-02
5.099952965974807739e-02
-2.732288278639316559e-02
-9.236705489456653595e-03
-4.242945462465286255e-02
7.301343232393264771e-02
-5.469967424869537354e-02
6.274367868900299072e-02
-8.870900608599185944e-03
3.066813573241233826e-02
1.094450126402080059e-03
4.502144455909729004e-02
-4.818219691514968872e-02
-3.123012371361255646e-02
2.031109482049942017e-02
-4.945377260446548462e-02
8.499740064144134521e-02
4.382913932204246521e-02
6.328035145998001099e-02
8.391070179641246796e-03
-3.554594144225120544e-02
4.304184019565582275e-02
-2.290446870028972626e-02
4.417994245886802673e-02
6.038143485784530640e-02
2.439150214195251465e-02
1.961283944547176361e-02
3.026893921196460724e-02
1.853951439261436462e-02
8.187600225210189819e-02
3.850549459457397461e-02
2.041468024253845215e-02
3.652269020676612854e-02
5.477664992213249207e-02
9.241721592843532562e-03
6.187753379344940186e-02
-5.112885311245918274e-02
-2.486303821206092834e-02
8.113728836178779602e-03
2.575886622071266174e-02
-3.238444030284881592e-02
5.220228433609008789e-02
4.646512493491172791e-02
-3.884420171380043030e-02
9.471003711223602295e-02
-4.170590266585350037e-02
3.930971026420593262e-02
7.533273100852966309e-02
-4.439251869916915894e-02
-4.317938350141048431e-03
-3.013542294502258301e-02
-5.117575079202651978e-02
-5.604901164770126343e-02
3.259931132197380066e-02
5.946099758148193359e-02
2.398836798965930939e-02
2.698376774787902832e-02
7.438618922606110573e-04
7.904509082436561584e-03
4.901770502328872681e-02
8.261317759752273560e-02
7.212831079959869385e-02
6.405404955148696899e-02
-6.734401732683181763e-02
6.442357599735260010e-02
-7.933057844638824463e-02
7.642854470759630203e-03
3.174707666039466858e-02
2.755980007350444794e-02
6.330075114965438843e-02
-4.613126814365386963e-02
5.396046116948127747e-02
1.553750038146972656e-02
7.781788706779479980e-02
-4.019383713603019714e-02
-5.447021126747131348e-02
-3.528335317969322205e-02
5.513203516602516174e-02
-1.361797004938125610e-02
-3.615646436810493469e-02
-1.615273207426071167e-02
4.731559380888938904e-02
-1.204755716025829315e-02
2.603900618851184845e-02
6.033720565028488636e-04
-6.119489669799804688e-02
6.516895443201065063e-02
7.619015406817197800e-03
-3.447537496685981750e-02
-2.253308892250061035e-03
8.348483592271804810e-03
-1.507684402167797089e-02
-5.941259115934371948e-02
-3.726389957591891289e-03
6.500418484210968018e-02
1.810466311872005463e-02
-7.529690116643905640e-02
5.650958791375160217e-02
7.303923368453979492e-02
3.177461773157119751e-02
7.807707786560058594e-02
-2.120152674615383148e-02
-5.178918689489364624e-02
4.997197072952985764e-03
6.591430306434631348e-02
-2.440455928444862366e-02
8.359949290752410889e-02
-2.597729116678237915e-02
3.136258944869041443e-02
2.916239388287067413e-02
6.024219468235969543e-02
-1.934493333101272583e-02
3.340039402246475220e-02
7.035431265830993652e-02
3.552473708987236023e-02
6.457944959402084351e-02
4.431979358196258545e-02
-2.036052010953426361e-02
1.848185667768120766e-03
7.033404894173145294e-03
-3.542532399296760559e-02
-1.975580304861068726e-02
-1.933073438704013824e-02
2.518879622220993042e-02
-4.901192709803581238e-02
-4.959633946418762207e-02
-7.298742234706878662e-02
-6.238483637571334839e-02
8.941504359245300293e-02
4.547162353992462158e-02
5.860168859362602234e-02
-8.640019223093986511e-03
-6.271056830883026123e-02
-1.870704628527164459e-02
4.000397399067878723e-02
