-2.646726556122303009e-02
7.267213612794876099e-02
-7.985696196556091309e-02
5.210816860198974609e-02
-8.931101858615875244e-02
1.883538998663425446e-02
6.302545219659805298e-02
3.354056272655725479e-03
-3.930362407118082047e-03
2.864227443933486938e-02
1.436509788036346436e-01
-1.542175710201263428e-01
-6.463407073169946671e-03
4.868465662002563477e-02
8.288730750791728497e-04
5.263783410191535950e-02
-1.181543245911598206e-01
1.179152652621269226e-01
1.642954163253307343e-02
6.090801581740379333e-02
-4.243588820099830627e-02
-5.983877182006835938e-02
2.437998913228511810e-02
8.350332826375961304e-02
-7.209503650665283203e-02
4.488794505596160889e-02
5.818996950984001160e-02
-1.636166423559188843e-01
1.626337319612503052e-01
1.034771651029586792e-01
1.915164738893508911e-01
-1.680218987166881561e-02
-6.446299701929092407e-02
-1.785546541213989258e-02
1.231484338641166687e-01
6.222285330295562744e-02
-1.164060011506080627e-01
4.408532381057739258e-02
1.639401316642761230e-01
-3.663154318928718567e-02
1.135791763663291931e-01
-2.238328382372856140e-02
-3.651949018239974976e-02
-1.212842613458633423e-01
2.891219221055507660e-02
6.580909341573715210e-02
-8.129187673330307007e-02
9.363420307636260986e-02
-3.309495002031326294e-02
-1.448375880718231201e-01
-9.771143645048141479e-02
1.148727834224700928e-01
-3.714461624622344971e-02
1.217901557683944702e-01
2.166662663221359253e-01
-2.597481906414031982e-01
-2.041139267385005951e-02
-5.094757303595542908e-02
-1.577088683843612671e-01
6.080134212970733643e-02
1.197431702166795731e-02
3.089320473372936249e-02
-1.693939864635467529e-01
-1.203063130378723145e-01
1.366918534040451050e-01
5.848278105258941650e-02
1.208414807915687561e-01
1.093180477619171143e-01
7.459198124706745148e-03
-8.565934002399444580e-02
3.068708628416061401e-02
1.340164616703987122e-02
-6.407675892114639282e-02
-7.991797477006912231e-02
-5.289569869637489319e-02
-2.278905734419822693e-02
8.491544425487518311e-02
-5.666273832321166992e-02
8.531466126441955566e-03
7.662405073642730713e-02
1.301951706409454346e-01
-1.194251924753189087e-01
-1.335925422608852386e-02
1.049200147390365601e-01
3.666692972183227539e-02
-1.336796581745147705e-01
-7.410588115453720093e-02
-8.931179344654083252e-02
1.655088923871517181e-02
-7.282100617885589600e-02
-8.016175031661987305e-02
-1.504245251417160034e-01
1.736291870474815369e-02
-7.338842749595642090e-02
1.711095869541168213e-02
-1.405427157878875732e-01
6.171448901295661926e-02
-6.067006662487983704e-02
1.394802778959274292e-01
-1.231751143932342529e-01
4.820978268980979919e-02
-9.940538555383682251e-02
3.892691805958747864e-02
-1.174921840429306030e-01
1.639730781316757202e-01
8.904712647199630737e-02
-3.649071976542472839e-02
7.591625303030014038e-02
-1.247378997504711151e-02
2.150634303689002991e-02
2.787277102470397949e-02
1.567200720310211182e-01
5.819313973188400269e-02
-8.242685347795486450e-02
1.021592542529106140e-01
7.250531762838363647e-02
-2.142041549086570740e-02
7.006417959928512573e-02
7.587327063083648682e-02
1.758029684424400330e-02
6.363505870103836060e-02
2.980103157460689545e-02
2.703669965267181396e-01
7.537256181240081787e-02
-3.980164416134357452e-03
4.199564829468727112e-02
1.549164950847625732e-01
-3.172856196761131287e-02
4.832198377698659897e-03
-2.169018611311912537e-02
-9.200542699545621872e-04
8.548230677843093872e-02
-3.927068319171667099e-03
-2.280075475573539734e-02
-8.266764879226684570e-02
-7.982399314641952515e-03
-1.879061907529830933e-01
6.583464797586202621e-03
1.882327720522880554e-02
4.043978452682495117e-02
9.262068197131156921e-03
4.065115470439195633e-03
-1.202047150582075119e-02
-4.744196310639381409e-02
-5.554886907339096069e-02
-3.385917842388153076e-02
-1.778412796556949615e-02
-7.364023476839065552e-02
1.378948837518692017e-01
2.917924150824546814e-02
3.204069286584854126e-02
8.014915138483047485e-02
-5.304341390728950500e-02
5.991934239864349365e-02
-4.620598256587982178e-02
-2.473163977265357971e-02
-9.396362304687500000e-02
4.073321446776390076e-02
-1.026985142379999161e-02
1.698471605777740479e-01
3.915772587060928345e-02
-9.655734151601791382e-02
1.497406661510467529e-01
-1.039085723459720612e-02
-6.853544712066650391e-02
-2.884586900472640991e-02
8.724199980497360229e-02
7.964260876178741455e-03
-7.301505655050277710e-02
8.495911024510860443e-03
-1.195505261421203613e-01
9.052070789039134979e-03
-4.781629517674446106e-02
-4.125066474080085754e-02
1.109104901552200317e-01
1.642630994319915771e-01
-1.534496061503887177e-02
7.638270407915115356e-02
5.463380366563796997e-02
1.143437437713146210e-02
-6.459609419107437134e-02
6.229596212506294250e-02
9.850453585386276245e-02
-2.922254242002964020e-02
-1.064158137887716293e-02
-6.793747656047344208e-03
3.733886405825614929e-02
-1.923277415335178375e-02
1.351837906986474991e-02
1.065784022212028503e-01
2.271211147308349609e-02
-6.342387199401855469e-02
6.417923606932163239e-03
-6.796783767640590668e-03
-1.630938202142715454e-01
4.366947337985038757e-02
4.616064205765724182e-02
-4.974307492375373840e-03
6.016785278916358948e-02
-2.269492950290441513e-03
-4.786783084273338318e-02
-1.647824607789516449e-02
9.308750927448272705e-02
2.132990863174200058e-03
1.968604512512683868e-02
-4.363707080483436584e-02
7.491289824247360229e-02
1.216494105756282806e-02
6.148270890116691589e-02
-9.406827390193939209e-02
-7.506651338189840317e-03
-3.081848612055182457e-03
-8.606939017772674561e-02
-4.468710348010063171e-02
3.283084137365221977e-03
4.964734241366386414e-02
-8.286231756210327148e-02
7.227303832769393921e-02
1.069741770625114441e-01
-3.020985610783100128e-02
-5.943193100392818451e-03
-4.254581034183502197e-02
8.776988834142684937e-02
-1.993561722338199615e-02
4.395974799990653992e-02
-2.995419874787330627e-02
5.017378181219100952e-02
1.076893955469131470e-01
-1.147585455328226089e-03
-5.128275975584983826e-02
1.371201034635305405e-02
1.699718236923217773e-01
1.032957248389720917e-02
4.330131039023399353e-02
6.309959292411804199e-02
5.623274482786655426e-03
-2.902651205658912659e-02
-7.404935359954833984e-02
4.386588186025619507e-02
8.448295295238494873e-03
-4.970197752118110657e-02
-5.182590335607528687e-02
1.027941033244132996e-01
-1.275037229061126709e-01
1.057529300451278687e-01
-6.009394302964210510e-02
9.579624980688095093e-02
6.029122974723577499e-03
4.651366174221038818e-02
9.519538842141628265e-03
-7.463698089122772217e-02
5.999436601996421814e-02
-3.021624498069286346e-02
8.116812095977365971e-04
6.402930617332458496e-02
5.878410115838050842e-02
-6.551310420036315918e-03
5.123524740338325500e-02
6.265966221690177917e-03
-9.691435098648071289e-02
3.934426978230476379e-02
-1.048083323985338211e-02
1.047337651252746582e-01
3.931184299290180206e-03
-8.730127662420272827e-02
-2.619861997663974762e-02
1.002953108400106430e-02
-1.296285912394523621e-02
2.337436378002166748e-02
6.927099823951721191e-02
-1.194196403957903385e-03
2.209877222776412964e-02
-3.945385664701461792e-02
2.971558459103107452e-02
5.458501353859901428e-02
7.057360559701919556e-02
2.514581382274627686e-02
6.703129038214683533e-03
-2.569601684808731079e-02
4.431564360857009888e-02
1.722630672156810760e-02
-1.614753901958465576e-02
-1.816768897697329521e-03
-3.083692118525505066e-02
-3.021631762385368347e-02
-3.219891712069511414e-02
8.828037418425083160e-03
1.544834375381469727e-01
-2.540753781795501709e-02
2.545574866235256195e-02
-1.316530536860227585e-02
-6.036899611353874207e-02
7.411488890647888184e-02
3.218696918338537216e-03
-1.860994962044060230e-03
7.223098073154687881e-03
8.910100162029266357e-02
4.815493151545524597e-02
-3.715448314324021339e-03
-9.356756508350372314e-02
-6.510444730520248413e-02
1.010207235813140869e-01
-9.363778680562973022e-02
-3.172732144594192505e-02
3.754545003175735474e-02
-1.114539280533790588e-01
2.880387008190155029e-02
1.595407724380493164e-02
-6.144973915070295334e-03
-1.769774965941905975e-02
-1.662193834781646729e-01
-4.386145994067192078e-02
4.246187210083007812e-02
-2.459636889398097992e-02
-1.267991065979003906e-01
1.911913901567459106e-01
-4.489434510469436646e-02
-1.126526482403278351e-02
5.083458032459020615e-03
3.031141590327024460e-03
2.278768457472324371e-02
-3.520863875746726990e-02
-3.454335033893585205e-02
9.803708642721176147e-03
5.207346379756927490e-02
-8.444351842626929283e-04
-6.542340666055679321e-02
-1.012137532234191895e-02
1.134590879082679749e-01
3.252928331494331360e-02
3.177941590547561646e-02
-1.455733552575111389e-03
-3.300441894680261612e-03
-2.016381323337554932e-01
-8.889218792319297791e-03
6.107614561915397644e-02
-7.757517974823713303e-03
-1.281564533710479736e-01
-1.720353513956069946e-01
2.302569895982742310e-02
-7.155385613441467285e-02
-5.686910450458526611e-02
2.011775970458984375e-02
2.723651006817817688e-02
-1.388211734592914581e-02
-2.311765216290950775e-02
1.280932575464248657e-01
-8.533676713705062866e-02
9.330106526613235474e-02
1.677012303844094276e-03
1.587959527969360352e-01
-8.788243681192398071e-02
6.041419878602027893e-02
-7.024063169956207275e-02
1.331502292305231094e-02
-1.825372315943241119e-02
6.852028518915176392e-02
4.857756569981575012e-02
2.505963435396552086e-03
-1.541163474321365356e-01
-3.274443000555038452e-02
-7.219329476356506348e-02
-4.586291685700416565e-02
-1.389005631208419800e-01
2.479345910251140594e-02
1.099394750781357288e-03
2.723271399736404419e-02
8.185916393995285034e-02
4.776738211512565613e-02
9.638547897338867188e-03
-9.842178970575332642e-02
-1.752025038003921509e-01
-1.061204299330711365e-01
7.688139379024505615e-02
-3.750324994325637817e-02
5.964976549148559570e-02
-2.172682248055934906e-02
-1.656847260892391205e-02
8.548194169998168945e-02
2.952014328911900520e-03
-6.442651152610778809e-02
-2.067375555634498596e-02
-6.681165844202041626e-02
2.738566696643829346e-02
9.171408414840698242e-02
-7.501904666423797607e-02
-6.259221583604812622e-03
2.993950434029102325e-02
-2.868681773543357849e-02
-3.076754882931709290e-02
3.287517651915550232e-02
1.625514589250087738e-02
-1.100484430789947510e-01
6.464229524135589600e-02
-9.698788076639175415e-02
-4.382069781422615051e-02
-2.951516024768352509e-02
-7.967996597290039062e-02
-1.095141842961311340e-01
-5.152380838990211487e-02
-7.039330899715423584e-02
4.817304387688636780e-02
-5.036906898021697998e-02
1.342820376157760620e-01
-3.788845241069793701e-02
1.186539605259895325e-02
5.578907672315835953e-03
8.679625391960144043e-02
-1.982082426548004150e-02
-5.663836374878883362e-02
-2.425593137741088867e-02
3.735862672328948975e-02
5.658503249287605286e-02
3.202820196747779846e-02
-2.302577197551727295e-01
-1.898338319733738899e-03
-2.211026288568973541e-02
-2.733063511550426483e-02
-1.057864204049110413e-01
5.890705157071352005e-03
-2.292882278561592102e-02
-6.133707240223884583e-02
-1.928256899118423462e-01
-6.458031386137008667e-02
2.430070564150810242e-02
-3.535240888595581055e-02
-7.242792099714279175e-02
1.387223303318023682e-01
-2.209170535206794739e-02
-5.255426466464996338e-02
-6.105738878250122070e-02
6.408172845840454102e-02
1.245249062776565552e-01
4.100425913929939270e-02
-1.312102563679218292e-02
6.314462423324584961e-02
-2.603236734867095947e-01
-3.875984624028205872e-02
-4.658152163028717041e-02
1.081171408295631409e-01
-8.255229331552982330e-03
1.532459538429975510e-02
-5.840403586626052856e-02
3.659858927130699158e-02
-6.713222712278366089e-03
-1.218686029314994812e-01
-1.615691781044006348e-01
9.593047201633453369e-02
-9.596662595868110657e-03
-1.956072077155113220e-02
1.571395248174667358e-01
-2.363897860050201416e-02
4.069568216800689697e-02
-1.697240397334098816e-02
6.628306210041046143e-02
-8.844825439155101776e-03
-1.340367794036865234e-01
-6.745847314596176147e-02
1.795325130224227905e-01
-4.017229005694389343e-02
-3.379103541374206543e-02
-4.503285884857177734e-02
2.864142879843711853e-02
4.508755356073379517e-02
8.513103425502777100e-02
-9.704863280057907104e-02
-1.755842268466949463e-01
7.546304911375045776e-02
3.080058842897415161e-02
-9.497483819723129272e-02
-1.275220699608325958e-02
-4.180998355150222778e-02
-2.612746693193912506e-02
-1.053976546972990036e-02
-2.207665517926216125e-02
-2.506435289978981018e-02
1.100542489439249039e-03
2.845255844295024872e-02
-1.677537709474563599e-02
-1.331324130296707153e-01
-1.731610447168350220e-01
-2.005577385425567627e-01
-1.527051180601119995e-01
2.844545990228652954e-02
1.172131597995758057e-01
1.929065138101577759e-01
-3.249884396791458130e-02
-1.415486037731170654e-01
-1.799807399511337280e-01
-7.699105143547058105e-02
-6.706918030977249146e-02
-2.166778892278671265e-01
-5.784115567803382874e-02
-3.526516631245613098e-02
-7.168936729431152344e-02
-3.303322941064834595e-02
-9.405443072319030762e-02
-4.524955898523330688e-02
-5.771949421614408493e-03
-9.805803745985031128e-02
-2.087987363338470459e-01
4.267593473196029663e-02
1.128860339522361755e-01
2.287093400955200195e-01
1.173268724232912064e-02
2.982255443930625916e-02
3.609025478363037109e-02
8.223038166761398315e-02
-3.434402868151664734e-02
-1.235935091972351074e-02
-5.337859317660331726e-02
-8.631478250026702881e-02
7.725126296281814575e-02
7.839119434356689453e-02
6.274602375924587250e-03
-6.535161286592483521e-03
-1.431879308074712753e-02
-9.233599156141281128e-02
9.423406422138214111e-02
-3.265185514464974403e-03
-1.101876720786094666e-01
1.044906005263328552e-01
8.050947217270731926e-04
-4.587507341057062149e-03
3.396648541092872620e-02
3.008932620286941528e-02
-1.783060608431696892e-03
-7.298684120178222656e-02
-4.766865819692611694e-02
-1.160380169749259949e-01
-1.024174597114324570e-02
-2.811126783490180969e-02
4.817595705389976501e-03
3.249871730804443359e-02
-1.303705275058746338e-01
-4.908959195017814636e-02
3.516518697142601013e-02
-1.463511884212493896e-01
1.199910491704940796e-01
-8.040080964565277100e-02
7.796213775873184204e-02
-2.228207141160964966e-02
-5.015047267079353333e-03
1.671453751623630524e-02
-3.786844015121459961e-02
-1.004022955894470215e-01
-9.965918213129043579e-02
-2.309041284024715424e-02
3.576336428523063660e-02
-3.806874388828873634e-03
1.634065434336662292e-02
4.127718135714530945e-02
5.973076447844505310e-02
-3.607632964849472046e-02
-4.672172665596008301e-02
7.131612300872802734e-02
1.250658929347991943e-02
7.225690875202417374e-03
-3.176707774400711060e-02
7.290901988744735718e-02
-1.401198911480605602e-03
-1.105345413088798523e-01
9.481295198202133179e-02
-4.939762875437736511e-02
-1.769448630511760712e-02
-5.107425525784492493e-02
-4.917244240641593933e-02
-3.481208533048629761e-02
-1.297225803136825562e-02
1.175286993384361267e-02
8.352297544479370117e-02
-1.556686870753765106e-02
7.177975773811340332e-02
-3.746965900063514709e-02
2.485009096562862396e-02
1.339298188686370850e-01
7.459863275289535522e-02
-1.302031241357326508e-02
-3.066743956878781319e-03
-5.264447256922721863e-02
-1.795819401741027832e-01
3.603033348917961121e-02
6.048320606350898743e-02
-2.245325595140457153e-02
-1.178165674209594727e-01
-1.148766502737998962e-01
-1.030535176396369934e-01
1.190899126231670380e-02
-1.095203831791877747e-01
3.061741404235363007e-02
-4.913776367902755737e-02
1.328969001770019531e-01
1.750440523028373718e-02
1.218259707093238831e-01
3.981051966547966003e-02
4.959052801132202148e-02
-1.169102564454078674e-01
-3.459886088967323303e-02
-8.660868741571903229e-03
1.593022495508193970e-01
-5.294891446828842163e-02
-7.814581505954265594e-03
-1.683456450700759888e-02
-7.278460264205932617e-02
6.030302867293357849e-02
-9.560831636190414429e-02
1.059627905488014221e-02
1.224702820181846619e-01
-1.149137271568179131e-03
-1.942986063659191132e-02
-3.546049073338508606e-02
-1.352786831557750702e-02
-3.391608595848083496e-03
-6.975585222244262695e-02
7.680450379848480225e-02
-1.205974966287612915e-01
1.159047707915306091e-01
-1.423671096563339233e-01
1.292658690363168716e-02
6.172035261988639832e-02
3.262895345687866211e-02
1.601763814687728882e-01
-8.771285414695739746e-02
-6.269954890012741089e-02
6.049627438187599182e-02
-1.005845069885253906e-01
9.789307415485382080e-02
8.980688452720642090e-02
6.239736452698707581e-03
-7.668577879667282104e-02
1.702000945806503296e-02
-3.473779559135437012e-02
2.858888916671276093e-02
2.234763000160455704e-03
-3.071237355470657349e-02
3.174062445759773254e-02
-2.134870737791061401e-03
-8.076059632003307343e-03
-1.691579818725585938e-02
7.934100925922393799e-02
-7.462599873542785645e-02
3.867974877357482910e-02
8.650757372379302979e-03
-6.655548512935638428e-02
-1.228914782404899597e-02
6.523045152425765991e-02
-7.784388959407806396e-02
3.675356879830360413e-02
-8.875899948179721832e-03
-4.983893595635890961e-03
-2.429429441690444946e-02
5.609934777021408081e-02
6.862825900316238403e-02
8.163128048181533813e-02
1.454101596027612686e-02
9.484229981899261475e-02
-4.571770876646041870e-02
2.687735669314861298e-02
-1.340129598975181580e-02
4.826810956001281738e-02
-2.427366934716701508e-02
-5.761384963989257812e-03
1.191795095801353455e-01
-6.896109320223331451e-03
-2.898089773952960968e-02
1.564434170722961426e-02
-1.501813381910324097e-01
1.399761065840721130e-02
6.366170197725296021e-02
-1.161581277847290039e-02
5.564358085393905640e-02
-3.031619591638445854e-03
-2.245949953794479370e-02
-8.683123625814914703e-03
-7.733476907014846802e-02
-1.019238829612731934e-01
5.728144571185112000e-02
1.084171421825885773e-02
-8.044891059398651123e-02
-1.387233659625053406e-02
-1.149526685476303101e-01
-4.482797160744667053e-02
1.613518409430980682e-02
1.095667853951454163e-01
4.075059667229652405e-02
-1.631275191903114319e-02
3.758125007152557373e-02
-6.083523109555244446e-02
5.127794668078422546e-02
-1.302324533462524414e-01
1.553817242383956909e-01
3.653202438727021217e-04
1.385921612381935120e-03
5.466304719448089600e-02
1.016712933778762817e-02
6.147162616252899170e-02
1.435818821191787720e-01
-5.311452969908714294e-02
2.589994072914123535e-01
1.461114970879862085e-05
-6.701063364744186401e-02
6.054693832993507385e-02
-5.272493232041597366e-03
8.970196545124053955e-02
-2.167205559089779854e-03
9.618218056857585907e-03
-1.116956323385238647e-01
3.713349625468254089e-02
1.326174139976501465e-01
4.206971824169158936e-02
1.725392937660217285e-01
-8.529308252036571503e-04
-3.229159116744995117e-02
-1.617057994008064270e-02
2.522571384906768799e-02
-6.956744473427534103e-04
-3.015353716909885406e-02
1.608337759971618652e-01
-3.462239727377891541e-02
-3.610131517052650452e-02
1.853558234870433807e-02
-8.867638558149337769e-02
5.738540366291999817e-02
-1.246166303753852844e-01
4.919670894742012024e-02
6.253247708082199097e-02
-3.254315629601478577e-02
5.911627411842346191e-02
1.650607585906982422e-01
-2.883365191519260406e-02
2.071523293852806091e-02
3.888833895325660706e-02
1.103416010737419128e-01
6.774032115936279297e-02
-1.069869194179773331e-02
3.494441509246826172e-02
4.188644513487815857e-02
4.372486099600791931e-02
-1.019252836704254150e-01
-5.509043484926223755e-02
-1.106553599238395691e-01
-6.066065654158592224e-02
-2.433636598289012909e-02
9.559331834316253662e-02
-1.342812273651361465e-02
-1.413232982158660889e-01
8.430954813957214355e-02
9.278953820466995239e-02
5.353445559740066528e-02
-9.686254709959030151e-02
6.271091848611831665e-02
-1.300976574420928955e-01
4.480863735079765320e-02
1.478485483676195145e-02
5.919152125716209412e-02
1.126828566193580627e-01
1.331312656402587891e-01
9.630485624074935913e-02
1.299608945846557617e-01
-5.258363857865333557e-02
5.540262907743453979e-03
5.337933450937271118e-02
-5.456951260566711426e-02
-6.830139458179473877e-02
7.366244494915008545e-02
1.282710698433220387e-03
6.706981919705867767e-03
1.084574535489082336e-01
