-4.967367649078369141e-02
1.237130165100097656e-01
-1.042488291859626770e-01
-1.548018604516983032e-01
2.606820687651634216e-02
1.056271418929100037e-02
3.744306042790412903e-02
-5.125008895993232727e-02
-1.597159774973988533e-03
2.515485137701034546e-02
6.713718175888061523e-02
5.299863591790199280e-02
3.145033866167068481e-02
1.205960139632225037e-01
-1.196571439504623413e-01
2.566741593182086945e-02
-5.439550057053565979e-02
1.885522753000259399e-01
1.126719638705253601e-01
-8.952081203460693359e-02
-8.463365584611892700e-02
-9.483350068330764771e-02
-7.461986388079822063e-04
-2.651874674484133720e-03
-1.626333780586719513e-02
-5.353022716008126736e-04
5.598152428865432739e-02
-9.206087142229080200e-02
6.516249477863311768e-02
5.358496308326721191e-02
-1.279241293668746948e-01
1.325746439397335052e-02
2.813625335693359375e-02
-5.438471212983131409e-02
-4.643799364566802979e-02
1.259100437164306641e-01
-4.165375232696533203e-02
1.485468633472919464e-02
4.608686640858650208e-02
-1.735202968120574951e-01
-1.499937567859888077e-02
-5.163767933845520020e-02
-1.320158839225769043e-01
8.540593087673187256e-02
6.232760846614837646e-02
8.745855838060379028e-02
7.907148450613021851e-02
-2.142368070781230927e-02
1.096833273768424988e-01
-1.914638560265302658e-03
8.433707803487777710e-02
-1.931833475828170776e-01
4.134424775838851929e-02
-1.585314422845840454e-01
-7.985547184944152832e-02
7.014107704162597656e-02
6.439167540520429611e-03
9.533911012113094330e-03
4.258595034480094910e-02
-7.218033820390701294e-02
-1.299236528575420380e-02
7.261050492525100708e-02
-1.200952902436256409e-01
-1.652290672063827515e-02
9.107850492000579834e-03
-1.132525354623794556e-01
-9.939038753509521484e-02
-4.941198602318763733e-02
-5.293966457247734070e-02
3.322502225637435913e-02
1.559038460254669189e-02
2.232637815177440643e-02
-1.347126662731170654e-01
1.322818845510482788e-01
-2.218672819435596466e-02
-6.637366861104965210e-02
2.766616828739643097e-02
1.267813742160797119e-01
8.799615502357482910e-02
1.723157241940498352e-02
3.610232472419738770e-02
1.510721351951360703e-02
6.960598286241292953e-03
5.169965699315071106e-02
1.471677329391241074e-03
-2.020524889230728149e-01
-1.238834485411643982e-02
-6.903956644237041473e-03
-1.287602335214614868e-01
1.314640641212463379e-01
1.254816502332687378e-01
-2.635426074266433716e-02
9.494952112436294556e-02
-1.210081577301025391e-01
-5.923599004745483398e-02
2.241031080484390259e-02
-8.195791393518447876e-03
1.359893102198839188e-02
-4.939131811261177063e-02
-6.485495716333389282e-02
9.913293272256851196e-02
1.251058429479598999e-01
-1.861676201224327087e-02
-2.221597731113433838e-01
-8.280813694000244141e-02
-4.268358647823333740e-02
-8.889704942703247070e-02
1.535488665103912354e-02
5.153093114495277405e-02
1.624450087547302246e-02
-7.745292782783508301e-02
1.088674515485763550e-01
-4.914458841085433960e-03
1.255604773759841919e-01
2.755379118025302887e-02
9.983994066715240479e-02
1.713698357343673706e-02
3.338597342371940613e-02
1.208855509757995605e-01
9.775022417306900024e-02
-9.634232521057128906e-02
8.624912798404693604e-02
9.877149760723114014e-02
-2.075896561145782471e-01
-6.730620563030242920e-02
1.175883039832115173e-01
4.755340144038200378e-02
8.633192628622055054e-02
5.775876343250274658e-02
-1.563935540616512299e-02
-6.933216750621795654e-02
8.032828569412231445e-02
8.904696255922317505e-02
-8.784408867359161377e-02
-1.586412638425827026e-01
4.646141082048416138e-02
-9.688151627779006958e-02
-9.376162290573120117e-02
7.226493209600448608e-02
3.372308984398841858e-02
1.703930497169494629e-01
-3.599021956324577332e-02
2.035051733255386353e-01
1.766509413719177246e-01
-4.379323497414588928e-02
-9.261780232191085815e-02
5.516883730888366699e-02
-6.805539596825838089e-04
-1.212027817964553833e-01
-9.429189562797546387e-02
-4.002648964524269104e-02
-4.518753662705421448e-02
1.239817067980766296e-01
2.164632640779018402e-02
-1.073519960045814514e-01
-1.889129914343357086e-02
1.164833307266235352e-01
1.238614991307258606e-01
1.006346940994262695e-01
-1.228253692388534546e-01
1.708882153034210205e-01
-1.518194526433944702e-01
1.572164297103881836e-01
-1.358181834220886230e-01
-1.091527268290519714e-01
-1.692981831729412079e-02
-1.633735895156860352e-01
-2.121283300220966339e-02
2.148986561223864555e-03
-5.833325535058975220e-02
1.160585284233093262e-01
1.739230379462242126e-02
1.270221471786499023e-01
-5.262185633182525635e-02
-2.237633988261222839e-02
2.822796441614627838e-02
1.012967340648174286e-02
2.466804720461368561e-02
-5.711063276976346970e-03
-1.692639440298080444e-01
2.436059294268488884e-03
-5.920059606432914734e-02
-1.166676655411720276e-01
2.976933121681213379e-02
-8.040861040353775024e-02
3.595301508903503418e-02
-5.825933441519737244e-02
-1.017251685261726379e-01
-8.799947053194046021e-02
7.573727518320083618e-02
6.051875650882720947e-02
-1.730721741914749146e-01
-6.808923929929733276e-02
5.200464650988578796e-02
1.025711745023727417e-01
1.832142443163320422e-04
-2.517710328102111816e-01
-6.369309127330780029e-02
4.481280222535133362e-02
6.818515807390213013e-02
2.135398983955383301e-02
2.187906578183174133e-02
7.669051736593246460e-02
8.355730772018432617e-02
-9.895979613065719604e-02
1.280005574226379395e-01
-5.700366571545600891e-02
-5.918019264936447144e-02
-1.085305493324995041e-02
-3.290122747421264648e-02
-9.898221492767333984e-02
4.059917759150266647e-03
2.964030206203460693e-02
-3.516768291592597961e-02
2.688543125987052917e-02
-8.655509352684020996e-02
2.468688227236270905e-02
-8.933168835937976837e-03
7.040677219629287720e-02
-8.499419316649436951e-03
5.292437970638275146e-02
1.265798509120941162e-01
-5.776789411902427673e-02
1.006183400750160217e-02
-8.727781474590301514e-02
8.810013532638549805e-02
3.361943736672401428e-02
-5.549438297748565674e-02
-1.911969780921936035e-01
1.524250954389572144e-01
3.529683127999305725e-02
8.451362699270248413e-02
-8.987874723970890045e-03
-5.874937027692794800e-02
1.791141182184219360e-02
-8.772132545709609985e-02
-2.869055373594164848e-03
5.065476521849632263e-02
-9.226865321397781372e-02
7.496915757656097412e-02
3.792751580476760864e-02
7.591909915208816528e-02
2.556971274316310883e-02
-7.679677568376064301e-03
1.017015054821968079e-02
-3.951416909694671631e-02
-1.192323565483093262e-01
-9.353928267955780029e-02
-2.423725090920925140e-02
2.098984420299530029e-01
4.585101827979087830e-02
-4.088798910379409790e-02
-1.033521592617034912e-01
-4.362817481160163879e-02
-7.442061603069305420e-02
-2.271052449941635132e-01
1.398428380489349365e-01
1.133789643645286560e-01
-7.144822180271148682e-02
1.016474142670631409e-01
-1.223698258399963379e-01
2.148013375699520111e-02
-9.307468682527542114e-02
7.842669636011123657e-02
-1.404606997966766357e-01
-8.494052290916442871e-02
-4.495928063988685608e-02
1.973817683756351471e-02
3.960236907005310059e-02
-4.231047630310058594e-02
-2.290524914860725403e-02
-2.336887270212173462e-02
-1.439161747694015503e-01
6.707409024238586426e-02
1.304993331432342529e-01
-5.004979297518730164e-02
-1.709500700235366821e-01
-1.593172550201416016e-02
6.269400566816329956e-02
1.484834998846054077e-01
-1.448442507535219193e-02
-1.808191649615764618e-02
-1.255286112427711487e-02
-4.377657023724168539e-04
6.646084785461425781e-02
-4.863343387842178345e-02
-2.281628549098968506e-02
-9.532853960990905762e-02
2.385880053043365479e-02
-1.081835851073265076e-01
8.759617805480957031e-02
-1.069156173616647720e-02
2.687310054898262024e-02
-1.601936668157577515e-01
-7.161096436902880669e-04
1.381248086690902710e-01
-1.348671466112136841e-01
-2.368941530585289001e-02
-1.355428155511617661e-02
7.385433465242385864e-02
9.742821007966995239e-02
-2.221657708287239075e-02
-2.028544843196868896e-01
-1.315613538026809692e-01
9.584126062691211700e-03
-7.939903996884822845e-03
9.568228572607040405e-02
-6.780909746885299683e-02
2.590227127075195312e-02
3.447370603680610657e-02
-3.480549901723861694e-02
-9.457836300134658813e-02
-1.693890392780303955e-01
1.367340534925460815e-01
-3.879959881305694580e-02
1.072163321077823639e-02
9.537396579980850220e-02
-1.876077204942703247e-01
2.635538578033447266e-02
6.914819777011871338e-02
-1.286541111767292023e-02
-1.150759533047676086e-01
1.613185405731201172e-01
-1.070643886923789978e-01
1.395334750413894653e-01
2.815330959856510162e-02
-1.025214716792106628e-01
-1.982880197465419769e-02
-8.965181559324264526e-02
6.592188030481338501e-02
6.338097900152206421e-02
1.483551599085330963e-02
-2.054936438798904419e-02
-8.956999331712722778e-02
-1.025533899664878845e-01
-1.242878567427396774e-02
-1.336473505944013596e-02
-1.126760616898536682e-01
5.162423104047775269e-02
7.184896618127822876e-02
1.211230009794235229e-01
-7.646096497774124146e-02
2.390833571553230286e-02
-4.890293255448341370e-02
-3.253927826881408691e-02
-6.108801066875457764e-02
5.862518772482872009e-02
6.553735584020614624e-02
1.249482557177543640e-01
9.806744009256362915e-02
-1.031311377882957458e-01
-2.289399690926074982e-02
3.175242990255355835e-02
-1.662063300609588623e-01
-7.473918795585632324e-02
-5.532762035727500916e-02
5.966066569089889526e-02
-1.360488235950469971e-01
2.161358110606670380e-02
-4.024298489093780518e-02
1.175616215914487839e-02
-9.820872545242309570e-02
-8.226126432418823242e-02
7.454814016819000244e-02
7.973258942365646362e-02
2.062495052814483643e-02
-4.487726092338562012e-02
2.405465766787528992e-02
8.407451212406158447e-02
-7.262542843818664551e-03
-7.221569865942001343e-02
-6.186311691999435425e-02
1.184662878513336182e-01
-1.698198541998863220e-02
1.257752478122711182e-01
-1.022052317857742310e-01
-7.425138354301452637e-02
-1.272260397672653198e-01
6.872349977493286133e-02
-9.547438472509384155e-02
9.552366286516189575e-02
8.759133517742156982e-02
-8.071459829807281494e-02
2.725292928516864777e-02
7.134476304054260254e-02
1.306686829775571823e-02
-6.281703710556030273e-03
-8.627835661172866821e-02
1.315984278917312622e-01
1.865475624799728394e-02
-4.119373485445976257e-02
1.992027647793292999e-02
5.970349907875061035e-02
2.270596027374267578e-01
-3.248549252748489380e-02
4.151404276490211487e-02
-9.209781885147094727e-02
1.344226598739624023e-01
-1.382481753826141357e-01
-4.591542482376098633e-02
5.530837178230285645e-02
3.243647515773773193e-02
-9.456448256969451904e-02
-1.480119973421096802e-01
-2.441906929016113281e-02
-3.702333569526672363e-02
1.037057787179946899e-01
-1.399742066860198975e-01
-2.709092758595943451e-02
-3.538022283464670181e-03
-5.151902884244918823e-02
-4.063818603754043579e-02
-3.570450097322463989e-02
1.121228039264678955e-01
-5.851007625460624695e-02
-1.441005021333694458e-01
-5.830822512507438660e-02
6.866838783025741577e-02
-2.784436754882335663e-02
-1.403007805347442627e-01
-3.447731584310531616e-02
-1.826019398868083954e-02
-2.837967872619628906e-02
-1.211259141564369202e-01
-1.651211380958557129e-01
-2.616831287741661072e-02
-6.630370020866394043e-02
1.075676828622817993e-01
-2.049639225006103516e-01
8.453799039125442505e-02
9.071382135152816772e-02
-1.542155910283327103e-02
-1.098075881600379944e-01
-1.112477332353591919e-01
-1.829500794410705566e-01
-8.478140830993652344e-02
-8.166559785604476929e-02
1.548553109169006348e-01
-2.150230258703231812e-01
-1.520990431308746338e-01
-3.968497738242149353e-02
-5.554744228720664978e-02
1.070444434881210327e-01
-7.122750580310821533e-02
9.839722514152526855e-02
-5.723397806286811829e-02
4.245620220899581909e-02
-9.669005870819091797e-02
1.573081463575363159e-01
1.164477914571762085e-01
-1.911120712757110596e-01
1.030095443129539490e-01
5.757345259189605713e-02
7.423939555883407593e-02
8.081598579883575439e-02
-1.872370988130569458e-01
2.149398028850555420e-01
5.008748918771743774e-02
9.672901593148708344e-03
-4.428992420434951782e-02
8.496288955211639404e-02
4.152539372444152832e-02
-4.527318105101585388e-02
4.914170503616333008e-02
-8.141621947288513184e-02
-1.067247986793518066e-01
-6.410020589828491211e-02
-5.372440069913864136e-02
-2.750899828970432281e-02
-1.314092520624399185e-02
7.622002065181732178e-02
-3.736031055450439453e-02
-1.741795539855957031e-01
-1.003286615014076233e-01
-3.710586577653884888e-02
-7.045591622591018677e-02
-1.795082688331604004e-01
-4.102810844779014587e-02
6.076837703585624695e-02
-2.396250516176223755e-02
-1.584060192108154297e-01
-1.309564113616943359e-01
1.131703183054924011e-01
3.813121467828750610e-03
-1.048101559281349182e-01
-5.875264480710029602e-02
5.064933001995086670e-02
-5.900004878640174866e-02
2.111413478851318359e-01
-4.158867523074150085e-02
5.156281962990760803e-02
-5.687030032277107239e-02
-9.814560413360595703e-02
-6.876171380281448364e-02
-1.153451204299926758e-01
-1.438997965306043625e-02
-1.289124637842178345e-01
-6.393463909626007080e-02
-2.710606902837753296e-02
1.302773039788007736e-02
-8.079566806554794312e-02
-3.754854947328567505e-02
1.410697102546691895e-01
-5.646986141800880432e-02
-7.469440996646881104e-02
-2.893513254821300507e-02
-3.335717692971229553e-02
-2.613086104393005371e-01
7.154393196105957031e-02
-6.921462714672088623e-02
1.375991255044937134e-01
-1.403600871562957764e-01
2.558096684515476227e-02
6.129207462072372437e-02
5.510393902659416199e-02
-1.647603139281272888e-02
4.514429345726966858e-02
5.417625233530998230e-02
2.427063183858990669e-03
2.845268510282039642e-02
3.253428637981414795e-02
6.860686093568801880e-02
1.689950749278068542e-02
1.031306609511375427e-01
1.072269976139068604e-01
-3.569250553846359253e-02
9.707560762763023376e-03
1.980717666447162628e-02
6.959949620068073273e-03
2.826443174853920937e-03
7.879973202943801880e-02
7.211479544639587402e-02
-3.002084232866764069e-02
1.642901450395584106e-02
-2.066822350025177002e-02
1.103084236383438110e-01
-3.285433724522590637e-02
-5.026642605662345886e-02
5.007445812225341797e-02
2.634367719292640686e-02
8.607211709022521973e-02
3.852161765098571777e-02
4.008518159389495850e-02
-2.457795850932598114e-02
7.748986780643463135e-02
1.096564717590808868e-02
3.909126296639442444e-02
1.050912309437990189e-02
1.888660192489624023e-01
-9.116952121257781982e-02
-6.852549314498901367e-02
7.739032059907913208e-02
-3.085076808929443359e-03
-2.125556394457817078e-02
5.482036620378494263e-02
-5.392809957265853882e-02
-1.253027170896530151e-01
8.594484627246856689e-02
-1.900160126388072968e-02
1.621245965361595154e-02
-1.579261152073740959e-03
3.405695781111717224e-02
6.386473774909973145e-02
-4.730091616511344910e-02
-1.711184903979301453e-02
4.591888561844825745e-02
6.989192962646484375e-02
4.139762744307518005e-02
-1.676639541983604431e-02
-8.350771665573120117e-02
6.123180314898490906e-02
1.124783903360366821e-01
-5.825689435005187988e-02
3.848771750926971436e-02
-1.180865615606307983e-02
1.727098040282726288e-02
1.111866384744644165e-01
-3.131578117609024048e-02
-2.227183617651462555e-02
3.917073830962181091e-02
4.252174124121665955e-02
8.207079023122787476e-02
4.601911082863807678e-02
3.916816040873527527e-02
-6.521636992692947388e-02
6.538243591785430908e-02
-3.888855502009391785e-02
4.086088389158248901e-02
6.503867357969284058e-02
-1.290617603808641434e-02
-8.645974099636077881e-02
4.107607901096343994e-02
-2.345152385532855988e-02
8.050040341913700104e-03
-3.206603927537798882e-03
4.422831535339355469e-02
-6.711421161890029907e-02
-1.752623729407787323e-02
7.158258557319641113e-02
1.188426539301872253e-01
9.486312419176101685e-02
-2.394021861255168915e-02
-5.774276703596115112e-02
-1.709841005504131317e-02
-6.616458296775817871e-02
-4.125613346695899963e-02
-5.357094854116439819e-02
-4.446531459689140320e-02
-2.815075032413005829e-02
-8.294022083282470703e-02
-7.732904981821775436e-03
1.207445487380027771e-01
-5.353882536292076111e-02
1.734013855457305908e-01
1.010988801717758179e-01
1.463299542665481567e-01
1.011940166354179382e-01
-3.087615408003330231e-02
-4.363374318927526474e-03
5.885259062051773071e-02
-1.015404909849166870e-01
-4.532855749130249023e-02
-5.570831522345542908e-02
1.192304026335477829e-02
6.969313323497772217e-02
-1.902633719146251678e-02
-4.775448143482208252e-02
-4.916989058256149292e-02
4.802364110946655273e-02
1.104434579610824585e-02
5.741396918892860413e-02
-6.226734071969985962e-02
6.413523107767105103e-02
5.682689696550369263e-02
3.915464133024215698e-02
-5.063083395361900330e-02
-1.157757267355918884e-01
3.588832914829254150e-02
4.442083835601806641e-02
1.109613105654716492e-01
8.670978248119354248e-02
1.720117591321468353e-02
2.311837486922740936e-02
-3.165640681982040405e-02
-6.491283327341079712e-02
5.433298647403717041e-02
-8.490690961480140686e-03
-8.365120738744735718e-02
5.539740249514579773e-02
2.006691321730613708e-02
8.450890332460403442e-02
8.285080641508102417e-02
8.523064851760864258e-02
-1.164091750979423523e-01
-2.579711843281984329e-03
7.415843755006790161e-02
-2.267237566411495209e-02
2.903721667826175690e-02
3.135762736201286316e-02
4.106057435274124146e-02
-6.412860751152038574e-02
4.196001589298248291e-02
-6.210195273160934448e-02
2.197678014636039734e-02
2.468662522733211517e-02
-2.951279841363430023e-02
4.329266399145126343e-02
2.692018263041973114e-02
-1.404371112585067749e-02
-1.289221495389938354e-01
-1.761287450790405273e-02
-3.277196735143661499e-02
7.595092803239822388e-02
4.080839082598686218e-02
-9.095248766243457794e-03
-3.272552415728569031e-02
3.216094523668289185e-02
-6.702950224280357361e-03
1.145309861749410629e-02
7.411511242389678955e-02
4.237622767686843872e-02
-8.825066685676574707e-02
-2.224794775247573853e-02
1.474176533520221710e-02
-1.565444841980934143e-02
8.136636018753051758e-02
-2.571681514382362366e-02
-4.113028198480606079e-02
2.315245382487773895e-02
3.105068579316139221e-03
-2.533117681741714478e-02
4.268825054168701172e-03
-1.439533568918704987e-02
-4.419192671775817871e-02
-2.940173726528882980e-03
2.571945078670978546e-02
-2.518249675631523132e-02
-1.577454851940274239e-03
1.446996536105871201e-02
7.460600882768630981e-02
4.453893750905990601e-02
5.500281695276498795e-03
-2.739892341196537018e-02
-1.209876313805580139e-02
4.274399252608418465e-04
2.379105426371097565e-02
-2.699737809598445892e-02
-4.463036730885505676e-02
8.995079435408115387e-03
1.977334497496485710e-03
6.129021570086479187e-02
-6.340395659208297729e-02
4.504216462373733521e-02
-4.047682043164968491e-03
-7.648636400699615479e-02
8.929291367530822754e-02
1.134588122367858887e-01
-3.988808766007423401e-02
-8.254148066043853760e-02
-4.079635441303253174e-02
-7.097518444061279297e-02
6.669413298368453979e-02
4.134052246809005737e-02
-6.598982959985733032e-02
8.432282507419586182e-02
4.544594511389732361e-02
-1.121196448802947998e-01
6.384536623954772949e-02
1.712859719991683960e-01
4.952659457921981812e-02
-4.652853682637214661e-02
7.025750819593667984e-03
-4.473531246185302734e-02
-8.356371521949768066e-02
-9.456991404294967651e-02
2.563989907503128052e-02
-3.991248086094856262e-02
-4.772752150893211365e-02
8.077280968427658081e-02
-7.629440724849700928e-02
-1.579350419342517853e-02
2.165489131584763527e-03
4.570394754409790039e-02
2.867779135704040527e-02
-9.179447591304779053e-02
5.513629317283630371e-02
-2.257369086146354675e-02
-8.559294044971466064e-03
-1.656089350581169128e-02
-1.395506900735199451e-03
1.022005155682563782e-01
-7.694617658853530884e-02
6.511376053094863892e-02
7.772152777761220932e-03
-4.177709668874740601e-02
8.174613863229751587e-02
2.290235459804534912e-02
4.732750356197357178e-02
5.630015581846237183e-02
2.699315361678600311e-02
-2.181196585297584534e-02
4.806782677769660950e-02
-3.712958423420786858e-03
-4.945926740765571594e-02
8.654346689581871033e-03
-4.903140291571617126e-02
-4.683486651629209518e-03
1.477653509937226772e-03
-8.016333915293216705e-03
-1.366698183119297028e-02
1.216624863445758820e-02
5.798408016562461853e-02
-5.357537046074867249e-02
-2.192801237106323242e-02
3.896334394812583923e-02
1.292375661432743073e-02
-2.905023470520973206e-02
1.199629995971918106e-02
8.112429082393646240e-02
-2.716571651399135590e-02
-1.857072114944458008e-02
-7.689483463764190674e-02
8.937768638134002686e-03
7.183034904301166534e-03
8.194025605916976929e-02
1.838779076933860779e-02
-4.572935774922370911e-02
-2.608609618619084358e-03
8.450794219970703125e-02
-3.315405920147895813e-02
-9.774653613567352295e-02
-1.030969340354204178e-02
5.009904876351356506e-02
-7.070608437061309814e-02
-4.580548498779535294e-03
-1.306307036429643631e-02
2.472334541380405426e-02
-3.379179909825325012e-02
-3.512872848659753799e-03
4.568524658679962158e-02
7.053566724061965942e-02
1.663840562105178833e-02
-1.793751306831836700e-02
4.493942484259605408e-02
5.865997076034545898e-02
-5.788522306829690933e-03
-1.995626650750637054e-02
1.983860880136489868e-02
9.418781101703643799e-02
-4.978396371006965637e-02
1.544815488159656525e-02
-4.856887087225914001e-02
3.132209181785583496e-02
6.734617799520492554e-02
3.577813878655433655e-02
7.596531510353088379e-02
1.660724286921322346e-03
4.229786992073059082e-02
-1.945113181136548519e-03
1.270879618823528290e-02
-7.366964127868413925e-03
-3.772251680493354797e-02
-2.307761460542678833e-02
2.830245345830917358e-02
-6.560209207236766815e-03
-8.875697106122970581e-02
-5.028839409351348877e-02
-1.082391943782567978e-02
-2.392091974616050720e-02
2.839285507798194885e-02
2.794644050300121307e-02
7.602520287036895752e-02
7.924276590347290039e-02
4.303175210952758789e-02
9.126613289117813110e-02
-2.673190087080001831e-02
2.613323926925659180e-02
-3.763137757778167725e-02
3.751983866095542908e-02
8.782058209180831909e-02
8.208170533180236816e-02
-1.794541627168655396e-02
-2.970173023641109467e-02
2.095776982605457306e-02
9.519559144973754883e-02
-3.774116933345794678e-02
-3.133568912744522095e-02
-1.967249670997262001e-03
1.479354873299598694e-02
3.232616931200027466e-02
-2.633510157465934753e-02
5.241582915186882019e-02
8.635377883911132812e-02
8.648039400577545166e-02
4.169666208326816559e-03
-2.613285742700099945e-02
-1.061471272259950638e-02
-1.034025847911834717e-02
-4.909929260611534119e-02
3.647262975573539734e-02
1.035999059677124023e-01
2.308567240834236145e-02
6.282392423599958420e-03
-7.966792583465576172e-02
8.704806119203567505e-02
-3.541834652423858643e-02
-2.865313738584518433e-02
5.681567266583442688e-02
-1.197212375700473785e-02
1.806692779064178467e-02
5.018725246191024780e-02
-8.697592467069625854e-02
3.113743476569652557e-02
-1.944535225629806519e-02
9.261033684015274048e-02
-2.177727408707141876e-02
1.446265876293182373e-01
-2.855418063700199127e-02
6.829387973994016647e-03
-4.150106385350227356e-02
1.184662431478500366e-01
5.057585425674915314e-03
-5.026694759726524353e-02
4.339175671339035034e-02
-1.101115159690380096e-02
-1.642633974552154541e-02
7.826588302850723267e-02
-1.855845935642719269e-02
-7.259722799062728882e-02
-6.978707015514373779e-02
-4.409538209438323975e-02
3.874133527278900146e-02
9.834264218807220459e-02
6.134769413620233536e-03
-7.203608751296997070e-02
2.586231939494609833e-02
8.250865340232849121e-02
4.087005555629730225e-02
7.526309788227081299e-02
1.004627197980880737e-01
-1.662646532058715820e-01
-3.045629337430000305e-02
8.120033890008926392e-02
2.541126916185021400e-03
-6.234706565737724304e-02
1.267246007919311523e-01
-3.210528194904327393e-02
5.316787865012884140e-03
1.261025480926036835e-02
9.809555858373641968e-02
3.289413452148437500e-02
-3.802824392914772034e-02
1.833992544561624527e-03
1.597804129123687744e-01
2.934964373707771301e-02
-1.772866398096084595e-02
9.841206483542919159e-03
6.122591905295848846e-03
-1.678107678890228271e-02
-8.904212713241577148e-02
-1.791997463442385197e-03
-9.135399945080280304e-03
-2.332735434174537659e-02
3.652623621746897697e-03
3.764456510543823242e-02
8.331269025802612305e-02
3.250344470143318176e-02
-7.044285302981734276e-04
-3.014904260635375977e-02
6.766927987337112427e-02
-4.310448653995990753e-03
-1.294634342193603516e-01
5.714433267712593079e-02
-3.339218907058238983e-03
-1.001386195421218872e-01
4.155975580215454102e-02
3.122550994157791138e-02
-6.638349592685699463e-02
-1.775512658059597015e-02
-3.071839921176433563e-03
1.000455673784017563e-02
4.110279306769371033e-02
-7.164304703474044800e-02
-8.401371538639068604e-02
6.170401349663734436e-02
3.018635511398315430e-02
9.042786061763763428e-02
-3.129047527909278870e-02
-5.122027173638343811e-02
-1.467066723853349686e-02
-4.363894090056419373e-02
-2.648520842194557190e-02
8.820834755897521973e-02
1.298321876674890518e-02
6.590080261230468750e-02
-2.541863918304443359e-02
4.608637094497680664e-02
-3.191563487052917480e-02
1.730975881218910217e-02
-3.445810452103614807e-02
-1.941223442554473877e-02
-6.415285170078277588e-02
6.585620343685150146e-02
-9.959644079208374023e-02
-1.750585809350013733e-02
1.372520625591278076e-01
-9.180583292618393898e-04
-6.098578497767448425e-02
-5.357286706566810608e-02
6.256216764450073242e-02
-3.193028643727302551e-02
7.316505908966064453e-02
-6.152166798710823059e-02
4.333490505814552307e-02
-6.080897152423858643e-02
3.242084011435508728e-02
-2.003920823335647583e-02
-8.276366442441940308e-02
4.142151400446891785e-02
-4.055222868919372559e-02
1.027550622820854187e-01
1.799182780086994171e-02
-6.675153970718383789e-02
1.679464615881443024e-02
-1.117145270109176636e-02
9.529435075819492340e-03
3.515340154990553856e-03
1.905170269310474396e-02
2.694879844784736633e-02
4.493304528295993805e-03
-7.081253919750452042e-03
-7.330118678510189056e-03
9.740682691335678101e-02
7.081307470798492432e-02
-1.325604785233736038e-02
-2.968072332441806793e-02
2.842899970710277557e-02
-1.177827548235654831e-02
3.330704197287559509e-02
-1.058924198150634766e-02
3.281601890921592712e-02
-4.307205602526664734e-02
-2.504192106425762177e-02
-6.745199114084243774e-02
-3.598663024604320526e-03
2.569040656089782715e-02
-4.175126552581787109e-02
3.337058424949645996e-02
-1.681193336844444275e-02
8.705757791176438332e-04
-1.776627637445926666e-02
-9.642259031534194946e-02
1.016215682029724121e-01
2.095322124660015106e-02
3.462116047739982605e-02
1.702783815562725067e-02
-9.356250986456871033e-03
1.735078357160091400e-02
-1.001475304365158081e-01
2.758777118287980556e-04
-5.018161982297897339e-02
6.461621075868606567e-02
1.029265671968460083e-02
-1.181339100003242493e-02
4.673080146312713623e-02
-3.776908665895462036e-02
-2.349951677024364471e-02
-7.399803400039672852e-02
2.924429019913077354e-03
1.054678186774253845e-01
-1.973176561295986176e-02
-6.225762888789176941e-02
2.571104094386100769e-02
-1.344525162130594254e-02
4.165668040513992310e-02
-3.978422284126281738e-02
-1.141322404146194458e-01
-1.225815713405609131e-02
9.152180282399058342e-04
-3.993723168969154358e-02
4.532252624630928040e-02
4.822612181305885315e-02
-1.135249808430671692e-01
4.165525361895561218e-02
4.573289770632982254e-04
-1.424654722213745117e-01
5.288581177592277527e-02
-3.146842494606971741e-02
-3.833127394318580627e-02
5.976766347885131836e-02
-1.114226654171943665e-01
-2.973313070833683014e-02
-1.634298451244831085e-02
-4.928049817681312561e-02
-1.078554317355155945e-01
5.617457628250122070e-02
-1.391984075307846069e-01
-4.484049975872039795e-02
2.608571946620941162e-02
-6.062990520149469376e-03
-4.273995757102966309e-02
3.974103555083274841e-02
2.162358723580837250e-02
6.283089518547058105e-02
-1.235478743910789490e-01
-3.749734163284301758e-02
-6.050934083759784698e-03
1.500800549983978271e-01
-1.027468126267194748e-02
-5.695401132106781006e-02
-3.792158560827374458e-03
2.466296963393688202e-02
-6.386177241802215576e-02
-5.885264649987220764e-02
7.736959308385848999e-02
1.288617402315139771e-02
-5.108889192342758179e-02
-2.305199764668941498e-02
9.367846697568893433e-02
-2.743810787796974182e-02
1.222421526908874512e-01
-8.597135543823242188e-03
-1.968301832675933838e-02
-1.429048031568527222e-01
-8.475150913000106812e-02
-8.325617760419845581e-02
-5.143643170595169067e-02
1.221789941191673279e-01
-2.823185361921787262e-02
-3.562952857464551926e-03
-3.324983641505241394e-02
-1.017291843891143799e-01
-4.706102609634399414e-02
1.644920557737350464e-02
4.414083436131477356e-02
-7.083220034837722778e-02
6.393097341060638428e-02
5.841191858053207397e-02
-5.336383730173110962e-02
-3.198698163032531738e-02
-7.230444252490997314e-02
7.205294445157051086e-03
1.701832711696624756e-01
-8.133584633469581604e-03
-5.399280693382024765e-03
-3.954131156206130981e-02
7.034371793270111084e-02
-7.906214147806167603e-02
-3.250502422451972961e-02
-3.909391537308692932e-02
-2.940912358462810516e-02
-1.847092248499393463e-02
-7.291978597640991211e-02
7.317890413105487823e-03
1.473544389009475708e-01
-3.182534873485565186e-02
-7.859701663255691528e-02
-2.342853508889675140e-02
6.161427497863769531e-02
-3.640920296311378479e-02
-5.594378337264060974e-02
6.693892925977706909e-02
1.403271406888961792e-01
-5.735025927424430847e-02
-3.229959681630134583e-02
-4.010159149765968323e-02
2.113573253154754639e-02
-8.563452959060668945e-02
-1.385823041200637817e-01
-3.369625285267829895e-02
-7.242275751195847988e-04
5.201560258865356445e-02
-7.366206496953964233e-02
3.816205076873302460e-03
4.855984449386596680e-02
-7.842498831450939178e-03
-2.388120628893375397e-02
3.182506561279296875e-02
8.026893436908721924e-02
-6.942582875490188599e-02
-6.984727829694747925e-02
-4.040080681443214417e-02
1.092218533158302307e-01
-2.745354175567626953e-02
-3.979827091097831726e-02
-1.261004712432622910e-02
9.137020260095596313e-02
4.422925412654876709e-02
-1.143769249320030212e-01
7.534977793693542480e-02
5.101394280791282654e-02
-4.350961372256278992e-02
-2.088874578475952148e-03
-4.252406954765319824e-02
-4.496347624808549881e-03
4.421185702085494995e-02
7.637210190296173096e-02
-1.072124484926462173e-02
-7.942879199981689453e-02
2.299033291637897491e-02
-7.497899979352951050e-02
-1.425671875476837158e-01
-3.155148774385452271e-02
1.406689919531345367e-02
2.938613668084144592e-02
-2.294062077999114990e-02
8.626388013362884521e-02
-7.367435097694396973e-02
-2.014878019690513611e-02
3.662437573075294495e-02
-2.019878849387168884e-02
-7.300605624914169312e-02
1.489464426413178444e-03
-1.414542794227600098e-01
2.749002911150455475e-02
-8.611642569303512573e-02
9.336962550878524780e-02
8.285459876060485840e-02
-1.031379401683807373e-01
-4.429475590586662292e-02
2.487984020262956619e-03
-6.191162019968032837e-02
-1.331654377281665802e-02
5.394216999411582947e-02
8.646688610315322876e-02
-9.970983862876892090e-02
1.394204795360565186e-03
-3.484975546598434448e-02
-1.404023170471191406e-02
-1.890034601092338562e-02
-1.071517169475555420e-01
-1.475393474102020264e-01
-4.310055449604988098e-02
-1.357540313620120287e-04
9.833474457263946533e-02
3.162929788231849670e-02
-2.651206031441688538e-02
-8.213169872760772705e-02
-6.197886541485786438e-03
3.651820495724678040e-02
-3.566627204418182373e-02
-1.621129550039768219e-02
-4.551965743303298950e-02
1.755559816956520081e-02
5.966445058584213257e-02
1.036484353244304657e-02
1.409390661865472794e-02
1.589652448892593384e-01
3.130080550909042358e-02
-4.697632044553756714e-02
1.448888797312974930e-02
2.206631004810333252e-03
6.653215736150741577e-02
-2.455942891538143158e-02
-5.240655690431594849e-02
-8.479966223239898682e-02
1.431414275430142879e-03
1.069444939494132996e-01
7.596463710069656372e-02
-6.289482116699218750e-02
-3.660256043076515198e-02
-9.591151028871536255e-02
-5.598758533596992493e-02
-5.358261615037918091e-02
8.964078500866889954e-03
6.896559149026870728e-02
7.387052476406097412e-02
-4.950194153934717178e-03
-5.033257976174354553e-02
-1.358938217163085938e-01
-5.717015825212001801e-03
4.199908301234245300e-02
-2.445837296545505524e-02
-5.308491364121437073e-02
-7.644461095333099365e-02
-9.961073286831378937e-03
3.421640768647193909e-02
-5.644994601607322693e-02
8.083082735538482666e-02
-1.177073717117309570e-01
-1.219930201768875122e-01
-2.267347590532153845e-04
-5.039997398853302002e-02
5.607262253761291504e-02
1.209266334772109985e-01
9.942243993282318115e-02
6.813031435012817383e-02
1.189404502511024475e-01
3.329602256417274475e-02
1.223953664302825928e-01
-1.782765984535217285e-01
-6.049376353621482849e-02
-2.438971400260925293e-02
2.732035517692565918e-02
6.336800754070281982e-02
1.144966110587120056e-02
-6.369891017675399780e-02
1.889768056571483612e-02
-3.833901137113571167e-02
3.661983460187911987e-02
-2.322860807180404663e-02
2.837401255965232849e-02
-1.236289143562316895e-01
6.742347776889801025e-02
7.855966687202453613e-03
2.045453190803527832e-01
-5.931105464696884155e-03
8.741857856512069702e-02
8.110523968935012817e-02
-9.711883962154388428e-02
2.768220566213130951e-02
-1.210066974163055420e-01
-1.730173826217651367e-02
3.739436715841293335e-02
6.919912248849868774e-02
-3.102489281445741653e-03
-2.893905900418758392e-02
3.312620893120765686e-02
-6.573056429624557495e-02
-1.091087758541107178e-01
1.176899150013923645e-01
1.183660551905632019e-01
-1.008306965231895447e-01
1.420498127117753029e-03
-2.390669845044612885e-02
-4.496951773762702942e-02
-1.970788985490798950e-01
2.142825722694396973e-02
-5.824767798185348511e-02
-3.225577995181083679e-02
2.708387561142444611e-02
6.272358447313308716e-02
4.981835372745990753e-03
5.667873471975326538e-02
-1.097733061760663986e-02
7.081261277198791504e-02
-4.222737997770309448e-02
7.288240641355514526e-02
1.237563192844390869e-01
2.667996473610401154e-02
-2.930604387074708939e-03
3.823572024703025818e-02
6.276012957096099854e-02
-9.402529895305633545e-02
-1.522617600858211517e-02
-2.211851300671696663e-03
-4.803812503814697266e-02
-3.346534818410873413e-02
5.616793408989906311e-02
-1.436440087854862213e-02
4.783738404512405396e-02
-1.067506447434425354e-01
5.179227329790592194e-03
-3.186732158064842224e-02
5.571361258625984192e-02
-2.606626227498054504e-02
4.730199277400970459e-02
-3.952457383275032043e-02
7.962088100612163544e-03
-5.871920660138130188e-02
-9.200207144021987915e-02
-6.643436849117279053e-02
4.032830148935317993e-02
-7.007286697626113892e-02
-5.470433831214904785e-02
-3.619483858346939087e-02
-3.246782347559928894e-02
-5.913448333740234375e-02
1.057163402438163757e-01
1.777434945106506348e-01
6.849332153797149658e-02
1.064868923276662827e-02
6.147210486233234406e-03
1.370901707559823990e-02
-1.152222678065299988e-01
-4.459386691451072693e-02
2.951767854392528534e-02
6.092430651187896729e-02
-8.681149221956729889e-03
1.998517476022243500e-02
-3.737981989979743958e-02
-4.227503761649131775e-02
-4.979860782623291016e-02
-4.369142651557922363e-02
5.419959872961044312e-02
5.558967217803001404e-02
2.718704007565975189e-02
-3.671363927423954010e-03
1.068384200334548950e-01
-2.530013024806976318e-02
3.679709509015083313e-02
9.777045249938964844e-02
-7.357137650251388550e-02
3.530792146921157837e-02
1.224910467863082886e-02
9.151700884103775024e-02
1.650854363106191158e-03
-1.164664998650550842e-01
-1.253924611955881119e-02
-5.933525413274765015e-02
-6.198468059301376343e-02
-8.100509643554687500e-02
2.143302112817764282e-01
-6.911525269970297813e-04
-2.167185023427009583e-02
-1.413202732801437378e-01
-1.010741293430328369e-01
3.845427557826042175e-02
-9.078082628548145294e-03
-1.013384163379669189e-01
7.266915589570999146e-02
9.957593679428100586e-02
3.329926729202270508e-02
-4.153915494680404663e-02
-9.340814501047134399e-02
3.288272395730018616e-02
2.561560086905956268e-02
-6.141326949000358582e-02
-3.528766334056854248e-02
-2.604617737233638763e-02
-1.482456550002098083e-02
6.791146844625473022e-02
-4.518288001418113708e-02
7.041650265455245972e-02
1.063009351491928101e-02
-1.453215330839157104e-01
-1.307364255189895630e-01
-4.240323975682258606e-02
2.829169295728206635e-02
8.344720304012298584e-02
1.211283449083566666e-02
-1.714087836444377899e-02
-4.268470779061317444e-02
-8.595507591962814331e-02
-1.395362913608551025e-01
-1.019774228334426880e-01
1.149842366576194763e-01
2.594639547169208527e-02
1.545246690511703491e-01
-2.910676784813404083e-02
2.712623029947280884e-02
-1.116358023136854172e-02
-1.092365290969610214e-02
-6.362246721982955933e-02
-1.904244534671306610e-02
-5.012340471148490906e-02
-3.374073281884193420e-02
-1.947914622724056244e-02
-5.322081968188285828e-02
4.182440694421529770e-03
-1.170385479927062988e-01
-2.129510976374149323e-02
1.953704208135604858e-01
6.375123560428619385e-02
-3.712479770183563232e-02
-9.270773082971572876e-02
1.937059871852397919e-02
1.918321661651134491e-02
1.075813844799995422e-01
-7.712682336568832397e-02
4.955232515931129456e-02
4.205650184303522110e-03
-2.275238744914531708e-02
-1.489473879337310791e-01
1.404409110546112061e-01
7.480410393327474594e-03
-2.645366080105304718e-02
-1.094790250062942505e-01
9.362372756004333496e-02
-2.367062121629714966e-02
-1.055834293365478516e-01
-2.581807412207126617e-02
6.733115762472152710e-02
3.834132477641105652e-02
2.327434532344341278e-02
7.017658092081546783e-03
-4.346857964992523193e-02
1.003944724798202515e-01
-4.098302125930786133e-02
3.464411199092864990e-02
-3.599600866436958313e-03
1.591637497767806053e-03
1.064748987555503845e-01
-1.214092597365379333e-01
4.411350004374980927e-03
-1.492784731090068817e-02
6.649298965930938721e-02
2.058767527341842651e-02
-1.349993646144866943e-01
4.424863308668136597e-02
6.972289085388183594e-02
-9.905321523547172546e-03
5.509702116250991821e-02
1.292020678520202637e-01
1.138416901230812073e-01
-9.152763336896896362e-02
-2.783025428652763367e-02
-4.258617013692855835e-02
-8.701993525028228760e-02
-1.195042394101619720e-02
1.483883336186408997e-02
-2.355101052671670914e-03
-1.455797553062438965e-01
-1.410485953092575073e-01
-1.366427689790725708e-01
-8.802379667758941650e-02
-4.209763929247856140e-02
-2.006727270781993866e-02
5.521241202950477600e-02
-1.650510728359222412e-01
1.663388870656490326e-02
5.139521881937980652e-02
-3.276002034544944763e-02
-1.587366871535778046e-02
-6.677897274494171143e-02
7.938169687986373901e-02
1.195585355162620544e-02
1.078343018889427185e-01
-2.473442582413554192e-03
-2.542464062571525574e-02
-3.723044693470001221e-02
-1.020021084696054459e-02
-1.375123113393783569e-02
-8.369028568267822266e-02
2.281769365072250366e-02
-7.235616445541381836e-03
1.038924418389797211e-02
1.499357447028160095e-02
-3.836578130722045898e-02
4.518334940075874329e-02
6.864415854215621948e-02
-8.422308415174484253e-02
-1.039035338908433914e-02
-3.480472415685653687e-02
2.870214730501174927e-02
-1.395694017410278320e-01
1.266668587923049927e-01
-1.551871420815587044e-03
5.441291723400354385e-03
-4.277275502681732178e-02
-5.192378535866737366e-02
-8.037047088146209717e-02
1.354916393756866455e-01
-1.261838618665933609e-02
-1.356771439313888550e-01
-8.808257058262825012e-03
1.744506880640983582e-03
-7.562742684967815876e-04
-9.982877410948276520e-03
9.257986093871295452e-04
-6.644984334707260132e-02
4.969130828976631165e-02
1.116193644702434540e-02
-5.451013147830963135e-02
1.420281082391738892e-02
-5.902071669697761536e-02
3.300325945019721985e-02
-1.353408247232437134e-01
-1.228103637695312500e-01
9.378739632666110992e-03
-2.163859456777572632e-02
-5.411785468459129333e-02
-1.759447273798286915e-03
-2.468526130542159081e-03
-1.052588671445846558e-01
-1.512228101491928101e-01
7.495629787445068359e-02
-1.471741474233567715e-03
-1.709263585507869720e-02
-3.597302827984094620e-03
4.712376743555068970e-02
-5.341434478759765625e-02
6.435385346412658691e-02
-6.751424074172973633e-02
2.456627413630485535e-02
-1.217092275619506836e-01
-1.265610307455062866e-01
3.696784377098083496e-02
-5.242303013801574707e-02
6.126880645751953125e-02
9.515416808426380157e-03
-8.372940123081207275e-02
-1.359237432479858398e-01
3.212276846170425415e-02
5.066041275858879089e-02
1.884075999259948730e-02
-3.970575705170631409e-02
8.677523583173751831e-02
2.106158528476953506e-03
1.980358362197875977e-01
-2.064333111047744751e-01
7.580197602510452271e-02
-7.596289366483688354e-02
1.365332901477813721e-01
3.437561914324760437e-02
-1.878050342202186584e-02
3.994330763816833496e-03
-8.538056910037994385e-02
3.610110655426979065e-02
5.299412086606025696e-02
3.116707783192396164e-03
3.926226124167442322e-02
-4.639237001538276672e-02
-5.912169814109802246e-02
-3.929564729332923889e-02
2.368146553635597229e-02
7.540448009967803955e-02
-5.929484218358993530e-02
-1.684730499982833862e-02
6.646750494837760925e-03
3.521664766594767570e-03
-8.848617784678936005e-03
9.794442355632781982e-02
8.661261945962905884e-02
-5.994747579097747803e-02
1.193300448358058929e-02
-5.364944785833358765e-02
-3.031952306628227234e-02
-6.228180229663848877e-02
-2.363991588354110718e-01
5.798012018203735352e-02
5.444975569844245911e-02
5.296466872096061707e-02
9.276683442294597626e-03
-4.037863574922084808e-03
1.476635038852691650e-01
6.958673242479562759e-03
2.965673245489597321e-02
5.534534901380538940e-02
-1.709593236446380615e-01
1.474801916629076004e-02
3.826561942696571350e-02
-5.117355659604072571e-02
-5.621309205889701843e-02
-1.182840857654809952e-02
-3.958403319120407104e-02
1.799735426902770996e-01
-2.305416390299797058e-02
1.121723130345344543e-01
-5.979708209633827209e-02
-8.316401392221450806e-02
-4.457802698016166687e-02
-1.083165705204010010e-01
4.324713721871376038e-02
-3.366287099197506905e-03
-9.837484359741210938e-02
8.208251744508743286e-02
6.130911409854888916e-02
-1.208716854453086853e-01
-1.749646733514964581e-03
-1.118086054921150208e-01
-2.490932680666446686e-02
-6.181498989462852478e-02
1.849033236503601074e-01
-8.342523872852325439e-02
1.790339946746826172e-01
1.639404334127902985e-02
9.519856423139572144e-03
-3.221902623772621155e-02
5.334843322634696960e-02
1.428363770246505737e-01
-1.783502660691738129e-02
-2.208428084850311279e-02
-6.050013005733489990e-02
1.333053410053253174e-01
7.785279303789138794e-02
5.180790275335311890e-02
-9.861011803150177002e-02
5.041107162833213806e-02
1.522061675786972046e-01
6.414896994829177856e-02
5.507119745016098022e-02
1.820725202560424805e-02
-5.299739539623260498e-02
-6.994830816984176636e-02
3.137164190411567688e-02
3.426839411258697510e-02
1.259441673755645752e-01
2.882402017712593079e-02
-4.646333679556846619e-02
-1.663336008787155151e-01
-9.645306505262851715e-03
-1.321383863687515259e-01
-6.740825623273849487e-02
3.571714088320732117e-02
8.220838382840156555e-03
-1.477201879024505615e-01
-4.978649318218231201e-02
2.803011983633041382e-02
2.128543099388480186e-03
-5.659947637468576431e-04
3.636184707283973694e-02
-3.379029408097267151e-02
-5.943879857659339905e-02
-6.925054825842380524e-03
4.483390972018241882e-02
4.447427392005920410e-02
5.445131659507751465e-02
-4.543840512633323669e-02
2.068869024515151978e-02
1.173224765807390213e-02
2.917106263339519501e-02
1.001171991229057312e-01
-6.584016140550374985e-03
-4.791339859366416931e-02
3.029785118997097015e-02
1.904237829148769379e-02
7.425914704799652100e-02
-1.199365928769111633e-01
-1.239532679319381714e-01
4.194202367216348648e-03
3.522088751196861267e-02
1.345708384178578854e-03
-2.463332144543528557e-03
8.321601897478103638e-02
-9.840351343154907227e-02
-8.190614730119705200e-02
2.456763014197349548e-02
2.407564967870712280e-02
7.561139017343521118e-02
-4.201418906450271606e-02
-7.124986965209245682e-03
-1.135663222521543503e-02
3.959720954298973083e-02
-5.875045433640480042e-03
5.594576150178909302e-02
-1.672752387821674347e-02
-6.968589127063751221e-02
-1.107627227902412415e-01
-6.278132647275924683e-02
-2.266771197319030762e-01
-8.278195559978485107e-02
7.254736963659524918e-03
1.458559185266494751e-01
-8.789004385471343994e-02
1.227471977472305298e-01
-8.775012195110321045e-02
-8.834346197545528412e-03
5.520320311188697815e-02
7.640487980097532272e-03
-6.179729476571083069e-02
-8.459557592868804932e-02
-1.247059181332588196e-01
1.751882284879684448e-01
-7.918884605169296265e-02
4.989209771156311035e-02
-7.249634712934494019e-02
5.351976305246353149e-02
1.190070360898971558e-01
-2.391772903501987457e-02
5.169252678751945496e-02
-1.791859976947307587e-02
4.168668761849403381e-02
-6.338249146938323975e-02
1.157373413443565369e-01
-6.593932211399078369e-02
6.621415168046951294e-02
5.652181059122085571e-02
4.808121919631958008e-02
5.416938662528991699e-02
1.253627836704254150e-01
-1.516034454107284546e-01
-1.062717661261558533e-01
-5.750026926398277283e-02
-8.817473053932189941e-02
-6.671538203954696655e-02
-1.103938668966293335e-01
2.489519305527210236e-03
-1.472422014921903610e-02
4.525480419397354126e-02
-1.550595015287399292e-01
6.033829972147941589e-02
-7.970724254846572876e-03
9.143898636102676392e-02
8.950121700763702393e-02
5.138225480914115906e-02
-1.582849957048892975e-02
6.057349964976310730e-03
4.790722951292991638e-02
-2.274020761251449585e-02
9.570819884538650513e-02
1.158303171396255493e-01
-8.844240754842758179e-02
-6.675387918949127197e-02
-3.467322885990142822e-02
1.226765066385269165e-01
1.171631366014480591e-02
1.284417659044265747e-01
-1.085401605814695358e-02
-8.246343582868576050e-02
5.840265750885009766e-02
8.213891088962554932e-02
6.845302879810333252e-02
5.500113219022750854e-02
-1.071746833622455597e-02
-1.501762587577104568e-02
4.894740879535675049e-02
5.211289972066879272e-02
2.874877676367759705e-02
-6.777277588844299316e-02
1.116387471556663513e-01
1.428998308256268501e-03
6.432456523180007935e-02
4.154056683182716370e-02
-7.786835730075836182e-02
-6.002666801214218140e-02
4.254367947578430176e-02
6.085051223635673523e-02
9.827778488397598267e-02
5.648135766386985779e-02
6.248540431261062622e-02
3.011506423354148865e-02
2.548349648714065552e-02
-8.778803050518035889e-03
-3.273980319499969482e-02
3.201557090505957603e-03
3.192311525344848633e-02
1.196914445608854294e-02
1.219613701105117798e-01
-1.149187535047531128e-01
-5.248897708952426910e-03
-1.172684058547019958e-01
1.171321272850036621e-01
9.381967596709728241e-03
4.421096295118331909e-02
-7.441972941160202026e-02
1.236409693956375122e-01
6.992062181234359741e-02
-7.010832428932189941e-02
1.082690656185150146e-01
2.148419991135597229e-02
4.016773775219917297e-02
-5.462151020765304565e-02
5.054110661149024963e-02
-7.222458720207214355e-02
6.649956107139587402e-02
-4.635830968618392944e-02
7.771296054124832153e-02
-3.520195931196212769e-02
1.158508192747831345e-02
-4.998673126101493835e-02
-6.877469271421432495e-02
-3.826690837740898132e-02
-1.833560168743133545e-01
-7.967699319124221802e-02
-1.072555705904960632e-01
5.113254766911268234e-03
-2.116524241864681244e-02
-5.755984690040349960e-03
-2.115766331553459167e-02
-9.214974194765090942e-02
6.345407571643590927e-03
1.987607777118682861e-02
-2.983641438186168671e-02
-2.414558827877044678e-02
8.752282708883285522e-02
5.847262218594551086e-02
-1.686460711061954498e-02
8.713793009519577026e-03
3.365149255841970444e-03
2.657664008438587189e-02
-3.875391185283660889e-02
-9.431470185518264771e-02
1.692046821117401123e-01
-4.561869800090789795e-02
-8.361955732107162476e-02
-3.490765579044818878e-03
4.238259419798851013e-02
-1.167430076748132706e-02
-1.362277865409851074e-01
2.995645999908447266e-02
3.198885917663574219e-02
-7.923723198473453522e-03
7.454317063093185425e-02
-8.905389904975891113e-02
4.084023833274841309e-02
9.113633632659912109e-02
4.184655100107192993e-02
-8.204109221696853638e-02
-1.108068227767944336e-01
-7.525029592216014862e-03
-4.965772852301597595e-02
-2.075169384479522705e-01
2.188434824347496033e-02
-6.489478796720504761e-02
-9.811997413635253906e-03
-6.842467188835144043e-02
7.916653156280517578e-02
-6.251849234104156494e-02
3.853435441851615906e-02
-8.981766551733016968e-02
1.303033232688903809e-01
9.658240526914596558e-02
3.230775520205497742e-02
9.929944062605500221e-04
7.035680115222930908e-02
1.034146919846534729e-01
1.364472508430480957e-01
6.777667254209518433e-02
6.473446637392044067e-02
-1.026631705462932587e-02
-1.049195826053619385e-01
-3.954062238335609436e-02
-1.064787060022354126e-01
3.327855095267295837e-02
2.393745258450508118e-02
1.595604978501796722e-02
-4.457140713930130005e-02
-3.348664194345474243e-02
3.404068946838378906e-02
-2.087411703541874886e-03
7.636150810867547989e-03
-9.966047108173370361e-02
-6.017221882939338684e-02
6.027671694755554199e-02
-1.014591604471206665e-01
1.373987346887588501e-01
3.068942390382289886e-02
2.244459278881549835e-02
-1.190982526168227196e-03
1.132098212838172913e-01
-9.499263018369674683e-03
-6.106439977884292603e-02
-7.190658897161483765e-02
-1.257553100585937500e-01
-5.910751223564147949e-02
-3.066833363845944405e-03
6.873731315135955811e-02
-4.135909676551818848e-02
-4.828112944960594177e-02
-1.558009684085845947e-01
-7.049287855625152588e-02
1.927879266440868378e-02
-8.154581487178802490e-02
1.643443256616592407e-01
-7.521063834428787231e-02
-1.830890774726867676e-02
-1.718103140592575073e-02
-2.765752561390399933e-02
-4.693428054451942444e-02
-7.237679511308670044e-02
-4.473512992262840271e-02
-9.516270458698272705e-02
-2.865681052207946777e-02
2.355866366997361183e-03
-1.379105378873646259e-03
4.447688907384872437e-02
3.038058057427406311e-04
5.229599401354789734e-02
-2.646154724061489105e-02
-7.415516674518585205e-02
-2.470003627240657806e-02
1.175259589217603207e-03
3.645534813404083252e-02
5.797650665044784546e-02
-1.750098615884780884e-01
4.089165106415748596e-02
-6.501179933547973633e-02
-5.391537677496671677e-03
-6.392954289913177490e-02
5.028089880943298340e-02
-6.370153278112411499e-02
4.820723831653594971e-02
1.557792723178863525e-01
-4.177694395184516907e-02
-2.287289313971996307e-02
9.177089482545852661e-02
-2.919094823300838470e-02
-4.917993023991584778e-02
-1.144525185227394104e-01
5.065422505140304565e-02
2.297301292419433594e-01
-1.016960293054580688e-01
-3.216373175382614136e-02
8.371708542108535767e-02
-1.085603982210159302e-02
-6.778092682361602783e-02
-1.697002723813056946e-02
-1.443878114223480225e-01
4.867336526513099670e-02
-7.096878439188003540e-02
5.497957393527030945e-02
1.788272112607955933e-01
3.204091265797615051e-02
5.887370184063911438e-02
-6.349421292543411255e-02
4.640695080161094666e-02
-7.272981852293014526e-02
-1.346108913421630859e-01
-6.436098366975784302e-02
-2.245229929685592651e-01
1.614897102117538452e-01
-8.038970828056335449e-02
8.856670558452606201e-02
-4.678408056497573853e-02
-1.355493366718292236e-01
-5.794363841414451599e-02
-6.144845485687255859e-02
-2.599571458995342255e-02
2.184111857786774635e-03
5.098827183246612549e-02
-4.100765287876129150e-02
4.120380058884620667e-02
-4.550491273403167725e-02
3.686971962451934814e-02
-4.689043387770652771e-02
2.844231016933917999e-02
-6.438397616147994995e-02
-6.685028225183486938e-02
3.926506638526916504e-02
8.454919792711734772e-03
6.819450855255126953e-02
5.411470681428909302e-02
1.551400721073150635e-01
2.043062122538685799e-03
-1.223877966403961182e-01
8.894153684377670288e-02
2.439812384545803070e-02
-9.195733815431594849e-02
-1.647176034748554230e-02
-1.270907074213027954e-01
6.643456220626831055e-02
-3.091234248131513596e-04
-2.494158782064914703e-02
1.974696852266788483e-02
-5.616826564073562622e-02
-6.022039055824279785e-02
-7.736912369728088379e-02
-1.857776939868927002e-02
-5.012715980410575867e-02
-6.357903033494949341e-02
-2.773063071072101593e-02
9.709031879901885986e-02
1.215550079941749573e-01
-5.971189215779304504e-02
2.211546711623668671e-02
2.556772157549858093e-02
-8.296310156583786011e-02
2.066959999501705170e-02
-3.249645978212356567e-02
7.378959655761718750e-02
3.299280256032943726e-02
6.395258009433746338e-02
1.140043810009956360e-01
-7.403570413589477539e-02
1.369823068380355835e-01
9.809985756874084473e-02
-6.921448558568954468e-02
-2.718648687005043030e-02
-1.579921692609786987e-01
-8.502365648746490479e-02
-8.755999803543090820e-02
1.003429945558309555e-02
7.590797543525695801e-02
1.866155117750167847e-02
1.983242668211460114e-02
1.190027371048927307e-01
5.551369860768318176e-02
1.881644129753112793e-02
-1.093173632398247719e-03
4.143193736672401428e-02
-1.248539388179779053e-01
1.528812572360038757e-02
-1.075859218835830688e-01
3.213022276759147644e-02
-4.089050740003585815e-02
6.007936224341392517e-02
-7.734576612710952759e-02
3.800523653626441956e-02
6.965761631727218628e-02
1.184609308838844299e-01
1.731286756694316864e-02
-4.220192506909370422e-02
3.339842334389686584e-02
-7.918269932270050049e-02
7.599537819623947144e-02
4.269190598279237747e-03
4.498243704438209534e-02
-4.424412269145250320e-03
2.880813926458358765e-02
-1.418987214565277100e-01
-7.266634609550237656e-03
-3.970413282513618469e-02
-5.035261437296867371e-02
1.120942682027816772e-01
-3.026307187974452972e-02
6.645123660564422607e-02
-3.081497736275196075e-02
-5.810661241412162781e-02
1.994219124317169189e-01
2.330939471721649170e-02
-1.341829150915145874e-01
8.660529740154743195e-03
-3.815850242972373962e-02
7.499241083860397339e-02
-7.221653126180171967e-03
1.183570269495248795e-02
3.556352853775024414e-02
2.301315590739250183e-02
2.593134716153144836e-02
1.641739904880523682e-02
7.311178743839263916e-02
5.715194717049598694e-02
4.848639667034149170e-02
5.478693172335624695e-03
1.400835663080215454e-01
6.872902810573577881e-02
-1.009169220924377441e-01
-3.314873948693275452e-02
1.179601997137069702e-01
7.895832508802413940e-02
8.145106583833694458e-02
1.753612770698964596e-03
4.991261661052703857e-02
1.400014013051986694e-01
-5.084018409252166748e-02
6.147517263889312744e-02
-7.634718716144561768e-02
-1.950128674507141113e-01
2.825162187218666077e-02
-1.098040677607059479e-02
-3.081706911325454712e-02
-1.834488473832607269e-03
3.680638596415519714e-02
6.631405558437108994e-03
-7.128653675317764282e-02
7.512541860342025757e-02
-1.183902611956000328e-03
2.833161316812038422e-02
-1.308350116014480591e-01
-1.122208163142204285e-01
-4.260901361703872681e-02
4.567136615514755249e-02
-7.048434577882289886e-03
1.442630887031555176e-01
-4.244987666606903076e-02
1.445380784571170807e-02
-2.366974577307701111e-02
9.888039529323577881e-02
-1.176120862364768982e-01
3.836467117071151733e-02
-5.313402414321899414e-02
4.399755038321018219e-03
-3.085361979901790619e-02
-3.298071399331092834e-02
4.208690486848354340e-03
1.119327619671821594e-01
4.227308556437492371e-03
-1.511886157095432281e-02
7.470409385859966278e-03
-5.404115468263626099e-02
-3.887697681784629822e-02
-4.941296949982643127e-02
1.189461257308721542e-02
9.701504372060298920e-03
-5.751604214310646057e-02
-6.954806158319115639e-04
9.861353039741516113e-02
3.224160894751548767e-02
-5.144489929080009460e-02
1.336522307246923447e-02
3.397602215409278870e-02
5.428192019462585449e-02
-3.464578092098236084e-02
6.049716100096702576e-02
6.615101546049118042e-02
-4.216618835926055908e-03
-6.302926340140402317e-04
-4.830975830554962158e-02
8.275868743658065796e-02
6.815791875123977661e-02
2.659085206687450409e-02
-6.713145226240158081e-02
-3.723024576902389526e-02
4.650190472602844238e-02
1.378321647644042969e-01
-3.592198342084884644e-02
-9.262339212000370026e-03
5.829881131649017334e-02
1.784041873179376125e-03
9.704637527465820312e-02
3.671877831220626831e-02
1.310131698846817017e-02
4.287782683968544006e-02
-4.404029250144958496e-02
2.845013886690139771e-02
3.238525241613388062e-02
-1.143640875816345215e-01
5.214402452111244202e-02
2.780529484152793884e-02
-3.056460991501808167e-02
-1.273559331893920898e-01
-4.392673075199127197e-02
7.559678703546524048e-02
1.677771210670471191e-01
6.459387391805648804e-02
1.021002302877604961e-03
-9.835193306207656860e-02
-6.691642105579376221e-03
-2.384966053068637848e-02
2.221315167844295502e-02
9.320651739835739136e-02
3.502407670021057129e-02
1.632156968116760254e-01
5.130817368626594543e-02
7.828441262245178223e-02
1.111442893743515015e-01
-7.033854722976684570e-02
4.951709508895874023e-02
1.268215477466583252e-01
7.245908677577972412e-02
-1.453704433515667915e-03
-4.192774370312690735e-02
1.022578179836273193e-01
-2.110855840146541595e-02
1.144782081246376038e-02
5.581466108560562134e-02
6.460582464933395386e-02
2.837245725095272064e-02
1.561737656593322754e-01
-5.240304395556449890e-02
-1.801222749054431915e-02
-1.443104892969131470e-01
-5.502160638570785522e-03
2.552313171327114105e-02
8.949629962444305420e-02
3.797670826315879822e-02
4.200327396392822266e-02
5.812025442719459534e-02
-6.879484653472900391e-02
8.376047760248184204e-02
3.770042583346366882e-02
2.045565843582153320e-02
-1.805704459547996521e-02
6.994403898715972900e-02
-1.341120619326829910e-02
5.858306773006916046e-03
5.144960433244705200e-02
-2.674696780741214752e-02
8.942236006259918213e-02
7.641462236642837524e-02
4.478076845407485962e-02
-9.408786892890930176e-02
-7.565366104245185852e-03
-2.000228501856327057e-02
5.888595059514045715e-02
-7.614517211914062500e-02
-6.771141290664672852e-02
3.523148596286773682e-02
-2.290558256208896637e-02
8.788989484310150146e-02
2.206550911068916321e-03
-3.924497216939926147e-02
3.016758337616920471e-02
6.135870143771171570e-02
1.051580756902694702e-01
1.005617827177047729e-01
-4.114650189876556396e-02
2.078373171389102936e-02
7.081819325685501099e-02
-5.718155577778816223e-02
-4.864157363772392273e-02
-2.613993175327777863e-02
6.395325064659118652e-02
6.605900824069976807e-02
9.571054577827453613e-02
-1.789854280650615692e-02
4.013847932219505310e-02
-5.834618955850601196e-02
-5.523867905139923096e-02
-3.174113109707832336e-02
4.001576080918312073e-02
-1.752871274948120117e-01
3.460852056741714478e-02
-7.004819810390472412e-02
-2.155938744544982910e-02
-7.935515046119689941e-02
6.847932189702987671e-02
4.707889258861541748e-02
-7.238426711410284042e-03
6.327443569898605347e-02
-1.383424550294876099e-02
4.982099402695894241e-03
5.031844601035118103e-03
-1.694467365741729736e-01
-1.943439990282058716e-02
6.943561881780624390e-02
2.712359651923179626e-02
-1.716506667435169220e-03
3.308525681495666504e-02
9.235165268182754517e-02
-1.684900745749473572e-02
-1.846237108111381531e-02
4.495950043201446533e-02
5.306948348879814148e-02
-6.747386604547500610e-02
-8.969268202781677246e-02
2.039460279047489166e-02
-1.662647575139999390e-01
7.199428975582122803e-02
-1.706212945282459259e-02
6.301791965961456299e-02
-1.286324579268693924e-02
-1.499737496487796307e-03
6.392949260771274567e-03
-3.817433491349220276e-02
-4.562352970242500305e-02
-1.678468100726604462e-02
7.005740702152252197e-02
-1.450150925666093826e-02
1.392146386206150055e-02
1.363841816782951355e-02
3.842949494719505310e-02
4.894762858748435974e-02
2.567584626376628876e-02
-4.137767944484949112e-03
-1.629679650068283081e-01
5.084377527236938477e-02
-3.929102793335914612e-02
8.250971138477325439e-02
-9.500019252300262451e-02
-6.726870685815811157e-02
1.226864084601402283e-01
-6.165941804647445679e-02
3.678568871691823006e-03
8.238530904054641724e-02
-6.153934821486473083e-02
3.065721131861209869e-02
2.588924206793308258e-02
7.319902628660202026e-02
4.938553646206855774e-02
6.590540707111358643e-02
-1.629702560603618622e-02
-1.078362576663494110e-02
-6.294988095760345459e-02
-3.128680167719721794e-03
-5.894710496068000793e-02
1.024513766169548035e-01
3.762462362647056580e-02
1.405700147151947021e-01
-2.929908968508243561e-02
2.571016317233443260e-03
-2.052993327379226685e-02
-1.725296862423419952e-02
9.176424145698547363e-02
4.619481042027473450e-03
5.289209261536598206e-02
2.053086645901203156e-02
-1.221540849655866623e-02
-3.686772659420967102e-03
-3.970955312252044678e-02
-3.284468129277229309e-02
-6.906296312808990479e-02
1.105079613626003265e-02
7.875453680753707886e-02
-3.087877295911312103e-02
8.118373155593872070e-02
-7.022151350975036621e-02
-3.011338785290718079e-02
-1.947593316435813904e-02
-1.254703998565673828e-01
4.475453495979309082e-02
-4.402374383062124252e-03
2.870532870292663574e-02
-3.605331853032112122e-02
-3.728481242433190346e-03
7.641627639532089233e-02
4.149491712450981140e-02
-6.982948631048202515e-02
1.183782964944839478e-01
-7.375758886337280273e-02
-3.568310663104057312e-02
-6.694362964481115341e-03
4.784748703241348267e-02
1.490336805582046509e-01
-1.601842492818832397e-01
-1.166543364524841309e-02
-5.236125737428665161e-02
-2.351592667400836945e-02
-3.177142515778541565e-02
1.703649014234542847e-01
-3.447052836418151855e-02
-7.433785498142242432e-02
3.428756445646286011e-02
-6.306676566600799561e-02
-5.003237724304199219e-02
2.286750674247741699e-01
-5.270211026072502136e-02
2.031093835830688477e-01
-1.355265825986862183e-02
-1.485095173120498657e-01
1.246467977762222290e-01
9.700135560706257820e-04
-7.738972455263137817e-02
8.253093808889389038e-02
5.849944800138473511e-02
3.744821622967720032e-02
-4.671686142683029175e-02
3.032601624727249146e-02
2.532837912440299988e-02
-2.125791087746620178e-02
-3.526571672409772873e-03
7.214501500129699707e-03
-9.098770469427108765e-02
9.071501903235912323e-03
-9.346407838165760040e-03
7.127080112695693970e-02
3.904612734913825989e-02
-2.121314639225602150e-03
-4.296134412288665771e-02
4.084892198443412781e-02
-2.255449816584587097e-02
-8.985984139144420624e-03
7.047997415065765381e-02
-7.870033383369445801e-03
1.093579530715942383e-01
3.230424597859382629e-02
-2.386137284338474274e-02
5.542903020977973938e-02
2.880924381315708160e-02
1.564737856388092041e-01
-6.440469622611999512e-02
-3.146193921566009521e-02
1.452259998768568039e-02
2.949270233511924744e-02
2.503442950546741486e-02
-5.894814059138298035e-02
4.740487784147262573e-02
1.099070347845554352e-02
7.057783007621765137e-02
2.689017727971076965e-02
7.831232249736785889e-02
-4.193417727947235107e-02
4.313107952475547791e-02
-3.948353230953216553e-02
-3.396916203200817108e-03
7.355946302413940430e-02
6.572876125574111938e-02
2.322316542267799377e-02
-1.777186617255210876e-02
-5.354866757988929749e-02
1.095884386450052261e-02
-3.421910852193832397e-02
1.082271710038185120e-02
1.054417118430137634e-01
-4.415812715888023376e-02
-3.072023391723632812e-02
2.090389467775821686e-02
3.941528871655464172e-02
7.476595789194107056e-02
-5.571887269616127014e-02
6.960247457027435303e-02
-1.395341660827398300e-02
5.478634312748908997e-02
4.935847222805023193e-02
3.218024037778377533e-03
-1.609433628618717194e-02
3.430686891078948975e-02
6.780606508255004883e-02
5.650515481829643250e-02
1.018638163805007935e-01
2.519530989229679108e-02
1.425747107714414597e-02
-2.164694108068943024e-02
-2.191895060241222382e-02
-8.523998782038688660e-03
2.976077049970626831e-02
1.690393388271331787e-01
6.486336141824722290e-02
1.077912095934152603e-02
1.222467646002769470e-01
-2.675362490117549896e-02
4.199886322021484375e-02
8.269380778074264526e-02
-4.774681758135557175e-03
-2.870282530784606934e-02
1.189836263656616211e-01
-1.424815412610769272e-02
-2.575768902897834778e-02
5.691546946763992310e-02
7.080907374620437622e-02
8.034125715494155884e-02
5.904786288738250732e-02
5.411832407116889954e-02
1.040456146001815796e-01
7.356882840394973755e-02
-5.732400342822074890e-02
1.500269304960966110e-02
3.432812541723251343e-02
-4.625057429075241089e-02
5.240441113710403442e-02
-1.579433530569076538e-01
1.993351243436336517e-02
-7.637526839971542358e-02
4.583854600787162781e-02
-7.020838558673858643e-02
-2.064049988985061646e-02
1.676604896783828735e-02
-8.835549652576446533e-02
-9.877938032150268555e-02
-3.188200667500495911e-02
-5.966829508543014526e-02
4.201863706111907959e-02
-2.907947264611721039e-02
-6.405585259199142456e-02
2.915513142943382263e-02
-4.201180115342140198e-02
5.395720526576042175e-02
-4.034266620874404907e-02
-3.461024165153503418e-02
-1.954159466549754143e-03
-7.643943279981613159e-02
-2.313829027116298676e-02
7.920601405203342438e-03
7.024791557341814041e-03
4.925765842199325562e-02
-1.389771997928619385e-01
2.392102032899856567e-02
-5.898002535104751587e-02
4.703599959611892700e-02
4.152237996459007263e-02
-2.756235376000404358e-02
-1.516639441251754761e-01
-6.395398173481225967e-03
-6.858516484498977661e-02
1.098998337984085083e-01
-1.515850722789764404e-01
-6.822574138641357422e-02
4.195237532258033752e-02
-6.729544699192047119e-02
2.150920405983924866e-02
-2.311886847019195557e-02
9.682177007198333740e-02
7.679361104965209961e-02
3.241282701492309570e-02
-2.783384360373020172e-02
-5.536105483770370483e-02
3.198764845728874207e-02
3.128217905759811401e-02
3.581651672720909119e-02
-4.416694492101669312e-02
4.016256704926490784e-02
1.050709933042526245e-01
-9.604058414697647095e-02
2.071405574679374695e-02
-1.846401952207088470e-02
-9.908818453550338745e-02
-1.084924302995204926e-02
-5.866114422678947449e-02
9.171884506940841675e-03
1.136102061718702316e-02
-1.562284585088491440e-02
-1.064766198396682739e-01
4.062331747263669968e-03
-2.379009732976555824e-03
-1.497413367033004761e-01
-2.471543662250041962e-02
1.115512661635875702e-02
-7.384837418794631958e-02
1.047648638486862183e-01
-7.980649918317794800e-02
-6.562759168446063995e-03
8.895731717348098755e-02
1.506579667329788208e-02
-1.107256934046745300e-01
-6.449826993048191071e-03
-4.274697601795196533e-02
-5.764299631118774414e-02
-1.123786717653274536e-01
4.883609944954514503e-04
4.741858318448066711e-02
8.986903354525566101e-03
-9.032686799764633179e-02
-7.393701374530792236e-02
-3.803761443123221397e-03
2.656126208603382111e-02
5.832915380597114563e-02
1.063068676739931107e-02
-3.909122571349143982e-02
-9.214600920677185059e-02
-6.007050350308418274e-02
7.681381423026323318e-03
6.101032719016075134e-02
-6.259099114686250687e-03
2.235450968146324158e-02
-7.720705866813659668e-02
5.463377386331558228e-02
3.955862671136856079e-02
4.145927354693412781e-02
-1.477046776562929153e-02
2.977235615253448486e-02
-2.316447906196117401e-02
-4.367362707853317261e-02
3.381759859621524811e-03
-2.779425866901874542e-02
-8.480383455753326416e-02
2.197730587795376778e-03
-6.233497336506843567e-02
1.130839884281158447e-01
-4.903221875429153442e-02
1.267426460981369019e-01
-2.226145006716251373e-02
-9.082801640033721924e-03
3.475828841328620911e-02
-6.419748812913894653e-02
-1.128763854503631592e-01
-3.708267211914062500e-02
1.074992194771766663e-01
7.433957606554031372e-02
-1.438037604093551636e-01
-4.862184450030326843e-02
6.957358121871948242e-02
-1.564898155629634857e-02
6.507673114538192749e-02
-7.843940705060958862e-02
-3.862433135509490967e-02
8.214090019464492798e-02
-5.276182666420936584e-02
-3.632619976997375488e-02
-1.075473129749298096e-01
-3.508822247385978699e-02
3.859076648950576782e-02
-3.476201742887496948e-02
-7.798840105533599854e-02
4.966928064823150635e-02
3.767834231257438660e-02
8.148109540343284607e-03
-3.988694772124290466e-02
3.940355777740478516e-02
3.913160786032676697e-02
2.058899030089378357e-02
1.690132357180118561e-02
-1.657386496663093567e-02
-4.107633978128433228e-02
4.455631598830223083e-02
2.744094235822558403e-03
8.763840049505233765e-02
1.345087192021310329e-03
-4.497483745217323303e-02
3.960777446627616882e-02
-2.050432749092578888e-02
3.029679879546165466e-02
8.774654567241668701e-02
-5.983477085828781128e-02
-9.173803776502609253e-02
5.356002971529960632e-02
-1.471563130617141724e-01
2.008377760648727417e-02
1.191088408231735229e-01
6.333203613758087158e-02
-9.734327322803437710e-04
-1.608427613973617554e-01
-5.372646078467369080e-02
1.368019543588161469e-02
4.968972504138946533e-02
-1.179033368825912476e-01
-1.548711508512496948e-01
1.319560594856739044e-02
3.401074185967445374e-02
4.933843761682510376e-02
-7.696841657161712646e-02
1.416804939508438110e-01
1.422071084380149841e-02
-1.802671253681182861e-01
5.335415154695510864e-02
-2.816731855273246765e-02
-3.610281273722648621e-02
-3.872382640838623047e-02
-3.576662018895149231e-02
-2.279542572796344757e-02
6.857531517744064331e-02
-1.521225422620773315e-01
-1.240056529641151428e-01
3.593171387910842896e-02
-8.344195038080215454e-02
-1.002651229500770569e-01
7.596987485885620117e-02
-2.263220027089118958e-02
-9.930643439292907715e-02
3.514113277196884155e-02
-1.384104788303375244e-01
4.274922609329223633e-02
-1.708794683218002319e-01
-7.402005139738321304e-03
-1.154387891292572021e-01
-1.688427582848817110e-04
3.860579803586006165e-02
1.043319478631019592e-01
5.348163470625877380e-02
-5.038093030452728271e-02
-1.115586981177330017e-01
1.237020548433065414e-02
6.452043354511260986e-02
4.244820738676935434e-04
-5.142071843147277832e-02
3.034583665430545807e-02
-1.209890283644199371e-02
-5.601555854082107544e-02
1.197592634707689285e-02
5.467584356665611267e-02
-2.818981558084487915e-02
3.547319024801254272e-02
-2.835421822965145111e-02
4.627807065844535828e-02
1.319730877876281738e-01
3.164318203926086426e-02
1.636235415935516357e-02
-1.499845460057258606e-02
-2.929933369159698486e-02
-3.660881146788597107e-02
5.128601938486099243e-02
-1.542860362678766251e-02
2.950504887849092484e-03
-6.592992693185806274e-02
-8.537804335355758667e-02
-5.496250838041305542e-02
7.274876534938812256e-02
4.912924766540527344e-02
-1.524774124845862389e-03
-2.037518098950386047e-02
6.607663631439208984e-02
5.328889191150665283e-02
-6.431129574775695801e-02
4.644433408975601196e-02
-9.160170704126358032e-02
-1.052245572209358215e-01
-5.959327518939971924e-02
-1.098199840635061264e-02
-2.023803628981113434e-02
1.356945186853408813e-01
-1.312270481139421463e-02
-5.956380441784858704e-02
-4.280892387032508850e-02
-4.007753729820251465e-02
-6.898628920316696167e-02
-3.361327573657035828e-02
2.490031160414218903e-02
5.490494519472122192e-02
3.852462768554687500e-02
5.902163684368133545e-02
1.541249454021453857e-01
1.114704553037881851e-02
-1.018407195806503296e-01
1.630048751831054688e-01
-1.768854446709156036e-02
-7.604727149009704590e-02
2.808998152613639832e-02
5.945717170834541321e-02
-8.078626543283462524e-02
-1.855678297579288483e-02
-8.740754425525665283e-02
-1.526423636823892593e-02
-5.036268755793571472e-02
-4.879503324627876282e-02
-4.253345727920532227e-02
-1.031916141510009766e-01
2.791012451052665710e-02
-3.318891301751136780e-02
-4.208559915423393250e-02
3.610778227448463440e-02
-9.219166636466979980e-02
6.768110394477844238e-02
-5.803443863987922668e-02
-2.888304181396961212e-02
-1.309424787759780884e-01
4.404581710696220398e-02
-1.016722396016120911e-01
5.048944056034088135e-02
5.229665338993072510e-02
-1.635778881609439850e-02
-5.381965637207031250e-02
-1.207862123847007751e-01
-9.883718937635421753e-02
-3.117657266557216644e-02
-9.944866597652435303e-02
-2.003949135541915894e-02
3.104313090443611145e-02
9.345819056034088135e-02
1.050650887191295624e-02
1.212127134203910828e-01
8.703813888132572174e-03
-9.156680852174758911e-02
-1.512256115674972534e-01
-1.497446745634078979e-01
4.802815616130828857e-02
1.768993027508258820e-02
-5.334143340587615967e-02
2.777965366840362549e-02
-4.738517478108406067e-02
-1.713497750461101532e-02
2.871328033506870270e-02
-6.347073614597320557e-02
1.030666474252939224e-02
-5.741427838802337646e-02
-6.282930076122283936e-02
-3.087697178125381470e-02
5.949046090245246887e-02
-9.982346557080745697e-03
-4.196624457836151123e-02
-6.505525857210159302e-02
5.939754471182823181e-02
3.604678064584732056e-02
-2.390734106302261353e-02
-7.873248308897018433e-02
6.987100094556808472e-02
-4.260745644569396973e-02
-7.278681546449661255e-02
2.224005386233329773e-02
2.218736708164215088e-02
-4.186990112066268921e-02
-2.889709919691085815e-02
-6.539233028888702393e-02
-7.820946723222732544e-02
-9.122815728187561035e-02
-7.438874244689941406e-02
8.433200418949127197e-02
1.015743762254714966e-01
1.747306995093822479e-02
1.660261861979961395e-02
-1.025117859244346619e-01
-8.886522054672241211e-02
-2.346205711364746094e-02
-6.607028841972351074e-02
-1.267416924238204956e-01
-6.325910985469818115e-02
-4.827996343374252319e-02
5.226415023207664490e-02
1.888909726403653622e-03
-6.951680779457092285e-02
4.867357015609741211e-02
2.519216388463973999e-02
2.802338451147079468e-02
6.191287934780120850e-02
1.174139045178890228e-02
-2.492759004235267639e-02
4.180567339062690735e-02
-2.038092911243438721e-02
4.790604487061500549e-02
4.796876385807991028e-02
-5.352576728910207748e-03
-4.132864065468311310e-03
-9.266774356365203857e-02
6.458224263042211533e-03
-2.804308570921421051e-02
-8.261231333017349243e-02
-4.202774167060852051e-02
-1.011074632406234741e-01
9.464671462774276733e-02
-1.753540188074111938e-01
1.758576743304729462e-02
-1.710132658481597900e-01
2.148567140102386475e-02
4.818684980273246765e-02
-5.408295243978500366e-02
-2.594388462603092194e-02
8.085364103317260742e-02
-6.296250969171524048e-02
-1.223087310791015625e-02
-5.335233174264431000e-03
-6.823126226663589478e-02
-4.363514482975006104e-02
-1.529984474182128906e-01
2.555244788527488708e-02
1.186472084373235703e-02
-6.835096329450607300e-02
1.563328877091407776e-02
-6.555541604757308960e-02
1.526675671339035034e-01
2.517185173928737640e-02
1.074374280869960785e-02
4.071903601288795471e-02
-2.807179465889930725e-02
-6.238646060228347778e-02
-1.194294840097427368e-01
3.194741532206535339e-02
4.954781383275985718e-03
-6.427370011806488037e-02
-1.486071497201919556e-01
-2.540328167378902435e-02
-5.208081752061843872e-02
-4.255107790231704712e-02
-1.620651595294475555e-02
2.489096485078334808e-02
6.281510461121797562e-03
-7.599552720785140991e-02
9.606090188026428223e-02
1.723800972104072571e-02
-2.005167603492736816e-01
-6.888872385025024414e-02
-8.045006543397903442e-02
6.012264639139175415e-02
-1.310945451259613037e-01
6.813817471265792847e-02
-1.275727525353431702e-02
2.645865827798843384e-02
-5.164195597171783447e-02
-7.242204155772924423e-03
-1.202959194779396057e-01
-1.160958632826805115e-01
-1.122945640236139297e-02
2.963202260434627533e-02
8.817220479249954224e-02
-1.010581036098301411e-03
6.688000261783599854e-02
3.157833963632583618e-02
9.200458228588104248e-02
-3.367237746715545654e-02
3.371746465563774109e-02
5.036559700965881348e-02
-3.494335338473320007e-02
1.335094496607780457e-02
-1.056617200374603271e-01
-9.946961887180805206e-03
6.767857074737548828e-02
3.802262945100665092e-03
2.810765244066715240e-02
-7.229217141866683960e-02
-8.014558255672454834e-02
-1.793890632688999176e-02
-2.551623992621898651e-02
-8.296788670122623444e-03
-1.078536584973335266e-01
4.025767371058464050e-02
-1.846303045749664307e-02
5.739490315318107605e-02
6.410648673772811890e-02
-3.516689687967300415e-02
-1.786756515502929688e-01
-5.569778848439455032e-03
-2.208997122943401337e-02
6.707181781530380249e-02
3.664820641279220581e-02
-7.722509652376174927e-02
-2.068199962377548218e-02
3.431164100766181946e-02
-1.758429259061813354e-01
-1.048028189688920975e-02
-4.572387784719467163e-02
-7.189846131950616837e-03
3.891770169138908386e-02
-1.412624865770339966e-01
1.887282729148864746e-01
8.912932127714157104e-02
-1.008251495659351349e-02
7.767474651336669922e-02
1.395581383258104324e-02
-1.659173816442489624e-01
-1.114249154925346375e-01
-1.335876993834972382e-02
3.012213110923767090e-02
-5.150506645441055298e-02
-1.069384720176458359e-02
5.963541101664304733e-03
1.644456200301647186e-02
-7.214109599590301514e-02
-1.498632133007049561e-01
1.253590136766433716e-01
-6.681019812822341919e-02
-7.172893732786178589e-02
-4.393323510885238647e-02
-2.710036635398864746e-01
-3.552121669054031372e-02
1.509719938039779663e-01
1.059127785265445709e-02
9.742620587348937988e-02
-4.593273624777793884e-02
3.179189981892704964e-03
-4.542879015207290649e-02
5.606432259082794189e-02
1.636286266148090363e-02
1.400095671415328979e-01
9.726528823375701904e-02
1.004231721162796021e-01
1.317977998405694962e-02
-4.464457929134368896e-02
4.341632500290870667e-02
-2.037248341366648674e-03
1.135499030351638794e-01
7.623602170497179031e-03
-1.412845104932785034e-01
-9.281923994421958923e-03
2.067135833203792572e-02
-8.225030452013015747e-02
-8.046685159206390381e-02
3.679915145039558411e-02
2.313076704740524292e-01
1.182408258318901062e-01
1.969016157090663910e-02
-3.520021587610244751e-02
-4.418663680553436279e-02
9.813565760850906372e-02
-2.133156731724739075e-02
-9.924446791410446167e-02
1.354260742664337158e-01
6.531834602355957031e-03
-1.098326146602630615e-01
-6.335477810353040695e-03
5.200668051838874817e-02
1.113073807209730148e-02
9.343706071376800537e-02
2.227253653109073639e-02
3.915994986891746521e-02
2.725106896832585335e-03
1.222844645380973816e-01
9.526793658733367920e-02
-4.004031419754028320e-03
3.995825350284576416e-02
-7.996961474418640137e-02
-8.074373006820678711e-02
-8.182977139949798584e-02
-1.518636103719472885e-02
1.059517078101634979e-02
-5.532224103808403015e-02
1.213862597942352295e-01
5.220753699541091919e-02
5.908909440040588379e-02
-6.361388415098190308e-02
-2.706430293619632721e-02
-2.181036956608295441e-02
-2.645578049123287201e-02
9.355726093053817749e-02
-5.238959938287734985e-02
-1.049814596772193909e-01
-1.331020444631576538e-01
3.751679509878158569e-02
-3.985862433910369873e-02
4.947087168693542480e-02
-1.025828048586845398e-01
-1.349270194768905640e-01
-3.427579626441001892e-02
-7.149747014045715332e-02
-7.229237258434295654e-02
1.587615720927715302e-02
1.419999916106462479e-02
-6.354742497205734253e-02
-3.502114117145538330e-02
5.701259896159172058e-02
1.093258038163185120e-01
2.130728960037231445e-02
1.479344675317406654e-03
7.246381137520074844e-03
-3.533114865422248840e-02
1.419416218996047974e-01
-8.562950044870376587e-02
-1.219441518187522888e-01
1.084090173244476318e-01
-7.790622115135192871e-02
-7.811162620782852173e-02
-1.148478537797927856e-01
-6.558853387832641602e-02
-1.259849667549133301e-01
-1.374676544219255447e-02
5.565531551837921143e-02
-9.425726719200611115e-03
-2.420426718890666962e-02
-1.096755862236022949e-01
9.893646091222763062e-02
-3.378291428089141846e-02
3.727754950523376465e-02
-4.049480706453323364e-02
-9.316793084144592285e-02
-1.090637147426605225e-01
3.708336129784584045e-02
-3.504101559519767761e-02
3.256403282284736633e-02
-5.211019143462181091e-02
9.804521687328815460e-03
3.030089288949966431e-02
-1.125091910362243652e-01
5.206203088164329529e-02
1.106250379234552383e-02
8.782065473496913910e-03
-3.329999372363090515e-02
7.205065339803695679e-03
7.174468785524368286e-02
-9.363397955894470215e-02
7.102255523204803467e-02
1.658153161406517029e-02
-1.108380556106567383e-01
2.199975587427616119e-02
-2.541219256818294525e-02
-4.796969704329967499e-03
7.403858751058578491e-02
-1.945328339934349060e-02
-6.235338374972343445e-02
-3.927499800920486450e-02
-1.107224747538566589e-01
-3.613654896616935730e-02
-7.562931627035140991e-02
3.998980298638343811e-02
-1.770256012678146362e-01
9.358128905296325684e-02
1.184633448719978333e-01
2.793306298553943634e-02
7.106725126504898071e-02
5.278150364756584167e-02
-4.860130697488784790e-02
9.607252664864063263e-03
-9.227854758501052856e-02
2.420535124838352203e-02
4.292367771267890930e-02
6.567362695932388306e-03
1.578602753579616547e-02
-9.447139501571655273e-02
9.679641574621200562e-02
3.553938120603561401e-02
-1.554362196475267410e-02
-6.904111243784427643e-03
6.956590712070465088e-02
2.030423842370510101e-02
3.554775565862655640e-02
1.167406216263771057e-01
2.970468066632747650e-02
-3.813956677913665771e-02
-5.068220943212509155e-02
2.175936847925186157e-02
1.164880320429801941e-01
-8.012332022190093994e-03
3.059801086783409119e-02
7.434476912021636963e-02
9.830098599195480347e-02
-7.849162071943283081e-02
2.227341756224632263e-02
5.278786271810531616e-02
7.001525908708572388e-02
-2.748597785830497742e-02
2.809079596772789955e-03
4.827098920941352844e-02
-3.109323233366012573e-02
-6.453550606966018677e-02
-1.313083320856094360e-01
5.013103038072586060e-02
-1.285151205956935883e-02
-4.814598336815834045e-02
-9.130004793405532837e-02
1.551357358694076538e-01
-7.057970017194747925e-02
-7.817350327968597412e-02
-4.225517436861991882e-02
-9.094383567571640015e-03
1.508779078722000122e-01
-2.045850828289985657e-02
2.134015038609504700e-02
5.020333826541900635e-02
3.548117354512214661e-02
-2.115003950893878937e-02
3.266182541847229004e-02
6.975877285003662109e-02
2.021478861570358276e-01
-3.996175900101661682e-02
2.654887549579143524e-02
9.061733633279800415e-02
5.366554856300354004e-02
-2.307339198887348175e-02
1.178521588444709778e-01
-1.179676651954650879e-01
-1.040081083774566650e-01
-9.129379689693450928e-02
-9.149865061044692993e-02
9.017588943243026733e-02
-6.225678324699401855e-02
4.816095158457756042e-02
-3.035536408424377441e-02
8.674070239067077637e-02
-1.509608700871467590e-03
8.020287007093429565e-02
5.836928635835647583e-02
3.442092984914779663e-02
1.028443202376365662e-01
-1.678782142698764801e-02
-2.531088702380657196e-02
-5.272089317440986633e-02
7.053570449352264404e-02
1.933037489652633667e-02
9.176093339920043945e-02
-5.059425532817840576e-02
9.312957525253295898e-02
1.105049252510070801e-02
2.219566702842712402e-02
5.778122320771217346e-02
-3.644155710935592651e-02
-8.655235171318054199e-02
1.019027922302484512e-02
4.195119068026542664e-02
-7.030908018350601196e-02
-3.119702450931072235e-02
1.022324040532112122e-01
7.597502321004867554e-02
-1.063741371035575867e-01
6.937237083911895752e-02
-4.100226238369941711e-02
3.088401444256305695e-02
4.941289499402046204e-02
2.251093275845050812e-02
-2.075430154800415039e-01
-9.297974407672882080e-03
-1.727825030684471130e-02
6.360040605068206787e-02
-1.371901016682386398e-02
-2.403773367404937744e-02
8.815800398588180542e-02
-1.890512928366661072e-02
-2.451558969914913177e-02
8.019740134477615356e-02
-2.465731278061866760e-02
1.026917621493339539e-01
-6.694208830595016479e-02
6.194428354501724243e-02
-5.056729167699813843e-02
-2.485507726669311523e-02
1.372080743312835693e-01
1.263794302940368652e-01
5.884508602321147919e-03
-7.258439809083938599e-02
4.770813509821891785e-02
1.440827697515487671e-01
1.076232939958572388e-01
-1.069610044360160828e-01
-3.699310123920440674e-02
1.588531211018562317e-02
2.030307613313198090e-02
2.283491566777229309e-02
2.027520723640918732e-02
-4.041861370205879211e-02
6.454409565776586533e-03
-2.041617874056100845e-03
1.761640235781669617e-02
-1.424836367368698120e-02
1.949782716110348701e-03
3.994898288510739803e-04
3.768203780055046082e-02
-5.115593969821929932e-02
7.677541673183441162e-02
-7.669725921005010605e-03
5.716800317168235779e-02
-1.142141688615083694e-02
2.220427803695201874e-02
3.076977445743978024e-04
4.322683066129684448e-02
6.688232719898223877e-02
1.501396000385284424e-01
-4.622391983866691589e-02
-6.695824861526489258e-02
2.619988983497023582e-03
-2.085514925420284271e-02
-6.138908118009567261e-02
8.726423978805541992e-02
-1.198596060276031494e-01
-4.350638017058372498e-02
-3.145756572484970093e-02
1.144047593697905540e-03
7.175869494676589966e-02
-2.243891358375549316e-02
-1.563318520784378052e-01
-1.393402963876724243e-01
-9.126433730125427246e-02
6.794349849224090576e-02
-8.474989980459213257e-02
-1.480794232338666916e-02
6.837917864322662354e-02
-6.052017584443092346e-02
-8.516872674226760864e-02
9.041132405400276184e-03
-1.939911246299743652e-01
-7.628040388226509094e-03
6.273727864027023315e-02
-2.148140035569667816e-02
-5.361732468008995056e-02
5.443174391984939575e-02
-2.831167727708816528e-02
-2.872750395908951759e-03
2.950231917202472687e-02
1.581417396664619446e-02
1.099397540092468262e-01
-1.200269013643264771e-01
-9.938248246908187866e-02
-1.664709597826004028e-01
1.009292621165513992e-02
-3.511111438274383545e-02
-9.441692382097244263e-03
-1.023429911583662033e-02
5.119065567851066589e-02
-1.022744402289390564e-01
4.163488373160362244e-02
4.778297245502471924e-02
-5.375648289918899536e-02
8.601143211126327515e-02
-4.447616636753082275e-02
-3.031428530812263489e-02
2.211560495197772980e-02
1.052491739392280579e-01
7.830265909433364868e-02
-1.203319057822227478e-01
-9.823180735111236572e-02
5.258336663246154785e-02
-7.892027497291564941e-02
-5.540217459201812744e-02
-6.334199011325836182e-02
4.380787536501884460e-02
-3.118597716093063354e-02
-1.506302412599325180e-02
9.709372371435165405e-02
-2.200808376073837280e-02
3.978384658694267273e-02
-5.055158585309982300e-02
3.789761662483215332e-02
4.351811483502388000e-02
1.341270864941179752e-03
3.101508878171443939e-02
1.548806391656398773e-02
4.552442580461502075e-02
-1.832625828683376312e-02
4.161016643047332764e-02
4.576085135340690613e-02
-9.956143051385879517e-02
1.899383589625358582e-02
-1.939000189304351807e-02
-1.157011743634939194e-02
-1.545990910381078720e-02
1.197069510817527771e-01
5.896985065191984177e-03
-5.982539802789688110e-02
2.692723572254180908e-01
8.633679896593093872e-02
6.961897760629653931e-02
-6.447944790124893188e-02
9.724251180887222290e-02
3.657766804099082947e-02
4.221305996179580688e-02
2.919363975524902344e-02
6.534877233207225800e-03
1.437183022499084473e-01
1.876370515674352646e-03
7.068933546543121338e-02
6.769601255655288696e-03
3.057019039988517761e-02
1.298155914992094040e-02
-8.708189427852630615e-02
-4.642001911997795105e-02
-1.660007052123546600e-02
1.005940586328506470e-01
-1.027825996279716492e-01
-4.809230100363492966e-03
5.532118678092956543e-02
3.088623099029064178e-02
1.057267561554908752e-02
-3.901509195566177368e-02
-4.190471023321151733e-02
-5.554801225662231445e-02
-5.953964963555335999e-02
6.956078112125396729e-02
-6.351629644632339478e-02
1.539665739983320236e-02
-5.356252565979957581e-02
1.083323508501052856e-01
-1.065368205308914185e-01
-1.959040015935897827e-02
-2.205697074532508850e-02
1.106140613555908203e-01
2.768328599631786346e-02
-2.798652276396751404e-02
-3.017957694828510284e-02
4.363653063774108887e-02
1.332637574523687363e-02
-4.216755181550979614e-02
-3.665198758244514465e-02
2.316568233072757721e-02
4.322436079382896423e-02
-8.735395222902297974e-02
-7.567869871854782104e-02
-5.560404621064662933e-03
8.315681666135787964e-02
-4.344306513667106628e-02
2.809551358222961426e-02
-3.578289598226547241e-02
3.319504112005233765e-02
-1.518498808145523071e-01
7.377905398607254028e-02
1.574971675872802734e-01
-9.749247692525386810e-03
-8.514315821230411530e-03
-8.310674875974655151e-02
-2.768317982554435730e-02
-4.130763560533523560e-02
9.331931918859481812e-02
-4.499749839305877686e-02
-9.863629192113876343e-02
8.565378189086914062e-02
1.852538287639617920e-01
-5.072588566690683365e-03
-2.089532651007175446e-02
5.698515847325325012e-02
1.075892150402069092e-01
-1.954692602157592773e-02
-5.034148320555686951e-02
-6.312035769224166870e-02
9.076266735792160034e-02
-1.129122227430343628e-01
-3.751296922564506531e-02
1.769120544195175171e-01
9.127909690141677856e-02
7.141481339931488037e-02
7.569152116775512695e-02
2.943480946123600006e-02
-4.429971426725387573e-02
2.494946308434009552e-02
1.150990873575210571e-01
8.761712163686752319e-02
-1.515228487551212311e-02
-3.685988485813140869e-02
-1.121256276965141296e-01
-1.076237708330154419e-01
-5.879361182451248169e-02
-2.672654809430241585e-03
1.861596703529357910e-01
4.737200960516929626e-02
-6.244945526123046875e-02
-5.613540112972259521e-02
-4.894756525754928589e-02
9.856456518173217773e-02
-3.007013164460659027e-02
3.579741716384887695e-02
-9.042047895491123199e-03
9.119466692209243774e-02
-1.753131859004497528e-02
-1.560464221984148026e-02
1.110953688621520996e-01
-7.567022740840911865e-02
-5.601463466882705688e-02
1.233283951878547668e-01
2.803096547722816467e-03
-9.667511098086833954e-03
-1.315200142562389374e-02
4.039398394525051117e-03
-5.899346619844436646e-02
-4.987476859241724014e-03
-1.611279882490634918e-02
-7.282083481550216675e-02
-8.978979167295619845e-05
-5.782958865165710449e-02
4.016568139195442200e-02
4.467911273241043091e-02
1.199532579630613327e-02
9.617538005113601685e-02
1.180485337972640991e-01
-7.160625606775283813e-02
4.597808793187141418e-02
9.792624972760677338e-03
-1.361013110727071762e-02
3.243800252676010132e-02
-1.914185881614685059e-01
-4.176908638328313828e-03
-2.653687074780464172e-02
2.331276088953018188e-01
3.163189068436622620e-02
-3.691509738564491272e-02
1.414435207843780518e-01
-4.081182647496461868e-03
6.628995388746261597e-02
2.556207776069641113e-02
3.338831290602684021e-02
-6.458755116909742355e-03
-9.442011266946792603e-02
1.281194537878036499e-01
2.790541574358940125e-02
-9.455192089080810547e-02
-1.028985381126403809e-01
2.799690701067447662e-02
-1.439467910677194595e-02
-6.824212521314620972e-02
1.605410128831863403e-02
8.000151067972183228e-02
1.151782646775245667e-01
-1.602174900472164154e-02
-2.394526265561580658e-02
-1.904297061264514923e-02
9.141896665096282959e-02
-7.183647155761718750e-02
9.311723709106445312e-02
-7.112684100866317749e-02
-3.896918892860412598e-02
1.640046015381813049e-02
-8.007869124412536621e-02
1.205706736072897911e-03
-9.288350492715835571e-02
-1.166175119578838348e-03
-8.915435522794723511e-03
8.275023102760314941e-02
-3.070312365889549255e-02
-3.319490700960159302e-02
-6.003430858254432678e-02
1.769951730966567993e-02
-8.922160416841506958e-02
9.645139798521995544e-03
-1.219178140163421631e-01
-2.144258702173829079e-03
-1.391757577657699585e-01
5.200418084859848022e-02
2.368052862584590912e-02
1.407339423894882202e-01
-2.467049211263656616e-01
3.270633518695831299e-02
8.818797767162322998e-02
8.659051358699798584e-02
-2.056530863046646118e-02
-3.684680908918380737e-03
6.770561635494232178e-02
-1.999871246516704559e-02
2.646218240261077881e-02
-5.593642964959144592e-02
1.270145475864410400e-01
-1.265752613544464111e-01
-9.206749498844146729e-03
1.147689297795295715e-01
3.840811550617218018e-02
1.109911799430847168e-01
-3.319635987281799316e-02
-4.255960881710052490e-02
-1.276478823274374008e-02
1.212323531508445740e-01
-5.570282228291034698e-03
1.339207054115831852e-03
3.769478574395179749e-02
4.132074117660522461e-02
3.553001210093498230e-02
5.049631744623184204e-02
1.207267642021179199e-01
-1.263060234487056732e-02
9.207296185195446014e-03
1.089531406760215759e-01
6.737013906240463257e-02
-9.712919592857360840e-02
-9.299048222601413727e-03
-6.051646545529365540e-02
-7.907631993293762207e-02
5.092988908290863037e-02
1.499262005090713501e-01
6.862009409815073013e-03
-7.520492374897003174e-02
-5.427475646138191223e-02
6.452023983001708984e-02
2.005820535123348236e-02
5.902832746505737305e-02
1.496065221726894379e-02
-3.781019896268844604e-02
-9.156649932265281677e-03
1.996531039476394653e-01
1.352939605712890625e-01
6.530299782752990723e-02
-7.898145169019699097e-02
2.304718643426895142e-02
-2.683362178504467010e-02
-5.743385851383209229e-02
-6.571550667285919189e-02
-7.361031323671340942e-02
-2.373775094747543335e-02
-1.812266558408737183e-02
4.142044112086296082e-02
-7.165423035621643066e-02
4.246077686548233032e-02
-3.405355662107467651e-02
-2.930988930165767670e-02
1.165271401405334473e-01
-1.305477768182754517e-01
-7.294648885726928711e-02
1.188390105962753296e-01
-8.269328624010086060e-02
-3.324905037879943848e-02
-1.266221795231103897e-02
-6.791440397500991821e-02
-4.883438348770141602e-02
-9.992904216051101685e-02
8.404821157455444336e-02
-1.044567003846168518e-01
-1.510903891175985336e-02
-6.866371631622314453e-02
-6.070990860462188721e-02
9.151862934231758118e-03
1.371750533580780029e-01
-4.595031496137380600e-03
1.749014109373092651e-01
1.546711311675608158e-03
-1.741237044334411621e-01
-9.261335432529449463e-02
1.231127530336380005e-01
-4.834648966789245605e-02
-4.491105303168296814e-02
-5.097157135605812073e-02
2.835097536444664001e-02
2.189058065414428711e-02
1.763786002993583679e-02
-4.932239279150962830e-02
1.778120994567871094e-01
-9.071327745914459229e-02
1.890546642243862152e-03
3.636611998081207275e-02
-2.389082312583923340e-02
-3.247601166367530823e-02
5.197766050696372986e-02
-5.994077771902084351e-02
-1.690109074115753174e-01
4.997809976339340210e-02
-1.047529559582471848e-02
-7.181007415056228638e-02
1.542988717555999756e-01
9.950342774391174316e-02
1.226642914116382599e-02
-7.372242212295532227e-02
-2.050533890724182129e-02
-1.835035532712936401e-02
2.609428018331527710e-02
-1.432545483112335205e-02
-2.990924566984176636e-02
2.084587514400482178e-02
6.709052622318267822e-02
5.834898725152015686e-02
7.547404617071151733e-02
1.475604772567749023e-01
6.247625127434730530e-02
1.024307906627655029e-01
-1.091232057660818100e-02
6.166007369756698608e-02
3.007704578340053558e-02
1.402861475944519043e-01
-6.496838480234146118e-02
-8.643086766824126244e-04
-2.514359168708324432e-02
2.045545959845185280e-03
1.355555206537246704e-01
-2.999193035066127777e-02
-7.313031703233718872e-02
8.648616261780261993e-03
4.526100307703018188e-02
6.784799974411725998e-03
-1.894424669444561005e-02
1.056537777185440063e-01
8.299861103296279907e-02
-5.270273890346288681e-03
-1.142151802778244019e-01
-1.923293061554431915e-02
-6.218909844756126404e-02
1.699759960174560547e-01
4.278624057769775391e-02
-7.380375266075134277e-02
4.585494473576545715e-02
-1.643943041563034058e-02
6.124739721417427063e-02
7.411674410104751587e-02
-5.223836004734039307e-02
5.365909077227115631e-03
-2.475332096219062805e-02
1.885105669498443604e-02
3.815791383385658264e-02
1.907991431653499603e-02
3.173423185944557190e-02
4.116484150290489197e-02
6.486413069069385529e-03
4.779552295804023743e-02
-6.324022542685270309e-03
-2.241080813109874725e-02
7.385998964309692383e-02
3.311458602547645569e-02
-1.239696145057678223e-02
5.310226976871490479e-02
-3.475126624107360840e-02
-3.158126398921012878e-02
-3.194633126258850098e-02
-1.835383474826812744e-01
3.228484839200973511e-02
6.745808292180299759e-03
8.099064230918884277e-02
-2.962331473827362061e-02
-5.491920933127403259e-02
2.259921841323375702e-02
1.894168369472026825e-02
4.491497948765754700e-02
-5.711998417973518372e-02
-3.602988272905349731e-02
3.473462164402008057e-02
5.553620681166648865e-02
-1.219967752695083618e-02
-2.060513477772474289e-03
-6.991790235042572021e-02
5.351904034614562988e-02
1.032403707504272461e-01
-5.210020393133163452e-02
-4.010447114706039429e-02
-1.276449952274560928e-02
2.940597757697105408e-02
5.807322263717651367e-02
1.274340134114027023e-02
-5.889986059628427029e-04
1.893895678222179413e-02
-4.065592214465141296e-02
8.655669540166854858e-02
2.759483642876148224e-02
9.660077095031738281e-02
-8.681248873472213745e-02
-4.159850254654884338e-02
3.495980985462665558e-03
2.705490030348300934e-02
5.438412725925445557e-02
-1.315045654773712158e-01
2.390567027032375336e-02
1.193516794592142105e-02
3.139234334230422974e-02
-7.779087126255035400e-02
6.927873939275741577e-02
9.828435629606246948e-02
1.737356372177600861e-02
9.412303566932678223e-02
3.214978799223899841e-02
4.789579659700393677e-02
-5.005846917629241943e-02
7.323766127228736877e-03
4.397320002317428589e-02
3.761073946952819824e-02
-7.719670981168746948e-02
-8.461038582026958466e-03
7.511512935161590576e-02
-8.432930335402488708e-04
-6.002082675695419312e-02
-6.545055191963911057e-03
-3.096058592200279236e-02
-2.669899910688400269e-02
-1.170610710978507996e-01
1.046211421489715576e-01
4.996114294044673443e-04
-2.968820929527282715e-02
2.283566631376743317e-02
-2.720302715897560120e-02
2.839556336402893066e-02
3.504372388124465942e-02
-2.430345490574836731e-02
-9.712664783000946045e-02
-1.794899627566337585e-02
1.077468022704124451e-01
4.719245806336402893e-02
-2.895667031407356262e-02
5.000268295407295227e-02
-1.540609821677207947e-02
8.887477219104766846e-02
4.387665539979934692e-02
6.625454872846603394e-02
1.954872757196426392e-01
6.115931272506713867e-02
9.629295021295547485e-02
2.512157894670963287e-02
-5.816724896430969238e-02
2.117482014000415802e-02
7.558508217334747314e-02
1.279497444629669189e-01
1.248839423060417175e-01
-2.984764240682125092e-02
3.588681668043136597e-02
1.559458766132593155e-02
4.467097111046314240e-03
-1.355655677616596222e-02
4.973461851477622986e-02
1.396647281944751740e-02
5.626432597637176514e-02
-4.516103118658065796e-02
1.962855085730552673e-02
-2.903739921748638153e-03
-4.231970384716987610e-02
1.270076930522918701e-01
-2.900409139692783356e-02
3.900813683867454529e-02
-3.528323397040367126e-02
-5.057917535305023193e-02
4.827477782964706421e-02
2.244404517114162445e-02
2.116778492927551270e-02
2.593378536403179169e-02
-4.300307109951972961e-02
-1.639124937355518341e-02
-6.732977181673049927e-02
-5.823431909084320068e-02
-1.034444496035575867e-01
3.742076829075813293e-02
-6.593413650989532471e-03
5.127036944031715393e-02
-4.633542895317077637e-02
-6.815898418426513672e-02
1.749286055564880371e-02
3.298243880271911621e-02
1.476798392832279205e-02
-1.006632857024669647e-02
-5.819592997431755066e-02
-8.312866836786270142e-02
-6.682278960943222046e-02
6.784278154373168945e-02
1.121772080659866333e-01
2.819201909005641937e-02
-2.567474730312824249e-02
7.974754273891448975e-02
1.095047499984502792e-02
-5.742833390831947327e-02
1.372969001531600952e-01
-3.854170441627502441e-02
-8.723455481231212616e-03
-1.105849593877792358e-01
5.403068289160728455e-02
3.172643855214118958e-02
-2.369899675250053406e-02
-4.896445199847221375e-02
4.658756777644157410e-02
8.868291042745113373e-03
9.190931916236877441e-03
-5.598796159029006958e-02
2.924862504005432129e-02
2.447509206831455231e-02
-5.592687800526618958e-02
1.194537471747025847e-04
-1.082338206470012665e-02
3.144456073641777039e-02
-1.689770072698593140e-02
-1.090530306100845337e-02
2.960570901632308960e-02
1.045397147536277771e-01
6.984326057136058807e-03
8.790144324302673340e-02
2.790801227092742920e-02
9.039440006017684937e-02
-5.042268894612789154e-04
-7.351563125848770142e-02
-1.124645397067070007e-02
-1.677872933214530349e-04
1.967694796621799469e-02
4.426695406436920166e-02
2.093028090894222260e-02
1.376870670355856419e-03
9.029597043991088867e-02
1.528952717781066895e-01
-7.907299697399139404e-02
1.195151433348655701e-01
2.486648410558700562e-02
-7.582819461822509766e-02
2.013597171753644943e-03
4.736716859042644501e-03
7.572318613529205322e-02
-2.708158222958445549e-03
-3.461284562945365906e-02
-7.815193384885787964e-03
7.556352019309997559e-02
2.074806718155741692e-03
5.995564535260200500e-02
8.257351070642471313e-02
1.235089078545570374e-02
-4.054117947816848755e-02
7.687219232320785522e-02
5.031912028789520264e-02
-1.673128455877304077e-02
4.541410878300666809e-02
3.622215986251831055e-02
1.276158168911933899e-02
-7.305137813091278076e-02
-3.204887360334396362e-02
2.589302137494087219e-03
-6.585332006216049194e-02
-1.263314159587025642e-03
1.202658563852310181e-02
-6.119743362069129944e-02
-6.191292405128479004e-02
3.571972250938415527e-02
-2.823003008961677551e-02
7.939945906400680542e-02
5.050472915172576904e-02
3.836422786116600037e-02
-1.836804673075675964e-02
4.065851494669914246e-02
1.808577477931976318e-01
-9.129647910594940186e-02
-9.355489164590835571e-03
8.017931133508682251e-02
3.938400372862815857e-02
-4.846244677901268005e-02
3.283806517720222473e-02
6.997123826295137405e-03
-1.259667915292084217e-03
7.981168478727340698e-02
-4.198022931814193726e-02
6.092218309640884399e-02
1.634135469794273376e-02
8.199659176170825958e-03
-2.415023557841777802e-02
6.367002427577972412e-02
2.035820111632347107e-02
-6.306596845388412476e-02
4.021586477756500244e-02
3.587808459997177124e-03
-1.218257322907447815e-01
4.857971146702766418e-02
-1.056298688054084778e-01
4.169184342026710510e-02
6.026264652609825134e-02
-4.953156411647796631e-02
1.357644703239202499e-02
3.503396641463041306e-03
7.066406775265932083e-03
-2.547710575163364410e-02
-5.694424267858266830e-03
-1.650780439376831055e-02
1.398273836821317673e-02
4.833427071571350098e-02
9.618058800697326660e-02
-1.041207909584045410e-01
2.124278992414474487e-02
7.085283845663070679e-02
3.758772462606430054e-02
-3.376087639480829239e-03
8.616375178098678589e-02
-1.965823024511337280e-02
-7.207809388637542725e-02
1.032959669828414917e-03
-7.444721646606922150e-03
6.511076539754867554e-02
2.295742556452751160e-02
8.922315202653408051e-03
8.458392322063446045e-02
1.004234142601490021e-02
-1.539636775851249695e-02
6.223039329051971436e-02
7.012262195348739624e-02
3.661745414137840271e-02
8.389636059291660786e-04
-3.395460918545722961e-02
-1.387156695127487183e-01
-4.643269255757331848e-02
3.777986764907836914e-02
-3.144495189189910889e-02
9.165193140506744385e-02
-5.510735511779785156e-02
1.346310228109359741e-02
5.666491761803627014e-02
5.844777077436447144e-02
-6.615565624088048935e-03
4.167234152555465698e-02
-2.746290899813175201e-02
2.682216465473175049e-02
9.377525001764297485e-02
3.166427463293075562e-02
-2.584003284573554993e-02
8.040102547965943813e-04
9.355831146240234375e-02
-1.546414941549301147e-02
-6.032368540763854980e-02
3.297527134418487549e-02
3.984424471855163574e-02
-2.225266769528388977e-02
3.637689724564552307e-02
-1.001880019903182983e-01
5.411995574831962585e-02
-2.485462278127670288e-02
7.539109140634536743e-02
-3.426797688007354736e-02
4.922919347882270813e-02
5.249436572194099426e-02
-7.994491606950759888e-02
1.410934627056121826e-01
