-1.450924202799797058e-02
5.130626633763313293e-02
-3.776255622506141663e-02
5.892375484108924866e-02
-3.837407380342483521e-02
4.264849424362182617e-02
-1.113476417958736420e-02
1.055941823869943619e-02
7.650236785411834717e-02
-5.516396090388298035e-02
2.700428664684295654e-02
-1.995764859020709991e-02
-4.331790842115879059e-03
-3.330270200967788696e-02
3.787583671510219574e-03
4.333956167101860046e-02
4.395702108740806580e-02
4.002029076218605042e-02
-5.861125886440277100e-02
4.706614185124635696e-03
5.130566656589508057e-02
-4.070833697915077209e-02
1.273353956639766693e-02
1.867625676095485687e-02
-4.750836640596389771e-03
-1.910821348428726196e-02
-2.327266335487365723e-02
-4.126323387026786804e-02
4.073124006390571594e-02
-2.151224762201309204e-02
6.695768097415566444e-04
3.241777047514915466e-02
2.158729545772075653e-02
3.976186737418174744e-02
1.331653259694576263e-02
-2.015041373670101166e-02
1.386899780482053757e-02
-3.285395354032516479e-02
-1.811093091964721680e-02
4.122357442975044250e-02
-2.635007537901401520e-02
3.429596126079559326e-02
6.859970837831497192e-02
-3.450001776218414307e-02
6.207992881536483765e-02
2.866671793162822723e-02
2.983156125992536545e-03
-5.738816689699888229e-03
1.140115503221750259e-02
-3.927751258015632629e-02
-7.078229449689388275e-03
-5.606719851493835449e-02
-3.479786962270736694e-02
5.506418272852897644e-02
-4.764625057578086853e-02
3.545154631137847900e-02
-1.788599044084548950e-02
4.144045058637857437e-03
1.631053537130355835e-02
4.944133758544921875e-02
-2.719572000205516815e-02
8.487001992762088776e-03
3.306395560503005981e-02
5.130589380860328674e-02
-5.345340818166732788e-02
-3.202790394425392151e-02
-5.196021404117345810e-03
-1.507849898189306259e-02
-3.268346190452575684e-02
-6.028645858168601990e-02
2.720274776220321655e-02
-2.574366144835948944e-02
-1.129785086959600449e-02
-1.093024201691150665e-02
-4.238876327872276306e-02
6.961431354284286499e-03
-4.388717934489250183e-02
3.468504920601844788e-02
-3.526095300912857056e-02
-1.388606708496809006e-02
5.457142740488052368e-02
-2.697097137570381165e-02
-2.155077643692493439e-02
4.783952608704566956e-02
-4.284907504916191101e-02
-2.779097482562065125e-02
-4.318854957818984985e-02
4.542392678558826447e-03
-8.758847252465784550e-04
5.392512306571006775e-02
2.400094270706176758e-02
5.604104325175285339e-02
6.448453664779663086e-02
5.232990533113479614e-02
-3.562285378575325012e-02
2.666749246418476105e-02
6.090829521417617798e-02
-1.987497694790363312e-02
-5.400107055902481079e-02
5.441547557711601257e-02
-2.539552375674247742e-02
5.140965059399604797e-02
5.538384616374969482e-02
1.973342709243297577e-02
4.626821354031562805e-02
3.451788425445556641e-02
-3.237498924136161804e-02
6.381917744874954224e-02
-2.316141873598098755e-02
2.925551310181617737e-02
6.402636319398880005e-02
-1.814678311347961426e-02
6.202414166182279587e-03
-4.012643173336982727e-02
-3.441589325666427612e-02
3.691055998206138611e-02
5.319275707006454468e-02
5.891539528965950012e-02
6.215740367770195007e-02
6.275699939578771591e-03
1.753590814769268036e-02
5.254821479320526123e-02
3.110655024647712708e-02
-3.534462768584489822e-03
1.273401547223329544e-02
4.699506983160972595e-02
2.448307164013385773e-02
2.604631148278713226e-02
