3.793761506676673889e-02
-4.037113860249519348e-02
2.131793461740016937e-02
2.839793823659420013e-02
4.293156787753105164e-03
-3.222034499049186707e-02
5.304561182856559753e-02
3.176132589578628540e-02
3.534895926713943481e-02
3.016613051295280457e-02
2.776391990482807159e-02
7.816523429937660694e-05
5.643794778734445572e-03
3.548055142164230347e-02
-1.736395806074142456e-02
-9.346816688776016235e-03
2.927048690617084503e-02
-9.466713294386863708e-03
-2.777994796633720398e-02
2.801085822284221649e-02
-1.270595472306013107e-02
4.710623621940612793e-02
5.822059512138366699e-02
2.993694692850112915e-02
-2.325721085071563721e-02
-4.445321857929229736e-02
5.392240826040506363e-03
2.078617736697196960e-02
-1.349506899714469910e-02
-8.137100376188755035e-03
2.526191249489784241e-02
1.857008971273899078e-02
-1.239526551216840744e-02
2.038020268082618713e-02
-2.398973703384399414e-02
9.911662898957729340e-03
-2.921237982809543610e-02
3.519640490412712097e-02
7.295175455510616302e-03
2.837317436933517456e-02
2.259607717860490084e-04
8.071567863225936890e-03
3.048622282221913338e-03
-1.176644954830408096e-02
7.707871031016111374e-03
-1.334145292639732361e-02
6.294645369052886963e-02
-2.451761625707149506e-02
-4.512933641672134399e-02
-1.125505380332469940e-02
2.603482455015182495e-02
-8.652661927044391632e-03
-1.560555677860975266e-02
-3.302393946796655655e-03
3.701365087181329727e-03
2.233407087624073029e-02
2.102198265492916107e-02
2.093160897493362427e-02
3.869530931115150452e-02
2.980320341885089874e-02
8.617453277111053467e-03
3.515568748116493225e-02
1.358308643102645874e-02
5.626247450709342957e-02
7.103184238076210022e-03
6.872822064906358719e-03
1.291449152631685138e-04
1.028182171285152435e-02
2.901220694184303284e-02
-1.494819764047861099e-02
-2.354764565825462341e-02
5.082488525658845901e-03
1.130132097750902176e-02
-2.890929765999317169e-02
3.053726442158222198e-02
3.399487584829330444e-02
-2.836657920852303505e-03
-2.659100107848644257e-02
-2.746481914073228836e-03
1.793550513684749603e-02
-1.824739202857017517e-02
-2.351485192775726318e-03
1.685879193246364594e-02
-3.446307033300399780e-02
-2.182019129395484924e-02
-1.827577687799930573e-02
1.865555997937917709e-03
4.231357201933860779e-02
-1.269770727958530188e-04
-6.085078418254852295e-02
2.704409509897232056e-02
4.598768427968025208e-02
-3.670613467693328857e-02
-1.680800633039325476e-04
-2.674045227468013763e-02
-2.490061707794666290e-02
-4.407069832086563110e-02
-1.237905863672494888e-02
-2.035609818994998932e-02
2.144393883645534515e-02
8.433829061686992645e-03
-2.524511329829692841e-02
5.868648178875446320e-03
-1.393571123480796814e-02
3.330787643790245056e-03
2.320318296551704407e-02
4.338538646697998047e-02
1.423331908881664276e-02
-2.138177864253520966e-02
-3.117043152451515198e-02
-1.191801484674215317e-02
-6.396456155925989151e-03
-1.653252728283405304e-02
-2.394545450806617737e-02
1.187044009566307068e-02
3.325977921485900879e-02
-1.242207549512386322e-02
2.372760884463787079e-02
-1.711139455437660217e-02
-1.422357466071844101e-02
-2.552957460284233093e-02
4.028731212019920349e-02
5.834304168820381165e-02
-4.890742711722850800e-03
1.075776293873786926e-03
-1.099639665335416794e-02
2.528025582432746887e-02
-5.365793779492378235e-02
-2.465743804350495338e-03
-1.342015992850065231e-02
1.270287577062845230e-02
-5.007411539554595947e-02
-2.101812884211540222e-02
-1.559196785092353821e-02
-1.736780628561973572e-03
3.612926602363586426e-02
-6.351005285978317261e-02
-5.949661135673522949e-03
-1.101407781243324280e-02
-3.520344570279121399e-02
-2.082761004567146301e-02
-2.083136886358261108e-02
-3.630689159035682678e-02
9.292248636484146118e-03
6.409696070477366447e-04
3.112437389791011810e-02
3.701670095324516296e-02
2.885114774107933044e-02
-2.427689172327518463e-02
3.556583821773529053e-02
3.372393175959587097e-02
-1.283477433025836945e-02
6.489079445600509644e-02
5.581060424447059631e-02
-2.998394519090652466e-02
6.565506756305694580e-02
4.416501149535179138e-02
3.849760070443153381e-02
8.336849510669708252e-03
4.854316264390945435e-02
-4.623875021934509277e-02
6.424212455749511719e-02
4.392682388424873352e-02
-1.485812943428754807e-02
-9.508704766631126404e-03
-2.529698237776756287e-02
-3.848275227937847376e-04
2.451774664223194122e-02
2.949603088200092316e-02
2.063083834946155548e-02
-2.529792487621307373e-02
5.449932068586349487e-02
-4.184676334261894226e-02
-3.927093744277954102e-02
-1.127430889755487442e-02
2.956775575876235962e-02
-3.484524786472320557e-02
8.849127218127250671e-03
3.497806191444396973e-02
3.932328894734382629e-02
-1.283377525396645069e-03
2.930808626115322113e-02
-5.429954733699560165e-03
4.552336409687995911e-02
-5.313373170793056488e-03
2.719369344413280487e-02
-1.770127750933170319e-02
1.341003086417913437e-02
5.210782960057258606e-02
4.265379905700683594e-02
-5.299472808837890625e-02
-1.367221120744943619e-02
-1.857104152441024780e-02
1.508274767547845840e-02
4.979580640792846680e-03
3.126617148518562317e-02
1.319066621363162994e-02
9.668314829468727112e-03
-1.591644622385501862e-02
1.423250883817672729e-02
-7.852900307625532150e-04
-4.715895652770996094e-02
2.917163074016571045e-02
1.261594146490097046e-02
-3.933614864945411682e-02
-1.235924568027257919e-02
4.419444873929023743e-02
3.805455937981605530e-02
7.264261599630117416e-03
-3.958756849169731140e-02
-3.273759409785270691e-02
-1.085393503308296204e-02
1.410282216966152191e-02
1.439224556088447571e-02
3.450290067121386528e-03
4.689230769872665405e-02
6.751231104135513306e-02
-5.227245390415191650e-02
-5.586306564509868622e-03
-2.413752721622586250e-03
-1.463392190635204315e-02
-3.280545771121978760e-02
3.492685779929161072e-02
6.904353946447372437e-02
5.513913556933403015e-02
-4.673739895224571228e-03
-7.751428056508302689e-03
3.566319495439529419e-02
-6.724581122398376465e-03
3.536364063620567322e-02
2.894438058137893677e-02
-2.731747552752494812e-02
1.202781591564416885e-02
-5.409379489719867706e-03
-2.275582030415534973e-02
9.982117451727390289e-03
6.826227158308029175e-02
-3.065280616283416748e-02
3.027291037142276764e-02
5.551933497190475464e-02
1.859574764966964722e-02
4.598772153258323669e-02
2.058953791856765747e-02
2.722959965467453003e-02
-2.157471142709255219e-02
-1.092531625181436539e-02
2.953861653804779053e-02
-3.698993846774101257e-02
-8.035782724618911743e-03
9.688381105661392212e-03
-7.514834869652986526e-03
1.092358026653528214e-02
6.465466693043708801e-03
-3.201419487595558167e-02
3.181505249813199043e-03
2.515902929008007050e-02
-3.144894540309906006e-02
-1.588560827076435089e-02
3.621237725019454956e-02
3.660058975219726562e-02
1.516294945031404495e-02
-3.872337052598595619e-03
-3.243574127554893494e-02
9.392078034579753876e-03
4.317759722471237183e-02
6.357206404209136963e-02
9.658912196755409241e-03
-2.235666662454605103e-02
-2.517515234649181366e-02
-1.145465951412916183e-02
9.777328930795192719e-03
-6.314170081168413162e-03
-4.279410466551780701e-02
4.006193205714225769e-02
3.628145158290863037e-02
-3.222804889082908630e-02
3.100423142313957214e-02
4.869548231363296509e-02
-2.149667218327522278e-02
-5.071739107370376587e-02
3.820332139730453491e-02
5.228228867053985596e-02
-8.636225946247577667e-03
4.675547033548355103e-02
-1.631278730928897858e-02
5.352959409356117249e-02
2.150609157979488373e-02
2.078432217240333557e-02
-5.254870629869401455e-04
1.074206735938787460e-02
1.895405910909175873e-02
-1.595935784280300140e-02
-2.132575400173664093e-02
-5.445131659507751465e-02
-3.556180745363235474e-02
5.449687596410512924e-03
3.951052669435739517e-03
5.443442612886428833e-02
5.379163473844528198e-02
-4.083935916423797607e-02
3.355708345770835876e-02
2.573866024613380432e-02
-1.433545164763927460e-02
-4.286382719874382019e-02
-1.324502006173133850e-02
4.781200364232063293e-02
-1.700098440051078796e-02
4.983868822455406189e-02
-2.642332017421722412e-02
1.032583322376012802e-02
-6.288874894380569458e-02
2.453663386404514313e-02
-1.610780693590641022e-02
3.929309896193444729e-04
6.658395286649465561e-03
-4.542467370629310608e-02
-2.679058525245636702e-04
-1.378120947629213333e-02
-3.750131651759147644e-02
3.487304225564002991e-02
1.613936573266983032e-02
9.902014583349227905e-02
-3.785083815455436707e-02
-2.343070879578590393e-02
3.060270473361015320e-02
2.642233110964298248e-02
3.531088680028915405e-02
2.834611013531684875e-02
-3.899013251066207886e-02
3.694572672247886658e-02
2.847188338637351990e-02
-1.426666422048583627e-04
7.637477945536375046e-03
3.683752194046974182e-02
3.842408210039138794e-02
-2.703798376023769379e-02
4.005189239978790283e-02
4.846413806080818176e-02
4.108325392007827759e-02
7.267447188496589661e-03
1.478521153330802917e-02
-3.169463574886322021e-02
2.725305035710334778e-02
-1.588056609034538269e-02
2.804564870893955231e-02
-2.749711088836193085e-02
3.260125219821929932e-02
-3.110734373331069946e-02
-2.370848506689071655e-02
-6.678572297096252441e-02
1.591154374182224274e-02
5.372567847371101379e-02
2.068166155368089676e-03
1.861129514873027802e-02
-3.899621590971946716e-02
5.448198318481445312e-02
-6.922551430761814117e-03
-6.109430920332670212e-03
-9.651271975599229336e-04
-2.824941836297512054e-02
-1.185810193419456482e-02
6.008831318467855453e-03
2.898089587688446045e-02
-1.582142151892185211e-02
2.927986532449722290e-02
-2.824530005455017090e-02
2.129942737519741058e-02
-2.087636850774288177e-02
-3.716863319277763367e-02
5.276907235383987427e-02
1.362815033644437790e-02
-2.598545700311660767e-02
-2.222831360995769501e-02
3.231189399957656860e-02
4.180958867073059082e-02
3.258296847343444824e-02
-5.376590788364410400e-02
2.668157976586371660e-04
1.182688958942890167e-02
-2.027078345417976379e-02
4.400468245148658752e-02
1.078815432265400887e-03
-1.805708371102809906e-02
-1.077073812484741211e-02
3.482131659984588623e-02
3.575512021780014038e-02
-1.036050263792276382e-02
4.511049017310142517e-02
1.024784613400697708e-02
6.634463556110858917e-03
-4.215492866933345795e-03
-3.703578934073448181e-02
-1.582363247871398926e-02
3.429143503308296204e-02
5.082914605736732483e-03
-3.935491666197776794e-02
-1.429405715316534042e-02
5.216984450817108154e-02
-2.004983648657798767e-02
1.542830653488636017e-02
-1.540924701839685440e-02
1.630127243697643280e-02
3.933925554156303406e-02
-4.965938162058591843e-03
-1.957799773663282394e-03
-3.722542896866798401e-02
2.074465155601501465e-02
6.551139056682586670e-03
-9.671932086348533630e-03
-4.474638774991035461e-02
8.999739773571491241e-03
5.241684243083000183e-02
-6.688727531582117081e-03
1.829109340906143188e-02
-1.853691041469573975e-02
1.604678295552730560e-02
3.060030005872249603e-02
-3.016646578907966614e-02
-1.955859549343585968e-02
-1.258209813386201859e-02
3.794214874505996704e-02
-4.224975034594535828e-02
3.928476199507713318e-02
-1.015872601419687271e-02
-1.655426691286265850e-03
5.143756419420242310e-02
3.021456487476825714e-02
8.141240105032920837e-03
-6.080320104956626892e-02
7.645997684448957443e-03
1.911870390176773071e-02
4.168458282947540283e-02
-3.059346973896026611e-02
-9.608844295144081116e-03
4.210406541824340820e-02
3.034490719437599182e-02
-4.562247544527053833e-03
4.452058672904968262e-02
3.353869542479515076e-02
4.992353543639183044e-02
1.432886812835931778e-02
-4.328975826501846313e-02
1.349367387592792511e-02
-2.974442765116691589e-02
1.628302969038486481e-02
-1.923595182597637177e-02
-2.643398009240627289e-02
4.964754730463027954e-02
6.358647253364324570e-03
3.649827465415000916e-02
3.225104510784149170e-02
-1.891146227717399597e-02
2.612722106277942657e-02
4.505506157875061035e-02
-2.041472308337688446e-02
5.069055035710334778e-02
-1.347345579415559769e-02
4.247038066387176514e-02
5.810744594782590866e-03
5.676934123039245605e-02
2.325643971562385559e-02
7.056700438261032104e-02
-1.584963314235210419e-02
4.438223689794540405e-02
-9.458134882152080536e-03
2.474611997604370117e-02
-4.543558135628700256e-02
-7.192371040582656860e-02
-1.121179666370153427e-02
-3.477428853511810303e-02
-8.290114812552928925e-03
-1.873499900102615356e-02
-5.002954229712486267e-02
-4.985507950186729431e-02
-1.599504612386226654e-02
1.637864857912063599e-02
8.952301926910877228e-03
1.406390219926834106e-02
4.769532382488250732e-02
3.526569530367851257e-02
3.603894636034965515e-02
-1.634086715057492256e-03
-1.032790355384349823e-02
3.874802216887474060e-02
2.982755191624164581e-02
3.483591368421912193e-03
-2.121001482009887695e-02
3.209505230188369751e-02
4.185632336884737015e-03
5.659966170787811279e-02
3.108442947268486023e-02
1.413112133741378784e-02
-5.516042560338973999e-02
-1.739372499287128448e-02
-5.845366511493921280e-03
1.778295263648033142e-02
-3.547619283199310303e-02
-4.597568511962890625e-02
3.637658059597015381e-02
-3.355589509010314941e-02
-2.618392929434776306e-02
2.080284059047698975e-02
2.447581104934215546e-02
-6.431961059570312500e-02
1.771500334143638611e-02
5.505647137761116028e-02
1.883473619818687439e-02
-3.481923416256904602e-02
-3.880580654367804527e-03
-4.103692620992660522e-02
-1.061137736542150378e-04
-1.518942322582006454e-02
-3.011384233832359314e-02
-1.954659447073936462e-02
-2.260175533592700958e-02
-6.243736483156681061e-03
-1.435414142906665802e-02
-3.989570587873458862e-02
2.928465604782104492e-02
-3.496886789798736572e-02
-5.066358018666505814e-03
8.306403760798275471e-04
-3.540245816111564636e-02
-3.610929707065224648e-03
3.864985704421997070e-02
2.781656943261623383e-02
1.874908339232206345e-03
-5.037907883524894714e-02
2.784853987395763397e-02
-3.271279158070683479e-03
2.091873623430728912e-02
2.132110297679901123e-02
2.558334730565547943e-02
-2.262792177498340607e-02
-5.308033432811498642e-03
-1.782034151256084442e-02
3.651843219995498657e-02
6.770763546228408813e-03
1.374460407532751560e-03
-9.102637879550457001e-03
5.890855938196182251e-02
4.297155514359474182e-02
-2.166771737392991781e-04
-2.971237059682607651e-03
3.773121908307075500e-02
-3.064951114356517792e-02
-3.752399235963821411e-02
7.752942852675914764e-03
2.044429257512092590e-02
6.782887130975723267e-02
-3.151826933026313782e-02
4.008321464061737061e-02
1.536824833601713181e-02
4.030304029583930969e-02
3.505061939358711243e-02
1.166950725018978119e-02
2.733217366039752960e-02
4.613636806607246399e-02
-8.037620224058628082e-03
7.290496490895748138e-03
5.008886381983757019e-02
1.700276695191860199e-02
-3.949082270264625549e-02
-3.572990745306015015e-02
2.710347995162010193e-02
-2.339928038418292999e-02
-2.574400603771209717e-02
-8.634928613901138306e-03
-4.977187141776084900e-03
-6.801670417189598083e-03
2.236417122185230255e-02
-7.694305386394262314e-03
-3.943603858351707458e-02
-1.416366081684827805e-02
3.793071582913398743e-02
8.418715000152587891e-02
4.944617673754692078e-02
-3.511305432766675949e-03
5.730962380766868591e-02
-2.671763300895690918e-02
6.535110995173454285e-03
1.673072390258312225e-02
1.726757735013961792e-02
4.880378395318984985e-02
-8.794066496193408966e-03
8.248282596468925476e-03
-1.503906445577740669e-03
3.944362699985504150e-02
2.848238311707973480e-02
1.304947584867477417e-02
-3.592632710933685303e-02
4.761397466063499451e-02
-1.426045037806034088e-02
-1.611162349581718445e-02
2.676373720169067383e-02
-5.297397449612617493e-02
-3.703281283378601074e-02
2.313138358294963837e-02
3.990086913108825684e-02
3.110715886577963829e-03
-5.678463261574506760e-03
1.656594313681125641e-02
4.664006829261779785e-02
-2.720308303833007812e-02
-2.569498494267463684e-03
-3.725577145814895630e-02
-1.903181313537061214e-03
5.174695048481225967e-03
7.784265093505382538e-03
-2.037988603115081787e-02
2.948257885873317719e-02
-2.734382450580596924e-02
-3.535020863637328148e-03
1.198979280889034271e-02
-2.208844944834709167e-02
1.626619696617126465e-02
-2.212513424456119537e-02
3.269576653838157654e-02
-3.041339106857776642e-02
-1.288373302668333054e-02
6.669884081929922104e-03
-2.746917679905891418e-02
1.822799816727638245e-02
-2.979273209348320961e-03
2.006613649427890778e-02
1.278592366725206375e-02
-1.172699499875307083e-02
-1.293542154598981142e-04
-3.579423949122428894e-02
7.577276322990655899e-03
4.197233542799949646e-02
1.265660766512155533e-02
3.107789158821105957e-02
5.368860438466072083e-02
-2.372595667839050293e-02
3.160740807652473450e-02
4.917198047041893005e-02
-8.305253461003303528e-03
-6.360433250665664673e-02
1.147242262959480286e-02
4.868746921420097351e-02
4.015306383371353149e-02
1.567846862599253654e-03
1.917614042758941650e-02
-1.179547235369682312e-02
-2.023262204602360725e-03
-3.108448535203933716e-02
2.399427257478237152e-02
2.542940713465213776e-02
-8.742379024624824524e-03
-1.409122068434953690e-02
3.728503733873367310e-02
-1.575985178351402283e-02
4.119318723678588867e-02
-1.959193125367164612e-02
2.236573398113250732e-02
1.673682965338230133e-02
7.774566300213336945e-03
-1.216045208275318146e-02
-1.989504508674144745e-02
-2.899834513664245605e-02
-8.266636170446872711e-03
1.966152898967266083e-02
1.581539772450923920e-02
1.297854166477918625e-02
5.656037013977766037e-03
-3.185242414474487305e-02
6.606993079185485840e-02
2.932027564384043217e-04
-2.590899728238582611e-02
1.995156751945614815e-03
3.862897306680679321e-02
2.117791213095188141e-02
6.062250211834907532e-02
-4.008372500538825989e-02
3.803139925003051758e-02
-1.607897505164146423e-02
-4.425475001335144043e-02
2.044921554625034332e-02
2.097402699291706085e-02
2.314380928874015808e-02
-3.186400607228279114e-02
-1.740229129791259766e-02
-4.022938758134841919e-02
-2.970754727721214294e-02
-1.847447082400321960e-02
1.638598553836345673e-02
-1.020571333356201649e-03
-2.741001173853874207e-02
-1.694009825587272644e-02
-2.469486556947231293e-02
3.951554745435714722e-02
3.630911186337471008e-02
-1.356247696094214916e-03
1.507020834833383560e-02
1.111852470785379410e-02
7.345723919570446014e-03
1.868094503879547119e-02
-1.804572902619838715e-02
3.905305266380310059e-02
-2.179066091775894165e-02
5.840565077960491180e-03
-4.781086742877960205e-02
-1.886952295899391174e-02
2.900748513638973236e-03
2.442002855241298676e-02
5.728068947792053223e-02
-2.829600684344768524e-02
-3.068360500037670135e-02
3.060936229303479195e-03
4.707597196102142334e-02
3.233535960316658020e-02
3.314665704965591431e-02
2.704976126551628113e-02
1.750538870692253113e-02
3.472189605236053467e-02
-1.862824708223342896e-02
4.910446330904960632e-02
4.344991222023963928e-02
-4.231827706098556519e-02
-3.764825314283370972e-02
3.132844343781471252e-02
-2.564860880374908447e-02
-1.392732840031385422e-03
1.026752498000860214e-02
-3.868380934000015259e-02
-2.114324830472469330e-02
-3.673043474555015564e-02
-3.745983541011810303e-02
-1.980266533792018890e-03
-1.154695637524127960e-02
-1.805290021002292633e-02
6.014518905431032181e-03
-1.608670130372047424e-02
3.421788662672042847e-02
-2.206078544259071350e-02
9.129921090789139271e-04
3.346747905015945435e-02
8.049292373470962048e-04
-2.067657932639122009e-02
9.279968217015266418e-03
-1.844855211675167084e-02
-2.057492360472679138e-02
2.866682596504688263e-02
-2.809306234121322632e-02
4.213448613882064819e-02
-1.247557345777750015e-02
-5.007595941424369812e-02
1.480786968022584915e-02
1.727927103638648987e-02
5.473782308399677277e-03
-9.602890349924564362e-03
-2.798799797892570496e-02
4.017841070890426636e-02
2.947097830474376678e-02
-4.026778042316436768e-02
-1.284769829362630844e-02
4.135976359248161316e-02
4.258570075035095215e-02
-2.744132094085216522e-02
4.656610637903213501e-02
-3.424404188990592957e-02
-1.566213741898536682e-02
-5.992628168314695358e-03
-3.555576084181666374e-03
1.741112023591995239e-02
6.925333291292190552e-03
3.163941577076911926e-02
2.617279812693595886e-02
4.634465649724006653e-02
4.346813634037971497e-02
4.149878770112991333e-02
1.107247639447450638e-02
-2.989910915493965149e-02
1.668842323124408722e-02
6.517640314996242523e-03
6.492166221141815186e-02
-5.483167991042137146e-02
1.849108375608921051e-02
-4.689230769872665405e-02
2.884408459067344666e-02
4.301415756344795227e-02
1.170828659087419510e-02
3.939989581704139709e-02
2.890219911932945251e-02
-3.383452072739601135e-03
3.247622400522232056e-02
4.239761084318161011e-02
-5.118564143776893616e-02
2.912268787622451782e-02
5.533317849040031433e-02
-2.093670703470706940e-02
-2.042217412963509560e-03
4.920618142932653427e-03
-6.900717038661241531e-03
1.952583319507539272e-03
-7.356887217611074448e-03
-2.711214125156402588e-02
4.160129278898239136e-02
6.299906969070434570e-02
-7.214965298771858215e-03
-1.089737191796302795e-02
-4.811793938279151917e-02
-3.585612401366233826e-03
-2.033363794907927513e-03
2.870203182101249695e-02
1.564517803490161896e-02
2.248007804155349731e-02
-1.630106940865516663e-02
3.803014755249023438e-02
4.108062945306301117e-03
1.829902082681655884e-02
2.904118038713932037e-02
2.955862693488597870e-02
-2.940843440592288971e-02
-5.150193348526954651e-03
2.647347748279571533e-02
4.997482988983392715e-03
4.290487151592969894e-03
2.309251949191093445e-02
3.136198595166206360e-02
5.287313833832740784e-03
1.139141526073217392e-02
3.916643559932708740e-02
2.737137861549854279e-02
4.470437020063400269e-02
3.022006154060363770e-02
-5.720002227462828159e-04
-4.197019152343273163e-03
1.295842789113521576e-02
-6.890581455081701279e-03
4.380522668361663818e-02
-4.955027718096971512e-03
1.979993097484111786e-02
-1.111803669482469559e-02
-3.143177554011344910e-02
-7.403213065117597580e-03
-3.587309643626213074e-02
1.994156837463378906e-02
-3.293873742222785950e-02
3.598147258162498474e-02
1.043040212243795395e-02
9.116944856941699982e-03
2.567604556679725647e-02
-4.876766819506883621e-03
2.740501984953880310e-02
-1.353123039007186890e-02
-3.155370801687240601e-02
-1.709527522325515747e-02
3.993144631385803223e-02
-1.232591364532709122e-02
8.116867393255233765e-03
2.806864120066165924e-02
2.794934995472431183e-02
2.358738146722316742e-02
1.061339207808487117e-04
-2.504699165001511574e-03
-2.187806926667690277e-02
5.349965393543243408e-02
1.092200167477130890e-02
-1.755266101099550724e-03
3.930942341685295105e-02
2.729080431163311005e-02
2.912359870970249176e-02
5.872044246643781662e-03
-2.819080464541912079e-02
1.638365723192691803e-02
-1.143435575067996979e-02
4.026217758655548096e-02
2.009682357311248779e-03
-3.402749449014663696e-02
-7.690447848290205002e-03
4.424346983432769775e-02
3.352595027536153793e-03
3.616227954626083374e-02
1.078184135258197784e-02
-3.168528899550437927e-02
4.175750073045492172e-03
-4.218333959579467773e-02
3.625747188925743103e-02
1.603244803845882416e-02
1.084170769900083542e-02
2.178804576396942139e-02
-5.020888894796371460e-02
-1.712819444946944714e-03
-9.513062424957752228e-03
4.427135363221168518e-02
-1.739565050229430199e-04
-3.441284596920013428e-02
-4.712216556072235107e-03
-2.643949352204799652e-02
-2.640105411410331726e-02
1.844701357185840607e-02
4.968444257974624634e-02
-2.240852080285549164e-02
5.521405022591352463e-03
-5.546724796295166016e-02
-2.606288157403469086e-02
2.222375385463237762e-02
1.108015235513448715e-02
-3.340043872594833374e-02
-1.654531341046094894e-03
-2.090205624699592590e-02
1.973724924027919769e-02
2.684878744184970856e-02
7.441098336130380630e-03
-7.452090270817279816e-03
1.209065038710832596e-02
-3.442144766449928284e-02
1.081766840070486069e-02
-4.879033192992210388e-03
-1.494396477937698364e-02
-3.892932087182998657e-02
3.567328676581382751e-02
7.359756622463464737e-03
1.328039355576038361e-02
6.180040165781974792e-02
-3.835606202483177185e-02
-7.772674784064292908e-03
1.931591890752315521e-02
3.099785884842276573e-03
-8.291801437735557556e-03
-4.699123650789260864e-02
1.924451626837253571e-02
-4.258826375007629395e-02
-1.309991721063852310e-02
-3.478879481554031372e-02
8.867662400007247925e-03
2.760251984000205994e-02
5.300856009125709534e-02
-3.161006374284625053e-03
-3.980963677167892456e-02
1.362014655023813248e-02
3.238134831190109253e-02
-6.130063906311988831e-03
1.342018134891986847e-02
2.631395310163497925e-02
4.044774547219276428e-02
4.792322590947151184e-02
-5.604355409741401672e-02
-1.608548685908317566e-03
-3.635995835065841675e-02
3.315791860222816467e-02
1.915159262716770172e-02
-2.662397734820842743e-02
-5.249186605215072632e-02
-3.144329786300659180e-02
-1.958055235445499420e-02
-1.221730280667543411e-02
3.028721548616886139e-03
-4.603550955653190613e-02
1.011332497000694275e-02
3.407400101423263550e-02
-4.549231380224227905e-03
-8.084322325885295868e-03
-8.830406703054904938e-03
2.645722404122352600e-02
4.616960883140563965e-02
3.091735579073429108e-02
3.900123387575149536e-02
-4.436492174863815308e-02
1.158060622401535511e-03
-6.707104621455073357e-04
2.974438481032848358e-02
4.669013898819684982e-03
2.361679449677467346e-02
1.569167710840702057e-02
-1.437833346426486969e-02
-2.546987123787403107e-02
-1.535921730101108551e-02
3.714713081717491150e-02
-2.266605198383331299e-02
1.480626314878463745e-02
-1.961814053356647491e-02
-2.931793220341205597e-02
-9.654082357883453369e-03
2.036109007894992828e-02
-2.652503177523612976e-02
5.581660661846399307e-03
3.569206967949867249e-02
3.999843448400497437e-02
-4.532618820667266846e-02
-1.877009682357311249e-02
-1.034354604780673981e-02
-2.083555096760392189e-03
-1.240748912096023560e-03
9.826809167861938477e-03
2.645642310380935669e-02
-2.750893682241439819e-02
5.001919809728860855e-03
-3.574996814131736755e-02
4.202537611126899719e-02
3.331417962908744812e-02
8.173986338078975677e-03
-3.178664250299334526e-03
-1.398227177560329437e-02
-5.964191164821386337e-03
-9.427437558770179749e-03
3.648796677589416504e-02
2.886377647519111633e-02
-2.551530674099922180e-02
7.599781453609466553e-02
-8.883840404450893402e-03
-2.840750291943550110e-02
-3.921541199088096619e-02
-2.210515085607767105e-03
5.149014294147491455e-02
-2.521380595862865448e-02
1.432858780026435852e-02
-3.032333031296730042e-02
1.542347390204668045e-02
4.642230272293090820e-02
3.201675787568092346e-02
-7.018119562417268753e-03
-3.271080553531646729e-02
-5.108997970819473267e-02
-1.208536792546510696e-02
-3.803077712655067444e-02
-1.948004029691219330e-02
1.821726188063621521e-02
3.016060031950473785e-02
-7.046753074973821640e-03
-3.363009914755821228e-02
3.732754290103912354e-02
-2.212125435471534729e-02
9.218713268637657166e-03
-2.553021069616079330e-03
-2.111101150512695312e-02
-6.876455992460250854e-02
2.338391169905662537e-02
5.657663568854331970e-02
2.492828294634819031e-02
8.390379138290882111e-03
-3.918185457587242126e-02
5.930582806468009949e-02
-3.790808375924825668e-03
3.898116946220397949e-02
-1.603096537292003632e-02
-5.018909648060798645e-02
1.624868623912334442e-02
3.245287761092185974e-02
-1.567097962833940983e-03
9.749386459589004517e-03
-4.194839391857385635e-03
1.512722764164209366e-02
1.202467083930969238e-02
2.061816491186618805e-02
-8.017544634640216827e-03
4.356820508837699890e-02
-6.134833768010139465e-02
-2.613436244428157806e-02
-3.697812184691429138e-02
1.908122561872005463e-02
3.501089662313461304e-02
1.608753949403762817e-02
4.618191346526145935e-02
3.616301342844963074e-02
1.317576132714748383e-02
2.984971180558204651e-02
3.424497321248054504e-02
-3.855708241462707520e-02
-5.227076355367898941e-03
-9.419510141015052795e-03
1.804031804203987122e-02
2.695189788937568665e-03
2.040458656847476959e-02
3.741572797298431396e-02
-9.866600856184959412e-03
5.266778916120529175e-02
-2.768001146614551544e-02
8.358677849173545837e-03
-5.281149875372648239e-03
8.437894284725189209e-03
-2.709869481623172760e-02
3.115210868418216705e-02
2.574613131582736969e-02
1.002488005906343460e-02
4.004676640033721924e-02
-2.461947873234748840e-02
-2.513117343187332153e-02
-3.681088238954544067e-02
4.170710965991020203e-02
1.627442426979541779e-02
3.054044395685195923e-02
-2.554866299033164978e-02
2.466656500473618507e-03
4.456692561507225037e-02
9.105899371206760406e-03
5.873987451195716858e-02
4.524317011237144470e-02
3.416770324110984802e-02
5.732753500342369080e-02
2.184859849512577057e-02
2.661330252885818481e-02
4.020260274410247803e-02
-2.296992018818855286e-02
3.835368528962135315e-02
1.499373093247413635e-02
-9.187058545649051666e-03
-5.652607604861259460e-02
1.806625910103321075e-02
3.343550115823745728e-02
-1.056204549968242645e-02
-3.009651601314544678e-02
2.057454548776149750e-02
1.016150414943695068e-02
3.021698631346225739e-02
-3.125283122062683105e-02
-1.195989921689033508e-02
-1.841353625059127808e-02
1.339995488524436951e-02
-1.913587749004364014e-02
-1.652335748076438904e-02
-8.749912958592176437e-04
2.161769755184650421e-02
-5.820711376145482063e-04
1.737140677869319916e-02
-1.090617291629314423e-02
-1.843534782528877258e-02
2.085523493587970734e-02
1.339643634855747223e-02
-2.276847697794437408e-02
-5.015807226300239563e-02
-5.668869242072105408e-02
-8.928417228162288666e-03
4.543308168649673462e-02
1.809696108102798462e-02
-3.890465572476387024e-02
-3.278698399662971497e-02
-3.070412203669548035e-02
1.927067339420318604e-02
1.648141257464885712e-02
3.211795538663864136e-02
2.806333824992179871e-02
4.410178586840629578e-02
4.396330565214157104e-02
-2.037962526082992554e-02
7.479104679077863693e-03
-2.937016449868679047e-02
3.210386727005243301e-03
-1.661533315200358629e-04
-1.482233870774507523e-02
5.948060750961303711e-02
-2.660862170159816742e-02
1.301640830934047699e-02
7.605584710836410522e-02
6.170186027884483337e-02
3.893027082085609436e-02
2.700576186180114746e-02
-4.976116120815277100e-02
-9.342286735773086548e-03
-1.292000990360975266e-02
1.861920766532421112e-02
-3.777351230382919312e-03
-1.076682354323565960e-03
-1.534238364547491074e-02
4.341627657413482666e-02
7.048335857689380646e-03
1.635798066854476929e-02
1.137977931648492813e-02
-5.806660279631614685e-02
-2.442266419529914856e-02
-3.340139240026473999e-02
-5.229860078543424606e-03
1.127565279603004456e-02
-2.854561805725097656e-02
4.747832135763019323e-04
-2.129366621375083923e-02
3.673096001148223877e-02
-4.003048315644264221e-02
4.251603037118911743e-02
-5.062284320592880249e-02
2.646987698972225189e-02
5.736567452549934387e-02
1.153844501823186874e-02
-1.816625706851482391e-02
5.044602602720260620e-02
4.868660867214202881e-02
-1.348905381746590137e-03
-3.093968145549297333e-02
1.897611096501350403e-02
-6.003649532794952393e-02
-1.197734614834189415e-03
2.240858227014541626e-02
2.920815348625183105e-02
7.789909141138195992e-04
-7.823198102414608002e-03
-2.395069226622581482e-02
2.340714127058163285e-04
-9.311263449490070343e-03
3.380118869245052338e-03
-2.348724193871021271e-02
5.637036263942718506e-02
2.940528467297554016e-02
-5.007133632898330688e-02
2.852021018043160439e-03
-9.293777495622634888e-02
-3.354329988360404968e-02
3.528755530714988708e-02
3.235204517841339111e-02
1.775927096605300903e-02
3.288365155458450317e-02
3.859768807888031006e-02
-1.340199913829565048e-02
-2.426257357001304626e-02
2.961267018690705299e-03
-3.594709560275077820e-02
-3.609339520335197449e-02
3.809697553515434265e-02
1.200503949075937271e-02
-9.838229976594448090e-03
-2.438031882047653198e-02
-8.949283510446548462e-03
2.186882495880126953e-02
8.424106054008007050e-03
-1.646040380001068115e-02
1.101310923695564270e-02
-3.271523863077163696e-02
6.044352427124977112e-03
2.966617047786712646e-02
-3.633982688188552856e-02
3.563728556036949158e-02
-8.631455712020397186e-03
3.175410255789756775e-02
1.554787810891866684e-02
-2.343075349926948547e-02
3.586730360984802246e-02
-1.073789875954389572e-02
-3.480134531855583191e-02
-3.258726373314857483e-02
3.193103522062301636e-02
-1.960243331268429756e-03
-2.948095649480819702e-02
-2.727328985929489136e-02
3.096275776624679565e-02
1.136326044797897339e-02
5.015893280506134033e-02
6.392439454793930054e-02
1.360057294368743896e-02
-1.732165925204753876e-03
-3.743413544725626707e-04
-3.567342460155487061e-02
-3.245201334357261658e-02
-3.363823145627975464e-02
-9.605923667550086975e-03
-4.783405363559722900e-02
-4.670196026563644409e-02
7.879660464823246002e-03
4.856369271874427795e-02
9.128452092409133911e-02
1.870576478540897369e-02
-1.122530922293663025e-02
-1.770160044543445110e-03
-1.947112008929252625e-02
3.992230817675590515e-02
3.784664208069443703e-03
5.882675293833017349e-03
-2.795883640646934509e-02
-2.929666545242071152e-03
4.906198754906654358e-02
4.132901132106781006e-02
1.691834628582000732e-02
1.246800925582647324e-02
1.945425756275653839e-02
7.994325831532478333e-03
2.711773477494716644e-02
3.517964854836463928e-02
-4.081321135163307190e-02
-4.235741496086120605e-02
-3.455293597653508186e-03
3.883341327309608459e-02
2.728251926600933075e-02
2.647663839161396027e-02
-8.310362696647644043e-03
3.658520057797431946e-02
3.124094009399414062e-02
-1.530756615102291107e-02
3.126243501901626587e-02
9.742378257215023041e-03
-8.501665433868765831e-04
1.466601062566041946e-02
2.942509716376662254e-03
-1.746905781328678131e-02
1.157412026077508926e-02
3.402531147003173828e-02
-3.383379429578781128e-02
-4.927489534020423889e-02
2.738898992538452148e-02
-1.091063581407070160e-02
1.913292706012725830e-02
5.983649566769599915e-02
2.486283704638481140e-02
-4.007314145565032959e-02
6.779882824048399925e-04
-6.846361793577671051e-03
2.681747823953628540e-02
-2.311003394424915314e-02
3.283138200640678406e-02
-1.744236052036285400e-02
2.965245582163333893e-02
-2.309341169893741608e-02
-2.354581654071807861e-02
8.705670014023780823e-03
6.287514418363571167e-02
5.377177149057388306e-03
6.014959886670112610e-02
4.921568557620048523e-02
-1.754528284072875977e-02
-2.588208578526973724e-02
3.007603809237480164e-02
3.945736587047576904e-02
2.618402056396007538e-02
3.354705171659588814e-03
-2.463330887258052826e-02
4.972561076283454895e-02
-2.393461391329765320e-02
-1.421570871025323868e-02
-4.097001254558563232e-02
-1.596399582922458649e-02
-2.000703848898410797e-02
-1.901323534548282623e-02
5.978375673294067383e-02
4.539338126778602600e-02
6.481021642684936523e-03
2.561901323497295380e-02
2.330069057643413544e-02
-2.590787038207054138e-02
7.606092840433120728e-04
3.932258114218711853e-02
4.050947725772857666e-03
2.434315159916877747e-03
-1.671107858419418335e-02
-4.696885496377944946e-02
1.631724461913108826e-02
-3.360233455896377563e-02
-3.616166487336158752e-02
4.992467164993286133e-02
5.041542276740074158e-02
3.375061228871345520e-02
-9.426605538465082645e-04
1.025707349181175232e-01
-3.990169614553451538e-02
2.660711854696273804e-02
-1.439797226339578629e-02
2.899106033146381378e-02
3.157311677932739258e-02
-4.980580881237983704e-02
1.494840905070304871e-02
-4.307370632886886597e-03
-7.758005708456039429e-02
2.617014199495315552e-02
3.376533463597297668e-02
-1.054078619927167892e-02
4.095999989658594131e-03
7.866824977099895477e-03
-1.266657374799251556e-02
-4.641504213213920593e-02
-2.647544443607330322e-02
1.503725349903106689e-02
2.575528249144554138e-02
-8.570448495447635651e-03
-1.341028977185487747e-02
3.272417932748794556e-02
2.201761305332183838e-02
-1.886007934808731079e-02
-1.277587562799453735e-02
-5.377674475312232971e-03
5.605871789157390594e-03
3.212976828217506409e-02
1.192920655012130737e-02
1.390770450234413147e-02
-7.737112464383244514e-04
-4.067927598953247070e-02
6.868603080511093140e-02
2.469653822481632233e-02
-3.383068740367889404e-02
3.073981031775474548e-02
1.553869619965553284e-02
2.924159169197082520e-02
3.263446688652038574e-02
3.250628476962447166e-03
-2.511886134743690491e-02
-6.233868189156055450e-03
2.137066982686519623e-02
3.126813843846321106e-02
6.351196672767400742e-03
-5.300168693065643311e-02
4.859639331698417664e-02
3.791243582963943481e-02
-3.529503941535949707e-02
3.320131823420524597e-02
2.388246171176433563e-02
-4.652241989970207214e-02
8.491208776831626892e-03
3.306645154953002930e-02
4.874127358198165894e-02
-3.378664329648017883e-02
-4.539822041988372803e-02
5.604204908013343811e-02
4.141242057085037231e-02
-6.133424583822488785e-03
2.613975107669830322e-02
-8.486056700348854065e-03
-8.092476986348628998e-03
-2.123470418155193329e-02
3.474055603146553040e-02
-6.547915749251842499e-03
-2.450336329638957977e-02
3.455708175897598267e-02
7.147276774048805237e-04
-3.936317563056945801e-02
2.289700694382190704e-02
9.416754357516765594e-03
1.135303173214197159e-02
2.707233652472496033e-02
3.154683113098144531e-02
2.351324260234832764e-02
-2.722649276256561279e-02
1.399109140038490295e-02
-1.802073791623115540e-02
3.287143260240554810e-02
5.338754132390022278e-02
-1.305669313296675682e-03
-5.032287165522575378e-02
2.040322870016098022e-02
2.796814218163490295e-02
3.152068704366683960e-02
2.352124638855457306e-02
-1.789278350770473480e-02
2.484913356602191925e-02
2.355240052565932274e-03
-8.229375816881656647e-03
3.813141956925392151e-02
3.369912132620811462e-02
3.082558140158653259e-02
-6.029130425304174423e-03
5.843938793987035751e-03
2.618233487010002136e-02
-3.043837659060955048e-02
1.858735643327236176e-02
-3.554108366370201111e-02
-1.883009448647499084e-02
-3.029945492744445801e-02
-2.749198675155639648e-02
-1.141685619950294495e-02
-4.480753093957901001e-02
-3.773771692067384720e-03
2.999642863869667053e-02
-2.562099695205688477e-02
-2.613870054483413696e-02
1.046339794993400574e-02
-3.550998121500015259e-02
-3.743344545364379883e-02
6.759083364158868790e-03
3.433711826801300049e-02
-3.847462683916091919e-02
-3.739840909838676453e-02
-3.418343514204025269e-02
1.230422593653202057e-02
-3.891440108418464661e-02
-5.476869642734527588e-02
4.941437393426895142e-03
3.453199192881584167e-02
-3.423855453729629517e-02
-4.067172482609748840e-02
2.213405817747116089e-02
3.859346034005284309e-03
6.787590682506561279e-03
-2.091476507484912872e-02
3.940628841519355774e-02
1.110969763249158859e-02
8.857014589011669159e-03
3.147526457905769348e-02
9.953032247722148895e-03
1.257380470633506775e-02
5.077213048934936523e-02
3.603627532720565796e-02
6.098599359393119812e-02
5.196822434663772583e-02
3.859364613890647888e-02
5.609369650483131409e-02
2.012684009969234467e-02
-5.832154676318168640e-02
-6.602646782994270325e-03
4.073390364646911621e-02
4.361592605710029602e-02
4.113188188057392836e-04
6.485935300588607788e-02
2.322710119187831879e-02
-3.370067477226257324e-02
-4.908866435289382935e-02
-2.468210645020008087e-02
-2.236703597009181976e-02
1.413525920361280441e-02
-1.086319144815206528e-02
-3.288625273853540421e-03
1.813464611768722534e-02
3.211343288421630859e-02
-2.605955488979816437e-02
-4.867895320057868958e-02
2.086617797613143921e-02
-3.230925649404525757e-02
1.413389667868614197e-02
1.609146967530250549e-02
-1.076692622154951096e-02
2.752190222963690758e-03
4.541283473372459412e-03
2.831575088202953339e-02
3.661073744297027588e-02
-6.511552724987268448e-03
1.701420918107032776e-02
3.790778666734695435e-02
4.652164131402969360e-02
6.782577186822891235e-02
9.516414999961853027e-02
-6.285453564487397671e-04
-3.947302326560020447e-02
3.382146358489990234e-02
1.703779213130474091e-02
2.178710512816905975e-02
-7.835738360881805420e-03
-1.174139697104692459e-02
5.791629198938608170e-03
6.165413185954093933e-03
-4.228372499346733093e-02
6.900679785758256912e-03
2.421889267861843109e-02
-4.303226992487907410e-02
3.057822398841381073e-02
2.231688611209392548e-02
-7.001212798058986664e-03
-2.950580045580863953e-02
-2.048958465456962585e-02
-6.337853614240884781e-03
-2.422829531133174896e-02
4.553830996155738831e-02
-3.635765612125396729e-02
-2.775602787733078003e-02
2.938321605324745178e-02
4.775802881340496242e-05
4.751520603895187378e-02
3.297851886600255966e-03
4.583683609962463379e-02
2.613327931612730026e-03
1.620132476091384888e-02
1.660733716562390327e-03
2.081373892724514008e-02
1.074215513654053211e-03
-3.853928297758102417e-02
-1.180168427526950836e-02
5.191610008478164673e-02
2.882858365774154663e-02
4.829125478863716125e-03
2.796897292137145996e-02
3.658370673656463623e-02
1.076147519052028656e-02
2.824478782713413239e-02
-2.168287523090839386e-02
-2.031870558857917786e-02
-3.174010291695594788e-02
6.665972527116537094e-03
-3.266260027885437012e-02
4.440756514668464661e-02
-6.145890802145004272e-03
2.945425733923912048e-02
2.855519019067287445e-02
2.671876177191734314e-02
-1.903607882559299469e-02
2.898798324167728424e-02
-2.443970367312431335e-02
5.980341881513595581e-02
-3.507674485445022583e-02
2.607948705554008484e-02
5.179315432906150818e-02
2.314835321158170700e-03
1.929521560668945312e-02
4.051874205470085144e-02
3.261433914303779602e-02
4.807282984256744385e-02
9.019990102387964725e-04
2.268476411700248718e-02
-3.068013116717338562e-02
4.116306453943252563e-02
1.547315996140241623e-02
2.314323931932449341e-02
1.207994017750024796e-02
3.268990665674209595e-02
-3.115677461028099060e-02
1.345994230359792709e-02
-1.505828648805618286e-02
-1.899980753660202026e-02
3.624977171421051025e-02
2.169732702895998955e-03
-3.823334816843271255e-03
1.553563773632049561e-02
-3.166995570063591003e-02
4.654606804251670837e-02
1.309283915907144547e-02
5.945533886551856995e-02
-6.704795174300670624e-03
-2.905942685902118683e-02
-3.251422569155693054e-02
4.612939804792404175e-02
2.909987047314643860e-02
2.677860110998153687e-02
-1.929654041305184364e-03
2.048940211534500122e-02
-5.721043795347213745e-03
-1.505307108163833618e-02
3.249405324459075928e-02
4.306048154830932617e-02
1.611745730042457581e-02
1.164979673922061920e-02
-7.222623098641633987e-03
2.413743920624256134e-02
2.029411680996417999e-02
-3.392834216356277466e-02
3.396640997380018234e-03
3.084694407880306244e-02
-3.693663701415061951e-02
-7.281210273504257202e-03
2.882680855691432953e-02
2.369447611272335052e-02
2.222938835620880127e-02
-4.278256092220544815e-03
-1.620741444639861584e-03
2.159275673329830170e-02
-1.968049257993698120e-02
3.403659537434577942e-02
-2.092480659484863281e-02
-3.282885253429412842e-02
3.782922774553298950e-02
3.599406033754348755e-02
-3.114940412342548370e-02
-3.658659383654594421e-02
-3.249616175889968872e-02
-3.152884310111403465e-03
7.649320643395185471e-03
2.522314339876174927e-02
-4.324598237872123718e-02
3.776074200868606567e-02
-3.958873450756072998e-02
-3.482685238122940063e-02
6.281526759266853333e-03
-3.827615454792976379e-02
-2.897672913968563080e-02
-2.585425227880477905e-02
3.883894905447959900e-02
-2.980113402009010315e-02
-3.550568595528602600e-02
9.169225580990314484e-03
1.251770462840795517e-02
2.661348693072795868e-02
-3.777823224663734436e-02
3.150633350014686584e-02
-4.533046483993530273e-02
-4.383250139653682709e-03
5.913433805108070374e-02
-1.250902190804481506e-03
6.681598257273435593e-03
3.344685584306716919e-02
-1.184280845336616039e-03
8.442256599664688110e-03
2.908083796501159668e-02
4.294589534401893616e-02
1.708311610855162144e-03
-2.836324041709303856e-03
-8.322750218212604523e-03
-1.993397250771522522e-03
2.094969898462295532e-02
-1.220249012112617493e-02
-4.725670441985130310e-02
1.883787102997303009e-02
1.863819174468517303e-02
2.751144394278526306e-02
-1.979062799364328384e-03
-2.366364747285842896e-02
-3.565631061792373657e-02
1.622655312530696392e-03
3.612195327877998352e-02
-1.289913244545459747e-02
3.492111340165138245e-02
3.876693546772003174e-02
-6.888655945658683777e-03
-3.490082174539566040e-02
1.731200516223907471e-02
-4.533688724040985107e-02
-2.361387945711612701e-02
2.633065544068813324e-02
2.869235724210739136e-02
1.090117078274488449e-02
4.306473955512046814e-02
-3.095589578151702881e-02
2.325975522398948669e-02
-2.357098646461963654e-02
-3.508949186652898788e-03
-3.149663656949996948e-02
4.085810109972953796e-02
-1.155482255853712559e-03
1.733271777629852295e-02
4.172606766223907471e-02
-2.247528918087482452e-02
-2.718639187514781952e-02
-9.829777292907238007e-03
3.462510183453559875e-02
-4.373296629637479782e-03
2.076061209663748741e-03
4.004785045981407166e-02
3.213283047080039978e-02
-2.254929766058921814e-02
1.761803962290287018e-02
-5.055752699263393879e-04
3.928325325250625610e-02
-2.833529375493526459e-02
1.177128683775663376e-02
2.596943872049450874e-03
3.828114271163940430e-02
3.425374254584312439e-02
3.902419283986091614e-02
2.833115495741367340e-02
1.234194077551364899e-02
-4.002798348665237427e-03
2.250532433390617371e-02
-1.127845607697963715e-02
1.172167062759399414e-02
2.471650019288063049e-03
-3.391196578741073608e-02
-2.190795727074146271e-02
2.562892250716686249e-02
-6.193614099174737930e-03
-4.634222388267517090e-02
9.249807335436344147e-03
-3.210279345512390137e-02
-1.577917486429214478e-02
4.383439081721007824e-04
1.521370001137256622e-02
5.995739717036485672e-03
1.488942303694784641e-03
6.681133806705474854e-02
-1.056311558932065964e-02
-3.853142634034156799e-02
2.685651555657386780e-02
2.859193272888660431e-02
-1.518401131033897400e-02
-1.720945164561271667e-02
-4.344480577856302261e-03
-4.272799566388130188e-02
2.814932726323604584e-02
6.148604303598403931e-02
5.329971387982368469e-02
-2.315464988350868225e-02
-2.653973735868930817e-02
2.176187187433242798e-02
3.176422417163848877e-02
-1.615808531641960144e-02
2.425894513726234436e-02
5.290808528661727905e-02
-3.422053530812263489e-02
4.075661674141883850e-02
-5.609655752778053284e-02
-1.431833021342754364e-02
5.782644450664520264e-02
-1.336304098367691040e-02
-5.053650960326194763e-02
-4.707303829491138458e-03
-2.028351463377475739e-02
5.749700590968132019e-03
1.072931196540594101e-02
-2.737120911478996277e-02
7.990705780684947968e-03
4.669876769185066223e-02
3.017223998904228210e-02
5.620209872722625732e-02
-3.822479862719774246e-03
4.630329087376594543e-03
1.349533349275588989e-02
4.380007460713386536e-02
5.628040060400962830e-03
7.512540090829133987e-03
-3.289750311523675919e-03
-2.386045455932617188e-02
1.246836315840482712e-02
1.897636055946350098e-02
-3.135994542390108109e-03
1.616896130144596100e-02
3.156105428934097290e-02
1.238621305674314499e-02
-3.503451496362686157e-02
1.768628694117069244e-02
-1.867282576858997345e-02
-3.770731389522552490e-02
-2.252486720681190491e-02
1.445244159549474716e-02
-5.280040204524993896e-03
1.800364442169666290e-02
4.420905839651823044e-03
-7.285686209797859192e-03
1.300873234868049622e-02
7.128817960619926453e-03
2.942671999335289001e-02
-9.611641988158226013e-03
-1.939404383301734924e-02
2.075571008026599884e-02
1.781617663800716400e-02
5.226786248385906219e-03
4.724482074379920959e-02
-1.931043528020381927e-02
-1.940260268747806549e-02
3.885350888594985008e-03
-2.406222373247146606e-02
2.948944643139839172e-02
6.954747252166271210e-03
2.662522345781326294e-02
3.520402684807777405e-02
3.160786628723144531e-02
-2.096451818943023682e-02
2.022971026599407196e-02
1.561741624027490616e-02
-1.932263025082647800e-03
3.195101022720336914e-02
-5.561571940779685974e-02
2.758229523897171021e-02
2.412187866866588593e-02
1.952580735087394714e-02
-2.416992560029029846e-02
3.076754882931709290e-02
-3.915495797991752625e-02
1.763435429893434048e-03
1.047582924365997314e-02
3.828054293990135193e-02
-5.166216194629669189e-02
4.563948605209589005e-03
-2.273818664252758026e-02
5.226786807179450989e-02
7.629435043781995773e-03
-1.937741041183471680e-02
2.572987787425518036e-02
-3.928500786423683167e-02
-1.937675988301634789e-03
2.352908439934253693e-02
4.534144420176744461e-03
4.334158822894096375e-02
1.593069173395633698e-02
-3.313871845602989197e-02
3.288073092699050903e-02
-3.547890111804008484e-02
-5.405819788575172424e-02
-3.441733866930007935e-02
-1.580681419000029564e-03
-1.141511462628841400e-02
4.733305051922798157e-02
7.422280963510274887e-03
-1.448985934257507324e-02
-2.996135689318180084e-02
2.801221795380115509e-02
-4.028687253594398499e-02
1.109546609222888947e-02
3.573991730809211731e-02
-2.442225068807601929e-02
2.197692915797233582e-02
3.070847503840923309e-02
4.239450767636299133e-02
2.201112732291221619e-02
3.228240832686424255e-02
2.151471190154552460e-02
1.599840633571147919e-02
4.606274887919425964e-02
1.642358675599098206e-02
1.067338138818740845e-02
2.600553212687373161e-03
4.499525204300880432e-02
-4.412798676639795303e-03
-2.195950224995613098e-02
8.595668710768222809e-03
-1.066494919359683990e-02
-3.686821088194847107e-02
-3.149878233671188354e-02
1.555644441395998001e-02
5.015918053686618805e-03
-1.330748014152050018e-02
1.880319789052009583e-02
-1.932321302592754364e-02
4.072229564189910889e-02
-5.277710035443305969e-02
3.611315041780471802e-02
2.431470714509487152e-02
3.370750695466995239e-02
2.512105740606784821e-02
-3.321281820535659790e-02
6.544869393110275269e-03
2.300379611551761627e-02
3.841913538053631783e-03
-4.201899096369743347e-02
1.942905224859714508e-02
-2.295429818332195282e-02
-6.248024292290210724e-03
-2.673315629363059998e-02
1.473802700638771057e-02
1.783790253102779388e-02
1.771820336580276489e-02
1.555119268596172333e-02
-2.470592781901359558e-02
7.151514757424592972e-03
5.720914900302886963e-02
2.463333867490291595e-02
8.124342188239097595e-03
-2.823044732213020325e-02
2.807016670703887939e-02
-2.500724233686923981e-02
-1.854919246397912502e-03
-1.992586767300963402e-03
-4.025053977966308594e-02
2.189507335424423218e-02
2.211555093526840210e-02
3.125130757689476013e-02
2.545787207782268524e-02
-3.672155737876892090e-02
-2.498847246170043945e-02
1.456611324101686478e-02
7.519290316849946976e-03
3.817700967192649841e-02
-1.753198169171810150e-02
-3.994073718786239624e-02
-2.679944783449172974e-02
-1.478356029838323593e-02
3.041584417223930359e-02
-2.359122037887573242e-02
1.609115302562713623e-02
4.822907038033008575e-03
-1.549883838742971420e-02
2.161504700779914856e-02
1.861413568258285522e-02
-3.030319232493638992e-03
-4.297361895442008972e-02
-1.491841953247785568e-02
-1.260179653763771057e-02
2.081037033349275589e-03
-5.662443581968545914e-03
-6.504210759885609150e-04
3.923994675278663635e-02
5.136262997984886169e-02
-2.430750988423824310e-02
-5.364418029785156250e-03
-9.079077281057834625e-03
-2.838784642517566681e-02
-2.407447062432765961e-02
-1.586266607046127319e-02
2.141093276441097260e-02
-3.130024671554565430e-02
2.601033262908458710e-02
5.495362565852701664e-04
-2.291167620569467545e-03
-2.759266411885619164e-03
-3.556120023131370544e-02
-3.150038421154022217e-02
-2.614361420273780823e-02
5.085588246583938599e-02
2.187202684581279755e-02
2.725339680910110474e-02
-7.460786495357751846e-03
-2.820775844156742096e-02
1.281573437154293060e-02
-2.208703570067882538e-02
-3.242241963744163513e-02
-3.413740545511245728e-02
4.719231743365526199e-03
-2.699574828147888184e-02
-2.474486082792282104e-02
1.128264702856540680e-02
-2.885481901466846466e-02
2.738266019150614738e-03
-3.945972770452499390e-02
-2.108150720596313477e-02
3.151451423764228821e-02
2.262636274099349976e-02
-2.572848461568355560e-02
4.609322175383567810e-02
1.699420623481273651e-02
-4.551433771848678589e-02
-8.446669206023216248e-03
-2.475426532328128815e-02
-1.101324218325316906e-03
2.553460747003555298e-02
-3.642543777823448181e-02
2.074143476784229279e-02
3.358662128448486328e-02
-1.905856840312480927e-02
-3.482877835631370544e-02
5.162651836872100830e-02
-2.106812596321105957e-02
2.708736248314380646e-02
-1.173380389809608459e-02
1.393390167504549026e-02
-7.668376434594392776e-03
-1.650816947221755981e-02
-1.905605942010879517e-02
3.444370627403259277e-02
3.682956472039222717e-02
-1.669715857133269310e-03
2.879887446761131287e-02
2.136567793786525726e-02
-1.054873969405889511e-02
-3.581263497471809387e-02
-5.021335929632186890e-02
2.342760562896728516e-02
3.419587761163711548e-02
3.041486814618110657e-02
4.216248169541358948e-02
2.496105432510375977e-02
-1.073477603495121002e-02
-1.864674128592014313e-02
-3.437586128711700439e-02
3.148415312170982361e-02
-2.212009951472282410e-02
1.882640831172466278e-02
2.957011759281158447e-02
4.802653938531875610e-02
3.766491543501615524e-03
-1.175658311694860458e-02
-1.620516553521156311e-02
1.193414814770221710e-02
4.469149559736251831e-02
-1.979011297225952148e-02
3.447799757122993469e-02
-3.285062313079833984e-02
4.004696756601333618e-02
7.248542737215757370e-03
2.774302847683429718e-02
1.299311500042676926e-02
6.633535958826541901e-03
3.839000687003135681e-02
-8.204321376979351044e-03
5.876918788999319077e-03
-2.760915085673332214e-02
3.008859045803546906e-02
1.456221006810665131e-02
3.718559816479682922e-02
3.286312893033027649e-02
3.928633779287338257e-02
1.214086893014609814e-03
-4.351381212472915649e-02
2.142949588596820831e-02
6.346596032381057739e-02
1.500445790588855743e-02
-2.095926739275455475e-02
3.380981832742691040e-02
1.310104154981672764e-03
9.079258888959884644e-03
4.092325270175933838e-02
3.814941644668579102e-02
6.588947493582963943e-03
3.614358976483345032e-02
-1.997814327478408813e-02
8.350692689418792725e-03
6.390415132045745850e-02
-2.984660305082798004e-02
4.306681826710700989e-02
-1.223018579185009003e-02
1.272401399910449982e-02
3.846464678645133972e-02
-2.972436835989356041e-03
6.497174967080354691e-03
-3.374065458774566650e-02
2.935110218822956085e-02
-2.478783018887042999e-02
-6.327181123197078705e-03
-5.555821582674980164e-03
-4.329254850745201111e-02
-4.499649256467819214e-02
5.611955747008323669e-02
4.929272457957267761e-02
2.777672559022903442e-02
6.058175861835479736e-02
-6.130724027752876282e-02
-1.889329403638839722e-02
-3.024832531809806824e-02
-3.209251444786787033e-03
-3.089316654950380325e-03
-4.020283743739128113e-02
2.150887437164783478e-02
1.467838045209646225e-02
-3.166135773062705994e-02
-6.766892969608306885e-03
-1.731281727552413940e-02
1.742717437446117401e-02
-1.189727894961833954e-02
-8.027051575481891632e-03
3.809023648500442505e-02
-8.560326881706714630e-03
3.461077064275741577e-02
-1.045598462224006653e-02
-5.566718522459268570e-03
-3.267414867877960205e-02
7.997742854058742523e-03
5.945757031440734863e-02
-3.829419985413551331e-02
-1.069929301738739014e-01
-2.426897734403610229e-02
-3.188072890043258667e-02
4.964131861925125122e-02
-3.549704700708389282e-02
2.145719714462757111e-02
3.078917041420936584e-02
-1.125101279467344284e-02
3.436739323660731316e-03
-2.306076884269714355e-02
-3.432151279412209988e-04
4.664568230509757996e-02
3.366916673257946968e-03
-2.213506028056144714e-02
1.243949681520462036e-02
5.676853936165571213e-03
-1.864181458950042725e-02
-3.533213958144187927e-02
-2.126152627170085907e-02
-1.134629081934690475e-02
2.795839495956897736e-02
-6.949142552912235260e-03
1.938701258040964603e-03
5.292484536767005920e-02
-1.709593459963798523e-02
-4.882075637578964233e-02
1.761599257588386536e-02
-2.561860717833042145e-02
3.636688739061355591e-02
-5.156295374035835266e-03
7.553444243967533112e-03
1.043291110545396805e-02
5.134854838252067566e-02
5.002195388078689575e-02
-3.093854710459709167e-02
-4.525362327694892883e-02
3.988978639245033264e-02
-6.926922593265771866e-03
-9.916317649185657501e-04
3.031705506145954132e-02
2.351766824722290039e-02
-2.243515476584434509e-02
-2.993363887071609497e-02
3.168293333146721125e-04
3.374312818050384521e-02
-2.743340097367763519e-02
2.741854265332221985e-02
-1.712729409337043762e-02
4.669202119112014771e-02
2.868627011775970459e-02
-1.424614805728197098e-02
9.427390992641448975e-03
4.419679194688796997e-02
-4.185864701867103577e-02
4.285164549946784973e-02
-2.284258231520652771e-02
2.604065649211406708e-02
-2.028793282806873322e-02
1.353260874748229980e-02
1.343274489045143127e-02
4.591139405965805054e-02
4.381123930215835571e-02
3.780080005526542664e-02
-2.548961900174617767e-02
-1.148392166942358017e-02
-6.081364699639379978e-04
1.452572643756866455e-03
1.888188533484935760e-02
2.314603514969348907e-02
6.958994731576240156e-07
6.396086513996124268e-02
-6.144594028592109680e-02
4.982033371925354004e-02
5.390355736017227173e-02
2.910694107413291931e-02
1.539371814578771591e-02
2.418346703052520752e-02
3.151438385248184204e-02
-1.297038886696100235e-02
4.204760119318962097e-02
9.042764082551002502e-03
-2.616829052567481995e-02
1.498077996075153351e-02
-1.441101077944040298e-02
3.950838744640350342e-02
-2.151901274919509888e-02
-3.998128697276115417e-02
-4.249371215701103210e-02
2.702567726373672485e-02
-7.120236009359359741e-02
-8.280991576611995697e-03
-3.852424770593643188e-02
4.328704904764890671e-03
8.677263744175434113e-03
2.003615535795688629e-02
-2.628323622047901154e-02
-3.237156569957733154e-02
-4.018723592162132263e-02
1.968948356807231903e-02
-9.637397713959217072e-03
-2.704357169568538666e-02
2.114765346050262451e-02
-5.501023679971694946e-02
-1.111030019819736481e-02
-8.442088961601257324e-03
2.820403315126895905e-02
7.739035878330469131e-03
3.732247650623321533e-02
3.166713938117027283e-02
-4.206799715757369995e-02
-4.535046964883804321e-02
3.736396506428718567e-02
5.434155836701393127e-02
-3.834716975688934326e-02
-1.004801318049430847e-02
-3.433272615075111389e-02
-8.503615856170654297e-03
-5.192232877016067505e-02
6.184840574860572815e-02
4.105631087440997362e-04
2.733844099566340446e-03
3.007946722209453583e-02
3.229425102472305298e-02
4.466016218066215515e-02
4.952942021191120148e-03
-1.312095671892166138e-02
-1.243781647644937038e-03
1.022280380129814148e-02
3.622722253203392029e-02
-3.480195999145507812e-02
1.332536246627569199e-02
-7.096467306837439537e-04
9.714279323816299438e-03
2.950133988633751869e-03
2.626317366957664490e-02
-3.535219933837652206e-03
4.472829401493072510e-03
-1.306891441345214844e-02
-2.632615342736244202e-02
4.630936309695243835e-03
1.727084442973136902e-02
3.088009171187877655e-02
-6.601573550142347813e-04
-1.626344211399555206e-02
-2.800890710204839706e-03
-1.824781880713999271e-03
2.135207317769527435e-02
-2.801935747265815735e-02
5.356901884078979492e-02
-5.782428756356239319e-02
-9.856559336185455322e-03
-1.776933856308460236e-02
1.244264841079711914e-02
2.824989147484302521e-02
-6.123478058725595474e-03
2.236059308052062988e-02
-3.849649429321289062e-02
-4.828502610325813293e-02
2.320106700062751770e-02
2.525902725756168365e-02
-1.794436201453208923e-02
-9.943975135684013367e-03
-4.251265153288841248e-02
-4.503763094544410706e-02
-1.035520527511835098e-02
3.467272268608212471e-03
7.112372200936079025e-03
-1.373380236327648163e-02
-2.762705087661743164e-02
-4.538175184279680252e-03
2.092973142862319946e-02
1.611925102770328522e-02
9.009569883346557617e-03
3.935138694941997528e-03
-5.346936732530593872e-02
-5.003121215850114822e-03
4.446185752749443054e-02
8.136573433876037598e-02
2.382801473140716553e-02
6.265451200306415558e-03
4.135870188474655151e-02
-1.032847817987203598e-02
-4.088331758975982666e-02
-2.507179416716098785e-02
8.224052377045154572e-03
-4.021571204066276550e-02
3.902456536889076233e-02
3.051834739744663239e-02
5.008784122765064240e-03
3.392888978123664856e-02
-7.631679996848106384e-03
1.042374130338430405e-02
-1.736076921224594116e-02
-1.631411141715943813e-03
1.431876327842473984e-02
1.411056332290172577e-02
3.381266444921493530e-02
-4.003972187638282776e-02
2.391698537394404411e-03
-3.016495611518621445e-03
3.538292273879051208e-02
5.134521517902612686e-03
-2.045651711523532867e-02
9.654795750975608826e-03
2.129185386002063751e-02
1.564392261207103729e-02
-5.361334234476089478e-02
2.942540682852268219e-02
3.050629515200853348e-03
-4.614895209670066833e-02
-2.918128855526447296e-03
-8.580588735640048981e-03
1.720835082232952118e-02
1.425511552952229977e-03
-1.629277877509593964e-02
-2.956286258995532990e-02
-2.174152806401252747e-02
-4.255450330674648285e-03
1.148491445928812027e-02
8.198952127713710070e-05
-3.023297898471355438e-02
2.706487663090229034e-02
4.252320621162652969e-03
4.223259165883064270e-02
1.261697988957166672e-02
-1.402842812240123749e-02
-4.124375805258750916e-02
1.579306088387966156e-02
1.741134561598300934e-02
-2.540165558457374573e-02
1.311460416764020920e-02
-5.470459908246994019e-02
-4.489065147936344147e-03
1.241237740032374859e-03
-1.257208641618490219e-02
-5.192282143980264664e-03
1.202848646789789200e-02
3.620963916182518005e-02
8.908955380320549011e-03
1.782466098666191101e-02
2.330624498426914215e-02
-1.130917947739362717e-02
-5.727801471948623657e-04
-3.725799173116683960e-02
1.142859458923339844e-02
-5.622475966811180115e-02
-5.259383842349052429e-02
-2.096737176179885864e-02
-3.145916387438774109e-02
3.160640224814414978e-02
1.192648615688085556e-02
1.490893214941024780e-02
-2.710092067718505859e-02
-2.672905102372169495e-02
-2.265946753323078156e-02
-2.596612274646759033e-02
3.335945308208465576e-02
4.452521726489067078e-02
2.724910527467727661e-02
-2.522774413228034973e-02
-3.351410850882530212e-02
4.600229859352111816e-02
-2.284431643784046173e-02
-2.048082463443279266e-02
-2.758379466831684113e-02
2.979769557714462280e-02
3.412564471364021301e-02
-1.137843448668718338e-02
-3.704280778765678406e-02
-1.845168648287653923e-03
-5.520374700427055359e-02
1.207616832107305527e-02
-1.616100408136844635e-02
3.332177922129631042e-02
-3.337867558002471924e-02
-4.466628655791282654e-02
2.086861804127693176e-02
-6.448495201766490936e-03
4.601934924721717834e-02
1.959905214607715607e-02
-1.137126516550779343e-02
9.238879196345806122e-03
4.079896584153175354e-02
7.694581989198923111e-03
4.769940301775932312e-02
4.343984648585319519e-02
7.097446359694004059e-03
3.655938804149627686e-02
-4.085559397935867310e-02
-1.522209495306015015e-03
-2.353025972843170166e-02
5.128943547606468201e-02
5.584656028077006340e-04
-3.263677656650543213e-02
3.410142287611961365e-02
2.004924416542053223e-02
-2.346815541386604309e-02
3.097738604992628098e-03
3.827509656548500061e-02
-4.116739332675933838e-02
3.410252183675765991e-02
9.533938951790332794e-03
1.420432887971401215e-02
-5.664778873324394226e-03
-4.368550330400466919e-02
2.369466237723827362e-02
8.348822593688964844e-03
2.526777982711791992e-02
-3.000444360077381134e-02
2.353007718920707703e-02
3.911920636892318726e-02
4.382090270519256592e-02
4.033918492496013641e-03
3.602448478341102600e-02
1.503354031592607498e-02
-1.627265661954879761e-02
3.517039865255355835e-02
-1.359999459236860275e-02
3.502804785966873169e-02
2.441345900297164917e-02
3.513036528602242470e-03
-3.651642799377441406e-02
-5.799368023872375488e-03
-1.011495827697217464e-03
8.670421317219734192e-03
8.363237604498863220e-03
-5.798674374818801880e-02
5.214639008045196533e-02
3.050360456109046936e-02
4.823688790202140808e-02
1.887156255543231964e-02
2.891589142382144928e-02
-5.527839064598083496e-02
4.164392873644828796e-02
2.888607792556285858e-02
1.902811415493488312e-02
4.557427391409873962e-02
-4.318140447139739990e-02
4.334048833698034286e-03
-2.321578562259674072e-02
-3.692932799458503723e-02
3.269226476550102234e-02
-6.441449280828237534e-03
2.984865754842758179e-02
3.588063269853591919e-02
-2.450760267674922943e-02
-2.706802450120449066e-02
2.122026123106479645e-02
3.529585152864456177e-02
4.582418873906135559e-02
1.267487090080976486e-02
1.184236374683678150e-03
-2.462822012603282928e-02
1.728091156110167503e-03
-4.127487540245056152e-02
1.670355908572673798e-02
4.719780385494232178e-02
2.984972856938838959e-02
-4.664155840873718262e-02
-1.124700065702199936e-02
-4.107315465807914734e-02
-1.472030859440565109e-02
-2.457372657954692841e-02
5.580003187060356140e-02
3.867417108267545700e-03
3.942589741200208664e-03
1.199366524815559387e-02
5.195792764425277710e-02
-3.630106523633003235e-02
-1.160170696675777435e-02
-2.152534388005733490e-02
2.836381457746028900e-02
-2.459309250116348267e-02
-2.354412153363227844e-02
-1.106576807796955109e-02
4.063742607831954956e-02
4.419051483273506165e-02
-6.908437702804803848e-03
4.577449336647987366e-02
3.945987671613693237e-02
-1.193498075008392334e-02
-3.143901750445365906e-02
-1.363219507038593292e-02
3.427202254533767700e-02
-1.335313916206359863e-02
-3.759227320551872253e-02
3.836148232221603394e-02
4.332075640559196472e-02
5.870798137038946152e-03
-6.855748128145933151e-03
3.757025673985481262e-02
-1.886375993490219116e-02
-1.745063252747058868e-02
4.140491411089897156e-02
-5.818845331668853760e-02
-3.241336345672607422e-02
-1.685058884322643280e-02
1.089286059141159058e-02
-1.134859211742877960e-02
4.740037024021148682e-02
1.028545014560222626e-02
1.230718567967414856e-02
-1.989004760980606079e-02
1.876025577075779438e-03
5.967336148023605347e-02
1.100952550768852234e-02
1.258200034499168396e-02
3.988071903586387634e-02
3.802180290222167969e-02
3.622667863965034485e-03
-7.319678086787462234e-03
3.864292055368423462e-02
-3.607376292347908020e-02
-1.213545445352792740e-03
3.075215406715869904e-02
2.002956718206405640e-02
-3.717108443379402161e-02
-3.797827288508415222e-02
2.336916700005531311e-02
2.152560651302337646e-02
1.060685608536005020e-02
-1.328809279948472977e-02
6.143330782651901245e-02
4.410531371831893921e-03
-2.196122333407402039e-02
2.084528654813766479e-02
-3.974346816539764404e-02
-2.143404446542263031e-02
-2.379253879189491272e-02
-4.510623961687088013e-02
4.380318894982337952e-02
-5.524296779185533524e-03
-1.223991252481937408e-02
5.056938901543617249e-02
-1.869105920195579529e-02
-2.228907309472560883e-03
2.186889201402664185e-02
-1.762197166681289673e-02
5.313889682292938232e-02
3.672713879495859146e-03
2.229317324236035347e-03
3.470274060964584351e-02
4.990284331142902374e-03
3.286367282271385193e-02
-2.939549461007118225e-02
7.637382484972476959e-03
-2.438516356050968170e-03
-1.303773187100887299e-02
-5.715809762477874756e-03
-3.538703173398971558e-02
3.360270708799362183e-02
2.828771015629172325e-03
1.759764738380908966e-02
-7.172207551775500178e-05
3.385037882253527641e-03
-1.465512719005346298e-02
4.127024114131927490e-02
8.020834997296333313e-03
6.225139833986759186e-03
-3.319091722369194031e-02
7.862908765673637390e-03
3.227302432060241699e-02
-1.094114594161510468e-02
3.233072906732559204e-02
3.756689652800559998e-02
-1.921019889414310455e-02
-1.629948243498802185e-02
-2.390128001570701599e-02
-4.482931643724441528e-02
-1.523952744901180267e-02
4.687988758087158203e-02
5.056821554899215698e-02
4.602345824241638184e-02
6.482403259724378586e-03
-5.601659044623374939e-02
2.873275801539421082e-02
4.361843317747116089e-02
-2.440390177071094513e-02
2.309147454798221588e-02
1.717072352766990662e-02
2.793876081705093384e-02
-2.567885071039199829e-02
5.573463067412376404e-02
-1.284301560372114182e-02
2.532293274998664856e-02
-4.950342327356338501e-02
2.527343109250068665e-03
4.668100178241729736e-02
2.384861931204795837e-02
-1.425498723983764648e-02
-2.852255664765834808e-02
1.882474683225154877e-02
6.301248073577880859e-02
-1.340963225811719894e-02
-3.248627111315727234e-02
-5.068919621407985687e-03
-2.954271063208580017e-02
-1.847203634679317474e-02
-1.782284304499626160e-02
3.703464288264513016e-03
-3.747924417257308960e-02
4.918144643306732178e-02
1.768960990011692047e-02
1.682086102664470673e-02
-4.816810414195060730e-02
-1.894067972898483276e-02
2.824631892144680023e-02
4.979031626135110855e-03
7.331237941980361938e-02
-3.479688987135887146e-02
1.086096861399710178e-03
-1.058098976500332355e-03
6.544049084186553955e-02
6.827052682638168335e-03
3.142161667346954346e-02
4.476038366556167603e-02
-1.859932765364646912e-02
1.290555484592914581e-02
-3.564966097474098206e-02
-1.990587450563907623e-02
-4.928489774465560913e-02
3.078708983957767487e-02
4.275652021169662476e-02
1.073398068547248840e-02
-8.067626506090164185e-03
4.131897538900375366e-02
-1.616123877465724945e-02
-2.397513203322887421e-02
3.250573948025703430e-02
2.192465588450431824e-02
-1.271473802626132965e-02
6.748694181442260742e-02
-5.225490778684616089e-02
-2.792427688837051392e-02
1.547958701848983765e-03
3.212353587150573730e-02
3.808226063847541809e-02
-3.507226333022117615e-02
2.779925707727670670e-04
-4.075529053807258606e-02
-1.812122762203216553e-02
-2.957677841186523438e-02
2.867758460342884064e-02
5.077333003282546997e-02
7.075708825141191483e-03
3.394560888409614563e-02
-3.058219887316226959e-02
-2.437686547636985779e-02
-2.921897219493985176e-03
-4.080301150679588318e-03
-2.797616273164749146e-02
-2.860245481133460999e-02
5.934531614184379578e-02
-4.960578307509422302e-02
-3.977957740426063538e-02
-3.675651177763938904e-02
-3.169242292642593384e-02
1.197922974824905396e-02
-2.410191344097256660e-03
-1.515938714146614075e-02
5.990996211767196655e-02
-5.970923695713281631e-03
6.026213988661766052e-03
-2.630926109850406647e-02
4.905750975012779236e-02
2.843163348734378815e-02
7.267601788043975830e-02
-3.861733525991439819e-02
-4.106766078621149063e-03
-2.164538763463497162e-02
4.289640579372644424e-03
9.674088098108768463e-03
-1.473773363977670670e-02
3.562664147466421127e-03
-1.838526688516139984e-02
1.457626093178987503e-02
7.811828702688217163e-02
-5.957760289311408997e-02
-4.157405719161033630e-02
1.458854041993618011e-02
-1.023837272077798843e-02
-2.831540070474147797e-02
8.278425037860870361e-02
-3.330000117421150208e-02
-7.204556372016668320e-03
7.488971948623657227e-02
-1.860105991363525391e-02
-1.662445371039211750e-03
-3.690893203020095825e-02
-1.171213202178478241e-02
3.759185224771499634e-02
-2.283100038766860962e-02
-3.634701296687126160e-02
-1.599495485424995422e-02
2.223591553047299385e-03
-1.248736493289470673e-02
2.919895201921463013e-02
-2.194468304514884949e-02
-3.632789850234985352e-02
-3.235700726509094238e-02
-1.978516206145286560e-02
6.892704986967146397e-04
-2.943545393645763397e-02
-4.154221341013908386e-02
1.172923762351274490e-02
-3.635081648826599121e-02
7.248552981764078140e-03
2.439445815980434418e-02
-8.971132338047027588e-03
5.788654554635286331e-03
-4.933393560349941254e-03
-8.230482786893844604e-02
-1.335893571376800537e-02
5.389291420578956604e-02
-3.938820213079452515e-02
-6.231953855603933334e-03
-2.132997661828994751e-02
1.252374239265918732e-02
3.619290143251419067e-02
4.587553814053535461e-02
-3.482285514473915100e-02
1.049627084285020828e-02
3.220846131443977356e-02
-1.778734661638736725e-02
-3.322281688451766968e-02
5.178104341030120850e-02
-3.532037511467933655e-02
-3.674211725592613220e-02
-2.575702455942519009e-05
1.825882121920585632e-02
5.171238258481025696e-02
2.876631915569305420e-02
-2.600594423711299896e-03
-4.805568233132362366e-02
-1.222416292876005173e-02
3.580835089087486267e-02
-3.053168766200542450e-03
-2.794101275503635406e-02
3.644284978508949280e-02
-3.285330953076481819e-03
1.491236314177513123e-02
-2.169736474752426147e-02
-3.715723380446434021e-02
-3.110840357840061188e-02
-3.006007894873619080e-02
-4.852262884378433228e-02
3.487078938633203506e-03
-1.232335902750492096e-02
-3.739685751497745514e-03
2.199454233050346375e-02
2.090090885758399963e-03
-6.900920718908309937e-02
2.426536986604332924e-03
2.468965714797377586e-03
-5.835027247667312622e-02
-3.728836029767990112e-02
-3.538287431001663208e-02
-4.930046945810317993e-02
2.614272013306617737e-02
-5.620571225881576538e-02
-3.615570312831550837e-04
-2.266379073262214661e-02
-1.853268966078758240e-02
6.748032569885253906e-02
1.090358756482601166e-02
1.126962434500455856e-02
5.069359019398689270e-02
3.685090318322181702e-02
3.168603777885437012e-02
-1.956653408706188202e-02
1.104297768324613571e-02
5.315018817782402039e-02
-6.369676440954208374e-02
2.314678160473704338e-03
-2.129540592432022095e-02
8.596878498792648315e-03
-6.889701355248689651e-03
6.015246734023094177e-02
6.019063293933868408e-03
3.409314528107643127e-02
6.747942417860031128e-02
-5.884508043527603149e-02
6.056579947471618652e-02
1.569832302629947662e-02
1.480775186792016029e-03
2.264744974672794342e-02
-2.949635684490203857e-02
4.490090534090995789e-02
2.670966833829879761e-02
5.432295426726341248e-02
-1.160182617604732513e-02
-4.573507234454154968e-02
2.233062637969851494e-03
1.479664444923400879e-02
4.385820403695106506e-02
-6.947503890842199326e-03
-5.047809705138206482e-02
-6.657385826110839844e-02
3.697562590241432190e-02
-5.402315407991409302e-03
4.273784160614013672e-02
-2.355144545435905457e-02
-1.722836121916770935e-02
4.129198566079139709e-02
-3.424615040421485901e-02
2.546588890254497528e-02
2.824248932301998138e-02
-3.275423124432563782e-02
-1.293690502643585205e-02
-8.984850719571113586e-03
-2.866900525987148285e-02
1.933557540178298950e-02
-9.626561775803565979e-03
3.271695598959922791e-02
-8.497552014887332916e-03
-5.367508158087730408e-03
1.754180993884801865e-03
-4.312522709369659424e-02
-2.524573542177677155e-02
-8.358652703464031219e-03
-2.081714011728763580e-02
1.184224057942628860e-02
1.272480189800262451e-02
1.849363557994365692e-02
-1.412233896553516388e-02
-3.895271196961402893e-02
2.262465842068195343e-02
3.507950901985168457e-02
6.201086565852165222e-02
-2.188951894640922546e-02
3.138279542326927185e-02
-5.611555650830268860e-02
4.951294045895338058e-03
-7.672406733036041260e-03
-1.938069984316825867e-02
-1.892381533980369568e-02
-1.811275817453861237e-02
5.315975844860076904e-02
-3.845098987221717834e-02
-4.450138285756111145e-02
3.808575123548507690e-02
-3.856196254491806030e-02
1.692532747983932495e-02
4.400097951292991638e-02
-4.059560969471931458e-02
-2.525814436376094818e-02
-1.552067510783672333e-02
2.127374149858951569e-02
6.181016191840171814e-02
1.000125240534543991e-02
4.673893004655838013e-02
-1.758034713566303253e-02
-8.656600490212440491e-03
3.675926476716995239e-02
4.156904295086860657e-02
-7.098826766014099121e-02
-2.028051391243934631e-02
-2.879749983549118042e-02
-2.597098611295223236e-02
1.221451675519347191e-03
1.032364647835493088e-02
2.846053615212440491e-02
4.849229380488395691e-02
8.685396984219551086e-03
7.110566832125186920e-03
-1.007384993135929108e-02
8.960188366472721100e-03
2.633820474147796631e-02
-1.506285555660724640e-02
4.231421742588281631e-03
-1.812908239662647247e-02
-3.499159589409828186e-02
-3.584308922290802002e-02
9.194742888212203979e-03
-1.025766879320144653e-02
4.625967703759670258e-03
2.020248956978321075e-02
2.371623925864696503e-02
-1.372548472136259079e-02
-3.566418215632438660e-02
2.588038798421621323e-03
-4.111080989241600037e-02
-1.936308294534683228e-02
-2.274476690217852592e-03
-4.768090695142745972e-02
1.090238895267248154e-02
3.732743440195918083e-03
2.530911378562450409e-02
3.331679105758666992e-02
9.081763215363025665e-03
4.021039232611656189e-02
-4.294402524828910828e-02
5.393325537443161011e-02
-1.871388219296932220e-02
-2.087473869323730469e-03
-2.374496497213840485e-02
-4.218162596225738525e-02
-2.249304763972759247e-02
-7.883472368121147156e-03
-3.836714103817939758e-02
-1.347519457340240479e-02
-1.824774197302758694e-03
3.101305477321147919e-02
4.749908298254013062e-02
-1.119685266166925430e-02
-1.657079905271530151e-02
-1.613146997988224030e-02
2.083952305838465691e-03
-3.999479115009307861e-02
2.668015100061893463e-02
-3.321140632033348083e-02
8.924887515604496002e-03
1.582443155348300934e-02
3.926564380526542664e-02
-3.923676908016204834e-02
-2.588960714638233185e-02
-3.774837404489517212e-02
-1.678341254591941833e-02
1.709761656820774078e-02
7.214475423097610474e-03
-3.510193200781941414e-03
-3.704577311873435974e-02
-3.495254740118980408e-02
-5.483794957399368286e-03
-3.386205062270164490e-02
2.200690843164920807e-02
2.925919368863105774e-02
-2.295641787350177765e-02
3.054177574813365936e-02
-4.339558538049459457e-03
-1.019989885389804840e-02
-1.765404944308102131e-03
-4.025995731353759766e-02
4.227326065301895142e-02
4.160900786519050598e-02
2.145852893590927124e-03
3.074798174202442169e-02
-4.741798713803291321e-02
-9.463847614824771881e-03
-1.999941095709800720e-02
-1.400676183402538300e-02
1.448845770210027695e-02
-4.461344797164201736e-03
-1.137813087552785873e-04
5.475993748405016959e-05
-4.230989143252372742e-03
3.098078630864620209e-02
-2.337823389098048210e-03
2.234483696520328522e-02
-1.640249975025653839e-02
-2.904910594224929810e-02
1.995470002293586731e-02
-4.947222396731376648e-02
2.526796236634254456e-02
-3.269582614302635193e-02
1.914497464895248413e-02
-1.205429900437593460e-02
2.897734194993972778e-02
-3.663470223546028137e-02
9.575474075973033905e-03
4.002751410007476807e-02
2.108746767044067383e-02
2.234849147498607635e-02
-1.323373429477214813e-02
-2.548082172870635986e-02
5.145909264683723450e-02
1.594766415655612946e-02
-4.952410236001014709e-02
-5.593828856945037842e-03
-4.543915763497352600e-02
7.507754489779472351e-03
-4.949473659507930279e-04
-2.225523628294467926e-02
1.742734201252460480e-02
2.965766005218029022e-02
1.099945418536663055e-02
2.935314737260341644e-02
4.544036462903022766e-02
-1.851499825716018677e-02
2.697189152240753174e-02
1.845337077975273132e-02
3.971847891807556152e-02
1.595549844205379486e-02
3.419037163257598877e-02
4.495630040764808655e-02
3.737367689609527588e-02
3.257829695940017700e-02
3.535788506269454956e-02
2.793404459953308105e-02
-4.898171499371528625e-02
1.264229230582714081e-02
1.528019434772431850e-03
2.744439290836453438e-03
1.863099075853824615e-02
-1.232365332543849945e-02
-5.592815577983856201e-03
4.649740643799304962e-03
-1.131289824843406677e-02
-2.514005266129970551e-02
-3.671748563647270203e-02
-5.599030107259750366e-02
-1.256562676280736923e-02
4.535277187824249268e-02
-9.806141257286071777e-03
-7.379428297281265259e-02
2.083972096443176270e-02
1.454748492687940598e-02
-2.755809575319290161e-02
3.027335926890373230e-02
-6.477354560047388077e-03
4.319873824715614319e-02
-6.696106400340795517e-03
-2.502788975834846497e-02
-1.454897504299879074e-02
-5.333580542355775833e-03
2.273390255868434906e-02
5.013823881745338440e-02
-6.748004816472530365e-03
3.903120988979935646e-03
-1.702129282057285309e-02
-2.692239731550216675e-02
7.686148863285779953e-03
-2.532334998250007629e-03
-8.323935791850090027e-03
3.577298484742641449e-03
2.231776155531406403e-02
4.465775936841964722e-02
7.595793157815933228e-02
3.016851842403411865e-03
-5.261814687401056290e-03
-3.198420256376266479e-02
1.450204569846391678e-02
-2.316066063940525055e-02
-3.082514554262161255e-02
4.655355121940374374e-03
-3.221636265516281128e-02
-3.096779109910130501e-03
-5.096837878227233887e-02
-2.718855813145637512e-02
-2.678172476589679718e-02
-1.418679486960172653e-02
-1.653092913329601288e-02
5.243334174156188965e-02
-9.980754926800727844e-03
-1.861436478793621063e-02
8.534305728971958160e-03
5.749623477458953857e-02
-8.225158788263797760e-03
-2.421977184712886810e-02
7.407142780721187592e-03
5.382549017667770386e-02
5.414194986224174500e-02
3.604628518223762512e-02
4.466189444065093994e-02
8.627719432115554810e-02
-2.014556713402271271e-02
-2.484337240457534790e-02
3.591417893767356873e-02
5.972864106297492981e-02
4.023389890789985657e-02
4.563220962882041931e-02
-3.558537364006042480e-02
-2.708309330046176910e-02
5.215346813201904297e-02
-8.176578558050096035e-05
1.293835416436195374e-02
-8.642006665468215942e-03
-1.953142136335372925e-02
1.826353836804628372e-03
5.285248905420303345e-02
-3.775419294834136963e-02
-5.572055652737617493e-02
-1.528708357363939285e-02
-4.454661533236503601e-02
2.330109104514122009e-02
4.432323202490806580e-02
1.694982126355171204e-02
-3.873160853981971741e-02
8.034269325435161591e-03
-1.598494127392768860e-02
-2.093892544507980347e-02
1.467894326196983457e-04
-1.110153086483478546e-02
2.993236668407917023e-02
-9.322883561253547668e-03
3.170555830001831055e-02
1.922765932977199554e-02
-5.038458108901977539e-02
3.573540225625038147e-02
-3.590067103505134583e-02
-3.408779576420783997e-02
4.650343582034111023e-02
-3.445504605770111084e-02
1.605169288814067841e-02
1.959863817319273949e-03
-1.545469835400581360e-02
-1.834347471594810486e-02
-1.748243160545825958e-02
-2.096959017217159271e-02
1.898668333888053894e-02
-3.438576357439160347e-03
-3.395186737179756165e-02
-1.729390770196914673e-02
1.733260788023471832e-02
1.520057953894138336e-02
-2.672211267054080963e-02
-2.351055666804313660e-02
-1.487438473850488663e-02
-4.530005156993865967e-02
-1.625906676054000854e-02
2.294505946338176727e-02
-1.420820131897926331e-02
-5.823604390025138855e-02
-2.094564773142337799e-02
-1.366118434816598892e-02
-1.419853768311440945e-03
-2.295337058603763580e-02
-2.740961685776710510e-02
2.171429619193077087e-02
1.974015496671199799e-02
2.868529036641120911e-02
-1.728146150708198547e-02
4.053391516208648682e-02
-3.804008662700653076e-02
-1.131761353462934494e-02
-1.335831359028816223e-02
3.100828267633914948e-02
-1.272317860275506973e-02
6.108053959906101227e-03
5.043633282184600830e-03
-5.610654503107070923e-02
-4.337430000305175781e-02
-2.409077994525432587e-02
7.249227166175842285e-02
1.768796518445014954e-02
1.400421466678380966e-02
-2.520915679633617401e-02
-2.857470512390136719e-02
-3.211251273751258850e-02
-2.287566103041172028e-02
3.515196964144706726e-03
2.780907601118087769e-02
2.273714868351817131e-03
-2.808259800076484680e-03
2.476297318935394287e-02
4.163734242320060730e-02
2.898038737475872040e-02
-4.846771433949470520e-02
2.321532927453517914e-02
6.218240596354007721e-03
-2.355254627764225006e-02
-2.898452803492546082e-02
1.134992484003305435e-02
-2.322749421000480652e-02
-2.417741157114505768e-02
-6.164931692183017731e-04
-8.385541848838329315e-03
3.383203875273466110e-03
-3.480211272835731506e-02
-3.986405953764915466e-02
3.137671202421188354e-02
3.182183206081390381e-02
1.735405437648296356e-02
-1.799057424068450928e-02
3.261204436421394348e-02
2.714658528566360474e-02
1.676971465349197388e-02
2.979695051908493042e-02
-1.608524657785892487e-02
-4.661847371608018875e-03
-5.912638269364833832e-03
2.680049277842044830e-02
-6.053275614976882935e-02
-1.173189189285039902e-02
-2.848020382225513458e-02
-1.279695890843868256e-02
4.634470865130424500e-02
1.814551092684268951e-02
9.812131524085998535e-03
-1.636338885873556137e-03
-1.402063760906457901e-02
-1.188026834279298782e-02
5.484936758875846863e-03
-1.243808772414922714e-02
-1.205058116465806961e-02
9.061924181878566742e-03
-1.910408027470111847e-02
-1.932766102254390717e-02
-4.801185056567192078e-02
-2.780170366168022156e-02
-4.755707085132598877e-02
-1.621469156816601753e-03
9.128372184932231903e-03
4.411526769399642944e-02
-2.470252104103565216e-02
-1.344369817525148392e-02
1.469346880912780762e-02
-5.591245368123054504e-02
-2.162015438079833984e-02
2.947568707168102264e-02
-5.643904581665992737e-02
2.299336716532707214e-02
4.291014745831489563e-02
8.910663425922393799e-03
-3.944781795144081116e-02
-3.684615716338157654e-02
2.367061376571655273e-02
-8.228793740272521973e-03
9.275785647332668304e-03
7.055752724409103394e-02
-7.972124149091541767e-04
-1.814562268555164337e-02
-4.483488947153091431e-02
2.419861219823360443e-02
-2.088843286037445068e-02
3.664132207632064819e-02
7.211039308458566666e-03
-3.754645586013793945e-02
2.735485881567001343e-02
3.202134743332862854e-02
1.645327173173427582e-02
1.925400830805301666e-02
6.401637569069862366e-03
2.140645636245608330e-03
3.128112107515335083e-02
3.034029901027679443e-02
2.646259218454360962e-02
-8.730382658541202545e-03
2.652233466506004333e-03
7.315772585570812225e-03
-1.446705590933561325e-02
2.639936469495296478e-02
-1.796831749379634857e-02
3.631031373515725136e-03
-4.296531900763511658e-02
2.409183792769908905e-02
-1.137307565659284592e-02
-3.162530809640884399e-02
-3.967806696891784668e-02
-2.558702975511550903e-02
-4.416476935148239136e-02
6.229658145457506180e-03
-1.449424959719181061e-02
1.604402251541614532e-02
3.148330748081207275e-02
1.542635262012481689e-03
-1.990592107176780701e-02
3.515810519456863403e-02
-7.718665152788162231e-02
-2.740742452442646027e-02
-4.593817982822656631e-03
2.640757337212562561e-02
-2.643964253365993500e-04
-6.480254698544740677e-03
3.854952380061149597e-02
-1.053699292242527008e-02
7.691311649978160858e-03
-4.034303128719329834e-02
-3.707826603204011917e-03
-2.729878388345241547e-02
2.572581171989440918e-02
4.137009754776954651e-02
1.213634200394153595e-02
2.293166331946849823e-02
-4.247917979955673218e-02
1.202144194394350052e-02
-8.171830326318740845e-03
-5.039815977215766907e-02
3.198669478297233582e-02
-1.957815326750278473e-02
-1.652170531451702118e-02
1.356748025864362717e-02
-3.711652755737304688e-02
2.646781131625175476e-02
3.236765414476394653e-02
1.163063570857048035e-02
2.786136465147137642e-03
4.751713946461677551e-02
-6.478232145309448242e-02
-2.586094103753566742e-02
2.535636536777019501e-02
-2.128399908542633057e-02
2.324895700439810753e-03
4.539031907916069031e-02
-4.948999732732772827e-03
-3.691614046692848206e-02
-1.435461081564426422e-02
5.105262249708175659e-02
-2.800009027123451233e-02
2.600078657269477844e-02
-1.268863677978515625e-02
-5.430478602647781372e-03
2.288189018145203590e-03
-7.277623284608125687e-03
4.677928611636161804e-02
-3.413387457840144634e-04
-3.051309473812580109e-02
-1.766274124383926392e-02
-1.189321931451559067e-02
-9.940649382770061493e-03
3.127519413828849792e-02
7.082042284309864044e-03
5.637376569211483002e-03
3.834527358412742615e-02
2.672884799540042877e-02
-2.571331337094306946e-02
4.311415925621986389e-02
1.019776612520217896e-02
4.483140539377927780e-03
6.227937410585582256e-04
-4.464274644851684570e-02
1.920513622462749481e-02
3.869988396763801575e-02
4.306973889470100403e-02
-1.847090013325214386e-02
7.230651099234819412e-04
2.107822103425860405e-03
-4.187201336026191711e-02
-2.441797219216823578e-02
3.347592428326606750e-02
1.400166307576000690e-03
1.735381036996841431e-02
1.784933544695377350e-02
8.328061550855636597e-03
-5.943349748849868774e-02
-1.291865203529596329e-02
-2.590475976467132568e-02
-1.874000951647758484e-02
2.193439565598964691e-02
-2.651526778936386108e-02
1.336925197392702103e-02
-6.852057296782732010e-03
1.217681635171175003e-02
1.019989605993032455e-02
-3.986179456114768982e-02
7.440265221703157295e-07
2.001016214489936829e-02
-4.026758298277854919e-02
-2.098691649734973907e-02
6.035369262099266052e-02
7.797336671501398087e-03
3.515485674142837524e-02
1.596576347947120667e-02
-4.229110199958086014e-03
6.659233011305332184e-03
1.886814832687377930e-02
4.475473240017890930e-02
-1.048996462486684322e-03
3.352883830666542053e-02
2.283941581845283508e-02
3.540388494729995728e-02
8.830389007925987244e-03
1.322157774120569229e-02
2.359425462782382965e-02
1.519296504557132721e-02
1.848055794835090637e-02
2.094266377389431000e-02
-2.814875170588493347e-02
3.993156924843788147e-02
1.683032140135765076e-02
-3.239235840737819672e-03
1.819660142064094543e-02
2.056883834302425385e-02
9.774069767445325851e-04
1.891206135042011738e-03
2.839203178882598877e-02
6.363720446825027466e-02
2.357346378266811371e-02
-1.322834566235542297e-02
-3.274616226553916931e-02
-7.015985250473022461e-02
3.158196434378623962e-02
-3.901002183556556702e-02
-1.215077098459005356e-02
-6.580226123332977295e-03
-1.696617156267166138e-02
8.445917628705501556e-03
3.743004798889160156e-02
-2.479367516934871674e-02
1.530185434967279434e-02
1.889231149107217789e-03
-6.215723231434822083e-03
2.358955144882202148e-02
3.528337925672531128e-02
1.141746249049901962e-02
-2.658332511782646179e-02
1.707259006798267365e-02
-1.946198381483554840e-02
7.522241678088903427e-03
2.879355847835540771e-02
1.394673809409141541e-02
-2.670374512672424316e-02
-1.069975830614566803e-02
-3.368907608091831207e-03
4.385638236999511719e-02
3.326578298583626747e-03
-3.693932667374610901e-02
-2.685809042304754257e-03
6.788954488001763821e-04
1.574360951781272888e-02
-3.046288341283798218e-02
-2.334394119679927826e-02
-5.735365673899650574e-03
-1.912322267889976501e-02
-5.560207180678844452e-03
1.506758574396371841e-02
5.167993530631065369e-02
-7.810691837221384048e-03
-9.251661598682403564e-03
1.102149020880460739e-02
1.140090916305780411e-02
-6.800470408052206039e-03
-1.885219663381576538e-02
-2.677102759480476379e-02
-1.941023976542055607e-03
-3.243982419371604919e-02
1.243331283330917358e-02
1.896283403038978577e-02
3.460267558693885803e-02
-1.937961950898170471e-02
-3.641463071107864380e-02
-3.006535023450851440e-02
-1.689671166241168976e-02
2.267760597169399261e-02
-4.900503158569335938e-02
1.284915208816528320e-02
3.127120435237884521e-03
3.111039102077484131e-02
1.757544279098510742e-02
1.021603029221296310e-02
1.055458839982748032e-02
5.205395072698593140e-02
5.970757454633712769e-03
-2.502392418682575226e-02
3.370681777596473694e-02
1.302133779972791672e-02
1.591770350933074951e-02
-3.817993775010108948e-02
-3.910750523209571838e-02
2.729173563420772552e-02
3.947660326957702637e-02
-6.820444017648696899e-03
-1.402816083282232285e-02
-3.396486490964889526e-02
-3.544712811708450317e-02
-6.661505438387393951e-03
2.538256719708442688e-02
2.497828565537929535e-02
-6.859042681753635406e-03
-2.908690646290779114e-02
4.029192775487899780e-02
-3.676319727674126625e-03
1.117316540330648422e-02
-4.773545265197753906e-02
-2.153525827452540398e-03
-2.373183891177177429e-02
-9.371095336973667145e-03
-2.278992533683776855e-02
-3.324394300580024719e-02
2.553549595177173615e-02
-1.317076967097818851e-03
1.975875906646251678e-02
-4.445014521479606628e-02
-2.627133019268512726e-02
-3.456716984510421753e-02
-1.593530364334583282e-02
-1.218638848513364792e-02
-9.838706813752651215e-03
-4.262097924947738647e-02
2.289770916104316711e-02
-6.271408498287200928e-02
-3.716383874416351318e-02
-1.157096214592456818e-02
1.971051841974258423e-02
1.979952212423086166e-04
-3.578468039631843567e-02
4.657725244760513306e-02
1.438659429550170898e-02
4.996686428785324097e-02
-3.609265759587287903e-02
-1.591957733035087585e-02
3.643925487995147705e-02
3.634697943925857544e-02
2.015855349600315094e-02
2.699666470289230347e-02
-1.425144355744123459e-02
-2.030544728040695190e-02
-2.788879908621311188e-02
-3.384946286678314209e-02
4.392008762806653976e-03
-3.565138205885887146e-02
-4.328119754791259766e-02
-3.119091875851154327e-02
-5.219117552042007446e-02
-1.774380728602409363e-02
-1.755814254283905029e-02
1.181050390005111694e-02
2.136287838220596313e-02
-1.199709530919790268e-02
2.770597115159034729e-02
4.617921262979507446e-02
-1.131037157028913498e-02
3.629975020885467529e-02
-2.580659277737140656e-02
-1.697788573801517487e-02
-3.045467473566532135e-02
4.188990220427513123e-02
-3.112603165209293365e-02
1.441602944396436214e-03
-1.819845475256443024e-02
-1.632911525666713715e-02
7.194112986326217651e-03
7.021794095635414124e-03
1.955734379589557648e-02
-8.445732295513153076e-03
2.614244818687438965e-02
1.400509383529424667e-02
-4.798725247383117676e-03
-2.853804081678390503e-02
-3.365285322070121765e-02
2.807483635842800140e-02
-6.536335684359073639e-03
-2.361079119145870209e-02
2.254788950085639954e-02
9.071756154298782349e-03
-9.661163203418254852e-03
-1.322113815695047379e-02
-8.009621873497962952e-03
3.681773692369461060e-02
1.158388797193765640e-02
-3.064047172665596008e-02
1.710395328700542450e-02
-4.115069657564163208e-02
-2.318293042480945587e-02
-3.494394943118095398e-02
-9.467563591897487640e-03
2.865987457334995270e-02
3.494378551840782166e-02
1.215542550198733807e-03
2.936721406877040863e-02
-2.197808213531970978e-02
-1.769142597913742065e-02
-1.472643576562404633e-02
2.802756242454051971e-02
2.524327300488948822e-02
7.995880208909511566e-03
3.600119380280375481e-03
2.479023300111293793e-02
-3.513829410076141357e-02
1.423691771924495697e-02
-4.181483294814825058e-03
7.663921453058719635e-03
-3.946118056774139404e-02
1.345437299460172653e-02
1.933822967112064362e-02
2.287677861750125885e-02
-2.326870895922183990e-02
-2.537642978131771088e-02
-3.227135166525840759e-02
8.467651903629302979e-03
-1.594414189457893372e-02
2.298050746321678162e-02
-2.644138596951961517e-02
3.705244138836860657e-02
1.060381066054105759e-02
1.780775561928749084e-02
2.262751944363117218e-02
-5.300024151802062988e-02
-3.314414620399475098e-02
1.704785414040088654e-02
3.991039097309112549e-02
-2.527731657028198242e-02
-1.817146688699722290e-02
-1.820030040107667446e-03
-5.572346039116382599e-03
2.702355384826660156e-02
2.646180987358093262e-02
4.559445660561323166e-03
3.076002746820449829e-02
4.411540180444717407e-02
-1.934622228145599365e-02
2.025620080530643463e-02
2.450987324118614197e-02
3.506858274340629578e-02
2.546530030667781830e-02
4.110208153724670410e-02
2.838028222322463989e-02
3.179784491658210754e-02
-3.506528213620185852e-02
3.502884507179260254e-02
-2.865109033882617950e-02
-1.432288438081741333e-02
4.278313741087913513e-02
2.251391857862472534e-02
-4.826232045888900757e-02
4.575769882649183273e-03
-9.774160571396350861e-03
-4.215426743030548096e-03
7.835299707949161530e-03
6.577772088348865509e-03
4.593011923134326935e-03
2.787201851606369019e-02
3.825799003243446350e-02
-4.743422323372215033e-05
1.599365100264549255e-02
5.504557117819786072e-02
1.037265174090862274e-02
-7.189757190644741058e-03
4.615834355354309082e-02
-1.558180805295705795e-02
4.996512830257415771e-02
-1.168442796915769577e-02
8.097882568836212158e-02
-1.577333919703960419e-02
-2.031539380550384521e-02
4.045041650533676147e-02
-1.320265419781208038e-02
-8.583134971559047699e-03
2.280575037002563477e-02
-2.089539170265197754e-02
4.377742484211921692e-02
7.002516184002161026e-03
1.241411641240119934e-02
5.832127854228019714e-02
-5.015259608626365662e-02
-2.205967903137207031e-03
3.472201351542025805e-04
1.679888367652893066e-02
-5.066834017634391785e-02
2.351706661283969879e-02
1.324042491614818573e-02
2.471610531210899353e-02
-1.278724055737257004e-02
-1.795638725161552429e-02
1.950760371983051300e-02
5.993737373501062393e-03
-5.908983945846557617e-02
4.441598057746887207e-02
4.591962788254022598e-03
5.446713184937834740e-04
-2.517190948128700256e-02
5.170587822794914246e-02
1.728750392794609070e-02
-2.100302139297127724e-03
-9.394673630595207214e-03
6.610186398029327393e-02
-1.048468146473169327e-02
7.539935875684022903e-03
2.061830833554267883e-02
4.374091699719429016e-02
-2.587103843688964844e-02
-3.629040718078613281e-02
2.101731952279806137e-03
2.618714608252048492e-02
1.961508020758628845e-02
-1.509820390492677689e-02
2.289922721683979034e-02
-3.079775534570217133e-02
-6.228051148355007172e-03
2.499131113290786743e-02
-1.954767853021621704e-02
1.334405876696109772e-02
-4.597000032663345337e-02
-1.939907483756542206e-02
-3.688705712556838989e-02
1.819395460188388824e-02
-4.825743846595287323e-03
3.435308113694190979e-02
3.521836921572685242e-02
5.401359405368566513e-03
-4.203729704022407532e-02
-4.116665944457054138e-02
-3.106286935508251190e-02
6.842050701379776001e-03
-2.656056545674800873e-02
3.770646452903747559e-02
4.002497717738151550e-02
1.786766946315765381e-02
5.900261178612709045e-02
1.772555895149707794e-02
1.414822507649660110e-02
3.084621625021100044e-03
2.359292097389698029e-02
-2.466601692140102386e-02
5.088290199637413025e-02
-2.238355949521064758e-02
-7.761634420603513718e-03
-7.601954857818782330e-04
-2.527844905853271484e-02
1.400806941092014313e-02
8.158848620951175690e-03
8.947965689003467560e-04
3.088086843490600586e-02
-7.733011152595281601e-03
6.458420306444168091e-02
-4.802784696221351624e-02
6.647924892604351044e-03
1.832672511227428913e-03
1.809525676071643829e-02
-2.226386964321136475e-02
2.819357067346572876e-02
-2.976566925644874573e-02
1.640254072844982147e-02
-1.016427297145128250e-02
-5.383417010307312012e-03
3.676728531718254089e-02
-1.868077181279659271e-02
7.605986297130584717e-02
-3.234207630157470703e-02
-3.284434229135513306e-02
2.742503397166728973e-02
2.424994483590126038e-02
3.186321631073951721e-02
-1.145399082452058792e-02
2.489396138116717339e-03
-2.441613934934139252e-03
3.910091519355773926e-02
5.834988784044981003e-03
1.538381213322281837e-03
4.023493826389312744e-02
2.094524726271629333e-02
2.546835690736770630e-02
-1.665101014077663422e-02
2.113698050379753113e-02
-9.190483018755912781e-03
2.694703638553619385e-02
-2.303349226713180542e-02
3.060534410178661346e-02
-8.376518264412879944e-03
-2.482847310602664948e-02
-2.341305091977119446e-02
-1.425310038030147552e-02
1.715209521353244781e-02
-3.454944118857383728e-02
1.194033492356538773e-02
-2.067907527089118958e-02
-3.314819559454917908e-02
-2.000689506530761719e-02
-1.733339019119739532e-02
3.084427863359451294e-02
-7.817695848643779755e-03
-3.251295164227485657e-02
3.652051463723182678e-02
6.990702357143163681e-03
4.210318997502326965e-02
-2.324963733553886414e-02
-4.835816845297813416e-02
7.507018162868916988e-04
-2.455159090459346771e-02
3.616671636700630188e-02
4.867172613739967346e-02
-2.950090914964675903e-02
-3.303779289126396179e-02
-3.237737342715263367e-02
1.730395108461380005e-02
9.523421525955200195e-03
-2.682809159159660339e-02
-2.151787281036376953e-02
3.260608762502670288e-02
4.014807194471359253e-02
-4.343459010124206543e-02
-4.372917115688323975e-03
2.645813859999179840e-02
8.353547006845474243e-02
2.736794017255306244e-02
-1.415001787245273590e-02
2.873515337705612183e-02
7.116198539733886719e-03
-2.917510829865932465e-02
-1.007945556193590164e-02
2.547536604106426239e-02
1.786368153989315033e-02
4.598174244165420532e-02
-2.614957839250564575e-02
1.019596867263317108e-02
-4.887267947196960449e-02
-1.088140439242124557e-02
2.532930858433246613e-02
1.194635964930057526e-02
-1.463225390762090683e-02
2.771801687777042389e-02
2.886810339987277985e-02
-1.436416618525981903e-02
9.318765252828598022e-03
-2.321456326171755791e-03
-3.102731704711914062e-02
5.284364148974418640e-02
1.624888926744461060e-02
1.797781139612197876e-02
-4.409161955118179321e-02
7.497284561395645142e-02
-1.208143774420022964e-02
1.140673737972974777e-02
-4.834071733057498932e-03
1.427806331776082516e-03
2.093987911939620972e-02
3.904793411493301392e-02
2.943229489028453827e-02
-3.571072965860366821e-02
-3.398630023002624512e-02
-3.330220654606819153e-02
4.426625370979309082e-02
-3.920898959040641785e-02
-2.351788058876991272e-02
9.070556610822677612e-03
-3.700805455446243286e-02
3.438699990510940552e-02
4.155912995338439941e-02
5.225846543908119202e-02
1.326071098446846008e-02
-2.288366109132766724e-02
6.496462225914001465e-02
-1.253544818609952927e-03
7.408240437507629395e-02
-4.706910252571105957e-02
-2.789616351947188377e-03
4.194428026676177979e-02
3.138811141252517700e-02
-1.590991159901022911e-03
5.170287191867828369e-02
-5.907861143350601196e-02
3.533562645316123962e-02
-2.208690159022808075e-02
-2.535792253911495209e-02
-1.556327287107706070e-02
2.906622551381587982e-02
2.698397496715188026e-03
1.029688306152820587e-02
2.171569690108299255e-02
5.651605129241943359e-02
2.694119326770305634e-02
4.905847832560539246e-02
9.237432852387428284e-03
-1.674469560384750366e-02
1.999838091433048248e-02
2.269705384969711304e-02
1.150247454643249512e-02
-3.396949544548988342e-02
1.110001758206635714e-04
-4.408794455230236053e-03
-6.129442248493432999e-03
1.270691282115876675e-04
2.176331356167793274e-03
-3.354426100850105286e-02
-3.516745939850807190e-02
5.519969761371612549e-02
4.813449457287788391e-02
5.484353378415107727e-02
5.076022818684577942e-02
-5.605602171272039413e-03
-1.628770609386265278e-03
2.762997522950172424e-02
-1.067154761403799057e-02
1.356427930295467377e-02
1.180451270192861557e-02
-1.751965656876564026e-02
-9.792981669306755066e-03
4.806889221072196960e-02
-2.785156294703483582e-02
-2.325907349586486816e-02
1.824831217527389526e-02
3.461267054080963135e-02
8.153930306434631348e-03
-1.258836966007947922e-02
3.022802062332630157e-02
1.335339475190266967e-04
1.021331269294023514e-02
2.697780728340148926e-02
-4.158804193139076233e-02
1.000985968858003616e-02
-2.522033639252185822e-02
-4.425260797142982483e-02
3.948389366269111633e-02
-2.035006321966648102e-02
-2.274074964225292206e-02
4.613750055432319641e-02
-4.772623255848884583e-02
1.003483589738607407e-02
5.579805001616477966e-02
-2.706292830407619476e-02
-4.650622978806495667e-02
-8.161463774740695953e-04
4.757006466388702393e-02
-1.565592736005783081e-02
5.385291948914527893e-02
-4.046838358044624329e-02
5.224994383752346039e-03
-4.727076366543769836e-02
7.378180511295795441e-03
4.340920224785804749e-02
-1.405514543876051903e-03
3.696598857641220093e-02
4.525684565305709839e-02
1.841356395743787289e-03
7.647610735148191452e-03
2.545665018260478973e-02
1.013495679944753647e-02
4.182678088545799255e-02
7.827857881784439087e-02
2.096350770443677902e-03
3.250297158956527710e-02
-5.602647084742784500e-03
-3.303203359246253967e-02
-1.568283140659332275e-02
3.562637045979499817e-02
2.978761121630668640e-02
5.460759624838829041e-02
-2.368286065757274628e-02
-6.248893914744257927e-04
2.353888377547264099e-02
-2.949705906212329865e-02
-5.186225473880767822e-02
-1.657270267605781555e-02
-3.650693222880363464e-02
2.152037061750888824e-02
-6.665630498901009560e-04
1.653281040489673615e-02
3.144161310046911240e-03
-2.603439614176750183e-03
7.282926235347986221e-03
3.633883222937583923e-02
-2.416126616299152374e-02
1.363666821271181107e-02
-9.371898137032985687e-03
2.486955188214778900e-02
2.757879346609115601e-02
-2.802302502095699310e-02
4.665427282452583313e-02
4.070213809609413147e-02
-4.824196174740791321e-02
5.242627114057540894e-02
