-8.344759792089462280e-02
1.605667471885681152e-01
-5.838672630488872528e-03
-2.942180819809436798e-02
2.906446577981114388e-03
1.673415452241897583e-01
-9.472383558750152588e-02
-7.401504367589950562e-02
-1.129115074872970581e-01
-1.136882528662681580e-01
1.928804516792297363e-01
-1.408901661634445190e-01
-1.415917724370956421e-01
8.320792764425277710e-02
-1.165289431810379028e-01
-1.677064457908272743e-03
-2.038747370243072510e-01
2.055130451917648315e-01
-1.297892183065414429e-01
5.104787647724151611e-02
1.769905686378479004e-01
-5.686154961585998535e-02
1.089422032237052917e-01
2.219144105911254883e-01
-1.180919110774993896e-01
-1.545580010861158371e-02
-1.022160574793815613e-01
2.129116505384445190e-01
-5.289725959300994873e-02
9.164242446422576904e-02
-9.550519287586212158e-02
-2.531299926340579987e-02
-3.117892444133758545e-01
-1.184742301702499390e-01
1.388491839170455933e-01
1.528100222349166870e-01
-2.010168433189392090e-01
-1.925890892744064331e-02
-1.684695929288864136e-01
7.573021203279495239e-02
-1.539519429206848145e-01
-9.758445620536804199e-02
-3.231503441929817200e-02
8.907289057970046997e-02
-1.036004498600959778e-01
-1.876803040504455566e-01
-6.672311574220657349e-02
-8.108754456043243408e-02
-5.087347701191902161e-02
1.121547669172286987e-01
-1.575349718332290649e-01
1.728169620037078857e-01
1.144175380468368530e-01
-3.484656289219856262e-02
-2.932760678231716156e-02
-2.672399580478668213e-02
1.138160750269889832e-01
-3.520420193672180176e-02
1.644750237464904785e-01
1.586019843816757202e-01
4.043007269501686096e-02
-9.554630145430564880e-03
-1.499095410108566284e-01
4.995840042829513550e-02
1.981260478496551514e-01
-1.655490398406982422e-01
-2.210510522127151489e-01
2.385641273576766253e-04
4.807235673069953918e-02
6.580791622400283813e-02
-7.887079566717147827e-02
7.889910787343978882e-02
-2.053804099559783936e-01
-1.778479069471359253e-01
8.646835386753082275e-02
-1.005656346678733826e-01
2.850511111319065094e-03
2.037791013717651367e-01
-5.725238006561994553e-03
-7.699336856603622437e-03
1.367864310741424561e-01
1.449979841709136963e-01
-2.149823457002639771e-01
1.708194762468338013e-01
5.459229648113250732e-02
1.874313205480575562e-01
1.196442618966102600e-01
2.080859392881393433e-01
-1.545893996953964233e-01
6.307201087474822998e-02
1.845451444387435913e-01
5.265096947550773621e-02
-3.849077597260475159e-02
-1.872062450274825096e-03
5.029911175370216370e-02
9.442877769470214844e-02
1.669607013463973999e-01
2.037226408720016479e-02
9.023369103670120239e-02
7.793644070625305176e-02
-6.935227662324905396e-02
-1.953426599502563477e-01
-2.210450172424316406e-02
1.539992392063140869e-01
-1.053974181413650513e-01
-2.335366457700729370e-01
2.099668085575103760e-01
1.462051570415496826e-01
-2.172166705131530762e-01
2.354491502046585083e-01
2.950616739690303802e-02
-9.476376324892044067e-02
1.324318945407867432e-01
9.577710181474685669e-02
9.352507442235946655e-02
-1.888437122106552124e-01
-1.648115664720535278e-01
9.701658040285110474e-02
-2.274773642420768738e-02
-3.159549087285995483e-02
1.536209485493600368e-03
3.270419687032699585e-02
-3.489136323332786560e-02
1.091717332601547241e-01
7.944329828023910522e-02
5.867375433444976807e-02
5.757215991616249084e-02
-4.883641377091407776e-02
-1.191365048289299011e-01
-6.456533819437026978e-02
-1.236277539283037186e-02
7.048190385103225708e-02
1.014892011880874634e-02
1.386848688125610352e-01
6.712930649518966675e-02
-1.429287642240524292e-01
-1.697531044483184814e-01
1.206358373165130615e-01
-3.822801634669303894e-02
-3.842382505536079407e-02
-1.464642435312271118e-01
-4.159714654088020325e-02
-1.271040141582489014e-01
-1.433270424604415894e-01
8.754768967628479004e-02
1.492287814617156982e-01
2.199811190366744995e-01
-6.609304249286651611e-02
9.058031253516674042e-03
-5.080732330679893494e-02
-1.076917201280593872e-01
-1.560353487730026245e-01
1.532888114452362061e-01
-1.715028882026672363e-01
-5.888305976986885071e-02
2.146327793598175049e-01
1.073801591992378235e-01
8.603740483522415161e-03
6.414401531219482422e-02
-7.265826314687728882e-02
1.603749208152294159e-02
-2.447075545787811279e-01
7.491057366132736206e-02
-7.460822910070419312e-02
5.217165686190128326e-03
-1.661601960659027100e-01
1.349142491817474365e-01
9.871099144220352173e-02
1.824587732553482056e-01
-1.284453868865966797e-01
6.704214215278625488e-02
-1.848341822624206543e-01
-1.136523187160491943e-01
-9.009198844432830811e-02
1.863834448158740997e-02
-1.071806102991104126e-01
-2.256792038679122925e-02
-3.279704228043556213e-02
-1.530677974224090576e-01
1.081267818808555603e-01
-2.667639777064323425e-02
-2.473730221390724182e-02
-1.672861725091934204e-01
1.579969525337219238e-01
3.118461370468139648e-02
8.474925905466079712e-02
-2.333828955888748169e-01
-1.747647523880004883e-01
1.909878700971603394e-01
-9.706829488277435303e-02
-5.479660630226135254e-02
-1.442487239837646484e-01
9.162671864032745361e-02
1.868355870246887207e-01
-9.644603729248046875e-02
1.433149874210357666e-01
1.900610178709030151e-01
-1.080508977174758911e-01
-3.788055852055549622e-02
-5.924785137176513672e-02
-9.779535233974456787e-02
-7.145937532186508179e-02
9.147210419178009033e-02
4.546227864921092987e-03
8.007170259952545166e-02
5.280740931630134583e-02
7.806941866874694824e-02
-2.312688827514648438e-01
3.293627500534057617e-02
-1.697347909212112427e-01
-1.203869283199310303e-02
4.417282715439796448e-02
1.173849701881408691e-01
-2.393442839384078979e-01
2.197351008653640747e-01
-5.333285778760910034e-02
-3.744957968592643738e-02
1.504824608564376831e-01
-1.221315413713455200e-01
1.151840388774871826e-01
-1.390082091093063354e-01
8.545231819152832031e-02
-1.709657013416290283e-01
2.103416025638580322e-01
-1.313010156154632568e-01
-8.731181174516677856e-02
-6.739943474531173706e-02
1.539163142442703247e-01
-9.712967276573181152e-02
1.132086142897605896e-01
9.544561058282852173e-02
-8.854079246520996094e-02
-8.712805807590484619e-02
3.376310691237449646e-02
7.253139466047286987e-02
-1.609192043542861938e-01
-5.636734515428543091e-02
-8.738717436790466309e-02
-1.514350920915603638e-01
1.890177838504314423e-02
5.218889191746711731e-02
-9.142807871103286743e-02
2.558935247361660004e-02
-1.440381109714508057e-01
-7.620208710432052612e-02
4.437720030546188354e-02
-1.916550844907760620e-01
9.953983128070831299e-03
8.376119285821914673e-02
-1.411757469177246094e-01
-2.057094275951385498e-01
1.410259604454040527e-01
-1.599266827106475830e-01
-3.464520722627639771e-02
-6.919679045677185059e-02
-1.031690835952758789e-01
4.218386113643646240e-02
-9.312052279710769653e-02
-1.908204331994056702e-02
-1.117922216653823853e-01
1.538787633180618286e-01
-1.197015047073364258e-01
1.211899369955062866e-01
-1.350247859954833984e-01
1.555391848087310791e-01
1.948468238115310669e-01
1.353937387466430664e-01
-1.656102091073989868e-01
8.617366850376129150e-02
1.977193057537078857e-01
2.897926606237888336e-03
3.832377027720212936e-03
1.686552613973617554e-01
1.353913992643356323e-01
7.930465042591094971e-02
7.095792144536972046e-02
-8.783198148012161255e-02
-1.169323921203613281e-01
-2.210219055414199829e-01
-8.263184875249862671e-02
2.138676047325134277e-01
-2.266743481159210205e-01
-2.415355741977691650e-01
-9.567066282033920288e-02
-1.645938009023666382e-01
4.500863328576087952e-02
1.021751575171947479e-02
1.533009260892868042e-01
5.055197328329086304e-02
-3.891449049115180969e-02
-2.333345413208007812e-01
4.496051371097564697e-02
1.325566768646240234e-01
-3.786979243159294128e-02
1.963905394077301025e-01
7.473629899322986603e-03
4.624372348189353943e-02
2.452225983142852783e-01
6.570366024971008301e-02
-1.092297509312629700e-01
-1.009540781378746033e-01
2.714125066995620728e-02
-4.514142870903015137e-02
3.420910239219665527e-02
-2.068119496107101440e-01
9.976305812597274780e-02
-1.288803517818450928e-01
8.355567604303359985e-02
1.683567613363265991e-01
-1.044376101344823837e-02
-3.311292454600334167e-02
-9.427954256534576416e-02
6.603446602821350098e-02
-1.763674765825271606e-01
-1.794460117816925049e-01
-6.960750091820955276e-03
-2.088496536016464233e-01
6.064262613654136658e-02
-9.135320037603378296e-02
7.332062721252441406e-02
1.549773961305618286e-01
1.988462805747985840e-01
-1.751020997762680054e-01
4.715351015329360962e-02
6.879794597625732422e-02
2.289264053106307983e-01
1.454681332688778639e-04
1.567366719245910645e-01
2.004832029342651367e-01
-7.074873149394989014e-02
-2.268879711627960205e-01
7.060037553310394287e-02
-1.521871611475944519e-02
9.057174623012542725e-02
1.120047345757484436e-01
-9.650329127907752991e-03
-1.711594909429550171e-01
-1.731358841061592102e-02
-4.013999551534652710e-02
-3.857716172933578491e-02
6.246597319841384888e-02
-7.338613271713256836e-02
1.027483865618705750e-01
-7.854834944009780884e-02
-3.438966348767280579e-02
9.286661446094512939e-02
2.120158262550830841e-02
-9.807188808917999268e-02
4.793341085314750671e-02
1.674906462430953979e-01
6.748986244201660156e-02
-1.448393464088439941e-01
9.934505075216293335e-02
-7.034498453140258789e-02
-1.614801287651062012e-01
1.092569082975387573e-01
1.488531827926635742e-01
-3.971264511346817017e-02
2.180544137954711914e-01
-1.819054633378982544e-01
-1.397795379161834717e-01
-6.465092301368713379e-02
-1.247678976505994797e-02
-2.967623472213745117e-01
2.656221948564052582e-02
1.134349480271339417e-01
1.081650257110595703e-01
1.212882921099662781e-01
5.377028509974479675e-02
2.356939464807510376e-01
1.153759434819221497e-01
-1.145913153886795044e-01
-1.989422440528869629e-01
1.648850739002227783e-01
-1.069515347480773926e-01
-6.001613289117813110e-02
4.419489949941635132e-02
8.697526529431343079e-03
-1.042752712965011597e-01
1.766231060028076172e-01
-1.016894355416297913e-01
-2.039000540971755981e-01
-1.620857864618301392e-01
-1.606344282627105713e-01
5.940064787864685059e-02
3.162494301795959473e-02
-7.016185671091079712e-02
4.083579406142234802e-02
1.633691638708114624e-01
2.221702784299850464e-01
1.136816442012786865e-01
-2.339506447315216064e-01
2.354549318552017212e-01
1.113962605595588684e-01
2.153433710336685181e-01
-1.374694705009460449e-01
-3.298838064074516296e-02
4.920509085059165955e-02
-1.923270672559738159e-01
6.942117214202880859e-02
-1.135328337550163269e-01
5.226453393697738647e-02
-2.192229963839054108e-03
-1.885933130979537964e-01
5.743053276091814041e-03
2.644101083278656006e-01
-1.329185366630554199e-01
-2.073169797658920288e-01
-7.921773195266723633e-02
-3.887874260544776917e-02
-4.216178879141807556e-02
2.767320722341537476e-02
-1.127317920327186584e-01
1.212028861045837402e-01
3.491609543561935425e-02
9.241813421249389648e-02
-1.786590665578842163e-01
1.205876749008893967e-02
1.486422214657068253e-02
-3.794464468955993652e-02
1.174320504069328308e-01
-1.617140918970108032e-01
6.181605160236358643e-03
-1.442240625619888306e-01
1.493878010660409927e-02
-2.195777297019958496e-01
1.358059048652648926e-01
-1.228601112961769104e-01
-7.313086837530136108e-02
2.320239990949630737e-01
-9.158575534820556641e-02
-1.821455806493759155e-01
2.017479836940765381e-01
-6.912076473236083984e-02
-6.941233575344085693e-02
-3.267845883965492249e-02
1.740805455483496189e-03
-4.896137397736310959e-03
1.851280927658081055e-01
-9.418113529682159424e-02
-2.112939581274986267e-02
-1.067953333258628845e-01
6.659287959337234497e-02
-2.139300704002380371e-01
-2.651594877243041992e-01
-4.037749022245407104e-02
7.925073802471160889e-02
-1.882798969745635986e-02
1.451156586408615112e-01
5.213350057601928711e-02
1.151249706745147705e-01
-4.252618551254272461e-02
-2.107577323913574219e-01
-5.252631381154060364e-02
1.471603661775588989e-01
6.396386772394180298e-02
-5.286251753568649292e-02
9.622342139482498169e-02
-1.460007578134536743e-01
1.729769110679626465e-01
-1.069045513868331909e-01
8.036591857671737671e-02
3.668970987200737000e-02
-9.917717427015304565e-02
5.226030945777893066e-02
-2.603036351501941681e-02
7.880026847124099731e-02
6.602743268013000488e-02
1.805548928678035736e-02
-1.239710524678230286e-01
1.629496812820434570e-01
8.733575046062469482e-02
7.573239505290985107e-02
-1.868112236261367798e-01
1.744868606328964233e-01
-1.474235653877258301e-01
1.884092986583709717e-01
-3.254659846425056458e-02
-2.055307030677795410e-01
8.860875666141510010e-02
-7.435814291238784790e-02
-2.768843248486518860e-02
3.897326998412609100e-03
-1.294558346271514893e-01
1.959631145000457764e-01
9.264937788248062134e-02
2.469165064394474030e-02
8.232715725898742676e-02
2.224358767271041870e-01
-1.885227710008621216e-01
9.845507889986038208e-02
6.869014352560043335e-02
2.062111534178256989e-02
-5.782377347350120544e-02
-3.213569149374961853e-02
1.289937645196914673e-01
1.191579028964042664e-01
1.509828269481658936e-01
4.277590289711952209e-02
-7.857914268970489502e-02
1.601678133010864258e-01
-2.394262105226516724e-01
-5.409783497452735901e-02
8.863892406225204468e-02
9.847104549407958984e-02
1.528548002243041992e-01
1.653904169797897339e-01
-2.368082106113433838e-01
3.283451497554779053e-02
5.591332167387008667e-02
-2.785446122288703918e-02
1.415962632745504379e-02
