-2.895108051598072052e-02
-6.695445626974105835e-02
2.939428575336933136e-02
6.489105871878564358e-04
-2.474508807063102722e-02
5.073822662234306335e-02
1.876497291959822178e-03
1.456615049391984940e-02
-5.036451667547225952e-02
-7.845933735370635986e-02
-4.140372388064861298e-03
1.509281899780035019e-02
-9.514664113521575928e-02
2.050007879734039307e-02
5.384382605552673340e-02
-1.089553534984588623e-01
-2.439262904226779938e-02
-1.330946981906890869e-01
-8.822377026081085205e-02
-2.832849323749542236e-02
-4.060426354408264160e-02
2.155234105885028839e-02
-5.108295381069183350e-02
-5.313731357455253601e-02
-1.098237838596105576e-02
-4.057953879237174988e-02
8.086383342742919922e-03
-1.256385445594787598e-02
6.914007663726806641e-02
-1.116635464131832123e-02
4.054605029523372650e-03
-6.915107369422912598e-02
-2.902635000646114349e-02
-6.767120957374572754e-02
-1.613265648484230042e-02
-6.102300062775611877e-02
-8.639007061719894409e-02
2.953198552131652832e-02
-2.371473424136638641e-02
-8.970817551016807556e-03
9.096323512494564056e-03
-1.085923761129379272e-01
-4.548652842640876770e-02
-2.820960991084575653e-02
3.382503613829612732e-02
-5.327568203210830688e-02
3.077900037169456482e-02
-1.077978089451789856e-01
4.575623199343681335e-02
-7.470641285181045532e-02
6.301526725292205811e-02
-8.361896127462387085e-02
-4.145881906151771545e-02
4.670633003115653992e-02
-2.852162532508373260e-02
-4.011939093470573425e-02
-7.878763228654861450e-02
-7.855612784624099731e-02
-4.871375486254692078e-02
-4.890961572527885437e-02
5.393269285559654236e-02
-1.124948784708976746e-01
3.093277849256992340e-02
-1.409840583801269531e-02
8.354313671588897705e-03
4.756927490234375000e-02
5.761515349149703979e-02
5.906794220209121704e-02
-1.299223005771636963e-01
6.431235373020172119e-02
-1.584681682288646698e-02
-8.819035254418849945e-03
-4.513212945312261581e-03
-2.577935717999935150e-02
-2.232294343411922455e-02
4.380123317241668701e-02
-9.453059732913970947e-02
-6.608003377914428711e-02
-1.611283719539642334e-01
3.507473692297935486e-02
-4.565295949578285217e-02
-1.929494668729603291e-03
2.265348285436630249e-02
-4.121660441160202026e-02
-1.167484806501306593e-04
-7.584504783153533936e-02
1.435210276395082474e-02
-4.212123900651931763e-02
-6.543565541505813599e-02
3.206932172179222107e-02
-9.149559773504734039e-03
-1.139168664813041687e-01
-1.585203036665916443e-02
3.183164075016975403e-02
-1.066084206104278564e-02
3.851275518536567688e-02
-5.478591844439506531e-02
3.537420555949211121e-02
-2.623961307108402252e-03
-3.990332130342721939e-03
2.202255092561244965e-02
-5.595940351486206055e-02
-1.615948602557182312e-02
-7.308159768581390381e-02
-3.557036444544792175e-02
4.536287114024162292e-02
-2.679817192256450653e-02
-2.766929753124713898e-02
4.750085622072219849e-02
3.355259075760841370e-02
-2.815163694322109222e-02
-1.871292479336261749e-02
-7.275255024433135986e-02
-5.492355674505233765e-02
4.921613261103630066e-03
-3.019585274159908295e-02
-8.408764004707336426e-02
3.878996148705482483e-02
-7.397144287824630737e-02
2.195917442440986633e-02
2.529668994247913361e-02
2.453176537528634071e-03
-3.922497481107711792e-02
3.076209314167499542e-02
1.165321911685168743e-03
-8.371329307556152344e-02
4.323011264204978943e-02
-3.583601862192153931e-02
