7.051680237054824829e-02
-3.015967458486557007e-02
1.517762988805770874e-02
8.377133868634700775e-03
-6.555131822824478149e-02
-1.207291036844253540e-01
-4.347990825772285461e-02
1.035874336957931519e-02
1.286941301077604294e-02
-6.590444594621658325e-02
1.087630763649940491e-01
1.311440467834472656e-01
9.450159221887588501e-02
1.296508163213729858e-01
-1.278845369815826416e-01
-2.248274860903620720e-03
7.609560154378414154e-03
8.394441008567810059e-02
1.257232483476400375e-02
-1.044616568833589554e-02
-2.958352677524089813e-02
-3.308859094977378845e-02
-3.050425089895725250e-03
8.322233706712722778e-02
-2.939109504222869873e-02
-5.334594845771789551e-02
1.158079728484153748e-01
-3.474634885787963867e-02
1.173964235931634903e-02
-8.040826767683029175e-02
-3.233104199171066284e-02
-7.307086884975433350e-02
7.108851522207260132e-02
-5.654212087392807007e-02
-1.438881829380989075e-02
-5.572360754013061523e-02
3.719031810760498047e-02
1.656610518693923950e-02
-5.401148647069931030e-02
-2.931575663387775421e-02
7.015866041183471680e-02
-7.445694506168365479e-02
3.572500497102737427e-02
-7.770758867263793945e-02
4.152075201272964478e-02
-1.211712695658206940e-02
3.580158576369285583e-02
-1.711447373963892460e-03
2.232355251908302307e-02
4.994145408272743225e-02
9.583012759685516357e-02
4.466138035058975220e-02
6.773669272661209106e-02
4.243588075041770935e-02
-8.406442357227206230e-04
6.836225092411041260e-02
2.949044294655323029e-02
1.251249611377716064e-01
4.972377419471740723e-02
-5.681927315890789032e-03
-5.106867104768753052e-02
6.643919646739959717e-02
-4.430737346410751343e-02
-3.367477655410766602e-02
-9.339094161987304688e-02
2.223480120301246643e-02
-2.940071746706962585e-02
1.870330050587654114e-02
2.106955088675022125e-02
8.777941018342971802e-02
-2.023331588134169579e-03
3.759124875068664551e-02
7.050695270299911499e-02
-2.633101120591163635e-02
-2.168953418731689453e-02
4.565496742725372314e-02
9.743389487266540527e-02
-4.080093279480934143e-02
8.277536928653717041e-02
3.737442940473556519e-02
-3.490407392382621765e-02
-2.142616175115108490e-02
-1.377455051988363266e-02
-9.219140745699405670e-03
-5.154540017247200012e-02
-5.750729888677597046e-02
-3.945665899664163589e-03
-3.187578869983553886e-03
6.002547591924667358e-02
3.200495243072509766e-02
1.680072210729122162e-02
2.753433957695960999e-02
2.327434346079826355e-02
4.314677789807319641e-02
7.100069522857666016e-02
2.295532450079917908e-02
-7.225414738059043884e-03
1.037483103573322296e-02
3.609935566782951355e-02
-1.520152110606431961e-02
8.932626247406005859e-02
-8.931055665016174316e-03
-7.516530156135559082e-02
3.198270872235298157e-02
-3.314300207421183586e-03
9.317053109407424927e-02
2.237676875665783882e-03
4.461640864610671997e-02
1.500541809946298599e-02
8.452963829040527344e-02
-1.353813707828521729e-02
3.933783248066902161e-02
-6.291375309228897095e-02
1.640716940164566040e-02
9.231169521808624268e-02
8.528514206409454346e-02
-8.218688517808914185e-02
-6.352786719799041748e-02
-7.095629815012216568e-03
-5.634791776537895203e-02
5.783859640359878540e-02
-1.030081044882535934e-02
8.131837844848632812e-02
4.310157150030136108e-02
-4.376018047332763672e-02
3.548775240778923035e-02
2.235325239598751068e-02
-3.313739597797393799e-02
2.390289492905139923e-02
-1.798314973711967468e-02
4.104949999600648880e-03
-6.785818375647068024e-03
1.471851021051406860e-01
-5.026996135711669922e-02
8.020698279142379761e-02
6.590376142412424088e-04
-1.291984468698501587e-01
5.503092333674430847e-02
9.742788039147853851e-03
2.437771856784820557e-02
2.255968563258647919e-02
3.992928564548492432e-02
1.061363518238067627e-01
7.369292527437210083e-02
-4.694459959864616394e-02
9.877659380435943604e-03
3.146909177303314209e-02
1.117211673408746719e-02
4.016831144690513611e-02
-2.673450624570250511e-03
-1.200496125966310501e-02
-1.254875957965850830e-01
2.945665828883647919e-02
3.509753150865435600e-03
-1.756852120161056519e-02
5.854099988937377930e-02
3.180489316582679749e-02
-8.912537246942520142e-03
-4.224213957786560059e-02
3.799471259117126465e-02
-2.305939793586730957e-02
-7.569532375782728195e-03
3.617549687623977661e-02
-5.809189379215240479e-02
-3.283223882317543030e-02
1.139099672436714172e-01
2.332348562777042389e-02
3.011945262551307678e-02
1.199898272752761841e-01
1.343434602022171021e-01
5.127515643835067749e-02
5.641847848892211914e-02
2.747439406812191010e-02
-6.388629972934722900e-02
-1.742066815495491028e-02
-2.511494234204292297e-02
2.451358549296855927e-02
-1.074901446700096130e-01
-8.203586563467979431e-03
-1.129468344151973724e-02
-7.021899521350860596e-02
-6.326913833618164062e-02
-5.007976293563842773e-02
-1.317890081554651260e-02
1.423377543687820435e-02
-3.714063018560409546e-02
5.880976095795631409e-02
-9.984307736158370972e-02
1.336980331689119339e-02
3.896337701007723808e-03
-7.254700176417827606e-03
8.403405547142028809e-02
-1.203386299312114716e-02
-1.199872605502605438e-02
3.059818409383296967e-03
-1.179071590304374695e-01
-2.810909645631909370e-03
2.718373201787471771e-03
-1.229319199919700623e-01
-1.148064956068992615e-01
1.720850355923175812e-02
4.237948730587959290e-02
-1.765908859670162201e-02
7.610975764691829681e-03
-2.217871509492397308e-02
6.985407322645187378e-02
-9.011072665452957153e-02
-4.019135609269142151e-02
-1.820662058889865875e-02
9.165195748209953308e-03
-2.405372262001037598e-02
-5.649480596184730530e-02
8.490566164255142212e-02
-4.004099592566490173e-02
6.818922609090805054e-02
2.889278717339038849e-02
-3.876192728057503700e-03
-9.325051680207252502e-03
1.139375343918800354e-01
-7.317946851253509521e-02
-7.153856009244918823e-02
2.827583439648151398e-02
5.189487710595130920e-02
-1.622511190362274647e-03
3.904342651367187500e-02
-4.301314800977706909e-02
-4.529497120529413223e-03
7.600723952054977417e-02
6.707245483994483948e-03
3.079754672944545746e-02
-8.410521782934665680e-03
6.712254602462053299e-03
6.246562302112579346e-02
-2.100262604653835297e-02
4.067981150001287460e-03
-8.917796611785888672e-02
-2.422286570072174072e-02
-4.980752989649772644e-02
-1.961769536137580872e-02
-9.297362715005874634e-02
5.379977077245712280e-02
-1.565282931551337242e-03
-1.021477207541465759e-01
-3.310999274253845215e-02
2.478948794305324554e-03
1.540973782539367676e-01
-2.909154072403907776e-02
-4.178782179951667786e-02
-5.635356903076171875e-02
4.483881592750549316e-02
4.851136729121208191e-02
2.585955709218978882e-02
-1.582746393978595734e-02
-3.589529078453779221e-03
1.260905265808105469e-01
1.715216599404811859e-02
1.829835237003862858e-03
2.931793034076690674e-02
2.730533666908740997e-02
1.333832181990146637e-02
-1.847602874040603638e-01
2.010410837829113007e-02
-2.956772595643997192e-02
3.426444530487060547e-02
-5.328777711838483810e-03
2.050070278346538544e-02
1.135850250720977783e-01
5.532784014940261841e-02
5.801568552851676941e-02
-4.126564785838127136e-02
6.154429167509078979e-02
7.331480830907821655e-02
-5.715091899037361145e-02
1.913165673613548279e-02
6.004396826028823853e-02
-2.344705909490585327e-02
-2.531654015183448792e-02
-7.642684876918792725e-02
1.545305103063583374e-01
-1.311575025320053101e-01
-1.198583617806434631e-01
-4.372642189264297485e-02
-4.963187500834465027e-02
1.058997735381126404e-01
-1.295578479766845703e-01
1.378301978111267090e-01
3.373749926686286926e-02
-6.315366178750991821e-02
-5.870991945266723633e-02
8.131515979766845703e-02
-6.533950567245483398e-02
-3.556645289063453674e-02
-2.789549902081489563e-02
4.296431317925453186e-02
2.708001993596553802e-03
-4.009194672107696533e-02
-2.818778390064835548e-03
5.952267721295356750e-02
-1.936431229114532471e-02
-7.605194300413131714e-02
-4.090406745672225952e-02
-1.115450933575630188e-01
4.065519198775291443e-02
-9.231683611869812012e-02
2.899096719920635223e-02
-1.707745715975761414e-02
5.639821290969848633e-02
3.100447123870253563e-03
4.262355715036392212e-02
1.712884171865880489e-03
3.861213847994804382e-02
-7.364840712398290634e-03
4.075877834111452103e-03
-6.215614452958106995e-02
-3.389530256390571594e-02
2.055831067264080048e-02
7.360535860061645508e-02
7.941251993179321289e-02
1.450028736144304276e-02
1.094577386975288391e-01
1.343720313161611557e-02
-3.314469754695892334e-02
-5.167632550001144409e-02
-2.897658850997686386e-03
-6.526467949151992798e-02
5.218440294265747070e-02
3.144145756959915161e-02
-4.939220473170280457e-02
-5.313804745674133301e-02
-5.511183291673660278e-02
1.634160876274108887e-01
1.743609085679054260e-02
-1.972317695617675781e-02
2.525607123970985413e-02
6.176530569791793823e-02
9.057837724685668945e-02
3.792010620236396790e-02
1.540287118405103683e-02
-9.036153554916381836e-02
5.972759425640106201e-02
1.222129445523023605e-02
-1.104711070656776428e-01
4.957355093210935593e-03
8.431152999401092529e-02
-1.721115037798881531e-02
-4.799569770693778992e-02
1.084511727094650269e-02
-1.032226439565420151e-02
6.334058940410614014e-02
-7.011790759861469269e-03
1.687547308392822742e-03
9.593018912710249424e-04
1.287325285375118256e-03
-6.310714874416589737e-03
1.342244725674390793e-02
8.002410829067230225e-02
7.613201625645160675e-03
3.263427689671516418e-02
2.469561807811260223e-02
-9.992432780563831329e-03
3.351421281695365906e-02
-3.973257914185523987e-02
3.937852755188941956e-02
6.607739627361297607e-02
-3.004590980708599091e-02
1.651172293350100517e-03
-4.466417059302330017e-02
5.801264569163322449e-02
-1.351090893149375916e-02
-2.570809237658977509e-02
1.690072007477283478e-02
-7.940685749053955078e-02
-8.207465521991252899e-03
3.428564220666885376e-02
1.915236935019493103e-02
9.154468029737472534e-02
-1.757141761481761932e-02
-7.644500583410263062e-02
1.554210484027862549e-02
-4.615433141589164734e-02
5.159845575690269470e-02
-5.464265123009681702e-02
4.240803793072700500e-02
5.183599516749382019e-02
7.005653530359268188e-02
-3.583540394902229309e-02
5.361733213067054749e-02
-6.089759618043899536e-02
-8.106065541505813599e-02
4.928946122527122498e-02
-7.685281336307525635e-03
5.336526664905250072e-04
-5.682257935404777527e-02
8.161150664091110229e-02
-1.102425903081893921e-01
3.567744046449661255e-02
2.883215993642807007e-02
-2.545473724603652954e-02
2.830423414707183838e-02
1.296268999576568604e-01
7.792153209447860718e-02
-5.549327284097671509e-02
1.145598366856575012e-01
-1.813432388007640839e-02
3.776878491044044495e-02
-3.970232605934143066e-02
8.777509443461894989e-03
-9.873860981315374374e-04
-2.869348600506782532e-02
7.574112713336944580e-02
-2.282207831740379333e-03
8.517734706401824951e-03
-5.388355255126953125e-02
-1.991027034819126129e-02
-1.545491348952054977e-02
8.883647620677947998e-03
-2.302317880094051361e-02
1.526475977152585983e-02
5.865865200757980347e-02
1.647320203483104706e-02
-2.030909061431884766e-02
-9.162427857518196106e-03
-1.727811247110366821e-02
-6.068947841413319111e-04
6.432785186916589737e-03
2.611707895994186401e-02
-7.090857625007629395e-02
1.518468856811523438e-01
5.183162866160273552e-04
-1.483245193958282471e-02
6.832849234342575073e-02
-4.151529073715209961e-02
-6.256227940320968628e-02
-3.323535248637199402e-02
-3.432982414960861206e-02
5.178017914295196533e-02
3.784397616982460022e-02
3.171776235103607178e-02
1.550431102514266968e-01
2.233410999178886414e-02
-3.471057116985321045e-02
-9.209439158439636230e-03
-4.795689508318901062e-02
-4.084002971649169922e-02
-8.103842288255691528e-02
9.207111783325672150e-03
9.123410284519195557e-02
-1.909079216420650482e-02
1.482060179114341736e-02
8.424041420221328735e-02
-4.876860976219177246e-02
-2.420683577656745911e-02
7.288800179958343506e-02
-3.141884226351976395e-03
3.241066634654998779e-02
1.367301587015390396e-02
3.890249505639076233e-02
-1.293883100152015686e-02
7.843397557735443115e-02
-2.941924380138516426e-03
-4.477006569504737854e-02
-4.535591974854469299e-02
-8.941650390625000000e-02
-4.531479626893997192e-02
-2.653593197464942932e-02
-6.228025257587432861e-02
-8.866497315466403961e-03
-5.035564675927162170e-02
-1.689630560576915741e-02
-8.934357017278671265e-02
5.895472317934036255e-02
-5.635140836238861084e-02
9.285375475883483887e-02
-1.307739131152629852e-02
3.678647801280021667e-02
4.417777061462402344e-02
-4.423285275697708130e-02
-5.892381072044372559e-03
-5.115254782140254974e-03
7.495150715112686157e-02
-4.801034182310104370e-02
1.050102487206459045e-01
3.987057879567146301e-02
3.280874108895659447e-03
6.989796459674835205e-02
-1.220758184790611267e-01
2.959115244448184967e-02
2.640432119369506836e-02
2.959437966346740723e-01
5.087985470890998840e-02
-4.155925288796424866e-02
5.151091143488883972e-02
3.498236089944839478e-02
-1.887359768152236938e-01
2.725565060973167419e-02
1.738773472607135773e-02
3.613165766000747681e-02
-1.840243041515350342e-01
-2.957078814506530762e-02
6.521603465080261230e-02
-3.331578802317380905e-03
-3.611636580899357796e-03
-1.065480187535285950e-01
-1.220436468720436096e-01
3.125860542058944702e-02
-8.931030519306659698e-03
-9.941755235195159912e-02
-1.895572245121002197e-02
-6.065242458134889603e-03
-4.002395551651716232e-03
-5.914848670363426208e-02
-1.235826127231121063e-02
-4.008986428380012512e-02
-3.360651135444641113e-01
5.381131917238235474e-02
-1.205197200179100037e-01
8.913876116275787354e-02
-2.036158926784992218e-02
-1.386611908674240112e-02
-5.796704068779945374e-02
-5.998841300606727600e-02
2.202686816453933716e-01
-3.200734034180641174e-02
2.482105605304241180e-02
-1.084263399243354797e-01
1.574821025133132935e-02
-5.575708299875259399e-02
1.043365076184272766e-01
-1.000118479132652283e-01
-1.413087081164121628e-02
-1.563396118581295013e-02
-5.453395098447799683e-02
3.743014857172966003e-02
1.052919626235961914e-01
-3.821560367941856384e-02
9.309492260217666626e-02
-3.275940939784049988e-02
9.386731684207916260e-02
3.525419905781745911e-02
4.360475111752748489e-03
1.027552112936973572e-01
1.470858156681060791e-01
-2.977055869996547699e-02
-1.670912280678749084e-02
-1.968604139983654022e-02
-3.373921290040016174e-02
-1.649114652536809444e-03
-9.638205915689468384e-02
-2.039906084537506104e-01
5.817594379186630249e-02
2.965622022747993469e-02
1.321627497673034668e-01
-1.332386117428541183e-02
-4.678874462842941284e-02
-1.194097995758056641e-01
-1.000723242759704590e-01
6.998109072446823120e-02
-1.056951954960823059e-01
-4.623047262430191040e-02
-8.853188157081604004e-02
1.544410735368728638e-01
-4.709368105977773666e-03
3.763100504875183105e-01
-1.383432894945144653e-01
3.740885853767395020e-02
5.939878895878791809e-02
-3.247625380754470825e-02
1.552944630384445190e-01
-1.059007346630096436e-01
9.068314731121063232e-02
-4.055255651473999023e-02
-7.303380221128463745e-02
-6.412515044212341309e-02
-1.065076515078544617e-01
-1.670264452695846558e-01
8.584767580032348633e-03
-1.212239414453506470e-01
2.968080900609493256e-02
-1.458925455808639526e-01
8.335374295711517334e-02
-3.932195156812667847e-02
8.051962405443191528e-02
-3.868843987584114075e-02
9.432719647884368896e-02
9.214933961629867554e-02
-1.731928437948226929e-02
-8.978644013404846191e-02
-1.596675999462604523e-02
3.862855583429336548e-02
-1.486824452877044678e-01
-1.145403459668159485e-01
2.726673521101474762e-02
-5.041483417153358459e-02
3.341775387525558472e-02
-4.394302144646644592e-03
1.563183665275573730e-01
7.463662326335906982e-02
-1.546507030725479126e-01
4.939121007919311523e-02
7.202809303998947144e-02
-1.121774092316627502e-01
-4.205457866191864014e-02
-5.741978809237480164e-02
-6.720604747533798218e-02
2.017052657902240753e-02
2.349133938550949097e-01
2.280650474131107330e-02
8.739770948886871338e-02
1.182047352194786072e-01
-8.559689670801162720e-02
-2.988027781248092651e-02
-5.105202645063400269e-02
1.211453676223754883e-01
1.404944360256195068e-01
-1.519240140914916992e-01
1.108908932656049728e-02
-1.796070784330368042e-01
-1.667481809854507446e-01
3.645551204681396484e-02
1.068152207881212234e-02
-7.457026094198226929e-02
-7.873214036226272583e-02
-3.835058212280273438e-02
6.982094794511795044e-02
-2.365325391292572021e-01
2.125640586018562317e-02
8.122806251049041748e-02
-1.576644778251647949e-01
1.207226887345314026e-01
-5.015073344111442566e-02
4.102951660752296448e-02
5.281419679522514343e-02
1.426007598638534546e-01
1.022427454590797424e-01
3.478980623185634613e-03
-2.332615479826927185e-02
1.067157834768295288e-02
-1.271143835037946701e-02
-3.467786684632301331e-02
1.312491893768310547e-01
-5.131796747446060181e-02
-9.772815555334091187e-02
-8.469447493553161621e-02
-2.680967934429645538e-02
1.597090512514114380e-01
-1.723179034888744354e-02
4.170775786042213440e-02
-2.226340584456920624e-02
1.692421548068523407e-02
8.117341995239257812e-02
2.793201208114624023e-01
3.847899846732616425e-03
3.015698306262493134e-02
1.165302693843841553e-01
3.690258041024208069e-02
5.941639654338359833e-03
-1.308013796806335449e-01
-6.778220832347869873e-02
-6.699037551879882812e-02
-2.657743869349360466e-03
2.537382580339908600e-02
1.424298882484436035e-01
-8.598241209983825684e-02
1.101743616163730621e-02
-1.965763419866561890e-02
1.562975230626761913e-03
-6.313266605138778687e-02
-1.069086343050003052e-01
2.586661651730537415e-02
1.879935339093208313e-02
2.655964195728302002e-01
5.790339037775993347e-02
-6.710693985223770142e-02
-4.448825120925903320e-02
-1.554387956857681274e-01
-3.901368752121925354e-02
-6.385084707289934158e-04
-6.697663664817810059e-02
5.172270163893699646e-02
-4.437779262661933899e-02
-2.435226738452911377e-02
-3.466514870524406433e-02
-5.542531237006187439e-02
2.135902494192123413e-01
-5.538745969533920288e-02
3.823586041107773781e-03
5.905032530426979065e-02
-3.953220322728157043e-02
-6.969743221998214722e-02
7.552735507488250732e-02
-6.482483446598052979e-02
-4.567549005150794983e-02
-4.928755760192871094e-02
-7.821450382471084595e-02
-6.861432641744613647e-02
-8.055637031793594360e-02
2.112080110237002373e-03
-1.029065549373626709e-01
-5.997019633650779724e-02
-5.965054035186767578e-02
3.734010085463523865e-02
-1.293050795793533325e-01
-8.122045546770095825e-02
-2.247235365211963654e-02
1.062952056527137756e-01
-9.051802568137645721e-03
-6.814049929380416870e-02
5.167854949831962585e-02
3.219935670495033264e-02
-9.505863487720489502e-02
-1.491326540708541870e-01
-2.424794584512710571e-01
9.725204855203628540e-02
-4.431813955307006836e-02
3.330141678452491760e-02
-2.754034474492073059e-02
3.301192075014114380e-02
8.369535952806472778e-02
-7.754371315240859985e-02
-1.556475609540939331e-01
1.468987166881561279e-01
4.405326023697853088e-02
-2.443061396479606628e-02
1.537314951419830322e-01
-1.045647859573364258e-01
-1.065641790628433228e-01
-1.655368693172931671e-02
2.906724996864795685e-02
-3.944176435470581055e-02
-3.537455573678016663e-02
-7.489419728517532349e-02
-1.255702972412109375e-01
1.016751825809478760e-01
-1.935043185949325562e-01
5.579382553696632385e-02
4.789962992072105408e-02
3.805736824870109558e-02
-1.247557997703552246e-01
-4.524246603250503540e-02
4.761360958218574524e-02
3.730778768658638000e-02
-3.627833127975463867e-01
6.849931087344884872e-03
-5.288941040635108948e-02
-1.356532126665115356e-01
4.521181341260671616e-03
-1.773636937141418457e-01
-7.889827340841293335e-02
4.316756874322891235e-02
-4.810133203864097595e-02
-1.454441342502832413e-02
-6.356053054332733154e-02
1.796968281269073486e-02
-3.922799229621887207e-02
4.219286609441041946e-03
-2.371691912412643433e-01
5.145576596260070801e-02
-1.491786241531372070e-01
2.543624676764011383e-02
-9.715042077004909515e-03
-5.083505436778068542e-02
-1.053094491362571716e-01
1.809526793658733368e-02
1.042693294584751129e-02
5.246249586343765259e-02
-2.182900905609130859e-01
-1.204050183296203613e-01
4.755408968776464462e-03
5.319179594516754150e-02
-1.403468251228332520e-01
-4.828359559178352356e-02
-1.272512972354888916e-02
-4.120215401053428650e-02
-4.029798507690429688e-02
-9.472762048244476318e-02
-1.835290808230638504e-03
5.313355475664138794e-02
-5.472907214425504208e-04
1.669220030307769775e-01
7.098705321550369263e-02
3.838913142681121826e-02
1.895166337490081787e-01
9.011250920593738556e-03
5.187452770769596100e-04
-4.855411872267723083e-02
-9.824363142251968384e-02
-5.881237238645553589e-02
-1.267034411430358887e-01
-5.634486302733421326e-02
1.267004758119583130e-01
4.547134041786193848e-03
2.125293761491775513e-02
5.873731896281242371e-02
8.534593135118484497e-02
-7.197438180446624756e-02
1.404787898063659668e-01
9.000654518604278564e-02
1.444368660449981689e-01
-2.122205682098865509e-02
2.260787039995193481e-02
-4.519994184374809265e-02
1.781972125172615051e-03
1.567564345896244049e-02
-2.342355065047740936e-02
8.085276186466217041e-02
3.311272710561752319e-02
6.482211500406265259e-02
5.820286460220813751e-03
1.917562782764434814e-01
-6.281439214944839478e-02
3.117717243731021881e-02
-1.333420127630233765e-01
-1.555101275444030762e-01
3.168002888560295105e-02
-1.723438650369644165e-01
6.729452311992645264e-02
-2.481771819293498993e-02
7.110605388879776001e-02
-8.993352949619293213e-02
-1.158512532711029053e-01
-6.435821950435638428e-02
-1.158438902348279953e-02
-4.718004167079925537e-02
2.733616717159748077e-02
2.249224856495857239e-02
2.881715446710586548e-02
3.737228214740753174e-01
-9.021218866109848022e-02
-7.424803078174591064e-02
-1.205795705318450928e-01
1.517602652311325073e-01
-1.374009880237281322e-03
-2.421650849282741547e-02
-6.863116286695003510e-03
1.407271623611450195e-01
-1.330752521753311157e-01
6.249384954571723938e-02
-3.194833919405937195e-02
5.018891394138336182e-02
-1.069727838039398193e-01
2.854998596012592316e-02
5.799056962132453918e-02
-7.660067826509475708e-02
-1.098949164152145386e-01
-2.424966171383857727e-02
-4.119562916457653046e-03
-8.992768824100494385e-02
-1.582979112863540649e-01
2.800171449780464172e-02
2.313434891402721405e-02
7.035392802208662033e-03
2.034398168325424194e-01
-3.891002386808395386e-03
-3.262565732002258301e-01
-1.327938735485076904e-01
-6.134902313351631165e-02
-1.212338730692863464e-01
2.724689804017543793e-02
-4.918331280350685120e-03
6.110321730375289917e-02
-1.972289681434631348e-01
-1.803761534392833710e-02
-1.326260808855295181e-02
-9.650821983814239502e-02
-8.596959710121154785e-02
-3.605572879314422607e-02
2.534261904656887054e-02
2.378278225660324097e-02
-1.507540345191955566e-01
9.929008781909942627e-02
8.896924555301666260e-02
-1.223167106509208679e-01
-2.090052068233489990e-01
7.051612436771392822e-02
-7.860966026782989502e-02
1.040699519217014313e-02
3.815535455942153931e-02
6.936919689178466797e-02
2.486895211040973663e-02
-8.630622178316116333e-02
-5.036429688334465027e-02
1.507365703582763672e-02
-2.940670959651470184e-02
1.025713831186294556e-01
4.768316075205802917e-02
-1.084376797080039978e-01
1.465152651071548462e-01
-6.773538142442703247e-02
-1.775591261684894562e-02
9.174727648496627808e-02
-1.239600330591201782e-01
1.556372363120317459e-02
8.172806352376937866e-03
-9.153982996940612793e-02
-9.515728801488876343e-02
3.742276504635810852e-02
-1.791456192731857300e-01
-5.805596243590116501e-03
7.756163179874420166e-02
1.184495240449905396e-01
-1.826124638319015503e-01
5.840869620442390442e-02
-2.072582244873046875e-01
-1.328934170305728912e-02
-2.570106461644172668e-02
-3.539903834462165833e-02
9.050250053405761719e-02
-2.419124916195869446e-02
6.413135677576065063e-02
-5.799314007163047791e-02
-1.634304597973823547e-02
5.753280594944953918e-02
-3.631851077079772949e-02
-1.000054404139518738e-01
-3.371372446417808533e-02
-6.447605788707733154e-02
3.998290747404098511e-02
1.914450526237487793e-01
-2.762051522731781006e-01
2.581883408129215240e-02
-6.846144050359725952e-02
-1.199471652507781982e-01
-1.376403309404850006e-02
-1.034563481807708740e-01
3.736523911356925964e-02
1.052215248346328735e-01
-3.781808307394385338e-03
7.846267521381378174e-02
1.527757942676544189e-01
-1.047598794102668762e-01
-9.815485030412673950e-02
-3.551330789923667908e-02
-4.960959777235984802e-02
9.114090353250503540e-02
-1.365696489810943604e-01
2.965655177831649780e-02
-2.236272543668746948e-01
-9.433007985353469849e-02
2.843710482120513916e-01
-1.893456280231475830e-01
-2.283085510134696960e-02
-7.088268548250198364e-02
-5.969902500510215759e-02
1.405577510595321655e-01
-1.102422252297401428e-01
-8.847794681787490845e-02
1.277441233396530151e-01
-1.674995385110378265e-02
-8.349827677011489868e-02
-6.871993094682693481e-02
-1.642804443836212158e-01
2.156066149473190308e-01
4.061894956976175308e-03
-8.919046074151992798e-02
-6.718932837247848511e-02
5.467161163687705994e-02
-1.399503052234649658e-01
2.162534743547439575e-02
6.257234513759613037e-02
8.166810125112533569e-02
1.197005659341812134e-01
1.300009549595415592e-03
-8.864738792181015015e-02
1.729045063257217407e-02
6.753170490264892578e-02
-3.945090249180793762e-02
-1.422167569398880005e-01
1.023433431982994080e-01
2.031732164323329926e-02
2.659530192613601685e-02
4.305977746844291687e-02
9.681093506515026093e-04
-4.144503548741340637e-02
7.271192222833633423e-02
-1.239108890295028687e-01
-1.483173575252294540e-02
-1.435606479644775391e-01
-1.138230785727500916e-01
-2.430125325918197632e-02
-5.864784587174654007e-03
-3.195854648947715759e-02
-6.337598711252212524e-02
-4.456507158465683460e-04
-1.376106292009353638e-01
3.629233315587043762e-02
-6.585188210010528564e-02
-5.938892811536788940e-02
-9.078552573919296265e-02
6.263066083192825317e-02
-3.796399803832173347e-03
2.264058217406272888e-02
2.868087776005268097e-02
2.299720644950866699e-01
-5.744228884577751160e-02
4.555439949035644531e-02
6.846936047077178955e-02
-6.873609125614166260e-02
-1.803374849259853363e-02
1.392115950584411621e-01
1.120033557526767254e-03
1.590539962053298950e-01
-1.124897226691246033e-01
-6.430737674236297607e-02
-9.513720870018005371e-02
8.204731345176696777e-02
1.207849830389022827e-01
2.065892368555068970e-01
9.427424520254135132e-02
1.032140702009201050e-01
-8.143352717161178589e-02
8.853131905198097229e-03
1.854485832154750824e-02
1.636553406715393066e-01
6.830917298793792725e-02
1.003618258982896805e-02
2.290008403360843658e-02
-1.236928403377532959e-01
-5.988588673062622547e-04
-1.998685896396636963e-01
-6.180785596370697021e-03
-3.595845401287078857e-02
5.826658755540847778e-02
-4.744312912225723267e-02
1.184194311499595642e-01
-2.336836978793144226e-02
1.406077295541763306e-01
3.867158666253089905e-02
-7.731496542692184448e-02
-1.776836439967155457e-02
-7.969508320093154907e-02
2.531179971992969513e-02
3.639357537031173706e-02
3.556597605347633362e-02
-3.644307330250740051e-02
9.561600536108016968e-02
-2.066074311733245850e-02
4.600744321942329407e-02
-5.836537107825279236e-02
-7.674181461334228516e-02
-1.159729436039924622e-01
9.493912756443023682e-02
6.951655447483062744e-02
1.586937904357910156e-02
-5.949826166033744812e-02
3.100147098302841187e-02
-7.961741089820861816e-02
1.076647266745567322e-01
-1.652109622955322266e-01
4.721334576606750488e-02
1.191081181168556213e-01
3.807076439261436462e-02
-4.403541982173919678e-02
-2.250819839537143707e-02
-1.173797901719808578e-02
1.452869474887847900e-01
4.036936163902282715e-02
3.747662063688039780e-03
1.550654172897338867e-01
-1.234771776944398880e-02
-4.927799105644226074e-02
6.429783254861831665e-02
-2.395144104957580566e-01
1.366602163761854172e-02
8.823124319314956665e-02
1.188575550913810730e-01
-8.909123390913009644e-02
5.438673868775367737e-02
1.135120615363121033e-01
-1.575326174497604370e-01
-8.040500432252883911e-02
7.571287918835878372e-03
4.288607463240623474e-02
1.164811104536056519e-02
6.489152461290359497e-02
-1.436735838651657104e-01
1.171747148036956787e-01
1.044943854212760925e-01
1.276769489049911499e-02
-2.091265469789505005e-02
-2.123200893402099609e-02
-1.148252710700035095e-01
7.356973830610513687e-03
6.022523343563079834e-02
1.002407073974609375e-01
2.710360474884510040e-02
3.911307454109191895e-02
8.377037197351455688e-02
-7.423827890306711197e-03
1.379300951957702637e-01
3.516230033710598946e-03
1.449506282806396484e-01
3.629324026405811310e-03
1.209382340312004089e-01
-5.794015899300575256e-02
-2.881727879866957664e-03
-2.170621007680892944e-01
-9.779802709817886353e-02
-1.455884985625743866e-02
5.529618263244628906e-02
-3.135265409946441650e-02
-9.183871559798717499e-03
1.796717196702957153e-01
5.813626572489738464e-02
1.086248308420181274e-01
1.367220729589462280e-01
-2.372764609754085541e-02
-8.284404873847961426e-02
-1.930174604058265686e-02
1.365638431161642075e-02
6.632991880178451538e-02
6.976445764303207397e-02
-5.710756778717041016e-02
-2.457950077950954437e-02
-2.597039006650447845e-02
-1.113014072179794312e-01
-3.365473449230194092e-02
-7.883527874946594238e-02
5.945820733904838562e-02
9.364481270313262939e-02
7.138828188180923462e-02
2.595568075776100159e-03
2.902540937066078186e-02
2.636491879820823669e-02
4.830476641654968262e-02
-2.120358310639858246e-02
3.230607137084007263e-03
1.864133924245834351e-01
-3.262581676244735718e-02
6.704360991716384888e-02
1.855640262365341187e-01
-4.049070179462432861e-02
5.906715989112854004e-02
5.872127041220664978e-02
5.892175808548927307e-02
8.846210688352584839e-02
-9.683374315500259399e-02
-1.089260205626487732e-01
1.775269582867622375e-02
7.440883200615644455e-03
3.685007616877555847e-02
1.951492391526699066e-02
4.752689972519874573e-02
-6.277654320001602173e-02
1.990566961467266083e-02
-3.071447461843490601e-02
-2.402834594249725342e-02
4.681124910712242126e-02
5.256543681025505066e-02
-1.490127295255661011e-01
-2.224203385412693024e-02
-1.166261285543441772e-01
1.577604748308658600e-02
7.245950400829315186e-02
2.825042791664600372e-02
7.352054864168167114e-02
-1.575729995965957642e-01
-1.298108994960784912e-01
4.040664806962013245e-02
9.516554325819015503e-02
-1.800584979355335236e-02
9.603036567568778992e-03
-3.269662708044052124e-02
1.162014082074165344e-01
-5.009574070572853088e-02
-1.249464675784111023e-01
-3.451269865036010742e-02
6.722607649862766266e-04
-6.943500041961669922e-02
6.344997137784957886e-02
3.266541287302970886e-02
-6.299898773431777954e-02
-2.715797536075115204e-02
-3.012780286371707916e-02
1.041906997561454773e-01
4.071802645921707153e-02
1.072712242603302002e-01
2.627645060420036316e-02
1.946473121643066406e-01
8.040559291839599609e-02
1.023629158735275269e-01
-8.397428691387176514e-02
2.260407619178295135e-02
-3.019891493022441864e-02
-4.169708490371704102e-02
7.068888843059539795e-02
-8.970317244529724121e-02
6.255166977643966675e-02
2.820940874516963959e-02
3.841820731759071350e-02
3.356158733367919922e-02
3.245949372649192810e-02
-8.483498543500900269e-02
-4.327697306871414185e-02
9.848599135875701904e-02
-1.800075545907020569e-02
5.884287878870964050e-02
3.796165436506271362e-02
-1.117258681915700436e-03
8.140116930007934570e-02
-3.015534393489360809e-02
-9.575979411602020264e-02
-9.510022401809692383e-02
1.132782623171806335e-01
5.967258289456367493e-02
-4.235487803816795349e-02
-9.416805952787399292e-02
4.076631367206573486e-02
1.607272215187549591e-02
-5.866580829024314880e-02
1.760865561664104462e-02
3.987408801913261414e-02
8.227010816335678101e-02
2.695015072822570801e-02
4.453672096133232117e-02
4.260445386171340942e-02
1.025618240237236023e-01
2.065808512270450592e-02
4.167140461504459381e-03
9.320745617151260376e-02
-1.245780363678932190e-01
8.432957693003118038e-04
4.001644253730773926e-02
2.965397387742996216e-02
1.637654453516006470e-01
2.722053974866867065e-02
-1.028924249112606049e-02
-3.279545158147811890e-02
-2.416869811713695526e-02
2.025683224201202393e-02
-5.774752423167228699e-02
-1.242172345519065857e-02
4.151212424039840698e-02
1.946271955966949463e-01
-1.231468468904495239e-02
-6.672207266092300415e-03
2.426165528595447540e-02
-3.612703457474708557e-02
-9.959947783499956131e-04
9.127317368984222412e-02
-1.133077964186668396e-02
3.668101504445075989e-02
1.284459140151739120e-02
3.627735003829002380e-02
8.889171481132507324e-02
1.225031353533267975e-02
1.041307002305984497e-01
-2.213321160525083542e-03
-1.378740835934877396e-02
4.726759344339370728e-02
4.132980108261108398e-02
-9.328090585768222809e-03
8.306216448545455933e-02
-8.037213981151580811e-02
1.420650780200958252e-01
-3.658873727545142174e-03
8.835988119244575500e-03
1.001444011926651001e-01
-6.197095662355422974e-02
3.937980532646179199e-02
4.028958827257156372e-02
8.905996382236480713e-02
-2.240496873855590820e-01
7.159570604562759399e-02
-3.518654266372323036e-03
1.126017645001411438e-01
-3.758882870897650719e-03
-6.849078834056854248e-02
1.789874732494354248e-01
6.801963597536087036e-02
-7.719322293996810913e-02
2.781071513891220093e-02
-1.166059747338294983e-01
8.327778428792953491e-02
9.203992038965225220e-02
-1.264030784368515015e-01
-8.818580955266952515e-02
-3.006968833506107330e-02
7.311831414699554443e-02
-3.621766343712806702e-02
1.876359060406684875e-02
-2.027654461562633514e-02
6.347162276506423950e-02
-4.799202084541320801e-02
-1.067903116345405579e-01
7.250921428203582764e-02
3.906371444463729858e-02
4.515162482857704163e-02
-4.278028383851051331e-02
-7.483781874179840088e-02
-3.336578607559204102e-03
3.633209271356463432e-03
4.069613665342330933e-02
7.637631893157958984e-02
4.340651631355285645e-02
-1.421535108238458633e-02
-8.052741177380084991e-03
5.729237943887710571e-02
1.703374534845352173e-01
2.720260806381702423e-02
2.410780079662799835e-02
3.046601451933383942e-02
1.246741712093353271e-01
2.937709353864192963e-02
-9.939080476760864258e-02
-5.580796673893928528e-02
3.063485212624073029e-02
4.460161551833152771e-03
-5.804954469203948975e-02
-3.418738394975662231e-02
-2.348735369741916656e-02
-6.246759369969367981e-02
9.129837900400161743e-02
-5.911843106150627136e-02
-3.367708250880241394e-02
-3.088836744427680969e-02
-1.376638412475585938e-01
-6.590291112661361694e-02
-8.593773841857910156e-02
-1.260246485471725464e-01
2.102080285549163818e-01
-1.511719375848770142e-01
4.354204982519149780e-03
1.411762647330760956e-02
2.110754251480102539e-01
7.281064987182617188e-03
8.650957047939300537e-02
1.694243103265762329e-01
-3.378077223896980286e-02
-9.425379335880279541e-02
-1.122597139328718185e-02
8.282621204853057861e-02
-6.384869106113910675e-03
6.805933266878128052e-02
1.930660009384155273e-02
4.036100953817367554e-02
-1.161382645368576050e-01
6.019762158393859863e-02
1.713739149272441864e-02
-2.094141542911529541e-01
-2.274464070796966553e-02
1.328783333301544189e-01
1.147693917155265808e-01
-4.197641834616661072e-02
6.377970427274703979e-02
1.641721278429031372e-01
4.453609511256217957e-02
3.350406885147094727e-02
-1.171608455479145050e-02
-2.674069628119468689e-02
-1.970114931464195251e-02
2.515777712687849998e-03
1.976553164422512054e-02
4.701331257820129395e-02
1.435303390026092529e-01
-1.409619152545928955e-01
2.633249573409557343e-02
-6.167566031217575073e-02
6.059337034821510315e-02
5.482219159603118896e-02
9.493503719568252563e-02
5.537531897425651550e-02
-1.174333784729242325e-02
-1.067645195871591568e-02
-3.652438521385192871e-02
-8.315479010343551636e-02
2.086831033229827881e-01
3.801394253969192505e-02
1.980469673871994019e-01
1.917349919676780701e-02
1.168361678719520569e-01
-3.748875856399536133e-02
1.578161306679248810e-02
2.071535214781761169e-03
-5.708637088537216187e-02
3.068451955914497375e-02
1.921366527676582336e-02
1.417108327150344849e-01
-7.198616117238998413e-02
5.420040711760520935e-02
5.302545800805091858e-02
1.700442284345626831e-02
-8.265656977891921997e-02
1.649629673920571804e-03
4.100320860743522644e-02
2.770119309425354004e-01
-1.115305498242378235e-01
-1.746592521667480469e-01
2.493949085474014282e-01
1.815368770621716976e-03
3.410072252154350281e-02
-5.296444147825241089e-02
-2.001276984810829163e-02
1.258612424135208130e-01
-1.743669272400438786e-03
-4.312366945669054985e-04
1.129602920264005661e-02
-3.834167122840881348e-02
5.855747684836387634e-02
-2.317060232162475586e-01
-1.460430324077606201e-01
2.683430314064025879e-01
2.723616780713200569e-03
-3.526368364691734314e-02
7.502014935016632080e-02
7.990567013621330261e-03
1.099785566329956055e-01
-4.680929332971572876e-02
-2.804843522608280182e-02
-9.335775673389434814e-02
1.419373899698257446e-01
1.264744438230991364e-02
9.958770871162414551e-02
6.719499081373214722e-02
-2.564758760854601860e-03
5.673488485626876354e-04
-8.430500328540802002e-02
-1.080249622464179993e-01
-3.943974897265434265e-02
3.130678832530975342e-02
-6.719482131302356720e-03
-1.639646291732788086e-02
5.045041814446449280e-02
-1.095473095774650574e-01
-6.433388218283653259e-03
7.710483670234680176e-02
-2.312693372368812561e-02
4.523946344852447510e-02
-3.368381410837173462e-02
2.610961161553859711e-02
-7.745010405778884888e-02
1.036399304866790771e-01
1.676565557718276978e-01
1.336612552404403687e-01
1.540192402899265289e-02
-3.803233616054058075e-03
6.387175619602203369e-02
-9.065098315477371216e-02
-4.501145705580711365e-02
-1.285557001829147339e-01
7.196708023548126221e-02
1.442004144191741943e-01
6.571554392576217651e-02
-4.280853644013404846e-02
-5.133862420916557312e-02
1.181499436497688293e-01
-1.783953746780753136e-03
2.418526215478777885e-03
-4.962537065148353577e-02
1.407894343137741089e-01
1.332994699478149414e-01
-1.275498718023300171e-01
8.770614862442016602e-02
6.746731698513031006e-02
-2.881227433681488037e-02
8.370822668075561523e-02
-3.467405587434768677e-02
2.236931025981903076e-02
-6.090955436229705811e-02
-4.089068621397018433e-02
6.230123341083526611e-03
1.824229210615158081e-01
3.628702089190483093e-02
-1.139214355498552322e-02
2.083381637930870056e-02
-1.178732607513666153e-02
8.191239088773727417e-02
5.790129303932189941e-02
-4.323057830333709717e-02
-2.783444710075855255e-02
4.258472472429275513e-02
-4.231578484177589417e-02
7.952033728361129761e-02
2.218351326882839203e-02
-2.218399196863174438e-01
5.982435308396816254e-03
-1.319122165441513062e-01
-8.942884206771850586e-02
1.634863615036010742e-01
1.535173505544662476e-01
8.998993784189224243e-02
-5.648710951209068298e-02
-7.253012806177139282e-02
2.391173392534255981e-01
-1.647344976663589478e-02
6.866960227489471436e-02
-1.080275699496269226e-01
1.161826923489570618e-01
-5.916102230548858643e-02
1.465247124433517456e-01
7.890985161066055298e-02
5.036088824272155762e-02
-4.274243954569101334e-03
1.717115566134452820e-02
6.216716766357421875e-02
-2.383838035166263580e-02
-2.455636560916900635e-01
-6.795061379671096802e-02
-5.669427663087844849e-02
3.807506337761878967e-02
1.272874027490615845e-01
-1.127686426043510437e-01
-1.269907318055629730e-02
-6.083041056990623474e-02
-9.349450469017028809e-02
-1.480635404586791992e-01
3.040153533220291138e-02
2.316053258255124092e-03
4.744551330804824829e-02
1.373650282621383667e-01
5.865231528878211975e-02
-1.474951356649398804e-01
4.455216974020004272e-02
8.557659387588500977e-02
5.609225109219551086e-02
5.613867938518524170e-02
3.438870608806610107e-02
2.947792038321495056e-02
-4.577909782528877258e-02
-6.084227934479713440e-02
-3.211288154125213623e-02
2.798034250736236572e-02
-1.003970950841903687e-01
-3.738090768456459045e-02
9.105616807937622070e-02
-1.607598550617694855e-02
1.769666671752929688e-01
-4.248340427875518799e-02
-2.939391508698463440e-02
-4.535261169075965881e-02
-5.484110116958618164e-02
1.312489900738000870e-02
-7.408822327852249146e-02
1.892330124974250793e-02
6.165211647748947144e-02
9.506956487894058228e-02
5.078214686363935471e-03
5.656809080392122269e-03
-3.912979364395141602e-02
2.584284543991088867e-02
-4.852875694632530212e-02
-1.024291738867759705e-01
-1.834732852876186371e-02
2.992074936628341675e-02
8.364008739590644836e-03
-2.456673607230186462e-02
8.927696943283081055e-02
3.867234662175178528e-02
-7.338760793209075928e-02
-2.334072627127170563e-02
3.291611792519688606e-03
-3.435347974300384521e-02
-1.122946739196777344e-01
2.477645874023437500e-03
-9.214646369218826294e-02
-2.488266490399837494e-02
2.146398462355136871e-02
-1.481872517615556717e-02
2.163883298635482788e-03
1.176644023507833481e-02
-1.518917363137006760e-02
7.335207425057888031e-03
-6.092835962772369385e-02
3.465948859229683876e-03
-5.379948765039443970e-02
5.235836375504732132e-03
8.172255754470825195e-02
-7.538657635450363159e-03
5.173851922154426575e-02
5.762993544340133667e-02
1.272358000278472900e-01
4.481152631342411041e-03
-6.184951588511466980e-02
2.175462618470191956e-02
-2.060921676456928253e-02
4.776843637228012085e-02
1.085849776864051819e-01
2.341714920476078987e-03
-5.725403130054473877e-02
-1.144540403038263321e-02
1.492744684219360352e-01
-6.436069309711456299e-02
1.218297146260738373e-02
1.590771041810512543e-02
-4.873559623956680298e-02
3.597532585263252258e-02
5.353275313973426819e-02
-4.476943239569664001e-02
-3.990444540977478027e-02
-2.238865569233894348e-02
7.579704374074935913e-02
-4.155699908733367920e-02
2.872454747557640076e-02
-5.818916857242584229e-02
8.099165558815002441e-02
4.582159966230392456e-02
-6.773652881383895874e-02
-8.872552216053009033e-02
-1.111075934022665024e-02
-2.235072199255228043e-03
9.944226592779159546e-03
1.411746349185705185e-02
-3.140109404921531677e-02
7.152225822210311890e-02
-9.687124937772750854e-02
-1.866579428315162659e-02
1.381229516118764877e-02
5.307338759303092957e-02
-1.324837803840637207e-01
-7.182098459452390671e-03
-1.327125262469053268e-02
-1.026638522744178772e-01
-1.318770349025726318e-01
-8.378116786479949951e-02
-5.738833919167518616e-02
-7.436270266771316528e-02
-6.916993111371994019e-02
3.051245026290416718e-02
-7.717476040124893188e-02
5.176042765378952026e-02
1.616079919040203094e-02
-1.293327063322067261e-01
-5.893237143754959106e-02
5.993543565273284912e-02
-6.065350770950317383e-02
-6.046520173549652100e-02
-1.559799257665872574e-02
3.680269932374358177e-03
-2.146419696509838104e-02
-4.803091660141944885e-02
-1.446208171546459198e-02
-8.735075592994689941e-02
7.250072062015533447e-02
3.117195097729563713e-03
-9.498486667871475220e-02
4.861910361796617508e-03
-2.028176188468933105e-02
-4.677229747176170349e-02
1.458543166518211365e-02
6.257370114326477051e-03
1.633544638752937317e-02
-5.981317535042762756e-02
-4.587997868657112122e-02
-4.332511872053146362e-02
2.367226406931877136e-02
4.209649190306663513e-02
-2.824561297893524170e-02
3.796768141910433769e-04
-2.410275116562843323e-02
-2.565071545541286469e-02
6.063652783632278442e-02
-2.784609980881214142e-02
-1.943139173090457916e-02
2.325968071818351746e-02
4.207479208707809448e-02
-1.742073521018028259e-02
9.381623566150665283e-02
-3.916549321729689837e-04
-6.387195736169815063e-02
4.100596904754638672e-02
3.464828943833708763e-03
-7.168112695217132568e-02
-1.615728251636028290e-02
-1.151501666754484177e-02
-3.572422266006469727e-02
-5.210575181990861893e-03
-8.640952408313751221e-03
-2.836739271879196167e-02
-1.664425805211067200e-02
-4.328049719333648682e-02
-1.050256267189979553e-01
1.259107328951358795e-02
-8.075802773237228394e-02
-9.890806674957275391e-02
-4.061789065599441528e-02
5.438507534563541412e-03
-1.641011238098144531e-02
1.694655604660511017e-02
-1.214289516210556030e-01
-3.973809257149696350e-02
1.312451902776956558e-02
4.531083628535270691e-02
3.267014399170875549e-03
-6.519316136837005615e-02
-3.534110495820641518e-03
-1.044799014925956726e-02
-5.141263827681541443e-02
-4.655680060386657715e-02
4.030131921172142029e-02
1.639251224696636200e-02
1.013869326561689377e-02
3.452828526496887207e-02
-9.777631610631942749e-03
-4.434888437390327454e-02
6.284148897975683212e-03
4.705090075731277466e-02
-2.944032661616802216e-02
-6.889092177152633667e-02
3.827267512679100037e-02
-6.028823927044868469e-02
-5.491011589765548706e-02
-3.948159143328666687e-02
1.941711828112602234e-02
-9.229223430156707764e-02
-1.578848063945770264e-02
-8.216363936662673950e-02
1.645199395716190338e-02
-8.828310668468475342e-02
-2.165883965790271759e-02
-1.765638589859008789e-02
5.982582923024892807e-03
8.342353976331651211e-04
-7.579871267080307007e-02
6.498937308788299561e-02
1.066668890416622162e-03
6.295261532068252563e-02
-5.222351849079132080e-02
3.353403508663177490e-02
2.127681113779544830e-02
-4.264130815863609314e-02
-6.991148740053176880e-02
-6.770501285791397095e-02
6.490464508533477783e-02
-7.402167469263076782e-02
3.053019568324089050e-02
-6.967262178659439087e-02
-1.743827015161514282e-01
-1.697723055258393288e-03
7.921669632196426392e-02
3.213482722640037537e-02
-4.929189383983612061e-02
1.857033930718898773e-02
1.239111460745334625e-02
3.372474014759063721e-02
3.537334874272346497e-02
-7.070404291152954102e-02
3.049742616713047028e-02
-7.214717566967010498e-02
-5.370208621025085449e-02
-3.941177204251289368e-02
5.754642561078071594e-02
-6.258814781904220581e-02
-1.349813118577003479e-02
-9.654750674962997437e-02
-6.064855307340621948e-02
-2.949038334190845490e-02
5.710628814995288849e-03
-5.895387381315231323e-03
-4.788085445761680603e-02
5.287718400359153748e-02
-7.213770598173141479e-02
-6.784932315349578857e-02
-1.274654418230056763e-01
1.553253619931638241e-03
-7.010462880134582520e-02
-2.467174082994461060e-02
3.029929101467132568e-02
4.778729379177093506e-02
2.129899151623249054e-02
-3.647280111908912659e-02
-4.257898777723312378e-02
4.370617866516113281e-02
-1.528093218803405762e-01
-6.626091198995709419e-04
2.231301553547382355e-02
-2.064610086381435394e-02
-8.945541083812713623e-02
-3.638584865257143974e-03
5.299406871199607849e-02
2.266096509993076324e-02
-4.002649709582328796e-02
-7.762869447469711304e-02
3.395029902458190918e-02
3.294937685132026672e-02
-3.409485518932342529e-02
-3.027447313070297241e-02
-5.280594155192375183e-02
2.807533135637640953e-03
5.117612890899181366e-03
7.729525119066238403e-02
7.643701881170272827e-02
-5.687879864126443863e-03
-7.696839421987533569e-02
2.597435750067234039e-02
6.475365906953811646e-02
-1.084613031707704067e-03
4.950696602463722229e-03
2.395181357860565186e-02
-3.837915509939193726e-02
1.247415319085121155e-03
-1.795371249318122864e-02
-5.213065072894096375e-02
-3.125352039933204651e-02
-5.630639567971229553e-02
1.631032675504684448e-02
2.305787429213523865e-02
-4.877362772822380066e-02
-7.218427211046218872e-02
-6.244840100407600403e-02
-7.102712988853454590e-03
-1.680646464228630066e-02
-5.893217166885733604e-04
-1.670759916305541992e-02
7.636282127350568771e-03
1.144500896334648132e-01
-7.558780908584594727e-02
7.339920848608016968e-02
-4.545691888779401779e-03
2.578733488917350769e-02
-5.946684628725051880e-02
1.188744232058525085e-01
-1.206849068403244019e-01
-5.507941823452711105e-03
-1.785284094512462616e-02
9.819477796554565430e-03
-2.877261862158775330e-02
-1.018367707729339600e-02
1.530780550092458725e-02
-5.627616122364997864e-02
-2.425421960651874542e-02
-9.992331266403198242e-02
4.172081127762794495e-02
-6.399685144424438477e-02
-6.815316528081893921e-02
4.498045146465301514e-02
-3.185283392667770386e-02
-3.461641073226928711e-02
4.237220063805580139e-02
-6.508200615644454956e-02
2.300556562840938568e-02
9.604739956557750702e-03
-1.113349199295043945e-01
-3.931464627385139465e-02
-4.780975729227066040e-02
2.861408516764640808e-03
-2.978265844285488129e-02
1.267527192831039429e-01
-3.312857821583747864e-02
1.489699482917785645e-01
-3.627113997936248779e-02
-8.501827716827392578e-02
1.701474189758300781e-02
-1.784968934953212738e-02
-5.238962173461914062e-02
-3.017138130962848663e-02
-4.387227073311805725e-02
-2.722629159688949585e-02
4.640012979507446289e-02
3.444229066371917725e-02
9.825201332569122314e-02
8.031639456748962402e-02
2.495119534432888031e-02
-7.530918717384338379e-02
-9.065357595682144165e-02
-8.240970224142074585e-02
-9.320996701717376709e-03
9.105239063501358032e-03
5.381356924772262573e-02
1.194702927023172379e-02
9.896759688854217529e-02
-1.525044348090887070e-02
-4.990804567933082581e-02
-4.638221114873886108e-02
-6.872741878032684326e-02
-6.354700773954391479e-02
7.881115376949310303e-02
-4.303041845560073853e-02
-3.594089299440383911e-02
-4.070355743169784546e-02
-4.546571290120482445e-05
-6.251229345798492432e-02
-7.740724831819534302e-03
-9.007215499877929688e-02
6.712552160024642944e-02
-1.129304338246583939e-02
5.977887660264968872e-03
-1.318715419620275497e-02
-6.290530413389205933e-02
-3.268175944685935974e-02
-6.680039316415786743e-02
-7.783484458923339844e-02
-9.604639373719692230e-03
-4.841555841267108917e-03
6.931849569082260132e-02
-3.988725692033767700e-02
-3.245176747441291809e-02
2.456168644130229950e-02
-1.695805042982101440e-02
2.968470379710197449e-02
-4.801865294575691223e-02
-7.130811363458633423e-02
-5.721764639019966125e-02
-1.289542615413665771e-01
7.769011706113815308e-02
-2.890464849770069122e-02
1.250892132520675659e-01
1.998125575482845306e-02
-7.092067599296569824e-02
8.879540115594863892e-02
-3.374371305108070374e-02
-1.685898518189787865e-03
2.327560679987072945e-03
-3.071376122534275055e-02
1.786017976701259613e-02
-9.283173829317092896e-02
1.504986640065908432e-02
-5.321138352155685425e-02
3.652179986238479614e-02
-4.045626148581504822e-02
-8.626923896372318268e-03
-9.487224370241165161e-02
-7.936282455921173096e-02
-2.063183113932609558e-02
2.203822508454322815e-02
5.950538441538810730e-02
-7.434554398059844971e-02
-3.648484125733375549e-02
6.156760826706886292e-02
1.143649518489837646e-01
-1.518549323081970215e-01
-4.129663854837417603e-02
-6.484378129243850708e-02
-2.978259231895208359e-03
1.380726974457502365e-02
7.737726718187332153e-02
2.289821580052375793e-02
7.914265245199203491e-02
-2.120534330606460571e-02
6.803752481937408447e-02
-8.301268517971038818e-02
-4.966631904244422913e-02
3.001264296472072601e-02
7.052614819258451462e-03
-6.947919726371765137e-02
-1.613195985555648804e-03
-3.998075798153877258e-02
-5.910554528236389160e-02
-4.795302823185920715e-02
-4.598957300186157227e-02
1.082345657050609589e-02
-1.531904656440019608e-02
-1.820292510092258453e-02
-3.698307275772094727e-02
2.283032983541488647e-02
2.320173569023609161e-02
-4.107462614774703979e-02
-1.076951273716986179e-03
-1.077799424529075623e-01
3.201351314783096313e-02
8.419749140739440918e-02
-3.749962523579597473e-02
3.918933868408203125e-02
2.380740642547607422e-02
-8.272003382444381714e-02
-3.404361382126808167e-02
-4.188250750303268433e-02
2.171732485294342041e-03
-1.127682626247406006e-02
-2.868873532861471176e-03
-5.447793006896972656e-02
1.961005106568336487e-02
7.261827704496681690e-04
1.122756525874137878e-01
3.325952449813485146e-03
-2.655056538060307503e-03
1.865898258984088898e-02
-5.576436966657638550e-02
-6.504803150892257690e-02
2.706500887870788574e-02
-6.333093345165252686e-02
-6.222189404070377350e-03
3.032783791422843933e-02
1.598505303263664246e-02
-1.702500693500041962e-02
6.292442977428436279e-02
-7.583015412092208862e-02
1.719840317964553833e-01
-1.243236064910888672e-01
5.887316539883613586e-02
-6.265109777450561523e-02
6.120151840150356293e-03
2.077159099280834198e-02
-3.661850467324256897e-02
2.083754539489746094e-02
8.461555093526840210e-02
2.658490557223558426e-03
-5.592873319983482361e-02
8.230172097682952881e-02
3.636905178427696228e-02
-4.771234840154647827e-02
1.548094116151332855e-02
-1.406323313713073730e-01
-6.112210825085639954e-02
-3.059200383722782135e-02
5.240343883633613586e-02
7.509793341159820557e-02
3.434649854898452759e-02
-3.615329042077064514e-02
-2.775909565389156342e-02
-6.022711098194122314e-02
1.617823913693428040e-02
1.024820581078529358e-01
9.687408804893493652e-02
2.568951994180679321e-02
2.660230919718742371e-02
2.906346879899501801e-02
3.210515249520540237e-03
-6.205233559012413025e-02
4.643390700221061707e-02
2.978570293635129929e-03
5.457379668951034546e-02
2.260622009634971619e-02
-3.482577949762344360e-02
3.103876113891601562e-02
1.465759053826332092e-02
-2.319736592471599579e-02
7.824824750423431396e-02
-7.255352288484573364e-02
1.161899138242006302e-02
-2.785988152027130127e-02
5.630279332399368286e-02
-2.085545472800731659e-02
1.413787156343460083e-02
-2.101001515984535217e-02
2.297523617744445801e-02
-2.533411048352718353e-02
-1.146300137042999268e-01
-7.862209342420101166e-03
-9.764642454683780670e-03
2.669578604400157928e-02
-1.311900466680526733e-01
2.116485871374607086e-02
-4.329325258731842041e-02
7.325956225395202637e-02
2.311132661998271942e-02
2.440352924168109894e-02
-3.010559454560279846e-02
-7.132626604288816452e-03
-1.905338093638420105e-02
2.359877340495586395e-02
-5.341689102351665497e-03
5.846641957759857178e-03
-1.443195901811122894e-02
2.889523468911647797e-02
-1.705767214298248291e-02
-1.809656620025634766e-02
-4.313969984650611877e-02
3.855195268988609314e-02
2.906306087970733643e-02
-3.346368670463562012e-02
7.968837022781372070e-02
-3.481931984424591064e-02
2.352141588926315308e-02
8.553871884942054749e-03
1.916612125933170319e-02
-1.918375305831432343e-02
6.297165155410766602e-02
5.512009188532829285e-02
8.616278320550918579e-02
-2.982277423143386841e-02
-5.213651806116104126e-02
1.224489882588386536e-02
6.219803355634212494e-03
-1.773910969495773315e-02
4.584010690450668335e-02
3.242643177509307861e-02
6.245553493499755859e-02
7.408740930259227753e-03
2.852120203897356987e-03
-3.362485766410827637e-02
-4.443085938692092896e-02
-3.060972131788730621e-02
-6.365792825818061829e-03
-7.755919359624385834e-03
6.659366190433502197e-04
2.195043861865997314e-02
2.428369224071502686e-02
6.714563071727752686e-02
4.731706343591213226e-03
6.181779503822326660e-02
-2.697019465267658234e-02
-5.588435381650924683e-02
-5.107894167304039001e-02
-3.889193385839462280e-02
-1.107883639633655548e-02
3.876086790114641190e-03
-2.513616532087326050e-02
-1.898156665265560150e-02
8.711053989827632904e-03
-1.502654794603586197e-02
1.695821434259414673e-02
4.769774153828620911e-02
-5.368914920836687088e-03
2.245132811367511749e-02
-5.454336479306221008e-02
-1.670630834996700287e-02
-4.806094244122505188e-02
-1.449138391762971878e-02
2.479834295809268951e-02
-5.466924235224723816e-02
-4.908575117588043213e-02
4.147288948297500610e-02
7.747134659439325333e-03
1.318857725709676743e-02
2.399230562150478363e-02
-2.476390916854143143e-03
-3.956898301839828491e-02
-5.720728542655706406e-03
3.417547792196273804e-02
3.386893123388290405e-02
-1.710995100438594818e-03
1.042285189032554626e-02
1.939224824309349060e-02
2.723661065101623535e-02
6.811031699180603027e-02
-4.345402587205171585e-03
-2.183081395924091339e-02
5.653310939669609070e-02
-2.096572518348693848e-02
-1.217918563634157181e-02
-4.283941164612770081e-02
4.058335721492767334e-02
-1.146663445979356766e-02
5.152079463005065918e-02
5.302737653255462646e-02
-4.116920381784439087e-02
-6.744412705302238464e-03
-5.787739902734756470e-02
5.517003685235977173e-02
2.947513945400714874e-02
-1.461837999522686005e-02
6.628517061471939087e-02
-3.006051480770111084e-02
-1.080886572599411011e-01
-1.130307465791702271e-02
-2.949547208845615387e-02
1.680509932339191437e-02
7.613154500722885132e-02
2.946336939930915833e-02
3.408970311284065247e-02
-1.991328597068786621e-02
-9.781866334378719330e-03
-6.920567248016595840e-03
1.006905585527420044e-01
-3.427299857139587402e-02
-1.517689973115921021e-02
8.719035238027572632e-02
-1.459316071122884750e-02
1.841375976800918579e-02
-6.070292368531227112e-02
-5.590686574578285217e-02
-1.897323317825794220e-02
1.956238411366939545e-02
3.944822400808334351e-02
5.839277431368827820e-02
7.932581938803195953e-03
2.005196409299969673e-03
5.571037903428077698e-02
-2.266576513648033142e-02
2.992275357246398926e-02
-2.304756455123424530e-02
-1.352462638169527054e-02
6.846615113317966461e-03
-1.769931428134441376e-02
1.302713751792907715e-01
4.243031889200210571e-02
2.705338969826698303e-02
2.003519050776958466e-02
-5.524691566824913025e-02
-2.832501195371150970e-02
-5.852516368031501770e-02
-1.950865797698497772e-02
-9.818111546337604523e-03
-3.091261908411979675e-02
-2.768897265195846558e-02
8.107397705316543579e-02
-2.878178656101226807e-02
-1.992611447349190712e-03
-9.105192730203270912e-04
1.707633025944232941e-02
2.585890889167785645e-02
7.619988173246383667e-04
5.233298614621162415e-02
-4.431243985891342163e-02
-1.985526084899902344e-02
2.219580300152301788e-02
-6.275665480643510818e-03
-2.190464735031127930e-02
-7.624977733939886093e-03
-5.555606260895729065e-02
-6.682172417640686035e-03
4.401307925581932068e-02
-3.067323379218578339e-02
-3.558633616194128990e-03
-8.283758908510208130e-02
1.035153046250343323e-01
-3.570320457220077515e-02
5.047480389475822449e-02
2.612314373254776001e-02
-3.684418275952339172e-02
4.937825724482536316e-02
5.348532274365425110e-02
1.242549717426300049e-02
-4.029340669512748718e-02
7.322996109724044800e-02
3.089816868305206299e-02
-4.432090371847152710e-02
-6.895685195922851562e-02
1.004421785473823547e-01
7.318009436130523682e-02
8.606515079736709595e-02
3.437136113643646240e-02
2.912749163806438446e-02
3.965614363551139832e-02
4.386515915393829346e-02
9.386822581291198730e-03
4.015251528471708298e-03
7.974165678024291992e-02
2.537224255502223969e-02
3.079575859010219574e-02
7.413795217871665955e-03
1.289888657629489899e-02
3.517872095108032227e-02
7.884363643825054169e-03
-4.165976773947477341e-03
-1.667677797377109528e-02
5.610148236155509949e-02
-1.244648173451423645e-02
1.574310287833213806e-02
-4.483351483941078186e-02
-3.299646079540252686e-02
-2.355334535241127014e-02
6.126887630671262741e-03
1.289767096750438213e-03
-4.352558031678199768e-02
-2.846995182335376740e-02
-1.069573312997817993e-02
-9.522431530058383942e-03
4.627460613846778870e-02
-6.266570836305618286e-02
8.944093249738216400e-03
-3.745536506175994873e-02
-3.538647294044494629e-02
-2.947680838406085968e-02
-2.587478794157505035e-02
-3.286226466298103333e-02
-2.850903756916522980e-02
1.808770745992660522e-02
4.649458825588226318e-02
1.761877723038196564e-02
-8.153603412210941315e-03
-5.620405450463294983e-02
4.357993230223655701e-02
-5.541846528649330139e-02
-5.201741121709346771e-03
2.923042140901088715e-02
1.246045721927657723e-04
6.316421180963516235e-02
9.635766968131065369e-03
-1.603601314127445221e-02
-4.709127172827720642e-02
-5.524307489395141602e-02
-2.907476574182510376e-02
8.670044690370559692e-02
-5.007833242416381836e-03
-2.280424349009990692e-02
-1.064464100636541843e-03
-6.815178319811820984e-03
1.435737311840057373e-02
-3.405187278985977173e-02
1.918156072497367859e-02
-6.745341699570417404e-03
7.408739533275365829e-03
6.118938699364662170e-02
4.091319162398576736e-03
-3.391095623373985291e-02
3.436916321516036987e-02
-8.143502473831176758e-02
3.400683403015136719e-02
-3.613528236746788025e-02
3.417069464921951294e-02
-2.357848361134529114e-02
4.503626376390457153e-02
8.041319996118545532e-02
4.185076057910919189e-02
-1.391197554767131805e-02
-5.962934345006942749e-02
-4.800578951835632324e-02
-3.538192436099052429e-02
-6.919919699430465698e-02
1.083136303350329399e-03
4.021551087498664856e-02
2.117298543453216553e-02
-1.531380880624055862e-02
1.004718989133834839e-01
3.050284646451473236e-02
-5.374844372272491455e-02
3.935458138585090637e-02
6.518320739269256592e-02
5.022072792053222656e-02
-1.812270656228065491e-02
-9.870950877666473389e-02
9.216515347361564636e-03
-1.386911980807781219e-02
-1.083353720605373383e-02
-6.003676354885101318e-02
2.256293222308158875e-02
1.013266574591398239e-02
-6.258484721183776855e-02
2.354765683412551880e-02
9.948591701686382294e-03
-2.263798564672470093e-02
-1.347663719207048416e-02
5.299726128578186035e-02
6.370193511247634888e-02
3.317701630294322968e-03
-4.688348621129989624e-02
4.811066761612892151e-02
-3.988819569349288940e-02
5.135879293084144592e-02
1.537902280688285828e-02
-2.336314320564270020e-02
-5.123806372284889221e-02
2.088063582777976990e-02
-3.507719933986663818e-02
1.181837823241949081e-02
-5.678292829543352127e-03
5.206554755568504333e-02
8.228201419115066528e-03
7.705433666706085205e-02
4.414436221122741699e-02
2.066441066563129425e-02
2.120378054678440094e-02
2.752887317910790443e-03
-2.276779152452945709e-02
-2.436995320022106171e-02
4.291959106922149658e-02
5.732446536421775818e-02
3.294875472784042358e-02
4.138327389955520630e-02
8.324713259935379028e-02
2.186736464500427246e-02
-7.652989029884338379e-02
4.747759550809860229e-03
3.702927008271217346e-02
-4.634767305105924606e-03
-3.469647467136383057e-02
4.545634612441062927e-02
-5.107735097408294678e-02
-4.340625926852226257e-02
-5.140434205532073975e-02
-8.332007564604282379e-03
-2.324529737234115601e-02
-7.314704358577728271e-02
-2.127901464700698853e-02
2.474427036941051483e-02
1.960368081927299500e-02
3.435695916414260864e-02
6.112339906394481659e-03
2.564098313450813293e-02
-6.163752824068069458e-02
2.860951609909534454e-02
-1.238091569393873215e-02
-7.282108813524246216e-02
5.868494138121604919e-02
-3.493258729577064514e-02
1.639919541776180267e-02
-2.099390886723995209e-02
-2.377116680145263672e-02
8.612436801195144653e-02
-5.739204585552215576e-02
-4.846408218145370483e-02
4.891067370772361755e-02
1.791022159159183502e-02
-2.395096980035305023e-02
2.263245359063148499e-02
3.693580999970436096e-02
-1.951129361987113953e-02
-3.266030550003051758e-02
-2.806876040995121002e-02
-1.923588663339614868e-02
-6.243612617254257202e-02
3.881406411528587341e-02
1.588055118918418884e-02
1.178761050105094910e-01
-4.925443604588508606e-02
1.502054184675216675e-02
6.459903717041015625e-02
-3.456843644380569458e-02
-1.498034037649631500e-02
5.833092331886291504e-02
7.202326320111751556e-03
4.986241832375526428e-02
1.464213943108916283e-03
5.276478826999664307e-02
5.456658080220222473e-02
-2.879703231155872345e-02
3.707731515169143677e-02
3.235737234354019165e-02
3.467454388737678528e-02
-5.487343762069940567e-03
3.230698034167289734e-02
1.333095226436853409e-02
1.162312738597393036e-02
7.564905565232038498e-03
1.470177061855792999e-02
3.159397467970848083e-02
-4.316961020231246948e-02
7.821323722600936890e-02
5.229734349995851517e-03
-4.191074520349502563e-02
-2.208898775279521942e-02
2.067109011113643646e-02
1.858374802395701408e-03
3.212961554527282715e-02
1.300478167831897736e-02
2.176749892532825470e-02
-3.396609053015708923e-02
-4.598825052380561829e-02
-3.488533571362495422e-02
9.224586933851242065e-02
4.827420040965080261e-02
1.515394151210784912e-01
2.109959721565246582e-02
-1.134009379893541336e-02
1.724245585501194000e-02
1.697362586855888367e-02
3.418260440230369568e-02
1.560496725142002106e-02
-3.915491513907909393e-03
3.316381573677062988e-02
1.017650030553340912e-02
-3.293745964765548706e-02
1.302714738994836807e-02
4.084238409996032715e-02
4.352308064699172974e-02
-2.871866151690483093e-02
1.122511643916368484e-02
5.783647671341896057e-02
1.091313585638999939e-01
4.373756237328052521e-03
6.006388738751411438e-02
4.671839252114295959e-02
1.090881694108247757e-02
1.087846048176288605e-02
-6.557038426399230957e-02
5.784182623028755188e-02
1.457898784428834915e-02
-5.529127642512321472e-02
-2.298443950712680817e-02
-3.434058651328086853e-02
-3.296183422207832336e-02
-5.497979000210762024e-03
4.385340213775634766e-02
-4.921631887555122375e-02
-2.429227717220783234e-02
4.552219435572624207e-02
-2.249346859753131866e-02
1.477465406060218811e-02
-9.481518715620040894e-02
5.289059132337570190e-02
2.360983751714229584e-02
-3.103571245446801186e-03
5.620197625830769539e-04
5.734626576304435730e-02
1.717092841863632202e-02
-3.021357581019401550e-02
-3.233034536242485046e-02
5.612537264823913574e-02
5.892695859074592590e-02
7.437335327267646790e-03
4.956803098320960999e-02
2.692806906998157501e-02
-3.111421503126621246e-02
-1.376106124371290207e-02
5.897967889904975891e-02
1.075775455683469772e-02
-8.261976763606071472e-03
-4.653614386916160583e-02
-6.378849595785140991e-02
-5.724084004759788513e-02
-8.580472320318222046e-03
1.572513580322265625e-02
-8.348229341208934784e-03
-4.332248121500015259e-02
-1.526783127337694168e-02
-9.105166047811508179e-02
1.193338166922330856e-02
1.866242848336696625e-03
-4.146237671375274658e-02
-5.428649112582206726e-02
4.870232567191123962e-02
-5.340440943837165833e-02
4.290131106972694397e-02
1.660940051078796387e-02
4.743215627968311310e-03
-3.038690192624926567e-03
3.422713652253150940e-02
3.405500203371047974e-02
-1.193759497255086899e-03
-5.785240605473518372e-02
5.775503814220428467e-02
9.962885081768035889e-02
7.371967285871505737e-02
-4.212165251374244690e-03
6.668251007795333862e-02
-4.094677045941352844e-02
2.183164097368717194e-02
-4.946047067642211914e-02
1.701654307544231415e-02
8.131976239383220673e-03
2.220744267106056213e-02
-1.893598400056362152e-02
4.961265251040458679e-03
4.435326438397169113e-03
3.576536104083061218e-02
-4.998122900724411011e-02
-4.178789258003234863e-02
1.628891192376613617e-02
-3.943799808621406555e-02
9.790201485157012939e-02
5.837006494402885437e-02
8.512974716722965240e-03
3.721550852060317993e-02
1.185781322419643402e-02
3.890917077660560608e-02
-2.336694858968257904e-02
-2.114015258848667145e-02
-5.808500200510025024e-02
1.226352155208587646e-02
-1.029263832606375217e-03
5.224177241325378418e-02
-1.526521146297454834e-02
1.617797464132308960e-02
1.577503606677055359e-02
1.053303480148315430e-03
-4.435285460203886032e-03
1.190564502030611038e-02
1.515105552971363068e-02
-3.732116520404815674e-02
1.153874117881059647e-02
9.391087293624877930e-02
5.805720388889312744e-02
7.990401238203048706e-03
1.139843091368675232e-02
3.635460743680596352e-03
4.683072865009307861e-02
-1.915110275149345398e-02
2.246621251106262207e-02
2.813588641583919525e-02
3.054509311914443970e-02
-4.158492386341094971e-02
1.776595599949359894e-02
-4.668298736214637756e-02
6.125118234194815159e-04
1.111849769949913025e-01
6.072070449590682983e-02
-4.454825818538665771e-02
-2.159214951097965240e-02
1.911514438688755035e-02
5.532452091574668884e-02
2.101623639464378357e-02
-4.865384399890899658e-01
6.457295268774032593e-02
4.796090349555015564e-02
7.366620749235153198e-02
-9.943801909685134888e-02
-7.311839610338211060e-02
1.191654987633228302e-02
4.509090445935726166e-03
7.325858622789382935e-02
-1.249406039714813232e-01
4.228967241942882538e-03
-4.934480413794517517e-02
-2.262441366910934448e-01
4.468369111418724060e-02
2.276216447353363037e-02
-6.869679689407348633e-02
-8.232468739151954651e-03
-9.718547761440277100e-02
-2.773216180503368378e-02
-2.222080715000629425e-02
-4.438471049070358276e-02
-6.520374864339828491e-02
-5.755995400249958038e-03
1.855004951357841492e-02
-4.643788933753967285e-02
-1.459204554557800293e-01
2.773344144225120544e-02
5.268827080726623535e-02
4.139149561524391174e-02
-3.683396056294441223e-02
7.475375384092330933e-02
4.554908722639083862e-02
2.795593813061714172e-02
-2.992941252887248993e-02
1.836482807993888855e-02
-9.618621319532394409e-03
9.118399769067764282e-02
7.482460141181945801e-02
2.658258005976676941e-02
7.081002742052078247e-02
-1.365844011306762695e-01
-4.159629717469215393e-02
-3.625101968646049500e-02
3.128470852971076965e-02
-1.666984893381595612e-02
-2.649319171905517578e-01
-3.216769918799400330e-02
-2.890793420374393463e-02
-8.727844059467315674e-02
-7.061199098825454712e-02
-6.337290257215499878e-02
-4.048375412821769714e-02
-1.387224495410919189e-01
-4.636329784989356995e-02
-3.087056614458560944e-02
-1.976281404495239258e-01
1.177589967846870422e-01
-1.277203708887100220e-01
-6.794854998588562012e-02
-6.546137481927871704e-02
3.295448049902915955e-02
-1.389251649379730225e-01
-6.648154556751251221e-02
9.742429479956626892e-03
-1.516733597964048386e-02
4.142662975937128067e-03
4.123665858060121536e-03
-1.825142651796340942e-01
3.296639397740364075e-02
-2.828219905495643616e-02
9.687276184558868408e-02
1.073098331689834595e-01
-3.624666854739189148e-02
-8.702810108661651611e-02
-1.194557920098304749e-02
-8.253370411694049835e-03
-2.185961604118347168e-01
1.747321896255016327e-02
9.337605908513069153e-03
-2.666603401303291321e-02
3.903770074248313904e-02
2.105298079550266266e-02
1.958469301462173462e-01
-2.338235080242156982e-02
-3.285435959696769714e-02
-3.493462875485420227e-02
9.834701567888259888e-02
-5.324257537722587585e-02
2.944846892205532640e-05
4.307815432548522949e-02
-8.715495467185974121e-02
7.317189592868089676e-03
1.164291501045227051e-01
-5.093691870570182800e-02
3.722868394106626511e-03
5.433731898665428162e-02
1.080653220415115356e-01
-7.266259938478469849e-02
-9.810741245746612549e-02
-2.233041450381278992e-02
-1.176754105836153030e-02
-1.104658469557762146e-01
3.336922079324722290e-02
8.186867088079452515e-02
4.795059189200401306e-02
-2.314280346035957336e-02
-1.128279045224189758e-01
-2.748889662325382233e-02
7.628175616264343262e-02
-6.617096811532974243e-02
2.997959032654762268e-02
7.916940003633499146e-02
4.566631093621253967e-02
1.158095058053731918e-02
4.799817502498626709e-02
-5.404140055179595947e-02
-9.229840338230133057e-02
-1.612162776291370392e-02
1.431973651051521301e-02
2.148112505674362183e-01
1.378088146448135376e-01
1.077421456575393677e-01
-2.943683788180351257e-02
6.813000421971082687e-03
-8.792920969426631927e-03
-1.068641692399978638e-01
1.062745004892349243e-01
-6.176299974322319031e-02
1.540716141462326050e-01
1.519424095749855042e-02
-5.167508870363235474e-02
4.019894171506166458e-03
-1.118669062852859497e-01
1.340866554528474808e-02
-2.498972415924072266e-02
6.370345503091812134e-02
9.970629215240478516e-02
3.003548085689544678e-01
3.567130491137504578e-02
-8.306765928864479065e-03
-1.057125106453895569e-01
-3.102914802730083466e-02
-5.290277302265167236e-02
-7.515880465507507324e-02
-3.336364403367042542e-02
4.995087906718254089e-02
7.006832212209701538e-02
-1.610233075916767120e-02
6.882988661527633667e-02
-4.712492227554321289e-02
-5.662687122821807861e-02
-3.469206392765045166e-02
4.935067892074584961e-02
1.213957206346094608e-03
-8.684045076370239258e-02
2.050787955522537231e-01
4.537527263164520264e-02
-8.285628259181976318e-02
6.551320850849151611e-02
-9.712640196084976196e-03
-1.370157003402709961e-01
-5.597491934895515442e-02
3.585512563586235046e-02
-1.860058546299114823e-04
1.649447903037071228e-02
-8.159803226590156555e-03
2.718808501958847046e-02
1.168295070528984070e-01
2.205430157482624054e-02
-1.793390698730945587e-02
2.029559463262557983e-01
-6.093868240714073181e-02
-9.902394562959671021e-02
1.851399801671504974e-02
2.813891693949699402e-02
-7.360853254795074463e-02
7.853475958108901978e-02
-3.102245181798934937e-02
-1.089871227741241455e-01
-2.062258869409561157e-02
-2.408479154109954834e-01
-4.787522181868553162e-02
1.312557794153690338e-02
-4.796619713306427002e-02
-1.012039557099342346e-01
7.767102122306823730e-02
-8.575626462697982788e-02
-8.880817145109176636e-02
-1.095185279846191406e-01
-1.532415486872196198e-02
7.101950235664844513e-03
5.618488043546676636e-02
-6.141393911093473434e-03
-5.094676464796066284e-02
2.540183961391448975e-01
-2.407438457012176514e-01
8.432906866073608398e-02
-1.292210519313812256e-01
-1.265046149492263794e-01
4.421845823526382446e-02
-2.327876910567283630e-02
7.653181254863739014e-02
-6.948241591453552246e-02
2.884382382035255432e-02
-8.134403079748153687e-02
-9.250083565711975098e-02
-4.211470484733581543e-02
5.853029340505599976e-02
3.935361281037330627e-02
-1.092603802680969238e-02
-6.777776777744293213e-02
1.242655445821583271e-03
-1.255718339234590530e-02
9.802907705307006836e-02
7.919947057962417603e-02
8.194467425346374512e-02
8.170998096466064453e-02
-8.124449104070663452e-02
-5.721715465188026428e-02
3.224471211433410645e-02
-3.568049147725105286e-02
3.657514695078134537e-03
-4.932357370853424072e-02
7.889426499605178833e-02
4.903420433402061462e-02
-7.225973904132843018e-02
-5.692288279533386230e-02
7.841799408197402954e-02
-4.009339958429336548e-02
4.413786157965660095e-02
3.950675949454307556e-02
-1.910588592290878296e-01
1.400394290685653687e-01
5.873320251703262329e-02
-6.622771173715591431e-02
-4.097823984920978546e-03
-1.326172053813934326e-01
1.428861729800701141e-02
-1.790164113044738770e-01
1.483055651187896729e-01
5.157685279846191406e-02
-8.005806058645248413e-02
1.420197188854217529e-01
3.908274695277214050e-02
-7.593203336000442505e-02
-1.695932447910308838e-02
-4.370265081524848938e-02
-1.385882496833801270e-01
1.850314438343048096e-02
-6.692069768905639648e-02
4.555554687976837158e-02
-2.082700375467538834e-03
8.438063412904739380e-02
1.545454934239387512e-02
8.404345065355300903e-02
-1.523542497307062149e-02
-5.259513482451438904e-02
-4.941621795296669006e-02
-3.832667320966720581e-02
1.663074195384979248e-01
-9.478400647640228271e-02
-4.552453383803367615e-02
2.428923547267913818e-02
-3.878261893987655640e-02
-4.622855409979820251e-02
4.528243839740753174e-02
-2.442242801189422607e-01
2.650309540331363678e-02
4.570254310965538025e-02
-7.623415440320968628e-02
8.565558120608329773e-03
-3.983697295188903809e-02
1.318310499191284180e-01
-4.902432486414909363e-02
2.890032157301902771e-02
3.210075199604034424e-02
3.268270567059516907e-02
9.725265204906463623e-02
9.509454667568206787e-02
1.347368359565734863e-01
-4.750591889023780823e-02
5.122825130820274353e-02
2.526117563247680664e-01
-4.601607471704483032e-02
6.462879478931427002e-02
9.520650655031204224e-02
-3.035420738160610199e-02
-3.679035976529121399e-02
-2.352633699774742126e-02
5.095048993825912476e-02
-7.327439635992050171e-02
8.497269009239971638e-04
4.390607401728630066e-02
8.192779868841171265e-02
2.152888625860214233e-01
8.249862492084503174e-02
-5.144919827580451965e-02
-4.819086194038391113e-02
1.809256374835968018e-01
-1.425873860716819763e-02
-1.504515064880251884e-03
2.922263368964195251e-02
7.514115888625383377e-03
-7.803487032651901245e-02
1.345121860504150391e-02
1.061853915452957153e-01
4.836420714855194092e-02
-7.941773533821105957e-02
2.766142133623361588e-03
-9.048735350370407104e-02
1.185215450823307037e-02
-1.218256950378417969e-01
-9.439688874408602715e-04
4.230466485023498535e-02
-6.179230287671089172e-02
-6.324274837970733643e-02
6.283003091812133789e-02
9.862615913152694702e-02
4.180164262652397156e-02
3.363297507166862488e-02
4.750666394829750061e-02
-2.094138972461223602e-02
4.826185107231140137e-02
1.997966617345809937e-01
6.524640601128339767e-03
-6.873653829097747803e-02
1.762564480304718018e-01
1.618963927030563354e-01
8.953563868999481201e-02
8.026465028524398804e-02
-1.279051788151264191e-02
2.340048924088478088e-02
6.851746141910552979e-02
-4.313936457037925720e-02
4.557385668158531189e-02
-7.346532493829727173e-02
-9.163826704025268555e-02
1.814558357000350952e-02
8.203886449337005615e-02
5.166341364383697510e-02
1.305247657001018524e-02
-6.718435883522033691e-02
-4.406557977199554443e-02
-4.382236674427986145e-02
3.525217995047569275e-02
-5.921826232224702835e-03
1.472688168287277222e-01
-1.568713188171386719e-01
8.963602036237716675e-02
7.831645011901855469e-02
4.034285619854927063e-02
-9.760338068008422852e-02
3.423732519149780273e-02
3.620730713009834290e-02
7.248240709304809570e-02
-1.156289353966712952e-01
3.411862999200820923e-02
-4.736343771219253540e-02
-6.932844221591949463e-02
-4.166172072291374207e-02
2.754810079932212830e-02
-2.633812278509140015e-02
1.393716633319854736e-01
5.996054783463478088e-02
1.588886827230453491e-01
-3.718510270118713379e-02
2.685029432177543640e-02
-7.891124696470797062e-04
1.154545415192842484e-02
-5.628974735736846924e-02
6.155062466859817505e-03
-5.151423439383506775e-02
-3.152596205472946167e-02
2.201283425092697144e-01
8.843731135129928589e-03
8.266532421112060547e-02
1.307097636163234711e-02
-1.360493618994951248e-02
1.126488447189331055e-01
-6.975755095481872559e-02
-8.884288370609283447e-02
-5.776620283722877502e-02
4.784850403666496277e-02
-2.220637649297714233e-01
5.925940349698066711e-02
-2.993617206811904907e-03
-6.611523032188415527e-02
-8.858571201562881470e-02
-2.808001637458801270e-02
-1.365861743688583374e-01
6.873542908579111099e-03
-3.740571439266204834e-02
-5.552427843213081360e-02
8.776929229497909546e-03
-9.771621972322463989e-02
3.566161543130874634e-02
1.199468299746513367e-01
-8.921801345422863960e-04
-1.512355655431747437e-01
2.336634695529937744e-02
4.419857636094093323e-02
-6.442877650260925293e-02
-2.344766259193420410e-02
1.683865860104560852e-02
1.208859160542488098e-01
1.041900739073753357e-01
6.352819502353668213e-03
-4.141631722450256348e-02
2.264436148107051849e-02
-2.569365873932838440e-02
-5.506501346826553345e-02
9.468536823987960815e-02
-6.886120885610580444e-02
-4.268899187445640564e-02
3.181518986821174622e-02
1.293416023254394531e-01
6.314307451248168945e-02
-2.928796689957380295e-03
-6.441647559404373169e-02
-7.453552633523941040e-02
-2.610892429947853088e-02
-4.361076280474662781e-02
2.635478600859642029e-02
-8.161516487598419189e-02
-3.984036296606063843e-02
3.034093379974365234e-01
-3.516537323594093323e-02
1.640380024909973145e-01
-3.258084133267402649e-02
-1.153467595577239990e-01
2.395563200116157532e-02
-1.872091293334960938e-01
-4.979153722524642944e-02
7.828280329704284668e-02
4.337787628173828125e-03
3.615104034543037415e-02
-9.072901308536529541e-02
2.786038257181644440e-02
1.311659961938858032e-01
7.322421669960021973e-02
7.969827950000762939e-02
1.092021241784095764e-01
4.318657889962196350e-02
-6.354150921106338501e-02
-2.232013642787933350e-02
5.177476629614830017e-02
3.888458013534545898e-02
8.682970702648162842e-02
2.907850779592990875e-02
1.261600665748119354e-02
4.729927983134984970e-03
2.711388049647212029e-03
-1.174246426671743393e-02
-6.827642768621444702e-02
1.941004246473312378e-01
-4.135265573859214783e-02
-1.125097796320915222e-01
-3.728417307138442993e-02
-3.964098170399665833e-02
-1.613627746701240540e-02
1.374795883893966675e-01
8.838181197643280029e-02
-4.492638632655143738e-02
6.521476805210113525e-02
-2.062112092971801758e-01
-1.886557228863239288e-02
4.838810116052627563e-02
2.679010108113288879e-02
1.064002141356468201e-02
-2.670530602335929871e-02
-1.715077310800552368e-01
-1.437680125236511230e-01
-4.080428183078765869e-02
-6.007950380444526672e-02
1.521986275911331177e-01
-9.578078985214233398e-02
-2.170463092625141144e-02
-1.069791018962860107e-01
1.549262087792158127e-02
7.782184332609176636e-02
8.042450994253158569e-02
-3.397127613425254822e-02
-4.801722243428230286e-02
1.887549459934234619e-02
-6.918387021869421005e-03
-2.108867838978767395e-02
-3.163085132837295532e-02
1.297558397054672241e-01
4.352065548300743103e-02
-2.359537035226821899e-02
3.339094296097755432e-02
1.323964260518550873e-02
-1.560158561915159225e-02
1.087442156858742237e-03
1.028620917350053787e-02
3.119969740509986877e-02
3.229857608675956726e-02
-4.229533299803733826e-02
1.422540470957756042e-02
-5.894875526428222656e-02
-1.518262326717376709e-01
-3.375205397605895996e-02
3.446330502629280090e-02
3.047249466180801392e-02
2.609944529831409454e-02
1.032637245953083038e-02
-1.144541501998901367e-01
-2.884118631482124329e-02
3.802792052738368511e-04
-2.582920342683792114e-02
2.015941031277179718e-02
-5.172966793179512024e-02
1.849459297955036163e-02
2.788649871945381165e-02
-1.033652946352958679e-02
2.793440595269203186e-02
-3.985123708844184875e-02
-1.140061765909194946e-02
-4.748148098587989807e-02
-3.887721523642539978e-02
-7.350230216979980469e-02
-1.499235164374113083e-02
3.381574898958206177e-02
-4.181020706892013550e-02
2.279304154217243195e-02
-2.060035057365894318e-02
-8.035282790660858154e-02
-2.743957564234733582e-02
-7.211043685674667358e-02
9.651834843680262566e-04
-2.284283563494682312e-02
2.641139551997184753e-02
6.162934005260467529e-04
4.624868556857109070e-02
-7.313799858093261719e-02
-2.726936014369130135e-03
9.838956408202648163e-03
-4.851216822862625122e-02
-2.270277589559555054e-03
6.312329322099685669e-03
3.656988590955734253e-02
5.329770036041736603e-03
4.096790775656700134e-02
-8.098161965608596802e-02
-7.253502309322357178e-02
-5.250327289104461670e-02
-1.831047423183917999e-02
1.953784190118312836e-02
9.272347390651702881e-02
-7.131718844175338745e-02
-2.172885648906230927e-02
-2.724966779351234436e-02
5.590256676077842712e-02
-2.527664788067340851e-02
5.967364460229873657e-02
5.967599898576736450e-02
-1.916173845529556274e-02
-2.017982676625251770e-02
-3.240848705172538757e-02
9.050645865499973297e-03
-2.094190195202827454e-02
-1.328426878899335861e-02
-2.631692448630928993e-03
1.932534854859113693e-03
-7.241041958332061768e-02
-1.930552162230014801e-02
1.405354123562574387e-02
1.423476915806531906e-02
-1.554874982684850693e-02
-1.382945477962493896e-02
-2.244316972792148590e-02
-2.800833061337471008e-02
-6.561838835477828979e-02
3.499445691704750061e-02
1.465848833322525024e-02
4.789185896515846252e-02
-4.678519815206527710e-02
4.410334676504135132e-02
-4.718618467450141907e-03
8.165489882230758667e-02
-2.715757116675376892e-02
5.262820050120353699e-02
1.097987592220306396e-02
-1.057785823941230774e-01
2.249465137720108032e-02
-4.358109086751937866e-02
-6.195853929966688156e-03
-1.075535640120506287e-01
-3.672505915164947510e-02
7.710194215178489685e-03
-1.172955054789781570e-02
-9.840419143438339233e-02
-4.817372560501098633e-02
-3.681490570306777954e-02
-2.983686886727809906e-02
2.986559271812438965e-02
4.565899446606636047e-02
-2.798372320830821991e-02
-5.714653059840202332e-02
-4.792903736233711243e-02
2.109542302787303925e-02
-1.183579093776643276e-03
-2.384831942617893219e-02
-5.123757570981979370e-02
-7.712791860103607178e-02
-1.010778844356536865e-01
-4.955714941024780273e-02
-4.900678992271423340e-02
-5.473505705595016479e-02
-1.013946486636996269e-03
-1.723976619541645050e-02
-3.885999321937561035e-02
-1.511616073548793793e-02
2.625058777630329132e-02
-4.809886589646339417e-02
-8.419553935527801514e-02
-9.712154977023601532e-03
-5.758291855454444885e-02
-6.662475317716598511e-02
-2.323861233890056610e-02
-8.629472553730010986e-02
-2.077333256602287292e-02
4.973219335079193115e-02
4.743019118905067444e-02
-2.650017850100994110e-03
1.368956360965967178e-02
-7.283758837729692459e-03
-1.304178964346647263e-02
9.082492440938949585e-03
1.340129133313894272e-02
-9.410428465344011784e-04
-1.095714569091796875e-01
-8.662461489439010620e-02
-6.174102798104286194e-02
1.984389871358871460e-02
-5.449373275041580200e-02
2.272657118737697601e-02
-2.787290699779987335e-02
-4.186354950070381165e-02
-3.122295718640089035e-03
-2.543547190725803375e-02
1.012507453560829163e-02
2.218779362738132477e-02
-6.151021923869848251e-03
-5.691237002611160278e-02
-5.732877925038337708e-02
1.159365847706794739e-02
-4.503253847360610962e-02
-2.989622391760349274e-02
-4.060916602611541748e-02
3.450117632746696472e-02
1.448919251561164856e-02
3.420761972665786743e-02
-3.110254369676113129e-02
2.305750921368598938e-02
1.270267926156520844e-02
1.945526339113712311e-02
-6.435254961252212524e-02
-5.498972162604331970e-02
-4.519633483141660690e-03
-6.216282490640878677e-04
-2.273626159876585007e-03
-1.033415179699659348e-02
-5.210978537797927856e-02
-1.291487272828817368e-02
-5.235050618648529053e-02
-4.955136775970458984e-02
-4.747201502323150635e-02
-7.013326510787010193e-03
6.633464992046356201e-02
-1.247118972241878510e-02
-4.350946843624114990e-02
3.865965083241462708e-02
-1.059579569846391678e-02
2.667394652962684631e-02
-3.598824515938758850e-02
-7.404126226902008057e-03
-2.154466928914189339e-03
-7.051834464073181152e-02
-8.419402688741683960e-02
-6.403323262929916382e-02
2.814160194247961044e-03
-2.497810497879981995e-02
-1.379285939037799835e-02
1.538668177090585232e-03
6.187519058585166931e-03
2.804016508162021637e-02
3.072607517242431641e-02
-1.213932875543832779e-02
2.902988903224468231e-02
3.405807539820671082e-02
-3.729918599128723145e-02
-1.150601450353860855e-02
1.552146393805742264e-03
-6.063958862796425819e-04
2.617739699780941010e-02
1.210082974284887314e-02
-3.455738537013530731e-03
7.587342709302902222e-02
2.439098805189132690e-02
3.120874753221869469e-03
2.418077550828456879e-02
-7.432613521814346313e-02
-1.372526120394468307e-02
5.524301901459693909e-03
4.353633150458335876e-02
1.957165263593196869e-02
3.572716144844889641e-03
-6.291348487138748169e-03
1.017838492989540100e-01
3.777547925710678101e-02
-5.521982163190841675e-02
3.296819329261779785e-02
-5.582459736615419388e-03
-3.745825961232185364e-02
2.937278337776660919e-02
3.256294876337051392e-02
4.760636016726493835e-03
2.229318395256996155e-02
-2.645321376621723175e-02
3.368070721626281738e-02
3.332495316863059998e-02
-1.715170592069625854e-02
9.823684580624103546e-03
1.317901629954576492e-02
-5.810998380184173584e-02
1.281210128217935562e-02
3.676032647490501404e-02
-5.901632830500602722e-02
-2.857352793216705322e-02
-1.370173320174217224e-02
-4.122459515929222107e-02
5.744104739278554916e-03
-4.911748319864273071e-02
-5.884902551770210266e-02
-5.658215284347534180e-02
-2.502110414206981659e-02
3.222050145268440247e-02
2.112237177789211273e-02
3.680770099163055420e-02
1.382542308419942856e-02
5.171214416623115540e-02
1.647069677710533142e-02
7.212670519948005676e-03
-5.955770239233970642e-02
-6.790133193135261536e-03
-8.254971355199813843e-02
-1.774692162871360779e-02
5.534214153885841370e-02
1.284793671220541000e-02
-8.909064345061779022e-03
-1.613648235797882080e-01
2.320614457130432129e-02
2.510591177269816399e-03
-6.218097638338804245e-03
4.517419729381799698e-03
-7.460433244705200195e-02
-4.016169533133506775e-02
-4.291113838553428650e-02
3.593120723962783813e-02
-4.914136230945587158e-02
-7.310575246810913086e-02
2.485003881156444550e-02
-2.874532900750637054e-02
-6.490307301282882690e-02
1.891162618994712830e-02
-3.565770387649536133e-02
2.525336109101772308e-02
-5.316471680998802185e-03
-4.207940399646759033e-02
-3.011948801577091217e-02
4.821405559778213501e-02
5.912511143833398819e-03
3.777766227722167969e-02
-3.100034967064857483e-02
-3.802845953032374382e-03
4.337289556860923767e-02
-2.621130645275115967e-02
-2.644804120063781738e-02
-7.769401371479034424e-02
3.057388216257095337e-02
-4.007741063833236694e-02
3.202980617061257362e-03
4.179300367832183838e-02
-1.002273708581924438e-01
-7.762336637824773788e-03
3.485721722245216370e-02
-5.595543980598449707e-02
-7.904554903507232666e-02
-1.379202865064144135e-02
5.186750087887048721e-03
-3.358808159828186035e-02
-1.683887280523777008e-02
3.592202067375183105e-02
2.289155498147010803e-02
5.102461948990821838e-02
-9.847326576709747314e-02
-9.016231633722782135e-03
-6.648939847946166992e-02
-8.008813112974166870e-02
2.027614228427410126e-02
-3.051711618900299072e-02
-4.790912568569183350e-02
2.732284553349018097e-02
-3.738320665434002876e-03
-6.183242425322532654e-02
-1.493060737848281860e-01
4.063863307237625122e-02
-3.722109645605087280e-02
1.998969539999961853e-02
-6.438166648149490356e-02
3.880531713366508484e-02
1.575146801769733429e-02
-8.106840774416923523e-03
1.343725714832544327e-02
-3.146853297948837280e-02
-5.392326042056083679e-02
-3.194064600393176079e-03
6.274783983826637268e-03
-1.115786731243133545e-01
-4.050329700112342834e-02
-6.232377514243125916e-02
-4.290234670042991638e-02
-1.350777596235275269e-02
-3.175374493002891541e-02
4.266389086842536926e-02
3.237602487206459045e-02
-9.974320419132709503e-03
-5.983486026525497437e-02
-5.482592433691024780e-02
8.522708900272846222e-03
-8.500030636787414551e-02
1.787848211824893951e-02
-5.504178255796432495e-02
7.789001613855361938e-02
-2.732976339757442474e-02
5.901642516255378723e-02
-2.576287463307380676e-02
-9.319164790213108063e-03
2.280521579086780548e-02
-2.883249521255493164e-02
-5.232419446110725403e-02
-5.018926411867141724e-02
-4.699356853961944580e-02
1.199277117848396301e-03
-1.213067304342985153e-02
3.556086495518684387e-02
3.019231744110584259e-02
-2.130606211721897125e-02
-8.684781379997730255e-03
-4.020532220602035522e-02
2.284911461174488068e-02
9.653682261705398560e-02
-5.827921559102833271e-04
-5.977728217840194702e-02
1.225012633949518204e-02
-1.152244359254837036e-01
-3.269352763891220093e-02
1.743236742913722992e-02
3.981292247772216797e-02
-6.577023863792419434e-02
-1.861577504314482212e-03
-4.809909686446189880e-02
-6.564508378505706787e-02
-2.775553986430168152e-02
-4.258966818451881409e-02
-4.936676099896430969e-02
3.518427954986691475e-03
1.984963193535804749e-02
-5.452665314078330994e-02
-3.769846260547637939e-02
-1.528864447027444839e-02
2.032029815018177032e-02
-1.330800261348485947e-02
-4.145619645714759827e-02
-1.023009605705738068e-02
2.729954943060874939e-02
6.901354528963565826e-03
1.268426887691020966e-02
-2.860516682267189026e-02
-4.434622451663017273e-02
-1.353329326957464218e-02
-6.489200890064239502e-02
-1.694943383336067200e-02
-6.250933557748794556e-02
-3.576741786673665047e-03
-4.105596244335174561e-02
-1.205124557018280029e-01
3.771381080150604248e-02
-3.839680925011634827e-02
-1.245050132274627686e-02
-7.363032549619674683e-03
-5.432735383510589600e-02
5.073673091828823090e-03
-1.703102514147758484e-02
-2.999446168541908264e-02
3.782174736261367798e-02
3.182522207498550415e-02
-3.661951422691345215e-02
-4.420468583703041077e-02
2.403522282838821411e-02
-9.691555984318256378e-03
-1.124240756034851074e-01
1.644733827561140060e-03
6.278420984745025635e-02
-9.630632400512695312e-02
-3.593044355511665344e-02
1.935593783855438232e-02
-3.171359002590179443e-02
-4.194793850183486938e-02
-1.004367396235466003e-01
2.176431752741336823e-02
4.609635099768638611e-02
-2.468784339725971222e-02
2.626553736627101898e-02
3.176617994904518127e-02
-1.759030297398567200e-02
-8.704577386379241943e-02
1.414544042199850082e-02
1.976028271019458771e-02
-3.284349665045738220e-02
1.244976744055747986e-02
-2.977999113500118256e-02
2.288674563169479370e-02
2.338432148098945618e-02
-2.022448368370532990e-02
-2.083935774862766266e-02
-6.683473289012908936e-02
-2.459971234202384949e-02
1.246672589331865311e-02
-5.898675695061683655e-02
-1.352951303124427795e-02
-4.886129125952720642e-02
-3.362749516963958740e-02
-8.262757211923599243e-02
8.640518411993980408e-03
-4.788961261510848999e-02
-2.155317738652229309e-02
-3.767301142215728760e-02
-5.959089845418930054e-02
4.324134439229965210e-02
-3.146391129121184349e-03
-5.710715055465698242e-02
4.240531474351882935e-02
2.211131528019905090e-02
-5.278718657791614532e-03
2.716560475528240204e-02
-2.334542386233806610e-02
1.338311936706304550e-02
9.074574708938598633e-02
3.866572305560112000e-02
1.190187316387891769e-02
-1.783871836960315704e-02
-1.418678369373083115e-02
1.396794524043798447e-02
6.687475368380546570e-03
2.433378249406814575e-02
-5.372807011008262634e-02
-6.532547995448112488e-03
-4.145348444581031799e-02
-2.471503103151917458e-03
-7.206761837005615234e-02
6.788962334394454956e-02
-7.963426411151885986e-02
-1.426914427429437637e-02
2.373962290585041046e-02
-8.894996345043182373e-02
-5.554200336337089539e-02
1.399983186274766922e-03
-1.450504641979932785e-02
1.905627362430095673e-02
1.174860447645187378e-02
-5.247653275728225708e-02
-3.926673159003257751e-02
-6.022738758474588394e-03
3.409690409898757935e-02
-2.853521332144737244e-02
-5.882323533296585083e-02
2.248286642134189606e-02
2.098311483860015869e-02
5.259294807910919189e-02
7.649720180779695511e-03
-1.202208176255226135e-02
-9.941579401493072510e-02
4.445599392056465149e-02
1.304129837080836296e-03
-4.618078470230102539e-02
-9.482955187559127808e-02
8.034378290176391602e-03
-5.628089979290962219e-02
-6.045814603567123413e-02
4.284919239580631256e-03
-2.564950147643685341e-03
-4.238191992044448853e-02
5.897586420178413391e-02
-1.093933638185262680e-02
3.378579020500183105e-02
-9.601537138223648071e-03
-4.600392654538154602e-02
2.921901410445570946e-03
5.639896169304847717e-02
-2.536049485206604004e-02
-1.784816198050975800e-02
-3.323464468121528625e-02
-7.772489637136459351e-02
6.605175789445638657e-03
-4.976119846105575562e-03
-3.811832889914512634e-02
2.978936582803726196e-02
3.271354595199227333e-03
3.110101819038391113e-02
-3.923312574625015259e-02
-4.257118795067071915e-03
-3.421097295358777046e-03
3.172132372856140137e-02
-2.672124095261096954e-02
-2.695977129042148590e-02
1.442392729222774506e-02
-8.745662868022918701e-03
-2.470582537353038788e-02
-7.660368923097848892e-03
-1.406390592455863953e-02
2.031526714563369751e-02
3.577129542827606201e-02
-9.854103438556194305e-03
3.638106398284435272e-03
-7.447477895766496658e-03
2.362164482474327087e-02
-2.869840711355209351e-03
3.031733818352222443e-02
6.633256375789642334e-02
-7.001426815986633301e-02
3.151667118072509766e-02
8.161675184965133667e-02
4.549751430749893188e-02
5.429183319211006165e-02
-3.288012370467185974e-02
-7.335718721151351929e-02
2.964165247976779938e-02
2.275514602661132812e-02
-8.451075293123722076e-03
9.157988242805004120e-03
-3.610334917902946472e-02
-2.310087718069553375e-02
1.363475341349840164e-03
4.043002426624298096e-02
6.611912511289119720e-03
-7.917825877666473389e-02
-2.393762581050395966e-02
5.312097258865833282e-03
3.369732573628425598e-02
-2.239750511944293976e-02
-1.317095942795276642e-02
-4.502573981881141663e-02
8.407565206289291382e-02
-3.951924666762351990e-02
6.407675147056579590e-02
-1.179061457514762878e-02
-1.429749373346567154e-02
-1.896495930850505829e-02
-3.490933403372764587e-02
6.019493594067171216e-05
-2.785962074995040894e-02
2.175455167889595032e-02
-2.947529964148998260e-02
-7.053533103317022324e-03
-7.826939225196838379e-02
-2.222404582425951958e-03
9.782485663890838623e-02
6.100984755903482437e-03
-1.507955323904752731e-02
1.046251505613327026e-02
-3.804375231266021729e-02
8.440650254487991333e-02
3.078060038387775421e-02
-6.780494749546051025e-02
-2.578129433095455170e-02
-2.805576659739017487e-02
3.322421386837959290e-02
-6.726055871695280075e-03
2.392260357737541199e-03
2.022885531187057495e-02
-6.700569763779640198e-03
-5.994516238570213318e-02
4.425117745995521545e-02
-4.781888425350189209e-02
2.816897444427013397e-02
1.721313595771789551e-02
-1.627575047314167023e-02
2.316739782691001892e-02
-2.845445647835731506e-02
4.709900170564651489e-02
5.105425417423248291e-02
2.488886564970016479e-02
-8.573438227176666260e-02
5.218063667416572571e-02
-2.788310497999191284e-02
-5.708431079983711243e-02
-6.448470801115036011e-02
1.246552355587482452e-02
-2.236477471888065338e-02
-4.269416257739067078e-02
-4.714407026767730713e-02
5.351740866899490356e-02
-3.893259167671203613e-02
4.328227136284112930e-03
5.156881362199783325e-02
1.378461811691522598e-02
6.174962501972913742e-03
-3.986439853906631470e-02
2.256700210273265839e-02
-4.126220196485519409e-02
-2.043546992354094982e-04
-3.897019475698471069e-02
-1.198562607169151306e-02
1.084504183381795883e-02
2.795626968145370483e-02
7.187065482139587402e-02
6.773245334625244141e-02
5.856592953205108643e-02
2.625688910484313965e-02
4.454506095498800278e-03
9.416718035936355591e-03
7.791157811880111694e-02
1.300338935106992722e-02
-4.686293378472328186e-02
9.717834182083606720e-04
-3.922844678163528442e-02
8.412095718085765839e-03
8.949383161962032318e-03
1.405915711075067520e-02
2.354543842375278473e-02
-3.376431763172149658e-02
-1.031106412410736084e-01
-5.774143338203430176e-02
-5.736446380615234375e-02
3.201472014188766479e-02
1.060399785637855530e-02
8.317480981349945068e-02
9.245581924915313721e-03
-8.551065693609416485e-04
-2.622575126588344574e-02
1.694671623408794403e-02
-4.069326911121606827e-03
3.224509209394454956e-02
-4.515118524432182312e-02
1.506990473717451096e-02
-1.895665377378463745e-02
-1.708879508078098297e-02
-1.126434840261936188e-02
4.511507228016853333e-02
-8.834143169224262238e-03
-1.522054616361856461e-02
5.811975896358489990e-02
4.613957554101943970e-02
-6.542433984577655792e-03
-1.978862471878528595e-02
1.796873658895492554e-02
-7.542974315583705902e-03
-1.046602129936218262e-01
1.503381878137588501e-03
-2.237202972173690796e-02
9.484285488724708557e-03
-1.631427207030355930e-03
2.229553461074829102e-02
-2.335077524185180664e-02
1.597217656672000885e-02
-4.769911617040634155e-02
2.388812042772769928e-02
-6.381317973136901855e-03
2.162791043519973755e-02
2.289658412337303162e-02
1.457413472235202789e-02
-6.273863837122917175e-03
9.601905010640621185e-03
-8.330983109772205353e-03
5.357354879379272461e-02
3.125899285078048706e-02
-1.180416643619537354e-01
-4.916663095355033875e-02
-4.198936745524406433e-02
5.305907130241394043e-02
-5.741988494992256165e-02
-1.754402182996273041e-02
4.190457984805107117e-02
1.020470354706048965e-02
-3.681242465972900391e-02
3.530123457312583923e-02
-2.625487744808197021e-02
-8.529089391231536865e-03
1.444069109857082367e-02
-2.890350297093391418e-02
4.779786989092826843e-02
3.236389160156250000e-02
-3.533896431326866150e-02
-3.659307491034269333e-03
-1.777287572622299194e-02
-4.659571126103401184e-02
5.623503029346466064e-02
-2.083886601030826569e-02
1.172498427331447601e-02
4.198527708649635315e-02
-5.576828494668006897e-02
4.764079675078392029e-02
6.441938877105712891e-02
2.643150463700294495e-02
-1.926862820982933044e-02
-3.423747792840003967e-02
1.206182502210140228e-02
-1.237237011082470417e-03
-2.194121712818741798e-03
7.600651122629642487e-03
9.854236990213394165e-02
-2.314612083137035370e-02
4.631599783897399902e-02
-1.287412829697132111e-02
-9.209822863340377808e-03
-7.259001024067401886e-03
-1.309370715171098709e-02
5.189370829612016678e-03
6.872550398111343384e-02
-1.575292833149433136e-02
-2.965961210429668427e-02
9.564252570271492004e-03
5.429049953818321228e-02
1.526004052720963955e-03
5.553454160690307617e-03
-3.016761131584644318e-02
2.266832254827022552e-02
-6.303227692842483521e-02
4.004419967532157898e-02
-5.619318038225173950e-02
1.135047757998108864e-03
1.644239388406276703e-02
2.327668294310569763e-02
6.193226203322410583e-02
-2.828305587172508240e-02
-1.888938993215560913e-02
-8.948033675551414490e-03
4.094795789569616318e-03
1.543061155825853348e-02
-2.451854757964611053e-02
3.073430061340332031e-02
7.406935840845108032e-02
7.411994785070419312e-02
1.015474647283554077e-02
-8.408243954181671143e-02
-5.722904950380325317e-02
-6.783637218177318573e-03
1.346622407436370850e-02
-1.610457524657249451e-02
2.681622747331857681e-03
3.204625798389315605e-03
-9.365697391331195831e-03
-2.554270811378955841e-02
-2.845911541953682899e-03
-3.246522694826126099e-02
1.726443180814385414e-03
9.405957534909248352e-03
5.339589715003967285e-02
2.919100597500801086e-02
-1.171062141656875610e-02
1.493161078542470932e-02
-2.057766541838645935e-03
2.166640013456344604e-02
-2.682635560631752014e-02
-9.520617872476577759e-02
3.997105360031127930e-02
-1.344450283795595169e-02
2.577248401939868927e-02
-3.675412759184837341e-02
-2.789282798767089844e-02
2.484516426920890808e-02
1.614545844495296478e-02
2.537426911294460297e-02
2.325572445988655090e-02
-1.534344907850027084e-02
2.317420206964015961e-02
5.960072204470634460e-02
7.964552938938140869e-02
-2.899168431758880615e-02
4.791831225156784058e-02
-2.228016965091228485e-02
2.300663851201534271e-03
2.296576043590903282e-03
2.839656919240951538e-02
1.972876954823732376e-03
-8.663128130137920380e-03
-2.768656238913536072e-02
-3.737391158938407898e-02
1.137224771082401276e-02
-2.583740279078483582e-02
4.170306399464607239e-02
-8.933736942708492279e-03
3.905349597334861755e-02
-1.047261524945497513e-02
3.808137774467468262e-02
-9.827342815697193146e-03
1.824079267680644989e-02
-6.014676019549369812e-02
1.679216139018535614e-02
4.777353256940841675e-02
-6.233463529497385025e-03
9.404282900504767895e-04
5.302995070815086365e-02
2.386023988947272301e-03
-1.916287839412689209e-02
-1.722768880426883698e-02
9.192534536123275757e-02
-6.217800825834274292e-02
5.138575285673141479e-02
5.300993844866752625e-02
3.698106482625007629e-02
1.995149999856948853e-03
-5.300777778029441833e-02
-1.461891923099756241e-02
-3.260206058621406555e-02
-5.329981446266174316e-02
-4.634397476911544800e-02
7.357629388570785522e-02
8.844216354191303253e-03
-5.230689886957406998e-03
-2.986714057624340057e-02
-5.402543768286705017e-02
7.980091869831085205e-02
-2.101777493953704834e-02
-1.455853343941271305e-03
7.695790380239486694e-03
-2.843594178557395935e-02
3.401707857847213745e-02
-3.432834893465042114e-02
-6.318915169686079025e-03
-1.782155013643205166e-03
-3.580722212791442871e-02
-9.069347754120826721e-03
1.159854140132665634e-02
8.667990565299987793e-02
1.908130012452602386e-02
-4.330785945057868958e-02
-1.351074036210775375e-02
-6.426899135112762451e-02
-1.323096454143524170e-03
-2.088174596428871155e-02
-1.846157759428024292e-02
6.053922697901725769e-03
4.558947868645191193e-03
-5.313562601804733276e-02
-4.108849167823791504e-02
1.969494856894016266e-02
4.975758865475654602e-02
-3.097336739301681519e-02
1.238887384533882141e-02
-9.273189306259155273e-02
-1.074588391929864883e-02
-3.413050621747970581e-02
-1.228374149650335312e-02
-5.447193980216979980e-02
2.182295080274343491e-03
