3.305711317807435989e-03
-8.102501183748245239e-02
-4.778006300330162048e-02
2.179623767733573914e-02
-5.579001270234584808e-03
1.887269318103790283e-04
2.977896668016910553e-02
-5.154842138290405273e-02
1.128533668816089630e-02
4.038345813751220703e-02
1.881894469261169434e-02
-2.564570168033242226e-03
2.409803681075572968e-02
-2.834147028625011444e-02
4.667483270168304443e-02
-4.004064574837684631e-02
5.793997645378112793e-02
-6.322172470390796661e-03
2.878590859472751617e-02
-2.183886617422103882e-02
1.209951378405094147e-02
7.705575320869684219e-03
-6.500115245580673218e-02
3.957331180572509766e-02
-1.290686801075935364e-02
4.507303610444068909e-02
-2.125488407909870148e-02
-3.237290307879447937e-02
-2.237850800156593323e-03
2.188086509704589844e-02
-3.548749163746833801e-02
3.461271896958351135e-02
1.300841290503740311e-02
3.084455244243144989e-02
-2.803174220025539398e-02
-8.263149857521057129e-02
-6.930289417505264282e-02
-3.429149463772773743e-02
9.060941636562347412e-03
2.314097993075847626e-02
-5.278110504150390625e-02
-2.395041100680828094e-02
2.419518306851387024e-03
-5.606449767947196960e-02
9.333276189863681793e-03
5.777395144104957581e-02
3.577020391821861267e-02
-3.669245168566703796e-02
-2.613014541566371918e-02
3.118515247479081154e-03
-1.698521152138710022e-02
-7.792536169290542603e-02
4.459057748317718506e-02
5.278696492314338684e-02
-6.534819304943084717e-02
4.147958010435104370e-02
-3.928752988576889038e-02
-6.862275302410125732e-02
-3.400299698114395142e-02
4.138276353478431702e-02
1.218119636178016663e-02
4.401035979390144348e-02
1.407849253155291080e-03
-6.618631631135940552e-02
-6.331327557563781738e-02
6.398389488458633423e-02
-6.951440125703811646e-02
-4.196619242429733276e-02
-9.164115414023399353e-03
-4.766427725553512573e-02
2.981756813824176788e-02
2.965732291340827942e-02
1.022080108523368835e-01
-1.851397007703781128e-02
-2.645280398428440094e-02
6.054709106683731079e-02
-6.242140382528305054e-02
6.939249485731124878e-02
-2.619748562574386597e-02
1.960176974534988403e-02
6.056772544980049133e-04
-5.138643085956573486e-02
-3.391219303011894226e-02
5.989342927932739258e-02
1.841068081557750702e-02
-4.070949181914329529e-02
-4.386380687355995178e-02
2.050683461129665375e-02
-7.116918265819549561e-02
4.193127155303955078e-02
4.599810391664505005e-02
-5.865757167339324951e-02
-4.183284565806388855e-02
-6.735645979642868042e-02
-5.083186551928520203e-02
3.693469241261482239e-02
-5.364930629730224609e-02
4.412018880248069763e-02
-9.844356775283813477e-02
-6.758715957403182983e-02
2.035884372889995575e-02
-2.517922408878803253e-02
-6.657150387763977051e-02
-3.709195880219340324e-03
4.775861650705337524e-02
-1.111075002700090408e-02
-2.511376701295375824e-02
-3.092647716403007507e-02
4.886590689420700073e-02
4.164176434278488159e-02
7.587072253227233887e-02
-3.954245185013860464e-04
-6.882461905479431152e-02
4.100441932678222656e-02
-2.792183682322502136e-02
3.401282429695129395e-02
-3.885208442807197571e-02
-1.048863865435123444e-02
5.307952314615249634e-02
-3.021289408206939697e-02
2.486503124237060547e-02
4.272325336933135986e-02
3.411515802145004272e-02
1.537590846419334412e-02
1.848096586763858795e-02
5.028251931071281433e-02
1.311280485242605209e-02
-1.405228674411773682e-02
