1.963649876415729523e-02
-5.855124071240425110e-02
5.596837960183620453e-03
-1.799230650067329407e-02
-4.835328552871942520e-03
-2.315069548785686493e-02
-5.828686989843845367e-03
5.236289580352604389e-04
-2.719051577150821686e-02
-1.087214425206184387e-01
-3.598149120807647705e-02
3.012214601039886475e-02
3.645030409097671509e-02
-2.194221504032611847e-02
-6.093845516443252563e-02
8.154924027621746063e-03
3.083634562790393829e-02
-1.357505470514297485e-02
9.259340353310108185e-03
1.729232608340680599e-03
1.271625328809022903e-02
-1.093380600214004517e-01
-1.726552727632224560e-03
-4.325803369283676147e-02
3.593598306179046631e-02
-2.994188852608203888e-02
-3.759776800870895386e-02
2.412512153387069702e-02
-4.634637758135795593e-02
-4.614437371492385864e-02
-5.585404112935066223e-02
-6.643538177013397217e-02
-2.215417101979255676e-02
-5.341754108667373657e-02
-7.427997887134552002e-02
-4.870810732245445251e-02
-1.869230531156063080e-02
-4.043813794851303101e-02
-4.633954912424087524e-02
-3.349294885993003845e-03
-2.617477066814899445e-02
-3.711435943841934204e-02
-6.419966369867324829e-02
-1.246494799852371216e-02
7.731530349701642990e-03
4.026660323143005371e-02
5.637262389063835144e-02
8.544857613742351532e-03
3.348806872963905334e-02
3.684255853295326233e-02
4.051169008016586304e-02
-2.942749485373497009e-02
5.503404885530471802e-03
3.738613799214363098e-02
-5.675858259201049805e-02
-8.402221836149692535e-03
-2.315971069037914276e-02
5.654745176434516907e-02
-5.234557390213012695e-02
2.443465031683444977e-02
2.850037999451160431e-02
-6.451187189668416977e-03
1.695972867310047150e-02
6.087648216634988785e-03
2.755191549658775330e-02
3.451241552829742432e-02
-5.177670344710350037e-02
-9.847749955952167511e-03
-2.998701110482215881e-02
-1.119557917118072510e-01
6.252097338438034058e-02
-8.579996414482593536e-03
-6.943601369857788086e-02
-1.552150771021842957e-02
9.947515279054641724e-02
4.590166732668876648e-02
4.658051207661628723e-02
-1.576684787869453430e-02
-4.073713719844818115e-02
-7.433072198182344437e-03
-3.308733459562063217e-03
-4.239440336823463440e-02
1.591702550649642944e-02
1.967100985348224640e-02
-5.275880172848701477e-02
7.048204541206359863e-03
5.278736352920532227e-02
-1.007908135652542114e-01
-3.120631165802478790e-02
-1.193314641714096069e-01
-5.538721568882465363e-03
-3.636991977691650391e-02
8.169172331690788269e-03
9.566888213157653809e-03
-3.957653790712356567e-02
-2.885601297020912170e-02
5.362372845411300659e-02
1.438909955322742462e-02
-2.177384123206138611e-02
-4.629545658826828003e-02
-7.490684092044830322e-02
-6.303544342517852783e-02
-1.470753997564315796e-01
-2.013418823480606079e-02
-4.202241078019142151e-02
-4.167823493480682373e-02
2.158782444894313812e-02
9.230526164174079895e-03
-1.078530102968215942e-01
-7.896468788385391235e-02
8.740702643990516663e-03
7.725341711193323135e-03
2.259159460663795471e-02
-1.529681235551834106e-01
-2.209499012678861618e-03
-4.599627573043107986e-03
1.431038044393062592e-02
-2.783987205475568771e-03
-4.567292984575033188e-03
-6.858059018850326538e-02
-3.200604394078254700e-02
-5.067592114210128784e-02
1.127347815781831741e-02
1.593687571585178375e-02
1.520153880119323730e-02
-2.115578390657901764e-02
-6.125568971037864685e-02
-7.488964498043060303e-02
-2.575661800801753998e-02
1.770428754389286041e-02
2.971571683883666992e-02
-6.709405034780502319e-02
-3.381230309605598450e-02
-4.594234284013509750e-03
4.785582795739173889e-02
5.521398410201072693e-02
-3.477293998003005981e-02
-3.180417232215404510e-03
2.158547006547451019e-02
1.445318199694156647e-02
4.197456315159797668e-02
4.336076602339744568e-02
3.340069949626922607e-02
-4.455071315169334412e-02
6.504460703581571579e-03
-9.959604591131210327e-02
-3.798578307032585144e-02
4.975994676351547241e-02
-4.996261373162269592e-02
-1.365720108151435852e-02
-7.933808118104934692e-02
-3.630792954936623573e-03
1.234396174550056458e-02
1.460754033178091049e-02
-5.072307959198951721e-02
-3.906708443537354469e-04
-7.301794737577438354e-02
-1.532688550651073456e-02
4.948500916361808777e-02
-2.755156485363841057e-03
-1.194628048688173294e-02
-2.957091480493545532e-02
2.000233903527259827e-02
-4.237053915858268738e-02
4.608593136072158813e-02
-2.641282416880130768e-02
-1.671895198523998260e-02
-1.541963685303926468e-02
4.204209148883819580e-02
9.733200073242187500e-03
-4.278678819537162781e-02
-4.848472774028778076e-02
1.822039298713207245e-02
-6.940898299217224121e-02
-1.170006170868873596e-01
7.970887236297130585e-03
-1.040961476974189281e-03
-3.234223229810595512e-03
2.463707886636257172e-02
3.124512359499931335e-02
-2.059175632894039154e-03
-3.794943913817405701e-02
-3.731765225529670715e-02
1.028688251972198486e-02
-1.465879194438457489e-02
2.782858535647392273e-02
-1.025873720645904541e-01
-5.261379759758710861e-03
1.487661153078079224e-02
5.212821066379547119e-02
-2.973867952823638916e-02
-3.604090213775634766e-02
4.059858992695808411e-02
1.343982946127653122e-02
-1.425516325980424881e-02
-8.351844549179077148e-02
2.623181324452161789e-03
-9.977060370147228241e-03
4.238604009151458740e-02
-7.063468918204307556e-03
-4.368123132735490799e-03
1.551536470651626587e-02
3.260867670178413391e-02
-4.485185071825981140e-02
2.083766646683216095e-02
2.698366157710552216e-02
-2.819364145398139954e-02
-4.936749860644340515e-02
5.262431688606739044e-03
-8.412669599056243896e-02
3.748593153432011604e-03
5.599406082183122635e-03
-1.151542663574218750e-01
5.138880759477615356e-02
-1.319741830229759216e-02
-5.091121792793273926e-02
3.072626423090696335e-03
2.918469719588756561e-02
-5.788517370820045471e-02
-1.052055880427360535e-02
-1.746938750147819519e-02
2.029905281960964203e-02
1.993542769923806190e-03
-8.171098679304122925e-02
-5.916142836213111877e-02
-4.310247302055358887e-02
-6.089235469698905945e-02
4.289702326059341431e-02
-2.154863066971302032e-02
-1.841100677847862244e-02
-2.021771855652332306e-02
4.349619895219802856e-02
-5.991306900978088379e-02
-5.456821247935295105e-02
-3.028453513979911804e-02
3.875557333230972290e-02
6.020763423293828964e-03
2.316719293594360352e-02
-2.051423676311969757e-02
-2.055369690060615540e-02
2.734600566327571869e-02
-1.145235169678926468e-02
-2.069483697414398193e-02
1.411789003759622574e-02
-7.294329255819320679e-02
-3.643850982189178467e-02
1.725383847951889038e-02
1.130452146753668785e-03
-9.274959564208984375e-03
5.531707312911748886e-03
-6.417795270681381226e-02
-9.827190637588500977e-02
-3.920458257198333740e-02
-6.550712138414382935e-02
2.275321818888187408e-02
1.345083769410848618e-02
