-1.044777408242225647e-02
3.542761504650115967e-02
-4.853207245469093323e-02
3.033188544213771820e-02
-8.889126591384410858e-03
-6.533556431531906128e-02
-1.307898201048374176e-02
-1.431505382061004639e-02
3.124870359897613525e-02
4.488676786422729492e-02
8.279354870319366455e-02
5.717978626489639282e-02
-6.351468712091445923e-02
4.851903766393661499e-02
1.110980063676834106e-01
3.235909156501293182e-03
3.823218122124671936e-02
-1.303892303258180618e-02
2.505248226225376129e-02
4.159348085522651672e-02
9.688024967908859253e-02
-1.073920074850320816e-02
-9.737954288721084595e-02
1.457539387047290802e-02
8.905071765184402466e-02
7.403566967695951462e-03
-5.870906636118888855e-02
5.427521187812089920e-03
-2.190451696515083313e-02
-1.319459825754165649e-02
-5.549586936831474304e-02
3.823208808898925781e-02
-5.686568841338157654e-02
2.699721604585647583e-03
2.308294735848903656e-02
3.890555724501609802e-02
-4.950487613677978516e-02
7.691905647516250610e-02
-2.065046504139900208e-02
-1.450068131089210510e-02
-1.167773269116878510e-02
-5.863252282142639160e-02
4.090655967593193054e-02
8.386352099478244781e-03
-1.118499133735895157e-02
5.923606082797050476e-02
5.172356590628623962e-02
1.338452659547328949e-02
6.149006634950637817e-02
4.783223196864128113e-02
-4.214412719011306763e-02
6.432883441448211670e-02
9.034936875104904175e-02
-5.591119639575481415e-03
-4.693755134940147400e-02
-1.344642229378223419e-02
-5.814499687403440475e-03
9.587546810507774353e-03
5.323895066976547241e-02
2.974758669734001160e-02
2.507350593805313110e-02
-2.611879818141460419e-02
-5.705574876628816128e-04
-3.325464203953742981e-02
2.739088237285614014e-02
-6.202467717230319977e-03
1.832893304526805878e-02
-2.262073196470737457e-02
6.814307719469070435e-02
2.438451349735260010e-02
5.903622508049011230e-02
9.749941527843475342e-02
1.144795026630163193e-02
4.813016206026077271e-02
3.594442084431648254e-02
-2.747923322021961212e-02
3.564095497131347656e-02
-9.863522835075855255e-03
8.988533169031143188e-02
-4.981594160199165344e-02
-8.093637973070144653e-02
2.006520703434944153e-02
-4.137178882956504822e-02
8.377475664019584656e-03
2.441214397549629211e-02
5.227816477417945862e-02
-1.763327978551387787e-02
-1.320295222103595734e-02
9.679327905178070068e-02
1.456935703754425049e-01
3.886352106928825378e-02
5.656357854604721069e-02
-3.430435061454772949e-02
8.221476338803768158e-03
5.866011232137680054e-02
2.427993342280387878e-03
1.384742371737957001e-02
3.206835687160491943e-02
-9.840121492743492126e-03
5.982166156172752380e-02
-4.348971322178840637e-02
9.353950619697570801e-03
7.850111462175846100e-03
-7.922720978967845440e-04
-4.058413952589035034e-02
-6.646163761615753174e-03
-5.540315061807632446e-03
-3.979134559631347656e-02
4.673111718147993088e-03
9.862770140171051025e-02
-4.542895033955574036e-02
2.643432095646858215e-02
-7.594822347164154053e-02
-9.796859696507453918e-03
-3.880308195948600769e-02
2.979935146868228912e-02
-9.901542216539382935e-02
-4.998270049691200256e-02
5.316350236535072327e-02
2.498554810881614685e-02
3.405062109231948853e-02
-1.117924228310585022e-02
4.235415533185005188e-02
4.650007560849189758e-02
4.314385727047920227e-02
-2.909476682543754578e-02
2.466136403381824493e-02
-3.850895166397094727e-02
