-5.626813694834709167e-02
-3.336531668901443481e-02
1.456703525036573410e-02
-9.500557556748390198e-03
-3.802876546978950500e-02
-6.410703808069229126e-02
3.677747398614883423e-02
6.913925521075725555e-03
6.022454053163528442e-02
-2.614785544574260712e-02
-1.247035488486289978e-01
7.967787981033325195e-02
3.121959418058395386e-02
-1.316982060670852661e-01
-1.353767365217208862e-01
-7.694505900144577026e-02
8.395665138959884644e-02
-3.666855767369270325e-02
3.728966787457466125e-02
-2.839803509414196014e-02
9.439651854336261749e-03
-1.089583057910203934e-02
-1.109474338591098785e-02
2.624815516173839569e-02
3.864395618438720703e-02
6.142484024167060852e-02
-1.619180291891098022e-01
2.336761355400085449e-02
-9.049735963344573975e-02
3.400504216551780701e-02
-8.211228996515274048e-02
-9.570059180259704590e-02
-3.912083804607391357e-02
5.552646517753601074e-02
-7.527223974466323853e-02
-4.470479488372802734e-02
-1.295505091547966003e-02
1.246363855898380280e-02
3.475923324003815651e-03
-3.409372642636299133e-02
-7.033091783523559570e-02
1.594915613532066345e-02
-1.211194321513175964e-01
3.273409977555274963e-02
1.265489030629396439e-02
2.643722295761108398e-02
-2.286670356988906860e-02
-6.495254486799240112e-02
-6.645357608795166016e-02
1.597181707620620728e-01
-2.464870736002922058e-02
6.851294636726379395e-02
-5.150333419442176819e-02
7.770124822854995728e-03
1.096590310335159302e-01
-5.884193256497383118e-02
-3.330267220735549927e-02
-1.503324974328279495e-02
-6.266830861568450928e-02
4.405700787901878357e-02
-1.798417977988719940e-02
8.097527921199798584e-02
2.263621427118778229e-03
8.770383149385452271e-02
1.030563712120056152e-01
6.264608353376388550e-02
-1.720907092094421387e-01
-7.019631564617156982e-02
-2.245363593101501465e-02
-4.043431952595710754e-02
5.136832222342491150e-02
-2.744968747720122337e-03
1.494089812040328979e-01
-8.720371127128601074e-02
9.516840428113937378e-02
1.305460333824157715e-01
7.144068926572799683e-02
-3.262742236256599426e-02
6.126410141587257385e-02
4.553378000855445862e-02
-1.878071390092372894e-02
8.530630916357040405e-02
4.911696910858154297e-02
-3.855489566922187805e-02
-3.957089409232139587e-02
8.398314565420150757e-02
-3.260906040668487549e-02
-3.083504550158977509e-02
6.799677014350891113e-02
9.380602277815341949e-03
9.269984811544418335e-02
-2.111537382006645203e-02
-1.675332151353359222e-02
8.185939490795135498e-02
-7.068702951073646545e-03
3.941568732261657715e-02
8.620616793632507324e-02
-3.193597513018175960e-05
3.628769516944885254e-02
-1.093630641698837280e-01
5.384542513638734818e-03
6.862217187881469727e-02
-3.646964579820632935e-02
-7.262200862169265747e-02
-1.137984395027160645e-01
-2.397243119776248932e-02
4.657116904854774475e-02
-4.808755964040756226e-02
-1.113907918334007263e-01
-3.969822451472282410e-02
-4.539058357477188110e-02
-3.198449313640594482e-02
2.908094972372055054e-02
-1.507286727428436279e-01
-6.514951586723327637e-02
4.254945367574691772e-02
2.288915216922760010e-02
9.302487224340438843e-02
-3.507378976792097092e-03
9.349770843982696533e-03
9.314958006143569946e-02
7.457176595926284790e-02
-8.180527016520500183e-03
-4.665367677807807922e-02
-3.424510359764099121e-02
7.931251823902130127e-02
1.293787807226181030e-01
-1.437302976846694946e-01
-3.429185599088668823e-02
1.069467607885599136e-02
3.887832909822463989e-02
3.134920075535774231e-02
2.100326269865036011e-01
2.876047044992446899e-02
8.517220616340637207e-02
-6.638003513216972351e-03
-1.438094079494476318e-01
1.293742358684539795e-01
3.988732583820819855e-03
9.180344641208648682e-02
-4.921731352806091309e-02
5.117769353091716766e-03
-3.899421170353889465e-02
3.357383608818054199e-02
6.983937323093414307e-02
-8.321318030357360840e-02
1.216855496168136597e-01
8.439625799655914307e-02
6.064548715949058533e-02
1.110205240547657013e-02
1.056588962674140930e-01
1.201112195849418640e-01
-7.714664936065673828e-02
5.087005719542503357e-02
-6.789207458496093750e-02
1.225905790925025940e-01
-1.346424669027328491e-01
1.173216551542282104e-01
1.263014674186706543e-01
1.862915605306625366e-01
-4.383108392357826233e-02
-1.212572399526834488e-02
5.748133175075054169e-03
-5.374591797590255737e-02
7.592680305242538452e-02
8.355397731065750122e-02
6.136810034513473511e-02
-6.192955374717712402e-02
7.257989142090082169e-03
5.312005989253520966e-03
3.198843821883201599e-02
6.883935630321502686e-02
9.295790642499923706e-02
8.332710713148117065e-02
-2.477894164621829987e-02
6.618888676166534424e-02
-1.993825286626815796e-02
-7.802253123372793198e-03
-1.376903522759675980e-02
1.418988704681396484e-01
3.898711875081062317e-02
6.754948757588863373e-03
1.036766394972801208e-01
6.231025978922843933e-02
-4.634015634655952454e-02
1.473342161625623703e-02
-2.436148077249526978e-01
9.719589352607727051e-02
-1.711753080599009991e-03
-8.657634258270263672e-03
9.696015715599060059e-02
1.888649724423885345e-02
-7.160251028835773468e-03
-1.313000265508890152e-02
1.961663551628589630e-02
-5.419795960187911987e-02
-4.481028020381927490e-02
1.647968217730522156e-02
9.887772798538208008e-02
-5.412088357843458652e-04
-4.821646213531494141e-02
2.974605746567249298e-02
7.990659214556217194e-03
-8.164180815219879150e-02
-5.467293784022331238e-02
7.405098527669906616e-02
5.169685184955596924e-02
5.434591788798570633e-03
5.898932367563247681e-02
-5.926825478672981262e-02
-4.854629933834075928e-02
-7.662042230367660522e-02
3.218453377485275269e-02
1.135367751121520996e-01
-3.766189096495509148e-03
9.099067747592926025e-02
-2.047322876751422882e-02
-9.884169697761535645e-02
-6.426450330764055252e-03
3.445914387702941895e-02
3.621750324964523315e-02
2.700448036193847656e-02
-5.364852398633956909e-02
-1.060255318880081177e-01
3.625179082155227661e-02
7.148890942335128784e-02
-4.622471705079078674e-02
-2.814581431448459625e-02
4.146026447415351868e-02
-1.671964079141616821e-01
3.106907010078430176e-02
-3.213379066437482834e-03
-3.792147710919380188e-02
-4.749390110373497009e-02
1.000210419297218323e-01
-5.002346821129322052e-03
4.743184894323348999e-02
4.025617241859436035e-02
-1.684011667966842651e-01
1.319749802350997925e-01
-3.300105407834053040e-02
-2.663687244057655334e-02
1.104018762707710266e-01
-1.339719444513320923e-02
-1.201798915863037109e-01
-8.884815126657485962e-02
-7.833096385002136230e-02
6.923907250165939331e-02
9.944538772106170654e-02
-4.953416436910629272e-02
-1.563720777630805969e-02
5.105106905102729797e-02
7.447950541973114014e-02
7.230070233345031738e-02
-8.746387064456939697e-02
7.099729031324386597e-02
1.233740709722042084e-02
-1.079002544283866882e-01
-4.367623105645179749e-02
4.027798771858215332e-03
-2.034341171383857727e-02
1.329792886972427368e-01
4.211499541997909546e-02
7.078421115875244141e-02
3.105147927999496460e-02
6.458789110183715820e-03
3.873499110341072083e-02
-1.095543503761291504e-01
-3.729460295289754868e-03
4.497905261814594269e-03
9.768157452344894409e-02
-7.610786706209182739e-04
-8.851478993892669678e-02
2.730267867445945740e-02
-3.121120855212211609e-02
9.294094145298004150e-02
8.794899284839630127e-02
1.171329617500305176e-01
-4.422968998551368713e-02
-3.379512950778007507e-02
-5.851919203996658325e-02
8.603172004222869873e-02
2.632078900933265686e-02
-8.481142669916152954e-02
4.705261439085006714e-02
7.833602279424667358e-02
1.416587680578231812e-01
4.559647664427757263e-02
1.870190165936946869e-02
8.655042946338653564e-02
-1.616080291569232941e-02
2.857475355267524719e-02
1.782531850039958954e-02
-7.933236658573150635e-02
3.653483465313911438e-02
-4.049021750688552856e-02
5.102662742137908936e-02
1.035515684634447098e-02
8.022157847881317139e-02
-6.028795987367630005e-02
6.409464776515960693e-02
-3.338290378451347351e-02
-8.938149362802505493e-02
-1.425220966339111328e-01
-1.228966563940048218e-01
-3.230680245906114578e-03
1.094882562756538391e-02
1.620455645024776459e-02
2.744100615382194519e-02
-2.754158340394496918e-02
-2.682896330952644348e-02
5.072753131389617920e-02
3.977888077497482300e-02
2.471173368394374847e-02
1.184337679296731949e-02
6.569774448871612549e-02
-9.913390874862670898e-02
-5.309278890490531921e-02
-5.428994819521903992e-02
1.383843868970870972e-01
-2.054205536842346191e-02
-3.308425098657608032e-02
-2.113895118236541748e-02
7.321915030479431152e-02
6.592018995434045792e-03
8.238654583692550659e-02
-1.111379936337471008e-01
9.933014959096908569e-02
3.679012134671211243e-02
3.198486566543579102e-02
-5.152475833892822266e-02
-8.831480145454406738e-02
1.037792414426803589e-01
4.966181144118309021e-02
-2.281979769468307495e-01
2.417071955278515816e-03
3.976240381598472595e-02
-3.143025562167167664e-02
1.069292705506086349e-02
1.668114587664604187e-02
7.289011031389236450e-02
3.226973861455917358e-02
-9.649989195168018341e-03
-9.803864173591136932e-03
-1.320472508668899536e-01
1.588222086429595947e-01
1.572201400995254517e-02
2.950651012361049652e-02
-6.249808147549629211e-02
4.214324429631233215e-02
1.358992792665958405e-02
6.608781218528747559e-02
1.221516951918601990e-01
-1.769613474607467651e-02
6.759396940469741821e-02
-2.352334558963775635e-02
8.296353369951248169e-02
-1.420789677649736404e-02
6.035719811916351318e-02
7.998581975698471069e-03
7.528801262378692627e-02
6.972005963325500488e-02
-4.403128102421760559e-02
-5.445292219519615173e-03
-2.681124396622180939e-02
1.284182965755462646e-01
2.272917702794075012e-02
-1.538101956248283386e-02
-1.984705217182636261e-02
-1.150366812944412231e-01
-1.812676899135112762e-02
9.775866568088531494e-02
6.390172988176345825e-02
-1.692360034212470055e-03
-2.043897286057472229e-02
-5.367785692214965820e-02
-3.434661030769348145e-02
3.098890185356140137e-02
-8.174978941679000854e-02
7.646571844816207886e-02
-4.807753488421440125e-02
1.120925135910511017e-02
1.018803194165229797e-01
-3.405329585075378418e-02
-2.873464487493038177e-02
4.131100326776504517e-02
1.116296350955963135e-01
2.742744795978069305e-02
5.277713388204574585e-02
6.258143484592437744e-02
3.003818914294242859e-02
1.213873103260993958e-01
-4.113167524337768555e-02
-4.786052741110324860e-03
1.336355507373809814e-02
-6.247840076684951782e-02
-3.800879418849945068e-02
-8.070714026689529419e-02
3.813927527517080307e-03
-4.231348261237144470e-02
-5.997280403971672058e-02
-4.264899343252182007e-02
4.881497099995613098e-02
-1.224013864994049072e-01
1.590910367667675018e-02
3.610806912183761597e-02
-8.775420486927032471e-02
-2.831461466848850250e-02
9.228737093508243561e-03
-1.542501747608184814e-01
6.175728514790534973e-02
5.540671199560165405e-02
5.988233536481857300e-02
9.058347344398498535e-02
1.223469525575637817e-02
3.846360743045806885e-02
-5.074140056967735291e-02
-4.117460548877716064e-02
-1.006986349821090698e-01
4.547158628702163696e-02
-2.270365506410598755e-02
-3.476829035207629204e-03
1.877393424510955811e-01
-9.811916388571262360e-03
1.850627921521663666e-02
1.979565061628818512e-02
9.727889299392700195e-02
1.055581420660018921e-01
1.660192310810089111e-01
-8.395691215991973877e-02
1.169643849134445190e-01
-1.484687328338623047e-01
1.847543567419052124e-02
6.010970845818519592e-02
8.463771641254425049e-02
-5.649339780211448669e-02
-4.228033125400543213e-02
-2.703620865941047668e-02
3.312539681792259216e-02
2.038853019475936890e-01
-2.950583770871162415e-02
6.900661159306764603e-03
-5.502188578248023987e-02
1.149428170174360275e-02
7.675784826278686523e-02
-9.509260952472686768e-02
1.838632859289646149e-02
8.703462034463882446e-02
-4.385663196444511414e-03
-1.857422292232513428e-02
1.616001463844440877e-05
6.983140110969543457e-02
2.084933966398239136e-01
-5.022712796926498413e-02
6.845342367887496948e-02
3.974887542426586151e-03
3.556596487760543823e-02
-1.942231357097625732e-01
1.418009400367736816e-02
5.306318774819374084e-02
4.335978999733924866e-02
-3.967466205358505249e-02
6.172442436218261719e-02
4.855215549468994141e-02
-1.222991049289703369e-01
5.968714132905006409e-02
1.058292090892791748e-01
1.739320531487464905e-02
2.743750251829624176e-02
2.175196632742881775e-02
5.575579404830932617e-02
-4.750176891684532166e-02
1.133376508951187134e-01
1.991515746340155602e-03
4.699709266424179077e-02
-9.086233377456665039e-02
1.135167703032493591e-01
1.329638510942459106e-01
1.227039396762847900e-01
-1.911093667149543762e-02
7.404406368732452393e-02
-5.184677615761756897e-02
1.470941901206970215e-01
-3.608365077525377274e-03
3.005099669098854065e-02
-1.455767452716827393e-01
-2.161368727684020996e-02
-5.007587000727653503e-02
-2.665315382182598114e-02
9.987746179103851318e-02
-1.586933806538581848e-02
-2.527783624827861786e-02
2.619548235088586807e-03
-6.687086820602416992e-02
1.148745566606521606e-01
-2.941643586382269859e-03
-3.033631294965744019e-02
-2.948218258097767830e-03
-1.375038176774978638e-02
5.667406320571899414e-02
1.505785249173641205e-02
7.507696747779846191e-02
1.505487039685249329e-02
-3.881662338972091675e-02
-3.633997589349746704e-02
-2.200794965028762817e-02
5.440415814518928528e-02
7.421146333217620850e-02
-1.840507797896862030e-02
8.753119409084320068e-02
6.960151344537734985e-02
-4.213330894708633423e-02
-5.926299840211868286e-02
5.075847730040550232e-02
-8.478064835071563721e-02
6.271110475063323975e-02
6.455967575311660767e-02
1.203544810414314270e-02
8.246716856956481934e-02
-1.457086764276027679e-02
5.582419037818908691e-02
3.281182376667857170e-03
-7.876769453287124634e-02
9.480879455804824829e-02
-9.403735399246215820e-03
-7.372198253870010376e-02
2.588464878499507904e-02
-3.180306032299995422e-02
1.984173804521560669e-02
3.102164156734943390e-02
3.829724341630935669e-02
-5.885178968310356140e-02
-6.867025792598724365e-02
-2.602030895650386810e-02
-4.318849742412567139e-02
-2.316596172749996185e-02
7.281018793582916260e-02
-1.029512137174606323e-01
8.679624646902084351e-03
-9.068750776350498199e-03
-2.093076333403587341e-02
5.969920381903648376e-02
2.228902466595172882e-02
3.234786912798881531e-02
-2.242436865344643593e-03
8.354084938764572144e-02
-5.554291885346174240e-03
2.032092772424221039e-03
-2.301613800227642059e-02
-1.639456674456596375e-02
-8.680047094821929932e-02
1.898042298853397369e-02
-7.293121516704559326e-02
2.345769852399826050e-02
-2.344074100255966187e-02
3.833025321364402771e-02
-6.758857518434524536e-02
1.122954883612692356e-03
1.752167445374652743e-04
3.533201664686203003e-02
-1.207657530903816223e-01
-2.739716880023479462e-02
-4.394867271184921265e-02
4.063223674893379211e-02
8.201605826616287231e-02
-7.190062850713729858e-02
6.243956089019775391e-02
-6.070462614297866821e-02
-6.036986131221055984e-03
3.657720983028411865e-02
-7.340358197689056396e-02
-1.362486276775598526e-02
7.399986032396554947e-03
-7.062890380620956421e-02
7.684760540723800659e-02
2.673061192035675049e-02
-4.260367527604103088e-02
3.842902183532714844e-02
-6.065123155713081360e-02
-7.212577015161514282e-02
-2.100803144276142120e-02
1.102922707796096802e-01
-5.867453292012214661e-03
-8.394101262092590332e-02
9.696217626333236694e-02
-1.032934989780187607e-02
5.165825039148330688e-02
1.318296883255243301e-02
4.187454469501972198e-03
-5.595346912741661072e-02
-8.098760247230529785e-02
-4.449734464287757874e-03
-6.871825316920876503e-04
-3.828727453947067261e-02
7.082379423081874847e-03
5.070251971483230591e-02
1.138028036803007126e-02
7.205285876989364624e-02
-8.318302035331726074e-02
-1.252762675285339355e-01
6.950042396783828735e-02
8.215458132326602936e-03
-3.484932333230972290e-02
-1.229060348123311996e-02
-1.872902037575840950e-03
-3.505704225972294807e-04
6.312080472707748413e-02
-6.777681410312652588e-02
-6.938150525093078613e-02
1.532626524567604065e-02
-1.407112926244735718e-02
8.424021303653717041e-02
4.588627070188522339e-02
7.478066533803939819e-02
2.370238304138183594e-03
-8.975270390510559082e-02
-5.384655669331550598e-04
9.018974751234054565e-02
-3.327554836869239807e-02
3.757713362574577332e-02
6.399375386536121368e-03
-3.589491918683052063e-02
-6.718073785305023193e-02
8.130361884832382202e-02
3.737363964319229126e-02
-7.532335072755813599e-02
-2.909620292484760284e-02
4.742733389139175415e-02
-6.516347825527191162e-02
-2.623735694214701653e-03
-1.807265914976596832e-02
-7.495008409023284912e-02
-7.573162019252777100e-02
-2.588754706084728241e-02
-5.282910540699958801e-02
-5.162082612514495850e-02
6.536538247019052505e-03
-4.173865914344787598e-02
-3.507264330983161926e-02
5.144951865077018738e-02
4.459759220480918884e-03
4.271357879042625427e-02
3.076851367950439453e-02
3.349703922867774963e-02
-2.354311197996139526e-02
-5.974562093615531921e-02
5.493234097957611084e-02
-6.442359089851379395e-02
-4.459328204393386841e-02
-2.891325391829013824e-02
-8.523806184530258179e-02
-1.294577401131391525e-02
-2.674276381731033325e-02
4.995494708418846130e-02
-4.844439681619405746e-03
-9.015801548957824707e-02
-5.709168035537004471e-03
-1.190897151827812195e-01
-4.034382756799459457e-03
-4.632015526294708252e-02
4.983847215771675110e-02
-3.306880220770835876e-02
-1.448946632444858551e-02
1.825327426195144653e-02
-1.947548426687717438e-02
4.259904380887746811e-03
-1.059239581227302551e-01
-5.862601101398468018e-02
1.845541410148143768e-02
7.108116894960403442e-02
-2.646229229867458344e-02
8.948960341513156891e-03
1.655193045735359192e-02
3.242249414324760437e-02
-1.693253405392169952e-03
-1.881487667560577393e-02
-3.145887702703475952e-02
3.597864508628845215e-02
6.982548628002405167e-03
2.718800213187932968e-03
-1.757938228547573090e-02
5.165855213999748230e-02
-2.228140644729137421e-02
-4.272051155567169189e-03
-6.845106184482574463e-02
-8.444339036941528320e-02
-7.724808156490325928e-02
-5.613912642002105713e-02
-6.188217550516128540e-02
-2.991780079901218414e-02
2.347571542486548424e-03
5.262114852666854858e-02
2.489538863301277161e-02
-9.839882142841815948e-03
4.315720126032829285e-02
-8.730195462703704834e-02
7.303033024072647095e-02
2.484385296702384949e-02
7.909510284662246704e-02
2.405373752117156982e-02
1.354057621210813522e-02
-1.168848294764757156e-02
3.790060291066765785e-03
3.530834242701530457e-02
-1.764069683849811554e-02
-4.016956314444541931e-02
-2.261140756309032440e-02
-3.663871064782142639e-02
2.280409447848796844e-02
6.168814748525619507e-02
-8.140627294778823853e-02
-5.183090642094612122e-02
-5.932568758726119995e-02
1.986305043101310730e-02
-1.511634618509560823e-04
-5.620826408267021179e-02
8.568327175453305244e-04
2.487773634493350983e-02
2.618836879264563322e-04
-2.710107341408729553e-02
4.937071353197097778e-02
-5.202010646462440491e-02
1.425683405250310898e-02
6.422922015190124512e-02
3.051734156906604767e-02
-1.445975247770547867e-02
2.929724007844924927e-02
-8.705542422831058502e-03
-4.341694340109825134e-02
9.547603316605091095e-03
2.447723969817161560e-02
-1.009588092565536499e-01
-6.623122096061706543e-02
-8.140750974416732788e-02
3.831987455487251282e-02
-2.965738065540790558e-03
1.410311609506607056e-01
1.474894117563962936e-02
4.910235852003097534e-02
-1.973976567387580872e-02
-4.852089285850524902e-02
-9.993215650320053101e-02
2.030134387314319611e-02
-4.545740410685539246e-02
-1.288247946649789810e-02
-5.241337791085243225e-02
4.484169557690620422e-02
8.084936998784542084e-03
-6.642314791679382324e-02
-5.281124636530876160e-02
-8.565349876880645752e-02
-1.938842423260211945e-02
3.772258386015892029e-02
-9.531249292194843292e-03
-4.903062433004379272e-02
6.332056131213903427e-03
-6.247408688068389893e-02
6.169770378619432449e-03
-3.891077265143394470e-02
-3.069676086306571960e-02
-5.684186890721321106e-02
2.297906950116157532e-02
-2.100696787238121033e-02
7.532021403312683105e-02
-5.618517752736806870e-03
-4.537824913859367371e-02
-6.784850265830755234e-03
-7.355101406574249268e-02
1.169698033481836319e-02
2.169320546090602875e-02
2.184877172112464905e-02
3.046599216759204865e-02
-4.659551382064819336e-02
-4.742865264415740967e-02
1.098887715488672256e-02
4.231321439146995544e-02
-2.261152258142828941e-03
-4.891376569867134094e-02
6.510122120380401611e-02
-9.324106574058532715e-02
-2.840992249548435211e-02
1.087175682187080383e-01
1.390268504619598389e-01
2.878004871308803558e-02
-1.425225939601659775e-02
-2.885468536987900734e-03
1.175901014357805252e-02
3.027330152690410614e-02
9.324467927217483521e-02
1.519221514463424683e-01
1.686211675405502319e-02
-6.954529881477355957e-02
2.979647368192672729e-02
5.038688331842422485e-02
3.767766058444976807e-02
2.576679689809679985e-04
-2.218435518443584442e-02
-1.096036136150360107e-01
-2.899542637169361115e-02
1.072502806782722473e-01
8.383784443140029907e-02
-3.786959499120712280e-02
5.282554775476455688e-02
-8.291020244359970093e-02
-1.751033030450344086e-02
-2.371874079108238220e-02
6.715655326843261719e-02
-5.288964509963989258e-02
7.207102328538894653e-02
3.094704821705818176e-02
3.495502844452857971e-02
-5.425475537776947021e-02
1.535415183752775192e-02
-2.414767257869243622e-02
7.509167492389678955e-02
8.636503480374813080e-03
-4.489221423864364624e-02
9.553971886634826660e-02
-3.258811309933662415e-02
-4.964261502027511597e-02
-5.186533182859420776e-02
5.067000165581703186e-03
-1.661233231425285339e-02
3.884979337453842163e-02
-5.220757797360420227e-03
-5.626696720719337463e-02
4.166062548756599426e-02
5.064097791910171509e-02
-7.919257134199142456e-02
7.939783483743667603e-02
-7.950402796268463135e-02
-2.432806789875030518e-02
-1.746883094310760498e-01
2.522695250809192657e-02
-1.634706184267997742e-02
1.596459560096263885e-02
5.872490257024765015e-02
-2.915013730525970459e-01
-2.180356532335281372e-02
9.120617806911468506e-02
-5.197865888476371765e-03
1.043999101966619492e-02
-7.576133124530315399e-03
-3.656246885657310486e-02
6.867579370737075806e-02
-1.623347774147987366e-02
1.696908287703990936e-02
2.782556111924350262e-04
-7.495572417974472046e-02
-6.061455607414245605e-02
-3.745145723223686218e-02
-2.915018796920776367e-02
-2.546227164566516876e-02
3.128202259540557861e-02
-1.152240708470344543e-01
-1.113067194819450378e-02
3.305990993976593018e-02
-3.510151803493499756e-01
1.792044937610626221e-02
-6.928424350917339325e-03
5.144645273685455322e-02
-1.158108748495578766e-02
-2.296897955238819122e-02
2.316430211067199707e-02
6.432621926069259644e-02
5.483375862240791321e-02
2.975257486104965210e-02
-1.589260995388031006e-01
-5.963604897260665894e-02
-4.224739596247673035e-02
-2.900626361370086670e-01
3.430263698101043701e-02
-2.412367239594459534e-02
-4.378728196024894714e-02
-1.155187096446752548e-02
-1.124558597803115845e-01
3.868779912590980530e-02
4.886711388826370239e-02
3.201233223080635071e-02
1.165158301591873169e-02
2.817430160939693451e-02
4.599421843886375427e-02
9.090366214513778687e-02
-1.886077970266342163e-02
7.157000713050365448e-03
-3.191763907670974731e-02
6.033184751868247986e-02
-3.133282065391540527e-02
9.157649427652359009e-02
9.016766399145126343e-02
3.690474107861518860e-02
3.813583776354789734e-02
3.884696587920188904e-02
3.898065164685249329e-02
-7.518590986728668213e-02
1.333169918507337570e-02
7.033290714025497437e-02
-2.061815187335014343e-02
4.332222044467926025e-02
1.863878965377807617e-02
5.336149781942367554e-02
-4.214156419038772583e-03
1.007984578609466553e-02
1.385158859193325043e-02
4.514113813638687134e-02
3.027522563934326172e-02
-4.836801066994667053e-02
1.056006699800491333e-01
1.792626082897186279e-02
9.198042750358581543e-02
-8.886945247650146484e-02
-1.009518057107925415e-01
-5.054170265793800354e-02
5.567451193928718567e-02
-3.026775270700454712e-02
1.186890061944723129e-02
-3.269094601273536682e-02
5.659729614853858948e-02
4.886376485228538513e-02
8.220868557691574097e-02
6.523236632347106934e-02
3.813453391194343567e-02
-1.321582775563001633e-02
5.863678827881813049e-02
8.592715486884117126e-03
-8.917698264122009277e-02
1.535575836896896362e-02
1.521435100585222244e-02
3.002265840768814087e-02
-8.792138099670410156e-02
-6.243308261036872864e-02
-2.830168604850769043e-02
5.384915322065353394e-02
-4.015965387225151062e-02
-2.952275276184082031e-01
-2.251006476581096649e-02
5.198148265480995178e-02
-7.056173402816057205e-03
5.408307537436485291e-02
1.818862161599099636e-03
-2.077265083789825439e-02
-1.344978064298629761e-01
-8.118602633476257324e-02
5.667516961693763733e-02
1.137998141348361969e-02
-3.105627372860908508e-03
-5.004654824733734131e-02
-2.185008302330970764e-02
2.006839588284492493e-02
5.138964951038360596e-02
-4.170824214816093445e-02
3.174156323075294495e-02
3.445084393024444580e-02
-2.994530461728572845e-02
-1.144555211067199707e-01
-2.095876783132553101e-01
-6.606685370206832886e-02
-5.189467594027519226e-02
-8.171466737985610962e-02
4.706260561943054199e-02
1.123460568487644196e-02
-3.523384034633636475e-02
-6.901674717664718628e-02
-6.373304873704910278e-02
1.147736050188541412e-02
-4.981690272688865662e-02
4.266549274325370789e-02
-1.713484339416027069e-02
-2.211249060928821564e-02
-2.289533801376819611e-02
7.795889675617218018e-02
6.102848798036575317e-02
-6.367796659469604492e-02
3.908650204539299011e-02
5.126617848873138428e-02
7.494944334030151367e-02
5.555694922804832458e-02
7.775805424898862839e-03
1.952842064201831818e-02
-7.549030240625143051e-03
-1.356005221605300903e-01
4.462629929184913635e-02
-1.274453103542327881e-01
-1.249245926737785339e-01
-1.195464376360177994e-02
-2.976982109248638153e-02
3.960896283388137817e-02
-1.703533828258514404e-01
6.736905127763748169e-02
-1.637567766010761261e-02
-4.113633930683135986e-02
6.135316938161849976e-02
-1.414604336023330688e-01
-2.923702355474233627e-03
5.177960731089115143e-03
-1.182425487786531448e-02
-5.947229452431201935e-03
1.105785965919494629e-01
-4.379468411207199097e-02
1.038230117410421371e-02
9.875760972499847412e-02
6.573034822940826416e-02
-1.299210935831069946e-01
-2.647440880537033081e-02
8.589071035385131836e-02
2.694632485508918762e-02
5.790527537465095520e-02
-4.703739285469055176e-02
-3.262581676244735718e-02
-1.063510659150779247e-03
-7.374141830950975418e-03
-3.317679837346076965e-02
7.581788301467895508e-02
2.774606831371784210e-02
2.555024437606334686e-02
-2.799417451024055481e-02
2.410116977989673615e-02
-6.591721624135971069e-02
4.715396091341972351e-02
-7.569419685751199722e-03
-5.356882140040397644e-02
5.638324469327926636e-02
-2.650992758572101593e-02
2.323418110609054565e-02
-4.385733511298894882e-03
-1.806340925395488739e-02
-7.484082132577896118e-02
-4.181673377752304077e-02
-6.366407964378595352e-03
6.310500949621200562e-02
-2.974721044301986694e-02
2.474503964185714722e-02
-4.637238383293151855e-02
-3.593290457502007484e-03
-2.767352201044559479e-02
2.510640956461429596e-02
3.664771839976310730e-02
-4.551878571510314941e-02
-2.917248010635375977e-02
-6.299990415573120117e-02
-1.840317994356155396e-02
-8.798635564744472504e-03
3.374575823545455933e-02
-4.921460151672363281e-02
-1.471456047147512436e-02
-5.440761893987655640e-02
-6.439917255192995071e-03
1.964287832379341125e-02
4.106746986508369446e-02
-1.434147078543901443e-02
-5.943211540579795837e-02
-4.572885110974311829e-02
2.003305591642856598e-02
2.606643736362457275e-02
4.709818586707115173e-02
4.386794567108154297e-02
-5.173316970467567444e-02
-8.160562068223953247e-02
-5.907895416021347046e-02
3.707338497042655945e-02
1.595867681317031384e-03
-2.014786936342716217e-02
-4.636004567146301270e-02
3.876097500324249268e-02
-3.998154774308204651e-02
-2.435854263603687286e-02
-1.155412942171096802e-02
6.006933003664016724e-02
-5.327670648694038391e-02
5.408143624663352966e-02
-5.798726156353950500e-02
-2.400930412113666534e-02
-5.448482185602188110e-02
1.828678697347640991e-02
4.241590946912765503e-02
-1.836634986102581024e-02
1.624883338809013367e-02
-6.197679042816162109e-02
4.350790008902549744e-02
-2.913810312747955322e-02
-3.493240475654602051e-02
-2.486901357769966125e-02
2.293269848451018333e-03
1.700638979673385620e-02
4.050352424383163452e-02
4.236217588186264038e-02
-1.604367978870868683e-02
3.779839724302291870e-02
-4.095213860273361206e-02
-4.102920740842819214e-02
-6.684079300612211227e-03
-3.746296465396881104e-02
-2.855465933680534363e-02
7.733632624149322510e-02
-4.444679245352745056e-02
-4.005656391382217407e-02
1.483889995142817497e-03
-1.547780167311429977e-02
-3.996783867478370667e-02
-6.732448190450668335e-02
-4.930629953742027283e-02
5.476460978388786316e-02
3.728029876947402954e-02
-9.546582587063312531e-03
2.210056595504283905e-02
-5.757693946361541748e-02
-2.965742256492376328e-03
-5.154141038656234741e-02
-3.885596292093396187e-03
2.781913056969642639e-02
-2.368115633726119995e-02
3.841592697426676750e-04
3.194195032119750977e-02
5.438666045665740967e-02
-2.234126999974250793e-02
-1.441141776740550995e-02
-3.023479320108890533e-02
-2.792384102940559387e-02
-1.936272904276847839e-02
4.619420040398836136e-03
-8.541227877140045166e-02
3.535788133740425110e-02
4.329422488808631897e-02
-1.687173917889595032e-02
3.250166028738021851e-02
-1.393622066825628281e-02
1.066663339734077454e-01
-2.427332662045955658e-02
6.732030306011438370e-03
-4.407678544521331787e-02
-4.490641504526138306e-02
3.772234171628952026e-02
-4.881162196397781372e-02
-2.111601410433650017e-03
3.994524851441383362e-02
-4.672010987997055054e-02
3.108441643416881561e-02
-1.244913414120674133e-02
-3.213636949658393860e-02
2.329364791512489319e-02
-1.531221671029925346e-03
-4.131762310862541199e-02
5.091312155127525330e-02
-1.459755282849073410e-02
3.832458332180976868e-02
6.239341571927070618e-03
-2.311694435775279999e-02
-6.865606456995010376e-02
-4.269306734204292297e-02
-6.593170762062072754e-02
-2.273574471473693848e-02
9.035553783178329468e-03
4.882333055138587952e-02
2.944661304354667664e-02
1.307214796543121338e-02
-2.277820929884910583e-02
-6.699291616678237915e-02
-6.037263199687004089e-02
9.560899809002876282e-03
-3.572411835193634033e-02
-7.150738686323165894e-02
1.758029870688915253e-02
2.271221717819571495e-03
-4.628667980432510376e-02
-1.245236862450838089e-02
-1.768147572875022888e-02
4.563400894403457642e-02
1.720507070422172546e-02
-4.248263686895370483e-02
-9.162688627839088440e-03
-4.971018061041831970e-02
-6.019945722073316574e-03
-2.349205873906612396e-02
2.046051993966102600e-02
-4.149432480335235596e-02
-9.670504368841648102e-03
-5.303116980940103531e-03
1.049918029457330704e-02
-4.023822396993637085e-02
-4.996914416551589966e-02
-4.386367276310920715e-02
4.374169185757637024e-02
1.812127046287059784e-02
-8.132056146860122681e-02
2.897283621132373810e-02
4.176371917128562927e-02
-3.431612253189086914e-02
2.055242285132408142e-02
2.626901306211948395e-02
3.541104495525360107e-02
2.490753075107932091e-03
5.618518590927124023e-02
-3.462642058730125427e-02
-5.580817162990570068e-02
2.811909653246402740e-02
-3.597853705286979675e-02
-4.941279813647270203e-02
4.440873116254806519e-02
3.361969068646430969e-02
2.747667022049427032e-02
2.437780424952507019e-02
1.197285251691937447e-03
6.044349074363708496e-02
-3.769551962614059448e-02
-6.856659054756164551e-02
-2.802181616425514221e-02
-3.277063369750976562e-02
-5.086655914783477783e-02
-1.555892359465360641e-02
4.405405372381210327e-02
1.628781296312808990e-02
6.790258735418319702e-02
-4.587063100188970566e-03
5.591014865785837173e-03
4.183389618992805481e-02
1.852069236338138580e-02
-6.446566432714462280e-02
-2.040613628923892975e-02
-3.457480669021606445e-02
-3.296836838126182556e-02
-6.955351680517196655e-02
2.950197551399469376e-03
-1.263186801224946976e-02
-4.755455069243907928e-03
-4.117825999855995178e-02
-8.746708743274211884e-03
-5.051513761281967163e-02
-6.319741904735565186e-02
4.636513814330101013e-02
-3.736388683319091797e-02
-3.068028762936592102e-02
-6.038536876440048218e-02
1.104649901390075684e-02
6.016449071466922760e-03
3.740038722753524780e-02
-6.098531559109687805e-02
-7.908748462796211243e-03
-9.804868139326572418e-03
-2.176835201680660248e-02
-8.849016390740871429e-03
7.139273732900619507e-02
5.831449106335639954e-02
1.553007867187261581e-02
1.537430752068758011e-02
-3.752275928854942322e-02
7.242977619171142578e-02
1.052750088274478912e-02
-6.991754472255706787e-02
1.747283153235912323e-02
-1.382706034928560257e-02
-4.147823899984359741e-02
-7.045067846775054932e-02
-2.972240559756755829e-03
-5.074293538928031921e-02
2.631470747292041779e-02
-2.495710551738739014e-02
-3.097406774759292603e-02
1.860321871936321259e-02
5.825275927782058716e-02
-6.389255169779062271e-03
-6.867033243179321289e-02
1.110120490193367004e-02
-4.285174235701560974e-02
-4.279845207929611206e-02
4.485658183693885803e-02
-5.913390219211578369e-02
-5.654770508408546448e-02
-1.181678194552659988e-02
8.436795324087142944e-03
-5.297048762440681458e-02
7.365071773529052734e-02
-2.291818894445896149e-02
-1.572812348604202271e-02
2.730064652860164642e-02
-2.628328651189804077e-02
-1.218152884393930435e-02
-1.958364155143499374e-03
2.058720216155052185e-02
3.133386000990867615e-02
-1.567819155752658844e-02
6.941626965999603271e-02
-6.025474891066551208e-02
-1.188980937004089355e-01
-4.450598359107971191e-02
2.353347279131412506e-02
-7.638420164585113525e-02
-3.744564577937126160e-02
-3.606256097555160522e-02
5.025989562273025513e-02
-1.665596365928649902e-01
-1.357212811708450317e-01
3.475924208760261536e-02
7.011435180902481079e-02
-2.106041312217712402e-01
-1.141016632318496704e-01
-1.099008619785308838e-01
6.362359970808029175e-02
-2.996897883713245392e-02
-7.108643651008605957e-02
-1.125735864043235779e-01
2.116017974913120270e-02
-2.582038566470146179e-02
-4.848314076662063599e-02
8.982254564762115479e-02
-5.736755952239036560e-02
-6.509205792099237442e-03
-5.813562870025634766e-02
-5.601249262690544128e-02
1.231943722814321518e-02
-6.377182900905609131e-02
-2.314016222953796387e-02
-1.411639899015426636e-01
-1.485938578844070435e-01
-8.516052737832069397e-03
-1.088562682271003723e-01
-5.658351257443428040e-02
-5.432057753205299377e-02
4.737891629338264465e-02
5.987678840756416321e-02
7.956745475530624390e-02
-1.589341461658477783e-01
5.118307308293879032e-04
-2.602588199079036713e-02
7.136650383472442627e-03
4.475940484553575516e-03
4.844810813665390015e-02
7.562717795372009277e-02
4.969513975083827972e-03
4.628472402691841125e-02
-5.762604996562004089e-02
-3.589154919609427452e-03
-1.012969017028808594e-01
-6.318190135061740875e-03
8.476271480321884155e-02
-2.779360860586166382e-02
-2.950350567698478699e-02
7.961546629667282104e-02
5.027895420789718628e-02
-1.106466948986053467e-01
7.579842116683721542e-03
1.451611751690506935e-03
-3.580476390197873116e-03
-3.892206400632858276e-02
-2.471529878675937653e-02
1.655238494277000427e-02
-6.840320676565170288e-02
-3.398452699184417725e-02
-2.956273237941786647e-05
-7.166503369808197021e-02
2.833376452326774597e-02
5.000192299485206604e-02
-4.858101531863212585e-02
-6.927203387022018433e-02
4.510184377431869507e-02
3.261351957917213440e-03
-3.449000790715217590e-02
-4.644248634576797485e-02
-2.298049814999103546e-02
-1.303306967020034790e-01
1.522292569279670715e-02
-2.974051283672451973e-03
3.870204836130142212e-02
5.431035906076431274e-02
-6.036178022623062134e-02
-1.733913831412792206e-02
-4.855837672948837280e-03
1.069893464446067810e-01
-1.438775658607482910e-01
-6.697721779346466064e-02
-5.001299828290939331e-02
5.611603334546089172e-02
-7.726807892322540283e-02
-1.455381698906421661e-02
1.011970862746238708e-01
-1.121791303157806396e-01
4.374936223030090332e-02
2.433193288743495941e-02
-1.406718939542770386e-01
1.017897129058837891e-01
-4.553861543536186218e-02
-3.291703760623931885e-02
-4.334931820631027222e-02
-3.631326556205749512e-02
-9.857616573572158813e-02
-5.630255118012428284e-02
-8.110369741916656494e-02
1.013307496905326843e-01
7.285781204700469971e-02
-9.547072649002075195e-02
-2.212942764163017273e-02
-4.847147315740585327e-02
3.215049579739570618e-02
-1.014458462595939636e-01
-2.044215500354766846e-01
-1.928418576717376709e-01
-1.876072213053703308e-02
-8.567385375499725342e-03
4.497705399990081787e-02
6.390232592821121216e-02
9.029673412442207336e-03
7.715548574924468994e-02
6.187266483902931213e-02
2.145882695913314819e-03
5.366174876689910889e-02
1.085989549756050110e-01
4.974375478923320770e-03
3.807741031050682068e-02
-3.496242314577102661e-02
-5.628262832760810852e-02
-2.660722471773624420e-02
-8.502031117677688599e-02
4.344914481043815613e-02
1.171001233160495758e-02
-1.111349556595087051e-02
-4.963022097945213318e-02
-6.656860560178756714e-02
-7.262630015611648560e-02
-5.130735784769058228e-02
1.341553181409835815e-01
-8.370827883481979370e-02
8.030347526073455811e-03
-6.210334599018096924e-02
7.801482826471328735e-02
6.943015754222869873e-02
-8.416976779699325562e-02
-7.180304080247879028e-02
5.058487204223638400e-06
3.514704853296279907e-02
-7.834597676992416382e-02
-9.164176881313323975e-02
-3.860098496079444885e-02
-6.255099177360534668e-02
-1.390984654426574707e-01
-1.146195572800934315e-03
4.796946421265602112e-02
6.245421618223190308e-02
-1.383184194564819336e-01
-3.707748278975486755e-02
6.145329773426055908e-02
8.096534013748168945e-02
-1.409791111946105957e-01
-2.987168543040752411e-02
-2.747473865747451782e-02
5.801474303007125854e-02
2.578368969261646271e-02
3.916842117905616760e-02
-6.185306981205940247e-02
-5.610687658190727234e-02
-2.009046962484717369e-03
1.998439431190490723e-02
-7.593820244073867798e-02
-1.837947778403759003e-02
6.049406249076128006e-03
6.326152384281158447e-02
-1.109492629766464233e-01
-2.994843758642673492e-02
-1.443462446331977844e-02
-3.110720589756965637e-02
3.122417069971561432e-02
-7.702847942709922791e-03
7.557706441730260849e-03
-1.583328843116760254e-02
2.133698901161551476e-03
-1.745655946433544159e-02
-8.651157468557357788e-02
-1.392953544855117798e-01
-8.432669192552566528e-02
-3.374722599983215332e-02
-4.139830544590950012e-02
2.598167397081851959e-03
4.337795078754425049e-02
8.235612511634826660e-02
-2.313615940511226654e-02
-3.705013543367385864e-02
1.042415015399456024e-02
-3.581310808658599854e-02
-3.535289689898490906e-02
-1.151021420955657959e-01
4.197520017623901367e-02
6.971154827624559402e-03
-9.532288461923599243e-02
3.609198704361915588e-02
3.904247423633933067e-03
-2.380756847560405731e-02
8.595755323767662048e-03
6.563363131135702133e-03
-4.201005399227142334e-02
-1.080982163548469543e-01
-5.697220563888549805e-02
-1.350477486848831177e-01
4.013619571924209595e-02
1.276562362909317017e-02
-9.265204891562461853e-03
1.761158928275108337e-02
4.648854583501815796e-02
-7.882639020681381226e-02
-2.424577809870243073e-02
4.502622783184051514e-02
-3.015432693064212799e-02
9.817855060100555420e-02
-1.547599025070667267e-02
-9.009405225515365601e-02
-6.907528638839721680e-02
-6.023872643709182739e-02
-3.334997594356536865e-02
-1.902165412902832031e-01
-1.005069017410278320e-01
4.054650780744850636e-04
-3.219150751829147339e-02
-1.553526706993579865e-02
-7.325552403926849365e-02
-1.524232979863882065e-02
-1.270531564950942993e-01
-1.431276053190231323e-01
2.620574645698070526e-02
6.002296507358551025e-02
-1.276536881923675537e-01
5.881225317716598511e-02
-8.097448945045471191e-02
1.573107391595840454e-02
-1.350325495004653931e-01
-2.325244061648845673e-02
-1.769653894007205963e-02
-1.098111122846603394e-01
-5.444220080971717834e-02
-1.195449195802211761e-02
-6.201078742742538452e-02
3.552512452006340027e-02
-1.115671843290328979e-01
7.179795205593109131e-02
-4.075372964143753052e-02
-7.336581498384475708e-02
-3.288454841822385788e-03
-7.042838633060455322e-02
-1.087158638983964920e-02
2.174259722232818604e-02
5.955080687999725342e-02
9.946722537279129028e-02
-7.410435378551483154e-02
-1.751790195703506470e-02
3.724724799394607544e-02
-3.786164894700050354e-02
-6.704057753086090088e-02
8.061864227056503296e-02
2.416681870818138123e-02
-6.665105465799570084e-03
-6.445711012929677963e-03
9.271857142448425293e-02
-2.725872397422790527e-02
5.212497711181640625e-02
-1.784808747470378876e-02
-4.567281529307365417e-02
1.600206792354583740e-01
-2.798079326748847961e-02
-3.912732005119323730e-02
5.331258103251457214e-02
2.260009199380874634e-02
2.034703828394412994e-02
-2.166675776243209839e-02
-2.558166906237602234e-02
4.440354928374290466e-02
-4.605782777070999146e-02
4.592251032590866089e-02
-8.797971904277801514e-02
3.616948798298835754e-02
6.151197850704193115e-02
6.870501488447189331e-02
3.030521422624588013e-02
1.121905166655778885e-02
5.669604986906051636e-02
-1.209383308887481689e-01
9.722386486828327179e-03
6.219296902418136597e-02
3.491698065772652626e-03
-2.509077638387680054e-02
-3.325525671243667603e-02
-7.139985263347625732e-02
-1.408474445343017578e-01
6.762030720710754395e-02
-8.127127774059772491e-03
-7.758703432045876980e-04
-1.053830049932003021e-02
-4.787167068570852280e-03
1.060482263565063477e-01
3.389770910143852234e-02
-2.120924927294254303e-02
7.520056515932083130e-02
1.916167675517499447e-03
5.767919495701789856e-02
-9.353240579366683960e-02
-3.749212250113487244e-02
-1.843247748911380768e-02
7.371546328067779541e-02
9.030627459287643433e-02
-8.771784603595733643e-02
-6.065983697772026062e-02
2.819635905325412750e-02
1.420630607753992081e-02
4.678641259670257568e-02
-5.520313233137130737e-02
1.424529105424880981e-01
2.645237557590007782e-02
2.183386497199535370e-02
-5.184873938560485840e-02
1.866579405032098293e-03
8.002988249063491821e-02
5.986115708947181702e-02
-1.199706550687551498e-02
2.595193684101104736e-02
-3.294580057263374329e-02
8.886372298002243042e-02
-5.918984767049551010e-03
-6.849220395088195801e-02
-3.403806686401367188e-02
-1.547343581914901733e-01
4.071103036403656006e-02
8.352144621312618256e-03
2.512828633189201355e-02
8.244549855589866638e-03
-1.180436811409890652e-03
-5.224863067269325256e-03
1.047994568943977356e-01
1.076515316963195801e-01
-4.980269074440002441e-02
-1.524147926829755306e-03
3.510180488228797913e-02
2.800279296934604645e-02
-7.583613973110914230e-03
7.985591888427734375e-02
-4.367848858237266541e-02
4.709247499704360962e-02
-3.807796165347099304e-02
-5.963134765625000000e-02
-7.319115102291107178e-02
1.076022163033485413e-02
8.981913328170776367e-02
-1.757298223674297333e-02
-2.629298716783523560e-02
-1.320903189480304718e-02
-4.753733426332473755e-02
8.421366661787033081e-02
1.015884503722190857e-01
-6.796476989984512329e-02
1.274248808622360229e-01
6.835761666297912598e-02
7.446453720331192017e-02
-7.954271882772445679e-02
1.446073409169912338e-02
-3.878650814294815063e-02
3.691700845956802368e-02
-7.783534377813339233e-02
-4.440948367118835449e-02
-4.562290757894515991e-02
-5.434877425432205200e-02
-7.158606499433517456e-02
5.468270555138587952e-02
-7.323729991912841797e-02
-3.345821052789688110e-02
-8.598382771015167236e-02
-8.138138800859451294e-03
-6.408992409706115723e-02
-7.282285392284393311e-02
6.947366893291473389e-02
-5.457291752099990845e-02
8.701406419277191162e-03
5.315364524722099304e-02
7.013295590877532959e-02
-4.899505898356437683e-02
-6.095615401864051819e-02
-3.520108014345169067e-02
-1.718992739915847778e-02
-2.169232442975044250e-02
1.592194475233554840e-02
5.049186875112354755e-04
-4.299296438694000244e-02
1.447403617203235626e-02
7.184762042015790939e-03
-9.254519641399383545e-02
5.674943700432777405e-02
1.300385594367980957e-02
8.385249227285385132e-02
-3.104383498430252075e-02
-5.370950326323509216e-02
-4.602567479014396667e-02
1.302556246519088745e-01
-1.042244583368301392e-01
7.795603573322296143e-02
3.486278280615806580e-02
-7.493744790554046631e-02
1.274923831224441528e-01
-9.992048889398574829e-02
3.162112459540367126e-02
-3.126432001590728760e-02
1.167815774679183960e-01
-6.507211178541183472e-02
-5.235701054334640503e-02
-8.077774196863174438e-02
1.017354950308799744e-01
-6.786956638097763062e-02
8.285985328257083893e-03
-8.793168514966964722e-02
3.473607450723648071e-02
3.472204878926277161e-02
-7.327892631292343140e-02
-4.234036803245544434e-02
5.433296412229537964e-02
1.995910704135894775e-02
-5.207185819745063782e-02
-3.109911456704139709e-03
-1.857741177082061768e-02
-1.360618025064468384e-01
-3.074885159730911255e-02
6.081678904592990875e-03
1.844520680606365204e-02
-6.672556698322296143e-02
-2.182499505579471588e-02
2.742137527093291283e-03
-7.332780864089727402e-03
2.343338727951049805e-02
8.904890157282352448e-03
1.841354556381702423e-02
1.564120501279830933e-02
4.676351323723793030e-02
-9.170653671026229858e-02
-3.265596553683280945e-02
-2.517186291515827179e-02
1.294921152293682098e-02
7.606002036482095718e-03
-5.897207185626029968e-02
-2.995063550770282745e-02
-8.042678982019424438e-02
-1.481050252914428711e-02
-3.531860560178756714e-02
-1.963859237730503082e-02
-6.451328843832015991e-02
7.925136387348175049e-02
1.557267736643552780e-02
2.407975960522890091e-03
-9.519611299037933350e-02
-2.698596753180027008e-02
1.879585906863212585e-03
-1.235575648024678230e-03
-9.779179841279983521e-02
6.656467914581298828e-02
4.030669853091239929e-02
4.602490516845136881e-04
1.753231324255466461e-02
1.438360288739204407e-02
9.326858073472976685e-02
5.111699178814888000e-02
3.122149500995874405e-04
2.121974155306816101e-02
8.968400955200195312e-02
1.421502698212862015e-02
6.343198567628860474e-02
-4.397994652390480042e-02
-4.925915598869323730e-02
9.780532680451869965e-03
1.714745163917541504e-02
-8.342418074607849121e-02
6.006513722240924835e-03
1.066517643630504608e-02
1.516056153923273087e-02
1.940463902428746223e-03
-2.257777377963066101e-02
1.848409883677959442e-02
-3.390008583664894104e-02
6.662227213382720947e-02
-2.531158551573753357e-02
-6.488634645938873291e-02
1.595597155392169952e-02
1.702994666993618011e-02
-7.592402864247560501e-03
8.870593458414077759e-02
4.666179418563842773e-02
-1.323631405830383301e-02
-5.813663825392723083e-02
-6.320575717836618423e-03
-5.520999059081077576e-02
5.391125008463859558e-02
3.803392127156257629e-02
2.098184823989868164e-02
-2.380139566957950592e-02
7.690010219812393188e-02
-5.849795043468475342e-02
3.131797909736633301e-02
6.158676743507385254e-02
1.470469962805509567e-02
2.684733830392360687e-02
4.161441326141357422e-02
4.871906340122222900e-02
3.650905331596732140e-03
7.078719791024923325e-03
-4.025335237383842468e-02
-7.626404613256454468e-02
3.205300122499465942e-02
-3.713405877351760864e-02
7.669371366500854492e-02
-4.879704490303993225e-02
-4.215164110064506531e-02
2.339225821197032928e-02
5.924157798290252686e-02
3.635449800640344620e-03
-3.343853354454040527e-02
-6.345078349113464355e-02
-3.298898786306381226e-02
-8.730335975997149944e-04
-6.057092454284429550e-03
-6.826023757457733154e-02
-1.866441033780574799e-02
-5.032030493021011353e-02
-2.598309330642223358e-02
1.156377512961626053e-02
1.205358095467090607e-02
5.790532380342483521e-02
-1.479102950543165207e-02
-2.872032346203923225e-03
-3.459917381405830383e-02
-3.849180415272712708e-02
2.383385784924030304e-03
5.747915431857109070e-02
7.877668738365173340e-02
7.137332111597061157e-03
-5.005707032978534698e-03
7.254280894994735718e-02
-2.111033909022808075e-02
-1.980641111731529236e-02
-2.454045228660106659e-02
5.032059922814369202e-02
9.893385693430900574e-03
3.012190759181976318e-02
3.107622265815734863e-02
-1.724140904843807220e-02
5.673945881426334381e-03
2.568218484520912170e-02
1.552488002926111221e-02
4.614710807800292969e-02
-8.466157130897045135e-03
-1.252227742224931717e-02
-7.692777365446090698e-02
-3.055006265640258789e-02
-6.637343671172857285e-03
5.172035098075866699e-02
1.289929263293743134e-02
-3.527553519234061241e-03
-6.775333732366561890e-02
-2.425253577530384064e-02
-5.405778065323829651e-02
4.439131915569305420e-02
-4.263341426849365234e-02
-4.609671235084533691e-02
-4.735960811376571655e-02
2.867543324828147888e-02
-5.338473618030548096e-02
-3.069981560111045837e-02
3.424737975001335144e-02
-5.779993161559104919e-02
-5.547079723328351974e-03
-5.972498655319213867e-02
-8.709478378295898438e-02
-3.841008618474006653e-02
1.185445189476013184e-01
-4.574638977646827698e-02
-5.271943658590316772e-02
6.554667372256517410e-03
3.213345631957054138e-02
2.057990431785583496e-02
1.850180327892303467e-02
-3.215910866856575012e-02
-1.971584558486938477e-02
-1.208189055323600769e-01
-1.576414145529270172e-02
2.378754131495952606e-02
-1.749622635543346405e-02
-2.066409215331077576e-02
4.561409726738929749e-02
4.819183424115180969e-02
-5.710723344236612320e-03
-3.985694609582424164e-03
3.095629252493381500e-02
3.174355253577232361e-02
1.489948388189077377e-02
-5.274077877402305603e-03
6.430801004171371460e-02
1.102816127240657806e-02
-5.629440397024154663e-02
1.926990970969200134e-02
-3.470283374190330505e-02
-2.860188484191894531e-02
8.179853670299053192e-03
-1.806651987135410309e-02
-1.074930466711521149e-02
2.420197939500212669e-03
-1.607529819011688232e-02
5.117571353912353516e-02
-2.445986866950988770e-02
-3.967500478029251099e-02
4.015662521123886108e-02
9.689838043414056301e-05
6.478546559810638428e-02
-3.900036588311195374e-02
3.727250173687934875e-02
-4.517051950097084045e-02
6.070736795663833618e-03
-1.326909475028514862e-02
9.663198143243789673e-03
-7.683338969945907593e-02
2.761545218527317047e-02
-7.660862058401107788e-02
-3.429063782095909119e-02
-5.707924067974090576e-02
9.730553254485130310e-03
-4.160630330443382263e-02
-3.806317970156669617e-02
-6.769806891679763794e-02
1.444239448755979538e-02
-1.361760124564170837e-02
-2.514524199068546295e-02
3.096068277955055237e-02
-3.742911666631698608e-02
-4.749519750475883484e-02
-2.112866006791591644e-02
-5.006751045584678650e-02
-4.953746870160102844e-02
-1.737741939723491669e-02
3.770608454942703247e-02
1.055600307881832123e-02
1.874095387756824493e-02
2.179193496704101562e-02
-1.332380902022123337e-02
-2.202858217060565948e-02
-5.531561374664306641e-02
6.208180636167526245e-02
-2.661170251667499542e-02
-4.167751967906951904e-02
-2.157727442681789398e-02
-2.945692837238311768e-02
-1.186250522732734680e-02
6.120946258306503296e-02
3.426238894462585449e-02
-5.031500384211540222e-02
8.402971550822257996e-03
-1.144745945930480957e-02
1.776997745037078857e-02
-4.357109591364860535e-02
-6.056145578622817993e-02
1.294486876577138901e-02
5.614131689071655273e-02
-3.753812517970800400e-03
-7.701814174652099609e-02
-2.558186883106827736e-03
-7.255282253026962280e-02
5.496258661150932312e-02
-1.270807906985282898e-02
-5.173295736312866211e-02
-4.365801811218261719e-02
-1.925074681639671326e-02
-6.149592995643615723e-02
2.087099477648735046e-03
4.263902455568313599e-02
4.668687470257282257e-03
-5.352433770895004272e-02
-8.232428692281246185e-03
-2.412591688334941864e-02
-5.576720088720321655e-02
9.893100708723068237e-03
4.333735629916191101e-02
-7.337947934865951538e-02
-6.614353507757186890e-02
3.953884541988372803e-02
3.584139421582221985e-02
1.008529774844646454e-02
2.325059473514556885e-02
4.470958560705184937e-02
2.475355751812458038e-02
-3.425427153706550598e-02
-5.632872506976127625e-02
8.133444935083389282e-03
5.420918017625808716e-02
-1.960541121661663055e-03
1.420290023088455200e-02
-5.039454624056816101e-02
-8.349283039569854736e-02
3.788913041353225708e-02
-2.522688731551170349e-02
-1.796009950339794159e-02
-1.213991269469261169e-02
4.693410545587539673e-02
1.316857337951660156e-02
-6.387303769588470459e-02
3.623034805059432983e-02
-3.543489729054272175e-04
1.694136112928390503e-02
-1.964979991316795349e-02
-1.520222239196300507e-02
-1.702831243164837360e-03
-4.912081360816955566e-02
-3.035574033856391907e-02
4.306562989950180054e-02
1.659844769164919853e-03
-2.295743301510810852e-02
-6.492975354194641113e-02
1.855798065662384033e-02
-4.914726316928863525e-02
2.045257948338985443e-02
-3.497576713562011719e-02
5.493042618036270142e-02
-2.909594774246215820e-02
-5.113293975591659546e-02
7.640007417649030685e-03
-1.204150961712002754e-03
-9.359969198703765869e-02
-5.379134789109230042e-02
8.256188035011291504e-02
2.116909064352512360e-02
-7.399675250053405762e-02
1.267927885055541992e-01
-8.712573908269405365e-03
7.882738113403320312e-02
2.184535749256610870e-02
-1.884722895920276642e-02
-6.809114664793014526e-02
3.800424188375473022e-02
1.716981828212738037e-02
-1.250666845589876175e-02
9.974938817322254181e-03
-1.299613900482654572e-02
1.194697618484497070e-02
2.413123659789562225e-02
-4.366752132773399353e-02
6.992629915475845337e-02
-3.076768107712268829e-02
1.578553020954132080e-02
2.445293031632900238e-02
-4.801429435610771179e-02
2.370992116630077362e-02
7.758553326129913330e-02
-4.366555809974670410e-02
-3.248383849859237671e-02
-2.926645614206790924e-02
4.489910323172807693e-03
-8.047239482402801514e-02
-5.035505071282386780e-02
-2.676345407962799072e-02
1.823714375495910645e-02
5.341686308383941650e-03
6.942024920135736465e-03
-4.262714833021163940e-02
1.671894825994968414e-02
1.910435152240097523e-03
-2.921753562986850739e-02
2.732102572917938232e-02
-2.600438520312309265e-02
-3.922423347830772400e-02
-2.371798828244209290e-02
-6.738937646150588989e-02
-5.459792539477348328e-02
-1.161812320351600647e-01
-1.415389925241470337e-01
5.448297783732414246e-02
-2.606301009654998779e-02
-7.363146543502807617e-02
-6.220578774809837341e-02
-4.921191930770874023e-02
-7.313987240195274353e-03
6.132937595248222351e-02
3.905984759330749512e-02
-4.369070753455162048e-02
5.270905047655105591e-02
1.805136678740382195e-03
-3.354915976524353027e-02
-2.688620798289775848e-02
2.925794199109077454e-02
-3.086898848414421082e-02
-8.882949501276016235e-02
2.210235595703125000e-02
-7.398559898138046265e-02
-8.553812652826309204e-02
-3.415410965681076050e-02
-5.663803964853286743e-02
-9.945925325155258179e-02
7.897006720304489136e-02
-3.676147386431694031e-02
-7.067629601806402206e-03
4.710491746664047241e-03
-4.269549250602722168e-02
4.047213867306709290e-02
2.957762591540813446e-02
-6.511925905942916870e-02
4.432590678334236145e-02
-1.217319816350936890e-01
-2.728356234729290009e-02
-2.758891880512237549e-02
-3.783892840147018433e-03
-1.851024571806192398e-03
-9.244244545698165894e-02
-1.416673325002193451e-02
-3.069894621148705482e-03
3.401460358873009682e-03
-4.539022967219352722e-02
-3.431807458400726318e-02
-2.684970013797283173e-02
1.912485808134078979e-02
-1.147436425089836121e-01
4.885838180780410767e-02
3.483420237898826599e-02
-3.371508419513702393e-02
8.794166892766952515e-02
2.237606607377529144e-02
-4.116863012313842773e-02
2.730099670588970184e-02
8.516281098127365112e-02
-3.654559329152107239e-02
-3.725133463740348816e-02
-1.181619539856910706e-01
-3.806057944893836975e-02
-2.466992102563381195e-02
-6.627962738275527954e-02
3.558107092976570129e-02
-1.173444744199514389e-02
7.394856214523315430e-02
-2.799498103559017181e-02
-4.682474210858345032e-02
-1.304416917264461517e-02
8.642946928739547729e-02
-4.002365097403526306e-02
1.682902500033378601e-02
5.920663103461265564e-02
-2.042279019951820374e-02
7.390505075454711914e-02
-5.814178660511970520e-02
3.774032369256019592e-02
-8.034460991621017456e-02
-2.435615658760070801e-02
4.484428465366363525e-02
-6.857638806104660034e-02
4.821047559380531311e-02
4.548729397356510162e-03
1.609118189662694931e-03
5.202790256589651108e-03
3.970492165535688400e-03
3.445627633482217789e-03
-2.897831425070762634e-02
5.558953434228897095e-02
-3.348196670413017273e-02
5.958906374871730804e-03
2.586992830038070679e-02
-4.230223968625068665e-02
4.871509969234466553e-02
-5.377696827054023743e-02
3.951132670044898987e-02
-2.633415535092353821e-02
-1.839069463312625885e-02
8.749915286898612976e-03
-4.803767893463373184e-03
5.653683468699455261e-02
3.169503435492515564e-02
-4.518065601587295532e-02
-1.086718589067459106e-01
9.127992205321788788e-03
-9.325223416090011597e-02
-7.858792692422866821e-02
-3.048921562731266022e-02
-9.725094586610794067e-02
2.340852469205856323e-02
5.431617051362991333e-02
1.821532379835844040e-03
-1.112027652561664581e-02
7.851814478635787964e-02
5.791986733675003052e-02
2.941508404910564423e-02
-6.140219513326883316e-03
7.865073531866073608e-02
4.381277039647102356e-02
1.024800613522529602e-01
-1.136277988553047180e-02
-7.259945571422576904e-02
-2.478676103055477142e-02
-5.973163247108459473e-02
6.647356599569320679e-02
1.291960924863815308e-01
1.762905903160572052e-02
-5.973709374666213989e-02
-2.630146220326423645e-02
-3.967211768031120300e-02
-9.899520315229892731e-03
4.435407929122447968e-03
-2.388812368735671043e-03
1.701984787359833717e-03
-9.648351930081844330e-03
1.115889325737953186e-01
2.198365516960620880e-02
-9.425409138202667236e-03
-1.109476089477539062e-01
-3.762618452310562134e-02
5.252075940370559692e-02
5.865665525197982788e-02
5.479580257087945938e-03
1.388404518365859985e-02
2.995446696877479553e-02
2.789793908596038818e-02
-1.039985194802284241e-01
1.424704911187291145e-03
5.338222905993461609e-02
-6.328345090150833130e-02
-5.639552697539329529e-02
6.974702328443527222e-02
1.399717628955841064e-01
-7.933558523654937744e-02
-5.617767944931983948e-02
6.289965659379959106e-02
6.080928444862365723e-02
1.002025529742240906e-01
-2.413338422775268555e-02
4.967495426535606384e-02
-3.548291570041328669e-04
5.050722509622573853e-02
-8.271086215972900391e-02
3.264424949884414673e-02
3.738674893975257874e-02
-4.828473925590515137e-02
-2.515072468668222427e-03
1.958434656262397766e-02
3.644630080088973045e-03
2.690969407558441162e-02
5.174031108617782593e-02
-3.502148389816284180e-02
3.431467711925506592e-02
1.207319572567939758e-01
5.757973063737154007e-03
5.388216674327850342e-02
7.626385986804962158e-02
-3.558545559644699097e-02
-3.889799863100051880e-02
-8.493050187826156616e-02
-8.248900622129440308e-02
-3.433814272284507751e-02
4.574966803193092346e-02
1.007433701306581497e-02
3.869045153260231018e-02
4.135844856500625610e-02
-3.048551641404628754e-02
3.648239001631736755e-02
-5.409156531095504761e-02
-7.452559471130371094e-02
-1.830140873789787292e-02
5.687775090336799622e-02
-1.003532931208610535e-01
-5.965461954474449158e-02
4.031392186880111694e-02
1.533958408981561661e-02
-7.612800598144531250e-02
-2.107663312926888466e-03
6.703325361013412476e-02
-7.768157869577407837e-03
7.254154887050390244e-03
7.795862387865781784e-03
-1.264353096485137939e-01
6.567460298538208008e-02
-2.188986167311668396e-03
-8.032288402318954468e-02
3.985237702727317810e-02
6.604547053575515747e-02
-3.596162796020507812e-02
3.549920767545700073e-02
3.275211900472640991e-02
1.987654529511928558e-02
9.120245277881622314e-02
6.666582543402910233e-03
-5.784590169787406921e-02
1.757727441145107150e-04
-1.503145545721054077e-01
1.876633428037166595e-02
1.100542098283767700e-01
-5.934047698974609375e-02
7.449109852313995361e-02
5.122584477066993713e-02
-8.204021304845809937e-02
2.033058926463127136e-02
6.724407430738210678e-03
-1.424590647220611572e-01
-6.239605322480201721e-02
4.864915087819099426e-02
-3.033085353672504425e-02
3.798533976078033447e-02
4.483129084110260010e-02
-1.341394335031509399e-01
1.698395004495978355e-03
7.260540127754211426e-02
-6.476838141679763794e-02
-8.710645139217376709e-03
-6.403647363185882568e-02
-2.091144211590290070e-02
-5.212727934122085571e-02
3.863974288105964661e-02
-1.665063761174678802e-02
2.622675895690917969e-02
-5.339657515287399292e-02
1.238331757485866547e-02
-4.455174878239631653e-02
-6.670849863439798355e-03
-4.868401214480400085e-02
-1.475648023188114166e-02
7.062245160341262817e-02
-1.453447062522172928e-02
2.331579104065895081e-02
-4.536941647529602051e-02
-2.506946772336959839e-02
-5.845236033201217651e-02
-4.334235563874244690e-02
7.183197885751724243e-02
2.725224383175373077e-02
2.271721884608268738e-02
6.202090531587600708e-02
1.703877002000808716e-02
-2.846398390829563141e-02
4.047555848956108093e-02
2.452154085040092468e-02
-2.733092941343784332e-02
-2.895313687622547150e-02
9.090068936347961426e-02
-4.362544044852256775e-02
-5.386416614055633545e-02
-7.647244632244110107e-02
-9.919209033250808716e-02
-1.304441224783658981e-02
1.286883745342493057e-02
2.140531875193119049e-02
1.812708005309104919e-02
-1.598134450614452362e-02
-1.077324002981185913e-01
-3.162655606865882874e-02
7.782927714288234711e-03
-2.435616776347160339e-02
3.646104037761688232e-02
-2.088316902518272400e-02
-7.973425835371017456e-02
5.648090690374374390e-02
-2.350295707583427429e-02
1.485774945467710495e-02
-1.607840880751609802e-03
-2.905678190290927887e-02
-5.455756559967994690e-02
-4.866620898246765137e-02
-6.314526498317718506e-02
-6.734620034694671631e-02
-8.829955756664276123e-02
-4.828090965747833252e-02
5.138672422617673874e-03
-7.929495722055435181e-02
-7.565392553806304932e-02
-2.991617843508720398e-02
-3.635229170322418213e-02
-1.453290600329637527e-02
-6.531842052936553955e-02
4.471568763256072998e-02
3.062940947711467743e-02
5.008052568882703781e-03
-2.549801766872406006e-02
-2.576134167611598969e-02
3.745570033788681030e-02
2.015514485538005829e-02
-4.091426730155944824e-02
3.814085200428962708e-02
-4.221634194254875183e-02
-5.468267202377319336e-02
8.512353897094726562e-02
-4.464133456349372864e-02
2.899590693414211273e-02
-5.501046404242515564e-02
-7.435114681720733643e-02
-3.202999755740165710e-02
-7.149316370487213135e-02
6.663291901350021362e-02
-5.568201467394828796e-02
-5.095532163977622986e-02
-1.724359462969005108e-03
-6.161325797438621521e-02
-3.200934734195470810e-03
4.783233627676963806e-03
-4.910928383469581604e-02
3.942833840847015381e-02
-4.020087048411369324e-02
2.852232940495014191e-02
-2.686840854585170746e-02
-4.187685251235961914e-02
9.452463686466217041e-02
-7.253536488860845566e-03
-5.406455323100090027e-02
7.612393796443939209e-02
-2.286163158714771271e-02
1.160071045160293579e-02
-1.938739418983459473e-02
1.576533541083335876e-02
5.306679382920265198e-02
-2.023272402584552765e-02
1.075304951518774033e-02
1.524219196289777756e-02
-3.781765326857566833e-02
-5.751265212893486023e-02
7.248056586831808090e-03
3.087635338306427002e-02
-5.063781142234802246e-02
6.972505897283554077e-02
6.737136840820312500e-02
-3.529550274834036827e-03
4.115207120776176453e-02
-6.641632318496704102e-02
-3.060101158916950226e-02
3.069118969142436981e-02
-4.464790225028991699e-02
-1.374642830342054367e-02
-5.959479510784149170e-02
1.306606829166412354e-02
-6.277804076671600342e-02
-3.800069168210029602e-02
-1.753283664584159851e-02
-7.780539244413375854e-02
-3.809845075011253357e-02
3.088554553687572479e-02
-3.964764624834060669e-02
-2.968642860651016235e-02
-3.741435706615447998e-02
1.307517662644386292e-02
-8.957784622907638550e-02
-1.008629426360130310e-02
6.375166121870279312e-03
2.675010450184345245e-02
-7.126890867948532104e-02
1.841595768928527832e-02
3.566655889153480530e-02
1.706673018634319305e-02
5.474258959293365479e-02
2.437900751829147339e-02
-4.539332538843154907e-02
-6.855075713247060776e-03
-4.955488070845603943e-02
2.436158433556556702e-02
-1.998146995902061462e-02
-1.421158015727996826e-02
-1.212462875992059708e-02
-8.002661168575286865e-03
-6.884197890758514404e-02
-2.194061316549777985e-02
-5.290598049759864807e-02
4.617083072662353516e-02
6.302992813289165497e-03
-1.528031099587678909e-02
-2.680077403783798218e-02
-5.719301290810108185e-03
-4.313334450125694275e-02
-2.698659710586071014e-02
3.041269816458225250e-02
-2.473850548267364502e-02
1.186552923172712326e-03
3.413148969411849976e-02
-4.235431179404258728e-02
3.936205059289932251e-02
-6.418363749980926514e-02
-3.169390186667442322e-02
-2.208388224244117737e-02
2.305575832724571228e-02
2.792740799486637115e-02
3.563618659973144531e-02
-3.460977226495742798e-02
-4.262412711977958679e-02
3.946243226528167725e-02
1.758823171257972717e-02
-9.243417531251907349e-02
-3.315118327736854553e-02
3.166071139276027679e-03
1.381454337388277054e-02
-3.881519660353660583e-02
-5.495144426822662354e-02
2.540506049990653992e-02
2.630601637065410614e-02
-6.638857722282409668e-02
-7.598887197673320770e-03
3.087818063795566559e-02
2.345315180718898773e-02
-5.499445274472236633e-02
4.368253052234649658e-02
1.859088987112045288e-02
1.825571805238723755e-02
-4.111475870013237000e-02
-6.516030523926019669e-03
-7.094167172908782959e-02
5.296711623668670654e-02
-4.877637326717376709e-02
6.013541668653488159e-02
2.648814208805561066e-02
-2.131050080060958862e-02
1.507178973406553268e-02
-5.435469094663858414e-03
7.184786349534988403e-02
-7.065080851316452026e-02
-2.728165313601493835e-02
3.136852756142616272e-02
2.003919146955013275e-02
-3.137974813580513000e-02
6.160887703299522400e-02
-6.238169036805629730e-03
-5.335474014282226562e-02
-2.206528186798095703e-02
-5.987618491053581238e-02
-5.810880661010742188e-02
9.088953025639057159e-03
1.244338788092136383e-02
-1.758640632033348083e-02
-8.779956400394439697e-02
-2.802398754283785820e-03
-7.772035431116819382e-03
6.977572292089462280e-02
-1.672383025288581848e-02
-3.969369456171989441e-02
-3.187465667724609375e-02
2.066378481686115265e-02
7.066617161035537720e-02
6.046588998287916183e-03
4.590734839439392090e-02
5.405071377754211426e-02
-6.634020246565341949e-03
3.254139795899391174e-02
-1.945210242411121726e-04
-2.984846476465463638e-03
-1.095412112772464752e-02
-6.448967009782791138e-02
-1.205946085974574089e-03
4.150505736470222473e-02
-4.340256378054618835e-02
6.912975013256072998e-02
2.678220719099044800e-02
-2.554346341639757156e-03
-8.212535083293914795e-02
5.465768277645111084e-02
-6.162510067224502563e-02
-1.159424055367708206e-02
-3.907723352313041687e-02
-2.338869869709014893e-02
1.302914507687091827e-02
-6.761665921658277512e-03
5.945775192230939865e-03
-1.570544205605983734e-02
-3.863255959004163742e-03
3.187578916549682617e-02
-1.048271078616380692e-02
3.238693624734878540e-02
-4.608954861760139465e-02
1.639530807733535767e-02
-4.692969098687171936e-02
1.579941995441913605e-02
3.897214308381080627e-02
4.991235956549644470e-02
-3.790278360247612000e-02
-7.851825654506683350e-02
4.133189097046852112e-02
-3.563618287444114685e-02
3.969625011086463928e-02
-5.633438006043434143e-02
-6.807701289653778076e-02
3.079015389084815979e-02
-1.637472398579120636e-02
6.225352990441024303e-04
2.585476636886596680e-02
-9.666949510574340820e-03
-5.760395899415016174e-03
-5.618532747030258179e-02
3.399623790755867958e-03
1.809005439281463623e-02
-6.378505378961563110e-03
-4.512826725840568542e-02
-1.099773962050676346e-02
-6.474240217357873917e-03
-2.676196210086345673e-02
-3.670118004083633423e-02
4.835767298936843872e-02
7.716262247413396835e-03
-6.528463214635848999e-02
5.762853100895881653e-02
-4.188557341694831848e-02
-1.092688590288162231e-01
1.819811388850212097e-02
-3.506270796060562134e-02
2.797549217939376831e-02
1.590088196098804474e-02
-7.918941974639892578e-02
-8.331626653671264648e-03
5.388609599322080612e-03
2.279185131192207336e-02
-1.325698196887969971e-01
9.292009286582469940e-03
-4.927065968513488770e-02
-1.742125861346721649e-02
-4.569305106997489929e-02
5.185056850314140320e-02
-8.139842003583908081e-02
5.801930651068687439e-02
5.807596445083618164e-02
-9.859128296375274658e-02
-5.775764584541320801e-02
8.866613497957587242e-04
3.693318867590278387e-04
-1.435961388051509857e-02
-2.873095124959945679e-02
-5.318738147616386414e-02
-4.805068485438823700e-03
-5.554634332656860352e-02
-3.581945598125457764e-02
5.132675170898437500e-02
-1.230118051171302795e-01
1.542319543659687042e-02
-1.012259423732757568e-01
3.078776225447654724e-02
-2.101230435073375702e-02
-4.403922706842422485e-02
2.089699171483516693e-02
9.266304783523082733e-03
-2.666339278221130371e-02
3.170784935355186462e-02
3.842487640213221312e-04
-1.484567672014236450e-02
-6.637577712535858154e-02
3.972724452614784241e-02
-2.718620561063289642e-02
-5.768585950136184692e-03
-1.392786763608455658e-02
2.106380276381969452e-02
-3.499594703316688538e-02
-2.372173592448234558e-02
-4.466310143470764160e-02
2.622858248651027679e-02
-4.911780357360839844e-02
-9.025667794048786163e-03
-5.484300479292869568e-02
-3.116610459983348846e-02
-2.948611602187156677e-02
-2.258818782866001129e-02
3.379409201443195343e-03
3.990244120359420776e-02
3.733925521373748779e-02
1.621202193200588226e-02
3.506675362586975098e-02
-3.090359084308147430e-02
-1.619507558643817902e-02
-3.652220219373703003e-02
-4.226346313953399658e-02
2.275208011269569397e-02
-1.087825149297714233e-01
-3.533739596605300903e-02
-1.496345251798629761e-01
-5.671306326985359192e-02
-7.349687814712524414e-02
-5.285788699984550476e-02
-3.015654534101486206e-02
-9.572105109691619873e-02
-7.358681876212358475e-03
-9.106905199587345123e-03
2.182932570576667786e-02
-1.228793989866971970e-02
-6.528437137603759766e-02
5.273187160491943359e-02
1.168167777359485626e-02
-9.738213568925857544e-02
2.048442885279655457e-02
-4.269151389598846436e-02
-5.158523842692375183e-02
-5.667738616466522217e-02
-3.745295107364654541e-02
-7.824993878602981567e-02
3.258867934346199036e-02
-3.488916158676147461e-02
6.203944236040115356e-02
1.694791950285434723e-02
1.228818763047456741e-02
6.452901661396026611e-02
-4.748394712805747986e-02
2.904305793344974518e-02
1.355550717562437057e-02
-4.138876497745513916e-02
-8.930586278438568115e-03
-1.059981808066368103e-02
-1.802583225071430206e-02
-3.127934411168098450e-02
-5.055421590805053711e-02
-1.671736128628253937e-02
1.204402465373277664e-02
3.626195713877677917e-02
-4.836861789226531982e-02
-8.313856087625026703e-03
-5.730389431118965149e-02
2.235600491985678673e-03
-2.361348271369934082e-02
-7.258874922990798950e-02
-1.724415831267833710e-02
-5.780576914548873901e-02
-4.990974813699722290e-02
-1.831694878637790680e-02
-1.638696156442165375e-02
9.467150084674358368e-04
-1.630055345594882965e-02
4.952760785818099976e-02
5.515933502465486526e-03
5.160894710570573807e-03
-8.846423029899597168e-02
3.008986450731754303e-02
-4.354809410870075226e-03
-1.326903514564037323e-02
-2.097094058990478516e-02
3.673844784498214722e-02
-1.791140995919704437e-02
-9.008175134658813477e-02
-8.894640952348709106e-02
-6.521026790142059326e-02
1.308343373239040375e-02
-5.807460099458694458e-02
-2.199969813227653503e-02
6.993688642978668213e-02
-1.474571507424116135e-02
6.266328692436218262e-02
1.211822382174432278e-03
-1.274111494421958923e-02
-4.551602154970169067e-02
-6.687108427286148071e-02
2.696926519274711609e-02
-4.672977142035961151e-03
-8.135481178760528564e-02
-1.113631725311279297e-01
-2.296785078942775726e-02
4.713476076722145081e-02
-1.028314158320426941e-01
-7.604642212390899658e-02
-1.258787978440523148e-02
2.576791681349277496e-02
-9.085351228713989258e-02
-2.109058760106563568e-02
6.042495369911193848e-02
-9.077117592096328735e-02
-5.177829787135124207e-02
-2.329416945576667786e-02
-4.295526072382926941e-02
3.259053081274032593e-02
5.295863375067710876e-02
-3.850924596190452576e-02
-1.056466922163963318e-01
3.966387521359138191e-05
-1.089532300829887390e-01
-9.338793158531188965e-02
-6.659492850303649902e-02
-3.481556847691535950e-02
1.062920689582824707e-02
2.997119352221488953e-02
9.111383697018027306e-04
-2.255478128790855408e-02
5.027680844068527222e-02
-4.343009367585182190e-02
3.216202184557914734e-02
2.698662132024765015e-02
3.296503052115440369e-02
-4.132420569658279419e-02
-4.208993911743164062e-02
2.123784087598323822e-02
-1.215230952948331833e-02
-2.281573228538036346e-02
-3.181640291586518288e-03
7.040058821439743042e-02
1.006242912262678146e-02
-7.391791790723800659e-02
-3.258000593632459641e-03
3.565092384815216064e-02
-4.692949727177619934e-02
-2.455707266926765442e-02
1.595546118915081024e-02
-1.457490473985671997e-01
-4.638684540987014771e-02
-5.842982232570648193e-02
-1.582881435751914978e-02
4.537846520543098450e-02
2.992395078763365746e-03
2.168599888682365417e-02
-8.907570689916610718e-02
-4.457587376236915588e-02
-9.106916934251785278e-02
3.763335198163986206e-02
-3.263269364833831787e-02
-1.397762298583984375e-01
-7.177705317735671997e-02
2.102514170110225677e-02
-4.569333419203758240e-02
-2.330337092280387878e-02
-1.418614666908979416e-02
-8.571743965148925781e-02
3.663346916437149048e-02
1.967888325452804565e-02
5.593276396393775940e-02
-5.620307102799415588e-02
-5.762760713696479797e-02
-6.432250887155532837e-02
-8.406329154968261719e-02
-7.040634751319885254e-02
1.201109774410724640e-02
-2.108228765428066254e-02
2.298857085406780243e-03
1.430740766227245331e-02
5.914286896586418152e-02
-1.260079350322484970e-02
-2.163817919790744781e-02
2.528647333383560181e-02
2.210031816503033042e-04
4.999581351876258850e-02
-4.147330671548843384e-02
-1.948686502873897552e-02
-4.846307635307312012e-02
-5.035284534096717834e-02
1.154734403826296329e-03
2.809592895209789276e-02
-5.953126028180122375e-02
-4.096487537026405334e-02
-1.634275540709495544e-02
-2.239948324859142303e-02
-4.371455311775207520e-02
-2.729627862572669983e-02
-1.173363998532295227e-02
7.003211230039596558e-02
5.083060637116432190e-02
2.890893444418907166e-02
-9.138233214616775513e-02
1.014931593090295792e-02
-1.101239025592803955e-02
-3.692233934998512268e-02
-3.636743500828742981e-02
1.561126112937927246e-02
5.526706203818321228e-02
-1.615091785788536072e-02
-6.885712593793869019e-02
8.272357285022735596e-03
-3.732564672827720642e-02
-4.896208271384239197e-02
-4.478066042065620422e-02
-3.590416535735130310e-02
4.822432994842529297e-03
-2.605909854173660278e-02
-5.039386823773384094e-02
-5.526570230722427368e-02
4.452677071094512939e-02
-2.671860158443450928e-02
-2.216431125998497009e-02
-9.530602954328060150e-03
2.020075730979442596e-02
-4.232076182961463928e-02
-5.623148754239082336e-02
-3.595947474241256714e-02
-9.330648183822631836e-02
5.708523467183113098e-02
-4.412976279854774475e-02
-1.470107398927211761e-02
1.718175411224365234e-02
2.411350421607494354e-02
4.342910647392272949e-02
-2.932407706975936890e-02
-1.168549410067498684e-03
-4.162465408444404602e-02
-3.281784430146217346e-02
2.241578884422779083e-02
-8.827122300863265991e-02
-7.262639701366424561e-02
5.863399058580398560e-02
-1.560965180397033691e-02
-2.814812026917934418e-02
-3.873781859874725342e-02
6.387639790773391724e-02
-5.480317864567041397e-03
-4.224367439746856689e-04
-8.874582499265670776e-02
2.358084730803966522e-02
4.160238057374954224e-02
3.361541777849197388e-02
-1.009841784834861755e-01
1.006240770220756531e-02
-1.757317595183849335e-02
4.180878773331642151e-02
-8.069648593664169312e-02
6.412629783153533936e-02
-4.245638474822044373e-02
3.906591236591339111e-02
-7.830017060041427612e-02
-2.076093107461929321e-01
-5.561405047774314880e-02
-5.083696544170379639e-02
-4.124583303928375244e-02
-3.986769588664174080e-04
3.115343861281871796e-02
-8.076793514192104340e-03
-5.183738470077514648e-02
-2.774993702769279480e-02
8.632443845272064209e-02
-7.687860727310180664e-02
-3.678324818611145020e-02
5.200031399726867676e-02
8.029553107917308807e-03
-2.575960010290145874e-02
4.545152559876441956e-02
2.588359266519546509e-02
6.669304333627223969e-03
-1.487455368041992188e-01
2.039649896323680878e-02
-1.291990131139755249e-01
-2.282226271927356720e-02
6.592328846454620361e-02
2.048922702670097351e-02
5.288718733936548233e-03
8.629566058516502380e-03
1.553551701363176107e-04
4.016836732625961304e-02
-1.497673243284225464e-02
2.964172745123505592e-03
-1.086217463016510010e-01
-5.946244671940803528e-02
-2.281489223241806030e-02
-1.260065734386444092e-01
4.686387255787849426e-02
2.870520809665322304e-03
-9.056825935840606689e-02
-2.397617325186729431e-03
-1.134277135133743286e-01
-1.313738524913787842e-01
-8.157780766487121582e-02
1.696492917835712433e-02
6.543797254562377930e-02
2.549614571034908295e-02
-1.873521357774734497e-01
-5.916723981499671936e-02
1.341877970844507217e-02
3.589861840009689331e-02
6.883624196052551270e-02
4.260982945561408997e-02
-6.788365542888641357e-02
5.094630643725395203e-02
3.397098556160926819e-02
5.093820765614509583e-02
-3.956555854529142380e-03
1.380108203738927841e-02
6.776713300496339798e-03
2.308467589318752289e-02
6.131208315491676331e-02
-5.706919357180595398e-02
5.353693664073944092e-02
-2.687268517911434174e-02
-2.684313431382179260e-02
-5.165756493806838989e-02
-2.569773641880601645e-04
3.777042403817176819e-02
-5.593535024672746658e-03
-4.847025126218795776e-02
-6.109507009387016296e-02
8.032903820276260376e-02
-2.247128821909427643e-02
-1.302210092544555664e-01
-1.312933582812547684e-02
-2.020132541656494141e-02
7.487457990646362305e-02
-2.999062277376651764e-02
-3.007994405925273895e-02
-1.196507737040519714e-02
6.505978852510452271e-02
-6.164504215121269226e-02
9.478247724473476410e-03
2.818174101412296295e-02
-2.950303629040718079e-02
3.162397816777229309e-02
-2.977048605680465698e-02
-8.875424414873123169e-02
-5.803605541586875916e-02
-1.787690073251724243e-02
-6.881854683160781860e-02
5.816577747464179993e-02
1.327027976512908936e-01
5.993522331118583679e-02
5.997132044285535812e-03
2.133369818329811096e-02
-5.623985454440116882e-02
3.252341598272323608e-02
-4.400402307510375977e-02
-9.114800952374935150e-03
-1.027848348021507263e-01
-8.946791291236877441e-03
-3.067854326218366623e-03
4.971132799983024597e-02
-7.759042829275131226e-02
-2.392460405826568604e-02
5.649188533425331116e-02
-1.983226835727691650e-01
8.941753953695297241e-02
-5.380917713046073914e-02
-7.403539866209030151e-02
-2.241176180541515350e-02
4.822157695889472961e-02
6.230121478438377380e-02
4.788602888584136963e-02
2.340656891465187073e-02
-1.092200428247451782e-01
1.101035531610250473e-02
2.459908649325370789e-02
-1.997919976711273193e-01
9.342183917760848999e-02
-1.319766417145729065e-02
-9.731598198413848877e-02
1.548984739929437637e-02
-4.368573799729347229e-02
5.797519162297248840e-02
-8.292042650282382965e-03
6.106696277856826782e-02
-2.472459711134433746e-02
-5.661587789654731750e-02
4.818318784236907959e-02
-4.561945423483848572e-02
-5.145581811666488647e-02
7.494372874498367310e-02
6.067754584364593029e-04
-3.834324702620506287e-02
-1.540154777467250824e-02
-6.952226907014846802e-02
5.419041588902473450e-02
-3.340239822864532471e-02
1.676598563790321350e-02
2.989579364657402039e-02
-2.422571741044521332e-02
-3.610605746507644653e-02
4.109788686037063599e-02
-1.155516654253005981e-01
-1.142888609319925308e-02
-9.118992835283279419e-02
-4.953198879957199097e-02
-8.616857975721359253e-02
-1.695508696138858795e-02
-5.707557499408721924e-02
-5.544466897845268250e-02
2.704502083361148834e-02
1.839720830321311951e-02
-4.958803206682205200e-02
-7.684352248907089233e-02
-8.539639413356781006e-02
7.428202778100967407e-03
-2.982554398477077484e-02
1.011511981487274170e-01
-5.889976769685745239e-02
-1.573490649461746216e-01
1.626112381927669048e-03
-5.269639939069747925e-02
2.079763077199459076e-02
-3.652915731072425842e-02
-1.080140694975852966e-01
1.680929027497768402e-02
2.586109004914760590e-02
-4.097662866115570068e-03
-8.515159599483013153e-03
-5.248440429568290710e-03
4.949769750237464905e-02
-4.671398550271987915e-03
-2.916413173079490662e-02
4.038075357675552368e-02
-6.018679961562156677e-02
-1.368134655058383942e-02
1.515415031462907791e-02
-5.017445236444473267e-02
2.062510699033737183e-02
-3.442740440368652344e-02
-4.981938377022743225e-02
-6.684517860412597656e-02
-5.047576967626810074e-03
2.733098156750202179e-02
1.730569079518318176e-02
-1.796090416610240936e-02
-1.149920225143432617e-01
3.751635923981666565e-02
2.375118806958198547e-02
-4.692956060171127319e-02
-7.363068405538797379e-03
1.509274393320083618e-01
3.954628854990005493e-02
-4.271044209599494934e-02
7.578812539577484131e-02
-8.868507295846939087e-02
-2.200384065508842468e-02
9.310784190893173218e-02
-8.024941384792327881e-02
-6.835627555847167969e-02
-1.761337555944919586e-02
-5.492650903761386871e-03
1.696576178073883057e-02
-7.680501788854598999e-02
-5.471253395080566406e-02
7.612783461809158325e-02
-1.652657426893711090e-02
-4.672253876924514771e-02
4.461283981800079346e-02
-7.221337407827377319e-02
9.355439804494380951e-03
-1.886014044284820557e-01
-3.527524322271347046e-02
1.253724396228790283e-01
-1.992431841790676117e-02
-2.044277191162109375e-01
-3.474624082446098328e-02
4.236800223588943481e-02
-2.808960899710655212e-02
3.398122265934944153e-02
7.417885214090347290e-02
1.268472149968147278e-02
4.872022196650505066e-02
-5.421495996415615082e-03
-1.162648294121026993e-02
-6.618158519268035889e-02
4.614261165261268616e-02
-1.602491480298340321e-03
1.870496571063995361e-02
1.557542197406291962e-02
6.304958462715148926e-02
1.061568129807710648e-02
-9.992496343329548836e-04
1.672571338713169098e-02
-1.821363158524036407e-02
7.749477028846740723e-02
-7.015945017337799072e-02
-4.529407620429992676e-02
-1.044768095016479492e-01
8.426075428724288940e-02
-4.674399271607398987e-03
1.793387532234191895e-02
-6.891319155693054199e-02
-4.248341545462608337e-02
4.427666589617729187e-02
-2.838459238409996033e-02
-3.060959279537200928e-02
1.380825601518154144e-02
1.217715255916118622e-02
-1.291653141379356384e-03
-4.168199002742767334e-02
5.932987481355667114e-02
5.915474612265825272e-03
3.701537474989891052e-02
-4.758307710289955139e-02
-1.982733905315399170e-01
1.900977082550525665e-02
6.079550832509994507e-03
2.948962524533271790e-02
-2.104076892137527466e-01
5.798738077282905579e-02
8.464120328426361084e-02
7.198273390531539917e-02
2.172400243580341339e-02
1.274999678134918213e-01
-8.300920575857162476e-02
-3.097368404269218445e-02
7.793635595589876175e-03
-6.011439952999353409e-03
-8.534055203199386597e-02
-3.304776921868324280e-02
2.261713519692420959e-02
-1.053836047649383545e-01
-1.909434199333190918e-01
8.696090430021286011e-02
-3.029143810272216797e-01
-6.237208377569913864e-03
5.668007582426071167e-02
-4.792872443795204163e-02
-4.066167026758193970e-02
1.023793071508407593e-01
-5.800738930702209473e-03
4.399221390485763550e-02
5.421590432524681091e-02
-8.704274147748947144e-02
-1.260341256856918335e-01
-1.217853650450706482e-01
1.024574600160121918e-02
-1.441539227962493896e-01
-1.130556613206863403e-01
-4.214267060160636902e-02
-9.032769501209259033e-02
-2.573997341096401215e-02
-1.183889359235763550e-01
-1.608860939741134644e-01
-4.456269741058349609e-02
9.164351969957351685e-03
9.352745860815048218e-02
4.003740847110748291e-02
-1.169046014547348022e-01
-5.334640294313430786e-02
4.822665452957153320e-02
2.527281828224658966e-02
6.316468864679336548e-02
6.985312700271606445e-02
-1.827830225229263306e-01
-6.819619983434677124e-02
-1.097782999277114868e-01
4.168882966041564941e-02
-6.846939772367477417e-02
-1.220160946249961853e-01
-4.196706227958202362e-03
-9.367664158344268799e-02
-5.892367660999298096e-02
9.373860061168670654e-02
5.448383092880249023e-02
8.533457294106483459e-03
-4.301680624485015869e-02
-5.558973923325538635e-02
5.034170672297477722e-02
-1.778981834650039673e-02
-1.130088325589895248e-02
-5.877173319458961487e-02
3.933742176741361618e-03
1.158526819199323654e-02
1.198258623480796814e-02
-3.272177577018737793e-01
-2.048049867153167725e-02
-8.540578931570053101e-02
3.852656483650207520e-02
-1.878484338521957397e-02
1.060518156737089157e-02
-3.091979026794433594e-02
1.345989555120468140e-01
-7.207989692687988281e-02
-7.562622893601655960e-03
-9.919762611389160156e-02
-3.807568922638893127e-02
8.090689778327941895e-02
2.737218327820301056e-02
-9.726586937904357910e-02
3.675099834799766541e-02
-3.450689837336540222e-02
-4.970677196979522705e-03
7.239147671498358250e-04
8.700213581323623657e-02
9.579749405384063721e-02
-4.065875336527824402e-02
1.633609533309936523e-01
-1.072820127010345459e-01
-4.706650972366333008e-03
8.040933310985565186e-02
5.409037694334983826e-02
-1.548667550086975098e-01
1.293842773884534836e-02
-1.082318462431430817e-02
1.115334928035736084e-01
8.643837645649909973e-03
-1.216102205216884613e-02
-4.008319810964167118e-04
-3.086235225200653076e-01
8.828020840883255005e-02
4.298453032970428467e-02
-5.151676759123802185e-02
-1.823140308260917664e-02
1.046380586922168732e-02
7.603505998849868774e-02
3.586257994174957275e-02
-7.218736410140991211e-02
1.224931795150041580e-03
-4.935631528496742249e-02
3.887848556041717529e-02
-5.033611059188842773e-01
-9.729320555925369263e-02
1.015895754098892212e-01
-1.029123291373252869e-01
-3.073478490114212036e-02
-2.200838178396224976e-02
5.084450915455818176e-02
3.834378719329833984e-02
7.423989474773406982e-02
-6.782670505344867706e-03
-4.595616459846496582e-02
1.050687879323959351e-01
-1.803485304117202759e-02
-1.944301277399063110e-02
5.826025456190109253e-02
4.833991080522537231e-02
-8.657870814204216003e-03
-4.718777257949113846e-03
-1.199394166469573975e-01
1.205874048173427582e-02
-7.853585993871092796e-04
-7.991003990173339844e-02
1.119402870535850525e-01
-3.631523344665765762e-03
-4.345148429274559021e-02
-9.538606740534305573e-03
-2.230610847473144531e-01
-4.093343764543533325e-02
-6.211891770362854004e-02
-3.206226974725723267e-02
-6.758586317300796509e-02
-9.443783015012741089e-02
-5.134613811969757080e-02
-2.581316605210304260e-02
6.536707282066345215e-02
-1.344799716025590897e-02
-4.378315061330795288e-02
-1.286538224667310715e-02
-3.316307440400123596e-02
6.375376833602786064e-04
-9.277393668889999390e-02
8.342082053422927856e-02
-4.183050245046615601e-02
-1.689911633729934692e-01
1.355025768280029297e-01
-3.407045081257820129e-02
-3.890864551067352295e-02
2.180633135139942169e-02
-9.444324672222137451e-02
-4.217749834060668945e-02
-2.202257141470909119e-02
-5.710161849856376648e-02
-1.738190278410911560e-02
3.963259235024452209e-02
7.052242755889892578e-02
1.029068604111671448e-01
-3.606753796339035034e-02
6.422526203095912933e-03
-7.817430049180984497e-02
4.471204709261655807e-03
-2.268922049552202225e-03
8.003254234790802002e-02
-1.493742968887090683e-02
-7.378370314836502075e-02
-5.066876485943794250e-02
-9.874200448393821716e-03
-3.390706703066825867e-02
-9.877687692642211914e-02
-3.397586056962609291e-03
1.099920924752950668e-02
-3.731224685907363892e-02
-3.574542328715324402e-02
4.938610643148422241e-02
-1.717193797230720520e-02
-3.008674271404743195e-02
-5.761054530739784241e-02
-3.404273884370923042e-03
3.593236324377357960e-04
8.416419476270675659e-02
-1.855883151292800903e-01
-7.971062511205673218e-02
-2.917156741023063660e-02
2.794578857719898224e-02
9.835495054721832275e-02
-6.024888902902603149e-02
-3.188504651188850403e-02
2.815743722021579742e-02
1.962561719119548798e-02
-5.734595656394958496e-02
-4.576679319143295288e-02
-4.118290171027183533e-02
-3.273556381464004517e-02
3.433771803975105286e-02
5.130124744027853012e-03
7.086908817291259766e-02
-2.390348352491855621e-02
-1.294792164117097855e-02
2.549177501350641251e-03
2.634009346365928650e-02
-1.757989972829818726e-01
-1.230502352118492126e-01
2.748859860002994537e-02
-3.967618569731712341e-02
8.609587699174880981e-02
-3.290012106299400330e-02
-6.896581500768661499e-02
-5.102666467428207397e-02
3.857926651835441589e-02
-4.380787536501884460e-02
1.863913796842098236e-02
-6.363486498594284058e-02
-1.663319207727909088e-02
-3.114693984389305115e-02
-6.279961671680212021e-03
-2.477997168898582458e-02
-2.066133357584476471e-02
-9.302558004856109619e-02
1.637281291186809540e-02
-1.085517629981040955e-01
-8.161257952451705933e-02
-1.112116351723670959e-01
-3.896251693367958069e-02
-3.355477377772331238e-02
-3.719482943415641785e-02
1.575343906879425049e-01
8.256591856479644775e-02
1.222714409232139587e-02
-1.061249598860740662e-01
-4.329241812229156494e-02
-8.145613223314285278e-02
7.007960695773363113e-03
-2.520172111690044403e-02
1.390000283718109131e-01
-9.063959121704101562e-02
-1.277599036693572998e-01
-6.596314162015914917e-02
6.807576119899749756e-02
3.805534169077873230e-02
-4.611938074231147766e-02
-2.489172071218490601e-01
6.151783838868141174e-02
-8.132905513048171997e-02
-2.100498229265213013e-02
-4.383571073412895203e-02
-2.326842583715915680e-02
-8.494205027818679810e-02
-1.132331639528274536e-01
-2.447020821273326874e-02
-3.639997914433479309e-02
6.968299392610788345e-03
1.123280152678489685e-01
-1.096978038549423218e-01
1.195917278528213501e-02
-6.928560137748718262e-02
-2.273963764309883118e-02
-6.366311013698577881e-02
7.174531929194927216e-03
-7.810295559465885162e-03
1.207267194986343384e-01
-2.207181155681610107e-01
-1.428036671131849289e-02
-1.107236091047525406e-02
6.226889416575431824e-02
3.711827099323272705e-03
-1.578765176236629486e-02
-8.926718682050704956e-02
-5.853658914566040039e-02
9.071360528469085693e-02
-8.812958747148513794e-02
-6.836842745542526245e-02
-1.933840103447437286e-03
-8.002418279647827148e-02
-1.516286730766296387e-01
-1.884155906736850739e-02
-2.539795637130737305e-02
8.807736448943614960e-03
1.446679048240184784e-02
5.273936782032251358e-03
9.463495574891567230e-03
-1.731267385184764862e-02
-7.449106872081756592e-02
-9.479492902755737305e-03
2.638066932559013367e-02
-1.592316627502441406e-01
-2.723100036382675171e-02
3.616192191839218140e-02
9.597024880349636078e-03
2.011094801127910614e-02
-1.029532104730606079e-01
-2.843323163688182831e-02
4.236966371536254883e-02
1.586079038679599762e-02
8.941762149333953857e-03
1.293196436017751694e-02
-8.387832902371883392e-03
-4.283512942492961884e-03
8.029226213693618774e-02
-3.200543299317359924e-02
2.948394976556301117e-02
4.749792814254760742e-02
-5.472501367330551147e-02
6.762179732322692871e-02
-2.889880910515785217e-02
-1.718113012611865997e-02
-2.189816161990165710e-02
-6.679949164390563965e-02
-2.262997254729270935e-02
4.471369460225105286e-02
2.110730856657028198e-02
3.547022119164466858e-02
-1.457291990518569946e-01
1.405289471149444580e-01
-7.627490162849426270e-02
-6.541382521390914917e-02
4.331945255398750305e-02
-3.169923275709152222e-02
-5.851953849196434021e-02
4.391380585730075836e-03
9.519372880458831787e-02
-6.698183715343475342e-03
1.246490050107240677e-02
5.391706526279449463e-02
9.012699127197265625e-02
5.056755989789962769e-02
-2.514497190713882446e-02
-9.607197344303131104e-02
-2.832889556884765625e-02
-5.618005618453025818e-02
5.664776265621185303e-02
-9.028270840644836426e-02
-2.059392817318439484e-02
-1.287283748388290405e-01
7.529901713132858276e-02
8.102253079414367676e-02
-1.035801395773887634e-01
-7.388041913509368896e-02
-2.701367437839508057e-01
-1.711004972457885742e-02
-6.791325658559799194e-02
-1.215898171067237854e-01
-1.549749225378036499e-01
-8.092885464429855347e-02
-1.778850331902503967e-02
-1.953889578580856323e-01
-9.569826722145080566e-02
6.137574091553688049e-02
-2.817738614976406097e-02
-6.728886812925338745e-02
6.239108741283416748e-03
-9.840045124292373657e-02
2.207552641630172729e-02
-6.722360104322433472e-02
1.585659570991992950e-02
-1.424926519393920898e-01
1.792681217193603516e-02
2.083382196724414825e-02
-6.421523541212081909e-02
-1.784048080444335938e-01
-1.044607758522033691e-01
-6.929031759500503540e-02
-1.453208271414041519e-02
-2.240484207868576050e-02
-1.268242299556732178e-02
4.722511023283004761e-02
-4.680757969617843628e-02
-9.002333879470825195e-02
2.563772723078727722e-02
3.374755382537841797e-02
-6.697820033878087997e-03
-3.381863236427307129e-02
1.920275017619132996e-02
4.069221392273902893e-02
9.545404464006423950e-03
3.677188232541084290e-02
-4.158008843660354614e-02
-1.311848964542150497e-02
3.106778115034103394e-02
1.326508820056915283e-01
1.031862124800682068e-01
-2.872607111930847168e-02
-3.270240128040313721e-02
4.644829407334327698e-02
-5.185662955045700073e-02
-5.253246426582336426e-02
-5.042006820440292358e-02
-2.702292986214160919e-02
1.251503266394138336e-02
-1.598286256194114685e-02
3.962522372603416443e-02
-4.436748474836349487e-02
-1.101174280047416687e-01
-1.008057221770286560e-01
-5.826063454151153564e-02
6.026305258274078369e-02
-3.066701292991638184e-01
3.515890240669250488e-02
3.341168165206909180e-02
-3.566164523363113403e-02
-3.958965092897415161e-02
-9.846181422472000122e-02
3.652654215693473816e-02
-1.578392460942268372e-02
-2.576224133372306824e-02
1.852710731327533722e-02
3.074693027883768082e-03
8.072648197412490845e-03
6.062635406851768494e-02
-3.153087198734283447e-02
1.930650137364864349e-02
-7.098200917243957520e-02
1.377800852060317993e-01
-3.621760755777359009e-02
1.436344068497419357e-02
-4.572175443172454834e-02
-3.017806261777877808e-02
-5.710031837224960327e-02
4.577419906854629517e-02
-5.231685563921928406e-02
2.053609676659107208e-02
-4.199293442070484161e-03
5.861119925975799561e-02
-1.278702765703201294e-01
-1.297927554696798325e-02
-8.905763737857341766e-03
-8.014665916562080383e-03
-2.062830701470375061e-02
-4.394394531846046448e-02
-1.676234602928161621e-02
-9.328807145357131958e-02
-1.233522295951843262e-01
-2.928288839757442474e-02
-6.214436516165733337e-02
2.769673615694046021e-02
-7.147706300020217896e-02
-4.673299193382263184e-02
-9.601631201803684235e-03
2.070287056267261505e-02
6.188656203448772430e-03
7.403276115655899048e-02
-1.804928332567214966e-01
-8.419501781463623047e-02
2.290391828864812851e-03
-7.359632104635238647e-02
7.005711551755666733e-03
2.683179453015327454e-02
-2.428026637062430382e-03
-2.561827935278415680e-02
-9.427723288536071777e-02
-6.059052050113677979e-02
2.186349965631961823e-02
4.377548024058341980e-02
-9.024831652641296387e-02
-4.411619529128074646e-02
-1.391232311725616455e-01
-6.272282451391220093e-02
-2.394446730613708496e-02
2.682996913790702820e-02
1.244214829057455063e-02
-4.232526570558547974e-02
-2.534556016325950623e-02
4.910588636994361877e-02
-3.029782138764858246e-02
3.408024087548255920e-02
1.020948169752955437e-03
-1.018653996288776398e-02
-3.218263387680053711e-02
-6.153965368866920471e-02
2.769083715975284576e-03
-6.690562516450881958e-02
3.270664811134338379e-02
-2.642565406858921051e-02
2.361742593348026276e-02
4.363568127155303955e-02
5.590512976050376892e-02
4.520533606410026550e-02
-1.976306363940238953e-02
2.026363834738731384e-02
-9.082281030714511871e-03
2.917632274329662323e-02
4.774781689047813416e-02
-1.798543184995651245e-01
-8.941498398780822754e-02
4.177592694759368896e-02
8.773702383041381836e-02
7.504943758249282837e-02
-2.511545456945896149e-02
4.446750506758689880e-03
7.381573319435119629e-02
-8.769460022449493408e-02
-4.655824229121208191e-02
7.060921937227249146e-02
3.280510753393173218e-02
-2.277497388422489166e-02
-3.800553455948829651e-02
-9.848858416080474854e-02
-4.019214957952499390e-02
8.139139413833618164e-02
-1.074950173497200012e-01
-1.210026443004608154e-01
5.893235653638839722e-02
6.589104980230331421e-02
-8.042307943105697632e-02
7.845315150916576385e-03
-6.434143334627151489e-02
-4.884204361587762833e-03
3.936743363738059998e-02
-7.492729928344488144e-03
6.358829885721206665e-02
1.460556685924530029e-02
6.010673567652702332e-02
-3.725907951593399048e-02
-6.439585983753204346e-02
2.061173506081104279e-02
-2.127485536038875580e-02
-1.918340027332305908e-01
1.560195814818143845e-02
3.833272680640220642e-02
-1.345364749431610107e-01
-3.513411059975624084e-02
2.697425335645675659e-02
-8.702163398265838623e-02
-1.392032019793987274e-02
7.788858376443386078e-03
-1.510810703039169312e-01
-9.759201854467391968e-02
-2.960653975605964661e-02
-8.171464502811431885e-02
2.078209072351455688e-02
3.411874920129776001e-02
-7.011597603559494019e-02
-6.065020710229873657e-02
2.082875370979309082e-02
3.412803635001182556e-02
-5.401111021637916565e-02
-3.293836861848831177e-02
-7.909534126520156860e-02
-2.242356352508068085e-02
4.210970550775527954e-02
-5.801223218441009521e-02
-1.635822653770446777e-01
-2.704676054418087006e-02
-1.549630053341388702e-02
4.044211935251951218e-03
3.097268007695674896e-02
3.402526304125785828e-02
-1.972647849470376968e-03
1.461330614984035492e-02
1.479587703943252563e-02
-1.850196719169616699e-02
2.793639712035655975e-02
-1.405526045709848404e-02
-2.750754915177822113e-02
-6.081819906830787659e-02
2.539898641407489777e-02
1.769686490297317505e-02
-2.021868340671062469e-02
9.437275119125843048e-03
-2.437190897762775421e-02
-5.823269858956336975e-02
-9.760669432580471039e-03
2.175933308899402618e-02
-3.931702300906181335e-02
-9.158860892057418823e-02
-1.052940934896469116e-01
8.209557086229324341e-02
-1.526675969362258911e-01
-3.613312169909477234e-02
-1.101329326629638672e-01
8.442986756563186646e-02
6.305636465549468994e-02
1.686091721057891846e-02
-8.073100447654724121e-02
-1.272236853837966919e-01
6.041004508733749390e-02
-5.950380861759185791e-02
-1.052043214440345764e-01
-2.003349512815475464e-01
-2.148611545562744141e-01
-1.635307669639587402e-01
4.511880502104759216e-02
3.186842193827033043e-03
3.917709924280643463e-03
-8.090822398662567139e-02
8.033740520477294922e-02
-2.878661081194877625e-02
1.238102465867996216e-02
-6.480074673891067505e-02
2.085969224572181702e-02
-7.227031141519546509e-02
1.001024339348077774e-02
4.851439595222473145e-02
-2.631443738937377930e-02
5.955384671688079834e-02
-2.074941806495189667e-02
3.724633529782295227e-02
1.133077405393123627e-02
-1.032479554414749146e-01
4.111685790121555328e-03
1.266605406999588013e-02
1.578838974237442017e-01
1.680740527808666229e-02
1.002184897661209106e-01
-3.547926619648933411e-02
1.486898213624954224e-02
-4.295870661735534668e-02
1.150191854685544968e-02
1.033113617449998856e-02
-5.173860117793083191e-02
-5.962362140417098999e-02
-4.781984165310859680e-02
-4.237756878137588501e-02
-7.934812456369400024e-02
9.689251892268657684e-03
8.720938861370086670e-02
-1.789039373397827148e-02
-4.420522972941398621e-02
-3.440304845571517944e-02
-6.380911450833082199e-03
-6.793259084224700928e-02
-2.658716402947902679e-02
4.427467286586761475e-02
3.441309183835983276e-02
-3.760092705488204956e-02
5.977313593029975891e-02
3.106396272778511047e-02
-3.232542658224701881e-03
-3.764472156763076782e-02
4.273300617933273315e-02
-7.073574513196945190e-02
1.326062623411417007e-02
2.417181618511676788e-02
-4.439225420355796814e-02
-1.482474356889724731e-01
-1.725791841745376587e-01
-1.007128134369850159e-01
-9.973879158496856689e-02
3.020055219531059265e-02
5.458412319421768188e-02
-2.944971807301044464e-02
-2.777474559843540192e-02
-6.357001513242721558e-02
-3.083311952650547028e-02
-1.136904116719961166e-02
6.413771957159042358e-02
-8.936046622693538666e-03
9.973556548357009888e-02
-9.617108106613159180e-02
-1.610120641998946667e-03
-3.852735087275505066e-02
-6.259910017251968384e-02
4.687483608722686768e-02
-2.009394019842147827e-01
-3.753696009516716003e-02
7.668817788362503052e-02
-2.556109987199306488e-02
-5.332857370376586914e-02
-2.552622742950916290e-02
-1.175298239104449749e-03
-9.309278428554534912e-02
-9.519940242171287537e-03
1.689113862812519073e-02
-2.555930241942405701e-02
-5.613885819911956787e-02
-4.083502292633056641e-02
-3.318142518401145935e-02
9.206470102071762085e-03
-1.411130577325820923e-01
8.758825249969959259e-03
-7.493309676647186279e-02
-2.909659966826438904e-02
-4.883217439055442810e-02
5.619679391384124756e-02
-6.203093752264976501e-02
9.346596896648406982e-02
-1.529544442892074585e-01
-1.191446185111999512e-02
-2.378778904676437378e-02
1.621814328245818615e-03
-6.805368512868881226e-02
3.352090483531355858e-03
-6.494491361081600189e-03
-2.057353965938091278e-03
-3.966877982020378113e-02
-2.357884682714939117e-02
-7.377931475639343262e-02
6.568126846104860306e-03
-6.191465072333812714e-03
5.977681837975978851e-03
3.217587247490882874e-02
5.109542980790138245e-02
-4.417764395475387573e-02
5.324026569724082947e-02
6.074266135692596436e-02
1.444919127970933914e-02
5.083115771412849426e-02
4.435582458972930908e-02
-1.605509966611862183e-02
-6.807973235845565796e-02
2.226744592189788818e-02
-4.582875967025756836e-02
6.255588959902524948e-03
3.678909316658973694e-02
3.008070588111877441e-02
-2.817141124978661537e-03
-3.550962358713150024e-02
4.385408386588096619e-02
1.270359568297863007e-02
2.462762966752052307e-02
4.281194135546684265e-02
3.677869960665702820e-02
-2.608909830451011658e-02
-4.301087558269500732e-02
6.022484600543975830e-02
-1.853136927820742130e-03
-1.969528943300247192e-02
3.159053623676300049e-02
5.044367164373397827e-02
1.569287665188312531e-02
2.685862779617309570e-02
-4.967454355210065842e-03
3.699328005313873291e-02
-3.935151174664497375e-02
-4.069858044385910034e-02
-1.195352803915739059e-02
-2.235388755798339844e-02
3.011023625731468201e-02
-2.993605099618434906e-02
1.102384761907160282e-03
-3.557619079947471619e-02
-2.266298234462738037e-02
3.879002481698989868e-02
-3.800519183278083801e-02
-1.692499779164791107e-02
6.494708359241485596e-02
-4.425895586609840393e-02
1.392637006938457489e-02
-1.140886265784502029e-02
2.159378927899524570e-04
6.019218638539314270e-02
-2.387299574911594391e-02
-3.835192322731018066e-02
-9.017215110361576080e-03
2.653720788657665253e-02
2.325966581702232361e-02
-2.066314779222011566e-02
1.030865684151649475e-02
-5.782896652817726135e-03
-3.131015226244926453e-02
3.135821223258972168e-02
-1.092148013412952423e-02
1.761777675710618496e-03
-2.619593404233455658e-02
7.309346646070480347e-02
1.343211624771356583e-02
