-6.785308569669723511e-02
-2.360383570194244385e-01
1.851836293935775757e-01
6.036938168108463287e-03
-3.887984529137611389e-02
-4.622576758265495300e-02
-1.086251512169837952e-01
4.049714654684066772e-02
7.999839633703231812e-02
-2.095203846693038940e-03
-9.123302996158599854e-02
1.043787132948637009e-02
3.521168231964111328e-02
-4.097186401486396790e-02
8.676924556493759155e-02
2.694361610338091850e-03
1.046423912048339844e-01
-1.642353236675262451e-01
5.204145237803459167e-02
9.511291980743408203e-02
4.189318418502807617e-02
-3.278483077883720398e-02
-1.895336061716079712e-01
-4.280316829681396484e-01
-2.278756052255630493e-01
-2.246381789445877075e-01
-1.837000548839569092e-01
-1.108745411038398743e-01
-1.031497120857238770e-01
-6.995370239019393921e-02
1.792559772729873657e-01
-4.482532292604446411e-02
-1.180269196629524231e-01
-3.539976105093955994e-02
-2.455378882586956024e-02
-6.152221187949180603e-02
4.469990264624357224e-03
2.264949679374694824e-02
-2.360700517892837524e-01
9.829305857419967651e-02
-1.047349423170089722e-01
-7.923740148544311523e-02
-1.285146772861480713e-01
4.638117738068103790e-03
1.621203720569610596e-01
1.536233176011592150e-04
-7.249739766120910645e-02
-3.916690498590469360e-02
-3.550073364749550819e-03
2.984515018761157990e-02
4.965818300843238831e-02
-2.245531603693962097e-02
2.599990740418434143e-02
-4.178486019372940063e-02
-9.347129613161087036e-03
-7.163764536380767822e-02
4.055215045809745789e-02
-9.360787272453308105e-02
-5.848647281527519226e-02
-2.511053979396820068e-01
1.034130156040191650e-01
-2.145875431597232819e-02
-6.893300265073776245e-02
-1.043726410716772079e-02
-1.780772358179092407e-01
-2.054407149553298950e-01
-8.381032198667526245e-02
3.842021524906158447e-02
-2.685523033142089844e-02
-7.347090542316436768e-02
-3.844932466745376587e-02
-5.631493777036666870e-02
4.980590566992759705e-02
-8.960284292697906494e-02
-3.772114515304565430e-01
7.091778516769409180e-02
-1.978303119540214539e-02
-5.053837597370147705e-02
-3.512801602482795715e-02
-1.851903498172760010e-01
-7.866468280553817749e-02
6.098960991948843002e-03
4.784524068236351013e-02
-1.307060569524765015e-01
-1.585148274898529053e-01
-1.809802502393722534e-01
-1.760474890470504761e-01
-3.440065681934356689e-01
-3.356854021549224854e-01
-3.026459366083145142e-02
7.477679103612899780e-02
2.913265861570835114e-02
-1.400841400027275085e-02
-1.390445977449417114e-01
2.115702629089355469e-01
-1.580985188484191895e-01
-7.532609254121780396e-02
-9.365690499544143677e-02
-5.367495864629745483e-02
-1.458673328161239624e-01
1.003726422786712646e-01
-3.749472796916961670e-01
-4.428277537226676941e-02
-5.383627861738204956e-02
-7.798698544502258301e-02
2.432639524340629578e-02
-6.648229807615280151e-02
-3.460509702563285828e-02
-8.700306527316570282e-03
-1.221632678061723709e-02
-8.469072729349136353e-02
-1.519580483436584473e-01
1.152837350964546204e-01
5.624005571007728577e-02
-1.161892935633659363e-01
8.643996715545654297e-02
-1.162267252802848816e-01
-8.770879358053207397e-02
-5.684563517570495605e-02
-5.177842453122138977e-02
-4.817679058760404587e-03
1.317497640848159790e-01
5.911971256136894226e-02
-9.814698994159698486e-02
-1.535437651909887791e-03
-4.991098865866661072e-02
-2.361243665218353271e-01
2.758721634745597839e-02
7.800629734992980957e-02
-6.395746488124132156e-03
-1.623045653104782104e-02
-6.077387556433677673e-02
2.218561805784702301e-02
-3.354084789752960205e-01
-3.586682304739952087e-02
-1.054285168647766113e-01
-9.411848150193691254e-03
-8.155784010887145996e-02
-1.736629456281661987e-01
-7.321624457836151123e-02
5.838072299957275391e-02
3.221101686358451843e-02
-1.532049663364887238e-02
-8.259875327348709106e-02
-9.767676889896392822e-02
-1.964530199766159058e-01
-6.875433027744293213e-02
1.443167626857757568e-01
-1.600192487239837646e-01
-1.363412886857986450e-01
-2.529338933527469635e-02
-1.952682286500930786e-01
3.253032863140106201e-01
4.290197417140007019e-02
-2.462380677461624146e-01
-1.244111731648445129e-01
-1.736059933900833130e-01
-1.535060107707977295e-01
2.762283682823181152e-01
-4.430276155471801758e-02
-5.369804054498672485e-02
-5.620354413986206055e-02
-1.591619253158569336e-01
-1.651960164308547974e-01
-1.429221481084823608e-01
-1.784269213676452637e-01
-2.623046636581420898e-01
3.851545602083206177e-02
2.964399382472038269e-02
9.727770835161209106e-02
5.934087932109832764e-02
9.281621873378753662e-02
-1.391658931970596313e-01
6.363154854625463486e-03
1.259954571723937988e-01
5.477624014019966125e-02
-3.384580090641975403e-02
-1.218122690916061401e-01
-1.077113971114158630e-01
-2.259394526481628418e-01
7.340327138081192970e-04
5.083879083395004272e-02
-2.222856320440769196e-02
-2.645540535449981689e-01
-1.141092553734779358e-01
-2.657455578446388245e-02
-2.972843684256076813e-02
-2.702412307262420654e-01
-1.557311415672302246e-02
2.374645881354808807e-02
-3.873874247074127197e-02
-1.382654812186956406e-02
-1.467459201812744141e-01
-6.078859046101570129e-02
7.555064558982849121e-02
-1.057712733745574951e-02
-1.072786003351211548e-01
1.345370896160602570e-03
1.154491081833839417e-01
3.619515150785446167e-02
-1.488966792821884155e-01
3.517287317663431168e-03
6.406526267528533936e-02
-5.360366404056549072e-02
-1.131757441908121109e-02
1.458366680890321732e-02
7.101416587829589844e-02
-4.977210983633995056e-02
-3.084778487682342529e-01
3.837425261735916138e-02
5.918590724468231201e-02
4.033112898468971252e-02
1.297826766967773438e-01
3.673176979646086693e-04
2.981615951284766197e-03
-1.609698534011840820e-01
9.011594951152801514e-02
-1.834682673215866089e-01
-1.605055294930934906e-02
-1.902287006378173828e-01
-2.511594295501708984e-01
-2.872763574123382568e-01
1.964083462953567505e-01
-3.009999357163906097e-02
-6.591949611902236938e-02
-3.383473753929138184e-01
-1.824143528938293457e-01
1.825373470783233643e-01
-1.206580549478530884e-01
-4.580560028553009033e-01
-1.617071591317653656e-02
8.912414312362670898e-02
1.458485871553421021e-01
5.457977205514907837e-02
-1.067087128758430481e-01
-2.101571112871170044e-02
-9.948792308568954468e-02
-1.372341662645339966e-01
-2.508709765970706940e-02
-1.520972549915313721e-01
1.264766603708267212e-01
-1.263668388128280640e-02
-6.337269395589828491e-02
7.729726284742355347e-02
2.746580354869365692e-02
-7.566546648740768433e-02
-3.879126533865928650e-02
1.030056998133659363e-01
4.153890535235404968e-02
-1.568159461021423340e-02
-2.263202667236328125e-01
4.885341599583625793e-02
1.900371536612510681e-02
-1.829733848571777344e-01
-9.427077323198318481e-02
-5.044776480644941330e-03
1.600423455238342285e-01
-1.490695402026176453e-02
-6.279104202985763550e-02
1.375386863946914673e-02
-8.335396647453308105e-03
-1.639267504215240479e-01
4.070078954100608826e-02
1.165465340018272400e-01
-3.734619123861193657e-03
-7.145868986845016479e-02
-1.374033372849225998e-02
-8.773257583379745483e-02
-1.038911715149879456e-01
1.863024383783340454e-01
2.853022143244743347e-02
1.618181914091110229e-01
-2.872769236564636230e-01
-6.513852626085281372e-02
-1.266713887453079224e-01
-3.833525255322456360e-02
-7.205645740032196045e-02
1.988502591848373413e-01
1.380057036876678467e-01
-4.747367277741432190e-02
2.430575788021087646e-01
2.413878738880157471e-01
1.475329790264368057e-02
1.142639070749282837e-01
9.490047395229339600e-02
1.055147498846054077e-02
-1.309111267328262329e-01
1.978833377361297607e-01
-3.429175019264221191e-01
2.273769229650497437e-01
1.351493895053863525e-01
-7.380536198616027832e-02
6.792458146810531616e-02
3.870080411434173584e-02
8.857586979866027832e-02
-5.684174299240112305e-01
9.453865885734558105e-02
2.762254476547241211e-01
-8.553513139486312866e-02
-2.446062713861465454e-01
-2.930088527500629425e-02
3.427851572632789612e-02
-5.594949051737785339e-02
1.095554009079933167e-01
-3.161924779415130615e-01
-3.669041022658348083e-02
-3.902372419834136963e-01
1.464280579239130020e-02
2.707699537277221680e-01
-3.312047719955444336e-01
8.540575951337814331e-02
1.432061493396759033e-01
-2.177896201610565186e-01
-1.669180206954479218e-02
-4.531952738761901855e-02
3.780367374420166016e-01
-5.367255955934524536e-02
-1.496409922838211060e-01
1.164377555251121521e-01
1.960039287805557251e-01
3.174255192279815674e-01
-3.863181769847869873e-01
1.656651198863983154e-01
1.515817344188690186e-01
2.407041043043136597e-01
1.322778761386871338e-01
1.849501729011535645e-01
7.723718136548995972e-02
-1.151925884187221527e-02
2.503832280635833740e-01
1.795990169048309326e-01
1.112584248185157776e-01
2.820101007819175720e-02
2.083038836717605591e-01
-1.556934416294097900e-01
2.660388313233852386e-02
8.959481865167617798e-02
8.829075843095779419e-02
-2.180298231542110443e-02
-2.671773312613368034e-03
-4.034804180264472961e-02
8.059401810169219971e-02
-1.955044083297252655e-02
6.450071930885314941e-02
3.049959987401962280e-02
2.354684919118881226e-01
-5.894353613257408142e-02
1.400690758600831032e-03
-3.259882926940917969e-01
1.072782874107360840e-01
-4.656463861465454102e-02
1.921595036983489990e-01
2.261568456888198853e-01
-1.221504509449005127e-01
4.207762479782104492e-01
3.869374990463256836e-01
-4.474697411060333252e-01
1.228760108351707458e-01
-5.058973655104637146e-02
1.202942058444023132e-01
5.218468979001045227e-02
1.981475157663226128e-03
-2.076620459556579590e-01
1.409510523080825806e-01
9.458881616592407227e-02
-4.108893871307373047e-02
3.239009976387023926e-01
1.362102925777435303e-01
-1.455765962600708008e-01
6.802707165479660034e-02
1.979146599769592285e-01
-2.038048058748245239e-01
3.059757351875305176e-01
1.069715544581413269e-01
9.879839606583118439e-03
8.859503269195556641e-02
2.528200447559356689e-01
-6.697879731655120850e-02
-1.847970634698867798e-01
3.359397649765014648e-01
-8.636500686407089233e-02
-3.191135451197624207e-02
-8.201701939105987549e-02
8.158461749553680420e-02
-1.922852247953414917e-01
-4.095489680767059326e-01
-7.666639983654022217e-02
-4.512804374098777771e-02
-2.454864419996738434e-02
8.559149689972400665e-03
6.806816160678863525e-02
-2.724749781191349030e-02
-2.561269402503967285e-01
9.139895439147949219e-02
6.613040715456008911e-02
1.057138666510581970e-01
1.948205940425395966e-02
7.127236574888229370e-02
1.266044080257415771e-01
1.072851866483688354e-01
-8.442721329629421234e-03
7.546627521514892578e-02
4.392015933990478516e-02
-1.242992803454399109e-01
-5.905916914343833923e-03
5.315899848937988281e-02
6.821799278259277344e-02
4.715286567807197571e-02
8.968862146139144897e-02
3.153558075428009033e-01
-7.966642826795578003e-02
1.529430877417325974e-02
2.993202805519104004e-01
-8.512656390666961670e-02
-5.052642151713371277e-02
-8.837347477674484253e-02
1.426848024129867554e-02
-3.392266333103179932e-01
2.067595869302749634e-01
-1.373271197080612183e-01
-1.239176169037818909e-01
2.101646177470684052e-02
-6.416179239749908447e-02
-6.429089605808258057e-02
1.681744679808616638e-02
-3.412038683891296387e-01
1.636900156736373901e-01
-1.464739739894866943e-01
-7.685685157775878906e-02
1.041789799928665161e-01
-5.802856013178825378e-02
-1.842670440673828125e-01
2.010897919535636902e-02
-2.169595360755920410e-01
3.340754285454750061e-02
5.545670166611671448e-02
1.486449390649795532e-01
-2.226788997650146484e-01
-2.424584627151489258e-01
5.824981927871704102e-01
-2.022009715437889099e-02
3.818048909306526184e-02
6.365564465522766113e-02
7.482299208641052246e-02
4.785603086929768324e-04
-1.428140401840209961e-01
5.686564743518829346e-02
8.121048659086227417e-02
2.732686139643192291e-02
-6.125889718532562256e-02
4.691388010978698730e-01
1.581774838268756866e-02
7.627574354410171509e-02
-1.415172666311264038e-01
1.217606142163276672e-01
3.246224485337734222e-03
2.140206098556518555e-02
3.908678889274597168e-02
1.969659142196178436e-02
1.018395200371742249e-01
2.089117914438247681e-01
1.043751016259193420e-01
-1.150728166103363037e-01
8.786528371274471283e-03
1.343604326248168945e-01
-3.037069737911224365e-02
-6.025883369147777557e-03
-3.772556781768798828e-02
-3.117473125457763672e-01
-8.712746948003768921e-02
8.465752005577087402e-02
1.485724598169326782e-01
-4.919763159705325961e-05
-9.999743103981018066e-02
5.487346276640892029e-02
1.911672502756118774e-01
1.602354086935520172e-02
7.475194334983825684e-02
-3.492517024278640747e-02
-2.389079891145229340e-03
6.566177122294902802e-03
3.800319433212280273e-01
-2.329058945178985596e-02
-1.944821178913116455e-01
5.483839660882949829e-02
-2.958554625511169434e-01
-1.044501289725303650e-01
6.953192502260208130e-02
-4.545480012893676758e-02
2.190657705068588257e-02
3.876168131828308105e-01
1.384516898542642593e-02
1.173949241638183594e-01
-4.527775570750236511e-02
8.551035076379776001e-02
1.673879325389862061e-01
-4.907746240496635437e-02
-3.700532019138336182e-02
-2.950990386307239532e-02
1.782180182635784149e-02
-1.966701122000813484e-03
8.979330211877822876e-02
-1.951837353408336639e-02
-4.583467170596122742e-02
8.149058371782302856e-02
-1.414918899536132812e-02
2.391352057456970215e-01
3.401457518339157104e-02
1.296124607324600220e-02
2.966363728046417236e-01
2.073746323585510254e-01
-1.037832796573638916e-01
-3.299094969406723976e-03
-7.203987985849380493e-02
6.775517016649246216e-02
5.272193625569343567e-02
-1.314254552125930786e-01
-9.904040023684501648e-03
3.482906520366668701e-02
-1.082902029156684875e-01
-1.231363192200660706e-01
1.026940625160932541e-02
9.888128191232681274e-02
8.621706813573837280e-02
-7.028405368328094482e-02
-1.519726030528545380e-02
-5.903532356023788452e-02
1.359800100326538086e-01
-1.341924220323562622e-01
1.597049646079540253e-02
-1.001269277185201645e-02
-2.341885678470134735e-02
-4.262482002377510071e-02
9.154301881790161133e-02
1.946566067636013031e-02
-1.020752191543579102e-01
-2.524827048182487488e-02
8.887960016727447510e-02
9.319573640823364258e-03
6.648292392492294312e-02
-4.432262107729911804e-02
-1.822230406105518341e-03
-2.871207296848297119e-01
-1.044842749834060669e-01
3.913528844714164734e-02
-5.675682425498962402e-02
1.945414021611213684e-02
1.133261173963546753e-01
-6.707806885242462158e-02
-1.397048234939575195e-01
1.156950835138559341e-02
-1.799315400421619415e-02
4.173694923520088196e-02
-5.821565911173820496e-02
-2.371360808610916138e-01
9.036091156303882599e-03
-3.734243288636207581e-02
-1.147274896502494812e-01
-2.341294884681701660e-01
1.813171803951263428e-02
1.008501276373863220e-02
1.397030651569366455e-01
5.127615295350551605e-03
-3.342222794890403748e-02
1.233651489019393921e-01
-2.791014686226844788e-02
6.627053767442703247e-02
-1.758675426244735718e-01
-9.230605512857437134e-02
-7.684503495693206787e-02
1.319344788789749146e-01
1.573285460472106934e-02
-1.084784418344497681e-01
9.973596781492233276e-02
-2.458384819328784943e-02
-4.827858880162239075e-02
-1.390792578458786011e-01
-6.269660592079162598e-02
-5.847979336977005005e-02
2.907495945692062378e-02
5.079730972647666931e-02
-1.430266201496124268e-01
8.963913470506668091e-02
1.305039674043655396e-01
-8.881082385778427124e-02
-4.389725998044013977e-02
-3.916773200035095215e-02
1.183417253196239471e-02
8.330452442169189453e-02
-7.102096825838088989e-02
3.187646344304084778e-02
-6.693792343139648438e-02
-8.882120251655578613e-02
-9.670080989599227905e-02
2.185221295803785324e-03
-1.088009327650070190e-01
-2.202191948890686035e-02
-9.341713041067123413e-03
5.532453954219818115e-02
2.178933285176753998e-02
-2.808747254312038422e-02
-1.453517675399780273e-01
-7.352049928158521652e-03
3.729315474629402161e-02
4.757237061858177185e-02
-1.025244891643524170e-01
-7.069901376962661743e-02
-1.412003487348556519e-01
-1.959379613399505615e-01
-1.171068102121353149e-01
-2.683117985725402832e-02
1.114764288067817688e-01
1.041135713458061218e-01
-1.182772219181060791e-01
1.568868197500705719e-02
2.196564823389053345e-01
6.429918855428695679e-02
-3.487722948193550110e-02
-9.929789230227470398e-03
-1.417329609394073486e-01
-1.506385356187820435e-01
-9.625859558582305908e-02
3.655955567955970764e-02
1.886778622865676880e-01
-8.808559179306030273e-02
-1.472208648920059204e-01
1.564461737871170044e-01
1.626923866569995880e-02
2.089028209447860718e-01
6.976705789566040039e-02
6.728623807430267334e-02
6.547935307025909424e-02
1.852413117885589600e-01
-1.174769327044487000e-01
6.753897666931152344e-02
-1.681379824876785278e-01
-7.208716124296188354e-02
1.940874308347702026e-01
-5.649263411760330200e-02
1.562540829181671143e-01
-1.728161424398422241e-01
7.728292047977447510e-02
8.949315547943115234e-02
6.834691017866134644e-02
3.064302913844585419e-02
1.282183080911636353e-01
-1.388015747070312500e-01
-8.004631963558495045e-04
2.971543185412883759e-02
-5.119563639163970947e-02
-6.270297616720199585e-02
2.024862319231033325e-01
1.597543060779571533e-01
-1.077295392751693726e-01
2.348193526268005371e-02
-1.497883945703506470e-01
2.555422857403755188e-02
5.066379904747009277e-02
9.567520767450332642e-02
1.865338161587715149e-02
-1.418801210820674896e-02
-2.027124352753162384e-02
6.982048507779836655e-03
-6.670509278774261475e-02
-1.018966063857078552e-01
-9.451657533645629883e-03
3.006324172019958496e-02
5.086032673716545105e-03
-1.397507935762405396e-01
-1.828208416700363159e-01
-1.394857615232467651e-01
7.756310701370239258e-02
-4.148869961500167847e-02
-9.018738567829132080e-02
-4.879295825958251953e-02
-3.339756727218627930e-01
-1.302651762962341309e-01
5.929012969136238098e-02
-1.876806467771530151e-01
-6.827714294195175171e-02
5.935236345976591110e-03
-9.633178822696208954e-03
-8.077045902609825134e-03
-6.693556904792785645e-02
5.416837707161903381e-02
-1.385780610144138336e-02
-1.476119458675384521e-01
-2.381255477666854858e-02
1.740953512489795685e-02
-6.058121845126152039e-02
-1.161013320088386536e-01
-6.857091188430786133e-02
-1.741310805082321167e-01
4.683542065322399139e-03
4.479100182652473450e-02
2.567341551184654236e-03
-6.382250040769577026e-02
-7.664311677217483521e-02
-3.928752616047859192e-02
-3.490237891674041748e-02
-9.321671724319458008e-02
-2.714188396930694580e-01
2.849379368126392365e-02
7.107912003993988037e-02
1.005100756883621216e-01
1.089866161346435547e-01
-1.836706548929214478e-01
-4.085076972842216492e-02
-1.097970549017190933e-02
3.017860278487205505e-02
-2.635567262768745422e-02
1.214312016963958740e-01
-5.068007111549377441e-02
8.556405454874038696e-02
2.129018120467662811e-02
1.245798077434301376e-02
-2.527232654392719269e-02
-4.212426394224166870e-02
2.373592369258403778e-02
-3.406330943107604980e-02
7.091441005468368530e-02
-2.502689138054847717e-02
-5.885368958115577698e-02
-5.530302971601486206e-02
1.886808685958385468e-02
6.506807357072830200e-02
-1.177728697657585144e-01
5.817288532853126526e-02
-7.042907178401947021e-02
1.509620249271392822e-01
6.411300599575042725e-02
7.530634105205535889e-02
-7.654616143554449081e-03
-4.668587818741798401e-02
-3.298717737197875977e-02
2.348944358527660370e-02
-9.149558842182159424e-02
-6.673441827297210693e-02
1.863581836223602295e-01
9.556616842746734619e-02
-2.384237945079803467e-02
7.439019531011581421e-02
2.509688399732112885e-02
2.588765136897563934e-02
-8.426650613546371460e-02
7.012005895376205444e-02
-4.741606861352920532e-02
3.809681907296180725e-02
7.909659296274185181e-02
-1.324313431978225708e-01
-6.435516476631164551e-02
-5.359792336821556091e-02
3.730235993862152100e-02
4.364363476634025574e-02
8.898975700139999390e-02
-7.519832253456115723e-02
-1.699398458003997803e-01
-3.640268929302692413e-03
-9.121799957938492298e-04
1.134806275367736816e-01
-1.883963868021965027e-02
5.473997816443443298e-02
2.916830778121948242e-02
-3.258829237893223763e-03
-1.612285338342189789e-02
-3.947433084249496460e-02
1.091335341334342957e-02
6.795454025268554688e-02
4.107474908232688904e-02
5.512868985533714294e-03
-1.532058715820312500e-01
-1.120216548442840576e-01
-6.403177231550216675e-02
-1.706622913479804993e-02
-1.050335690379142761e-01
2.372825331985950470e-02
1.095319688320159912e-01
-3.858168609440326691e-03
6.903798133134841919e-02
1.837507821619510651e-02
-8.714812807738780975e-03
-4.030366986989974976e-02
4.387347027659416199e-02
-6.339769810438156128e-02
-1.557699125260114670e-02
4.408872686326503754e-03
5.261223763227462769e-02
2.040607482194900513e-02
5.970183014869689941e-02
-1.481760013848543167e-02
-8.375163888558745384e-04
-1.371819227933883667e-01
-3.479825705289840698e-02
-4.504379332065582275e-01
-8.377039432525634766e-02
2.948360145092010498e-02
-5.448278412222862244e-02
-5.082083866000175476e-02
-1.756706386804580688e-01
1.316584944725036621e-01
-6.931419670581817627e-02
-2.538124681450426579e-04
-8.248977363109588623e-03
3.730436414480209351e-02
3.458300977945327759e-02
-2.515937667340040207e-03
-2.888390235602855682e-02
7.271389663219451904e-02
-4.768987372517585754e-02
7.882779091596603394e-02
1.118096560239791870e-01
-6.450485438108444214e-02
-2.096537733450531960e-03
5.067319422960281372e-02
-3.578823432326316833e-02
-7.268285006284713745e-02
1.263305991888046265e-01
-2.348883263766765594e-02
-2.630190551280975342e-02
4.173373430967330933e-02
-1.815373264253139496e-02
2.779126539826393127e-02
3.199554979801177979e-02
7.890070974826812744e-02
5.691478773951530457e-02
2.640056191012263298e-04
-3.524979576468467712e-02
-1.506563127040863037e-01
2.993666939437389374e-02
1.079695746302604675e-01
-1.242734938859939575e-01
-1.393535882234573364e-01
-6.773075461387634277e-02
-5.823211371898651123e-02
2.541295439004898071e-02
8.963373303413391113e-02
-7.629057019948959351e-02
3.826537635177373886e-03
-1.273774504661560059e-01
-2.036298997700214386e-02
1.203943416476249695e-01
-2.458377555012702942e-02
-1.038917377591133118e-01
3.467816486954689026e-02
-7.054223865270614624e-02
8.159448951482772827e-02
1.310515701770782471e-01
5.596586037427186966e-03
2.984562516212463379e-02
2.335786819458007812e-02
8.289942517876625061e-03
-8.209169842302799225e-03
-7.729723304510116577e-02
-3.041839227080345154e-02
-4.921871051192283630e-02
-1.407575309276580811e-01
-7.435660064220428467e-02
-1.410406529903411865e-01
3.557224199175834656e-02
-7.212007045745849609e-02
-5.684025958180427551e-02
-1.369051355868577957e-02
-2.261646240949630737e-01
-3.595524234697222710e-03
2.030757442116737366e-02
1.282248087227344513e-02
1.315685659646987915e-01
2.396749891340732574e-02
-1.038656830787658691e-01
-1.884719133377075195e-01
-5.066975951194763184e-01
3.888796083629131317e-03
1.080020517110824585e-02
-5.948970466852188110e-02
3.747707605361938477e-02
4.710720106959342957e-02
-3.041326813399791718e-02
6.232028082013130188e-02
4.886076971888542175e-02
7.456131279468536377e-02
3.920216858386993408e-02
-2.635200321674346924e-02
-1.823519915342330933e-01
-1.033461466431617737e-01
5.872667953372001648e-02
-3.314785286784172058e-02
6.477662920951843262e-02
-7.426407188177108765e-02
-1.294736713171005249e-01
-1.953729055821895599e-02
-1.431073546409606934e-01
5.052050575613975525e-02
-1.383527927100658417e-02
-3.352581709623336792e-02
-1.946833282709121704e-01
-1.197067275643348694e-01
2.758282981812953949e-02
3.166349232196807861e-02
-4.230396077036857605e-02
-2.780211269855499268e-01
4.742534831166267395e-02
-8.001849800348281860e-02
-1.594607532024383545e-02
-8.563165366649627686e-02
-1.121153682470321655e-01
-1.304560224525630474e-03
-6.665460020303726196e-02
5.807851627469062805e-02
2.279335865750908852e-03
-2.937586046755313873e-02
-9.269563853740692139e-02
-4.307116940617561340e-02
-2.383733913302421570e-02
-3.204147145152091980e-02
2.180913463234901428e-02
6.704220175743103027e-02
-3.267746418714523315e-02
-4.741125926375389099e-02
3.466561064124107361e-02
7.560881972312927246e-02
-1.037228759378194809e-02
-6.931782513856887817e-02
-8.365578018128871918e-03
3.091102931648492813e-03
-5.630948580801486969e-03
4.374029859900474548e-02
-1.045564413070678711e-01
-1.159603297710418701e-01
1.170014515519142151e-01
-8.729139715433120728e-02
-7.429333776235580444e-02
4.565910622477531433e-02
-8.203401416540145874e-02
-5.967903733253479004e-01
2.125479467213153839e-02
1.149375829845666885e-02
2.323535643517971039e-02
5.718241631984710693e-02
2.837297879159450531e-02
5.374891683459281921e-03
2.879487164318561554e-02
3.456731094047427177e-03
-5.915011744946241379e-03
-1.121949777007102966e-01
1.540820859372615814e-02
5.312804505228996277e-02
3.471633791923522949e-02
9.517881274223327637e-02
9.547106176614761353e-02
1.232050079852342606e-02
3.567231819033622742e-03
-1.346826702356338501e-01
-1.975439190864562988e-01
-1.532479934394359589e-02
1.747919768095016479e-01
2.010056748986244202e-02
-2.381482720375061035e-02
2.222701907157897949e-02
5.108699668198823929e-03
1.159706339240074158e-02
7.410735636949539185e-02
6.247973069548606873e-02
1.728576608002185822e-02
5.118316505104303360e-03
-1.294158101081848145e-01
9.762832522392272949e-02
-9.895630180835723877e-02
-1.043283119797706604e-01
6.443403661251068115e-02
-1.226058304309844971e-01
-2.243571542203426361e-02
1.909233257174491882e-02
8.986234664916992188e-02
-1.038956791162490845e-01
-3.864094242453575134e-02
5.480839684605598450e-02
-2.394983768463134766e-01
-1.157822832465171814e-01
-1.658190228044986725e-02
8.602650463581085205e-02
9.275922551751136780e-03
-1.664293929934501648e-02
-2.254877798259258270e-02
-3.450546041131019592e-02
6.209908053278923035e-02
-1.040574163198471069e-01
4.226385802030563354e-02
-5.733210593461990356e-02
-4.946924746036529541e-02
6.895282119512557983e-02
1.314654108136892319e-02
5.078053846955299377e-02
1.858861185610294342e-03
-3.199107050895690918e-01
1.257043704390525818e-02
-3.101469576358795166e-02
8.422916382551193237e-02
-4.520285502076148987e-02
1.017997860908508301e-01
-9.610636159777641296e-03
-3.090680390596389771e-02
3.487505763769149780e-02
4.019601643085479736e-02
-6.119711324572563171e-02
-1.052425280213356018e-01
1.888050697743892670e-02
3.261324390769004822e-02
-8.187124133110046387e-02
-9.271810948848724365e-02
3.389665484428405762e-02
-1.518364846706390381e-01
6.335037294775247574e-03
1.114220009185373783e-03
9.759210795164108276e-02
5.146348848938941956e-02
-1.220598164945840836e-02
1.704344898462295532e-02
-5.994309112429618835e-02
2.543816715478897095e-02
-4.845816642045974731e-02
-8.218812197446823120e-02
-2.905005030333995819e-02
-1.717782393097877502e-02
3.503424301743507385e-02
-1.653217151761054993e-02
1.936400867998600006e-02
3.979759663343429565e-02
-7.019589841365814209e-02
8.052677661180496216e-02
9.017580002546310425e-02
7.246016710996627808e-02
-2.648751139640808105e-01
-2.594867162406444550e-02
1.279492080211639404e-01
-4.723221063613891602e-02
-7.248412072658538818e-02
-7.888999581336975098e-02
-5.904727056622505188e-02
4.059195891022682190e-02
-1.307598501443862915e-01
1.568540632724761963e-01
-7.902213186025619507e-02
-2.290788590908050537e-01
-2.505411505699157715e-01
-9.949266165494918823e-02
2.822907641530036926e-02
2.239979654550552368e-01
2.414372712373733521e-01
3.035532534122467041e-01
9.061700105667114258e-02
8.749786764383316040e-02
-1.105878353118896484e-01
3.955623134970664978e-02
1.290767192840576172e-01
-1.844907179474830627e-02
1.240290626883506775e-01
-4.256714507937431335e-02
-5.892681889235973358e-03
2.626046836376190186e-01
-5.046836286783218384e-02
1.598970443010330200e-01
1.469560265541076660e-01
3.457496464252471924e-01
2.303692847490310669e-01
1.445038616657257080e-01
9.563918411731719971e-02
3.993938863277435303e-01
3.068375587463378906e-02
-3.215087652206420898e-01
1.794509142637252808e-01
8.835940621793270111e-03
1.815973222255706787e-02
1.665634289383888245e-02
-2.421048237010836601e-03
-5.074856430292129517e-02
-1.701395399868488312e-02
-1.717098653316497803e-01
1.713553629815578461e-02
1.905876994132995605e-01
-3.639268502593040466e-02
1.326305121183395386e-01
4.715118557214736938e-02
-1.966152340173721313e-01
1.285399347543716431e-01
-1.630556583404541016e-01
1.940071433782577515e-01
1.402983218431472778e-01
5.823562666773796082e-02
3.528639078140258789e-01
2.956970222294330597e-02
8.527266979217529297e-02
4.341051355004310608e-02
-1.252962276339530945e-02
-9.284633398056030273e-02
-4.800187796354293823e-02
1.150324717164039612e-01
-7.119732350111007690e-02
3.581644892692565918e-01
2.663756608963012695e-01
-1.304074376821517944e-01
-2.646269202232360840e-01
-5.701630935072898865e-02
9.962011873722076416e-02
4.039322957396507263e-02
7.697598636150360107e-02
4.309639707207679749e-02
-3.259405866265296936e-02
5.791957676410675049e-02
1.205049008131027222e-01
4.833598434925079346e-02
1.023062504827976227e-02
9.763403981924057007e-02
1.167636811733245850e-01
-8.497354388236999512e-02
-2.440145909786224365e-01
-9.783993475139141083e-03
-5.103028938174247742e-02
2.440344728529453278e-02
-2.916530966758728027e-01
8.694076538085937500e-02
1.887403279542922974e-01
8.211345225572586060e-02
2.202282100915908813e-01
1.540363281965255737e-01
7.639224082231521606e-02
1.583130806684494019e-01
-6.215115264058113098e-02
-2.328391224145889282e-01
1.106430366635322571e-01
4.601833410561084747e-03
1.164894923567771912e-01
2.599009312689304352e-02
1.069726515561342239e-02
-4.704415798187255859e-02
1.730911582708358765e-01
-6.711272895336151123e-02
-7.838235050439834595e-02
-5.642956495285034180e-02
-6.752915680408477783e-02
2.394788665696978569e-03
1.794852614402770996e-01
8.488046377897262573e-02
-1.070376411080360413e-01
-1.449526008218526840e-02
4.671191424131393433e-02
-2.901493608951568604e-01
4.554824531078338623e-02
1.185306310653686523e-01
-1.913502253592014313e-02
1.765877753496170044e-01
1.105320602655410767e-01
-2.783536911010742188e-02
-1.521870195865631104e-01
9.146707132458686829e-03
-4.815503582358360291e-02
-6.425272673368453979e-02
-1.001274064183235168e-01
1.066925600171089172e-01
2.190768420696258545e-01
-1.545242499560117722e-02
-2.709715664386749268e-01
-7.923465967178344727e-02
1.565220654010772705e-01
1.713539101183414459e-02
5.698345229029655457e-02
-3.500866517424583435e-02
2.398227341473102570e-02
2.345251850783824921e-02
-1.987078487873077393e-01
-5.177462007850408554e-03
5.327929556369781494e-02
2.154931575059890747e-01
9.164052456617355347e-02
8.824025839567184448e-02
9.035303443670272827e-02
3.107849955558776855e-01
-3.674703538417816162e-01
-8.526158332824707031e-02
-4.886245355010032654e-02
1.109164282679557800e-01
4.170554503798484802e-02
-7.372774928808212280e-02
-1.403470635414123535e-01
-6.441467255353927612e-02
1.164241135120391846e-01
1.704807877540588379e-01
-5.088006705045700073e-02
2.403547614812850952e-02
-8.295650035142898560e-02
-8.008176088333129883e-02
1.420847177505493164e-01
-4.942293837666511536e-02
7.517617195844650269e-02
1.609198190271854401e-02
8.725414052605628967e-03
-5.785029754042625427e-02
7.070272415876388550e-02
-1.415671557188034058e-01
-1.582895033061504364e-02
-6.730276346206665039e-02
3.299834579229354858e-02
9.023634344339370728e-02
2.056464552879333496e-01
2.573154568672180176e-01
-6.409726291894912720e-02
-6.301920861005783081e-02
8.497192710638046265e-02
4.477558135986328125e-01
-6.088140234351158142e-02
1.256537884473800659e-01
-3.336557000875473022e-02
1.436123400926589966e-01
6.615868303924798965e-03
3.961336985230445862e-02
1.640774905681610107e-01
8.416676521301269531e-02
1.857078820466995239e-02
-9.570900583639740944e-04
-5.246809497475624084e-02
-1.108562946319580078e-01
1.510998457670211792e-01
-4.735535185318440199e-04
-1.458561122417449951e-01
-8.663000166416168213e-02
7.083788048475980759e-03
-8.593181520700454712e-02
1.605357415974140167e-02
2.525626122951507568e-01
1.173322740942239761e-02
-6.805642694234848022e-02
-1.057873815298080444e-01
3.948616608977317810e-02
2.512313723564147949e-01
1.333361268043518066e-01
-4.960389435291290283e-02
1.452542096376419067e-01
-2.324453592300415039e-01
-5.763222277164459229e-02
2.889172919094562531e-02
2.659889124333858490e-02
-7.037461549043655396e-02
3.164900839328765869e-01
1.764253228902816772e-01
1.699600815773010254e-01
1.242665126919746399e-01
1.232993155717849731e-01
-4.369321977719664574e-04
1.115855854004621506e-02
4.406349733471870422e-02
4.339185357093811035e-01
3.657671809196472168e-02
-1.123525202274322510e-01
1.872628331184387207e-01
2.369951754808425903e-01
-3.732601553201675415e-02
-1.797709017992019653e-01
3.280863910913467407e-02
9.803012013435363770e-03
9.447738528251647949e-02
3.283846378326416016e-02
1.074883863329887390e-01
-7.421640306711196899e-02
8.021200448274612427e-02
1.060817949473857880e-02
4.740064963698387146e-02
1.189239174127578735e-01
-4.910985380411148071e-02
3.533980250358581543e-02
4.850821569561958313e-02
1.563653945922851562e-01
2.170403487980365753e-02
-7.375086098909378052e-02
-4.688583314418792725e-02
-4.264093562960624695e-02
1.060735806822776794e-01
7.124149054288864136e-02
-4.639940857887268066e-01
3.339183032512664795e-01
1.070372238755226135e-01
-5.697762221097946167e-02
3.960920870304107666e-02
-5.349699407815933228e-02
-3.289040923118591309e-01
-1.497390717267990112e-01
1.602218449115753174e-01
-1.449468452483415604e-02
-2.273472957313060760e-02
1.423205733299255371e-01
-1.055637076497077942e-01
-5.565982311964035034e-02
3.806320950388908386e-02
-1.454799920320510864e-01
6.747740507125854492e-02
-2.322942018508911133e-02
3.876886144280433655e-02
-8.099036663770675659e-02
8.347368985414505005e-02
2.548895776271820068e-02
-3.106601536273956299e-02
-1.179391425102949142e-02
5.491009727120399475e-02
-1.828747428953647614e-02
-1.038460284471511841e-01
8.506810665130615234e-02
-3.176298364996910095e-02
-3.900409042835235596e-01
-1.032473370432853699e-01
-3.857469419017434120e-03
8.649104088544845581e-02
6.054598838090896606e-02
2.464446574449539185e-01
6.171642243862152100e-02
1.339229196310043335e-01
3.627894446253776550e-02
3.313312307000160217e-02
-1.950512640178203583e-02
-7.477404177188873291e-02
7.212507724761962891e-02
-7.423195522278547287e-03
6.187633052468299866e-02
6.183567270636558533e-02
1.471160948276519775e-01
-1.138572767376899719e-01
-3.366525098681449890e-02
2.556509897112846375e-02
1.891259104013442993e-02
-1.221861988306045532e-01
-1.102553680539131165e-02
7.841981947422027588e-02
1.743946410715579987e-02
-1.785663515329360962e-01
-2.103323675692081451e-02
-1.253988742828369141e-01
4.842513427138328552e-02
6.884525716304779053e-02
5.868590250611305237e-02
-1.271114498376846313e-01
1.928164064884185791e-01
6.816407293081283569e-02
-1.711733043193817139e-01
-1.739420741796493530e-02
1.940227746963500977e-01
1.885147988796234131e-01
-2.540273964405059814e-01
-1.723405532538890839e-02
4.652208881452679634e-04
-4.609439149498939514e-02
1.782654374837875366e-01
2.451186627149581909e-02
-4.717900604009628296e-02
-5.294255912303924561e-02
-7.940150052309036255e-02
4.241745918989181519e-02
2.293073087930679321e-01
1.334731094539165497e-02
6.382040679454803467e-02
1.452075666747987270e-04
-1.620183326303958893e-02
9.192572534084320068e-02
6.482281722128391266e-03
-2.505983226001262665e-03
2.080130726099014282e-01
4.520770162343978882e-03
-6.060415878891944885e-02
3.356380015611648560e-02
-3.758383914828300476e-02
8.621206134557723999e-02
1.259533911943435669e-01
1.154789552092552185e-01
-1.144788041710853577e-01
-4.373525083065032959e-02
-1.157630980014801025e-01
-7.444565184414386749e-03
-3.909149393439292908e-02
-2.366482652723789215e-02
4.165076091885566711e-02
3.425920382142066956e-03
-2.465129829943180084e-02
3.401944041252136230e-01
1.585667137987911701e-03
-1.586863994598388672e-01
-8.162559568881988525e-02
-3.780923783779144287e-01
-2.940695546567440033e-02
6.643467396497726440e-02
4.417811334133148193e-02
-7.735589891672134399e-02
-6.295277923345565796e-02
1.319860368967056274e-01
2.472425624728202820e-02
2.140944451093673706e-01
7.380931824445724487e-02
9.144438430666923523e-03
3.114831633865833282e-02
-8.448157459497451782e-02
-1.566563844680786133e-01
1.307186391204595566e-02
1.109157130122184753e-01
-1.983103901147842407e-02
1.125489994883537292e-01
-1.118386909365653992e-01
1.451918296515941620e-02
-1.176436021924018860e-01
2.864977717399597168e-01
-3.746545687317848206e-02
-8.128131181001663208e-02
-3.778409957885742188e-01
7.559553533792495728e-02
-6.221414729952812195e-02
-5.277486518025398254e-03
-7.009259425103664398e-03
-2.101931720972061157e-01
5.713070929050445557e-02
1.005088258534669876e-02
1.197382137179374695e-01
2.137712435796856880e-03
-9.128031134605407715e-02
-2.799086458981037140e-02
-4.177420139312744141e-01
5.264260992407798767e-02
5.687875673174858093e-02
5.710750445723533630e-02
-3.074091486632823944e-02
5.573849007487297058e-02
-1.371105201542377472e-02
6.023902446031570435e-02
8.966146409511566162e-02
2.042585909366607666e-01
2.617824636399745941e-02
-5.343676358461380005e-02
-3.637233376502990723e-02
-7.567372173070907593e-02
-1.225563362240791321e-01
-2.345239371061325073e-01
1.009331047534942627e-01
1.109908670186996460e-01
-9.853681549429893494e-03
3.384526073932647705e-02
2.451865188777446747e-02
-1.763149946928024292e-01
-1.049185637384653091e-02
-9.907690435647964478e-02
-1.391326170414686203e-02
1.002061292529106140e-01
-2.070542238652706146e-02
-3.306152224540710449e-01
-5.473205074667930603e-02
-3.207191824913024902e-02
-3.425194323062896729e-02
-1.195641458034515381e-01
8.122075349092483521e-02
8.879476226866245270e-03
1.393760591745376587e-01
-2.893786132335662842e-02
-4.147583991289138794e-02
5.222331732511520386e-02
1.529210433363914490e-02
-1.005752012133598328e-01
2.383469976484775543e-02
1.994387954473495483e-01
1.625425070524215698e-01
-7.565122097730636597e-02
9.579335153102874756e-02
1.165746711194515228e-02
-1.595212072134017944e-01
1.132622510194778442e-01
-2.839129045605659485e-02
-7.469910383224487305e-02
-6.171275675296783447e-02
6.887605041265487671e-02
8.962137252092361450e-02
2.096666842699050903e-01
2.705792896449565887e-02
-7.024676073342561722e-03
1.827573329210281372e-01
7.150476798415184021e-03
-3.118383698165416718e-02
-1.346787344664335251e-02
6.926044821739196777e-02
-1.010671164840459824e-02
1.107910573482513428e-01
-6.450821459293365479e-02
1.761929392814636230e-01
8.939195424318313599e-03
4.619366675615310669e-02
1.436043996363878250e-02
-5.229337140917778015e-02
6.902851164340972900e-02
1.430420391261577606e-02
-1.188331618905067444e-01
3.348069638013839722e-02
6.506730336695909500e-03
6.931278854608535767e-02
2.637474052608013153e-02
2.611183561384677887e-02
-2.859202958643436432e-02
9.411093592643737793e-02
6.664719432592391968e-02
-8.858327753841876984e-03
-1.011929661035537720e-01
6.144560128450393677e-02
1.062201783061027527e-01
5.899430252611637115e-03
-1.117407111451029778e-03
6.719086319208145142e-02
3.492042049765586853e-02
9.271086752414703369e-02
7.101748883724212646e-02
2.706996202468872070e-01
1.093207597732543945e-01
8.948545902967453003e-02
-1.103942841291427612e-01
-2.756276726722717285e-02
2.072993293404579163e-02
1.070013344287872314e-01
1.458502747118473053e-02
5.787359923124313354e-02
-5.952458828687667847e-02
1.299155037850141525e-02
-3.855181857943534851e-02
1.308262944221496582e-01
-6.268874555826187134e-02
-7.412555068731307983e-02
-2.675250172615051270e-03
6.284703314304351807e-02
8.069683611392974854e-02
1.384821683168411255e-01
-1.841044239699840546e-02
1.948054134845733643e-01
-1.151000410318374634e-01
2.401713877916336060e-01
-5.127113312482833862e-02
-1.327149420976638794e-01
9.124960005283355713e-02
4.719692841172218323e-02
-4.997549206018447876e-02
-1.087854877114295959e-01
3.991018235683441162e-02
-5.188181251287460327e-02
-1.239108070731163025e-01
5.954042449593544006e-02
-5.297450721263885498e-02
-4.653562605381011963e-02
1.806785762310028076e-01
5.431438609957695007e-02
-5.551462247967720032e-02
4.938320256769657135e-03
-2.027413249015808105e-01
-1.546507626771926880e-01
-1.344061195850372314e-01
4.245169460773468018e-02
-3.347699344158172607e-02
1.114591434597969055e-01
-1.259128935635089874e-02
7.453875243663787842e-02
2.534575164318084717e-01
-1.418600827455520630e-01
3.953012824058532715e-02
2.018901109695434570e-01
1.710879988968372345e-02
3.227546066045761108e-02
-2.225433140993118286e-01
-6.053961068391799927e-02
8.191719651222229004e-02
-1.340758949518203735e-01
-1.074984320439398289e-03
-1.973130106925964355e-01
1.943267434835433960e-01
6.425889581441879272e-02
1.062065511941909790e-01
1.189079433679580688e-01
-2.421138286590576172e-01
-1.628254204988479614e-01
7.335980981588363647e-02
-3.556562587618827820e-03
-8.828328549861907959e-02
-4.774558916687965393e-02
8.672117441892623901e-02
3.883360624313354492e-01
5.985981971025466919e-02
5.771900340914726257e-02
7.391608506441116333e-02
5.347174778580665588e-02
1.518518924713134766e-01
-2.735372632741928101e-02
-3.054277300834655762e-01
3.730363771319389343e-02
8.391539007425308228e-02
1.868404597043991089e-01
-3.239518702030181885e-01
-2.681181430816650391e-01
7.883311808109283447e-02
-1.813724040985107422e-01
1.305896490812301636e-01
3.234837055206298828e-01
-1.290479004383087158e-01
-1.260646432638168335e-01
-9.835333377122879028e-02
2.988001704216003418e-02
-2.819682285189628601e-02
3.675815835595130920e-02
-5.425603594630956650e-03
-4.100350197404623032e-04
-5.825100839138031006e-02
-7.229556143283843994e-02
-1.239311918616294861e-01
-8.016941696405410767e-02
3.677299618721008301e-02
-1.279926113784313202e-02
1.328892912715673447e-02
-3.621728345751762390e-02
7.825423963367938995e-03
2.879158034920692444e-02
1.606167554855346680e-01
-6.884418427944183350e-02
-1.914256811141967773e-01
4.075502976775169373e-02
-1.918817609548568726e-01
-1.552297770977020264e-01
-3.344692988321185112e-03
-9.757934510707855225e-02
1.843155771493911743e-01
4.716176912188529968e-02
-1.386434435844421387e-01
3.973388671875000000e-02
4.756393376737833023e-03
1.196774374693632126e-02
-2.675798237323760986e-01
-2.505642175674438477e-01
-9.326720982789993286e-02
-1.954598352313041687e-02
9.742566198110580444e-02
-4.343334212899208069e-02
1.847169846296310425e-01
-6.759297568351030350e-03
1.342161092907190323e-02
-1.543914526700973511e-02
-2.723172008991241455e-01
-1.658792495727539062e-01
7.027734071016311646e-02
9.948606602847576141e-04
-7.265730947256088257e-02
3.296501561999320984e-02
4.596814513206481934e-02
-5.563742294907569885e-02
1.568124629557132721e-02
1.708191782236099243e-01
8.673503994941711426e-03
9.831843525171279907e-02
2.333122119307518005e-02
-8.909400552511215210e-02
1.085460931062698364e-02
-1.072934945113956928e-03
-3.390752375125885010e-01
-3.850650787353515625e-02
-1.168373674154281616e-01
1.897627562284469604e-01
1.286412179470062256e-01
-1.432477086782455444e-01
1.490290462970733643e-01
-4.366192221641540527e-02
-2.099926024675369263e-01
-7.325021624565124512e-01
-2.884838283061981201e-01
-1.175502091646194458e-01
-8.501674979925155640e-02
-6.443230062723159790e-02
-1.083631440997123718e-01
-7.850693166255950928e-02
-1.225561425089836121e-01
-1.579851359128952026e-01
-1.433707773685455322e-01
-1.015867758542299271e-02
4.624827951192855835e-02
-6.816741824150085449e-01
2.314020991325378418e-01
1.234636362642049789e-02
-2.849672138690948486e-01
1.035680621862411499e-02
-4.395353794097900391e-02
-2.897768979892134666e-03
-1.820362061262130737e-01
-1.837720721960067749e-01
2.265881597995758057e-01
1.076478138566017151e-01
2.969835419207811356e-03
1.259499937295913696e-01
2.225488610565662384e-02
1.014548465609550476e-01
1.945924758911132812e-02
-4.540615156292915344e-02
-2.077857777476310730e-02
1.034556403756141663e-01
1.477372925728559494e-02
-8.841152302920818329e-03
-2.019559890031814575e-01
4.910976439714431763e-02
-2.471276000142097473e-02
-2.771284990012645721e-02
6.945917382836341858e-03
-1.062682643532752991e-01
-3.065139949321746826e-01
-1.079022064805030823e-01
1.879658922553062439e-02
2.684187591075897217e-01
-1.469434797763824463e-01
-5.389176011085510254e-01
-1.084319502115249634e-01
-1.561894454061985016e-02
-6.540901958942413330e-02
1.135629341006278992e-01
-9.341187030076980591e-02
-6.113516166806221008e-03
1.408071722835302353e-02
5.207758396863937378e-02
-2.245186083018779755e-02
7.962442189455032349e-02
1.539232134819030762e-01
2.085225097835063934e-02
5.091791227459907532e-02
9.630540013313293457e-02
-2.169831395149230957e-01
7.175437808036804199e-01
-9.137516468763351440e-02
-5.094584077596664429e-02
7.732077687978744507e-02
-1.122228875756263733e-01
-5.701729282736778259e-02
-1.437834203243255615e-01
-1.223008036613464355e-01
-1.870093494653701782e-01
2.214608043432235718e-01
-1.003684774041175842e-01
-3.661557286977767944e-02
-2.737237606197595596e-03
4.242985695600509644e-02
2.766007483005523682e-01
-3.231486082077026367e-01
-2.322601852938532829e-03
-1.142319515347480774e-01
2.315337024629116058e-02
-1.167742311954498291e-01
3.412440419197082520e-02
1.987740099430084229e-01
-5.720007047057151794e-02
-5.410016328096389771e-02
5.532461404800415039e-02
-8.342291228473186493e-03
-6.230937242507934570e-01
8.653335273265838623e-02
-2.909777685999870300e-02
7.497198134660720825e-02
1.531139668077230453e-02
-1.007899269461631775e-01
-7.153285294771194458e-02
6.334038078784942627e-02
8.545701205730438232e-02
-9.195632487535476685e-02
-4.858810454607009888e-02
-9.253496676683425903e-02
-2.805112116038799286e-02
-1.847678124904632568e-01
1.495591248385608196e-03
-5.749524757266044617e-02
5.307004228234291077e-02
6.291094422340393066e-02
1.057868972420692444e-01
-3.568702563643455505e-02
-3.669714927673339844e-02
5.434908904135227203e-03
1.084055528044700623e-01
-5.114777386188507080e-02
1.330251097679138184e-01
3.859166055917739868e-02
2.440439909696578979e-01
-1.861946284770965576e-01
-6.257130950689315796e-02
5.325423553586006165e-02
6.883744150400161743e-02
-1.694657802581787109e-01
-7.929369807243347168e-02
3.940600156784057617e-02
1.000175103545188904e-01
-5.716331303119659424e-02
-1.488282065838575363e-02
-9.868323802947998047e-02
-3.546001389622688293e-02
-2.379310689866542816e-02
-1.879325881600379944e-02
-9.933169186115264893e-02
1.010784953832626343e-01
-2.795965224504470825e-02
-9.371637552976608276e-02
-3.676512464880943298e-02
-9.892386943101882935e-02
-3.021639212965965271e-02
-2.352293208241462708e-02
1.762455403804779053e-01
1.736555993556976318e-02
-1.200457215309143066e-01
-1.553242676891386509e-03
5.800032988190650940e-02
1.042518578469753265e-02
-3.943265229463577271e-02
-4.386899471282958984e-01
-5.687446147203445435e-02
-6.339197861962020397e-04
-1.163665130734443665e-01
-2.619894146919250488e-01
7.954564876854419708e-03
-2.345314063131809235e-02
1.061428114771842957e-01
1.007786765694618225e-02
2.569799721240997314e-01
2.104461044073104858e-01
3.761360943317413330e-01
3.569141728803515434e-03
2.152096927165985107e-01
-8.548486232757568359e-02
1.949381083250045776e-01
3.703615963459014893e-01
1.896586418151855469e-01
3.503839299082756042e-02
-3.856651484966278076e-02
5.794223025441169739e-02
1.392402946949005127e-01
1.454295217990875244e-01
1.807221621274948120e-01
1.102587431669235229e-01
-6.117597222328186035e-02
3.479549586772918701e-01
1.058185249567031860e-01
-7.784717530012130737e-02
1.083674281835556030e-01
5.745938420295715332e-01
-3.335489332675933838e-02
-6.594999227672815323e-03
3.612054884433746338e-02
-1.475201398134231567e-01
2.860531769692897797e-02
1.659800671041011810e-02
3.443079441785812378e-02
-2.918716967105865479e-01
-9.989702701568603516e-02
1.873652786016464233e-01
3.677272051572799683e-02
9.624040126800537109e-02
4.911130964756011963e-01
-4.887960851192474365e-01
-9.217708557844161987e-02
-4.999126866459846497e-02
-1.611015498638153076e-01
-1.459311991930007935e-01
1.458862274885177612e-01
1.655988767743110657e-02
3.782221674919128418e-01
-1.621689647436141968e-03
-9.793291240930557251e-02
-1.553694717586040497e-02
-1.518632471561431885e-01
2.481670528650283813e-01
2.352008782327175140e-02
-1.254023015499114990e-01
8.851751685142517090e-02
-5.583655089139938354e-02
-7.853548973798751831e-02
3.113592565059661865e-01
-3.147901594638824463e-02
-3.434918075799942017e-02
9.670957922935485840e-02
2.532230131328105927e-02
-2.401352627202868462e-03
-8.724104613065719604e-02
1.412342041730880737e-01
-5.763189401477575302e-03
-1.795297861099243164e-02
1.938700079917907715e-01
5.101021379232406616e-02
1.166774407029151917e-01
-1.505391746759414673e-01
2.323909699916839600e-01
1.311490088701248169e-01
-2.659880928695201874e-02
5.363054201006889343e-02
9.666685014963150024e-02
1.990632340312004089e-02
-3.799544647336006165e-02
-9.568894281983375549e-03
6.986694782972335815e-02
-9.943553060293197632e-02
3.007915914058685303e-01
1.426677405834197998e-01
-5.654934421181678772e-02
4.486358724534511566e-03
-3.455258160829544067e-02
1.112588495016098022e-01
5.267942324280738831e-03
-1.170159354805946350e-01
3.507994860410690308e-02
-1.181926578283309937e-01
3.802126646041870117e-02
-2.220686338841915131e-02
-1.705969497561454773e-02
-5.641752108931541443e-02
-1.472296565771102905e-01
1.391367614269256592e-01
1.604303121566772461e-01
5.547565594315528870e-02
8.683177828788757324e-02
2.336144745349884033e-01
-6.130059063434600830e-02
-1.917945593595504761e-02
6.994316726922988892e-02
-2.730266563594341278e-02
-1.982370316982269287e-01
2.431693300604820251e-02
-2.259003371000289917e-01
-1.003853231668472290e-01
6.020732223987579346e-02
-6.687895208597183228e-02
3.701907023787498474e-02
-1.089464277029037476e-01
-1.463583260774612427e-01
-1.643145382404327393e-01
-3.238885896280407906e-03
1.137256473302841187e-01
1.173542346805334091e-02
-2.221724577248096466e-02
-1.823580116033554077e-01
-8.515282720327377319e-02
3.990773111581802368e-03
2.318896949291229248e-01
4.156468436121940613e-02
5.441259220242500305e-02
9.053299576044082642e-02
-7.049287110567092896e-02
-2.099279016256332397e-01
2.038331925868988037e-01
-2.678137458860874176e-02
-1.440836489200592041e-01
1.069013178348541260e-01
-2.851269952952861786e-02
1.030001267790794373e-01
-5.332580208778381348e-02
-3.944151103496551514e-02
9.582088887691497803e-02
-1.034353896975517273e-01
9.047143161296844482e-02
1.171121839433908463e-02
1.040401961654424667e-02
-6.439639627933502197e-02
-1.034396067261695862e-01
-1.517046093940734863e-01
-2.941224537789821625e-02
1.207945272326469421e-01
-1.006328761577606201e-01
-7.600042223930358887e-02
-4.042144864797592163e-02
7.224446535110473633e-02
-1.402288377285003662e-01
1.164206862449645996e-01
-4.950778931379318237e-02
8.159916847944259644e-02
2.133807353675365448e-02
-8.667673915624618530e-02
-1.705544069409370422e-02
-1.251900643110275269e-01
-3.095045387744903564e-01
2.411517202854156494e-01
1.085923314094543457e-01
-2.582146599888801575e-02
1.390665471553802490e-01
-5.603519827127456665e-02
-1.280040740966796875e-01
-1.455351337790489197e-02
-1.639151759445667267e-02
-8.643386885523796082e-03
-1.050774082541465759e-01
-1.042614951729774475e-01
-1.885146275162696838e-02
2.397914230823516846e-02
1.687155961990356445e-01
1.891550980508327484e-02
2.652820348739624023e-01
6.013300269842147827e-02
1.970643550157546997e-01
1.915369480848312378e-01
1.872133761644363403e-01
4.907700791954994202e-02
-6.585163623094558716e-02
-1.115156933665275574e-01
-4.264921322464942932e-02
6.397326360456645489e-04
1.256886422634124756e-01
-1.493281573057174683e-01
-3.042926453053951263e-02
3.719241544604301453e-02
-7.050833106040954590e-02
-2.755441144108772278e-02
-8.711917698383331299e-02
1.077291220426559448e-01
-1.372457891702651978e-01
-1.921296492218971252e-02
-1.781932860612869263e-01
-6.773816049098968506e-02
8.586580306291580200e-02
-7.527979016304016113e-01
-1.518863439559936523e-01
3.675280138850212097e-02
2.631903886795043945e-01
-2.976410277187824249e-02
4.668686166405677795e-02
3.671421706676483154e-01
-2.261887304484844208e-02
-2.864748239517211914e-02
-5.827549844980239868e-02
-2.979358658194541931e-02
-1.148721054196357727e-01
1.349133253097534180e-01
-3.858596831560134888e-02
2.349207103252410889e-01
2.032250910997390747e-01
3.383852913975715637e-02
-1.766093820333480835e-01
5.293453857302665710e-02
-4.288899302482604980e-01
-5.544833093881607056e-02
6.607539951801300049e-02
2.058908045291900635e-01
-1.117237564176321030e-02
-1.118822097778320312e-01
-2.867470681667327881e-02
-4.526883736252784729e-02
2.422517165541648865e-03
-1.704680174589157104e-01
-2.421283163130283356e-02
-1.000462621450424194e-01
-1.529323309659957886e-01
2.744630910456180573e-02
-1.809584051370620728e-01
-2.751608490943908691e-01
-1.114879269152879715e-03
-9.610240906476974487e-02
-2.424555569887161255e-01
-1.212964132428169250e-01
5.497176945209503174e-02
8.590205013751983643e-02
3.233067691326141357e-01
5.945697426795959473e-02
7.557454705238342285e-02
-1.826630532741546631e-01
1.532705686986446381e-02
-1.152701675891876221e-01
1.704644560813903809e-01
1.562042087316513062e-01
2.288705436512827873e-03
6.355041265487670898e-02
-1.429395228624343872e-01
-6.510206311941146851e-02
-6.218510866165161133e-02
-3.855168819427490234e-01
1.349982172250747681e-01
-3.328794986009597778e-02
-1.014160141348838806e-01
-3.126020357012748718e-02
1.300868019461631775e-02
-1.213124096393585205e-01
-7.465736009180545807e-03
-5.230717360973358154e-02
1.983239948749542236e-01
2.946906387805938721e-01
3.761078417301177979e-01
-2.855116734281182289e-03
2.033293247222900391e-01
-4.782610386610031128e-02
-7.802234031260013580e-04
1.162594109773635864e-01
1.309179961681365967e-01
-1.111631765961647034e-01
1.207799017429351807e-01
1.379153970628976822e-02
1.524206101894378662e-01
1.974626183509826660e-01
1.044017001986503601e-01
1.016864739358425140e-02
9.619706869125366211e-02
3.452974855899810791e-01
-4.917616024613380432e-03
-1.020704135298728943e-01
5.044754222035408020e-02
4.268845319747924805e-01
-2.583886981010437012e-01
-7.697318494319915771e-02
1.607139110565185547e-01
-7.168728858232498169e-02
6.313985586166381836e-02
-9.215142577886581421e-02
5.911433696746826172e-02
-4.018229842185974121e-01
-7.170558441430330276e-03
2.190865874290466309e-01
3.226641565561294556e-02
7.007849216461181641e-02
4.981600046157836914e-01
-5.869727730751037598e-01
4.159802105277776718e-03
-3.054784797132015228e-02
-2.947095334529876709e-01
-4.379738867282867432e-02
8.562722802162170410e-02
-4.823116958141326904e-02
2.774630486965179443e-01
-3.948420286178588867e-02
1.042237225919961929e-02
2.003035992383956909e-01
-1.397800296545028687e-01
2.267629355192184448e-01
8.284630626440048218e-02
-6.169312819838523865e-02
1.584509462118148804e-01
-4.651820659637451172e-02
-1.260340362787246704e-01
3.032084107398986816e-01
-1.151717826724052429e-01
-3.307405859231948853e-02
3.686915710568428040e-02
-9.043096750974655151e-02
4.271246492862701416e-02
-2.356149703264236450e-01
6.233451887965202332e-02
-8.728694915771484375e-02
3.485726937651634216e-02
2.659472823143005371e-02
2.860812097787857056e-02
1.358039211481809616e-02
-9.705764055252075195e-02
1.724568754434585571e-02
-8.877952396869659424e-02
-2.216582931578159332e-02
6.852699816226959229e-02
-1.201766729354858398e-01
3.148093074560165405e-02
8.912670612335205078e-02
2.184925079345703125e-01
1.034849584102630615e-01
3.032800741493701935e-02
3.531169146299362183e-02
7.237365096807479858e-02
4.948206618428230286e-02
-1.412045508623123169e-01
-5.392597988247871399e-02
2.307958006858825684e-01
-1.456344425678253174e-01
-1.100705340504646301e-01
1.286434531211853027e-01
-5.384192615747451782e-02
1.190962940454483032e-01
-4.532431811094284058e-02
7.641237694770097733e-03
-9.234513156116008759e-03
-2.217901349067687988e-01
1.117040663957595825e-01
1.941086798906326294e-01
1.178998313844203949e-02
2.001109421253204346e-01
2.842104732990264893e-01
1.630971729755401611e-01
8.946102857589721680e-02
3.580579161643981934e-02
-7.363394647836685181e-02
-1.944196969270706177e-01
3.983118012547492981e-02
-2.253521233797073364e-01
-5.143526569008827209e-02
1.828329563140869141e-01
1.346952766180038452e-01
-4.155314527451992035e-03
-2.710283994674682617e-01
-1.437493264675140381e-01
-1.408575028181076050e-01
1.393921375274658203e-01
2.667052745819091797e-01
9.212954342365264893e-02
1.276912391185760498e-01
-1.163690909743309021e-01
-4.738964885473251343e-02
9.919595718383789062e-02
2.377704679965972900e-01
7.646650820970535278e-02
-3.529198467731475830e-02
1.181559637188911438e-01
-9.975764155387878418e-02
5.131039768457412720e-02
-3.250477463006973267e-02
-1.096913591027259827e-01
-1.465141773223876953e-01
2.393123209476470947e-01
2.792162299156188965e-01
2.258045598864555359e-02
9.788493812084197998e-02
8.257365971803665161e-02
1.795573085546493530e-01
5.249888822436332703e-02
1.698444634675979614e-01
-1.098286081105470657e-02
-4.687724262475967407e-02
-2.060661092400550842e-02
-1.782167004421353340e-03
-1.278152912855148315e-01
-1.817978769540786743e-01
7.320223003625869751e-02
-2.196171134710311890e-01
-4.329696670174598694e-02
1.530842296779155731e-02
4.688549935817718506e-01
-6.525547057390213013e-02
4.937048628926277161e-02
2.366211079061031342e-02
-2.402170598506927490e-01
3.378444910049438477e-02
-1.670334190130233765e-01
2.929432131350040436e-02
-3.845399990677833557e-02
-2.718286812305450439e-01
2.674517035484313965e-01
1.821178346872329712e-01
5.128824710845947266e-02
9.457360021770000458e-03
5.580300465226173401e-02
-1.589085906744003296e-01
4.262325912714004517e-02
4.286151751875877380e-02
-2.824505418539047241e-02
-1.052294895052909851e-01
-1.102588847279548645e-01
5.145435407757759094e-02
1.481501162052154541e-01
9.113305062055587769e-02
6.512525677680969238e-02
2.014929354190826416e-01
7.048953324556350708e-02
8.433147519826889038e-02
-1.036258265376091003e-01
1.778862625360488892e-02
1.149679943919181824e-01
-3.236678242683410645e-02
1.277560144662857056e-01
-3.619042411446571350e-02
-2.077155113220214844e-01
1.377808004617691040e-01
-2.387122660875320435e-01
1.727132126688957214e-02
-3.108397126197814941e-02
-1.097928509116172791e-01
6.146602705121040344e-02
-5.177928507328033447e-02
1.613841205835342407e-01
-1.061374396085739136e-01
1.375993341207504272e-01
-3.375484049320220947e-01
-9.148528426885604858e-02
1.404663771390914917e-01
-3.819613158702850342e-01
-1.618230044841766357e-01
1.109139919281005859e-01
9.408222138881683350e-02
9.604041464626789093e-03
3.842447698116302490e-02
1.763584464788436890e-01
1.000522077083587646e-01
1.373448874801397324e-02
-7.742994278669357300e-02
3.125026226043701172e-01
-1.463730186223983765e-01
2.069911956787109375e-01
-1.032830178737640381e-01
1.550962030887603760e-01
4.646781086921691895e-02
-4.785855486989021301e-02
-9.979031980037689209e-02
-1.971528381109237671e-01
-2.855648100376129150e-01
2.043532431125640869e-01
2.501109056174755096e-02
1.879364252090454102e-01
1.340048909187316895e-01
-2.236495465040206909e-01
-1.843716576695442200e-02
-3.912833705544471741e-02
6.072280462831258774e-03
-6.071626022458076477e-02
-5.527476593852043152e-02
-1.232890710234642029e-01
-4.830938950181007385e-02
-2.007485367357730865e-02
-1.750418841838836670e-01
-1.424361169338226318e-01
9.166713058948516846e-02
-6.724628806114196777e-02
-1.953196078538894653e-01
-1.561504881829023361e-02
3.938511013984680176e-02
3.341186940670013428e-01
7.023943215608596802e-02
-1.233669668436050415e-01
3.196265548467636108e-02
5.850753560662269592e-02
-2.212301269173622131e-02
-2.397123537957668304e-02
3.845938667654991150e-02
1.594523936510086060e-01
-7.621408998966217041e-02
3.155304864048957825e-02
1.868742890655994415e-02
-1.232309341430664062e-01
-3.135122060775756836e-01
-1.662111133337020874e-01
4.852771013975143433e-02
9.550961665809154510e-03
1.281476300209760666e-02
1.717174947261810303e-01
-5.334014073014259338e-02
-1.867791712284088135e-01
-2.542122006416320801e-01
-2.236617170274257660e-02
-4.938812553882598877e-02
3.071441948413848877e-01
2.150551229715347290e-02
-3.607777878642082214e-02
-1.698562502861022949e-02
3.117431700229644775e-02
-1.446825563907623291e-01
-1.839991062879562378e-01
-6.087381858378648758e-03
1.347197890281677246e-01
1.309424638748168945e-02
-5.285409837961196899e-02
-3.246131166815757751e-02
2.091103978455066681e-02
-4.309671223163604736e-01
-7.034187018871307373e-02
-4.363685846328735352e-02
8.972197771072387695e-02
-1.098461542278528214e-02
8.497217297554016113e-02
1.321652382612228394e-01
-3.480735421180725098e-02
1.073578894138336182e-01
-5.824197530746459961e-01
-4.039664939045906067e-02
-1.174286287277936935e-02
-4.347018897533416748e-02
1.722381822764873505e-02
4.099241644144058228e-02
-5.048426333814859390e-03
7.844279706478118896e-02
1.274063345044851303e-02
-1.314092874526977539e-01
1.038153767585754395e-01
-1.375235151499509811e-02
8.250848203897476196e-02
-3.868097439408302307e-02
-7.360728085041046143e-02
-8.448398113250732422e-02
-2.098579332232475281e-02
-1.301447600126266479e-01
4.108673706650733948e-02
-3.912913426756858826e-02
5.830753967165946960e-02
2.710483036935329437e-02
5.222430080175399780e-02
-5.171163380146026611e-02
-1.150340493768453598e-02
3.129184618592262268e-02
-1.403526365756988525e-01
-5.813623778522014618e-03
6.546393036842346191e-03
1.878158599138259888e-01
1.806192658841609955e-02
6.331832706928253174e-02
-2.939957082271575928e-01
2.743733639363199472e-04
-7.454968243837356567e-02
-5.724828690290451050e-02
-2.333021536469459534e-02
1.706960052251815796e-02
3.759987419471144676e-03
-2.981716766953468323e-02
4.495287686586380005e-02
-5.890189483761787415e-02
7.838338613510131836e-03
1.921759918332099915e-02
1.342271268367767334e-01
-3.201471641659736633e-02
-9.232130646705627441e-02
1.644624918699264526e-01
-1.281741857528686523e-01
4.095072671771049500e-02
-4.353391826152801514e-01
-2.504285052418708801e-02
2.793857641518115997e-02
-3.508652327582240105e-03
2.472468763589859009e-01
3.327050432562828064e-02
-1.354921758174896240e-01
-2.598595246672630310e-02
-3.422980010509490967e-01
2.105574309825897217e-01
1.141325905919075012e-01
-4.153397306799888611e-02
1.327623706310987473e-02
-4.892890341579914093e-03
6.327819824218750000e-02
1.034415327012538910e-03
2.076368220150470734e-02
2.834789827466011047e-02
2.547577768564224243e-02
1.265709251165390015e-01
-1.560720950365066528e-01
-6.231062114238739014e-02
4.772285372018814087e-02
1.568785756826400757e-01
5.895772576332092285e-02
1.383963078260421753e-01
-6.606692820787429810e-02
6.566532254219055176e-01
-1.010820716619491577e-01
2.337656356394290924e-02
-8.056602627038955688e-02
3.955537453293800354e-02
1.507853865623474121e-01
-6.816320866346359253e-02
-7.330472767353057861e-02
-1.274795681238174438e-01
-3.771046102046966553e-01
-2.629962861537933350e-01
2.042620442807674408e-02
9.368568658828735352e-02
1.140928044915199280e-01
-1.144118010997772217e-01
2.041858853772282600e-03
-1.020154263824224472e-02
1.415487527847290039e-01
-8.455224335193634033e-02
3.807634115219116211e-02
-6.373061984777450562e-02
7.254002988338470459e-02
1.105848029255867004e-01
1.924141682684421539e-02
-4.488834366202354431e-02
-1.771100424230098724e-02
1.852758377790451050e-01
-1.764757675118744373e-03
3.880453854799270630e-02
4.324071481823921204e-02
3.653185963630676270e-01
-5.599877834320068359e-01
2.559643797576427460e-02
-3.430784493684768677e-02
5.761891230940818787e-02
2.984488569200038910e-02
4.280357062816619873e-02
6.016087532043457031e-02
-5.410773754119873047e-01
6.459025293588638306e-02
-9.299287199974060059e-02
3.034181147813796997e-02
-4.754569754004478455e-02
-4.922454804182052612e-02
-9.280524402856826782e-02
6.670275330543518066e-02
1.923328638076782227e-01
1.748974770307540894e-01
9.480715543031692505e-02
-4.066206812858581543e-01
6.934460252523422241e-02
-4.877630993723869324e-02
-5.865970626473426819e-02
-1.377327591180801392e-01
9.499024599790573120e-02
9.988671541213989258e-02
-6.471434980630874634e-02
-4.188099876046180725e-02
1.386542990803718567e-02
3.495966270565986633e-02
-7.326620165258646011e-03
1.164723653346300125e-04
1.080446466803550720e-01
-1.925141960382461548e-01
2.014330029487609863e-02
-1.069679975509643555e+00
-5.141587927937507629e-02
-5.490467301569879055e-04
-2.521345578134059906e-02
1.662219315767288208e-01
-9.588427841663360596e-02
-1.096976771950721741e-01
7.950149476528167725e-02
6.221462786197662354e-02
-2.721787393093109131e-01
7.249720394611358643e-02
1.831048727035522461e-01
-6.027453392744064331e-02
5.008331499993801117e-03
-1.698835343122482300e-01
1.244737431406974792e-01
-5.273614078760147095e-02
6.023488193750381470e-02
-6.043116748332977295e-02
4.482211545109748840e-02
-1.170641332864761353e-01
7.413533329963684082e-02
1.225773245096206665e-01
1.091887056827545166e-01
2.279629930853843689e-02
1.414615511894226074e-01
-6.707522869110107422e-01
-4.553635139018297195e-03
-7.507329434156417847e-02
-4.052940756082534790e-02
-6.133347284048795700e-03
7.025010883808135986e-02
1.985799893736839294e-02
2.720682322978973389e-01
5.023943632841110229e-02
8.769107609987258911e-02
1.692609935998916626e-01
-4.442423209547996521e-02
1.030556857585906982e-01
1.057511270046234131e-01
-1.411302760243415833e-02
1.111910492181777954e-01
-5.182178691029548645e-02
2.717012166976928711e-02
-5.548633262515068054e-02
-1.733205094933509827e-02
6.492061913013458252e-02
4.066080600023269653e-02
-6.676373886875808239e-04
-6.475293636322021484e-01
1.672941725701093674e-03
-2.039364539086818695e-03
6.308616697788238525e-02
-3.435016423463821411e-02
1.492559611797332764e-01
-1.086756944656372070e+00
-9.852344542741775513e-02
1.115684863179922104e-02
-3.354725614190101624e-02
-2.718820236623287201e-02
2.075692638754844666e-03
3.275230899453163147e-02
3.399914875626564026e-02
-4.890062287449836731e-02
-2.167434198781847954e-03
4.935425892472267151e-02
-1.988202333450317383e-01
1.179452836513519287e-01
7.192872464656829834e-02
6.181715056300163269e-02
1.262324154376983643e-01
-6.626150012016296387e-02
-1.258775033056735992e-02
2.634722273796796799e-03
1.034426316618919373e-01
-1.228087544441223145e-01
-3.999211266636848450e-02
1.497876197099685669e-01
-8.100419491529464722e-02
3.641631454229354858e-02
-6.948430091142654419e-02
-9.775727987289428711e-02
3.989321645349264145e-03
2.099899575114250183e-02
1.290781050920486450e-02
-1.474627852439880371e-01
-2.842751704156398773e-02
-2.730764634907245636e-02
4.486104473471641541e-02
7.847182452678680420e-02
1.263671666383743286e-01
2.508736588060855865e-02
7.989468425512313843e-02
2.113677561283111572e-02
-5.995530262589454651e-02
7.362291216850280762e-02
-3.579510003328323364e-02
1.023978590965270996e-01
-8.806414902210235596e-02
7.196714729070663452e-02
-7.473765313625335693e-02
3.988139703869819641e-02
4.606342688202857971e-02
4.167504981160163879e-02
1.068013980984687805e-01
-1.349555253982543945e-01
-1.708305254578590393e-02
-7.509980350732803345e-02
-7.206677459180355072e-03
-7.620450109243392944e-02
3.208789974451065063e-02
9.190498292446136475e-02
9.041003137826919556e-02
7.827902585268020630e-02
4.504322633147239685e-02
7.384581863880157471e-02
-1.901609301567077637e-01
1.315502077341079712e-01
1.227581128478050232e-01
6.025833636522293091e-02
1.279654074460268021e-02
-6.189581006765365601e-03
4.996332153677940369e-02
-1.980384290218353271e-01
4.875259846448898315e-02
1.052274778485298157e-01
-1.730402931571006775e-02
1.787912286818027496e-02
9.115804731845855713e-02
-4.374004155397415161e-02
-5.285172536969184875e-02
-5.742451921105384827e-02
-6.895111501216888428e-02
7.550204638391733170e-03
-4.084230586886405945e-02
-1.919096522033214569e-02
-6.904037296772003174e-02
3.596236696466803551e-03
9.271227568387985229e-02
7.168737798929214478e-02
2.910060575231909752e-03
-1.227661594748497009e-01
-4.834450408816337585e-02
1.343081444501876831e-01
-3.432919830083847046e-02
2.482205070555210114e-02
1.084815245121717453e-02
-3.097803145647048950e-02
1.175306513905525208e-01
7.852112501859664917e-02
-8.041196316480636597e-02
5.943657830357551575e-02
-5.657856911420822144e-02
-4.422265570610761642e-03
-1.944952644407749176e-02
8.206436410546302795e-03
4.179873690009117126e-02
-5.527526512742042542e-02
7.580430060625076294e-02
-2.741777151823043823e-02
2.780463779345154762e-03
-1.201276257634162903e-01
-8.606607466936111450e-02
-1.910671708174049854e-03
-1.277115941047668457e-01
1.369742453098297119e-01
8.426068723201751709e-02
4.410600662231445312e-02
9.287048131227493286e-02
-3.631697967648506165e-02
1.033879518508911133e-01
-6.288506090641021729e-02
-4.317302722483873367e-03
-7.739467918872833252e-02
1.161161884665489197e-01
3.625003993511199951e-02
-7.667029649019241333e-02
-2.760429866611957550e-02
8.836819976568222046e-02
1.164497714489698410e-02
3.305150941014289856e-02
7.045598700642585754e-03
-4.654363915324211121e-02
-5.642386898398399353e-02
1.606553643941879272e-01
-9.361639618873596191e-03
3.998705372214317322e-02
-3.972684592008590698e-02
7.411941885948181152e-02
1.034953743219375610e-01
8.687377721071243286e-02
1.583609133958816528e-01
-3.690885379910469055e-02
-1.226980797946453094e-02
1.966546848416328430e-02
6.085728853940963745e-02
-1.060583144426345825e-01
-2.577422931790351868e-02
-8.628249168395996094e-02
-2.810905314981937408e-02
-7.445747405290603638e-02
-5.396512802690267563e-03
-1.150764450430870056e-01
1.446230523288249969e-02
-2.756520360708236694e-02
9.485303610563278198e-02
4.100866615772247314e-02
2.489831857383251190e-02
-1.356852948665618896e-01
8.809396624565124512e-02
-5.173484608530998230e-02
5.313172936439514160e-02
-2.707583084702491760e-02
4.141953773796558380e-03
3.924572095274925232e-02
-2.989869378507137299e-02
-8.896902948617935181e-02
-3.768840059638023376e-02
1.189123094081878662e-01
-2.773320488631725311e-02
-1.279748082160949707e-01
4.818322136998176575e-02
1.193549409508705139e-01
1.428222469985485077e-02
7.178425043821334839e-02
-7.877791300415992737e-03
-1.082624569535255432e-01
-5.144084244966506958e-02
-3.120755031704902649e-02
-3.286135569214820862e-02
1.849674060940742493e-02
3.413489088416099548e-02
5.788709968328475952e-03
-2.526804506778717041e-01
-1.821475476026535034e-01
-4.062282294034957886e-02
-5.187550559639930725e-03
-9.282920509576797485e-03
-1.252403855323791504e-01
-3.310255706310272217e-02
-1.152508184313774109e-01
1.560396607965230942e-02
5.747629702091217041e-02
2.061605826020240784e-02
-7.736434228718280792e-03
-1.219411287456750870e-02
9.622123092412948608e-02
-3.845902392640709877e-03
1.960335299372673035e-02
-1.922298409044742584e-02
-8.767779916524887085e-03
1.401006430387496948e-01
-2.228245735168457031e-01
-2.114783227443695068e-01
-2.261674962937831879e-02
-7.432708889245986938e-02
2.448647320270538330e-01
6.661766767501831055e-02
1.694076135754585266e-02
3.349637240171432495e-02
-2.044119173660874367e-03
6.771260499954223633e-02
3.555403277277946472e-02
7.337131537497043610e-03
-8.515919744968414307e-02
8.381129801273345947e-02
8.768244087696075439e-02
2.736467309296131134e-02
1.671171747148036957e-02
1.124177277088165283e-01
9.339613467454910278e-02
-3.686145320534706116e-02
-9.376287460327148438e-02
-2.996976114809513092e-02
1.104869917035102844e-01
-1.343878358602523804e-01
-8.400820195674896240e-02
-1.296789348125457764e-01
-3.717739507555961609e-02
3.647017106413841248e-02
-5.891114100813865662e-02
7.478912174701690674e-02
-1.392149925231933594e-01
-3.256780793890357018e-03
-6.371358782052993774e-02
-8.991044759750366211e-02
2.858251519501209259e-02
2.401171065866947174e-02
8.445304632186889648e-02
1.714166253805160522e-01
1.515529900789260864e-01
-2.735218591988086700e-02
-2.644216082990169525e-02
-3.092741221189498901e-02
9.973431937396526337e-03
-1.377863734960556030e-01
-2.515523135662078857e-02
-6.425730139017105103e-02
-2.344331443309783936e-01
5.948490649461746216e-02
-4.397737979888916016e-02
1.007977640256285667e-03
1.140614077448844910e-01
-1.521997060626745224e-02
1.227337308228015900e-02
8.818832039833068848e-02
2.900117076933383942e-03
1.598066836595535278e-02
1.297073513269424438e-01
-5.547486990690231323e-02
-7.138787955045700073e-02
1.551626715809106827e-02
1.165875941514968872e-01
-9.074815362691879272e-02
1.495618280023336411e-02
-9.712710976600646973e-03
1.463075820356607437e-02
-3.388268500566482544e-02
-9.772441536188125610e-02
-1.635418646037578583e-02
6.055910512804985046e-02
-2.157947048544883728e-02
-9.025733172893524170e-02
-4.364250227808952332e-02
-4.466905817389488220e-02
5.494802817702293396e-02
6.070594117045402527e-02
8.114045113325119019e-02
8.069503307342529297e-02
-1.839602552354335785e-02
8.877833187580108643e-02
-1.063539683818817139e-01
-2.524520270526409149e-02
-1.869538426399230957e-01
8.519477397203445435e-02
-1.381729263812303543e-03
-3.353950567543506622e-03
5.339342728257179260e-02
-1.599884033203125000e-01
-5.805204808712005615e-02
-1.307776421308517456e-01
-4.457726702094078064e-02
2.296598069369792938e-02
1.040778085589408875e-01
-1.072861161082983017e-02
-1.331612560898065567e-02
6.571975350379943848e-02
5.159056559205055237e-02
1.718157157301902771e-02
5.825212970376014709e-02
-2.746316604316234589e-02
2.221905067563056946e-02
3.141336515545845032e-02
1.020107138901948929e-02
-5.818703025579452515e-02
-2.592135034501552582e-02
-1.343483328819274902e-01
-4.456488415598869324e-02
-3.556738793849945068e-02
-1.194516569375991821e-02
-1.251250505447387695e-01
3.858549892902374268e-02
4.555744305253028870e-02
1.787466369569301605e-02
1.107389479875564575e-02
-1.353074330836534500e-02
1.025825291872024536e-01
5.053121969103813171e-02
-5.530240759253501892e-02
-1.080897152423858643e-01
-1.115289609879255295e-02
-3.737909346818923950e-02
9.663786739110946655e-03
-7.672542333602905273e-02
2.756311744451522827e-02
4.637188836932182312e-02
-8.714520931243896484e-02
3.465387038886547089e-03
3.178872913122177124e-02
4.545639827847480774e-02
-6.885783374309539795e-02
-1.986041814088821411e-01
-2.094373665750026703e-02
1.168498545885086060e-01
-1.791373826563358307e-03
-1.106809899210929871e-01
2.033351361751556396e-02
-4.586201906204223633e-02
2.028143964707851410e-02
2.792828343808650970e-02
-1.389301270246505737e-01
5.604400485754013062e-02
5.479835718870162964e-02
6.905617658048868179e-03
-4.118039831519126892e-02
6.125253811478614807e-02
1.315128710120916367e-02
3.033315390348434448e-02
-7.600436359643936157e-02
9.870985895395278931e-02
1.200123429298400879e-01
-1.230701431632041931e-01
3.150562569499015808e-02
-4.004695266485214233e-02
1.076566129922866821e-01
-1.603745296597480774e-02
1.739451661705970764e-02
-8.202366530895233154e-03
-6.060907617211341858e-02
6.089184433221817017e-02
5.098475888371467590e-02
-3.461807966232299805e-02
-5.469077825546264648e-02
3.376876004040241241e-03
4.450742900371551514e-02
2.518087252974510193e-02
-9.579233825206756592e-03
9.363827854394912720e-02
9.601475298404693604e-02
-4.663272202014923096e-02
-3.905501589179039001e-02
1.855317875742912292e-02
-9.000872820615768433e-02
3.765896707773208618e-02
4.045471549034118652e-02
9.031601250171661377e-02
-6.330607086420059204e-02
-1.187455803155899048e-01
-2.962148748338222504e-02
3.977610543370246887e-02
2.221123874187469482e-02
7.265185564756393433e-02
-8.907373994588851929e-02
-5.073293577879667282e-03
-4.012633860111236572e-02
3.630102425813674927e-02
4.478482156991958618e-02
9.201307594776153564e-02
6.931954063475131989e-03
-1.246165558695793152e-01
9.589357674121856689e-02
-7.523669302463531494e-02
-5.331100896000862122e-02
1.010751575231552124e-01
1.801143288612365723e-01
7.717191427946090698e-02
3.975050896406173706e-02
1.223665550351142883e-01
-1.018039509654045105e-02
9.539686888456344604e-02
-1.937791518867015839e-02
1.784678995609283447e-01
1.293398886919021606e-01
-1.464530229568481445e-01
-1.212832983583211899e-02
5.700672417879104614e-02
3.292692452669143677e-02
-2.086429111659526825e-02
2.422479167580604553e-02
6.331051886081695557e-02
-3.742726519703865051e-02
2.133540995419025421e-02
1.616461575031280518e-02
4.860374704003334045e-02
1.752822846174240112e-01
-5.080754403024911880e-03
4.113395884633064270e-02
2.269909158349037170e-02
5.422180518507957458e-02
2.115642279386520386e-02
-1.721603795886039734e-02
3.650440648198127747e-02
8.639468252658843994e-02
1.628400683403015137e-01
1.291960477828979492e-01
-2.403438836336135864e-01
6.255894154310226440e-02
2.264459617435932159e-02
3.491321578621864319e-02
1.809793114662170410e-01
5.936683341860771179e-02
3.005716390907764435e-02
-6.698817946016788483e-03
8.144962042570114136e-02
-6.140086427330970764e-02
1.182665452361106873e-01
-2.372909486293792725e-01
-2.866903506219387054e-02
2.870131842792034149e-02
3.158207237720489502e-02
5.356477946043014526e-02
-2.534202765673398972e-03
1.297098211944103241e-02
-7.398605346679687500e-02
9.301988780498504639e-02
-4.429901018738746643e-02
3.215160593390464783e-02
-1.273286994546651840e-02
8.702831342816352844e-03
-2.447053417563438416e-02
2.757221274077892303e-02
-1.672851853072643280e-02
-3.340253606438636780e-04
-4.921830072999000549e-02
-6.869262456893920898e-02
1.824975199997425079e-02
-1.378941088914871216e-01
-1.629390418529510498e-01
-1.929696463048458099e-02
-6.659498065710067749e-02
3.266513347625732422e-03
-2.106864750385284424e-02
-6.746789067983627319e-02
-1.496392041444778442e-01
-9.654579684138298035e-03
-6.197783350944519043e-02
-4.091447964310646057e-02
4.710861295461654663e-02
-1.145990043878555298e-01
-1.813996210694313049e-02
1.133226975798606873e-02
-9.349171817302703857e-02
2.626508474349975586e-01
-1.169744320213794708e-02
3.093876689672470093e-02
1.390100419521331787e-01
5.524624139070510864e-02
1.138786077499389648e-01
-1.700398512184619904e-02
-6.949794292449951172e-02
6.743729114532470703e-02
-1.202277243137359619e-01
9.595961868762969971e-02
4.934307560324668884e-02
-5.848835036158561707e-02
3.339041396975517273e-02
1.367465704679489136e-01
-5.848427489399909973e-02
-2.648173458874225616e-02
-1.272499412298202515e-01
-1.295523941516876221e-01
-1.202652975916862488e-01
1.426118798553943634e-02
-5.815752223134040833e-02
-9.419246017932891846e-02
1.912001967430114746e-01
8.157399296760559082e-02
5.673276260495185852e-02
-6.461288034915924072e-02
-1.085850894451141357e-01
4.201289266347885132e-02
-1.321457028388977051e-01
1.406173259019851685e-01
-2.966231666505336761e-02
1.750511676073074341e-01
1.917237602174282074e-02
-5.299815163016319275e-02
-7.698921114206314087e-02
1.694846302270889282e-01
8.969504386186599731e-02
-7.605199515819549561e-02
5.676770582795143127e-03
-6.845567841082811356e-03
7.704964280128479004e-02
1.068865954875946045e-01
7.473388314247131348e-02
3.225573152303695679e-02
1.241566520184278488e-02
8.463035523891448975e-02
-3.410172834992408752e-02
-9.640612639486789703e-03
-1.036681234836578369e-01
-2.138351555913686752e-03
-7.619784772396087646e-02
3.546940535306930542e-02
4.272069409489631653e-02
-7.854621857404708862e-02
3.007407113909721375e-02
-1.575400307774543762e-02
2.335958741605281830e-02
-6.180995609611272812e-03
-5.674042925238609314e-02
-3.935565426945686340e-02
2.021410912275314331e-01
-2.461872063577175140e-02
-2.671624124050140381e-01
1.435717940330505371e-01
7.051390409469604492e-02
2.796844951808452606e-02
-2.829268872737884521e-01
-5.308935791254043579e-02
3.226381242275238037e-01
7.817685604095458984e-02
1.362151801586151123e-01
1.248708814382553101e-01
-9.767293184995651245e-02
7.799981534481048584e-02
1.498648226261138916e-01
-9.904903173446655273e-02
3.451061248779296875e-02
-1.622793227434158325e-01
-1.109081059694290161e-01
-8.347021788358688354e-02
1.140011325478553772e-01
1.289780884981155396e-01
4.761788621544837952e-02
1.264965534210205078e-01
3.219484090805053711e-01
8.636681735515594482e-02
1.875474900007247925e-01
-1.307452023029327393e-01
3.346183523535728455e-02
-3.481528460979461670e-01
2.397806942462921143e-01
6.803769618272781372e-02
2.437485158443450928e-01
-8.832418918609619141e-02
1.420060992240905762e-01
-6.737538427114486694e-02
-1.907087862491607666e-01
5.708127096295356750e-02
-8.526371419429779053e-02
1.807961054146289825e-02
1.678668260574340820e-01
-1.844658404588699341e-01
-1.246208995580673218e-01
-4.151186719536781311e-02
1.963229626417160034e-01
2.765420377254486084e-01
-2.030195742845535278e-01
-1.062218770384788513e-01
-2.219234406948089600e-02
-9.791661798954010010e-02
-1.563637107610702515e-01
9.943804144859313965e-02
2.046295553445816040e-01
-2.237286046147346497e-02
1.491635888814926147e-01
1.061124652624130249e-01
3.574037849903106689e-01
-3.446901589632034302e-02
2.693304121494293213e-01
-5.558711010962724686e-03
-4.606908187270164490e-02
2.034070529043674469e-02
-9.610132128000259399e-02
-2.367108315229415894e-01
9.127123653888702393e-02
3.396138921380043030e-02
7.704000920057296753e-02
7.553417980670928955e-02
-1.460976153612136841e-01
1.148388236761093140e-01
1.161876320838928223e-01
-4.262917116284370422e-02
2.546566128730773926e-01
1.524835377931594849e-01
1.005603149533271790e-01
-3.808359429240226746e-02
-1.645612716674804688e-01
6.477738916873931885e-02
1.088144481182098389e-01
1.210265234112739563e-01
1.310706436634063721e-01
-1.745853871107101440e-01
2.899268828332424164e-02
2.237655967473983765e-02
-6.620062142610549927e-02
-4.879100993275642395e-02
1.538837999105453491e-01
1.446440070867538452e-01
4.066926836967468262e-01
-6.681444495916366577e-02
2.893393114209175110e-02
-4.533194005489349365e-02
-4.352568462491035461e-02
-2.644887566566467285e-01
2.904959619045257568e-01
1.154584693722426891e-03
4.445273801684379578e-02
4.306342452764511108e-02
-6.917601078748703003e-02
-1.404882371425628662e-01
5.287796631455421448e-02
-1.279763132333755493e-01
2.691650688648223877e-01
2.052896469831466675e-01
6.879552453756332397e-02
-1.542276144027709961e-01
3.032588772475719452e-02
-9.522236883640289307e-02
3.804954234510660172e-03
3.357193470001220703e-01
5.191273614764213562e-02
1.413309127092361450e-01
-2.733456194400787354e-01
1.364336460828781128e-01
-2.119539827108383179e-01
1.299899220466613770e-01
2.158085405826568604e-01
1.128179132938385010e-01
-1.015247926115989685e-01
9.651075303554534912e-02
-1.974548399448394775e-01
4.503375291824340820e-02
1.022393330931663513e-01
2.149670571088790894e-01
2.495955824851989746e-01
2.179237604141235352e-01
7.510056346654891968e-02
2.876531183719635010e-01
-5.921395868062973022e-02
7.845568656921386719e-02
1.334810350090265274e-02
-1.305036395788192749e-01
8.241697400808334351e-02
2.402700632810592651e-01
2.696047127246856689e-01
-1.213236451148986816e-01
1.221556141972541809e-01
2.554377913475036621e-01
1.866814196109771729e-01
1.024041026830673218e-01
-4.768161848187446594e-02
-5.918067693710327148e-01
-9.517299383878707886e-02
-2.350210845470428467e-01
5.147672817111015320e-02
3.623749613761901855e-01
6.991851329803466797e-02
1.692204326391220093e-01
3.150288388133049011e-02
2.831293828785419464e-02
2.952089160680770874e-02
-3.458893597126007080e-01
-1.611523777246475220e-01
-1.564766019582748413e-01
5.383532866835594177e-02
1.878520399332046509e-01
2.059286534786224365e-01
-4.553926587104797363e-01
4.867661744356155396e-02
1.933918148279190063e-01
1.095671486109495163e-02
-6.828612089157104492e-02
2.463855594396591187e-01
-9.966732002794742584e-03
-2.754328586161136627e-02
1.635256595909595490e-02
-1.771499812602996826e-01
1.093554422259330750e-01
-4.466528445482254028e-02
2.238791882991790771e-01
-2.375273853540420532e-01
1.571310609579086304e-01
-1.250884979963302612e-01
-4.738229215145111084e-01
1.772059798240661621e-01
1.045220717787742615e-01
-2.592141181230545044e-02
1.547961682081222534e-01
1.758619248867034912e-01
1.046435609459877014e-01
-1.639611572027206421e-01
6.782875210046768188e-02
1.637603789567947388e-01
-2.283449023962020874e-01
9.350632876157760620e-02
-4.287329688668251038e-02
-6.131229549646377563e-02
3.210001587867736816e-01
-1.647514104843139648e-01
1.729525774717330933e-01
-2.156493812799453735e-01
2.405153065919876099e-01
1.399647444486618042e-01
-2.184971868991851807e-01
1.749216318130493164e-01
5.093354582786560059e-01
6.641592830419540405e-02
9.487450122833251953e-03
-1.552652418613433838e-01
1.040354743599891663e-01
5.592959467321634293e-03
2.417738735675811768e-02
3.853458911180496216e-02
6.216389313340187073e-02
2.535249106585979462e-02
1.467556953430175781e-01
1.433736979961395264e-01
7.167440652847290039e-02
-2.033763229846954346e-01
6.497532874345779419e-02
-5.819592624902725220e-02
-2.110351622104644775e-02
-3.628516942262649536e-02
-1.222161650657653809e-01
2.430349774658679962e-02
-1.295671910047531128e-01
2.661091685295104980e-01
-5.215685069561004639e-02
3.021446168422698975e-01
1.923541165888309479e-02
1.786623895168304443e-01
2.189049683511257172e-02
-3.560071811079978943e-02
-1.400987654924392700e-01
1.750611960887908936e-01
7.730480283498764038e-02
-7.847577333450317383e-03
1.017464548349380493e-01
3.127278983592987061e-01
1.316186040639877319e-01
-4.898187518119812012e-01
-3.010217547416687012e-01
9.542211890220642090e-02
-7.957533001899719238e-02
-9.321317821741104126e-02
3.287242352962493896e-01
-2.050450891256332397e-01
-1.025906652212142944e-01
9.282542765140533447e-02
1.653876900672912598e-02
1.636501401662826538e-02
9.665185958147048950e-02
-4.326567053794860840e-02
-1.735273748636245728e-02
-1.439258828759193420e-02
-2.418079227209091187e-01
1.510566473007202148e-02
2.300806045532226562e-01
-2.489540129899978638e-01
2.323290258646011353e-01
-1.265489757061004639e-01
-1.048546060919761658e-01
1.250684559345245361e-01
2.872932851314544678e-01
1.629201918840408325e-01
1.858321763575077057e-02
-3.379180282354354858e-02
-1.339673548936843872e-01
4.348812252283096313e-02
-2.844983525574207306e-02
-6.174216791987419128e-02
5.746712908148765564e-03
-4.713473469018936157e-02
3.260264545679092407e-02
6.823462247848510742e-02
-4.841836169362068176e-02
-3.784606978297233582e-02
-1.361471563577651978e-01
1.198649778962135315e-02
1.569660454988479614e-01
1.320366114377975464e-01
-1.252103000879287720e-01
4.373656958341598511e-02
5.108346790075302124e-02
-8.350371569395065308e-02
-1.585363037884235382e-02
5.221311002969741821e-02
-4.752267524600028992e-02
4.609758779406547546e-02
7.699115574359893799e-02
9.174638241529464722e-02
-8.042539656162261963e-02
-1.148115247488021851e-01
2.527745626866817474e-02
2.886619046330451965e-02
-3.992077708244323730e-02
2.566384710371494293e-02
-1.321061253547668457e-01
1.447362750768661499e-01
-1.433778703212738037e-01
-7.580490410327911377e-02
-2.007336355745792389e-02
1.087829545140266418e-01
-5.493570584803819656e-03
-1.189558021724224091e-02
2.932179532945156097e-02
-1.021736338734626770e-01
9.426475502550601959e-03
1.106089204549789429e-01
-1.175119262188673019e-02
-2.341287210583686829e-02
-1.902179419994354248e-02
-7.632518559694290161e-02
-2.696120925247669220e-02
-1.508284509181976318e-01
3.952122107148170471e-02
2.558864466845989227e-02
5.729968473315238953e-02
-1.168121695518493652e-01
-1.120685935020446777e-01
-9.036551415920257568e-02
-2.084909193217754364e-02
4.808381665498018265e-03
8.335383236408233643e-02
2.264413610100746155e-02
2.248081006109714508e-02
-2.422590926289558411e-02
1.436018757522106171e-02
1.177551746368408203e-01
1.921069435775279999e-02
-4.118651896715164185e-02
3.190389275550842285e-02
-6.661289185285568237e-02
-1.049958448857069016e-02
-5.791712179780006409e-02
4.168401286005973816e-02
3.783234627917408943e-03
6.633849348872900009e-03
8.711312711238861084e-02
6.460747867822647095e-02
8.511326462030410767e-02
-4.494680836796760559e-02
-4.926190525293350220e-02
5.038766562938690186e-02
-1.715468764305114746e-01
-4.230000823736190796e-02
9.602700918912887573e-02
-1.889521442353725433e-02
6.249359343200922012e-03
3.661384433507919312e-02
-5.984072759747505188e-02
6.640657782554626465e-02
6.118224561214447021e-02
3.569427132606506348e-02
-3.693962097167968750e-02
7.280321326106786728e-03
7.069798558950424194e-02
-1.343010663986206055e-01
6.605084240436553955e-02
5.853274837136268616e-02
-1.198909953236579895e-01
-1.443165093660354614e-01
3.624082729220390320e-02
-9.418959915637969971e-02
-1.005444154143333435e-01
4.891594499349594116e-02
-2.148303948342800140e-02
3.446976840496063232e-02
9.880532324314117432e-02
4.236383363604545593e-02
5.871331691741943359e-02
2.991259843111038208e-02
2.936867438256740570e-02
-9.833237528800964355e-02
3.828587755560874939e-02
-9.553758800029754639e-02
3.006067685782909393e-02
5.817321687936782837e-02
-7.911339402198791504e-02
-1.235687285661697388e-01
-8.550559729337692261e-02
4.721260443329811096e-02
-4.668967798352241516e-02
6.692004203796386719e-02
-2.022342383861541748e-02
1.019538491964340210e-01
4.569116607308387756e-02
-6.364341359585523605e-03
1.028163582086563110e-01
-1.388584263622760773e-02
3.387862350791692734e-03
1.149082556366920471e-02
9.530098736286163330e-02
-3.021289780735969543e-02
-6.181592587381601334e-03
-2.322155283764004707e-03
8.415108174085617065e-02
-3.571717813611030579e-02
4.829706624150276184e-02
-8.199798315763473511e-02
3.251570463180541992e-02
-6.774623692035675049e-02
1.327489688992500305e-02
4.199639335274696350e-02
-6.153067108243703842e-03
-8.785509318113327026e-02
3.127186500933021307e-04
7.488591223955154419e-02
-1.172086223959922791e-02
2.039937302470207214e-02
1.766306720674037933e-02
1.422819048166275024e-01
2.986957319080829620e-02
2.276892215013504028e-02
2.641442604362964630e-02
-1.486089173704385757e-02
3.991523757576942444e-03
1.203197240829467773e-01
2.067325636744499207e-02
2.431647665798664093e-02
-3.643686696887016296e-02
-6.922060996294021606e-02
2.311596646904945374e-02
-4.483776912093162537e-02
1.899511367082595825e-02
4.509456828236579895e-02
1.009951531887054443e-01
7.760770618915557861e-02
3.053259104490280151e-02
2.920629631262272596e-04
-1.519307866692543030e-02
5.323476716876029968e-02
-1.336121466010808945e-02
-4.960981011390686035e-02
1.071638986468315125e-02
-5.002718418836593628e-02
-3.757543116807937622e-02
-5.901227705180644989e-03
3.065613470971584320e-02
7.083393167704343796e-03
6.549157947301864624e-02
1.867821253836154938e-02
-4.396852105855941772e-02
3.012271225452423096e-02
-7.582207676023244858e-03
-6.087567657232284546e-02
4.086650535464286804e-02
6.144961714744567871e-02
-8.465126156806945801e-02
1.220472902059555054e-02
4.940840601921081543e-02
-2.931520109996199608e-03
-5.105916783213615417e-02
8.133742958307266235e-02
-3.939445689320564270e-02
-3.724143281579017639e-02
7.719624787569046021e-03
-2.252940647304058075e-02
-1.073203086853027344e-01
1.381960213184356689e-01
-4.881615936756134033e-02
7.671020925045013428e-02
-2.429690584540367126e-02
4.973566159605979919e-03
1.884029619395732880e-02
3.933197632431983948e-02
3.168271854519844055e-02
5.907994136214256287e-02
9.902238100767135620e-02
9.743721224367618561e-03
-8.220618218183517456e-02
4.358758777379989624e-02
2.406262420117855072e-02
-4.771612584590911865e-02
7.586874812841415405e-02
4.392289556562900543e-04
-7.168907672166824341e-02
-1.218896135687828064e-01
-4.469593521207571030e-03
2.140727080404758453e-02
-5.936302617192268372e-02
6.959195248782634735e-03
-7.124191522598266602e-02
3.167930245399475098e-02
2.155559509992599487e-02
6.518695503473281860e-02
-2.757240645587444305e-02
2.569379843771457672e-02
-8.683004975318908691e-02
9.616033732891082764e-02
-8.068101853132247925e-02
-4.106428474187850952e-02
-1.038399711251258850e-01
-6.275948882102966309e-02
2.601438015699386597e-02
-4.501009359955787659e-02
-1.135911419987678528e-01
-6.568822264671325684e-02
1.980785280466079712e-02
-4.495263099670410156e-02
-7.294853776693344116e-02
-1.676251888275146484e-01
-5.416354164481163025e-02
2.611091360449790955e-02
-1.242458224296569824e-01
-7.775129377841949463e-02
7.100705988705158234e-03
-9.116713702678680420e-02
9.777143597602844238e-02
-1.753280609846115112e-01
-3.715656325221061707e-02
-8.565613627433776855e-02
-2.513683028519153595e-02
-2.670094557106494904e-02
9.837030619382858276e-02
7.274915277957916260e-02
-6.297894567251205444e-02
-3.094741888344287872e-02
-1.885128393769264221e-02
4.379183799028396606e-02
-1.061126217246055603e-01
-3.262403234839439392e-02
2.406757324934005737e-02
-1.176630258560180664e-01
-3.537195548415184021e-02
-1.655303537845611572e-01
6.106070056557655334e-02
-1.339938789606094360e-01
1.826346963644027710e-01
-8.480200171470642090e-02
3.373556211590766907e-02
6.072101742029190063e-02
-3.607701659202575684e-01
-1.849500089883804321e-01
6.215307861566543579e-02
-4.060025513172149658e-02
-8.979795500636100769e-03
1.658589020371437073e-02
2.714355476200580597e-02
-9.535998106002807617e-02
-1.048386469483375549e-01
-4.858344793319702148e-02
-5.552273988723754883e-02
-4.465038701891899109e-02
3.209528746083378792e-03
5.821113288402557373e-02
-1.382956951856613159e-01
-4.205288365483283997e-02
3.845721017569303513e-03
1.256099343299865723e-01
6.671450287103652954e-02
-6.369441002607345581e-02
4.450991377234458923e-02
5.198111757636070251e-02
9.827686101198196411e-02
-3.324301540851593018e-02
-1.307390332221984863e-01
-6.677222996950149536e-02
-3.759249672293663025e-02
6.744153797626495361e-02
2.588791027665138245e-02
-9.671901911497116089e-02
5.253120884299278259e-02
3.012936376035213470e-02
5.922032892704010010e-02
-3.438510000705718994e-01
1.284930971451103687e-03
2.791330777108669281e-02
2.105151861906051636e-01
-4.799793660640716553e-02
2.197488583624362946e-02
2.730014920234680176e-02
3.863230347633361816e-02
2.707016281783580780e-02
5.408839136362075806e-02
1.398028433322906494e-01
2.194889262318611145e-02
2.262747101485729218e-02
1.275746151804924011e-02
-7.143302261829376221e-02
-6.576621904969215393e-03
-1.908494085073471069e-01
-3.282995894551277161e-02
1.023108325898647308e-02
-7.500995695590972900e-02
3.248786926269531250e-02
9.095236659049987793e-02
-3.842654824256896973e-02
4.275510460138320923e-02
1.300944536924362183e-01
-6.484232097864151001e-02
-2.024881396209821105e-04
8.746641874313354492e-02
-6.461354345083236694e-02
-1.671472787857055664e-01
6.719126552343368530e-02
-7.488128542900085449e-02
-3.007052466273307800e-02
6.287211179733276367e-02
-4.691772162914276123e-02
1.863067783415317535e-02
-4.083634167909622192e-02
-4.845542088150978088e-02
8.354895561933517456e-02
1.219542417675256729e-02
1.083910930901765823e-02
8.220514655113220215e-02
1.241818964481353760e-01
-2.840122580528259277e-02
6.430794950574636459e-03
6.984501145780086517e-03
-1.461554616689682007e-01
-1.654985249042510986e-01
9.839379787445068359e-02
2.398209646344184875e-02
1.918209902942180634e-02
1.263182461261749268e-01
-1.024135481566190720e-02
-1.106449142098426819e-01
-8.964653313159942627e-02
-7.120858645066618919e-04
5.870987474918365479e-02
2.376922219991683960e-02
1.895065419375896454e-02
3.838180378079414368e-02
-4.623700305819511414e-02
-6.359417736530303955e-02
4.402796924114227295e-02
3.112624771893024445e-02
-8.886932395398616791e-03
-5.696786567568778992e-03
-1.604542881250381470e-02
1.011328306049108505e-02
-4.682762175798416138e-02
1.436622999608516693e-02
1.431375090032815933e-02
6.006325781345367432e-02
2.996139787137508392e-02
3.048281371593475342e-02
-3.391585499048233032e-02
2.854176610708236694e-02
-6.833586841821670532e-02
-6.565547734498977661e-02
-7.263751327991485596e-02
-1.207251325249671936e-01
-8.647234737873077393e-02
1.363377422094345093e-01
-1.049688737839460373e-02
-1.000877171754837036e-01
-5.290059745311737061e-02
-2.938396669924259186e-02
-6.395716965198516846e-02
7.397200912237167358e-02
-5.367768928408622742e-02
-3.469422832131385803e-02
7.044404000043869019e-02
1.253194808959960938e-01
9.585744887590408325e-02
-7.682087365537881851e-03
-9.423506259918212891e-02
2.314215293154120445e-03
-8.654230833053588867e-02
-4.676079005002975464e-02
-1.136240810155868530e-01
5.014960467815399170e-02
-1.564983837306499481e-02
-4.464787989854812622e-02
-7.348293066024780273e-02
-1.754969358444213867e-01
5.680088326334953308e-02
2.786597236990928650e-02
9.975173324346542358e-02
1.732912063598632812e-01
1.899194344878196716e-02
-3.778458386659622192e-02
-3.222457692027091980e-02
-1.238074339926242828e-02
9.238056093454360962e-02
-4.381105303764343262e-02
-1.618383685126900673e-03
-2.053943127393722534e-01
-7.922026515007019043e-02
1.255739945918321609e-02
8.798888325691223145e-02
6.176041439175605774e-02
-1.219022180885076523e-02
1.619865000247955322e-02
-1.083261705935001373e-02
-2.066833712160587311e-02
1.039320975542068481e-02
-3.224625810980796814e-02
-3.265360593795776367e-01
-1.546738445758819580e-01
-8.210293948650360107e-02
4.007739573717117310e-02
-7.225261628627777100e-02
4.872539639472961426e-02
4.293321445584297180e-02
8.353880047798156738e-02
-5.125022307038307190e-02
6.932096183300018311e-02
-2.779368497431278229e-02
1.542946994304656982e-01
1.528726667165756226e-01
5.348570272326469421e-02
6.815185397863388062e-02
2.376460470259189606e-02
-3.973057270050048828e-01
4.546399042010307312e-02
-1.428288370370864868e-01
3.329328447580337524e-02
1.649313122034072876e-01
-1.202126517891883850e-01
-8.365000039339065552e-02
1.119609456509351730e-02
-5.230814591050148010e-02
-1.912590563297271729e-01
7.304393220692873001e-03
6.466684490442276001e-02
-2.148075848817825317e-01
8.825156092643737793e-02
3.388569876551628113e-02
-7.809153199195861816e-02
-8.614081889390945435e-02
-8.745096623897552490e-03
3.133748099207878113e-02
1.430639624595642090e-01
-8.497599512338638306e-02
6.240397691726684570e-02
2.897501736879348755e-02
-1.715369755402207375e-03
2.724555507302284241e-02
3.489954769611358643e-02
-5.823774933815002441e-01
1.608055830001831055e-02
-6.064923852682113647e-02
6.011817604303359985e-02
-2.510302513837814331e-02
7.580737024545669556e-02
1.370378583669662476e-02
-1.250847429037094116e-01
1.254990100860595703e-01
-5.248863622546195984e-02
-9.278521686792373657e-02
1.960035972297191620e-02
6.858828663825988770e-02
-1.026184111833572388e-01
4.072633758187294006e-02
-8.233293890953063965e-02
4.135159403085708618e-02
6.811302900314331055e-02
-2.744807675480842590e-02
-9.129866026341915131e-03
-3.273381735198199749e-04
-2.990546077489852905e-02
-8.812881261110305786e-02
-3.473729789257049561e-01
1.546175405383110046e-02
4.120778664946556091e-02
-7.193980365991592407e-02
1.642380356788635254e-01
6.265864241868257523e-03
-4.831972420215606689e-01
-1.984382979571819305e-02
-7.403383031487464905e-03
6.670327484607696533e-02
-6.413320451974868774e-02
4.566388670355081558e-03
-1.009361073374748230e-01
-5.311670899391174316e-02
2.762888185679912567e-02
-2.868864126503467560e-02
2.028032019734382629e-02
-1.047541573643684387e-01
-4.336983337998390198e-02
2.563682571053504944e-02
4.099757969379425049e-02
-3.896105661988258362e-02
-2.804598771035671234e-02
-3.459829092025756836e-01
6.461247336119413376e-03
5.539288744330406189e-02
6.658568978309631348e-02
-8.292183279991149902e-02
-7.348871976137161255e-02
-1.050416976213455200e-01
-4.129644855856895447e-02
-1.601572185754776001e-01
-1.351715065538883209e-02
-2.092169374227523804e-01
-1.066918671131134033e-01
1.043703109025955200e-01
9.157720208168029785e-02
-3.887544572353363037e-02
2.797226607799530029e-02
-7.128710858523845673e-03
1.447028201073408127e-02
-3.130142763257026672e-02
5.789738893508911133e-02
-4.918606206774711609e-02
-7.002952694892883301e-02
-1.689742878079414368e-02
-6.964018195867538452e-02
-8.408552967011928558e-03
-1.290462017059326172e-01
6.277571618556976318e-02
-1.175973284989595413e-02
-1.772826537489891052e-02
-3.679165244102478027e-02
-8.230851590633392334e-02
5.953504517674446106e-02
2.334948442876338959e-02
6.516508758068084717e-02
-5.303804576396942139e-02
-5.501599051058292389e-03
3.426020964980125427e-02
-1.315727829933166504e-03
9.255739301443099976e-02
1.361258924007415771e-01
-5.863836035132408142e-03
7.867912948131561279e-02
2.598574198782444000e-02
6.691538542509078979e-02
7.811213284730911255e-02
3.168400004506111145e-02
-1.327098160982131958e-02
6.193687021732330322e-02
-9.853483177721500397e-03
-3.056001290678977966e-02
1.511677447706460953e-02
4.303687438368797302e-02
-5.432230606675148010e-02
9.914594143629074097e-02
-4.446057975292205811e-02
-6.626169383525848389e-02
-9.556827694177627563e-02
1.339573599398136139e-02
3.261997550725936890e-02
3.946965560317039490e-02
-3.063321672379970551e-02
1.406435817480087280e-01
-2.442664280533790588e-02
1.156842112541198730e-01
6.824538856744766235e-02
-7.034866511821746826e-02
-1.754763163626194000e-02
-3.016470186412334442e-02
7.455385755747556686e-03
-4.676246643066406250e-02
5.421063676476478577e-02
-8.965057134628295898e-02
3.250511130318045616e-03
-1.626666635274887085e-01
-1.286604069173336029e-02
7.843164354562759399e-02
-1.128203794360160828e-02
-5.294677242636680603e-02
-3.934543579816818237e-02
-9.088607504963874817e-03
