1.756852120161056519e-01
1.261329799890518188e-01
2.269173413515090942e-01
-5.534053966403007507e-02
2.389092743396759033e-01
1.308811604976654053e-01
1.822660118341445923e-01
-6.207988411188125610e-02
-4.779936373233795166e-02
1.453669518232345581e-01
-1.148925721645355225e-02
1.991274654865264893e-01
1.557249575853347778e-01
1.756572127342224121e-01
-1.699107117019593716e-03
1.889771670103073120e-01
1.182973161339759827e-01
-7.387142628431320190e-02
-5.336156114935874939e-02
-6.668321043252944946e-02
-1.751872338354587555e-02
1.734009832143783569e-01
1.184751763939857483e-01
-2.275070920586585999e-02
2.862398885190486908e-02
1.884259134531021118e-01
1.509037762880325317e-01
1.481958776712417603e-01
1.645519137382507324e-01
1.458600312471389771e-01
1.467647999525070190e-01
1.626549661159515381e-01
1.360204964876174927e-01
1.903850734233856201e-01
1.706593185663223267e-01
-1.519297156482934952e-02
1.783633381128311157e-01
-4.063897207379341125e-02
1.773302257061004639e-01
1.346371322870254517e-01
1.810165643692016602e-01
1.796330213546752930e-01
-8.417058736085891724e-02
1.873424053192138672e-01
1.509898453950881958e-01
-1.900609210133552551e-02
1.635126918554306030e-01
1.718584299087524414e-01
-1.043251380324363708e-01
-2.146828733384609222e-02
1.526430994272232056e-01
-5.890369787812232971e-02
9.162640199065208435e-03
-6.685110181570053101e-02
1.798427999019622803e-01
1.363246291875839233e-01
2.259734719991683960e-01
-7.468614727258682251e-02
-6.968474481254816055e-03
1.494634002447128296e-01
-2.692485228180885315e-02
1.589024364948272705e-01
1.860442161560058594e-01
1.043021157383918762e-01
-4.247574880719184875e-02
2.277231961488723755e-01
-9.974587708711624146e-03
1.994638890027999878e-01
-2.336705289781093597e-02
1.298807114362716675e-01
-3.934142366051673889e-02
-2.870592521503567696e-03
-3.776053711771965027e-02
1.351484209299087524e-01
-2.749462798237800598e-02
1.771570146083831787e-01
-8.613359183073043823e-02
-3.024226240813732147e-02
-2.058661356568336487e-02
1.939479708671569824e-01
1.342134326696395874e-01
1.804816424846649170e-01
2.105114459991455078e-01
2.145049870014190674e-01
1.776929944753646851e-01
-6.783229857683181763e-02
-9.065914899110794067e-03
1.786742657423019409e-01
-1.344489865005016327e-02
-1.017943490296602249e-03
-5.408092215657234192e-02
-5.603502504527568817e-03
1.970390081405639648e-01
-4.707189649343490601e-02
-7.550881057977676392e-02
-3.631588816642761230e-02
1.477154642343521118e-01
-6.708940118551254272e-02
1.395238041877746582e-01
-4.350867494940757751e-02
1.677448898553848267e-01
1.560094486922025681e-02
1.758309006690979004e-01
-6.244953256100416183e-03
1.725825667381286621e-01
-1.309807784855365753e-02
-2.972085028886795044e-02
1.477034091949462891e-01
-8.043314516544342041e-02
-4.357996582984924316e-02
2.013020962476730347e-01
-2.429945580661296844e-02
1.606619954109191895e-01
1.417170166969299316e-01
2.152104973793029785e-01
1.724745631217956543e-01
1.086855083703994751e-01
1.818045377731323242e-01
1.724714338779449463e-01
1.563426107168197632e-01
1.452534794807434082e-01
1.709142625331878662e-01
1.903579086065292358e-01
1.604457646608352661e-01
-3.201458603143692017e-02
1.897228509187698364e-01
-7.421713788062334061e-03
-2.590776421129703522e-02
