1.791985630989074707e-01
-9.157330542802810669e-02
-1.527974605560302734e-01
-1.488881707191467285e-01
4.126826766878366470e-03
1.671154797077178955e-01
1.026304885745048523e-01
-1.668498963117599487e-01
-1.071199253201484680e-01
-1.399360746145248413e-01
-7.655875384807586670e-02
7.598176132887601852e-03
-6.787469238042831421e-02
-1.455739736557006836e-01
1.076165810227394104e-01
2.271986156702041626e-01
1.906196027994155884e-01
4.414035379886627197e-02
-1.589227616786956787e-01
8.365703374147415161e-02
-5.141827277839183807e-03
2.619545534253120422e-02
-3.156119957566261292e-02
1.564236879348754883e-01
2.034622579813003540e-01
-6.696977466344833374e-02
3.481265902519226074e-02
-6.401250604540109634e-03
-8.578096330165863037e-02
9.032723307609558105e-02
-1.833751946687698364e-01
-1.388119459152221680e-01
-1.803542971611022949e-01
-1.646629273891448975e-01
-1.254484057426452637e-01
1.276695430278778076e-01
1.682191789150238037e-01
1.191915478557348251e-03
5.551389884203672409e-03
-6.686796247959136963e-02
2.884076535701751709e-02
-1.159243211150169373e-01
-8.552876114845275879e-02
-7.173733413219451904e-02
8.047828450798988342e-03
-4.733321722596883774e-03
5.219179019331932068e-02
1.170991882681846619e-01
-1.824357509613037109e-01
2.681827917695045471e-02
1.462971977889537811e-02
-1.294480264186859131e-01
1.099562868475914001e-01
-3.667826578021049500e-02
1.338073611259460449e-01
-2.475836127996444702e-02
1.440376490354537964e-01
3.326581418514251709e-02
-1.642163544893264771e-01
-8.839520066976547241e-02
2.038184106349945068e-01
-7.675650715827941895e-02
7.690720260143280029e-02
2.015452384948730469e-01
-7.805033773183822632e-02
-1.338017433881759644e-01
-5.642800778150558472e-02
3.465741872787475586e-02
-1.177103593945503235e-01
1.661382019519805908e-01
-1.587803959846496582e-01
2.456728965044021606e-01
-1.331970989704132080e-01
1.599037349224090576e-01
4.065615683794021606e-02
1.115636005997657776e-01
-2.475414797663688660e-02
6.250325590372085571e-02
2.164194732904434204e-01
1.408396661281585693e-01
8.847845345735549927e-02
8.795932680368423462e-02
-5.093659833073616028e-02
-6.317514926195144653e-02
1.819116473197937012e-01
3.812205418944358826e-02
1.154560744762420654e-01
9.260341525077819824e-03
1.574010774493217468e-02
-4.205218702554702759e-02
8.134887367486953735e-02
1.170122250914573669e-01
8.273150026798248291e-02
-1.177635937929153442e-01
-7.757195830345153809e-02
-1.891863197088241577e-01
-2.021395415067672729e-01
5.713170766830444336e-02
2.128766477108001709e-01
-2.244694232940673828e-01
-1.075910180807113647e-01
-1.197746843099594116e-01
-1.043937504291534424e-01
-1.100159734487533569e-01
-1.843745708465576172e-01
-2.131039947271347046e-01
2.297802716493606567e-01
-1.017184462398290634e-02
-2.212207466363906860e-01
-1.648458093404769897e-02
1.392404139041900635e-01
-2.830362506210803986e-02
1.529510915279388428e-01
-1.324411183595657349e-01
-4.087881743907928467e-02
1.110963076353073120e-01
-1.050141975283622742e-01
5.046648904681205750e-02
-1.019237190485000610e-01
-1.088899224996566772e-01
-9.548076987266540527e-02
1.507890373468399048e-01
-9.802582114934921265e-02
1.946986615657806396e-01
2.237743139266967773e-01
-2.159617096185684204e-01
1.144034415483474731e-01
1.346406340599060059e-01
9.941706061363220215e-02
-4.156923294067382812e-02
-5.455177649855613708e-02
-1.952463090419769287e-01
-1.119161918759346008e-01
1.958900690078735352e-01
2.121873646974563599e-01
1.124646887183189392e-01
2.049579322338104248e-01
-8.439942449331283569e-02
3.604843094944953918e-02
1.076429039239883423e-01
6.877133995294570923e-02
-4.161510989069938660e-02
-6.745712459087371826e-02
6.585086137056350708e-02
-1.521925926208496094e-01
1.663023531436920166e-01
-1.500078127719461918e-03
1.578778773546218872e-01
-2.204289585351943970e-01
9.651850163936614990e-02
1.769424527883529663e-01
-1.503022611141204834e-01
-1.552355289459228516e-01
1.494616717100143433e-01
7.041402161121368408e-02
1.591988354921340942e-01
1.115171462297439575e-01
2.478502243757247925e-01
-5.926500260829925537e-02
1.607977449893951416e-01
-1.268912553787231445e-01
-1.902323514223098755e-01
7.955122739076614380e-02
-6.153971329331398010e-02
1.126732677221298218e-01
-9.915754944086074829e-02
9.056559950113296509e-02
1.601404398679733276e-01
8.816478401422500610e-02
-7.692902535200119019e-02
6.933954358100891113e-02
2.029647827148437500e-01
4.700282588601112366e-02
-6.405961513519287109e-02
1.306325644254684448e-01
-1.070486381649971008e-01
1.682604402303695679e-01
8.378129452466964722e-02
1.565068811178207397e-01
1.189629808068275452e-01
-1.288816034793853760e-01
8.221629261970520020e-02
1.868286728858947754e-02
6.068933755159378052e-02
6.786973774433135986e-02
2.511080726981163025e-02
9.943767637014389038e-02
-2.056176662445068359e-01
1.549509936012327671e-03
1.210175803862512112e-03
1.652974933385848999e-01
-1.605544686317443848e-01
1.103048175573348999e-01
1.085399538278579712e-01
1.786950379610061646e-01
6.841401010751724243e-02
-2.181580215692520142e-01
-2.110948711633682251e-01
-5.394329875707626343e-02
-5.422977358102798462e-02
1.871906593441963196e-02
1.472415402531623840e-02
9.669540822505950928e-02
-1.993573009967803955e-01
1.031111180782318115e-02
-1.751078069210052490e-01
1.186044365167617798e-01
-1.247809231281280518e-01
3.663794603198766708e-03
7.898940145969390869e-02
3.180684894323348999e-02
1.187724545598030090e-01
-1.468509808182716370e-02
3.332998603582382202e-02
9.083931148052215576e-02
1.181629523634910583e-01
-3.963572904467582703e-02
-1.839339500293135643e-03
1.963644027709960938e-01
-1.818551570177078247e-01
-1.105487868189811707e-01
-2.082955241203308105e-01
-1.413384824991226196e-01
2.131972610950469971e-01
-3.629716485738754272e-02
9.564856067299842834e-03
1.649806499481201172e-01
-1.518472135066986084e-01
9.664280712604522705e-02
-1.622754633426666260e-01
1.061881408095359802e-01
-3.334361314773559570e-02
8.525902032852172852e-02
7.633943110704421997e-02
8.094800263643264771e-02
2.027630209922790527e-01
-1.507724374532699585e-01
1.544222682714462280e-01
7.546754181385040283e-02
2.178086936473846436e-01
1.091962605714797974e-01
4.645545780658721924e-02
-1.918866783380508423e-01
1.410205960273742676e-01
-2.031771093606948853e-01
1.559301167726516724e-01
-2.024924159049987793e-01
1.018754765391349792e-01
1.180215999484062195e-01
-5.631625652313232422e-02
1.115554794669151306e-01
7.899553328752517700e-02
7.437636703252792358e-02
1.414379454217851162e-03
1.498004347085952759e-01
1.905116811394691467e-02
-2.209730148315429688e-01
7.004113495349884033e-02
5.310249701142311096e-02
2.013805657625198364e-01
-9.010241180658340454e-02
-1.388577520847320557e-01
1.831438243389129639e-01
-1.000364646315574646e-01
-4.342100769281387329e-02
-5.518817901611328125e-02
6.516247987747192383e-02
6.592435389757156372e-02
1.292713135480880737e-01
-9.838356077671051025e-02
2.504820749163627625e-02
-1.392278224229812622e-01
9.290346503257751465e-02
-2.078260630369186401e-01
-9.984539821743965149e-03
9.162867069244384766e-02
1.636049002408981323e-01
-9.083136171102523804e-02
-2.427517324686050415e-01
1.796235889196395874e-01
-9.486643224954605103e-02
-2.055096775293350220e-01
3.356833383440971375e-02
-4.249016568064689636e-02
5.914602428674697876e-02
3.936289250850677490e-02
1.445322781801223755e-01
-6.105984374880790710e-02
-6.356462836265563965e-03
-1.203225404024124146e-01
9.476619958877563477e-02
-1.186367794871330261e-01
-1.429102122783660889e-01
1.056948378682136536e-01
2.182939946651458740e-01
1.027843058109283447e-01
-2.280990630388259888e-01
1.104783564805984497e-01
-2.249857932329177856e-01
-1.155659630894660950e-01
9.010513871908187866e-02
-2.026700675487518311e-01
2.742256596684455872e-02
8.929979056119918823e-02
9.799556434154510498e-02
-1.572819650173187256e-01
-1.027474850416183472e-01
1.095554977655410767e-01
1.781086921691894531e-01
-8.775474876165390015e-02
5.544573068618774414e-02
1.471946537494659424e-01
1.153268888592720032e-01
-1.851843893527984619e-01
-1.393179595470428467e-01
1.264932155609130859e-01
5.370183847844600677e-03
6.499820202589035034e-02
8.057764172554016113e-02
-7.754074782133102417e-02
-9.262446314096450806e-02
1.064908802509307861e-01
1.768020726740360260e-02
1.607101708650588989e-01
2.101901322603225708e-01
1.023826189339160919e-02
-1.591867655515670776e-01
-9.733265638351440430e-02
-1.185640841722488403e-01
3.373919054865837097e-02
6.187525764107704163e-02
9.717328846454620361e-02
1.803645789623260498e-01
-2.482508495450019836e-02
3.631900623440742493e-02
5.349025130271911621e-02
-1.726277754642069340e-03
-9.006351232528686523e-02
-1.423051059246063232e-01
1.210625246167182922e-01
7.379998266696929932e-02
1.905440352857112885e-02
2.550847232341766357e-01
1.868954673409461975e-02
1.111163347959518433e-01
-5.814471095800399780e-02
-3.227647393941879272e-02
1.640750914812088013e-01
9.458500146865844727e-02
-2.417074702680110931e-02
9.320031106472015381e-02
2.913509868085384369e-02
1.256036758422851562e-01
1.409232169389724731e-01
2.195452302694320679e-01
6.031038984656333923e-02
-5.534489080309867859e-02
3.420120105147361755e-02
-7.397935539484024048e-02
1.106521673500537872e-02
-1.360699534416198730e-01
-1.035037413239479065e-01
1.019432842731475830e-01
8.716680109500885010e-02
-3.498963639140129089e-02
5.747244134545326233e-02
8.016569912433624268e-02
7.882464677095413208e-03
-1.902681775391101837e-02
4.917892813682556152e-02
1.554638594388961792e-01
1.342409998178482056e-01
-7.957118749618530273e-02
4.713895544409751892e-02
1.346557773649692535e-02
-1.075318828225135803e-01
9.963431209325790405e-02
-7.529119402170181274e-02
1.315081268548965454e-01
-4.174637421965599060e-02
-8.870968967676162720e-02
-1.638182550668716431e-01
-5.852002650499343872e-02
1.734363138675689697e-01
7.254102965816855431e-04
-1.356751471757888794e-01
-2.443486601114273071e-01
5.659338086843490601e-02
7.066094875335693359e-02
-1.578948348760604858e-01
-1.535757184028625488e-01
1.302881240844726562e-01
1.748165190219879150e-01
-9.842777252197265625e-02
-1.355995237827301025e-02
-6.692516058683395386e-02
1.648987382650375366e-01
2.305399626493453979e-01
-1.974876374006271362e-01
1.807351559400558472e-01
5.303303897380828857e-02
1.048205494880676270e-01
-9.195733815431594849e-02
-9.455883502960205078e-02
-9.793338179588317871e-02
2.318960428237915039e-01
3.890202194452285767e-02
-6.873239576816558838e-02
-1.513586342334747314e-01
3.831145539879798889e-02
7.277312874794006348e-02
-1.727695763111114502e-01
-1.246359199285507202e-01
-1.332066208124160767e-02
1.259315460920333862e-01
-1.246940493583679199e-01
-3.777429088950157166e-02
-9.162588417530059814e-02
-1.416379511356353760e-01
-8.683580160140991211e-02
1.837812811136245728e-01
2.613824009895324707e-01
9.551362693309783936e-02
-1.016453504562377930e-01
-2.022353187203407288e-02
-1.566069424152374268e-01
-1.512315124273300171e-01
-2.994516491889953613e-02
1.353807449340820312e-01
1.571669131517410278e-01
7.596870511770248413e-02
8.817866444587707520e-02
8.336307853460311890e-02
3.088553622364997864e-02
-2.247231155633926392e-01
6.124533712863922119e-03
-7.907675206661224365e-02
-4.524816200137138367e-02
1.271709054708480835e-01
-2.073726356029510498e-01
2.185071110725402832e-01
-1.072464883327484131e-01
9.295940399169921875e-02
-8.944048732519149780e-02
5.157696828246116638e-02
1.125511676073074341e-01
1.487963795661926270e-01
-2.054787874221801758e-01
-5.650502443313598633e-02
-1.897758245468139648e-02
-1.472225487232208252e-01
1.629015803337097168e-01
-4.768524691462516785e-02
-7.599762827157974243e-02
5.553002282977104187e-02
1.965558081865310669e-01
1.695287078619003296e-01
8.827507495880126953e-02
1.535344682633876801e-02
1.442436426877975464e-01
7.594650238752365112e-02
1.724694818258285522e-01
1.577052921056747437e-01
1.742517799139022827e-01
-8.466104976832866669e-03
-1.280339807271957397e-01
-1.364106237888336182e-01
9.768082201480865479e-02
2.035376429557800293e-01
4.374431446194648743e-02
7.312162965536117554e-02
-1.167878210544586182e-01
2.326717600226402283e-03
-2.142850682139396667e-02
-7.903878390789031982e-02
8.895643800497055054e-02
6.221340969204902649e-02
-1.176266446709632874e-01
1.735830008983612061e-01
-1.741192340850830078e-01
-1.516156196594238281e-01
-1.138746291399002075e-01
-2.659645630046725273e-03
-1.104480326175689697e-01
-1.550384014844894409e-01
-7.683999091386795044e-02
1.952776163816452026e-01
-4.246079549193382263e-02
-1.250409036874771118e-01
9.953352808952331543e-02
1.258164197206497192e-01
-5.122048407793045044e-02
-1.537643000483512878e-02
-1.120404526591300964e-01
-1.113262996077537537e-01
-5.737917870283126831e-02
1.399279683828353882e-01
-1.823300868272781372e-01
-5.344374850392341614e-02
-1.498709321022033691e-01
2.075295150279998779e-01
-5.379797890782356262e-02
-1.303915977478027344e-01
1.981314569711685181e-01
-1.013821661472320557e-01
-1.544022858142852783e-01
-9.188851714134216309e-02
-1.291484804823994637e-04
1.607820242643356323e-01
-8.969356864690780640e-02
7.292303442955017090e-02
-1.573162376880645752e-01
