1.126663088798522949e-01
-1.930781900882720947e-01
6.492670625448226929e-02
-1.408933568745851517e-02
1.093172356486320496e-01
1.235776916146278381e-01
2.648053690791130066e-02
-1.034559756517410278e-01
-9.628434479236602783e-02
-1.642433702945709229e-01
3.063774853944778442e-02
-1.564037427306175232e-02
7.457712292671203613e-02
-5.158958584070205688e-02
-8.490159362554550171e-02
1.097480393946170807e-02
7.758828811347484589e-03
-3.785753250122070312e-02
1.024392694234848022e-01
8.085446804761886597e-02
-1.018486171960830688e-01
-1.094072982668876648e-01
-1.222097203135490417e-01
-7.084105908870697021e-02
-1.954365149140357971e-02
9.133626520633697510e-02
1.087415590882301331e-01
-1.857542395591735840e-01
-7.461829483509063721e-02
-4.690301418304443359e-02
1.108503527939319611e-02
-6.311927735805511475e-02
2.005277900025248528e-03
-1.469594687223434448e-01
-1.668713986873626709e-01
-1.315110027790069580e-01
-1.611210554838180542e-01
9.619724005460739136e-03
5.078524351119995117e-02
-7.898021489381790161e-02
2.919809706509113312e-02
-3.710887581110000610e-02
-8.286266773939132690e-02
-1.336556971073150635e-01
-4.361459612846374512e-02
3.069487959146499634e-02
-3.100946731865406036e-02
3.439863026142120361e-02
-1.855624467134475708e-01
-1.838959306478500366e-01
1.299294531345367432e-01
-9.864383190870285034e-02
-3.423087997362017632e-03
-1.703672856092453003e-02
-4.728961735963821411e-02
-2.051656693220138550e-01
-1.297873258590698242e-01
-1.025831997394561768e-01
-4.738549236208200455e-03
-1.248200684785842896e-01
1.810633242130279541e-01
-2.227092534303665161e-02
-5.806067958474159241e-02
-6.964478641748428345e-02
-3.183751180768013000e-02
4.222957883030176163e-03
6.856682896614074707e-02
6.829521805047988892e-02
-2.536714375019073486e-01
-1.179832071065902710e-01
1.406569778919219971e-01
-1.169345155358314514e-01
3.578098863363265991e-02
-8.247178792953491211e-02
-6.343693286180496216e-02
-2.368044853210449219e-02
-1.600468903779983521e-02
-2.441387623548507690e-02
-1.114171892404556274e-01
-1.503623905591666698e-03
-8.126813173294067383e-02
1.244370796484872699e-04
2.352852560579776764e-02
1.980843022465705872e-02
6.894399225711822510e-02
-8.635818958282470703e-02
1.720807328820228577e-02
-2.447377517819404602e-02
-9.458015114068984985e-02
-2.202286571264266968e-02
-9.379317611455917358e-02
-7.665625959634780884e-02
6.202444061636924744e-02
6.466605514287948608e-02
-6.447818875312805176e-02
-9.835483878850936890e-02
-1.028973385691642761e-01
7.200376689434051514e-02
-1.324747055768966675e-01
1.912936754524707794e-02
-1.924628019332885742e-01
-3.328345715999603271e-02
-2.697947062551975250e-02
-1.505831778049468994e-01
-9.700120240449905396e-02
4.842187464237213135e-02
6.341595947742462158e-02
-9.166508167982101440e-02
-2.707672417163848877e-01
-1.209754571318626404e-01
1.187752485275268555e-01
-8.022203296422958374e-02
3.567283973097801208e-02
-8.938118070363998413e-02
-2.588931620121002197e-01
-7.095700502395629883e-02
4.323568940162658691e-02
5.270703881978988647e-02
-1.458415985107421875e-01
-2.797254128381609917e-04
-7.865172810852527618e-03
2.878376655280590057e-02
1.872381567955017090e-02
-9.809155762195587158e-02
-1.123616918921470642e-01
-3.058806620538234711e-02
9.557288885116577148e-02
-5.517917126417160034e-02
