3.599029183387756348e-01
6.472246348857879639e-02
2.223149240016937256e-01
-2.221384197473526001e-01
-3.138408064842224121e-01
-1.153265908360481262e-01
1.323677003383636475e-01
-9.487766027450561523e-02
1.935450583696365356e-01
-1.505679637193679810e-01
-1.674117147922515869e-01
1.383273303508758545e-01
-3.186317980289459229e-01
-3.416455164551734924e-02
-1.694089323282241821e-01
3.107165098190307617e-01
-1.711725592613220215e-01
-6.910411268472671509e-02
-1.769151985645294189e-01
2.868052721023559570e-01
-3.460957109928131104e-01
2.419215589761734009e-01
-8.462834358215332031e-02
1.293499320745468140e-01
2.472952306270599365e-01
2.786951661109924316e-01
2.669062316417694092e-01
-6.974882632493972778e-02
-1.609260737895965576e-01
1.802974939346313477e-01
-2.996756732463836670e-01
2.919997274875640869e-01
6.098535284399986267e-02
-2.224743366241455078e-01
-1.248866468667984009e-01
1.248965710401535034e-01
-3.487291336059570312e-01
2.207702212035655975e-02
-2.407216578722000122e-01
-1.698815524578094482e-01
2.897924184799194336e-02
-4.869065433740615845e-02
-1.774166524410247803e-01
-1.346926093101501465e-01
5.238359794020652771e-02
1.423989795148372650e-02
1.281314343214035034e-01
-2.927181422710418701e-01
-5.842071771621704102e-02
-3.914314508438110352e-01
-1.661717742681503296e-01
3.120662271976470947e-01
-2.423783987760543823e-01
2.229497432708740234e-01
1.470229625701904297e-01
2.175633758306503296e-01
3.681598603725433350e-01
2.026595175266265869e-01
-3.738074004650115967e-02
2.223365306854248047e-01
-3.280479907989501953e-01
1.310886442661285400e-01
2.514217793941497803e-01
1.043800711631774902e-01
-1.494364142417907715e-01
2.236828207969665527e-01
7.171510159969329834e-02
2.622129023075103760e-01
2.450837492942810059e-01
1.805468201637268066e-01
2.782156318426132202e-02
-4.805151745676994324e-02
-6.894747167825698853e-02
-1.811084598302841187e-01
1.000733450055122375e-01
-2.817745320498943329e-02
4.278678297996520996e-01
-1.375961452722549438e-01
3.317422270774841309e-01
1.166709363460540771e-01
-3.779588341712951660e-01
1.815393418073654175e-01
-2.018604874610900879e-01
-2.099322676658630371e-01
3.278945386409759521e-01
1.003756299614906311e-01
-7.084092497825622559e-02
-2.848369441926479340e-02
1.735830754041671753e-01
-1.245841979980468750e-01
-3.806484937667846680e-01
-2.138707935810089111e-01
6.459399312734603882e-02
1.807491332292556763e-01
3.009707331657409668e-01
1.452276408672332764e-01
4.813376814126968384e-02
3.286281228065490723e-01
1.101853847503662109e-01
-2.855500578880310059e-01
-9.767444431781768799e-02
1.307789236307144165e-01
-2.888225018978118896e-01
-4.222859069705009460e-02
2.159181535243988037e-01
-1.388254910707473755e-01
-3.682726621627807617e-01
-2.036713212728500366e-01
2.265028506517410278e-01
-1.747594922780990601e-01
2.691296637058258057e-01
3.785745427012443542e-02
-3.183591961860656738e-01
3.144088387489318848e-01
-3.587704002857208252e-01
-7.951529324054718018e-02
-1.511808484792709351e-01
3.198100924491882324e-01
1.428511887788772583e-01
2.589758038520812988e-01
-1.318042129278182983e-01
-3.050439357757568359e-01
3.106463849544525146e-01
-1.890735775232315063e-01
1.433950215578079224e-01
5.719566345214843750e-02
-7.297208905220031738e-02
-3.098412416875362396e-02
2.319061607122421265e-01
1.701881289482116699e-01
1.610644608736038208e-01
-2.685310244560241699e-01
-2.762914299964904785e-01
1.035077571868896484e-01
2.409428954124450684e-01
1.217201948165893555e-01
-3.831782341003417969e-01
-1.775496751070022583e-01
7.738469541072845459e-02
2.820085287094116211e-01
-1.799029856920242310e-01
1.039269715547561646e-01
3.164242487400770187e-03
8.354024589061737061e-02
1.198266893625259399e-01
1.510507017374038696e-01
3.744056820869445801e-01
2.306237518787384033e-01
-3.703055679798126221e-01
8.545505255460739136e-02
-5.271502584218978882e-02
-2.654499411582946777e-01
-2.625405192375183105e-01
-1.428307406604290009e-02
-1.499707549810409546e-01
-2.008998692035675049e-01
1.589086055755615234e-01
-7.405411452054977417e-02
4.436810314655303955e-02
-2.935058176517486572e-01
2.086910009384155273e-01
-4.021584689617156982e-01
-1.804025322198867798e-01
-2.680689692497253418e-01
-2.343548983335494995e-01
2.598165869712829590e-01
3.019647598266601562e-01
2.854042649269104004e-01
3.028214871883392334e-01
-1.791017353534698486e-01
-1.422844976186752319e-01
2.969380021095275879e-01
1.624380238354206085e-02
-6.345050781965255737e-02
-2.104831114411354065e-02
-2.086223363876342773e-01
-3.054993450641632080e-01
3.641574084758758545e-02
-1.040059924125671387e-01
-1.853391528129577637e-02
-2.771518230438232422e-01
2.956345379352569580e-01
-1.299027912318706512e-02
2.694560885429382324e-01
1.238798126578330994e-01
1.020207442343235016e-02
-3.257227838039398193e-01
5.606636404991149902e-02
-8.417849987745285034e-02
1.730514615774154663e-01
2.694037184119224548e-02
1.145122051239013672e-01
1.271091103553771973e-01
-2.983247041702270508e-01
6.142441555857658386e-02
-3.817265331745147705e-01
-4.104353021830320358e-03
-6.570798903703689575e-02
2.671183049678802490e-01
-3.395552635192871094e-01
3.927272558212280273e-02
-2.997737526893615723e-01
-1.526091545820236206e-01
-1.976285316050052643e-02
-3.324941992759704590e-01
2.547070570290088654e-02
3.454962372779846191e-01
2.754133045673370361e-01
1.760756075382232666e-01
1.475858874619007111e-02
5.922802165150642395e-02
-1.098963543772697449e-01
-1.799645423889160156e-01
9.347099810838699341e-02
1.071931719779968262e-01
-2.874027788639068604e-01
-3.726597726345062256e-01
-1.704867035150527954e-01
2.641249299049377441e-01
-2.649189159274101257e-02
-1.331419944763183594e-01
-2.271475940942764282e-01
8.324978500604629517e-02
-5.046385899186134338e-02
1.856900453567504883e-01
-6.936898082494735718e-02
9.145753085613250732e-02
-2.177389711141586304e-01
-2.120568007230758667e-01
1.946507692337036133e-01
3.703554570674896240e-01
2.483260482549667358e-01
1.049749478697776794e-01
-9.361367672681808472e-02
1.419520974159240723e-01
3.376442193984985352e-02
-2.310809940099716187e-01
3.241999447345733643e-01
-2.437936514616012573e-01
7.672894746065139771e-02
1.024273224174976349e-02
-3.270445764064788818e-01
-1.681496798992156982e-01
3.501902520656585693e-02
-1.784736290574073792e-02
-3.125521540641784668e-02
-2.712766230106353760e-01
-6.912813521921634674e-03
1.842851787805557251e-01
1.256483979523181915e-02
-3.707647621631622314e-01
3.477172851562500000e-01
-8.995418250560760498e-02
1.886515766382217407e-01
2.603205740451812744e-01
-1.657628417015075684e-01
2.608265280723571777e-01
-2.501500546932220459e-01
-1.178772225975990295e-01
-2.708549499511718750e-01
-2.226892560720443726e-01
9.771685302257537842e-02
2.516268193721771240e-01
3.117977082729339600e-01
-1.899721622467041016e-01
-7.758233696222305298e-02
2.154147475957870483e-01
-2.353146672248840332e-01
-2.827723510563373566e-02
-2.107453197240829468e-01
5.084275081753730774e-02
1.164241060614585876e-01
7.647876162081956863e-03
-3.438106179237365723e-01
2.137192487716674805e-01
-1.365327388048171997e-01
1.280651092529296875e-01
-1.735045462846755981e-01
-2.170080393552780151e-01
-3.767860308289527893e-02
1.627547740936279297e-01
-3.085984587669372559e-01
1.851859986782073975e-01
-8.110127598047256470e-02
2.061278969049453735e-01
-2.812874913215637207e-01
3.607632219791412354e-01
1.636104285717010498e-01
-3.642613589763641357e-01
6.345413625240325928e-02
-2.704147994518280029e-01
4.827151820063591003e-02
-1.314078569412231445e-01
-1.972230337560176849e-02
2.668829560279846191e-01
3.134947419166564941e-01
2.668280303478240967e-01
-1.599291414022445679e-01
7.419145852327346802e-02
-2.489419430494308472e-01
-3.157192170619964600e-01
2.679524123668670654e-01
-1.675474829971790314e-02
1.688000932335853577e-02
-2.551921904087066650e-01
-2.411134093999862671e-01
-2.394660115242004395e-01
-2.584478557109832764e-01
-2.487281858921051025e-01
-2.333629131317138672e-01
2.184209376573562622e-01
-1.531728357076644897e-01
-1.581930667161941528e-01
-3.581725656986236572e-01
-3.825782537460327148e-01
-2.502384483814239502e-01
-3.385661244392395020e-01
-1.044903621077537537e-01
-3.200203776359558105e-01
7.375409454107284546e-02
-1.476175189018249512e-01
3.374872803688049316e-01
-2.252378910779953003e-01
2.131106853485107422e-01
-2.163407206535339355e-01
1.329116523265838623e-01
-3.860677033662796021e-02
-1.928378343582153320e-01
-1.109372600913047791e-01
9.435134381055831909e-02
1.613529175519943237e-01
-4.618971049785614014e-02
9.024012088775634766e-02
6.885971128940582275e-02
-1.215600892901420593e-01
2.765928208827972412e-01
-2.085761576890945435e-01
-2.365533411502838135e-01
2.940220832824707031e-01
-5.417799204587936401e-02
6.999790668487548828e-02
2.063150554895401001e-01
1.302742511034011841e-01
9.062349796295166016e-03
-4.074475765228271484e-01
-2.628760039806365967e-01
-3.035888373851776123e-01
4.010061621665954590e-01
7.649029046297073364e-02
1.775141656398773193e-01
-1.942678838968276978e-01
2.642649710178375244e-01
-2.795651555061340332e-01
2.878006994724273682e-01
-2.199983596801757812e-01
-2.086300998926162720e-01
7.345420867204666138e-02
-1.544243544340133667e-01
-2.994476854801177979e-01
-1.095523536205291748e-01
-4.008969292044639587e-03
2.345830053091049194e-01
-3.778008744120597839e-03
1.873482465744018555e-01
-7.263775169849395752e-02
-2.863116562366485596e-01
2.707220613956451416e-01
1.110946089029312134e-01
-2.004914283752441406e-01
2.666065096855163574e-01
-3.992812633514404297e-01
-1.212984439916908741e-03
2.667813897132873535e-01
2.014027535915374756e-01
-1.102833822369575500e-01
1.946949660778045654e-01
-2.201900780200958252e-01
2.770179212093353271e-01
1.397844403982162476e-01
1.234842166304588318e-01
-3.989428281784057617e-02
1.864414066076278687e-01
-3.038013875484466553e-01
1.405449584126472473e-02
1.109208688139915466e-01
-5.440530925989151001e-02
-3.316700458526611328e-01
1.086300835013389587e-01
-3.058433532714843750e-01
-3.263759911060333252e-01
-4.791617766022682190e-02
-1.539572626352310181e-01
3.963437378406524658e-01
3.639792501926422119e-01
1.407555043697357178e-01
-1.878469139337539673e-01
1.115258708596229553e-01
2.919546067714691162e-01
-3.455837368965148926e-01
1.008910089731216431e-01
-3.391068279743194580e-01
-3.054642677307128906e-01
-3.436148464679718018e-01
9.088513255119323730e-02
-1.115571185946464539e-01
-7.495848834514617920e-02
-2.438558936119079590e-01
-3.073769249022006989e-02
4.495015740394592285e-02
-1.211326420307159424e-01
-1.789551228284835815e-01
3.459017574787139893e-01
1.577870100736618042e-01
2.415636181831359863e-02
-2.121774852275848389e-01
-2.572931814938783646e-03
1.675156056880950928e-01
-2.039542496204376221e-01
2.055732309818267822e-01
-1.761258244514465332e-01
-1.676621288061141968e-01
4.165342822670936584e-02
9.883826225996017456e-02
-3.486042618751525879e-01
2.177385538816452026e-01
1.261521279811859131e-01
-1.533186137676239014e-01
-4.242361485958099365e-01
2.529655098915100098e-01
-3.858513757586479187e-02
-2.546559870243072510e-01
2.738677561283111572e-01
1.433310508728027344e-01
-3.501374647021293640e-02
-2.777489423751831055e-01
-2.708178758621215820e-01
1.395803093910217285e-01
5.989159457385540009e-03
-3.330964148044586182e-01
4.494178667664527893e-02
1.819553673267364502e-01
-2.168295681476593018e-01
5.608314531855285168e-04
-6.633337587118148804e-02
2.528861761093139648e-01
-2.962279915809631348e-01
1.061591282486915588e-01
-2.383678257465362549e-01
7.994578778743743896e-02
-4.130283296108245850e-01
1.154559552669525146e-01
-3.084507584571838379e-02
-4.073110818862915039e-01
2.447198703885078430e-02
4.350213706493377686e-02
-1.388584449887275696e-02
-1.049086824059486389e-01
-1.818506866693496704e-01
1.486173719167709351e-01
-1.321953386068344116e-01
8.716498315334320068e-02
-1.097987219691276550e-01
1.462212800979614258e-01
-3.306637704372406006e-01
-2.445939183235168457e-01
3.948070108890533447e-03
-1.072827205061912537e-01
1.158841103315353394e-01
1.274680495262145996e-01
-5.263397470116615295e-02
-4.062028229236602783e-02
3.010770678520202637e-01
2.731390595436096191e-01
2.383124828338623047e-01
3.391549885272979736e-01
3.763857185840606689e-01
-2.358604073524475098e-01
-3.424250483512878418e-01
-2.648184895515441895e-01
2.907041907310485840e-01
1.290526241064071655e-02
2.881960570812225342e-01
-2.617212533950805664e-01
-2.780283987522125244e-01
-9.077776968479156494e-02
-1.200897097587585449e-01
2.414106018841266632e-02
-4.735914990305900574e-02
-1.396022289991378784e-01
2.479155212640762329e-01
3.441675901412963867e-01
-1.874292790889739990e-01
5.916481092572212219e-02
-1.316040605306625366e-01
-2.178023159503936768e-01
-1.563283354043960571e-01
-2.859750986099243164e-01
-1.494976580142974854e-01
2.431137859821319580e-01
2.779522538185119629e-01
-2.438383102416992188e-01
-1.605094671249389648e-01
2.554975152015686035e-01
2.557282149791717529e-01
-3.612672388553619385e-01
2.923412024974822998e-01
8.562634885311126709e-02
1.315660625696182251e-01
5.089605972170829773e-02
1.785976886749267578e-01
-2.802675962448120117e-01
4.051425680518150330e-02
