-1.982619911432266235e-01
-1.969710439443588257e-01
1.379338204860687256e-01
-1.712726801633834839e-01
2.033679746091365814e-02
6.696943193674087524e-02
-1.933646351099014282e-01
-9.684813022613525391e-02
7.520879805088043213e-02
-1.201175749301910400e-01
-2.142169177532196045e-01
1.889460533857345581e-01
-6.074576824903488159e-02
-1.397569924592971802e-01
4.480743408203125000e-02
-1.641201376914978027e-01
-1.145414859056472778e-01
-2.022671848535537720e-01
-6.379963457584381104e-02
2.603790462017059326e-01
1.480885297060012817e-01
-1.393774896860122681e-01
-1.965222805738449097e-01
1.009347513318061829e-01
3.935427591204643250e-02
-1.095779016613960266e-01
2.303792387247085571e-01
-1.724220067262649536e-01
-2.177973836660385132e-01
-1.160719022154808044e-01
-1.318290829658508301e-01
5.531431362032890320e-02
-5.809269472956657410e-02
1.920517832040786743e-01
-1.563328057527542114e-01
8.914195746183395386e-02
1.867046356201171875e-01
-2.502979040145874023e-01
-1.418245434761047363e-01
1.071258038282394409e-01
-7.259449362754821777e-02
-6.424211710691452026e-02
-1.261523067951202393e-01
6.768577545881271362e-02
1.156685501337051392e-02
3.318172693252563477e-02
1.889112591743469238e-01
-2.156110554933547974e-01
-1.467092782258987427e-01
9.281731396913528442e-02
-2.132816761732101440e-01
2.011599242687225342e-01
-1.144520267844200134e-01
2.611725330352783203e-01
2.960557583719491959e-03
-1.072861850261688232e-01
-5.285635963082313538e-02
-2.192256897687911987e-01
-2.343619763851165771e-01
-4.717224463820457458e-02
-2.565948069095611572e-01
-2.203579843044281006e-01
1.147301942110061646e-01
1.501454561948776245e-01
-1.532690674066543579e-01
-1.163514256477355957e-01
-5.053089559078216553e-02
2.297825068235397339e-01
1.010507866740226746e-01
1.495507508516311646e-01
1.330934166908264160e-01
-2.290951162576675415e-01
1.266946196556091309e-01
-1.777181774377822876e-01
-1.280496418476104736e-01
-7.546583563089370728e-02
2.225158363580703735e-01
6.584287434816360474e-02
-4.036494344472885132e-02
1.336991339921951294e-01
-1.466106325387954712e-01
2.316769957542419434e-01
-1.833566874265670776e-01
1.126272603869438171e-02
1.201097592711448669e-01
5.089065432548522949e-02
1.073028817772865295e-01
-1.344695389270782471e-01
-5.628480762243270874e-02
-1.569765061140060425e-01
1.455226838588714600e-01
2.695227600634098053e-02
4.474926367402076721e-02
8.134262263774871826e-02
2.462916225194931030e-01
2.108789384365081787e-01
9.248746186494827271e-02
1.941723078489303589e-01
1.624471247196197510e-01
-1.983128339052200317e-01
-8.095699548721313477e-02
-2.754928171634674072e-02
2.450707703828811646e-01
-2.087061405181884766e-01
6.606083363294601440e-02
-2.718766219913959503e-02
1.529096364974975586e-01
8.173328638076782227e-02
1.377302408218383789e-01
-2.104343920946121216e-01
-1.979226768016815186e-01
-5.885023623704910278e-03
-1.127525046467781067e-01
2.414837479591369629e-01
1.788302809000015259e-01
-7.232238352298736572e-02
-3.634137799963355064e-03
-3.146301954984664917e-02
7.383180409669876099e-02
1.598152704536914825e-02
-1.048317104578018188e-01
9.423879534006118774e-02
-1.917269378900527954e-01
3.059715591371059418e-02
-6.641768850386142731e-03
1.401951164007186890e-01
-2.434061765670776367e-01
-1.324803829193115234e-01
-2.147199772298336029e-02
4.928951710462570190e-02
-4.278378933668136597e-02
3.388118371367454529e-02
1.796980649232864380e-01
-1.904473900794982910e-01
1.052818298339843750e-01
1.034252643585205078e-01
-1.742267608642578125e-02
9.830065071582794189e-02
1.054336875677108765e-01
-7.083164155483245850e-02
1.186251044273376465e-01
1.927211433649063110e-01
1.559725850820541382e-01
1.480537354946136475e-01
2.512778900563716888e-02
9.862761013209819794e-03
1.986016035079956055e-01
-1.026375442743301392e-01
-1.944302469491958618e-01
-1.964285224676132202e-01
3.961587697267532349e-02
-7.707116007804870605e-02
-1.102143004536628723e-01
-6.576709449291229248e-02
-8.297216147184371948e-02
1.434447318315505981e-01
-2.478439509868621826e-01
1.581858396530151367e-01
-1.759650930762290955e-02
-4.725677520036697388e-02
-2.147336900234222412e-01
1.519089043140411377e-01
1.444231718778610229e-01
1.485120505094528198e-01
-1.057213917374610901e-01
-1.275018602609634399e-01
2.394189871847629547e-02
-1.653799116611480713e-01
6.495833396911621094e-02
2.070689350366592407e-01
-2.292915880680084229e-01
4.213348403573036194e-02
9.693252295255661011e-02
3.698413446545600891e-02
8.309909142553806305e-03
-2.454299777746200562e-01
-2.412628531455993652e-01
-2.412644773721694946e-01
-1.084468141198158264e-01
-1.633539497852325439e-01
1.097365617752075195e-01
-5.415003746747970581e-02
-1.367146521806716919e-01
-2.136320173740386963e-01
1.207574754953384399e-01
6.470704078674316406e-02
-1.256856769323348999e-01
1.649535745382308960e-01
4.932233598083257675e-03
1.611448526382446289e-01
-1.666324734687805176e-01
-1.114164218306541443e-01
-2.777778171002864838e-02
4.663637652993202209e-02
2.057743817567825317e-01
4.134951904416084290e-02
-2.172557860612869263e-01
-1.047345921397209167e-01
-7.455513626337051392e-02
-1.611131280660629272e-01
-1.266563087701797485e-01
-4.851290956139564514e-02
-2.133179269731044769e-02
6.691367179155349731e-02
-1.505272537469863892e-01
-3.738372400403022766e-02
-1.617448925971984863e-01
-1.365731656551361084e-01
-1.827412992715835571e-01
-4.604388028383255005e-02
-1.490007191896438599e-01
5.321862548589706421e-02
1.173085272312164307e-01
3.926347941160202026e-02
-1.928550936281681061e-02
-2.279015630483627319e-02
1.562539488077163696e-01
-5.170024931430816650e-02
-1.698098778724670410e-01
-2.043887078762054443e-01
-7.972281426191329956e-03
-9.625557065010070801e-02
3.710364550352096558e-02
1.414136588573455811e-01
-3.324545547366142273e-02
8.254911750555038452e-02
3.524698317050933838e-02
1.195207461714744568e-01
-1.262404173612594604e-01
-6.745809316635131836e-02
1.799411028623580933e-01
1.790064126253128052e-01
-1.925718039274215698e-01
-1.269486695528030396e-01
1.453133672475814819e-01
-2.219821512699127197e-02
2.662478387355804443e-01
-8.516120724380016327e-03
-2.534497380256652832e-01
-9.223685599863529205e-03
5.346036329865455627e-02
-2.201534621417522430e-02
1.841229051351547241e-01
1.943542659282684326e-01
-2.372596561908721924e-01
1.848675161600112915e-01
-1.108655333518981934e-01
3.088812157511711121e-02
1.951465941965579987e-02
1.406573355197906494e-01
9.182744473218917847e-02
-9.521976858377456665e-02
-1.936638802289962769e-01
-3.003469854593276978e-02
2.154234051704406738e-01
-1.614802181720733643e-01
2.612045109272003174e-01
9.446173161268234253e-02
-2.183229923248291016e-01
2.620122767984867096e-02
-2.156988345086574554e-02
5.198449268937110901e-02
-2.078116238117218018e-01
-2.599099874496459961e-01
1.555592864751815796e-01
-2.297637909650802612e-01
-5.319171771407127380e-02
-1.746897399425506592e-02
9.634148329496383667e-02
1.127099692821502686e-01
-9.420947730541229248e-02
1.066273730248212814e-02
-1.467880755662918091e-01
-1.124960929155349731e-01
1.679437048733234406e-02
2.230187207460403442e-01
1.952928751707077026e-01
2.218654155731201172e-01
-8.938729763031005859e-02
6.331382691860198975e-02
1.356067061424255371e-01
-2.338782250881195068e-01
-1.405098289251327515e-01
-1.130340918898582458e-01
-8.688170462846755981e-02
-6.638424843549728394e-02
-2.537750303745269775e-01
1.579877734184265137e-01
2.125538587570190430e-01
-2.258433252573013306e-01
1.433990895748138428e-01
-3.217233112081885338e-03
1.449669003486633301e-01
1.036739051342010498e-01
-9.779629297554492950e-03
-1.464305073022842407e-02
1.661782413721084595e-01
-4.887215048074722290e-02
2.437893599271774292e-01
3.995187953114509583e-02
8.304121345281600952e-02
-2.401071786880493164e-01
1.748144179582595825e-01
-1.411880552768707275e-01
5.506078526377677917e-02
1.541756838560104370e-01
-1.255424767732620239e-01
-3.280783817172050476e-02
1.209708228707313538e-01
1.321106392424553633e-04
-1.250199526548385620e-01
-9.354822337627410889e-02
-1.808634251356124878e-01
-1.910401582717895508e-01
-1.487868875265121460e-01
-1.887543797492980957e-01
2.070492058992385864e-01
-1.081548705697059631e-01
1.636907756328582764e-01
7.942772656679153442e-02
-2.176473736763000488e-01
1.031044721603393555e-01
-1.701383441686630249e-01
-8.367575705051422119e-03
-1.604464799165725708e-01
1.649632751941680908e-01
4.786098003387451172e-02
2.319076210260391235e-01
-3.803255409002304077e-02
-1.103454232215881348e-01
-1.240833178162574768e-01
1.257721036672592163e-01
2.109735906124114990e-01
5.499022826552391052e-02
1.089954301714897156e-01
-1.768324822187423706e-01
3.546721488237380981e-02
-1.225848868489265442e-01
2.122696787118911743e-01
-1.894297748804092407e-01
6.829502433538436890e-02
-1.168518960475921631e-01
1.565878391265869141e-01
2.016471326351165771e-01
1.240627542138099670e-01
-5.014089867472648621e-02
2.396510243415832520e-01
-1.842743754386901855e-01
-2.316485047340393066e-01
-2.665627300739288330e-01
1.620210707187652588e-01
-1.375799030065536499e-01
2.157003581523895264e-01
2.002752572298049927e-01
7.965972274541854858e-02
1.364965289831161499e-01
1.134487316012382507e-01
1.729905307292938232e-01
5.793014913797378540e-02
1.597132831811904907e-01
-1.041557490825653076e-01
9.173865616321563721e-02
-2.727270424365997314e-01
8.370175957679748535e-02
1.850842535495758057e-01
-1.429148912429809570e-01
-5.319995433092117310e-02
-6.475353240966796875e-02
2.122042234987020493e-03
-6.866829097270965576e-02
-2.664842084050178528e-02
-5.224873125553131104e-02
5.465054512023925781e-02
1.101441234350204468e-01
1.782253086566925049e-01
4.964056611061096191e-02
4.093350097537040710e-02
-1.041802763938903809e-01
6.803274899721145630e-02
1.031219661235809326e-01
-1.304327994585037231e-01
1.620716899633407593e-01
7.320421189069747925e-02
1.018204092979431152e-01
7.870806753635406494e-02
1.343348771333694458e-01
1.848263740539550781e-01
-7.571396231651306152e-02
-1.847094297409057617e-02
1.033057738095521927e-02
4.626157134771347046e-02
-2.560179829597473145e-01
1.924069225788116455e-01
-1.121322214603424072e-01
-1.308249384164810181e-01
-3.366831317543983459e-02
-1.132457852363586426e-01
-3.226294741034507751e-02
-1.582208275794982910e-01
-2.354398667812347412e-01
-2.305974215269088745e-01
-1.441315654665231705e-02
-8.732740581035614014e-02
-1.367244124412536621e-01
2.447181195020675659e-01
-2.413230687379837036e-01
1.246166229248046875e-01
4.469040036201477051e-02
-1.733113080263137817e-02
-1.449638009071350098e-01
-2.143971174955368042e-01
-1.155649721622467041e-01
-2.869595587253570557e-02
9.357218444347381592e-02
1.974183171987533569e-01
2.304637581110000610e-01
8.071323484182357788e-02
-2.070474326610565186e-01
1.842459440231323242e-01
1.182960905134677887e-02
1.375051736831665039e-01
3.249342367053031921e-02
1.649964302778244019e-01
4.855694994330406189e-02
-9.925960004329681396e-02
-9.090270847082138062e-02
-1.824692338705062866e-01
-1.742962300777435303e-01
-2.259371243417263031e-02
-1.365785896778106689e-01
-1.869921535253524780e-01
-1.590374410152435303e-01
2.411330044269561768e-01
-1.120784878730773926e-01
9.708686918020248413e-02
-7.133883982896804810e-02
1.382164210081100464e-01
5.426282063126564026e-02
4.384725168347358704e-02
3.857760131359100342e-02
-6.545120477676391602e-02
4.805957153439521790e-02
1.332648545503616333e-01
8.686533570289611816e-02
-1.153449192643165588e-01
7.762006670236587524e-02
-3.311458975076675415e-02
5.239945277571678162e-02
1.302307546138763428e-01
2.891057729721069336e-02
-1.021296307444572449e-01
-1.726193428039550781e-01
2.252220958471298218e-01
-1.887000352144241333e-01
7.857969403266906738e-02
-9.418001770973205566e-02
1.335441172122955322e-01
-8.898530155420303345e-02
2.496380731463432312e-02
7.033824920654296875e-02
-1.874860078096389771e-01
1.735563129186630249e-01
3.256704658269882202e-02
9.591988474130630493e-02
-1.350779682397842407e-01
1.119181290268898010e-01
2.241755872964859009e-01
-9.435216337442398071e-02
2.235951125621795654e-01
1.060243025422096252e-01
-6.906896829605102539e-02
5.541843548417091370e-02
-1.091068089008331299e-01
2.510392665863037109e-01
1.462870389223098755e-01
-2.061977535486221313e-01
-1.355949193239212036e-01
2.394453436136245728e-01
1.289337524212896824e-03
1.892110407352447510e-01
2.011329531669616699e-01
6.145446747541427612e-02
1.951159536838531494e-01
2.017176598310470581e-01
-1.886125653982162476e-01
2.011309564113616943e-01
-9.024443477392196655e-02
-4.436286538839340210e-02
-8.426439017057418823e-02
-2.617022991180419922e-01
9.936528652906417847e-02
1.950420588254928589e-01
-1.709877699613571167e-01
-1.060082167387008667e-01
-1.319050490856170654e-01
3.709966316819190979e-02
-1.367402672767639160e-01
3.840671386569738388e-03
2.592021822929382324e-01
1.532382704317569733e-02
-1.176379248499870300e-01
-1.500506401062011719e-01
1.319166719913482666e-01
-3.502324596047401428e-02
1.659917980432510376e-01
1.177042722702026367e-01
1.721234619617462158e-01
-2.044759094715118408e-01
-2.277157455682754517e-01
2.382120341062545776e-01
1.786764413118362427e-01
1.395724434405565262e-02
