2.053932100534439087e-01
-3.244307637214660645e-01
3.352946415543556213e-02
9.442512691020965576e-02
1.929480433464050293e-01
8.085521310567855835e-02
8.174981921911239624e-02
-2.743385732173919678e-01
-3.324646353721618652e-01
-3.657252788543701172e-01
6.220048293471336365e-02
7.195223867893218994e-02
9.206775575876235962e-02
-3.361758217215538025e-02
-1.487371474504470825e-01
-3.375374898314476013e-02
2.183188451454043388e-03
-6.775087863206863403e-02
1.922207772731781006e-01
4.445706307888031006e-02
-1.112898513674736023e-01
-1.715201586484909058e-01
-2.807182446122169495e-02
-1.019886881113052368e-01
3.638167399913072586e-04
2.246151417493820190e-01
2.080346196889877319e-01
-2.707549929618835449e-01
3.644457831978797913e-02
9.803310036659240723e-02
4.012923687696456909e-02
7.210690528154373169e-02
5.367377027869224548e-02
-3.959239721298217773e-01
-9.180620312690734863e-02
-7.083681225776672363e-02
-1.192717552185058594e-01
4.345993101596832275e-01
-8.653604891151189804e-04
4.348393678665161133e-01
1.077899560332298279e-01
-1.207758411765098572e-01
-1.328220218420028687e-01
-2.138341069221496582e-01
8.336501568555831909e-02
-7.379933958873152733e-04
2.143497695215046406e-04
-3.567299246788024902e-02
-3.449057042598724365e-01
-3.695204257965087891e-01
1.263389885425567627e-01
-1.064483821392059326e-01
4.201117530465126038e-02
-1.187660396099090576e-01
-1.394359171390533447e-01
-3.738204240798950195e-01
-1.252071857452392578e-01
-1.892656236886978149e-01
7.313764095306396484e-02
-2.113188058137893677e-01
2.632998526096343994e-01
5.951354652643203735e-02
1.280335634946823120e-01
-2.064611762762069702e-03
4.364627301692962646e-01
1.805636733770370483e-01
4.999095946550369263e-02
1.389875113964080811e-01
-2.121603041887283325e-01
-8.324767649173736572e-02
2.818013727664947510e-01
-1.478413045406341553e-01
1.204391717910766602e-01
-2.218614071607589722e-01
6.986489146947860718e-02
6.949762254953384399e-02
1.025735959410667419e-01
7.533288002014160156e-02
-2.184678763151168823e-01
3.111788332462310791e-01
1.818895339965820312e-02
-1.110530807636678219e-03
3.056468814611434937e-02
2.625937461853027344e-01
4.534494876861572266e-02
-8.316747099161148071e-02
1.719097048044204712e-01
7.102305442094802856e-02
-9.911721199750900269e-02
4.896787181496620178e-02
-2.712554335594177246e-01
-1.619328558444976807e-01
9.718110412359237671e-02
3.261515498161315918e-02
-1.165504902601242065e-01
-5.171117559075355530e-02
-2.168345451354980469e-01
1.118533164262771606e-01
-2.009637653827667236e-01
5.484220385551452637e-02
-2.443712502717971802e-01
-3.319644602015614510e-03
5.774624645709991455e-02
-2.518499791622161865e-01
-8.066873997449874878e-02
3.172229276970028877e-03
1.157079562544822693e-01
-2.076767235994338989e-01
-1.690318286418914795e-01
-7.287101447582244873e-02
6.799951940774917603e-02
-2.308940738439559937e-01
4.322058707475662231e-02
-1.779137551784515381e-01
-3.228962719440460205e-01
-1.784017384052276611e-01
9.728663414716720581e-02
7.713932543992996216e-02
-1.177790313959121704e-01
-7.824126631021499634e-02
5.632762238383293152e-02
7.044614851474761963e-02
-2.719786483794450760e-03
-1.871057003736495972e-01
-1.382566094398498535e-01
-1.782260718755424023e-03
7.199838012456893921e-02
1.296790838241577148e-01
