-1.787302941083908081e-01
-1.953060179948806763e-01
1.433119624853134155e-01
1.084585264325141907e-01
1.928679347038269043e-01
2.209270894527435303e-01
1.129690259695053101e-01
1.514215171337127686e-01
1.541224867105484009e-01
5.125215277075767517e-02
-2.702916264533996582e-01
1.397271901369094849e-01
7.855460047721862793e-02
1.228513866662979126e-01
-2.942778170108795166e-01
1.455914676189422607e-01
2.091689109802246094e-01
2.182669788599014282e-01
4.236698523163795471e-02
2.265994548797607422e-01
1.133971959352493286e-01
-2.807942926883697510e-01
-2.603447437286376953e-01
1.949569433927536011e-01
3.908248618245124817e-02
1.167591959238052368e-01
-1.395262628793716431e-01
-1.963438987731933594e-01
-1.793333292007446289e-01
2.188348323106765747e-01
1.928481608629226685e-01
2.186278700828552246e-01
2.154387682676315308e-01
-2.832355201244354248e-01
-2.585573792457580566e-01
1.922876834869384766e-01
1.475652158260345459e-01
1.796992421150207520e-01
2.538020312786102295e-01
2.069975882768630981e-01
-2.747943103313446045e-01
1.956345140933990479e-01
-2.305489480495452881e-01
-2.671316266059875488e-01
-2.308514118194580078e-01
-1.843630671501159668e-01
2.355709075927734375e-01
1.071506813168525696e-01
2.257412225008010864e-01
-3.374167978763580322e-01
3.556565195322036743e-02
1.406325101852416992e-01
-2.718384861946105957e-01
-2.729816436767578125e-01
1.223489046096801758e-01
2.114177793264389038e-01
1.223946809768676758e-01
2.030233889818191528e-01
3.184705078601837158e-01
2.081498503684997559e-01
2.241572588682174683e-01
1.173533424735069275e-01
1.596653759479522705e-01
1.727724447846412659e-02
-1.788821220397949219e-01
2.767657637596130371e-01
1.947956532239913940e-01
5.759820342063903809e-02
2.262175679206848145e-01
-2.303041070699691772e-01
1.902675479650497437e-01
1.853979080915451050e-01
1.965664029121398926e-01
1.944747716188430786e-01
1.199199780821800232e-01
-4.730040952563285828e-02
2.258466780185699463e-01
1.761673837900161743e-01
1.521544456481933594e-01
2.391580939292907715e-01
1.754185408353805542e-01
1.858423650264739990e-01
-3.286568224430084229e-01
6.073196604847908020e-02
2.205551266670227051e-01
2.304891645908355713e-01
1.955978870391845703e-01
1.296229362487792969e-01
1.893847435712814331e-01
1.938133239746093750e-01
1.978757977485656738e-01
-1.558815687894821167e-01
4.551905766129493713e-02
-2.879454195499420166e-01
1.533622294664382935e-02
2.132323235273361206e-01
1.758895218372344971e-01
-1.803616136312484741e-01
1.283406317234039307e-01
1.821536272764205933e-01
1.151717230677604675e-01
1.200943663716316223e-01
1.887691766023635864e-01
1.438209265470504761e-01
1.667617857456207275e-01
7.221587002277374268e-03
2.155893594026565552e-01
-2.190336436033248901e-01
-2.169200778007507324e-01
7.931968569755554199e-02
2.507283687591552734e-01
-2.738702893257141113e-01
1.292122900485992432e-01
2.056285440921783447e-01
2.949582121800631285e-04
-3.286653384566307068e-02
1.331545263528823853e-01
1.924294680356979370e-01
1.498599052429199219e-01
-2.539632916450500488e-01
9.825099259614944458e-02
-1.766717731952667236e-01
-5.793880671262741089e-02
1.274309307336807251e-01
1.494870483875274658e-01
1.633256524801254272e-01
2.151212543249130249e-01
1.868546605110168457e-01
9.519144147634506226e-02
2.059401124715805054e-01
1.894542872905731201e-01
2.000946551561355591e-01
-8.150161802768707275e-02
-6.684210151433944702e-02
9.715761989355087280e-02
2.490282952785491943e-01
-3.002969622611999512e-01
-1.681285351514816284e-01
-1.722902804613113403e-01
1.246674954891204834e-01
-2.102537751197814941e-01
7.839219272136688232e-02
-2.338071912527084351e-01
2.589806616306304932e-01
-2.532671988010406494e-01
1.068470701575279236e-01
-1.574996858835220337e-01
1.988703161478042603e-01
1.915513277053833008e-01
1.704645007848739624e-01
1.521728932857513428e-01
8.490038663148880005e-02
-6.079381331801414490e-02
2.523426413536071777e-01
-9.168754518032073975e-02
-6.404207088053226471e-03
-1.349851340055465698e-01
-2.842358648777008057e-01
7.156536728143692017e-02
-9.460695087909698486e-02
1.253343671560287476e-01
2.510760128498077393e-01
1.268141567707061768e-01
-2.499564317986369133e-03
1.329925656318664551e-01
-2.837461531162261963e-01
1.096640080213546753e-01
1.448178440332412720e-01
-1.065691746771335602e-02
-1.911242753267288208e-01
1.745769083499908447e-01
-2.694121599197387695e-01
2.656587958335876465e-01
1.831111162900924683e-01
1.523726135492324829e-01
2.462847530841827393e-01
2.542299926280975342e-01
1.533005833625793457e-01
1.691497117280960083e-01
-1.626860499382019043e-01
2.809945642948150635e-01
-2.627941966056823730e-01
1.762906908988952637e-01
-2.292839139699935913e-01
1.427526026964187622e-01
1.371410638093948364e-01
4.305303841829299927e-02
4.741497710347175598e-02
2.031591832637786865e-01
2.312082946300506592e-01
2.685011923313140869e-01
1.671442538499832153e-01
-8.091419190168380737e-02
9.543269872665405273e-02
7.604134827852249146e-02
-2.279990166425704956e-01
1.273093372583389282e-01
-2.970965504646301270e-01
1.638334989547729492e-01
-9.633053839206695557e-02
1.364939510822296143e-01
1.761399209499359131e-01
2.068056464195251465e-01
2.559473812580108643e-01
4.081029072403907776e-02
1.232225596904754639e-01
1.215304732322692871e-01
-2.860909886658191681e-02
1.901047825813293457e-01
1.882066577672958374e-01
1.433512121438980103e-01
1.094166636466979980e-01
1.584101319313049316e-01
2.015983760356903076e-01
1.647697687149047852e-01
1.723993271589279175e-01
1.657539159059524536e-01
2.010316699743270874e-01
-1.595286875963211060e-01
-2.446069419384002686e-01
2.344986200332641602e-01
-2.338470965623855591e-01
1.529680490493774414e-01
-5.762395262718200684e-02
2.170373946428298950e-01
2.280497252941131592e-01
1.837082654237747192e-01
2.190949022769927979e-02
1.862799674272537231e-01
9.632199257612228394e-02
9.995896369218826294e-02
-4.905828461050987244e-02
-1.038947850465774536e-01
2.365032732486724854e-01
3.171093016862869263e-02
7.339956611394882202e-02
-2.609724402427673340e-01
6.497504562139511108e-02
1.522463113069534302e-01
1.168877705931663513e-01
1.179462522268295288e-01
-6.899712979793548584e-02
1.604582071304321289e-01
1.582403481006622314e-01
1.742077320814132690e-01
1.205464228987693787e-01
9.756597573868930340e-04
3.318391144275665283e-01
-2.197884768247604370e-01
-4.008431732654571533e-01
1.328441500663757324e-01
1.668045371770858765e-01
1.729681938886642456e-01
-2.532573044300079346e-01
2.065106034278869629e-01
7.948142290115356445e-02
-2.667996585369110107e-01
-1.901957541704177856e-01
-2.088478952646255493e-01
-1.503647416830062866e-01
-2.140566259622573853e-01
-2.164205610752105713e-01
-7.150712609291076660e-02
-1.447130739688873291e-01
9.697562456130981445e-02
1.609168499708175659e-01
8.966656029224395752e-02
1.297291070222854614e-01
1.174680516123771667e-01
2.214799076318740845e-01
-2.265195399522781372e-01
9.441573917865753174e-02
-1.366198360919952393e-01
2.025708258152008057e-01
1.797061711549758911e-01
-1.940497905015945435e-01
-2.627267129719257355e-02
-2.305349260568618774e-01
1.387635916471481323e-01
-5.662037059664726257e-02
-2.996950447559356689e-01
6.832440197467803955e-02
-4.826347157359123230e-02
2.414234429597854614e-01
-2.285345196723937988e-01
1.993276476860046387e-01
-3.306787908077239990e-01
1.426497101783752441e-01
-2.747861146926879883e-01
-1.444559246301651001e-01
-3.232970237731933594e-01
1.202493011951446533e-01
1.999753266572952271e-01
7.245437800884246826e-02
1.442031711339950562e-01
-1.261391192674636841e-01
7.534619420766830444e-02
-8.214716799557209015e-03
1.318876147270202637e-01
1.278507709503173828e-01
1.228386536240577698e-01
1.260343641042709351e-01
1.684802174568176270e-01
1.596744209527969360e-01
2.086183428764343262e-01
7.958362251520156860e-02
1.183904036879539490e-01
5.024545639753341675e-02
2.378433942794799805e-01
-2.564350068569183350e-01
1.375819295644760132e-01
-1.755876839160919189e-01
9.774345904588699341e-03
-2.764346301555633545e-01
2.303697019815444946e-01
-2.972355782985687256e-01
2.377129793167114258e-01
1.111070811748504639e-01
-1.240039360709488392e-03
1.870857179164886475e-01
-1.453762799501419067e-01
-4.561495408415794373e-02
2.183410674333572388e-01
-1.542175114154815674e-01
-2.434628456830978394e-01
1.296600252389907837e-01
5.312689114362001419e-03
-2.752242144197225571e-03
-9.583302587270736694e-02
1.413908004760742188e-01
7.152510434389114380e-02
1.824110150337219238e-01
-2.541395425796508789e-01
8.972179889678955078e-02
-2.826729714870452881e-01
2.280698269605636597e-01
1.502971798181533813e-01
8.749240636825561523e-02
2.176384925842285156e-01
-1.493125855922698975e-01
3.379565477371215820e-02
1.633211374282836914e-01
1.623580902814865112e-01
2.120114117860794067e-01
1.528573930263519287e-01
1.376899778842926025e-01
-1.509645879268646240e-01
1.576799452304840088e-01
2.012505680322647095e-01
1.684989631175994873e-01
1.995036154985427856e-01
8.325223624706268311e-02
-2.305577099323272705e-01
1.266545504331588745e-01
1.081967949867248535e-01
1.203564479947090149e-01
-1.956139206886291504e-01
2.156366407871246338e-01
-2.973106801509857178e-01
-1.808788031339645386e-01
-1.030072718858718872e-01
1.986248344182968140e-01
-2.185110449790954590e-01
-2.915080487728118896e-01
1.805357635021209717e-01
1.166335493326187134e-01
2.076116502285003662e-01
2.009752690792083740e-01
-2.507377266883850098e-01
-2.490013837814331055e-01
-1.360083818435668945e-01
1.259793341159820557e-01
1.709212511777877808e-01
1.605688929557800293e-01
-2.503420710563659668e-01
-1.378810107707977295e-01
1.847587376832962036e-01
-3.119905591011047363e-01
1.799359023571014404e-01
1.512053757905960083e-01
2.305156141519546509e-01
1.461408007889986038e-02
-2.121704518795013428e-01
-2.457650750875473022e-01
-3.221479356288909912e-01
-1.993457227945327759e-01
2.159496694803237915e-01
-3.139022588729858398e-01
1.164737343788146973e-01
-2.278755903244018555e-01
2.414858341217041016e-01
1.272185891866683960e-01
-2.292080670595169067e-01
-2.884675860404968262e-01
7.214955985546112061e-02
2.390979528427124023e-01
-2.397827059030532837e-01
-4.277013987302780151e-02
1.532948017120361328e-01
1.456455141305923462e-01
2.114020884037017822e-01
1.875097453594207764e-01
1.888527572154998779e-01
-3.610294461250305176e-01
-2.865179479122161865e-01
1.468315124511718750e-01
1.792343705892562866e-01
8.362913131713867188e-02
1.611501425504684448e-01
1.259548664093017578e-01
9.894802421331405640e-02
1.641196012496948242e-01
-4.275635629892349243e-02
1.267509162425994873e-01
-1.806952357292175293e-01
-6.616281718015670776e-02
-1.723857372999191284e-01
-1.739355772733688354e-01
-2.810890376567840576e-01
-2.772541046142578125e-01
-2.935293912887573242e-01
1.409890949726104736e-01
1.456150710582733154e-01
-2.795032262802124023e-01
2.373546808958053589e-01
-2.694426290690898895e-02
-2.477894574403762817e-01
1.194505766034126282e-01
-9.919261187314987183e-02
-9.185163676738739014e-02
2.250667810440063477e-01
-2.537754178047180176e-01
-1.969325393438339233e-01
1.599991917610168457e-01
1.023099943995475769e-01
-1.249630078673362732e-01
1.963039040565490723e-01
-2.805174887180328369e-01
1.459975242614746094e-01
1.926405876874923706e-01
-2.558313310146331787e-01
-2.477546483278274536e-01
2.040505409240722656e-01
-2.767009735107421875e-01
1.728060394525527954e-01
4.553603380918502808e-02
1.895351558923721313e-01
2.314660549163818359e-01
1.849525794386863708e-02
-6.812641769647598267e-02
2.460428513586521149e-03
1.858440637588500977e-01
1.715448945760726929e-01
8.637586981058120728e-02
7.074117660522460938e-02
-1.860128492116928101e-01
-2.383187711238861084e-01
1.260970234870910645e-01
1.297377347946166992e-01
-2.544948160648345947e-01
-2.064136713743209839e-01
8.263694122433662415e-03
1.798805296421051025e-01
1.432386636734008789e-01
-2.636368274688720703e-01
2.519181966781616211e-01
1.495477259159088135e-01
2.496357709169387817e-01
1.641352921724319458e-01
-2.604200132191181183e-02
1.849293708801269531e-01
-1.315915435552597046e-01
2.286511659622192383e-01
2.097439914941787720e-01
1.597661674022674561e-01
1.570567339658737183e-01
1.757771819829940796e-01
5.723437294363975525e-02
1.219023391604423523e-01
9.931535273790359497e-02
1.336403638124465942e-01
1.814011782407760620e-01
1.869395375251770020e-01
4.209994152188301086e-02
1.934933364391326904e-01
2.351788580417633057e-01
1.574654132127761841e-01
4.447923228144645691e-02
1.065004765987396240e-01
2.389981895685195923e-01
1.489781737327575684e-01
-2.751585245132446289e-01
2.226076424121856689e-01
1.272469013929367065e-01
-1.843802034854888916e-01
-1.155826225876808167e-01
1.137273460626602173e-01
1.763901263475418091e-01
-2.613124251365661621e-01
1.871428340673446655e-01
2.196501940488815308e-01
4.280809778720140457e-03
1.101242154836654663e-01
1.752734482288360596e-01
1.447172611951828003e-01
1.886650919914245605e-01
2.518898546695709229e-01
2.130081504583358765e-01
2.054442912340164185e-01
1.860316395759582520e-01
1.421569846570491791e-02
2.450456321239471436e-01
