-3.806373104453086853e-02
1.755725592374801636e-01
-1.071050167083740234e-01
1.922070086002349854e-01
-2.257605455815792084e-02
3.879169374704360962e-02
1.661590039730072021e-01
4.058914780616760254e-01
5.997766256332397461e-01
-1.265701744705438614e-02
-2.530059218406677246e-02
4.739661887288093567e-02
1.567997485399246216e-01
-6.667972356081008911e-02
2.177287787199020386e-01
3.313218653202056885e-01
-1.929646134376525879e-01
-2.405672892928123474e-02
-1.517912149429321289e-01
-2.526217103004455566e-01
-2.983930706977844238e-01
-2.480104118585586548e-01
-3.496422171592712402e-01
-3.012827932834625244e-01
3.410359099507331848e-02
-1.307706832885742188e-01
-1.321610808372497559e-01
8.165324479341506958e-02
1.160764023661613464e-01
1.894506812095642090e-02
1.425816267728805542e-01
1.377061605453491211e-01
-2.280663698911666870e-01
-1.667540520429611206e-01
-5.657154694199562073e-02
4.565845243632793427e-03
-1.171714998781681061e-02
1.241195425391197205e-01
7.375929038971662521e-03
-2.024171501398086548e-02
-1.950298696756362915e-01
4.518475383520126343e-02
3.519600629806518555e-02
3.930831328034400940e-02
2.633504197001457214e-02
1.294939965009689331e-02
-2.583066374063491821e-02
4.951612278819084167e-02
-1.700599491596221924e-02
4.007636383175849915e-02
-3.772011771798133850e-02
4.586851969361305237e-02
-7.274221628904342651e-02
-6.330744922161102295e-02
2.979413419961929321e-02
2.033154666423797607e-02
-8.718212135136127472e-03
3.213153406977653503e-02
-3.313901275396347046e-02
3.230867534875869751e-02
-1.367580331861972809e-02
-3.570692241191864014e-02
1.634643226861953735e-02
1.466285204514861107e-03
-1.775011606514453888e-02
-4.621645435690879822e-02
1.893498189747333527e-02
2.129218168556690216e-02
-5.567673966288566589e-02
-4.253651946783065796e-02
5.132774263620376587e-02
3.344548121094703674e-02
-2.457968704402446747e-02
-5.769783258438110352e-02
3.903608024120330811e-02
-8.402641117572784424e-02
6.965303793549537659e-03
-4.207820072770118713e-02
3.385693579912185669e-02
-7.798784226179122925e-02
3.910769149661064148e-02
-3.250813111662864685e-02
-8.349797129631042480e-02
-4.083226248621940613e-02
2.600212395191192627e-02
4.322732239961624146e-02
-8.872465044260025024e-02
-7.810006383806467056e-03
-7.490616291761398315e-02
-3.258947655558586121e-02
1.563119888305664062e-02
-5.137649178504943848e-02
3.278430784121155739e-03
8.879207074642181396e-03
3.696577856317162514e-03
7.384483702480792999e-03
-4.475374147295951843e-02
-6.070873141288757324e-02
-7.882758229970932007e-02
4.253815114498138428e-02
1.218129787594079971e-02
5.799362808465957642e-02
-1.466704416088759899e-03
3.058067336678504944e-02
-6.700167059898376465e-02
1.643040962517261505e-02
-5.518194660544395447e-02
-2.978878095746040344e-02
-3.166844695806503296e-02
-1.854548975825309753e-02
-1.911504380404949188e-02
-4.614660143852233887e-02
1.037734327837824821e-03
-5.411348491907119751e-02
-3.313221735879778862e-03
-8.541852980852127075e-02
3.001145832240581512e-02
-6.520476192235946655e-02
-1.622085459530353546e-02
-3.103389404714107513e-02
-7.219533622264862061e-02
-5.872761458158493042e-02
-5.568368360400199890e-02
-8.598952740430831909e-02
-7.681751251220703125e-02
6.865780800580978394e-02
-6.753313541412353516e-02
4.807469248771667480e-02
-7.539288699626922607e-02
-4.484827071428298950e-02
-4.845591727644205093e-03
-4.490287508815526962e-03
-1.059951912611722946e-02
-5.622757971286773682e-02
-6.248867884278297424e-02
3.595308959484100342e-02
-6.972397863864898682e-02
5.747877061367034912e-02
-2.440394833683967590e-02
-7.948547601699829102e-03
-9.874313324689865112e-02
-2.195307798683643341e-02
-3.760189563035964966e-02
-6.529998034238815308e-02
3.893540799617767334e-02
5.764864757657051086e-02
-2.865404635667800903e-02
5.777335166931152344e-02
-3.472470492124557495e-02
2.686418965458869934e-02
-1.448003691621124744e-03
3.648061677813529968e-02
3.259553015232086182e-02
2.326224464923143387e-03
2.623624727129936218e-02
-5.220809578895568848e-02
1.173696387559175491e-02
5.667708814144134521e-03
6.602754443883895874e-02
-3.390248492360115051e-02
-1.811454258859157562e-02
-9.869976900517940521e-03
-4.595342651009559631e-02
-2.761039882898330688e-02
-2.791861072182655334e-02
1.040544267743825912e-02
2.605055272579193115e-02
-2.337697334587574005e-02
-2.150381729006767273e-02
6.831931322813034058e-02
2.301580458879470825e-02
4.195670038461685181e-02
-1.306621283292770386e-01
-6.986725330352783203e-02
2.740091271698474884e-02
-1.513790786266326904e-01
-2.842231392860412598e-01
-5.743228271603584290e-02
-2.190761268138885498e-02
1.333129312843084335e-02
1.050870027393102646e-02
2.786786668002605438e-02
-1.825757771730422974e-01
1.392625421285629272e-01
7.859908789396286011e-02
-2.318112383363768458e-04
-4.935726523399353027e-02
-2.297375909984111786e-02
-1.085204184055328369e-01
-1.904368051327764988e-03
-9.836062043905258179e-02
-1.036989688873291016e-01
-2.756047993898391724e-02
-4.851147904992103577e-02
1.117778420448303223e-01
7.565430132672190666e-04
1.170479785650968552e-02
1.077867001295089722e-01
5.135951191186904907e-02
-2.557831406593322754e-01
-1.958938241004943848e-01
9.881649166345596313e-02
7.736382633447647095e-02
1.417112946510314941e-01
-1.279951538890600204e-02
-3.713041543960571289e-02
-3.551016002893447876e-02
2.884144335985183716e-02
3.269143775105476379e-02
1.196416653692722321e-02
-6.742585450410842896e-02
3.496453911066055298e-02
-7.966564595699310303e-02
-3.362928703427314758e-02
-9.052500128746032715e-03
-3.182598575949668884e-02
-9.126026928424835205e-02
-3.474582359194755554e-02
-9.251970797777175903e-02
-6.963963154703378677e-03
-9.665594249963760376e-02
2.080024406313896179e-02
-1.386743690818548203e-02
-6.871322542428970337e-02
3.006211668252944946e-02
-6.108370795845985413e-02
-7.034565508365631104e-02
-5.728684365749359131e-02
-8.967776782810688019e-03
4.781012982130050659e-02
-6.941512972116470337e-02
3.373767063021659851e-02
-6.281339377164840698e-02
-6.184174492955207825e-02
-2.515579201281070709e-02
-9.421656280755996704e-02
-1.530865207314491272e-02
1.269342564046382904e-02
2.369730733335018158e-02
9.172564023174345493e-04
-5.890541896224021912e-02
3.494837135076522827e-02
-3.598268330097198486e-02
-4.230547696352005005e-02
1.786623336374759674e-02
2.513636089861392975e-02
-8.863422274589538574e-02
-6.821122020483016968e-02
-2.500901930034160614e-02
-5.849985778331756592e-02
-2.212447579950094223e-03
-9.195461869239807129e-02
-6.804313510656356812e-02
-8.918114006519317627e-02
-1.023325920104980469e-01
-5.295184627175331116e-02
-7.003913819789886475e-02
-1.322699990123510361e-02
-1.455252710729837418e-02
4.485476296395063400e-03
-9.286124259233474731e-02
-8.160396665334701538e-02
-1.035126671195030212e-02
-8.744636923074722290e-02
-4.678880795836448669e-02
-8.472990244626998901e-02
-7.145049422979354858e-02
-4.381624981760978699e-02
-1.409788709133863449e-02
1.526807155460119247e-02
-5.481224134564399719e-02
-1.181207224726676941e-01
-1.830794848501682281e-02
-4.767636582255363464e-02
-1.033819373697042465e-02
-3.841956704854965210e-02
-9.955376386642456055e-02
-6.688488274812698364e-02
-1.422674767673015594e-02
-5.253486800938844681e-03
-4.730004817247390747e-03
-2.217324823141098022e-02
2.215845882892608643e-02
-9.273725003004074097e-02
1.573034003376960754e-02
-9.832444041967391968e-02
2.321309968829154968e-02
-7.085557561367750168e-03
-2.231798134744167328e-02
-7.781748473644256592e-02
-6.316565722227096558e-02
-1.246141735464334488e-02
9.823285043239593506e-03
-3.770736604928970337e-02
-9.620457887649536133e-02
3.129011020064353943e-02
-1.044740751385688782e-01
-9.348724782466888428e-02
1.958687044680118561e-02
-5.110467784106731415e-03
-7.891503162682056427e-03
-1.045387424528598785e-02
1.765124383382499218e-03
-1.530123408883810043e-02
-1.108460798859596252e-01
-6.395605951547622681e-02
-4.990706592798233032e-02
-1.830071769654750824e-02
-4.060474038124084473e-02
-3.786981478333473206e-02
-3.875842690467834473e-02
1.324061583727598190e-02
-6.028218939900398254e-02
-1.003584414720535278e-01
-6.740055233240127563e-02
-1.126860380172729492e-01
-5.181685090065002441e-02
-5.537020415067672729e-02
-8.586689084768295288e-02
-4.149595648050308228e-02
2.212134934961795807e-02
-2.587705105543136597e-02
-9.168470650911331177e-02
2.604062482714653015e-02
-4.134702309966087341e-02
-5.422299727797508240e-02
-5.809235572814941406e-02
-4.082188010215759277e-03
-3.800476342439651489e-02
-1.050715893507003784e-01
-7.172354310750961304e-02
-6.082192063331604004e-02
-1.084558442234992981e-01
2.183938398957252502e-02
-6.431640684604644775e-02
-8.305387198925018311e-02
1.804801262915134430e-02
-5.997280031442642212e-02
-8.076407015323638916e-02
-2.047917433083057404e-02
2.642965316772460938e-01
-3.098387084901332855e-02
1.933128684759140015e-01
-4.554534703493118286e-02
9.894658625125885010e-02
4.318534955382347107e-02
-3.275741040706634521e-01
-4.614341631531715393e-02
-1.228132518008351326e-03
-4.917839914560317993e-02
-2.289987504482269287e-01
3.497303426265716553e-01
-6.201072037220001221e-02
-2.272617369890213013e-01
1.367090940475463867e-01
-8.750008046627044678e-02
2.418887466192245483e-01
2.858779728412628174e-01
1.670382320880889893e-01
1.357147395610809326e-01
2.864871621131896973e-01
3.339986503124237061e-01
2.755099534988403320e-01
1.475252807140350342e-01
1.145242061465978622e-02
-6.599786877632141113e-02
7.306165248155593872e-02
2.114950418472290039e-01
-2.416278421878814697e-02
4.532112926244735718e-02
2.149051576852798462e-01
8.106411248445510864e-02
8.950594067573547363e-02
-2.518445253372192383e-02
-8.235539495944976807e-02
6.837690621614456177e-02
3.466222882270812988e-01
2.660255730152130127e-01
-8.092668652534484863e-02
-8.653532713651657104e-03
-1.888362690806388855e-02
-8.738679438829421997e-02
-4.117635264992713928e-02
-2.815429568290710449e-01
-1.851529628038406372e-01
-1.011482402682304382e-01
-1.269516162574291229e-02
-5.158277973532676697e-02
-4.640923440456390381e-02
2.615340612828731537e-02
4.913494735956192017e-02
8.142529055476188660e-03
-4.615538194775581360e-02
-4.176262021064758301e-02
-4.507047310471534729e-02
-8.730249106884002686e-02
-6.574545055627822876e-02
-1.710769906640052795e-02
-2.584184147417545319e-02
5.105265229940414429e-02
5.454475060105323792e-02
7.293057441711425781e-02
1.897291652858257294e-02
-2.429988235235214233e-02
6.917031016200780869e-03
3.865527734160423279e-02
5.272902175784111023e-02
-9.024003520607948303e-03
-7.193630188703536987e-02
-2.272481098771095276e-02
-7.066138833761215210e-02
-4.951556771993637085e-02
5.768633261322975159e-02
4.672988504171371460e-02
-4.472364857792854309e-02
-6.618160009384155273e-02
4.617025703191757202e-02
4.355596005916595459e-02
1.947486773133277893e-02
4.111501947045326233e-02
-2.153749950230121613e-02
-3.752497583627700806e-02
7.312962412834167480e-02
2.149619162082672119e-02
7.025277614593505859e-02
-7.244475930929183960e-02
-3.837978094816207886e-02
-4.194658249616622925e-02
-5.941118672490119934e-02
-7.617915421724319458e-02
-1.341898273676633835e-02
3.454720228910446167e-02
-2.459334768354892731e-02
-3.187818452715873718e-02
2.655310556292533875e-02
1.685408316552639008e-02
4.587228968739509583e-02
2.719423361122608185e-02
4.922165721654891968e-02
4.748328775167465210e-02
-8.208617568016052246e-02
-6.621986627578735352e-02
8.962441235780715942e-03
2.166567556560039520e-02
-2.862437861040234566e-03
6.200167536735534668e-02
4.143233597278594971e-02
1.782616600394248962e-02
-6.689090281724929810e-02
8.762799203395843506e-03
-8.009093999862670898e-02
1.212560757994651794e-02
3.699350729584693909e-02
-7.898166030645370483e-02
-5.942977219820022583e-02
-4.084008932113647461e-02
-3.690381720662117004e-02
7.195758819580078125e-02
5.287125334143638611e-02
-7.312142103910446167e-02
-6.381370872259140015e-02
-3.823622688651084900e-02
-7.439581304788589478e-02
-7.651518285274505615e-02
-3.449541702866554260e-02
-6.193452700972557068e-02
3.047503717243671417e-02
-5.202422663569450378e-02
6.384870968759059906e-03
1.482470519840717316e-02
-3.884952142834663391e-02
-4.468681290745735168e-02
6.396692246198654175e-02
4.734246991574764252e-03
5.807399377226829529e-02
3.310429304838180542e-02
7.378123700618743896e-02
-4.153298214077949524e-02
6.584630161523818970e-02
-5.079263821244239807e-02
6.374093890190124512e-02
-9.335549548268318176e-04
3.103880956768989563e-02
5.006211251020431519e-02
-5.079531297087669373e-02
3.772286325693130493e-02
-3.475794568657875061e-02
6.593935191631317139e-02
-3.722451627254486084e-02
3.710567951202392578e-02
4.251337051391601562e-02
1.197815965861082077e-02
2.645854093134403229e-02
6.316574662923812866e-02
-8.109236508607864380e-02
-5.155621096491813660e-02
-6.293325871229171753e-02
6.472123414278030396e-02
-6.028536334633827209e-02
-3.183734044432640076e-02
-4.098102077841758728e-02
1.597514189779758453e-02
-1.557418331503868103e-02
-7.168591767549514771e-02
4.008058831095695496e-02
2.138350717723369598e-02
4.979207739233970642e-02
2.263179272413253784e-01
-6.168569996953010559e-02
8.394859731197357178e-02
-9.822236746549606323e-02
3.554958477616310120e-02
2.063965499401092529e-01
2.057765424251556396e-01
-3.521164506673812866e-02
-1.160574480891227722e-01
-4.806326329708099365e-02
-9.954335540533065796e-02
5.827087908983230591e-03
8.159911632537841797e-02
-7.898257672786712646e-02
-3.223849087953567505e-02
-4.473115841392427683e-04
1.405407860875129700e-02
1.042404398322105408e-01
9.976236149668693542e-03
5.270544067025184631e-02
3.895580023527145386e-02
7.199195772409439087e-02
2.302689105272293091e-02
3.035848587751388550e-02
-1.464764308184385300e-02
1.678451448678970337e-01
6.655965000391006470e-02
-1.282244641333818436e-02
-8.791922032833099365e-02
2.013060450553894043e-02
-2.546995878219604492e-01
6.440885365009307861e-02
-2.114528557285666466e-03
1.022869199514389038e-01
4.603449255228042603e-02
2.556584775447845459e-02
2.166004851460456848e-02
7.542203366756439209e-02
-1.530198566615581512e-02
-8.180086314678192139e-02
5.154618248343467712e-02
1.237030103802680969e-01
5.357412621378898621e-02
6.353185325860977173e-02
6.383001059293746948e-02
-2.384147793054580688e-02
-2.538615465164184570e-02
-1.156735643744468689e-01
4.754131659865379333e-02
2.407843619585037231e-02
2.980969101190567017e-02
-4.803837463259696960e-02
-2.389754867181181908e-03
1.046811975538730621e-02
-4.219475388526916504e-02
4.302248358726501465e-02
-2.195281535387039185e-02
-6.439930200576782227e-02
-5.137426778674125671e-02
-5.402753129601478577e-02
2.483941987156867981e-02
-1.441819313913583755e-02
6.020807847380638123e-02
-2.509987447410821915e-03
4.300985857844352722e-02
-4.791081324219703674e-02
7.446447759866714478e-02
1.081525627523660660e-02
-7.433710247278213501e-02
-2.717578411102294922e-02
-1.651163026690483093e-02
2.555385977029800415e-02
5.293354392051696777e-02
3.506673127412796021e-02
5.765647813677787781e-02
-7.198081165552139282e-02
4.059959575533866882e-02
3.544718399643898010e-02
2.308723889291286469e-02
-2.616114728152751923e-02
-2.442930452525615692e-02
-3.416579961776733398e-02
2.855048328638076782e-02
-5.347821488976478577e-02
-6.375499069690704346e-02
-5.684674903750419617e-02
5.105836316943168640e-02
1.232636347413063049e-02
-4.574046656489372253e-02
9.776615537703037262e-03
8.217936381697654724e-03
-3.355358168482780457e-02
-5.141293630003929138e-02
-4.379036277532577515e-02
-6.861054152250289917e-02
-9.917780756950378418e-03
3.252383694052696228e-02
5.212743207812309265e-02
-7.236077450215816498e-03
5.555205792188644409e-02
4.757632315158843994e-02
5.593185871839523315e-02
1.072575990110635757e-02
-3.977812826633453369e-02
3.859278932213783264e-02
-5.643345043063163757e-02
6.209219247102737427e-02
5.073984339833259583e-02
2.507486753165721893e-02
-1.011310424655675888e-02
-4.753171652555465698e-02
5.283390730619430542e-02
-7.561037689447402954e-02
-7.166653871536254883e-03
1.661988720297813416e-02
-7.112537976354360580e-03
-3.127975389361381531e-02
-6.395168602466583252e-02
5.570477619767189026e-02
-1.680083014070987701e-02
4.099271446466445923e-02
1.327569689601659775e-02
2.455557137727737427e-02
7.520333677530288696e-02
-3.386999666690826416e-02
6.865815818309783936e-02
-4.977508634328842163e-02
7.655986398458480835e-02
-1.867430284619331360e-02
-6.584949791431427002e-02
6.894235964864492416e-03
-5.175074562430381775e-02
-5.548885837197303772e-02
3.704262897372245789e-02
7.151608914136886597e-02
5.531219765543937683e-02
-4.758597537875175476e-02
5.791404470801353455e-02
7.623254507780075073e-02
1.891871169209480286e-02
1.336443331092596054e-02
1.475444645620882511e-03
3.284084796905517578e-02
3.976907208561897278e-02
-3.886151686310768127e-02
1.269294443773105741e-04
-5.750091746449470520e-02
5.850118771195411682e-02
5.234345793724060059e-02
6.718184053897857666e-02
3.159964457154273987e-02
6.341911852359771729e-02
3.186318650841712952e-02
-7.597643882036209106e-02
-5.468285828828811646e-02
-4.444113373756408691e-02
8.038116246461868286e-02
-4.496314004063606262e-02
7.357361726462841034e-03
-6.458047777414321899e-02
-1.322738360613584518e-02
-4.160708561539649963e-02
-4.215918108820915222e-02
-8.625932037830352783e-03
1.657425984740257263e-02
-8.142995066009461880e-04
4.920285567641258240e-02
2.906408719718456268e-02
-2.670075744390487671e-02
1.044346205890178680e-02
-1.274307221174240112e-01
3.742001578211784363e-02
-7.961034029722213745e-02
3.662135899066925049e-01
2.758786827325820923e-02
1.447971165180206299e-01
2.470313385128974915e-02
-2.204191684722900391e-01
2.577743679285049438e-02
-5.739211291074752808e-02
-3.529079630970954895e-02
-1.240298822522163391e-01
1.104003265500068665e-01
2.037310041487216949e-02
-5.715908948332071304e-03
1.851480156183242798e-01
5.644158273935317993e-02
-2.916871383786201477e-02
8.788806945085525513e-02
-2.600366994738578796e-02
-2.049464359879493713e-02
2.283758856356143951e-02
-1.062938850373029709e-02
5.694241076707839966e-02
5.072202160954475403e-02
3.459148341789841652e-03
2.278957143425941467e-02
1.579236686229705811e-01
1.197770386934280396e-01
1.131917983293533325e-01
6.368179619312286377e-02
-1.022914946079254150e-01
1.023015156388282776e-01
-3.480612486600875854e-02
1.056222245097160339e-01
1.615107804536819458e-02
8.709850162267684937e-02
6.782010197639465332e-02
1.517662853002548218e-01
-1.038403585553169250e-01
-2.714538946747779846e-02
5.588083714246749878e-02
-4.645513743162155151e-02
-7.072428613901138306e-02
6.237220391631126404e-02
-9.555052965879440308e-02
5.083149671554565430e-02
-2.584927948191761971e-03
6.566635519266128540e-02
-1.958244101842865348e-04
6.756938248872756958e-02
5.214652046561241150e-02
-6.202008947730064392e-02
6.381342560052871704e-02
7.997774519026279449e-03
3.260599821805953979e-02
-7.755538681522011757e-04
-4.341449961066246033e-02
-5.609332770109176636e-02
-6.285516172647476196e-02
3.906219825148582458e-02
5.193739011883735657e-02
5.662660580128431320e-03
1.534941047430038452e-02
6.075346027500927448e-05
-5.719255656003952026e-02
-6.693214178085327148e-02
1.738277077674865723e-02
-3.094599582254886627e-02
2.245515584945678711e-02
3.579054027795791626e-02
-4.913318902254104614e-02
4.089660197496414185e-02
4.493927583098411560e-02
-2.700247615575790405e-02
7.746532559394836426e-02
3.997050225734710693e-02
5.172463506460189819e-02
6.711144000291824341e-02
-3.817670792341232300e-02
-1.570832543075084686e-02
-5.446769297122955322e-02
-1.092087244614958763e-03
4.661699756979942322e-03
-4.155831877142190933e-03
-2.110279351472854614e-02
-2.471815980970859528e-02
3.822337090969085693e-02
-1.275244168937206268e-02
-4.394336417317390442e-02
2.157214283943176270e-02
-3.713963180780410767e-02
-3.104462660849094391e-02
3.306043148040771484e-02
6.567195057868957520e-02
2.445074357092380524e-02
-6.005594134330749512e-02
-5.866449326276779175e-02
3.647284209728240967e-02
-7.478331029415130615e-02
3.250371664762496948e-02
-3.571486845612525940e-02
6.486514210700988770e-02
3.513278812170028687e-02
5.136308819055557251e-02
-5.653051659464836121e-02
1.811284944415092468e-02
9.132933616638183594e-02
-2.037965506315231323e-02
-5.536239966750144958e-02
6.661710888147354126e-02
-1.091420091688632965e-02
-1.561252865940332413e-02
-5.418867245316505432e-02
-4.617354646325111389e-02
-5.737499147653579712e-02
-4.247085377573966980e-02
-2.114575728774070740e-02
7.459554076194763184e-02
3.414079546928405762e-02
1.811787672340869904e-02
8.309712633490562439e-03
5.682601407170295715e-02
5.425886716693639755e-03
7.825294882059097290e-02
-3.287114948034286499e-02
7.966305129230022430e-03
-5.727736651897430420e-02
2.563919173553586006e-03
-1.456863712519407272e-02
5.210886150598526001e-02
6.816679984331130981e-02
-1.115400809794664383e-02
4.282014071941375732e-02
-8.175670355558395386e-02
-5.172240734100341797e-02
-7.054770365357398987e-03
7.382190227508544922e-02
4.301537200808525085e-02
-1.461694762110710144e-02
-4.861561208963394165e-02
5.546744912862777710e-02
-5.171009153127670288e-02
5.525948852300643921e-02
2.934176288545131683e-02
-5.363735556602478027e-02
1.077670603990554810e-02
-5.933569371700286865e-02
4.863091930747032166e-02
-2.860460616648197174e-02
-6.700713187456130981e-02
4.445637017488479614e-02
4.749448597431182861e-02
5.525721609592437744e-02
-3.886351361870765686e-03
1.626531034708023071e-02
4.131042864173650742e-03
2.252894081175327301e-02
-3.155448287725448608e-02
5.705856159329414368e-02
4.337802901864051819e-02
3.654728084802627563e-02
-3.640793636441230774e-02
-1.793924160301685333e-02
3.579916898161172867e-03
3.582214564085006714e-02
-3.068058006465435028e-02
1.246570702642202377e-02
5.215667560696601868e-02
-6.325005739927291870e-02
5.008229240775108337e-02
4.150257911533117294e-03
1.079949662089347839e-01
1.357293725013732910e-01
2.524468600749969482e-01
-4.469528794288635254e-02
-2.782800793647766113e-01
-8.679255843162536621e-02
1.189147084951400757e-01
-2.725084498524665833e-02
-2.500582672655582428e-02
2.440619170665740967e-01
-1.519806981086730957e-01
-1.425154954195022583e-01
9.223929047584533691e-02
1.422342658042907715e-01
6.947416067123413086e-02
1.012803986668586731e-01
-1.043122261762619019e-01
6.277942657470703125e-02
1.692990064620971680e-01
5.739419534802436829e-02
1.506807357072830200e-01
8.764566481113433838e-02
-1.314857602119445801e-01
4.963152110576629639e-02
-5.815863609313964844e-02
7.670027017593383789e-02
-1.774606704711914062e-01
8.225449919700622559e-02
-1.556328982114791870e-01
1.050284579396247864e-01
1.018915548920631409e-01
4.384304210543632507e-02
-3.460165113210678101e-02
7.478264719247817993e-02
-5.133321508765220642e-02
-9.999293833971023560e-03
-6.752664595842361450e-02
8.684744685888290405e-02
-8.051268756389617920e-03
1.946316845715045929e-02
-9.296527504920959473e-02
-8.043093979358673096e-02
4.802596569061279297e-02
-1.283923834562301636e-01
2.362941764295101166e-02
6.619078665971755981e-02
4.008329939097166061e-03
3.825715044513344765e-03
-4.133940115571022034e-02
-4.476146772503852844e-02
-2.304410375654697418e-02
4.870791360735893250e-02
-1.736955158412456512e-02
3.067479282617568970e-02
-1.136581134051084518e-02
6.025860831141471863e-02
6.270688027143478394e-02
2.532356046140193939e-02
8.815667033195495605e-02
3.291086480021476746e-02
7.970039546489715576e-02
-4.387642443180084229e-02
6.444880366325378418e-02
9.670431911945343018e-02
-1.359664369374513626e-02
-4.678180441260337830e-02
1.301880646497011185e-02
-2.523150481283664703e-02
1.354566868394613266e-02
-5.309668555855751038e-02
2.800282463431358337e-02
7.066112756729125977e-02
5.218787191552110016e-05
4.866385087370872498e-02
-1.127574965357780457e-02
-2.262372709810733795e-02
2.351891063153743744e-02
-4.507271945476531982e-02
9.124303609132766724e-02
1.890652999281883240e-02
-4.447280243039131165e-02
4.511148482561111450e-02
-3.663068637251853943e-02
-5.430275946855545044e-02
6.634109467267990112e-02
5.788012966513633728e-02
-2.395654283463954926e-02
5.178158730268478394e-02
5.341697484254837036e-02
1.669858698733150959e-03
1.676531322300434113e-02
2.525736019015312195e-02
-2.293386869132518768e-02
6.051147356629371643e-02
5.028359591960906982e-02
1.071322360076010227e-03
4.333598539233207703e-03
-2.112464979290962219e-02
1.617028960026800632e-03
7.600811868906021118e-02
7.689065486192703247e-02
5.914266407489776611e-02
9.344845265150070190e-02
2.709606476128101349e-02
1.860565622337162495e-03
2.013019286096096039e-02
9.463620930910110474e-02
3.322471678256988525e-02
4.022817686200141907e-02
-2.310506999492645264e-02
5.063436552882194519e-02
-9.613933973014354706e-03
-5.013419687747955322e-02
-5.903839319944381714e-02
5.395190417766571045e-02
1.816279627382755280e-02
-4.105859249830245972e-02
2.541780844330787659e-02
2.813529595732688904e-02
-5.318569019436836243e-02
-2.513684332370758057e-02
-3.112224861979484558e-02
2.102513099089264870e-03
1.072848867624998093e-02
-1.221172977238893509e-02
3.920996189117431641e-02
3.408380225300788879e-02
2.831558138132095337e-02
-5.281759798526763916e-02
8.527831733226776123e-02
-9.524911642074584961e-03
-6.748636811971664429e-02
1.733246445655822754e-02
2.533966861665248871e-02
3.382681682705879211e-02
-4.782920330762863159e-02
5.670431628823280334e-02
8.896748186089098454e-04
-4.008764401078224182e-03
2.411893010139465332e-02
9.357372298836708069e-03
-3.430178016424179077e-02
-6.169047206640243530e-02
4.663526266813278198e-02
3.519425913691520691e-02
4.346301034092903137e-02
5.027289316058158875e-02
3.354620188474655151e-02
-1.838930696249008179e-02
1.016665832139551640e-03
2.782052010297775269e-02
-6.396080832928419113e-03
-2.746823057532310486e-02
2.575445547699928284e-02
2.591365203261375427e-02
-1.253842376172542572e-02
7.320047914981842041e-02
-2.629510313272476196e-02
-4.483925923705101013e-02
7.132360246032476425e-03
4.701896384358406067e-02
-2.970944717526435852e-02
3.532602638006210327e-02
7.775218784809112549e-02
-5.009897425770759583e-02
-3.624317049980163574e-02
1.949189603328704834e-02
2.171858996152877808e-01
-1.432785764336585999e-02
1.673509180545806885e-01
1.571052223443984985e-01
1.430066078901290894e-01
5.274946242570877075e-02
-3.078223168849945068e-01
3.340566530823707581e-02
-4.871232062578201294e-02
-7.643472403287887573e-02
-1.110357791185379028e-01
9.527006745338439941e-02
-1.952151507139205933e-01
-5.772548913955688477e-02
-1.980018243193626404e-02
1.200569793581962585e-01
1.468048840761184692e-01
1.793182939291000366e-01
9.662742912769317627e-02
1.799614727497100830e-01
9.802963584661483765e-02
3.378522992134094238e-01
1.771365851163864136e-02
4.760971758514642715e-03
-1.038050279021263123e-01
-1.565428078174591064e-02
-4.758756980299949646e-02
1.691203936934471130e-02
-1.056529358029365540e-01
4.502351209521293640e-02
6.063133105635643005e-02
1.228700801730155945e-01
7.513292133808135986e-02
-3.908665105700492859e-02
-3.101607039570808411e-02
-9.542038291692733765e-02
2.346983700990676880e-01
2.373086065053939819e-01
-1.052788496017456055e-01
2.800521627068519592e-02
8.987770229578018188e-02
2.099632285535335541e-02
-1.059083864092826843e-01
-9.046289324760437012e-02
-2.524940967559814453e-01
-1.420000046491622925e-01
3.085782937705516815e-02
2.060849405825138092e-02
-6.847213208675384521e-02
3.816104261204600334e-03
-1.336811855435371399e-02
-4.411412775516510010e-02
-5.161479860544204712e-02
5.179446563124656677e-02
-1.793376728892326355e-02
-3.392569348216056824e-02
-5.667600408196449280e-02
-6.017691269516944885e-02
-5.010885745286941528e-02
4.665407538414001465e-02
8.699066936969757080e-03
4.928161948919296265e-02
7.201143354177474976e-02
1.911983639001846313e-02
6.675251573324203491e-02
4.049176722764968872e-02
6.162899360060691833e-02
-5.631478503346443176e-02
6.324528902769088745e-02
3.526740148663520813e-02
7.133606821298599243e-02
-6.837855279445648193e-02
6.032970920205116272e-02
2.544496767222881317e-02
-2.305161580443382263e-02
-2.789898309856653214e-03
-6.164819374680519104e-02
6.925407797098159790e-02
3.959550336003303528e-02
-6.877361983060836792e-02
-1.892537809908390045e-02
-4.211046546697616577e-02
-7.066076993942260742e-02
2.258311398327350616e-02
-3.199617937207221985e-02
4.636190831661224365e-02
-1.056484412401914597e-02
3.399188071489334106e-02
-2.084394916892051697e-02
6.816992908716201782e-02
-8.844404481351375580e-03
-4.886002745479345322e-03
5.279920529574155807e-03
-1.419410575181245804e-02
7.287425687536597252e-04
2.133638039231300354e-02
5.333495885133743286e-02
-6.757492572069168091e-02
-1.433554664254188538e-02
-6.043202430009841919e-02
6.503801047801971436e-02
-4.171831160783767700e-02
-1.535766641609370708e-03
4.738533496856689453e-02
-7.356626540422439575e-02
-6.233913078904151917e-02
7.564566284418106079e-02
4.550262913107872009e-02
-4.324688017368316650e-02
-3.461099416017532349e-02
-5.967212468385696411e-02
-4.390997812151908875e-02
-6.581651419401168823e-02
-4.959651082754135132e-02
-3.783927112817764282e-02
-5.631493870168924332e-03
6.117949262261390686e-02
5.387438088655471802e-02
3.847734630107879639e-02
-5.007849261164665222e-02
-3.557953238487243652e-02
3.303899243474006653e-02
4.530258849263191223e-02
-2.497588470578193665e-02
5.605769902467727661e-02
-4.690676555037498474e-02
-1.194217335432767868e-02
2.450577728450298309e-02
-4.519964382052421570e-02
7.372815161943435669e-02
-6.926845759153366089e-02
4.886199161410331726e-02
4.291404504328966141e-03
4.270580038428306580e-02
-2.905412949621677399e-02
-5.712951719760894775e-02
7.915513962507247925e-02
-5.236999318003654480e-02
6.959030777215957642e-02
3.664080053567886353e-02
5.722596496343612671e-02
-5.600495636463165283e-02
-1.063432916998863220e-02
-2.645066194236278534e-02
-1.517654489725828171e-02
-7.484243810176849365e-02
-2.620605006814002991e-02
-4.443519189953804016e-02
4.675142467021942139e-02
2.193309366703033447e-02
-2.231126418337225914e-03
-5.022903531789779663e-02
-5.720209702849388123e-02
9.363747201859951019e-03
7.692746818065643311e-02
-1.883373782038688660e-02
5.494305863976478577e-02
-3.811380267143249512e-02
1.209524460136890411e-02
6.216230615973472595e-02
-2.146363817155361176e-02
-7.359974086284637451e-02
-7.109252363443374634e-02
7.902630418539047241e-02
-6.921724975109100342e-02
-5.763343349099159241e-02
-6.856377702206373215e-03
6.579703837633132935e-02
-1.074961498379707336e-01
-8.886356651782989502e-02
1.898042261600494385e-01
-3.612884506583213806e-02
-7.248582784086465836e-03
2.863928079605102539e-01
3.621308133006095886e-02
-3.771912157535552979e-01
1.428177859634160995e-02
-1.048406511545181274e-01
2.438308671116828918e-02
-7.761713862419128418e-02
-8.121027611196041107e-03
-6.298401951789855957e-02
-2.103722468018531799e-02
-2.218092232942581177e-02
1.058855354785919189e-01
-1.141906995326280594e-02
9.522807598114013672e-02
4.278750345110893250e-02
1.322819739580154419e-01
1.119877994060516357e-01
1.049849018454551697e-01
5.167519301176071167e-02
1.791738718748092651e-02
-1.297733485698699951e-01
3.454159200191497803e-02
-6.813948974013328552e-03
1.402314379811286926e-02
3.991153463721275330e-02
1.038821116089820862e-01
-1.556005477905273438e-01
-6.504582613706588745e-02
-8.974041044712066650e-02
-1.387911196798086166e-02
-1.811134442687034607e-02
-9.463820606470108032e-02
-3.207625821232795715e-02
3.411801904439926147e-02
-2.481806464493274689e-02
6.490853428840637207e-02
2.633664524182677269e-03
6.427045911550521851e-02
-4.565478861331939697e-02
7.006887346506118774e-02
-1.242323368787765503e-01
6.616297364234924316e-02
-1.153991557657718658e-03
2.678915299475193024e-02
1.410606689751148224e-02
1.356480643153190613e-02
5.792418494820594788e-02
-6.893321126699447632e-02
-6.725886464118957520e-02
-4.336231574416160583e-02
-2.170381881296634674e-02
2.177463611587882042e-03
-6.870469450950622559e-02
-5.812946334481239319e-02
5.823264271020889282e-02
-3.258473472669720650e-03
3.042080812156200409e-02
4.501696676015853882e-02
6.969630718231201172e-02
5.910673737525939941e-02
-6.327114999294281006e-02
-2.119248174130916595e-02
-3.015280887484550476e-02
-2.922961115837097168e-02
-5.353302508592605591e-02
-3.174734488129615784e-02
5.793731287121772766e-02
6.692913919687271118e-02
-7.346907258033752441e-02
5.772115290164947510e-02
2.488680742681026459e-02
-1.055605709552764893e-02
2.256822399795055389e-02
-3.237301483750343323e-03
7.804159820079803467e-02
3.195198625326156616e-02
2.673097513616085052e-02
6.491120159626007080e-02
-4.469456523656845093e-02
2.355584315955638885e-02
-1.871528476476669312e-02
3.781706094741821289e-02
-3.228357061743736267e-03
7.002538442611694336e-02
-3.992196545004844666e-02
-3.977632522583007812e-02
1.680504344403743744e-02
4.717008769512176514e-02
-5.685251951217651367e-02
-5.266853049397468567e-02
-5.846063792705535889e-02
-1.999653130769729614e-02
-3.921065106987953186e-02
-1.169126015156507492e-02
-1.334266830235719681e-02
7.956856861710548401e-04
-7.165442407131195068e-02
2.966015972197055817e-02
5.305230990052223206e-02
-5.501158908009529114e-02
3.933702409267425537e-02
-1.457648817449808121e-02
-4.281201586127281189e-02
-5.283805727958679199e-02
4.169394448399543762e-02
-2.885130047798156738e-02
-3.365563228726387024e-02
6.738000665791332722e-04
7.666800171136856079e-02
1.180128753185272217e-02
7.787283509969711304e-02
6.225905939936637878e-02
2.732555568218231201e-02
3.126033022999763489e-02
2.740604244172573090e-02
3.465700522065162659e-02
3.415266796946525574e-02
-2.545969747006893158e-02
4.788759164512157440e-03
4.087241366505622864e-02
-1.579946093261241913e-02
1.556519418954849243e-02
-5.444791167974472046e-02
8.374933898448944092e-02
-1.415743585675954819e-02
5.097090452909469604e-02
-6.248139962553977966e-02
6.944441795349121094e-02
1.076425332576036453e-02
3.212431073188781738e-02
7.282276451587677002e-02
-6.856196373701095581e-02
-3.241914883255958557e-02
6.945073604583740234e-02
1.442100107669830322e-02
7.838940620422363281e-02
6.560858339071273804e-02
4.843310266733169556e-02
-5.988323315978050232e-02
-2.735433354973793030e-02
4.113697260618209839e-02
-4.377698153257369995e-02
2.805026620626449585e-02
-5.701909959316253662e-02
-4.276800155639648438e-02
6.645491719245910645e-02
-5.553800612688064575e-02
-6.744976341724395752e-02
6.920629739761352539e-02
-3.116949833929538727e-02
5.848160013556480408e-02
-3.806644678115844727e-02
-2.146783657371997833e-02
3.324522823095321655e-02
-1.517270412296056747e-02
6.580053269863128662e-02
-4.662055149674415588e-02
4.408462718129158020e-02
-6.272961199283599854e-02
2.725205617025494576e-03
-1.448376756161451340e-02
3.711786866188049316e-02
6.690727919340133667e-02
-7.386733591556549072e-02
5.749027058482170105e-02
2.312270402908325195e-01
-1.379911601543426514e-01
1.428641080856323242e-01
2.304484248161315918e-01
2.163924425840377808e-01
2.268976718187332153e-02
6.132748350501060486e-02
9.713077545166015625e-02
-7.759587466716766357e-02
2.763587690424174070e-04
-6.019558757543563843e-02
3.161806985735893250e-02
-1.948715746402740479e-01
-1.457737535238265991e-01
1.276827156543731689e-01
5.044881626963615417e-02
-9.224472939968109131e-02
2.366110682487487793e-02
1.480502933263778687e-01
7.511933892965316772e-02
5.764521192759275436e-03
6.810329109430313110e-02
-7.474701106548309326e-02
2.507884502410888672e-01
1.684395819902420044e-01
1.872661709785461426e-01
3.074700385332107544e-02
1.255171000957489014e-01
-1.033425033092498779e-01
-8.021967858076095581e-02
1.716117709875106812e-01
-4.712395742535591125e-02
1.705429144203662872e-02
2.317233011126518250e-02
-4.303929395973682404e-03
-1.802055537700653076e-02
2.942575700581073761e-02
-5.866467207670211792e-02
1.698678880929946899e-01
-5.738604068756103516e-02
1.180322840809822083e-01
-1.933866180479526520e-02
8.973966538906097412e-02
-5.862170830368995667e-02
-5.066316109150648117e-03
1.782405935227870941e-02
-3.872412070631980896e-02
1.923890784382820129e-02
-1.635221578180789948e-02
9.600873454473912716e-06
-4.947096109390258789e-02
-1.942578703165054321e-02
2.747578918933868408e-02
2.945679007098078728e-03
-5.341213941574096680e-02
-1.917850971221923828e-02
-1.451638899743556976e-02
6.937512010335922241e-02
1.333277393132448196e-02
-2.066130284219980240e-03
-1.711461506783962250e-02
-7.417376339435577393e-02
7.820249348878860474e-02
6.639257073402404785e-02
-1.586445979773998260e-02
7.860748097300529480e-03
-5.923308804631233215e-02
3.913184627890586853e-02
-2.352227456867694855e-02
-2.374363318085670471e-02
5.076615489087998867e-04
-6.987457722425460815e-02
-3.627950325608253479e-02
-3.800392523407936096e-02
4.492563754320144653e-02
-4.144129529595375061e-02
-4.721846058964729309e-02
1.217151439050212502e-04
-4.969314113259315491e-02
2.173142135143280029e-02
6.546115875244140625e-02
2.403613924980163574e-02
-2.977743558585643768e-02
3.037481755018234253e-02
6.457111239433288574e-02
-7.206758856773376465e-02
3.344767168164253235e-02
7.516247034072875977e-02
-2.196187898516654968e-02
-2.418556064367294312e-02
-2.512190304696559906e-02
-4.511711001396179199e-02
-4.290581122040748596e-02
4.905079305171966553e-02
4.905262589454650879e-02
4.682314395904541016e-02
1.745824556564912200e-04
-2.698515355587005615e-02
3.604277223348617554e-02
-3.782361745834350586e-02
-9.206186980009078979e-03
5.585211329162120819e-03
3.521070256829261780e-02
-5.284934490919113159e-02
2.302891574800014496e-03
-6.321262568235397339e-03
-3.579440712928771973e-02
-6.589778233319520950e-03
3.609959408640861511e-02
-5.102642811834812164e-03
4.020322859287261963e-02
3.212314471602439880e-02
-2.736316621303558350e-02
-5.639081075787544250e-02
5.889404937624931335e-02
1.700629293918609619e-02
9.534106589853763580e-03
-9.292566217482089996e-03
-1.254836213774979115e-03
2.859133295714855194e-02
7.036110758781433105e-02
1.671876572072505951e-02
5.556028801947832108e-03
5.562563240528106689e-02
2.678962796926498413e-02
1.379642449319362640e-02
-2.370069734752178192e-02
-2.421952039003372192e-02
1.431698445230722427e-02
-6.652785837650299072e-02
6.855407729744911194e-03
-2.621122822165489197e-02
-6.855049729347229004e-02
2.139995433390140533e-02
-4.263221099972724915e-02
-5.735216662287712097e-03
-7.235463708639144897e-02
4.850699752569198608e-02
-3.392036259174346924e-02
4.370771348476409912e-02
-6.506138946861028671e-03
3.063266538083553314e-02
5.372634157538414001e-02
7.151067256927490234e-03
-4.053020104765892029e-02
-4.079173132777214050e-02
3.267562389373779297e-02
-2.167570963501930237e-02
-7.846017181873321533e-02
-2.415223978459835052e-02
-3.267911821603775024e-02
1.064170710742473602e-02
-7.267863303422927856e-02
-4.452539980411529541e-02
1.772824116051197052e-02
5.270759388804435730e-02
4.857450351119041443e-02
-2.478115260601043701e-02
1.064760703593492508e-02
-5.550455674529075623e-02
-3.700972720980644226e-02
7.674989849328994751e-02
-5.024598166346549988e-02
-4.941272735595703125e-02
3.778210654854774475e-02
4.795450717210769653e-02
-3.662359341979026794e-02
-3.267718255519866943e-01
3.862432241439819336e-01
4.148931801319122314e-02
-2.051152884960174561e-01
1.101509407162666321e-01
1.899405121803283691e-01
-4.253264516592025757e-02
3.197779059410095215e-01
-4.180248081684112549e-01
-5.093728750944137573e-02
-1.553601622581481934e-01
-2.546832263469696045e-01
-2.141478657722473145e-01
-4.892095550894737244e-02
-1.448591351509094238e-01
-3.771922886371612549e-01
-1.329964548349380493e-01
6.161842495203018188e-02
1.711663007736206055e-01
1.321229338645935059e-01
2.436266541481018066e-01
1.082311347126960754e-01
2.391609996557235718e-01
3.478937447071075439e-01
3.369073867797851562e-01
1.762692779302597046e-01
1.338987201452255249e-01
-2.409208863973617554e-01
-3.761553764343261719e-02
2.876585423946380615e-01
1.467084139585494995e-01
1.117792427539825439e-01
2.600178420543670654e-01
1.585402488708496094e-01
2.771646976470947266e-01
8.339147269725799561e-02
6.437453627586364746e-02
1.844673790037631989e-02
1.310476213693618774e-01
-5.997898802161216736e-02
1.012802198529243469e-01
1.136973313987255096e-02
-1.273104455322027206e-02
-3.745425865054130554e-02
-8.375895023345947266e-02
-5.890744179487228394e-02
-1.093147024512290955e-01
-1.484210975468158722e-02
5.707162246108055115e-02
-5.217771977186203003e-03
4.996770247817039490e-02
1.392378844320774078e-02
-5.793297290802001953e-02
-5.592583492398262024e-02
-7.433288730680942535e-03
-6.683313101530075073e-02
-2.644076570868492126e-02
-4.739119112491607666e-02
-4.962600767612457275e-02
-5.574243515729904175e-02
1.224679499864578247e-02
5.411078780889511108e-02
-1.688216254115104675e-02
4.057228565216064453e-02
-3.054219856858253479e-02
1.929088123142719269e-02
-3.304904699325561523e-02
-5.128800868988037109e-02
1.811635331250727177e-03
-4.215303808450698853e-02
4.267813265323638916e-02
1.075109653174877167e-02
2.666700258851051331e-02
5.868998914957046509e-02
-5.117565765976905823e-02
-8.148021996021270752e-02
5.701797455549240112e-02
-5.154532566666603088e-02
6.951411813497543335e-02
2.899867482483386993e-02
-1.692121662199497223e-02
4.102754872292280197e-03
5.891589075326919556e-02
5.903697013854980469e-02
-1.319676357525167987e-05
1.793263480067253113e-02
-7.329489290714263916e-02
-6.497273594141006470e-02
-8.185686171054840088e-02
5.870474129915237427e-02
-1.698490977287292480e-02
-5.175142362713813782e-02
-8.302699029445648193e-02
-4.090376198291778564e-02
-6.579203903675079346e-02
-4.732600972056388855e-02
-6.769057363271713257e-02
5.421749502420425415e-02
3.697919473052024841e-02
-3.550538793206214905e-02
-5.748045817017555237e-02
4.546171054244041443e-02
2.882920578122138977e-02
-7.884734123945236206e-02
2.926976233720779419e-02
-2.113897586241364479e-03
-6.278859078884124756e-02
-5.744711682200431824e-02
-4.792404174804687500e-02
5.992563441395759583e-02
-5.183130875229835510e-02
3.079357556998729706e-02
-5.425043776631355286e-02
7.376255095005035400e-02
-1.651522330939769745e-02
5.525645613670349121e-02
-4.235224425792694092e-02
-5.789130553603172302e-02
2.486266195774078369e-02
-5.682388693094253540e-02
-4.888298735022544861e-02
-2.429362386465072632e-02
3.318768367171287537e-02
-5.738165974617004395e-02
-5.683542415499687195e-02
4.402198642492294312e-02
-5.808211863040924072e-02
5.855562165379524231e-02
9.747344069182872772e-03
-1.495487615466117859e-02
-8.467724174261093140e-02
-4.777209833264350891e-02
5.185353010892868042e-02
-3.702552244067192078e-02
-4.336079210042953491e-02
-3.510075807571411133e-02
-8.200752735137939453e-02
-2.490261569619178772e-03
3.469373623374849558e-04
-5.882122740149497986e-02
5.354454368352890015e-02
1.468437723815441132e-03
-7.079321891069412231e-02
2.930555306375026703e-02
5.360617302358150482e-03
-5.318087711930274963e-02
-6.555961817502975464e-02
5.833591893315315247e-02
-5.579102784395217896e-02
3.144463896751403809e-02
-4.520601034164428711e-02
3.659150097519159317e-03
5.805212259292602539e-02
4.163274541497230530e-02
-8.490219712257385254e-03
3.312045708298683167e-02
5.510975420475006104e-02
5.106399208307266235e-02
-6.784029304981231689e-02
2.434525080025196075e-02
3.782988293096423149e-03
-6.368112564086914062e-02
-3.398323804140090942e-02
-5.130481347441673279e-02
-4.176036641001701355e-02
-4.281044472008943558e-03
5.979506298899650574e-02
-6.199254840612411499e-02
-4.022800922393798828e-02
-2.366450987756252289e-02
-3.801077902317047119e-01
3.675445914268493652e-02
-5.925068259239196777e-02
-1.216972395777702332e-01
5.142114683985710144e-02
-3.295994997024536133e-01
-8.098064661026000977e-01
5.444867610931396484e-01
4.253409337252378464e-03
-1.421332638710737228e-02
7.174248993396759033e-02
2.547143399715423584e-01
-6.580966114997863770e-01
3.430337011814117432e-01
4.168507158756256104e-01
-2.315851859748363495e-03
-1.131440103054046631e-01
-3.690300881862640381e-01
-1.118221953511238098e-01
-3.582501709461212158e-01
-3.013797998428344727e-01
-3.050394058227539062e-01
-3.729455769062042236e-01
-7.499830424785614014e-02
6.840661913156509399e-02
4.510859847068786621e-01
3.923262655735015869e-01
-8.101859688758850098e-02
4.105188325047492981e-02
-1.132741346955299377e-01
-2.592515945434570312e-01
-1.294923424720764160e-01
-1.194907054305076599e-01
-1.207316145300865173e-01
-8.047752082347869873e-02
1.515603996813297272e-02
1.556595694273710251e-02
-2.451317757368087769e-02
-8.554568514227867126e-03
6.266929209232330322e-02
-1.768809556961059570e-02
2.895242907106876373e-02
7.221957296133041382e-02
-1.626392267644405365e-02
-7.919262349605560303e-02
1.343858707696199417e-02
3.910069912672042847e-02
7.391800731420516968e-02
5.406454578042030334e-02
1.267802994698286057e-02
-3.252553567290306091e-02
-1.297473255544900894e-02
-8.323284238576889038e-02
5.960411950945854187e-02
4.895469546318054199e-02
2.083954215049743652e-02
5.667857453227043152e-02
-5.588375404477119446e-02
-2.305390499532222748e-02
-8.969089947640895844e-03
-5.250658094882965088e-02
-4.535805433988571167e-02
-6.551489233970642090e-02
-9.000805020332336426e-02
-4.722940549254417419e-02
-7.866698503494262695e-02
2.987586148083209991e-02
2.731296001002192497e-03
-7.999436557292938232e-02
-6.221900111995637417e-04
-7.381171733140945435e-02
5.463461577892303467e-02
-3.163899108767509460e-02
2.972570434212684631e-02
-9.925866499543190002e-03
-2.074849233031272888e-02
-6.892253458499908447e-02
-2.559760212898254395e-02
-2.801794558763504028e-02
3.140050917863845825e-02
-7.003362476825714111e-02
6.485800724476575851e-03
2.333721704781055450e-02
3.211327269673347473e-02
-5.623657256364822388e-02
1.377028599381446838e-02
2.598870545625686646e-02
1.775644719600677490e-02
-4.599036276340484619e-02
1.293458510190248489e-02
5.672202259302139282e-02
-2.116027288138866425e-02
3.886153176426887512e-02
4.330448061227798462e-02
-4.007945768535137177e-03
1.382097601890563965e-02
-6.982493400573730469e-02
-7.018950581550598145e-02
-2.511016093194484711e-02
3.141038492321968079e-02
-7.589036226272583008e-02
-6.364547461271286011e-02
-7.105983793735504150e-02
2.722015045583248138e-02
-1.431597582995891571e-02
-8.606842905282974243e-02
-5.594004318118095398e-02
-4.782313853502273560e-02
-4.109094664454460144e-02
-4.053725674748420715e-02
-7.046860456466674805e-02
-3.805619897320866585e-03
5.184770748019218445e-02
-5.958545953035354614e-02
-4.788925498723983765e-02
4.971951246261596680e-03
-5.973497778177261353e-02
-2.303242217749357224e-03
1.715557277202606201e-02
3.689359128475189209e-02
4.563111066818237305e-02
-4.064982756972312927e-02
4.886335879564285278e-02
-2.289435267448425293e-02
-6.589296460151672363e-02
-3.991495445370674133e-02
2.217914722859859467e-02
-5.435799062252044678e-02
-1.636932417750358582e-02
4.242455214262008667e-02
-6.531940400600433350e-02
2.747434191405773163e-02
3.438827022910118103e-02
-7.246945798397064209e-02
6.374585628509521484e-02
5.734645202755928040e-02
2.648370712995529175e-02
-6.904184818267822266e-03
3.261994197964668274e-02
-5.695046856999397278e-02
-5.763727799057960510e-02
-7.860925048589706421e-02
-3.599946200847625732e-02
-6.129639595746994019e-02
6.148324906826019287e-02
-3.824260830879211426e-02
-6.519244611263275146e-02
-1.359584089368581772e-02
5.307640507817268372e-02
5.135414749383926392e-02
-4.009820893406867981e-02
-2.773098647594451904e-02
-1.306354999542236328e-03
-6.549566984176635742e-02
-3.455753996968269348e-02
-5.183014553040266037e-03
-7.622364908456802368e-02
6.136234104633331299e-02
-2.658268809318542480e-02
-6.530503183603286743e-02
5.375232174992561340e-02
-8.502740412950515747e-02
5.846961587667465210e-02
-6.211829930543899536e-02
2.530262619256973267e-02
-8.903878042474389076e-04
-7.368075102567672729e-02
1.902917516417801380e-03
1.837568134069442749e-01
-4.648197442293167114e-02
1.077006459236145020e-01
6.975374370813369751e-02
3.084132447838783264e-02
2.887580692768096924e-01
3.422604203224182129e-01
-7.734549697488546371e-03
-2.782199680805206299e-01
-8.084031939506530762e-02
1.881024800240993500e-02
-1.873537153005599976e-02
4.471668228507041931e-02
2.319230325520038605e-02
-1.144359409809112549e-01
-1.172893643379211426e-01
-1.154912337660789490e-01
8.117321878671646118e-03
1.212130486965179443e-01
1.412265598773956299e-01
2.448563575744628906e-01
9.130147844552993774e-02
1.550763696432113647e-01
2.026017606258392334e-01
2.699321508407592773e-02
1.137182563543319702e-01
-8.515750057995319366e-03
4.680433310568332672e-03
-6.025567650794982910e-02
-1.098287403583526611e-01
-7.758960127830505371e-02
1.031448841094970703e-01
-4.468419775366783142e-02
9.981647878885269165e-02
-3.408193960785865784e-02
1.440508663654327393e-01
2.442777529358863831e-02
-1.021101474761962891e-01
1.322509348392486572e-01
3.900272026658058167e-02
2.033530268818140030e-03
3.349413722753524780e-02
3.459004312753677368e-02
1.403498370200395584e-02
8.799141645431518555e-02
4.573240131139755249e-02
-2.534261159598827362e-02
4.572855681180953979e-02
-3.528853505849838257e-02
4.149755090475082397e-02
4.385660216212272644e-02
2.740853279829025269e-02
-5.681868642568588257e-02
-6.496313959360122681e-02
4.509044438600540161e-02
-4.545105621218681335e-02
-5.450969934463500977e-02
-6.622634083032608032e-02
-2.302262373268604279e-02
-3.387802839279174805e-02
4.112746566534042358e-02
2.779039368033409119e-02
-4.919283092021942139e-02
-5.071596801280975342e-02
-5.623029172420501709e-02
-5.919553712010383606e-02
-4.624617099761962891e-02
-2.957230433821678162e-02
7.641841191798448563e-03
3.131576627492904663e-02
5.967177823185920715e-02
5.008752271533012390e-02
-6.064638122916221619e-02
3.801903873682022095e-02
6.301086395978927612e-02
-2.972288802266120911e-02
4.528380930423736572e-02
-5.728311836719512939e-02
6.473837792873382568e-02
-5.232237651944160461e-02
-9.419173002243041992e-03
3.145831823348999023e-02
1.087913638912141323e-03
-7.900667190551757812e-02
-5.168158933520317078e-02
1.196972094476222992e-02
-6.102859228849411011e-02
-8.204749971628189087e-02
1.391704287379980087e-02
-6.255569308996200562e-02
-2.925979532301425934e-02
1.615731976926326752e-02
-7.102442532777786255e-02
-7.484455406665802002e-02
1.987366750836372375e-02
-2.656481973826885223e-02
-7.580915465950965881e-03
7.343032397329807281e-03
1.840465143322944641e-02
-1.308132335543632507e-02
-7.372102141380310059e-02
4.882339388132095337e-02
4.555296152830123901e-02
-1.090542413294315338e-03
2.503938041627407074e-02
4.967859759926795959e-02
-4.866623878479003906e-02
3.778998926281929016e-02
3.482861071825027466e-02
3.061735816299915314e-02
-3.818029537796974182e-02
-4.767873883247375488e-02
-8.283749967813491821e-02
6.539057940244674683e-02
5.807312205433845520e-02
-4.664035513997077942e-02
-2.494866214692592621e-02
-8.208781480789184570e-02
-4.168475791811943054e-02
-6.558772921562194824e-02
-2.667529322206974030e-02
4.919568821787834167e-02
5.471267178654670715e-02
-1.069500111043453217e-02
-4.197791684418916702e-03
2.848397009074687958e-02
-3.902079770341515541e-04
6.551846861839294434e-02
-4.680091515183448792e-02
-3.132649231702089310e-03
-6.733313202857971191e-03
-1.888576149940490723e-02
1.298362854868173599e-02
-1.814354583621025085e-02
-2.295940928161144257e-02
-8.225359767675399780e-02
4.214380308985710144e-02
1.070493366569280624e-02
4.939318448305130005e-02
-2.872770465910434723e-02
-5.742810294032096863e-02
-6.722404807806015015e-02
-6.130587682127952576e-02
-8.192791044712066650e-02
-2.248487062752246857e-02
-8.292812108993530273e-02
4.145412519574165344e-02
-4.055720346514135599e-04
-6.189927458763122559e-02
-4.762397147715091705e-03
-4.507668316364288330e-03
3.510113060474395752e-02
1.532149966806173325e-02
3.094596974551677704e-02
-1.006097625941038132e-02
6.150211393833160400e-02
3.189866617321968079e-02
-1.941725960932672024e-03
-6.990013271570205688e-02
4.547441378235816956e-02
5.339016020298004150e-02
-1.879816129803657532e-02
2.316084923222661018e-03
-1.079103816300630569e-02
-3.268605098128318787e-02
2.582487836480140686e-02
-1.382203120738267899e-02
1.009709388017654419e-02
-7.463166117668151855e-02
9.612941741943359375e-02
2.142067253589630127e-01
-3.170914947986602783e-01
8.700380474328994751e-02
1.039555221796035767e-01
-7.758031040430068970e-02
2.782823741436004639e-01
1.359081715345382690e-01
-5.440530776977539062e-01
1.091697439551353455e-02
-2.651037089526653290e-02
2.787242271006107330e-02
1.399575546383857727e-02
-5.370398610830307007e-02
-2.627803981304168701e-01
-9.050092101097106934e-02
-4.026020467281341553e-01
3.945346176624298096e-02
8.848918229341506958e-02
-9.343347698450088501e-02
3.506401926279067993e-02
2.097176760435104370e-01
1.701777726411819458e-01
2.961821854114532471e-02
8.402875065803527832e-02
-1.844738870859146118e-01
1.098006442189216614e-01
3.231020644307136536e-03
-8.736059814691543579e-02
-4.615993797779083252e-02
3.807637467980384827e-02
3.795067220926284790e-02
-1.102562770247459412e-01
-8.538297563791275024e-02
1.181777473539113998e-02
3.011122345924377441e-02
1.299658045172691345e-02
3.952518105506896973e-02
3.628435358405113220e-02
6.879879510961472988e-04
-2.788069546222686768e-01
1.258372142910957336e-02
2.906786650419235229e-02
-9.184455499053001404e-03
5.746282264590263367e-02
-1.106337551027536392e-02
1.154117956757545471e-01
-4.074103385210037231e-02
-6.801084429025650024e-02
8.152465336024761200e-03
5.992759019136428833e-02
-5.310154706239700317e-02
-4.615063965320587158e-02
-7.331636548042297363e-02
-8.999481052160263062e-02
-4.736268427222967148e-03
-2.991248480975627899e-02
3.545603528618812561e-02
-4.996891692280769348e-02
2.950465306639671326e-03
2.011242322623729706e-04
2.202218398451805115e-02
3.204971179366111755e-02
2.111443690955638885e-02
1.884614676237106323e-02
-3.365116193890571594e-02
1.495964638888835907e-02
4.611301049590110779e-02
-2.589415526017546654e-03
4.918775707483291626e-02
6.702841073274612427e-02
6.148614734411239624e-02
-7.573167979717254639e-02
-1.630129478871822357e-02
-7.380224764347076416e-02
6.123746559023857117e-02
4.249711707234382629e-02
-4.063659533858299255e-02
6.910074502229690552e-02
-5.319796502590179443e-02
-8.230086416006088257e-02
-6.456408649682998657e-02
3.938778117299079895e-02
-1.902676187455654144e-02
5.128326639533042908e-02
-4.966317862272262573e-02
4.748536646366119385e-02
2.158938348293304443e-02
2.806988358497619629e-02
9.715475142002105713e-03
4.887540265917778015e-02
-2.646669931709766388e-02
6.136396154761314392e-02
-9.247166104614734650e-03
2.929638512432575226e-02
-4.770055785775184631e-02
-3.838371485471725464e-02
-6.556408852338790894e-02
-3.028730116784572601e-02
-9.928170591592788696e-02
-6.334259361028671265e-02
5.069202184677124023e-02
-6.288912147283554077e-02
3.470518812537193298e-02
-7.979683578014373779e-02
1.787685975432395935e-02
2.360906265676021576e-02
-7.078702002763748169e-02
6.402275059372186661e-03
4.576259106397628784e-02
2.583179622888565063e-02
-5.158567801117897034e-03
1.618488132953643799e-02
-4.670488834381103516e-02
-7.117649912834167480e-02
-6.921096704900264740e-03
6.653772294521331787e-02
-4.061847180128097534e-02
3.018289990723133087e-02
2.061803359538316727e-03
-1.260346919298171997e-02
5.300152301788330078e-02
-6.599908322095870972e-02
-4.678953438997268677e-02
-7.449488341808319092e-02
-8.270237594842910767e-02
-8.148737251758575439e-02
6.237830966711044312e-03
-5.013979226350784302e-02
-3.521909937262535095e-02
5.343154445290565491e-02
5.050745233893394470e-02
4.447651095688343048e-03
-6.119882315397262573e-02
7.973542436957359314e-03
-2.196138165891170502e-02
-3.661604970693588257e-02
-5.939227342605590820e-02
-8.827251195907592773e-02
-3.621635958552360535e-02
-1.938371174037456512e-02
-8.488371968269348145e-02
-8.898066729307174683e-02
-7.007572799921035767e-02
-3.805752471089363098e-02
3.182435408234596252e-02
5.249290913343429565e-02
-5.904911458492279053e-02
3.242463991045951843e-02
-3.668217360973358154e-02
2.234275825321674347e-02
-1.601019129157066345e-02
-1.521678175777196884e-02
-9.277596324682235718e-02
8.873620070517063141e-03
-4.055294767022132874e-02
-5.142450705170631409e-02
1.310843322426080704e-02
-6.848357617855072021e-02
5.174489691853523254e-02
-6.459295749664306641e-02
-2.665585093200206757e-02
1.161319296807050705e-02
4.421012848615646362e-02
-4.142603278160095215e-02
-5.048546567559242249e-02
-5.084747448563575745e-02
-6.710180640220642090e-02
1.960094831883907318e-02
6.879339367151260376e-02
-8.278302103281021118e-02
5.818500183522701263e-03
6.881748884916305542e-02
2.547673285007476807e-01
-2.712917886674404144e-02
2.205088175833225250e-02
7.352618873119354248e-02
-1.326449066400527954e-01
-1.331986486911773682e-01
-1.257392466068267822e-01
9.567978978157043457e-02
-2.169296592473983765e-01
1.150132641196250916e-01
4.274202510714530945e-02
3.451001271605491638e-02
1.651910394430160522e-01
5.021273344755172729e-02
7.097630202770233154e-02
5.334348604083061218e-02
8.888311684131622314e-03
-5.646538361907005310e-02
1.274742037057876587e-01
-5.259502306580543518e-02
-5.935098603367805481e-02
2.791847800835967064e-03
7.760342210531234741e-02
1.959565430879592896e-01
6.750588864088058472e-02
-2.977482602000236511e-02
1.394518278539180756e-02
1.118009611964225769e-01
5.877647921442985535e-02
1.136720627546310425e-01
-5.750721693038940430e-02
-1.405279338359832764e-01
-1.579939574003219604e-01
5.022055003792047501e-03
2.370168641209602356e-02
2.091653048992156982e-01
-1.422632187604904175e-01
-4.286209866404533386e-02
-3.181349858641624451e-02
3.428838029503822327e-02
-1.322857886552810669e-01
-1.729257404804229736e-02
-8.494367450475692749e-02
-8.371087908744812012e-02
-8.194679021835327148e-02
1.051560603082180023e-02
2.541135810315608978e-02
2.821028605103492737e-02
2.166421897709369659e-02
1.808851957321166992e-02
2.005873993039131165e-02
-6.469227373600006104e-02
5.841446295380592346e-02
-4.913571849465370178e-02
6.041615828871726990e-02
1.658175885677337646e-02
5.704929307103157043e-02
6.278942339122295380e-03
3.415715321898460388e-02
-7.242736965417861938e-02
5.057279951870441437e-03
4.413940384984016418e-02
6.584463990293443203e-04
-6.740605086088180542e-02
-7.841227203607559204e-02
-1.661839522421360016e-02
5.059638246893882751e-02
-1.197671238332986832e-02
5.957813560962677002e-02
1.774526387453079224e-02
4.986206814646720886e-02
5.532051995396614075e-02
-5.976773053407669067e-02
1.060384791344404221e-03
-4.428603872656822205e-02
1.602898724377155304e-02
1.536912657320499420e-02
-3.555139899253845215e-02
-4.433518648147583008e-02
2.190082706511020660e-02
-3.381654992699623108e-02
6.228963285684585571e-02
-7.207036763429641724e-02
5.076479539275169373e-02
3.735088929533958435e-02
-7.271968573331832886e-02
-7.873295806348323822e-03
-8.479945361614227295e-02
-4.913646727800369263e-02
4.487839341163635254e-02
-4.772634059190750122e-02
1.399996690452098846e-03
-6.120217218995094299e-02
7.814799994230270386e-02
6.634454429149627686e-02
3.304117172956466675e-02
-4.219031706452369690e-02
-6.528603285551071167e-02
-7.424634695053100586e-02
-2.172677405178546906e-02
5.827216804027557373e-02
7.452613860368728638e-02
7.057461887598037720e-02
-4.030289873480796814e-02
-4.909032210707664490e-02
6.409160047769546509e-02
5.467363819479942322e-02
1.058105472475290298e-02
-2.193866297602653503e-02
-8.491794764995574951e-02
-4.739246144890785217e-02
-3.573633357882499695e-02
5.581242218613624573e-02
5.267266556620597839e-02
-1.391078624874353409e-02
-3.742571221664547920e-03
2.162621542811393738e-02
5.918286368250846863e-02
6.286618858575820923e-02
3.557673096656799316e-02
1.549073867499828339e-02
4.351380094885826111e-02
-1.017313078045845032e-02
-5.603298172354698181e-02
2.746210433542728424e-02
4.985249042510986328e-02
1.917784847319126129e-02
-5.691080912947654724e-02
-3.286932036280632019e-02
-7.064231485128402710e-02
-2.885058522224426270e-02
-1.064130919985473156e-04
-7.474747300148010254e-02
5.527054518461227417e-02
-2.447701618075370789e-02
-1.799790561199188232e-02
3.805279731750488281e-02
-6.561411917209625244e-02
2.488318365067243576e-03
-7.718408852815628052e-02
-1.460392493754625320e-02
1.395888626575469971e-02
-4.486850928515195847e-03
-2.768152579665184021e-02
-5.736604705452919006e-02
-4.602493718266487122e-02
5.035696551203727722e-02
7.237327843904495239e-02
3.614668175578117371e-02
-6.482651829719543457e-02
-5.532222334295511246e-03
-5.962540209293365479e-02
2.784528769552707672e-02
-5.547231808304786682e-02
-4.928705096244812012e-02
4.320577532052993774e-02
-3.858827799558639526e-02
-6.082469131797552109e-03
4.462742805480957031e-02
-5.222697276622056961e-03
3.377757221460342407e-02
-4.460711404681205750e-02
-3.997835889458656311e-02
6.386581808328628540e-03
6.418877840042114258e-02
-3.619052469730377197e-02
-1.937118023633956909e-01
-4.256607219576835632e-02
6.032069772481918335e-02
-9.155808947980403900e-03
4.459058493375778198e-02
-3.674983978271484375e-01
-4.304701983928680420e-01
5.595713853836059570e-01
-2.543698064982891083e-02
2.850121259689331055e-02
8.935681730508804321e-02
1.924905925989151001e-01
-4.045328199863433838e-01
3.796478509902954102e-01
3.970706164836883545e-01
6.126924231648445129e-02
-8.562628179788589478e-02
-2.768427729606628418e-01
-2.250980436801910400e-01
-3.314939141273498535e-01
-4.868623018264770508e-01
-3.687185645103454590e-01
-3.436898291110992432e-01
-1.068743411451578140e-02
-1.166246384382247925e-01
1.654176861047744751e-01
2.376092672348022461e-01
3.395813331007957458e-02
4.324849694967269897e-02
-6.640032678842544556e-02
-1.605535894632339478e-01
-2.335319072008132935e-01
-1.526729017496109009e-01
-1.731316298246383667e-01
-8.107122778892517090e-02
-7.655400037765502930e-02
-2.501942217350006104e-04
5.495253205299377441e-02
6.124720722436904907e-02
-4.224827513098716736e-02
-4.743540659546852112e-02
2.050547115504741669e-02
-4.362123459577560425e-02
-8.650781214237213135e-02
-6.934709101915359497e-02
-6.723657250404357910e-02
-5.724127404391765594e-03
-4.310283064842224121e-02
-6.284651160240173340e-02
5.886967480182647705e-02
-1.763501577079296112e-02
7.368653267621994019e-02
5.949885770678520203e-02
5.434319004416465759e-02
7.231707870960235596e-02
-5.690377578139305115e-02
-1.758452039211988449e-03
1.547401957213878632e-02
-4.842295777052640915e-03
6.321224570274353027e-02
4.826194420456886292e-02
-4.740735143423080444e-02
-1.237677596509456635e-02
-1.304887421429157257e-02
-5.765829607844352722e-02
2.349717728793621063e-02
5.235879123210906982e-02
-1.532842963933944702e-02
-6.402336526662111282e-03
-2.995925955474376678e-02
-5.201615020632743835e-02
1.921945950016379356e-03
-1.888325810432434082e-02
-4.685920104384422302e-02
5.478474497795104980e-02
-4.254833608865737915e-02
4.428717866539955139e-02
-4.903967306017875671e-02
-4.141358658671379089e-02
7.058779150247573853e-02
-1.641778647899627686e-02
2.190129645168781281e-02
3.271143510937690735e-02
-4.973960295319557190e-02
-7.535510510206222534e-02
-6.109979376196861267e-02
1.907482743263244629e-03
-2.994081191718578339e-02
-5.141227692365646362e-02
-2.148929610848426819e-02
-2.239438518881797791e-02
-6.256722658872604370e-02
-6.311237066984176636e-02
-2.222135663032531738e-02
-2.199981734156608582e-02
-4.012649878859519958e-02
-3.950485959649085999e-02
-4.308959469199180603e-02
-1.632826030254364014e-02
3.791097551584243774e-02
-3.644698858261108398e-02
4.566042497754096985e-02
-1.546005718410015106e-02
-4.204164072871208191e-02
-8.700535399839282036e-04
2.427360415458679199e-02
-6.459026783704757690e-02
-8.111701905727386475e-02
7.661846466362476349e-03
7.172702252864837646e-02
-4.954272415488958359e-03
-4.782264307141304016e-02
-2.206394262611865997e-02
-3.856555745005607605e-02
6.162294000387191772e-02
-2.573291584849357605e-02
-2.231781184673309326e-02
-7.353340089321136475e-02
-4.555599763989448547e-02
-2.504122909158468246e-03
-2.388193830847740173e-02
-3.328917175531387329e-02
-4.120098799467086792e-02
1.621811278164386749e-02
-4.104227572679519653e-02
-6.304287910461425781e-02
4.333349689841270447e-02
2.636367641389369965e-02
-9.815459139645099640e-03
-2.466616593301296234e-02
-5.144784227013587952e-03
5.791076645255088806e-02
9.281129576265811920e-03
6.785956025123596191e-02
2.956753596663475037e-03
-4.178013652563095093e-02
4.320838674902915955e-02
6.218935176730155945e-02
4.502791911363601685e-02
-2.474678494036197662e-02
5.275946855545043945e-02
6.877069920301437378e-02
-6.172332912683486938e-02
6.455815583467483521e-02
-5.592690408229827881e-02
5.907106027007102966e-02
3.898711130023002625e-02
-5.352384969592094421e-02
-2.880683727562427521e-02
-2.820811979472637177e-02
2.042049542069435120e-02
4.069797322154045105e-02
2.722900733351707458e-02
7.069133687764406204e-03
-2.847563242539763451e-03
5.007840320467948914e-02
3.832110203802585602e-03
-1.546771824359893799e-02
1.210780348628759384e-03
-5.079329479485750198e-03
-4.801679402589797974e-02
-4.303969070315361023e-02
-4.045247659087181091e-02
-3.713547810912132263e-02
4.007666930556297302e-02
-9.895532391965389252e-03
-5.634649470448493958e-02
7.976216822862625122e-02
9.666933864355087280e-02
-1.512367129325866699e-01
5.086873471736907959e-02
1.177540328353643417e-02
-3.117438964545726776e-02
8.156811445951461792e-02
3.283346593379974365e-01
-6.318810582160949707e-02
-2.299856543540954590e-01
1.738524809479713440e-02
6.430318951606750488e-02
-1.755009219050407410e-02
2.673519775271415710e-02
8.793983608484268188e-02
-6.358908861875534058e-02
-1.277559716254472733e-02
-5.667094141244888306e-02
3.774306550621986389e-02
4.761135205626487732e-02
1.728393435478210449e-01
1.166950538754463196e-01
1.537059843540191650e-01
8.699918538331985474e-02
3.589959442615509033e-02
4.699450731277465820e-02
-6.676541268825531006e-02
-3.837005048990249634e-02
-1.816102652810513973e-03
-1.072461009025573730e-01
-3.257570089772343636e-03
-5.267288163304328918e-02
1.909885788336396217e-03
-1.944339573383331299e-01
1.205556988716125488e-01
-2.839797362685203552e-02
1.519585959613323212e-02
-2.040721476078033447e-03
9.071186650544404984e-04
7.282719016075134277e-03
6.944708526134490967e-02
-1.485048085451126099e-01
-5.593524873256683350e-02
4.572945088148117065e-02
-2.117412164807319641e-03
2.997738495469093323e-02
2.623700723052024841e-02
4.637114237993955612e-03
4.006493091583251953e-02
2.089773118495941162e-02
-5.687236785888671875e-02
-6.667104363441467285e-02
2.984956093132495880e-02
-2.806921862065792084e-02
6.161583587527275085e-02
1.001781783998012543e-02
-3.620751574635505676e-02
2.899867482483386993e-02
4.861804097890853882e-02
2.746512927114963531e-02
4.424851760268211365e-02
5.664038937538862228e-03
-4.598060250282287598e-02
-4.391213878989219666e-02
5.351110175251960754e-02
2.477505989372730255e-02
5.030464380979537964e-02
-1.867345161736011505e-02
3.098668239545077085e-04
4.790669307112693787e-03
-6.643115729093551636e-02
2.136500366032123566e-02
1.069581508636474609e-02
-6.261739134788513184e-02
-5.826785415410995483e-02
-5.314653366804122925e-02
4.907434061169624329e-02
2.596986107528209686e-02
1.322294119745492935e-02
6.984883546829223633e-02
-1.912917755544185638e-02
4.122606292366981506e-02
2.836667117662727833e-04
-2.013723552227020264e-02
6.068607419729232788e-02
6.787107139825820923e-02
2.073567360639572144e-02
-4.949679970741271973e-02
6.373689323663711548e-02
2.302773483097553253e-02
1.326232589781284332e-02
-6.207626312971115112e-02
2.443701028823852539e-02
6.775668263435363770e-02
2.325011231005191803e-02
1.091127563267946243e-02
7.982148788869380951e-03
3.190710395574569702e-02
-2.628553472459316254e-02
6.023916974663734436e-02
7.766834646463394165e-02
2.684774994850158691e-02
7.080753892660140991e-02
-3.791503608226776123e-03
-4.845517128705978394e-02
1.666822098195552826e-02
-5.419640988111495972e-02
-1.128621492534875870e-02
2.322078682482242584e-02
-6.856944411993026733e-02
5.265108868479728699e-02
3.690565354190766811e-04
7.160946726799011230e-02
1.909201219677925110e-02
1.501162443310022354e-02
9.598123840987682343e-03
2.675942890346050262e-02
-2.859639376401901245e-02
9.021417051553726196e-02
-4.567635059356689453e-02
7.097944617271423340e-02
1.843217015266418457e-02
-7.550286501646041870e-02
7.841708138585090637e-03
-4.269671440124511719e-02
1.848832517862319946e-02
3.514530137181282043e-02
4.510554298758506775e-02
4.511971492320299149e-03
4.210038855671882629e-02
-2.809466607868671417e-02
7.717493921518325806e-02
-4.659208282828330994e-02
-4.875965882092714310e-03
-6.590270902961492538e-03
-3.956352174282073975e-02
1.725153066217899323e-02
4.250884428620338440e-02
-2.554361149668693542e-02
6.904366612434387207e-02
8.337437361478805542e-02
-2.816513925790786743e-02
3.594113141298294067e-02
6.052977964282035828e-02
6.437247246503829956e-02
6.826949119567871094e-02
-5.402694921940565109e-03
5.603959783911705017e-02
-6.331888586282730103e-02
-5.647419393062591553e-02
-4.210356157273054123e-03
7.962790876626968384e-02
6.705572456121444702e-02
2.972464263439178467e-02
-4.076412692666053772e-02
2.494589425623416901e-02
4.569840058684349060e-02
4.353481531143188477e-02
-2.490974031388759613e-02
-2.361980639398097992e-02
-3.692940622568130493e-02
4.812636598944664001e-02
1.531541254371404648e-02
-1.723046600818634033e-02
-1.281176693737506866e-02
-3.873949637636542320e-03
4.643114283680915833e-02
-7.225635927170515060e-03
-4.606442525982856750e-02
9.777787141501903534e-03
-5.110787600278854370e-02
8.055735379457473755e-03
5.068082213401794434e-01
-1.050772611051797867e-03
-1.131560876965522766e-01
-1.117622200399637222e-02
-2.747058495879173279e-02
-2.621304802596569061e-02
-1.978683471679687500e-02
1.565503329038619995e-01
9.929323196411132812e-02
5.200004950165748596e-02
-3.144212067127227783e-01
3.731409907341003418e-01
8.081659674644470215e-02
7.826330140233039856e-03
1.264429539442062378e-01
4.708524793386459351e-02
2.363527715206146240e-01
9.070497751235961914e-02
1.748297214508056641e-01
-2.517381124198436737e-02
1.124775856733322144e-01
1.320943981409072876e-01
1.235097274184226990e-01
2.416596412658691406e-01
-9.973301738500595093e-02
-9.699152782559394836e-03
-1.824627071619033813e-02
1.581590473651885986e-01
1.789385080337524414e-02
1.862760633230209351e-02
1.990341097116470337e-01
-1.848812103271484375e-01
3.212641924619674683e-03
-2.069118246436119080e-02
-8.375424891710281372e-03
-1.586340367794036865e-02
4.224586859345436096e-02
-5.698734149336814880e-02
-1.163977459073066711e-01
7.788589596748352051e-02
4.671975597739219666e-02
2.355026081204414368e-02
-9.507027268409729004e-02
-3.109703212976455688e-02
-7.019841577857732773e-03
-1.164528131484985352e-01
3.839330375194549561e-02
-2.037524804472923279e-02
6.869863718748092651e-02
1.478025875985622406e-02
6.505642086267471313e-03
-7.160991430282592773e-02
5.763441324234008789e-03
-5.119360238313674927e-02
3.108226694166660309e-02
6.167332828044891357e-02
4.580486565828323364e-02
-3.734413906931877136e-02
4.105835780501365662e-02
-4.464592039585113525e-02
-6.928121298551559448e-02
-4.798361659049987793e-02
5.660515278577804565e-02
-2.370216138660907745e-02
-4.835015535354614258e-02
-1.465027872473001480e-02
-6.905354559421539307e-02
4.684590175747871399e-02
-5.702756345272064209e-02
-7.040927559137344360e-02
7.303183525800704956e-02
1.082662213593721390e-02
2.775673568248748779e-02
2.468519285321235657e-02
4.740696027874946594e-02
-3.689236566424369812e-02
7.333706319332122803e-02
-4.323732107877731323e-02
4.006632417440414429e-02
-3.580892831087112427e-02
1.707547344267368317e-02
-2.466207183897495270e-02
2.449960261583328247e-02
-6.421777606010437012e-02
4.044540598988533020e-02
7.333768904209136963e-02
-1.181097421795129776e-02
7.148218899965286255e-02
5.884681269526481628e-02
-5.799478292465209961e-02
-4.948084428906440735e-02
-5.931955948472023010e-02
5.434690415859222412e-02
-1.278399582952260971e-02
7.628628611564636230e-02
-7.114687561988830566e-02
-1.592770777642726898e-02
7.575321197509765625e-02
-1.765836728736758232e-03
6.773315370082855225e-02
6.222001090645790100e-02
-1.435033697634935379e-02
3.840236365795135498e-02
-2.589510288089513779e-03
3.253582864999771118e-03
-1.608641818165779114e-02
3.992702066898345947e-02
-6.081201508641242981e-02
6.910803914070129395e-02
-6.199877336621284485e-02
5.778503417968750000e-02
4.037266969680786133e-02
-6.340151280164718628e-02
-1.571059785783290863e-02
1.290854415856301785e-03
3.356526792049407959e-02
6.299488246440887451e-02
6.226673349738121033e-02
-5.295869335532188416e-02
-5.244414880871772766e-02
4.531796649098396301e-02
5.376666784286499023e-02
4.252190515398979187e-02
5.471778288483619690e-02
6.504250317811965942e-02
-2.060385048389434814e-02
6.016654521226882935e-02
-4.281391575932502747e-02
-2.128798328340053558e-02
-1.892898045480251312e-02
4.389962181448936462e-02
1.110784243792295456e-02
-6.339103728532791138e-02
3.206302225589752197e-02
-4.836810007691383362e-02
7.272677868604660034e-02
-3.742640838027000427e-02
-2.404321916401386261e-02
6.588760018348693848e-02
-6.669754628092050552e-03
6.608029454946517944e-02
3.292168956249952316e-03
8.393234573304653168e-03
-4.691350832581520081e-02
-7.659847289323806763e-02
1.626742072403430939e-02
5.503788962960243225e-02
-4.220236465334892273e-02
-6.430234014987945557e-02
-3.571087867021560669e-02
-5.190647020936012268e-02
-7.221609354019165039e-02
-2.134289965033531189e-02
-4.131882265210151672e-02
5.732853338122367859e-02
2.370306663215160370e-02
4.929530248045921326e-02
5.757627636194229126e-02
-7.211577892303466797e-02
2.597518451511859894e-02
6.516441702842712402e-03
1.331527624279260635e-02
-5.848830565810203552e-02
-2.858633175492286682e-02
-2.593505010008811951e-02
-1.991248875856399536e-02
-2.395597659051418304e-02
8.860664442181587219e-03
6.344323605298995972e-02
-5.188764538615942001e-03
-7.043868303298950195e-02
1.546633392572402954e-01
-5.911156535148620605e-02
1.431808620691299438e-01
-3.149716556072235107e-02
-5.378879904747009277e-01
-7.741425931453704834e-02
-1.177707165479660034e-01
5.731087923049926758e-02
-9.498821198940277100e-02
2.346097677946090698e-02
-2.389116287231445312e-01
-1.664542257785797119e-01
-3.536003082990646362e-02
8.597137033939361572e-02
9.362471103668212891e-02
6.820838898420333862e-02
3.679490461945533752e-02
1.413379013538360596e-01
1.655374914407730103e-01
1.617848873138427734e-01
1.500618755817413330e-01
-1.435500830411911011e-01
1.157269906252622604e-02
-3.165613114833831787e-02
8.817547559738159180e-02
-3.381862305104732513e-03
-4.031427949666976929e-02
-3.211738914251327515e-02
-1.577235609292984009e-01
2.299100309610366821e-01
2.652054727077484131e-01
-5.560934916138648987e-02
-8.430465310811996460e-02
-6.817629188299179077e-02
9.583371132612228394e-02
4.911425337195396423e-02
-4.172738641500473022e-02
-8.198587596416473389e-02
2.672245725989341736e-03
7.526204735040664673e-02
5.955517292022705078e-02
6.552010774612426758e-02
8.429179340600967407e-02
-4.731656238436698914e-02
3.702660277485847473e-02
-1.775506325066089630e-02
4.084705188870429993e-02
5.286590382456779480e-02
-5.228304769843816757e-03
4.516942892223596573e-03
4.765428230166435242e-02
-5.797810154035687447e-04
-1.620310544967651367e-02
-3.404866904020309448e-02
1.092857774347066879e-02
1.572794094681739807e-02
-2.339851297438144684e-02
-1.617981679737567902e-02
5.498207733035087585e-02
-1.276043616235256195e-02
1.084825024008750916e-02
7.655868679285049438e-02
-6.309100240468978882e-02
8.093276619911193848e-02
1.441353838890790939e-02
-2.179999835789203644e-02
-3.801264986395835876e-02
7.450965698808431625e-03
7.462420314550399780e-02
3.948985412716865540e-02
-2.576955594122409821e-02
-6.232436373829841614e-02
-1.030272338539361954e-02
-3.043131902813911438e-03
5.038530007004737854e-02
-6.243893131613731384e-02
-6.012612581253051758e-02
-5.891397222876548767e-02
2.884493768215179443e-02
3.713622689247131348e-02
3.440700843930244446e-02
2.896663732826709747e-02
-3.513381630182266235e-02
-6.485159695148468018e-02
6.360619515180587769e-02
-5.742009729146957397e-02
-3.957347571849822998e-02
1.819702051579952240e-02
-6.612343341112136841e-02
5.077108368277549744e-02
5.782921612262725830e-02
-3.420307487249374390e-02
6.681814789772033691e-02
-3.212671726942062378e-02
3.346453607082366943e-02
-2.803477272391319275e-02
3.641445934772491455e-02
-4.379609972238540649e-02
6.970898061990737915e-02
7.629788666963577271e-02
-5.689629167318344116e-02
-4.508006572723388672e-02
-6.494616717100143433e-02
-6.645573675632476807e-02
6.043878942728042603e-02
5.533814802765846252e-02
-2.280007116496562958e-02
-2.328497171401977539e-02
5.995310097932815552e-02
2.699002809822559357e-02
-3.083395026624202728e-02
-2.580304443836212158e-02
-5.650971550494432449e-03
-1.860643550753593445e-02
2.732305787503719330e-02
2.762349508702754974e-02
-6.632794439792633057e-02
4.620096459984779358e-02
5.044246837496757507e-02
-3.083647601306438446e-02
5.039875209331512451e-02
7.458193600177764893e-02
-5.818544328212738037e-02
-1.808773912489414215e-02
-6.632327288389205933e-02
7.304159551858901978e-02
6.734699755907058716e-02
-1.196652185171842575e-03
-2.973275817930698395e-02
6.931693106889724731e-02
2.152529172599315643e-02
6.901217997074127197e-02
-2.963224239647388458e-02
-7.690300047397613525e-02
2.497964538633823395e-02
5.798908323049545288e-02
-7.169730216264724731e-02
2.841677702963352203e-02
-3.678115829825401306e-02
-4.072600230574607849e-02
-5.707418173551559448e-02
1.996071077883243561e-02
4.874671995639801025e-02
2.559130266308784485e-02
-5.976671725511550903e-02
3.056742250919342041e-02
-4.977069795131683350e-02
-1.367179676890373230e-02
7.619958370923995972e-03
-2.952414005994796753e-02
-1.729419827461242676e-02
1.951494067907333374e-02
6.743191182613372803e-02
6.392849236726760864e-02
-8.631602860987186432e-03
-8.052553236484527588e-02
1.419907342642545700e-02
6.430862843990325928e-02
-5.942793563008308411e-02
-4.936908558011054993e-02
1.675696857273578644e-02
-4.482129588723182678e-02
6.889213621616363525e-02
-6.537318229675292969e-02
5.245804786682128906e-02
1.746577322483062744e-01
-2.854484599083662033e-03
1.073717325925827026e-01
2.360508143901824951e-01
-8.150018006563186646e-02
8.074302971363067627e-02
3.349137008190155029e-01
-3.194987075403332710e-03
6.243041157722473145e-02
3.211259096860885620e-02
-7.394535839557647705e-02
-6.956987828016281128e-02
5.505671724677085876e-02
-1.254145056009292603e-02
-4.559620842337608337e-02
-3.121536597609519958e-02
-2.492187730967998505e-02
1.613407954573631287e-02
-6.856695562601089478e-02
4.451699554920196533e-02
5.864937230944633484e-02
3.677124530076980591e-02
9.746804088354110718e-02
-6.626221537590026855e-02
-2.117067202925682068e-02
-5.300619825720787048e-02
-4.182330518960952759e-02
-5.243819952011108398e-02
-1.718449145555496216e-01
-1.590896993875503540e-01
4.398961737751960754e-02
3.374327346682548523e-02
1.396622359752655029e-01
2.870931476354598999e-02
-1.238406077027320862e-01
1.100514531135559082e-01
1.376727479510009289e-03
-5.142891407012939453e-02
-9.965935721993446350e-03
-8.598130941390991211e-02
2.409285493195056915e-02
3.454060852527618408e-02
-3.897517174482345581e-02
-9.009192138910293579e-02
-5.587578192353248596e-02
9.219647943973541260e-02
-3.825943171977996826e-02
-2.508662082254886627e-02
2.777673117816448212e-02
-6.595778744667768478e-03
-9.068411588668823242e-02
-3.059907816350460052e-02
-3.310216963291168213e-02
2.198632434010505676e-02
1.211766246706247330e-02
1.226826198399066925e-02
6.397207733243703842e-03
1.771382428705692291e-02
-2.095341496169567108e-02
-8.702982217073440552e-02
-6.244090199470520020e-02
-7.791140675544738770e-02
-4.884013161063194275e-02
-8.458222448825836182e-02
-1.720608328469097614e-03
-1.537563093006610870e-02
-5.354499816894531250e-02
4.240165650844573975e-02
-3.832876309752464294e-02
-7.770382612943649292e-02
4.477290809154510498e-02
-2.339378930628299713e-02
6.841324735432863235e-03
-7.510029524564743042e-02
3.591397032141685486e-02
-1.239567436277866364e-02
-3.636891720816493034e-03
-5.655518174171447754e-02
4.379621520638465881e-02
-6.829218566417694092e-02
-2.953800372779369354e-02
-1.941435970366001129e-02
-6.696218252182006836e-02
-9.131263196468353271e-02
1.325255539268255234e-02
-1.631852425634860992e-02
-2.317159995436668396e-02
-6.133532151579856873e-02
-2.113062515854835510e-02
-9.944537654519081116e-03
-2.307352982461452484e-02
-6.175450608134269714e-02
7.682057563215494156e-03
-2.661413699388504028e-02
-9.379942715167999268e-02
1.020954269915819168e-02
-5.772735550999641418e-02
2.301237545907497406e-03
-4.927441105246543884e-02
-6.767319142818450928e-02
4.315206035971641541e-02
1.695907860994338989e-02
-3.121958486735820770e-02
-1.104451995342969894e-02
-1.947586424648761749e-02
4.176112264394760132e-02
-5.114245042204856873e-02
-8.912473171949386597e-02
-4.050156846642494202e-02
-2.766392193734645844e-02
1.287016924470663071e-02
5.832788720726966858e-02
-4.102365300059318542e-02
3.160074725747108459e-02
-7.064780592918395996e-02
4.186412692070007324e-02
4.097876325249671936e-02
5.599710345268249512e-02
-1.018697842955589294e-01
4.359923303127288818e-02
-6.410656496882438660e-03
-8.432300761342048645e-03
3.315813466906547546e-02
3.440937399864196777e-02
2.638750709593296051e-02
-2.370814234018325806e-02
3.513880074024200439e-02
-1.685391739010810852e-02
-5.569705367088317871e-02
5.870619788765907288e-02
5.988679081201553345e-02
1.753748767077922821e-02
2.332985959947109222e-02
1.148351840674877167e-02
9.830716997385025024e-03
-1.545968279242515564e-02
-7.349889725446701050e-02
4.821529239416122437e-02
-4.425965622067451477e-02
-4.190178215503692627e-02
-3.343871235847473145e-02
3.551246225833892822e-02
-6.440924108028411865e-02
-1.572258956730365753e-02
5.147949326783418655e-03
1.885038241744041443e-02
-7.456117123365402222e-02
4.760459437966346741e-02
-7.743235677480697632e-02
-2.024228684604167938e-02
-4.178944975137710571e-02
3.514525666832923889e-02
-2.673568017780780792e-02
-9.890294075012207031e-02
-1.813859492540359497e-02
-7.402747869491577148e-02
-2.867040038108825684e-02
5.701472982764244080e-02
-6.754501163959503174e-02
-8.942347764968872070e-02
-7.559859752655029297e-02
-4.986989498138427734e-02
-5.417002830654382706e-03
5.270450562238693237e-02
-2.592825517058372498e-02
-8.644438534975051880e-02
3.612442687153816223e-02
-5.902368947863578796e-02
-8.110119961202144623e-03
2.839731797575950623e-02
-1.807633787393569946e-01
1.706827282905578613e-01
3.951508551836013794e-02
7.661875337362289429e-02
3.347692266106605530e-02
3.263939321041107178e-01
-1.991230621933937073e-02
-1.049379110336303711e-01
1.289631277322769165e-01
6.278017163276672363e-02
1.060673967003822327e-01
-7.196267694234848022e-02
1.310223340988159180e-02
-1.433937847614288330e-01
-4.509479552507400513e-02
6.868615746498107910e-02
-1.974974013864994049e-02
-8.407643437385559082e-02
1.408058125525712967e-02
5.352344736456871033e-02
-6.014427170157432556e-03
3.352027758955955505e-02
-3.616281226277351379e-02
1.981471627950668335e-01
-1.621184125542640686e-02
-1.621005125343799591e-02
8.099501579999923706e-02
4.265926778316497803e-02
6.242393702268600464e-02
9.519279748201370239e-02
1.629230827093124390e-01
-1.578621566295623779e-01
-1.036177650094032288e-01
-6.091599166393280029e-02
7.837949693202972412e-02
3.262726590037345886e-02
-1.001250520348548889e-01
-1.014480963349342346e-01
5.496085435152053833e-02
-1.587257385253906250e-01
4.862290993332862854e-02
1.371588744223117828e-02
-7.354199886322021484e-02
3.292182832956314087e-02
3.072906658053398132e-02
-9.964231401681900024e-02
3.220171853899955750e-02
-2.203822694718837738e-02
-2.718158997595310211e-02
-3.246222436428070068e-02
-7.134710997343063354e-02
-5.895743146538734436e-02
-1.181236002594232559e-02
3.590640425682067871e-02
2.652595005929470062e-02
5.791441351175308228e-02
-4.557625576853752136e-02
1.502924249507486820e-03
1.021651737391948700e-02
3.717503696680068970e-02
-2.409578592050820589e-04
3.809150308370590210e-02
3.359020873904228210e-02
7.170310243964195251e-03
-5.208358168601989746e-02
-4.476936534047126770e-02
1.566042564809322357e-02
3.877102583646774292e-02
-9.089263528585433960e-02
-5.904510989785194397e-02
2.946223877370357513e-02
-5.349842831492424011e-02
-6.520226597785949707e-02
-3.910879790782928467e-02
7.809586357325315475e-03
-4.897970706224441528e-02
-6.758894026279449463e-02
-3.646625578403472900e-02
5.792948231101036072e-02
-5.299967899918556213e-02
6.299988180398941040e-02
-6.987304240465164185e-02
-3.516245633363723755e-02
-4.291782155632972717e-02
-3.557464852929115295e-02
-1.680144667625427246e-02
4.131301492452621460e-02
4.621523432433605194e-03
-8.584416937083005905e-04
3.102196753025054932e-02
4.288670420646667480e-02
-7.263587415218353271e-02
1.464687939733266830e-02
2.731580287218093872e-02
5.947483330965042114e-02
1.289413962513208389e-02
7.251795381307601929e-02
6.255269516259431839e-03
-5.245678499341011047e-02
-4.067416116595268250e-02
-7.576944772154092789e-04
4.799545556306838989e-02
-1.854167506098747253e-02
4.597607254981994629e-02
-5.759376287460327148e-02
-6.830643117427825928e-02
3.866797685623168945e-02
-1.786490529775619507e-02
-3.134126588702201843e-02
-2.178571373224258423e-02
2.899276465177536011e-02
-1.837718859314918518e-02
-4.994960129261016846e-02
1.388124190270900726e-02
-7.858748733997344971e-02
3.583681304007768631e-03
-6.141005828976631165e-02
-4.481641110032796860e-03
-6.224239990115165710e-02
-2.605455368757247925e-02
-6.216237321496009827e-02
2.036836557090282440e-02
2.441376633942127228e-02
-8.006446063518524170e-03
4.344753921031951904e-02
1.635370589792728424e-02
-7.294695079326629639e-02
6.249134615063667297e-02
1.508707087486982346e-02
-3.971423953771591187e-02
3.699107468128204346e-02
3.409924358129501343e-02
2.075244113802909851e-02
-7.042621076107025146e-02
-6.357516348361968994e-02
2.305986545979976654e-02
4.384605959057807922e-02
5.822914093732833862e-02
2.475637011229991913e-02
-1.176851708441972733e-02
6.516588386148214340e-03
4.980672523379325867e-02
-4.475603252649307251e-02
1.837141066789627075e-02
5.448403581976890564e-02
-2.163156121969223022e-02
1.159746292978525162e-02
1.990379765629768372e-02
5.037457495927810669e-02
5.067607387900352478e-02
-3.958603367209434509e-02
3.208696469664573669e-02
4.163575917482376099e-02
3.602912649512290955e-02
5.623732134699821472e-02
3.893433511257171631e-02
-5.250903964042663574e-02
-5.158315598964691162e-02
6.334688514471054077e-02
-3.284114226698875427e-02
3.083909116685390472e-02
8.534559048712253571e-03
-2.942174440249800682e-03
1.697235368192195892e-02
-3.075250424444675446e-02
-6.173441931605339050e-02
-4.932580888271331787e-02
5.214706435799598694e-02
-1.846685633063316345e-02
5.710479337722063065e-03
2.100378274917602539e-02
-3.010940365493297577e-02
8.632279187440872192e-02
1.042962819337844849e-01
-2.471294067800045013e-02
1.559847220778465271e-02
-3.204615116119384766e-01
1.074600405991077423e-02
7.211480289697647095e-02
-7.427714020013809204e-02
-1.982574313879013062e-01
1.578732728958129883e-01
-3.671623766422271729e-02
-1.426281481981277466e-01
-5.717840045690536499e-03
4.793405532836914062e-02
1.145288720726966858e-01
1.409479379653930664e-01
1.854802221059799194e-01
1.608264446258544922e-01
2.206678539514541626e-01
1.362099945545196533e-01
4.516250267624855042e-02
8.155392110347747803e-02
4.034908488392829895e-02
-1.021150350570678711e-01
-3.469075309112668037e-04
7.428384572267532349e-02
-5.365027859807014465e-02
4.193728789687156677e-02
-1.390446256846189499e-02
1.454261876642704010e-02
1.009272262454032898e-01
4.322794452309608459e-02
-8.265326172113418579e-02
-3.695506369695067406e-03
3.034389615058898926e-01
1.764323264360427856e-01
-1.118344292044639587e-01
-1.150321811437606812e-01
5.960241705179214478e-02
-2.959942817687988281e-02
-1.154632195830345154e-01
-2.163489907979965210e-01
-6.651130318641662598e-02
-9.693151712417602539e-02
4.511603340506553650e-02
4.422430321574211121e-02
-7.121533155441284180e-02
4.381672665476799011e-02
4.050802811980247498e-02
-8.077598176896572113e-03
-4.026533663272857666e-02
-1.620865799486637115e-02
3.608833625912666321e-02
3.671073168516159058e-02
2.006270177662372589e-02
4.508235678076744080e-02
2.818417549133300781e-02
-6.074096262454986572e-02
-3.940203040838241577e-02
2.179730124771595001e-02
-6.965641677379608154e-02
-1.403220649808645248e-02
2.231304347515106201e-02
-2.190394885838031769e-02
2.630535047501325607e-03
1.500258594751358032e-02
-2.554287202656269073e-02
1.350639108568429947e-02
-5.935624241828918457e-02
5.146681517362594604e-02
-7.256166636943817139e-02
5.118698347359895706e-03
-6.182686612010002136e-02
-6.467130035161972046e-02
-1.508282963186502457e-03
-6.908968091011047363e-02
-4.220633208751678467e-02
1.138210669159889221e-02
-4.170982539653778076e-02
7.585895061492919922e-02
7.795809954404830933e-02
7.033501565456390381e-02
1.888090372085571289e-02
-7.271496951580047607e-02
-7.734210789203643799e-02
-1.716104708611965179e-02
2.742243744432926178e-02
4.627187922596931458e-02
-6.238707806915044785e-03
-9.267188608646392822e-03
-6.023681163787841797e-02
-5.904392153024673462e-02
-4.566747695207595825e-03
6.307356804609298706e-02
-1.094109658151865005e-02
-5.046558007597923279e-02
7.113664411008358002e-03
1.731283403933048248e-02
-2.427586354315280914e-02
-6.050216779112815857e-02
7.177650928497314453e-02
-3.266472741961479187e-02
5.487216636538505554e-02
4.100572317838668823e-02
-3.096003271639347076e-02
2.824592776596546173e-02
8.485070429742336273e-03
5.402427911758422852e-02
4.567797761410474777e-03
-6.935402005910873413e-02
-5.349614843726158142e-02
6.613780558109283447e-02
5.095734819769859314e-02
-4.665415734052658081e-02
-3.133364394307136536e-02
-5.738646537065505981e-02
-7.523071765899658203e-02
-7.535330206155776978e-02
-7.089317589998245239e-02
1.302787940949201584e-02
-6.389163434505462646e-02
-6.739920377731323242e-02
-2.548931911587715149e-02
3.468436747789382935e-02
3.966814279556274414e-02
-4.890459030866622925e-02
7.769108563661575317e-02
4.956888034939765930e-02
-3.686489909887313843e-02
1.331015955656766891e-02
-4.118296876549720764e-02
6.221691146492958069e-02
-6.181587651371955872e-02
1.983085181564092636e-03
1.172031089663505554e-02
5.304623860865831375e-03
8.825623430311679840e-03
-2.789983991533517838e-03
5.455382913351058960e-02
-3.549561649560928345e-02
-5.485312268137931824e-02
6.037707626819610596e-02
5.547494813799858093e-02
-2.221768535673618317e-02
-5.654906108975410461e-02
3.663721680641174316e-02
-3.797012567520141602e-02
4.537116363644599915e-02
6.168942898511886597e-03
6.453052908182144165e-02
-4.199917241930961609e-02
6.267878413200378418e-02
-3.511747345328330994e-02
4.383486229926347733e-03
9.063842706382274628e-03
2.381662279367446899e-02
2.850431948900222778e-02
-4.399799928069114685e-02
4.090706631541252136e-02
-4.459386318922042847e-02
7.368399202823638916e-02
-1.080726180225610733e-02
-6.607883423566818237e-02
-2.643878571689128876e-02
6.442940980195999146e-02
-1.473440136760473251e-02
-3.529224544763565063e-02
-1.346946042031049728e-02
-7.758298516273498535e-02
-7.707802951335906982e-02
-7.935820519924163818e-02
-7.343120872974395752e-02
-1.774474680423736572e-01
5.786812305450439453e-01
-1.189217250794172287e-02
2.020503766834735870e-02
-1.775563880801200867e-02
1.747392565011978149e-01
-4.723644554615020752e-01
3.844422996044158936e-01
3.846891224384307861e-01
-1.265019476413726807e-01
-6.840117275714874268e-02
-2.259478867053985596e-01
-1.590381562709808350e-01
-2.794364988803863525e-01
-3.063524067401885986e-01
-3.119967877864837646e-01
-2.502745389938354492e-01
3.191211819648742676e-02
-8.767883293330669403e-03
1.651753932237625122e-01
2.541778087615966797e-01
1.173567026853561401e-01
6.305255740880966187e-02
-8.516559004783630371e-02
-1.955222636461257935e-01
-1.034670919179916382e-01
-1.190155372023582458e-01
-1.463115960359573364e-01
-1.203354075551033020e-01
-5.507881194353103638e-02
5.847109016031026840e-03
3.192171920090913773e-03
-2.106568776071071625e-02
-5.181205272674560547e-02
2.101299725472927094e-02
-1.879014074802398682e-02
4.348681122064590454e-02
-4.582459852099418640e-02
1.453862991183996201e-02
-9.137174347415566444e-04
8.618056774139404297e-02
-4.698221012949943542e-02
2.021608501672744751e-02
-4.459595773369073868e-03
5.878590419888496399e-02
4.878539964556694031e-02
2.768317237496376038e-02
-7.575019448995590210e-02
-4.602918028831481934e-02
2.402655780315399170e-02
6.960062682628631592e-02
7.684779912233352661e-02
-3.472394496202468872e-02
-4.453355446457862854e-02
-2.164709754288196564e-02
2.046930231153964996e-02
-1.447418890893459320e-02
-6.852262467145919800e-02
1.770780072547495365e-03
-6.896101683378219604e-02
-8.493631333112716675e-02
-4.065895080566406250e-02
-2.672159485518932343e-02
1.462322287261486053e-02
-3.311070054769515991e-02
-7.058353722095489502e-02
-7.367615401744842529e-02
-2.369710057973861694e-02
-3.809420019388198853e-02
-7.867774367332458496e-02
3.630542755126953125e-02
3.750331327319145203e-02
-1.138548133894801140e-03
5.149882659316062927e-02
1.304621156305074692e-02
5.113643780350685120e-02
-4.302586242556571960e-02
-3.866112977266311646e-02
-2.694772370159626007e-02
-2.112589590251445770e-02
-2.224446088075637817e-02
-4.240259900689125061e-02
-8.042375557124614716e-03
-3.016316704452037811e-02
9.414792992174625397e-03
9.249789640307426453e-03
-7.934892177581787109e-02
4.832580685615539551e-02
5.620493087917566299e-03
-5.315630882978439331e-02
-5.804793909192085266e-02
-6.790904700756072998e-02
-4.442666471004486084e-02
-4.696291405707597733e-03
-7.516985386610031128e-02
-3.816173598170280457e-02
5.864818394184112549e-02
-1.301778387278318405e-02
5.930843763053417206e-03
-3.524140268564224243e-02
2.212193794548511505e-03
4.411384928971529007e-03
1.083917729556560516e-02
-1.657010056078433990e-02
1.359522435814142227e-02
4.885002970695495605e-02
-6.291005760431289673e-02
4.439934343099594116e-02
-7.605034857988357544e-02
4.910613223910331726e-02
2.636075206100940704e-02
-4.458574950695037842e-02
-2.325162105262279510e-02
-4.384150728583335876e-02
-7.257227599620819092e-02
-6.452975422143936157e-02
5.344437062740325928e-02
-2.993467077612876892e-02
5.053671821951866150e-02
-2.187907136976718903e-02
1.518197264522314072e-02
-8.084011822938919067e-02
2.191569656133651733e-02
4.122568666934967041e-02
1.921067386865615845e-02
-4.204082116484642029e-02
-8.533983677625656128e-02
3.773637861013412476e-02
9.344056248664855957e-03
6.784091144800186157e-02
2.195672830566763878e-03
2.120677568018436432e-02
-6.854543834924697876e-02
1.786771975457668304e-02
-9.147353470325469971e-02
-7.113854587078094482e-02
-3.574690222740173340e-02
-7.027421891689300537e-02
-2.462702617049217224e-02
2.313515730202198029e-02
-3.090775758028030396e-02
-7.505804300308227539e-02
-2.868995815515518188e-02
2.952452190220355988e-02
1.103419624269008636e-02
-2.400053665041923523e-02
6.054916605353355408e-02
-7.600223273038864136e-02
3.213061485439538956e-03
-3.200157359242439270e-02
-5.965477228164672852e-02
-2.526553813368082047e-03
-3.228557854890823364e-02
-1.161880325525999069e-03
-1.498558185994625092e-02
-6.909339874982833862e-02
-3.485476598143577576e-02
-7.870596647262573242e-02
-4.481136053800582886e-02
5.953522399067878723e-02
-1.536239497363567352e-02
-4.866142198443412781e-02
1.003488153219223022e-01
-3.391030728816986084e-01
-1.575148664414882660e-02
-3.942186012864112854e-02
-1.827017962932586670e-01
2.112234383821487427e-02
-5.807510018348693848e-02
-5.483446717262268066e-01
4.900914728641510010e-01
-1.155324652791023254e-02
2.145642042160034180e-02
5.362281203269958496e-02
2.021691799163818359e-01
-4.626715779304504395e-01
2.953046560287475586e-01
3.037294149398803711e-01
1.620603166520595551e-02
-7.245935499668121338e-02
-3.136230111122131348e-01
-3.660611808300018311e-02
-2.348379492759704590e-01
-4.002028703689575195e-01
-3.404193520545959473e-01
-2.095248401165008545e-01
-7.626590877771377563e-02
6.708586961030960083e-02
1.208671107888221741e-01
2.121505737304687500e-01
-5.184470862150192261e-02
1.910261437296867371e-02
-2.544778287410736084e-01
-2.801285088062286377e-01
-1.316905617713928223e-01
-4.850476607680320740e-02
-1.113384738564491272e-01
-2.451724186539649963e-02
-2.803310286253690720e-03
5.521458387374877930e-02
1.012654788792133331e-02
9.079730138182640076e-03
1.025663781911134720e-02
-1.194724161177873611e-02
6.014855578541755676e-02
5.699579790234565735e-02
8.588401600718498230e-03
-3.691985830664634705e-02
-4.038633033633232117e-02
6.278615444898605347e-02
5.208605527877807617e-02
-7.723050564527511597e-02
3.724246844649314880e-02
4.935564473271369934e-02
1.531936321407556534e-02
3.994551301002502441e-02
3.008668683469295502e-02
-1.623176969587802887e-02
4.883111640810966492e-02
1.641557901166379452e-04
-5.255270004272460938e-02
-8.174009621143341064e-02
6.659076549112796783e-03
-3.716162964701652527e-02
2.687537483870983124e-02
1.138780452311038971e-02
-1.637713238596916199e-02
-2.373489551246166229e-02
-6.721120327711105347e-02
-4.170940071344375610e-02
-8.411695063114166260e-02
3.864395245909690857e-02
5.482045188546180725e-02
-7.362119853496551514e-02
2.295073494315147400e-02
-7.698040455579757690e-02
-5.824975669384002686e-02
-4.216432571411132812e-03
4.119216278195381165e-02
-8.853166550397872925e-02
-1.777358353137969971e-02
-3.214488178491592407e-02
-5.619573965668678284e-02
-2.377748303115367889e-02
4.583943635225296021e-02
-2.780296839773654938e-02
-1.014859452843666077e-01
-1.021212711930274963e-01
-4.661263525485992432e-02
-7.505110651254653931e-02
-8.524700999259948730e-02
-5.558579415082931519e-02
-4.685628227889537811e-03
-2.884036116302013397e-02
-1.123990770429372787e-02
-5.728034768253564835e-03
-6.816854327917098999e-02
-6.804374605417251587e-02
1.196349319070577621e-02
-8.904765546321868896e-02
-1.353827863931655884e-02
-2.375964634120464325e-02
-7.513739913702011108e-02
-4.924655333161354065e-02
-7.106222957372665405e-02
2.674649283289909363e-02
3.534976392984390259e-02
-6.262299418449401855e-02
-8.646549284458160400e-02
-2.436459995806217194e-02
-1.724254153668880463e-02
4.630478564649820328e-03
-7.765550911426544189e-02
-2.105380594730377197e-02
-8.061954379081726074e-02
-7.387962937355041504e-02
4.477316513657569885e-02
-2.429182175546884537e-03
-5.682220309972763062e-02
-1.014649942517280579e-01
-1.861299574375152588e-02
-5.175277218222618103e-02
2.145617641508579254e-02
-9.287141263484954834e-02
-5.972242355346679688e-02
-1.939613837748765945e-03
-4.801898449659347534e-02
-6.650167703628540039e-02
3.011319972574710846e-02
5.644197575747966766e-03
-3.165153041481971741e-02
3.927586227655410767e-02
-1.452578511089086533e-02
-8.587607741355895996e-02
1.092724967747926712e-02
-1.136502996087074280e-02
-9.650997817516326904e-03
-8.000175654888153076e-02
-2.627177722752094269e-02
1.463466417044401169e-02
-9.101630002260208130e-02
-1.562431221827864647e-03
-6.793633848428726196e-02
4.058879567310214043e-04
-4.218598827719688416e-03
-3.235770761966705322e-02
3.080957382917404175e-02
-5.222956091165542603e-02
-2.181224152445793152e-02
-7.162706553936004639e-02
2.037623524665832520e-02
-7.299274951219558716e-02
4.528842866420745850e-02
-7.594493031501770020e-02
-2.913863211870193481e-02
1.925773546099662781e-02
4.718589782714843750e-02
-2.155883982777595520e-02
-7.910413295030593872e-02
5.585825070738792419e-02
1.766518875956535339e-02
5.624449253082275391e-02
-2.625770308077335358e-02
1.870290748775005341e-02
2.635089494287967682e-02
-4.270900040864944458e-02
-4.806239157915115356e-02
-4.351463541388511658e-02
3.808311745524406433e-02
5.625067651271820068e-02
-5.025014397688210011e-04
2.063033133745193481e-01
1.070746406912803650e-01
-3.235929086804389954e-02
2.272815406322479248e-01
-4.549987241625785828e-02
5.750576034188270569e-02
4.756182432174682617e-01
1.879830658435821533e-01
-3.220537602901458740e-01
-1.826345175504684448e-02
-1.112988665699958801e-01
2.517440542578697205e-02
1.041799113154411316e-01
9.303320944309234619e-02
-1.346593350172042847e-01
-2.135992050170898438e-01
-3.208696469664573669e-02
-1.587596535682678223e-02
6.043685972690582275e-02
1.719453558325767517e-02
1.152899768203496933e-02
1.288726925849914551e-01
1.331448405981063843e-01
2.024522051215171814e-02
1.848255991935729980e-01
9.616417810320854187e-03
-1.653176848776638508e-03
-7.290809601545333862e-02
4.035425558686256409e-02
-4.237025510519742966e-03
2.118579000234603882e-01
