3.281449154019355774e-02
3.851262107491493225e-02
2.172746658325195312e-01
1.840074509382247925e-01
4.288523271679878235e-02
3.177129104733467102e-02
2.707167565822601318e-01
-2.852210998535156250e-01
-6.469628810882568359e-01
-1.907310038805007935e-01
1.810426183510571718e-04
-2.338149584829807281e-02
6.050638109445571899e-02
1.002829745411872864e-01
4.693480432033538818e-01
-1.012517604976892471e-03
-3.309419453144073486e-01
-2.940867096185684204e-02
-5.979662761092185974e-02
2.129486501216888428e-01
-2.672887966036796570e-02
-3.580449894070625305e-02
-4.400750398635864258e-01
1.297825574874877930e-01
2.082457095384597778e-01
-6.927657127380371094e-02
-4.649404436349868774e-02
8.393736183643341064e-02
-1.144792959094047546e-01
-1.666060239076614380e-01
1.100564673542976379e-01
-5.670601129531860352e-02
9.307081997394561768e-02
-1.937309354543685913e-01
-1.237760111689567566e-02
-2.760936021804809570e-01
-2.783269435167312622e-02
-2.721892297267913818e-01
-9.640468657016754150e-02
4.379639774560928345e-02
-4.619072750210762024e-02
3.140083849430084229e-01
-1.031019166111946106e-01
3.960022628307342529e-01
-2.948753833770751953e-01
1.486083865165710449e-01
-9.359991550445556641e-02
-1.094361022114753723e-01
4.274996817111968994e-01
-1.713908910751342773e-01
-2.968888580799102783e-01
-2.230071276426315308e-01
-1.193561255931854248e-01
2.199038416147232056e-01
-9.868915379047393799e-02
-2.622221708297729492e-01
4.478042828850448132e-04
-2.706414163112640381e-01
-4.008572399616241455e-01
-9.192635118961334229e-02
-1.481060590595006943e-02
-5.259652063250541687e-02
8.444526791572570801e-02
-1.639193482697010040e-02
1.896738633513450623e-02
1.732568052830174565e-04
-6.089328974485397339e-02
1.581975817680358887e-01
9.473513066768646240e-02
-1.528506577014923096e-01
-2.972537577152252197e-01
8.141767233610153198e-02
-8.734771609306335449e-02
-1.233287230134010315e-01
8.333678543567657471e-02
3.587261140346527100e-01
-5.932846069335937500e-01
2.023791819810867310e-01
-8.030325919389724731e-02
5.187744647264480591e-02
1.454620715230703354e-02
-1.259896755218505859e-01
-1.978031992912292480e-01
1.122318133711814880e-01
-1.158257275819778442e-01
3.100273609161376953e-01
-2.188571728765964508e-02
-2.568460106849670410e-01
2.675562351942062378e-02
2.998200803995132446e-02
8.945865929126739502e-02
-4.416996613144874573e-02
8.494383841753005981e-02
3.594617173075675964e-02
-1.774208545684814453e-01
-1.548226177692413330e-01
-1.030946895480155945e-02
-3.591785952448844910e-02
-4.496139287948608398e-02
-3.292050212621688843e-02
-3.257635533809661865e-01
-1.557092517614364624e-01
-2.237101495265960693e-01
-1.002168357372283936e-01
-2.293571978807449341e-01
1.589172147214412689e-02
-5.456758290529251099e-02
-1.449816226959228516e-01
-2.748270928859710693e-01
2.381202429533004761e-01
9.967374056577682495e-02
5.606162175536155701e-02
-5.902932584285736084e-02
-1.059415936470031738e-01
-3.426688313484191895e-01
1.640753000974655151e-01
-1.780821830034255981e-01
3.664452135562896729e-01
1.174491480924189091e-03
-1.385835744440555573e-02
-1.481895744800567627e-01
-3.138091862201690674e-01
-1.785236783325672150e-02
-1.380115896463394165e-01
1.242493763566017151e-01
2.661111997440457344e-03
1.339318454265594482e-01
2.214639037847518921e-01
5.604108795523643494e-02
-7.086633890867233276e-02
-1.660728901624679565e-01
6.225609406828880310e-02
1.696048527956008911e-01
2.541919946670532227e-01
2.804603278636932373e-01
-1.982116103172302246e-01
-1.437078565359115601e-01
-1.121445894241333008e-01
-4.378397390246391296e-02
9.141147136688232422e-02
-3.785931468009948730e-01
7.134854793548583984e-02
-8.196165785193443298e-03
1.598918437957763672e-01
1.566861867904663086e-01
-6.422575563192367554e-02
-1.896215081214904785e-01
1.346710622310638428e-01
4.251886531710624695e-02
6.632111966609954834e-02
-6.515093892812728882e-02
6.828785687685012817e-02
3.811107575893402100e-02
5.695301294326782227e-02
2.338391691446304321e-01
2.631127238273620605e-01
-2.676014900207519531e-01
3.756807148456573486e-01
-8.266069740056991577e-02
5.789382755756378174e-02
9.160735644400119781e-03
-1.167167499661445618e-01
7.168222963809967041e-02
-5.806767940521240234e-02
9.567361325025558472e-02
-2.058742046356201172e-01
2.687597647309303284e-02
2.042710036039352417e-01
-1.072174608707427979e-01
1.823684424161911011e-01
2.543902993202209473e-01
1.878398586995899677e-03
1.858248412609100342e-01
1.598145961761474609e-01
2.978943884372711182e-01
3.657685518264770508e-01
-1.966316103935241699e-01
2.293107286095619202e-02
1.139263287186622620e-01
-2.212136536836624146e-01
4.131654500961303711e-01
-5.998985469341278076e-02
3.183087334036827087e-02
1.737725287675857544e-01
1.466407328844070435e-01
8.609445393085479736e-02
-8.213130384683609009e-02
3.552800118923187256e-01
-7.548269629478454590e-02
-1.350477933883666992e-01
1.665377914905548096e-01
-6.573408376425504684e-03
4.120096936821937561e-02
7.157208025455474854e-02
-7.162772119045257568e-03
-3.839458525180816650e-02
-8.683387935161590576e-02
1.155746281147003174e-01
2.145379781723022461e-01
-1.504745036363601685e-01
-1.595698744058609009e-01
-1.513804048299789429e-01
4.054445773363113403e-02
1.852070391178131104e-01
-1.795094162225723267e-01
1.462535262107849121e-01
-1.900201737880706787e-01
6.395082455128431320e-03
6.727227568626403809e-02
-2.203120291233062744e-01
-4.621474444866180420e-02
6.208957731723785400e-02
-1.456325203180313110e-01
1.208820566534996033e-01
-1.131791993975639343e-01
1.445410996675491333e-01
-1.617419272661209106e-01
4.633997753262519836e-02
-8.191656321287155151e-02
1.329518705606460571e-01
1.779592037200927734e-01
-1.383806318044662476e-01
1.978408247232437134e-01
-7.761439337627962232e-05
-7.448408007621765137e-02
-2.508128248155117035e-02
1.132552847266197205e-01
-8.266199380159378052e-02
-1.191550586372613907e-02
3.775925934314727783e-02
3.085700236260890961e-02
1.906665116548538208e-01
2.179440557956695557e-01
-2.260897159576416016e-01
-1.297163777053356171e-02
6.460200995206832886e-02
-2.177518159151077271e-01
1.401075869798660278e-01
-9.511099755764007568e-02
-4.822657108306884766e-01
-1.625281423330307007e-01
8.420503139495849609e-02
1.038342788815498352e-01
1.114543378353118896e-01
-5.254423990845680237e-02
1.721871048212051392e-01
-1.880612671375274658e-01
7.349408417940139771e-02
-1.138512715697288513e-01
-4.487141594290733337e-02
9.800362586975097656e-02
-1.950458288192749023e-01
2.612501941621303558e-02
-2.097268030047416687e-02
4.108368605375289917e-02
6.974519789218902588e-02
2.322837710380554199e-01
1.367923170328140259e-01
4.975169524550437927e-02
-3.336435183882713318e-02
3.712659003213047981e-03
-1.943166926503181458e-02
1.919718831777572632e-02
-6.063835322856903076e-02
-2.411042153835296631e-01
-1.713359355926513672e-01
1.905306801199913025e-02
-1.087189987301826477e-01
-4.774334654211997986e-02
-9.064790606498718262e-02
-3.077632561326026917e-02
7.573071401566267014e-03
1.254639029502868652e-01
1.654271334409713745e-01
-1.775479763746261597e-01
1.657285988330841064e-01
9.352775290608406067e-03
3.779213875532150269e-02
-2.806994020938873291e-01
2.476445026695728302e-02
2.074259966611862183e-01
-1.605618149042129517e-01
-5.855159088969230652e-02
1.370928883552551270e-01
-4.121456295251846313e-02
-1.339793354272842407e-01
-2.099954783916473389e-01
1.490928828716278076e-01
5.750532448291778564e-02
1.967714726924896240e-02
-1.217702329158782959e-01
1.007093489170074463e-01
6.068522855639457703e-02
-4.934175685048103333e-02
6.444946676492691040e-02
-1.073560938239097595e-01
3.053236007690429688e-02
-4.661076515913009644e-02
-2.648954279720783234e-02
1.615530401468276978e-01
-1.497238576412200928e-01
1.707974076271057129e-01
1.004874035716056824e-01
-6.109756603837013245e-02
1.453705281019210815e-01
-7.429441064596176147e-02
6.425425410270690918e-01
6.250068545341491699e-01
-3.092258702963590622e-04
-1.607001386582851410e-02
-3.095706924796104431e-03
1.452064067125320435e-01
2.195412367582321167e-01
-4.991559311747550964e-02
8.628004230558872223e-03
1.708603501319885254e-01
-2.055258899927139282e-01
1.744650304317474365e-01
-6.077807024121284485e-02
2.702210843563079834e-01
-1.348680853843688965e-01
2.465252950787544250e-02
1.398178189992904663e-01
2.212961763143539429e-01
2.782868593931198120e-02
3.388160467147827148e-02
-1.312483474612236023e-02
-2.541398815810680389e-02
3.015881776809692383e-02
-1.998691633343696594e-02
1.404030472040176392e-01
2.863894402980804443e-01
-2.456782609224319458e-01
-1.351811140775680542e-01
-1.899013519287109375e-01
2.040802538394927979e-01
4.194092005491256714e-02
6.006987020373344421e-02
-2.123205736279487610e-02
-2.962839603424072266e-01
-2.258313447237014771e-01
-1.638097316026687622e-01
1.719430536031723022e-01
1.315499246120452881e-01
2.058771401643753052e-01
3.708160817623138428e-01
-2.054366022348403931e-01
9.150905907154083252e-02
3.868651092052459717e-01
-1.955837458372116089e-01
8.202363550662994385e-02
-5.851775780320167542e-02
1.089671067893505096e-02
-1.189419478178024292e-01
2.596049606800079346e-01
-1.604355573654174805e-01
9.493555873632431030e-02
5.877870321273803711e-02
-1.172731891274452209e-01
5.730517953634262085e-02
-8.644850924611091614e-03
4.769759625196456909e-02
8.782116696238517761e-03
1.385699361562728882e-01
-9.837514162063598633e-02
2.140351235866546631e-01
9.337815642356872559e-02
-7.140979170799255371e-02
3.376283645629882812e-01
4.079948738217353821e-02
-1.181930601596832275e-01
-2.100669145584106445e-01
-1.843624860048294067e-01
-4.891344904899597168e-01
-1.176418140530586243e-01
-6.087089329957962036e-02
-3.789051622152328491e-02
5.949441790580749512e-01
3.529960513114929199e-01
4.357450306415557861e-01
5.923796445131301880e-02
-1.352262794971466064e-01
5.486501753330230713e-02
-2.292145043611526489e-01
2.050490230321884155e-01
-1.778988093137741089e-01
-1.634395495057106018e-02
-6.863842904567718506e-02
1.597285717725753784e-01
-1.564166396856307983e-01
2.823923341929912567e-02
-1.165813952684402466e-02
-6.124646961688995361e-02
2.784471958875656128e-02
-2.124715037643909454e-02
1.062757670879364014e-01
2.427200525999069214e-01
3.158448636531829834e-01
-1.374298334121704102e-01
-8.503413945436477661e-02
6.225336715579032898e-02
1.305412501096725464e-01
-4.986018408089876175e-03
-9.690188616514205933e-02
1.869994699954986572e-01
-8.950766921043395996e-02
-2.719565331935882568e-01
-1.109855249524116516e-02
-1.534512042999267578e-01
-9.355823695659637451e-02
1.508131921291351318e-01
3.043029904365539551e-01
5.193948745727539062e-02
-1.591580212116241455e-01
3.945779427886009216e-02
-2.357062511146068573e-02
5.835601314902305603e-02
-1.490364074707031250e-01
-1.542817950248718262e-01
-1.289569139480590820e-01
-1.029918789863586426e-01
-9.825795888900756836e-02
-7.698778808116912842e-02
-1.151876747608184814e-01
4.364668950438499451e-02
-4.124383255839347839e-02
6.160994991660118103e-03
-8.255448937416076660e-02
9.177722781896591187e-02
-7.902384549379348755e-02
1.373693645000457764e-01
2.564749680459499359e-02
1.256848275661468506e-01
-1.737102866172790527e-01
4.540893062949180603e-02
-9.895238094031810760e-03
1.815444673411548138e-03
-2.113492488861083984e-01
-2.240784466266632080e-01
-3.748873770236968994e-01
-2.119519114494323730e-01
-7.830902934074401855e-02
-1.284789890050888062e-01
5.819225311279296875e-02
4.424607753753662109e-01
3.209368288516998291e-01
-4.295754432678222656e-02
4.042809605598449707e-01
1.757286489009857178e-02
4.205730929970741272e-02
8.253955841064453125e-02
-1.097252517938613892e-01
-1.445633172988891602e-01
3.645972609519958496e-01
3.346408307552337646e-01
-1.634628176689147949e-01
6.941886246204376221e-02
-2.730299904942512512e-02
2.294017001986503601e-02
1.477364730089902878e-02
8.989790827035903931e-02
-4.923424124717712402e-02
-1.532638221979141235e-01
4.335895646363496780e-03
-2.551941387355327606e-02
1.287423670291900635e-01
8.983931690454483032e-02
-1.698127835988998413e-01
-1.425553858280181885e-01
-9.206785261631011963e-02
9.834310039877891541e-03
3.642958700656890869e-01
1.111016720533370972e-01
-6.925493944436311722e-03
-7.161777466535568237e-02
-6.640011072158813477e-02
-2.138936966657638550e-01
-2.281844019889831543e-01
2.146715819835662842e-01
1.112697869539260864e-01
2.680313214659690857e-02
1.767542399466037750e-02
1.646964251995086670e-01
-1.369758695363998413e-01
-9.115336835384368896e-02
-8.912295848131179810e-02
-2.401353865861892700e-01
-2.304985374212265015e-01
-7.847449928522109985e-02
-6.527730822563171387e-02
3.299250081181526184e-02
-5.866399779915809631e-02
1.456731408834457397e-01
-3.280808031558990479e-02
-1.051256433129310608e-01
-1.870669871568679810e-01
-3.107792437076568604e-01
2.371235489845275879e-01
8.984287083148956299e-02
1.059862785041332245e-02
1.984217204153537750e-02
2.786911092698574066e-02
6.598806381225585938e-02
-1.505948137491941452e-02
2.033086866140365601e-01
8.154294639825820923e-02
1.738996952772140503e-01
-3.295705467462539673e-02
2.340033091604709625e-02
3.005683124065399170e-01
2.541254460811614990e-01
4.518366605043411255e-02
1.074284091591835022e-01
6.942044012248516083e-03
2.214723080396652222e-01
1.110097244381904602e-01
1.436604857444763184e-01
-2.319305241107940674e-01
-1.397879570722579956e-01
-1.859905421733856201e-01
-1.019320338964462280e-01
-1.192696988582611084e-01
-9.531664848327636719e-02
2.544750086963176727e-02
5.886674299836158752e-02
1.457643955945968628e-01
1.563654989004135132e-01
1.603112667798995972e-01
-9.127042442560195923e-02
-2.371741235256195068e-01
-2.591646015644073486e-01
-1.762125790119171143e-01
-1.411244422197341919e-01
-1.250214427709579468e-01
2.120194770395755768e-02
-1.081573069095611572e-01
1.368194371461868286e-01
6.623774766921997070e-02
7.179400324821472168e-02
-2.510687112808227539e-01
-1.084773018956184387e-01
1.950462460517883301e-01
-1.678548604249954224e-01
6.029523611068725586e-01
4.310660064220428467e-02
-1.480915844440460205e-01
-4.879452884197235107e-01
-1.826540529727935791e-01
-1.160108521580696106e-01
-3.477414697408676147e-02
8.378983289003372192e-02
5.438365787267684937e-02
4.956189915537834167e-02
-1.883607730269432068e-02
-4.329641908407211304e-02
-8.289044350385665894e-02
7.435476779937744141e-02
7.566834986209869385e-02
8.914335817098617554e-02
1.293260604143142700e-01
6.682204455137252808e-02
-1.176629588007926941e-01
8.689812384545803070e-03
-1.857608556747436523e-01
3.658769279718399048e-02
-1.418204605579376221e-01
-7.690300047397613525e-02
1.446685791015625000e-01
-8.102725446224212646e-02
-1.242473945021629333e-01
1.250469684600830078e-01
-5.620898008346557617e-01
6.210178136825561523e-02
-6.652724742889404297e-02
5.984682217240333557e-02
2.378969192504882812e-01
2.840997874736785889e-01
3.438669443130493164e-01
2.253511175513267517e-02
-1.512795686721801758e-01
-1.528934240341186523e-01
-1.472888141870498657e-01
1.046198308467864990e-01
-2.264982610940933228e-01
1.283400505781173706e-02
2.288633398711681366e-02
5.671104788780212402e-02
2.800222113728523254e-02
-4.779188707470893860e-02
-1.335320919752120972e-01
-1.803427040576934814e-01
-1.163260713219642639e-01
1.022370383143424988e-01
-9.195044636726379395e-02
9.488810598850250244e-02
-3.143856301903724670e-02
-1.276256889104843140e-01
-2.100726217031478882e-02
2.211161702871322632e-01
4.291535541415214539e-02
5.133162438869476318e-02
2.032150477170944214e-01
1.315918564796447754e-01
-5.619354918599128723e-02
4.457418024539947510e-01
1.726409047842025757e-01
-1.517255902290344238e-01
-1.931310072541236877e-02
-3.622066229581832886e-02
4.422890767455101013e-02
1.365213543176651001e-01
-4.883144423365592957e-02
-1.728987246751785278e-01
1.916111409664154053e-01
-7.147186249494552612e-02
-2.284820824861526489e-01
2.541502118110656738e-01
-1.001557335257530212e-02
3.154224529862403870e-02
3.918689489364624023e-02
-4.196453094482421875e-02
1.105808466672897339e-01
-3.248776867985725403e-02
3.965245187282562256e-02
1.140406653285026550e-01
-8.767893910408020020e-02
7.610528916120529175e-02
3.438914716243743896e-01
3.539395630359649658e-01
1.209863722324371338e-01
2.300535701215267181e-02
4.412159323692321777e-03
-8.041549474000930786e-02
1.127998251467943192e-02
-1.257002800703048706e-01
2.957189977169036865e-01
-3.749658763408660889e-01
-1.557137072086334229e-01
1.361945122480392456e-01
1.825432106852531433e-02
-1.008429843932390213e-02
-1.940772086381912231e-01
-4.770852997899055481e-02
1.536671966314315796e-01
-1.504425555467605591e-01
-1.783944964408874512e-01
1.443528532981872559e-01
-9.725478291511535645e-02
8.846651017665863037e-02
2.138083428144454956e-01
-8.155927807092666626e-02
-9.190259128808975220e-02
-7.131186127662658691e-02
4.001774638891220093e-02
-6.450477987527847290e-02
7.801667600870132446e-02
-2.291079796850681305e-02
-1.064847037196159363e-01
9.594500809907913208e-02
1.045927703380584717e-01
1.700624227523803711e-01
2.419115602970123291e-01
1.002141982316970825e-01
-4.922965168952941895e-02
-1.563632190227508545e-01
-1.484845280647277832e-01
6.475777924060821533e-02
1.267959177494049072e-01
1.162919625639915466e-01
2.802805975079536438e-03
-2.238532602787017822e-01
-1.967219710350036621e-01
1.826930195093154907e-01
1.093492284417152405e-01
-3.690075278282165527e-01
-1.848761690780520439e-03
1.138098612427711487e-01
-5.886721983551979065e-02
-1.174935996532440186e-01
-1.551267653703689575e-01
3.571654483675956726e-02
7.199044525623321533e-02
-3.069812804460525513e-02
1.018907055258750916e-01
4.171057045459747314e-02
-9.497426450252532959e-02
-7.977630198001861572e-02
-9.960619360208511353e-02
-8.640278130769729614e-02
1.506287604570388794e-02
-1.742561161518096924e-01
1.444656103849411011e-01
1.081639975309371948e-01
-2.477289885282516479e-01
-8.353970199823379517e-02
4.223998486995697021e-01
1.799024194478988647e-01
-7.289217412471771240e-02
1.288230121135711670e-01
-5.050267279148101807e-02
1.398092955350875854e-01
-3.252668678760528564e-01
2.466372996568679810e-01
1.556155532598495483e-01
-7.222788780927658081e-02
-1.265154802240431309e-03
-9.772545844316482544e-02
3.210203647613525391e-01
-6.297112256288528442e-02
8.205312490463256836e-02
-6.971125304698944092e-02
-1.926434636116027832e-01
2.498388737440109253e-01
-8.034636825323104858e-02
1.552059315145015717e-02
-2.663804590702056885e-01
-4.237624257802963257e-02
1.271077990531921387e-01
2.378315106034278870e-02
1.078301388770341873e-02
-6.911837309598922729e-02
-5.017814412713050842e-02
-3.398259170353412628e-03
-1.828118562698364258e-01
-3.260469809174537659e-02
-1.147534139454364777e-02
-1.458475738763809204e-01
-1.505761146545410156e-01
-2.395155727863311768e-01
-1.932261735200881958e-01
-5.024007521569728851e-03
-2.071815915405750275e-02
9.306566789746284485e-03
1.206303834915161133e-01
-3.572300374507904053e-01
7.166288048028945923e-02
3.766972571611404419e-02
-1.795945614576339722e-01
-1.004234626889228821e-01
-4.828209802508354187e-02
4.783382713794708252e-01
3.833598271012306213e-02
-3.816490471363067627e-01
3.622817248106002808e-02
-9.589433670043945312e-02
-3.363165557384490967e-01
1.775163561105728149e-01
1.436295062303543091e-01
1.499429810792207718e-02
-1.379007101058959961e-01
-2.451071292161941528e-01
1.682719886302947998e-01
8.258750289678573608e-02
4.833674430847167969e-02
3.740869089961051941e-02
4.261695221066474915e-02
-2.640257962048053741e-02
-2.106397412717342377e-02
9.002230945043265820e-04
1.383669525384902954e-01
1.997060030698776245e-01
2.418512701988220215e-01
1.006605550646781921e-01
4.337952286005020142e-02
1.049622800201177597e-02
-5.485912039875984192e-02
-3.215555250644683838e-01
-1.439623236656188965e-01
-2.574558556079864502e-01
-4.960254207253456116e-02
4.475968331098556519e-02
-1.193843185901641846e-01
-4.779097810387611389e-02
3.947469294071197510e-01
-2.125816941261291504e-01
1.360883116722106934e-01
2.183997333049774170e-01
-3.478831844404339790e-03
2.083031088113784790e-01
2.983022667467594147e-02
-1.791684478521347046e-01
1.092718839645385742e-01
4.338119179010391235e-02
-7.945477217435836792e-02
-1.529755629599094391e-02
1.200969666242599487e-01
5.435558408498764038e-02
-3.521507605910301208e-02
5.452409014105796814e-02
9.986196458339691162e-02
7.431627810001373291e-02
-9.292067587375640869e-02
2.942058630287647247e-02
2.449600258842110634e-03
-2.328972369432449341e-01
7.626374810934066772e-02
2.160279452800750732e-01
2.211319059133529663e-01
8.054704219102859497e-02
4.402004927396774292e-02
4.460415542125701904e-01
6.633206456899642944e-02
9.080340713262557983e-02
-1.394255459308624268e-01
7.723769545555114746e-02
-1.321549415588378906e-01
-6.243796348571777344e-01
-2.250254005193710327e-01
1.768513619899749756e-01
8.657509833574295044e-02
-9.371791034936904907e-03
-1.887064725160598755e-01
-8.428475260734558105e-02
-2.379387915134429932e-01
4.667817950248718262e-01
7.652714848518371582e-02
-8.530773967504501343e-02
-4.233296215534210205e-01
-1.206221356987953186e-01
4.889712855219841003e-02
2.422893978655338287e-02
-3.655465692281723022e-02
-2.692293561995029449e-02
-9.082202613353729248e-02
4.384249821305274963e-02
-6.881528347730636597e-02
1.086031273007392883e-01
1.009865552186965942e-01
5.361278355121612549e-02
1.269387602806091309e-01
2.020898759365081787e-01
9.407446719706058502e-03
1.717251539230346680e-01
-9.742343425750732422e-02
7.291503250598907471e-02
3.748723268508911133e-01
-1.693903654813766479e-01
4.485402628779411316e-02
1.485539227724075317e-01
2.251314222812652588e-01
1.543168276548385620e-01
-1.106807589530944824e-01
1.016450747847557068e-01
5.515992641448974609e-02
-1.063079014420509338e-02
-1.892039030790328979e-01
-3.050938248634338379e-02
6.178282946348190308e-02
2.365933358669281006e-01
-1.548874378204345703e-01
2.855138182640075684e-01
5.631032399833202362e-03
2.366018109023571014e-02
-1.858300343155860901e-02
5.186165869235992432e-02
-9.264057129621505737e-02
-5.963978543877601624e-02
-1.642563790082931519e-01
7.867954671382904053e-02
-1.376191079616546631e-01
7.347975671291351318e-02
9.040108323097229004e-02
-4.789813235402107239e-02
-4.302130267024040222e-02
1.256601363420486450e-01
-1.774700284004211426e-01
-2.688956558704376221e-01
-6.788850426673889160e-01
-3.477453291416168213e-01
-1.072061806917190552e-01
-1.603334397077560425e-01
1.702109575271606445e-01
-8.944378793239593506e-02
3.554020524024963379e-01
6.995034217834472656e-02
-3.535823896527290344e-02
-1.154539808630943298e-01
-2.996659092605113983e-02
-1.790203750133514404e-01
2.227092534303665161e-01
-2.930305600166320801e-01
9.881336987018585205e-02
2.536664903163909912e-02
-8.176414668560028076e-02
1.045256201177835464e-02
-1.437959074974060059e-02
8.909079432487487793e-02
-1.126587390899658203e-01
-6.991397589445114136e-02
1.415118668228387833e-02
6.736841797828674316e-02
-1.062743365764617920e-03
-8.581937849521636963e-02
1.500787287950515747e-01
6.097028404474258423e-02
8.811268210411071777e-02
-2.709894627332687378e-02
-1.953171491622924805e-01
6.326170265674591064e-02
1.107866615056991577e-01
-2.060869634151458740e-01
-1.726798713207244873e-01
-1.420192718505859375e-01
-1.038251072168350220e-01
-1.056919172406196594e-01
1.715980619192123413e-01
-2.750069797039031982e-01
2.686833143234252930e-01
1.529862284660339355e-01
2.331972122192382812e-02
6.748387217521667480e-02
-1.600328981876373291e-01
1.938810795545578003e-01
1.264507323503494263e-02
6.932831555604934692e-02
-2.791171073913574219e-01
1.606248170137405396e-01
3.978860750794410706e-02
8.579970896244049072e-02
-1.445565074682235718e-01
1.112575009465217590e-01
-6.692022085189819336e-02
-7.845439761877059937e-02
3.153279423713684082e-02
-3.937709629535675049e-01
-2.050725072622299194e-01
1.556734740734100342e-01
-9.648861736059188843e-02
-2.469662725925445557e-01
2.168451063334941864e-02
-1.333273202180862427e-01
4.866376519203186035e-02
1.656039655208587646e-01
6.900005787611007690e-02
3.461869433522224426e-02
2.314123660326004028e-01
8.086147904396057129e-02
2.580474130809307098e-02
-1.019773632287979126e-01
-8.387293666601181030e-02
1.359041929244995117e-01
-2.195414155721664429e-02
-1.774318069219589233e-01
-1.783071309328079224e-01
-4.632184654474258423e-02
-7.825332134962081909e-02
-1.643913611769676208e-02
1.149775013327598572e-01
-3.768397122621536255e-02
-4.700937308371067047e-03
-4.677632078528404236e-02
-1.082212477922439575e-01
-1.621602326631546021e-01
1.104236394166946411e-01
1.984578743577003479e-02
1.570394188165664673e-01
-2.790106087923049927e-02
-5.257237702608108521e-03
-3.235563337802886963e-01
-5.809945985674858093e-02
1.857220679521560669e-01
3.253769278526306152e-01
7.711641490459442139e-02
6.492952257394790649e-02
4.296915233135223389e-02
-6.335619091987609863e-02
2.355742007493972778e-01
1.509311944246292114e-01
-1.011777371168136597e-01
-1.569821983575820923e-01
-5.320681631565093994e-02
-1.457532644271850586e-01
-1.677437126636505127e-02
5.810329690575599670e-02
2.213399857282638550e-01
4.658341407775878906e-02
-2.325869351625442505e-01
7.406271994113922119e-03
-1.560267359018325806e-01
-2.124214619398117065e-01
2.410395592451095581e-01
-8.663234300911426544e-03
-1.199591830372810364e-01
-9.341671317815780640e-02
-6.502940505743026733e-02
3.775356337428092957e-02
1.207481548190116882e-01
-1.136388555169105530e-01
1.028125882148742676e-01
1.487230043858289719e-02
4.128136113286018372e-02
-1.422577798366546631e-01
-4.814991354942321777e-02
-3.864332661032676697e-02
1.553021604195237160e-03
-2.509753592312335968e-02
-4.001990705728530884e-02
1.714038401842117310e-01
1.160371378064155579e-01
-2.511268109083175659e-02
4.186017215251922607e-01
1.810815036296844482e-01
2.948734536767005920e-02
2.772513031959533691e-01
-2.849550247192382812e-01
-3.186237514019012451e-01
-2.991380393505096436e-01
-2.432402223348617554e-01
-4.398009926080703735e-02
-1.938282847404479980e-01
-1.473436951637268066e-01
-2.587756514549255371e-01
2.289271652698516846e-01
1.810763329267501831e-01
-1.147174313664436340e-01
3.070272877812385559e-02
-1.489715427160263062e-01
9.481957554817199707e-02
1.351912226527929306e-02
-5.013326555490493774e-02
-5.740146338939666748e-02
-1.337025314569473267e-01
-7.528681308031082153e-02
3.726422786712646484e-01
3.519195914268493652e-01
4.262879490852355957e-03
-1.423930525779724121e-01
-4.466654360294342041e-02
2.081108465790748596e-02
1.102237403392791748e-01
-2.068679220974445343e-02
-2.042883038520812988e-01
8.613956719636917114e-02
7.067183405160903931e-02
-1.696350872516632080e-01
6.290055066347122192e-02
1.512662917375564575e-01
1.263996511697769165e-01
-1.733902245759963989e-01
-6.859631836414337158e-02
2.081093341112136841e-01
-1.279640942811965942e-01
-6.429919600486755371e-02
-1.595865935087203979e-02
-1.248153522610664368e-01
1.071260571479797363e-01
1.848908811807632446e-01
9.872244670987129211e-03
1.350790113210678101e-01
9.012174606323242188e-02
1.252511888742446899e-01
1.117750182747840881e-01
9.022460132837295532e-02
9.767737239599227905e-02
-1.596354506909847260e-02
7.832990959286689758e-03
1.210707426071166992e-01
2.131403088569641113e-01
-2.324935495853424072e-01
1.955271363258361816e-01
-1.809299737215042114e-01
-5.674732476472854614e-02
4.671343043446540833e-02
-4.847256839275360107e-02
-1.880210041999816895e-01
2.822117805480957031e-01
-1.454030275344848633e-01
-1.036973893642425537e-01
-1.565333753824234009e-01
1.899045556783676147e-01
1.133010163903236389e-01
3.663819655776023865e-02
2.940216660499572754e-01
2.042215019464492798e-01
4.166912436485290527e-01
-2.056711614131927490e-01
1.363942772150039673e-01
-1.582470387220382690e-01
2.866712212562561035e-01
-2.420496940612792969e-02
8.230573683977127075e-02
6.244244799017906189e-02
-2.360276645049452782e-03
-4.766692966222763062e-02
9.199847280979156494e-02
7.935854047536849976e-02
5.807888135313987732e-02
5.069844424724578857e-02
-8.313532173633575439e-02
2.137237787246704102e-01
5.933340266346931458e-02
-1.288220137357711792e-01
-1.784301549196243286e-01
-9.253764152526855469e-02
5.390448495745658875e-02
1.275003850460052490e-01
-3.560808254405856133e-04
-2.603326691314578056e-03
5.070840124972164631e-04
-4.236676096916198730e-01
-4.564841091632843018e-02
-4.117984324693679810e-02
-2.252065837383270264e-01
-3.571566641330718994e-01
4.849785864353179932e-01
-2.053234875202178955e-01
1.139282137155532837e-01
2.510531246662139893e-01
-2.449906915426254272e-01
-5.147781223058700562e-02
1.170275136828422546e-01
6.720063090324401855e-02
-3.651128336787223816e-02
-8.327409625053405762e-02
-4.703027009963989258e-02
1.316854655742645264e-01
1.206741202622652054e-02
-1.134338080883026123e-01
7.660131901502609253e-02
-5.984563380479812622e-02
-8.701746165752410889e-02
1.141264960169792175e-01
2.811089456081390381e-01
1.726974360644817352e-02
4.452506452798843384e-02
1.913001686334609985e-01
2.666380070149898529e-02
-8.431826531887054443e-02
8.806958794593811035e-02
-1.449736356735229492e-01
5.872437730431556702e-03
-9.642321616411209106e-02
-4.337921738624572754e-02
-7.610800117254257202e-02
3.327380493283271790e-02
-1.357239782810211182e-01
-1.399085670709609985e-01
-1.959754973649978638e-01
3.025468587875366211e-01
5.602321773767471313e-02
8.628514409065246582e-02
-8.710602670907974243e-02
-6.216815486550331116e-02
-1.186094060540199280e-01
9.803679771721363068e-03
-3.360503911972045898e-02
-1.039116531610488892e-01
1.310451924800872803e-01
7.479243725538253784e-02
-1.608798801898956299e-01
-8.088635653257369995e-02
1.394295841455459595e-01
1.078869327902793884e-01
-7.614187151193618774e-02
-4.456798359751701355e-02
-7.735338062047958374e-02
-9.762475639581680298e-02
7.370851188898086548e-02
-2.179427593946456909e-01
1.432025730609893799e-01
-1.846629083156585693e-01
-1.530419685877859592e-03
-1.172596961259841919e-01
-3.972433209419250488e-01
1.235272511839866638e-01
5.640531182289123535e-01
-1.339225620031356812e-01
4.915827885270118713e-02
-1.125768125057220459e-01
3.258125483989715576e-01
-2.179001122713088989e-01
2.687057107686996460e-02
9.352353960275650024e-02
1.735800653696060181e-01
-6.994770467281341553e-02
-5.105830729007720947e-02
1.436674296855926514e-01
-1.902399808168411255e-01
-2.355738170444965363e-02
-1.333676278591156006e-01
2.155812531709671021e-01
-1.108062565326690674e-01
-9.318063408136367798e-02
-8.578123152256011963e-02
1.370458677411079407e-02
3.257884085178375244e-02
2.964542247354984283e-02
1.230764761567115784e-01
-1.964661478996276855e-01
-2.071401029825210571e-01
3.717275708913803101e-02
-1.004915609955787659e-01
-1.206395477056503296e-01
-1.905919313430786133e-01
-8.535957336425781250e-02
-9.282136708498001099e-02
-1.015641987323760986e-01
-8.255269378423690796e-02
-2.615912556648254395e-01
-2.045117318630218506e-01
1.546385735273361206e-01
1.490141749382019043e-01
-1.070270091295242310e-01
2.334402315318584442e-02
-2.591048777103424072e-01
-1.778296530246734619e-01
1.159906461834907532e-01
1.885585635900497437e-01
9.787803888320922852e-02
8.475755900144577026e-02
-1.185166910290718079e-01
3.352973237633705139e-02
1.914889514446258545e-01
-1.762711554765701294e-01
-3.863689489662647247e-04
-3.955735266208648682e-02
4.209946841001510620e-02
-3.791258111596107483e-02
-4.442951455712318420e-02
-1.389578636735677719e-02
-9.308940917253494263e-02
-1.143961995840072632e-01
-2.592885196208953857e-01
3.042411208152770996e-01
-2.100698947906494141e-01
-1.491174940019845963e-02
-2.341673709452152252e-02
-5.440489947795867920e-02
2.113608829677104950e-02
5.399861559271812439e-02
1.466125249862670898e-01
-2.637134790420532227e-01
1.250116899609565735e-02
5.618054419755935669e-02
1.563272997736930847e-02
-7.970619201660156250e-02
5.982694029808044434e-02
1.524418145418167114e-01
1.446966975927352905e-01
-1.128689721226692200e-01
3.695844113826751709e-01
5.970912426710128784e-02
8.375623822212219238e-02
8.901911973953247070e-02
9.356360882520675659e-02
2.354214787483215332e-01
5.742243304848670959e-02
-1.702569127082824707e-01
-7.652223110198974609e-02
-7.256218791007995605e-02
1.490684784948825836e-02
-8.785200864076614380e-02
-6.905246526002883911e-02
1.727493256330490112e-01
2.830493450164794922e-01
1.006685271859169006e-01
1.023307293653488159e-01
-2.088259905576705933e-01
9.834778308868408203e-02
-1.444892138242721558e-01
-4.833684489130973816e-02
2.815947309136390686e-02
1.365993171930313110e-01
-2.852790057659149170e-02
4.269944429397583008e-01
9.825100004673004150e-02
1.397705823183059692e-01
2.040313743054866791e-02
-3.685651421546936035e-01
-1.649172604084014893e-01
-4.338928461074829102e-01
-2.190653607249259949e-02
-1.924512535333633423e-01
-1.486847549676895142e-01
1.595522463321685791e-01
-1.303726341575384140e-02
1.094472557306289673e-01
2.147599123418331146e-02
-1.633870452642440796e-01
-1.022105365991592407e-01
-8.178219199180603027e-02
-9.986004978418350220e-02
-4.022828862071037292e-02
-1.180155426263809204e-01
7.464882731437683105e-02
1.120159029960632324e-01
1.228104308247566223e-01
-2.252338454127311707e-02
-3.187321126461029053e-01
1.455741524696350098e-01
3.047215342521667480e-01
-8.056385815143585205e-02
9.537594765424728394e-02
1.307910494506359100e-02
-1.348727196455001831e-01
-1.552018225193023682e-01
2.592601776123046875e-01
-3.457165062427520752e-01
1.547036599367856979e-02
-1.628354191780090332e-02
1.512214839458465576e-01
-1.083099767565727234e-01
1.798133552074432373e-01
-4.808474704623222351e-02
1.252316217869520187e-02
-1.931235641241073608e-01
-1.636614203453063965e-01
1.154956966638565063e-02
-4.997653141617774963e-02
-8.664865791797637939e-02
7.274050265550613403e-02
2.545665800571441650e-01
1.058827713131904602e-01
-1.996186673641204834e-01
5.799367651343345642e-02
6.094209104776382446e-02
1.361885368824005127e-01
7.206723093986511230e-02
-3.115607798099517822e-02
7.530611008405685425e-02
1.949695646762847900e-01
-6.261028349399566650e-02
-1.067598387598991394e-01
-1.687399744987487793e-01
-1.279022991657257080e-01
-1.015945076942443848e-01
8.263021707534790039e-02
-1.391976773738861084e-01
-9.980934858322143555e-02
-3.361180722713470459e-01
-6.179720163345336914e-01
-8.604362607002258301e-02
5.773110315203666687e-02
-8.342223614454269409e-02
2.819578908383846283e-02
4.013608992099761963e-01
-3.100213706493377686e-01
5.888320133090019226e-02
3.400897607207298279e-02
-2.302415668964385986e-01
-2.208348549902439117e-02
2.102707326412200928e-01
-3.166742622852325439e-01
-1.434259489178657532e-02
1.786766946315765381e-01
-1.259434670209884644e-01
-5.816235393285751343e-02
-1.004890352487564087e-02
5.897571146488189697e-02
8.300925046205520630e-02
4.506218805909156799e-02
-2.196267480030655861e-03
6.146767735481262207e-02
-1.387476623058319092e-01
2.286682873964309692e-01
-1.090681180357933044e-01
2.151510678231716156e-02
9.341258555650711060e-02
1.347345393151044846e-02
4.393178224563598633e-02
-1.277813315391540527e-01
-1.586036831140518188e-01
1.238620504736900330e-01
9.966652393341064453e-01
-8.899366110563278198e-02
-2.087942324578762054e-02
-2.901648916304111481e-02
-5.308586359024047852e-02
-1.270381957292556763e-01
4.755134284496307373e-01
3.478534221649169922e-01
-1.652480065822601318e-01
2.303481101989746094e-01
5.146165564656257629e-02
-3.332385122776031494e-01
2.667087912559509277e-01
2.409224361181259155e-01
8.035382628440856934e-02
-3.200179040431976318e-01
-5.768390372395515442e-02
4.706695303320884705e-02
6.630026549100875854e-02
4.738524556159973145e-02
-5.586822330951690674e-02
-5.371012911200523376e-02
2.077795006334781647e-02
-1.929928809404373169e-01
-2.073440700769424438e-01
-8.392042666673660278e-02
-5.317344889044761658e-02
-7.093453407287597656e-02
-2.400229126214981079e-02
-2.769535779953002930e-02
-1.453138291835784912e-01
-3.320078849792480469e-01
-1.612493097782135010e-01
-7.490103691816329956e-02
-2.315050810575485229e-01
-1.103747040033340454e-01
-2.124978005886077881e-01
5.351532101631164551e-01
2.429045885801315308e-01
-5.410859733819961548e-02
-1.973734796047210693e-01
1.069636717438697815e-01
3.391416743397712708e-02
-1.417826563119888306e-01
-2.701141312718391418e-02
-2.139299511909484863e-01
9.645856916904449463e-02
1.383687704801559448e-01
4.243276640772819519e-02
-3.802751377224922180e-02
-8.658402413129806519e-02
2.244756370782852173e-02
-9.074157476425170898e-02
9.800489991903305054e-03
-7.211080193519592285e-02
5.497781559824943542e-02
-9.362947940826416016e-02
-5.153453722596168518e-02
-2.930443882942199707e-01
2.157827094197273254e-02
9.588841348886489868e-02
-1.351258456707000732e-01
-2.822366915643215179e-02
1.022244989871978760e-01
1.406353116035461426e-01
-1.474301815032958984e-01
-1.802050173282623291e-01
-1.741206794977188110e-01
-8.969055861234664917e-02
-8.897755295038223267e-02
-6.643084883689880371e-01
-4.473398327827453613e-01
2.642488479614257812e-02
-9.199392795562744141e-02
7.662781327962875366e-02
-3.842072188854217529e-01
4.288947209715843201e-02
-1.158499717712402344e-01
3.341630995273590088e-01
-1.166436150670051575e-01
7.931737601757049561e-02
1.536528021097183228e-02
9.159058332443237305e-02
8.243882097303867340e-03
4.100853577256202698e-02
-4.964143037796020508e-02
1.324338652193546295e-02
-2.305369824171066284e-02
9.403651580214500427e-03
-2.815755307674407959e-01
-2.265837341547012329e-01
2.407178878784179688e-01
-2.042455971240997314e-01
-1.177164539694786072e-02
-3.512515127658843994e-02
-3.489706665277481079e-02
1.503359675407409668e-01
-1.054274067282676697e-01
4.137222841382026672e-02
-1.200838461518287659e-01
1.862251572310924530e-02
-2.275295257568359375e-01
2.158155143260955811e-01
1.553970575332641602e-01
-8.564233034849166870e-02
2.186684012413024902e-01
1.330036520957946777e-01
2.465328574180603027e-01
3.057666718959808350e-01
-3.956169635057449341e-02
1.251397877931594849e-01
6.149226427078247070e-02
5.156261101365089417e-02
-1.261621862649917603e-01
1.341801136732101440e-01
1.782314479351043701e-02
-8.749612420797348022e-02
7.168817520141601562e-02
-5.290454253554344177e-02
-1.182492822408676147e-01
4.369413852691650391e-02
-2.608520153444260359e-04
3.666502535343170166e-01
3.614591658115386963e-01
1.471089422702789307e-01
-1.648874431848526001e-01
-1.185582503676414490e-01
-5.478408932685852051e-02
-1.017753873020410538e-02
-8.053384721279144287e-03
1.244670599699020386e-01
1.305366866290569305e-02
3.966682404279708862e-02
1.752105057239532471e-01
-6.409817188978195190e-02
-7.464597374200820923e-02
5.700015649199485779e-02
8.075886964797973633e-02
-1.864619851112365723e-01
-9.297119453549385071e-03
5.670043453574180603e-02
1.367162019014358521e-01
2.313532531261444092e-01
1.015661060810089111e-01
6.074373424053192139e-02
-4.775978252291679382e-02
5.412974581122398376e-02
1.314200758934020996e-01
1.991102099418640137e-01
1.167332604527473450e-01
-3.307481855154037476e-02
3.262346982955932617e-02
1.033363044261932373e-01
-5.769731104373931885e-02
1.428181305527687073e-02
-2.413662709295749664e-02
7.350822538137435913e-02
8.243863284587860107e-02
2.473780512809753418e-01
-4.825289547443389893e-02
8.821621537208557129e-02
-7.596545666456222534e-02
-1.722345948219299316e-01
2.114025354385375977e-01
-4.633761644363403320e-01
-5.350231751799583435e-02
-1.459160298109054565e-01
8.715119212865829468e-02
-6.652765907347202301e-03
-1.219359338283538818e-01
3.178819417953491211e-01
-1.329318284988403320e-01
-1.699755638837814331e-01
4.198753740638494492e-03
8.928530663251876831e-02
1.170575618743896484e-01
1.656544394791126251e-02
-1.106758490204811096e-01
-1.185237467288970947e-01
-3.906905278563499451e-02
5.001282319426536560e-02
9.768722811713814735e-04
4.038010537624359131e-02
-9.318840689957141876e-03
1.925277151167392731e-02
-7.794596999883651733e-02
-2.404574677348136902e-02
-3.176972642540931702e-02
1.674358397722244263e-01
2.648535966873168945e-01
9.574840962886810303e-02
-8.259832859039306641e-02
-4.899534955620765686e-02
-5.725048109889030457e-02
-1.321815699338912964e-01
-3.401676192879676819e-02
-2.948958277702331543e-01
-2.984568476676940918e-01
1.948655396699905396e-02
5.529807880520820618e-02
2.340865880250930786e-02
1.878468692302703857e-01
2.636910080909729004e-01
-5.280692130327224731e-03
-1.398440003395080566e-01
1.657444834709167480e-01
1.810004413127899170e-01
1.242045015096664429e-01
-8.152570575475692749e-02
1.877259612083435059e-01
1.362037062644958496e-01
9.095980972051620483e-02
2.226810157299041748e-02
1.003530770540237427e-01
-2.735045179724693298e-02
-1.395887136459350586e-01
-2.210620790719985962e-02
1.226346865296363831e-01
6.456352770328521729e-02
-3.770791459828615189e-03
-1.682506352663040161e-01
1.872080266475677490e-01
4.340230524539947510e-01
1.284083724021911621e-01
-2.371160127222537994e-02
-1.651447415351867676e-01
1.699608378112316132e-02
-7.652290165424346924e-02
2.414908558130264282e-01
1.917144954204559326e-01
-2.611429616808891296e-02
-3.772611618041992188e-01
1.845431327819824219e-01
-8.898290991783142090e-02
2.661655284464359283e-02
-1.974762417376041412e-02
2.165980786085128784e-01
8.432271331548690796e-02
-3.665005415678024292e-02
2.555406391620635986e-01
4.083720222115516663e-02
6.958161294460296631e-02
2.133822888135910034e-01
-1.191695854067802429e-01
-1.799291819334030151e-01
3.119837641716003418e-01
-9.820118546485900879e-02
2.142702937126159668e-01
8.207229524850845337e-02
-7.776821404695510864e-02
-1.342877894639968872e-01
5.473225936293601990e-02
-5.336684733629226685e-02
-3.140887245535850525e-02
-4.651866480708122253e-02
-2.408676743507385254e-01
7.364083826541900635e-02
-1.395874768495559692e-01
1.257408708333969116e-01
2.384350150823593140e-01
-3.925117850303649902e-02
1.952713239006698132e-03
1.947129815816879272e-01
-3.320382535457611084e-01
2.823940478265285492e-02
-2.287775725126266479e-01
-1.293103583157062531e-02
9.478152543306350708e-02
-2.979465126991271973e-01
1.512150838971138000e-02
-8.724868297576904297e-02
-8.626803010702133179e-02
1.708561480045318604e-01
-1.238439828157424927e-01
-7.382290810346603394e-02
-9.950266033411026001e-02
-1.149062067270278931e-01
1.602887660264968872e-01
1.443564146757125854e-01
-1.163242384791374207e-01
8.314783684909343719e-03
1.043531969189643860e-01
1.037157922983169556e-01
-2.750578522682189941e-02
2.898457087576389313e-02
-8.697739988565444946e-02
1.788333430886268616e-02
2.763874828815460205e-01
-9.418069571256637573e-02
2.538915872573852539e-01
1.084434315562248230e-01
-6.571848690509796143e-02
2.316227182745933533e-03
1.460057646036148071e-01
2.756968736648559570e-01
-1.734024137258529663e-01
-1.151017323136329651e-01
-2.096073925495147705e-01
8.338630199432373047e-02
5.764243751764297485e-02
4.040701687335968018e-02
5.270315408706665039e-01
4.509750008583068848e-01
1.812226623296737671e-01
2.620294392108917236e-01
1.557719260454177856e-01
1.198877915740013123e-01
1.504408270120620728e-01
1.417787224054336548e-01
-1.068426370620727539e-01
2.133693546056747437e-02
1.475692838430404663e-01
3.123980462551116943e-01
-7.012373208999633789e-02
2.650434151291847229e-02
5.334421992301940918e-02
2.822916023433208466e-02
2.059588441625237465e-03
-1.670047827064990997e-02
-1.296810954809188843e-01
9.435754269361495972e-02
-1.485232170671224594e-02
-2.584303617477416992e-01
-2.103200554847717285e-01
-4.768762886524200439e-01
-4.872564598917961121e-02
9.346905350685119629e-02
-8.916914463043212891e-02
-2.158332020044326782e-01
-2.321263775229454041e-02
-7.367914915084838867e-01
-1.713162846863269806e-02
-7.613252848386764526e-02
7.534105330705642700e-02
-1.864695847034454346e-01
3.974039554595947266e-01
7.178344577550888062e-02
-2.232871949672698975e-01
4.367346167564392090e-01
2.347875535488128662e-01
-1.154968813061714172e-01
-2.070961706340312958e-02
5.312075465917587280e-02
-6.730992812663316727e-03
1.844835579395294189e-01
1.770512908697128296e-01
-3.909734264016151428e-02
4.529392719268798828e-02
1.637567579746246338e-02
1.757975108921527863e-02
-4.515653941780328751e-03
-3.883583843708038330e-02
8.814701437950134277e-02
-3.202561736106872559e-01
-3.167322576045989990e-01
1.292096227407455444e-01
-8.680593222379684448e-02
2.317362427711486816e-01
9.099322557449340820e-02
6.180502101778984070e-02
-1.729397028684616089e-01
4.569631442427635193e-02
-9.875220060348510742e-02
-1.326826680451631546e-02
-3.032687306404113770e-02
-1.375094801187515259e-01
1.747405827045440674e-01
1.268949806690216064e-01
8.244436979293823242e-02
-2.407195121049880981e-01
-1.524371802806854248e-01
-1.305295825004577637e-01
-6.504973769187927246e-02
-1.260723769664764404e-01
1.694547832012176514e-01
-9.334294125437736511e-03
-5.560801923274993896e-02
1.925590634346008301e-01
1.101940125226974487e-01
-3.728830441832542419e-02
9.411544352769851685e-02
-9.678078442811965942e-02
1.150430664420127869e-01
1.358571369200944901e-02
5.139735341072082520e-02
1.667984127998352051e-01
-1.789698749780654907e-02
-9.006851166486740112e-02
-1.404181569814682007e-01
8.211444318294525146e-02
-6.763771176338195801e-02
-1.853396184742450714e-02
-1.603497005999088287e-02
1.228785738348960876e-01
1.782548725605010986e-01
-2.626713812351226807e-01
2.303857505321502686e-01
-3.478294610977172852e-02
-1.606856733560562134e-01
-4.532110989093780518e-01
4.055253565311431885e-01
-1.919767707586288452e-01
-2.732578516006469727e-01
1.429785043001174927e-01
-2.567825317382812500e-01
6.992863118648529053e-02
1.647614389657974243e-01
-4.307221770286560059e-01
-1.630797386169433594e-01
-5.550407618284225464e-02
2.497643791139125824e-02
-9.055694192647933960e-02
9.774062037467956543e-02
-6.874473392963409424e-02
5.228003719821572304e-04
6.843305379152297974e-02
-9.440213441848754883e-03
-5.249873176217079163e-02
9.372215718030929565e-03
-6.300217937678098679e-03
3.647914528846740723e-02
1.994893848896026611e-01
1.067903563380241394e-01
1.070350185036659241e-01
-2.652215659618377686e-01
-1.155874058604240417e-01
-1.610669493675231934e-01
2.863979935646057129e-01
-5.084863901138305664e-01
4.837787747383117676e-01
-1.815484017133712769e-01
-6.597102433443069458e-02
-9.246287494897842407e-02
-7.108816504478454590e-02
1.814641505479812622e-01
1.471939235925674438e-01
-1.090896129608154297e-01
-7.346255332231521606e-02
5.323755741119384766e-02
-1.261674761772155762e-01
5.777287855744361877e-02
-1.332008093595504761e-01
-5.903672426939010620e-02
-1.379991620779037476e-01
-1.650068759918212891e-01
5.861923098564147949e-02
6.466025114059448242e-02
-1.045843809843063354e-01
-7.211386412382125854e-02
-3.587505966424942017e-02
6.264228373765945435e-02
-3.636138513684272766e-02
2.637968659400939941e-01
4.870245233178138733e-02
1.596114635467529297e-01
2.027964964509010315e-02
-2.372193932533264160e-01
8.465076796710491180e-03
-4.184062033891677856e-02
-1.138752419501543045e-02
9.119097143411636353e-03
1.665999144315719604e-01
-5.476220846176147461e-01
1.511923372745513916e-01
5.925752967596054077e-02
3.923140093684196472e-02
3.311399221420288086e-01
3.198421597480773926e-01
-9.630426764488220215e-02
1.377108991146087646e-01
4.691156446933746338e-01
3.743993639945983887e-01
3.491969108581542969e-01
1.066900268197059631e-01
-1.086601689457893372e-01
6.674097478389739990e-02
4.558027982711791992e-01
2.600317299365997314e-01
2.107092291116714478e-01
-7.241971325129270554e-03
-1.051372513175010681e-01
-3.391616046428680420e-02
-4.709075763821601868e-02
-9.982025623321533203e-02
2.536769956350326538e-02
-9.809027612209320068e-02
1.439847648143768311e-01
5.374785885214805603e-02
-1.188272163271903992e-01
-2.263621836900711060e-01
-1.422193497419357300e-01
-9.982524812221527100e-02
-5.409482121467590332e-02
-1.280842125415802002e-01
-2.181318849325180054e-01
1.740753501653671265e-01
-1.670327931642532349e-01
1.107859462499618530e-01
9.441336989402770996e-02
4.190060496330261230e-01
2.162407487630844116e-01
-6.295368820428848267e-02
1.597285270690917969e-01
-2.659735977649688721e-01
1.079514548182487488e-01
1.743899881839752197e-01
-8.866856805980205536e-03
1.384157389402389526e-01
-9.437315165996551514e-02
7.845477014780044556e-02
2.882101535797119141e-01
5.877004191279411316e-02
-1.182349771261215210e-02
-5.249677225947380066e-02
1.129524111747741699e-01
5.947478860616683960e-02
-9.058847092092037201e-03
-5.579352006316184998e-02
1.943221241235733032e-01
2.327792644500732422e-01
-1.579637825489044189e-01
1.104846820235252380e-01
1.738091260194778442e-01
-2.545680478215217590e-02
-1.834341883659362793e-02
-1.721310764551162720e-01
1.388110071420669556e-01
6.536432355642318726e-02
-4.824883863329887390e-02
2.991431951522827148e-01
1.685062646865844727e-01
-6.380421668291091919e-02
-1.870696200057864189e-03
-3.173888027667999268e-01
1.938434541225433350e-01
2.408782690763473511e-01
7.179296761751174927e-02
-2.539259195327758789e-01
-6.426888704299926758e-02
-4.108671098947525024e-02
-2.898094058036804199e-01
-8.128806948661804199e-02
1.642922461032867432e-01
-8.148803561925888062e-02
9.058471769094467163e-02
-2.628497965633869171e-02
3.650607913732528687e-02
-5.942821968346834183e-03
8.692176640033721924e-02
5.212458968162536621e-02
1.403857022523880005e-04
2.967076897621154785e-01
2.522465884685516357e-01
-2.086961865425109863e-01
-4.318952187895774841e-02
3.991804644465446472e-02
1.485130935907363892e-01
2.579009830951690674e-01
-2.253953181207180023e-02
1.768284589052200317e-01
-2.797652781009674072e-01
1.389725953340530396e-01
-6.848246604204177856e-02
1.945452541112899780e-01
-9.209015965461730957e-02
-3.985790312290191650e-01
2.241502404212951660e-01
-1.195378080010414124e-01
8.513752371072769165e-02
-1.735278815031051636e-01
-1.846047490835189819e-01
-4.867170006036758423e-02
5.542926490306854248e-02
1.936741918325424194e-01
-6.279161572456359863e-02
-2.318666428327560425e-01
2.079150639474391937e-02
-1.080749630928039551e-01
9.636772423982620239e-02
1.607405953109264374e-02
-1.415743231773376465e-01
-1.036524772644042969e-01
-1.301395986229181290e-02
1.340294480323791504e-01
2.153711318969726562e-01
3.071509897708892822e-01
-1.230675801634788513e-01
1.655777841806411743e-01
1.761272996664047241e-01
1.761647611856460571e-01
-6.326542049646377563e-02
4.751335084438323975e-02
-2.905701994895935059e-01
3.283399939537048340e-01
6.909323334693908691e-01
-8.697114884853363037e-02
-1.467484235763549805e-01
-3.794149681925773621e-02
5.243926048278808594e-01
7.451649755239486694e-02
7.543909549713134766e-02
5.433467030525207520e-02
-2.758884429931640625e-01
8.149880915880203247e-02
-1.588487923145294189e-01
-6.131185218691825867e-02
5.566152185201644897e-02
-2.158420979976654053e-01
-2.440589815378189087e-01
3.946678712964057922e-02
3.822493134066462517e-03
1.327821053564548492e-02
9.238501638174057007e-02
-5.300794914364814758e-02
-2.919866889715194702e-02
-7.483214884996414185e-02
-8.152817934751510620e-02
-7.491678744554519653e-02
-3.021863996982574463e-01
-8.308363705873489380e-02
-1.268604546785354614e-01
1.009008586406707764e-01
-1.574105024337768555e-01
-1.401295959949493408e-01
6.270995363593101501e-03
-1.369305849075317383e-01
1.177657470107078552e-01
3.222479224205017090e-01
-1.399444341659545898e-01
-1.184858605265617371e-01
6.180899962782859802e-02
1.803973615169525146e-01
4.901379719376564026e-02
-5.776920542120933533e-02
-9.304016083478927612e-02
-9.536048397421836853e-03
1.792197227478027344e-01
-1.131906136870384216e-01
-1.612820923328399658e-01
8.369743824005126953e-02
-9.426283650100231171e-03
1.021656841039657593e-01
-1.344095468521118164e-01
-1.313623636960983276e-01
-2.250905521214008331e-02
-4.770730808377265930e-02
-8.825006335973739624e-02
-5.637724325060844421e-02
7.549337297677993774e-02
-8.442492783069610596e-02
3.545176386833190918e-01
4.739675819873809814e-01
-1.009932532906532288e-01
-1.846154630184173584e-01
-2.755585014820098877e-01
-6.562900543212890625e-02
2.548775672912597656e-01
-1.494318991899490356e-01
-5.178818106651306152e-02
8.354127407073974609e-02
-2.344637066125869751e-01
1.362616121768951416e-01
-8.022299408912658691e-02
5.620830506086349487e-02
3.008567914366722107e-02
1.318330913782119751e-01
1.001542899757623672e-03
3.422596026211977005e-03
1.191592663526535034e-01
4.727378115057945251e-02
-7.183342427015304565e-02
1.801113784313201904e-01
-1.859430819749832153e-01
1.180781424045562744e-01
-7.800470292568206787e-02
3.310661762952804565e-02
-6.341084092855453491e-02
3.877339884638786316e-02
-3.405170142650604248e-02
-2.867202088236808777e-02
-6.802380830049514771e-02
-9.153241664171218872e-02
-2.763072587549686432e-02
6.037653237581253052e-02
-1.817997097969055176e-01
-2.566313743591308594e-01
-1.578058749437332153e-01
6.159701570868492126e-02
-2.347120344638824463e-01
-6.532554514706134796e-03
-5.782273784279823303e-02
1.914966404438018799e-01
-8.390703797340393066e-02
7.293195128440856934e-01
-1.915650367736816406e-01
-6.632638722658157349e-02
-1.491353660821914673e-01
3.016797304153442383e-01
-1.290545463562011719e-01
-1.946765743196010590e-02
1.953025348484516144e-02
-4.044756293296813965e-01
-7.318919897079467773e-02
-2.207758575677871704e-01
9.781346470117568970e-02
1.492133885622024536e-01
1.213884726166725159e-02
5.085574090480804443e-02
1.601485162973403931e-01
4.768365249037742615e-02
1.133171766996383667e-01
-3.915944695472717285e-02
-3.880120441317558289e-02
8.318202942609786987e-02
-1.190949678421020508e-01
-4.801933187991380692e-03
-6.895851343870162964e-03
4.630226269364356995e-02
-1.565222046338021755e-03
8.204644918441772461e-02
2.323880493640899658e-01
-1.085542663931846619e-01
1.272182613611221313e-01
7.389637082815170288e-02
-3.297647535800933838e-01
2.893529534339904785e-01
5.567497014999389648e-01
-8.264537155628204346e-02
5.927168577909469604e-02
2.642039582133293152e-02
4.950760304927825928e-01
-1.541729271411895752e-01
-1.488562226295471191e-01
1.601049304008483887e-01
-3.845236897468566895e-01
-1.011350750923156738e-01
1.762133687734603882e-01
2.247404307126998901e-01
-3.627100884914398193e-01
-5.548235401511192322e-02
-7.056471426039934158e-03
-1.375705562531948090e-02
-5.302427336573600769e-02
3.297894075512886047e-02
-7.365616410970687866e-02
6.704200804233551025e-02
4.430343583226203918e-02
3.129195049405097961e-02
3.281311132013797760e-03
2.283018082380294800e-01
2.175226658582687378e-01
-1.992519795894622803e-01
1.202056854963302612e-01
1.065813079476356506e-01
1.266147941350936890e-01
-8.288937062025070190e-02
1.925830543041229248e-02
-1.431926935911178589e-01
1.623771488666534424e-01
2.276266068220138550e-01
-1.317021995782852173e-01
-9.646428376436233521e-02
-7.711516320705413818e-02
9.609030932188034058e-02
-1.144168674945831299e-01
-1.932882964611053467e-01
-2.047296315431594849e-01
-2.972731180489063263e-02
1.706882566213607788e-01
-2.481031417846679688e-02
1.797092407941818237e-01
-1.011999845504760742e-01
-1.006700769066810608e-01
-1.858557015657424927e-01
-7.957905530929565430e-03
-5.664023384451866150e-02
8.602476119995117188e-02
6.646084040403366089e-02
4.162544757127761841e-02
-8.781584352254867554e-02
4.987648874521255493e-02
9.758740663528442383e-02
8.127778768539428711e-02
-2.387284785509109497e-01
4.937130212783813477e-02
-1.025673970580101013e-01
-7.070892304182052612e-02
-6.018869578838348389e-02
4.550401866436004639e-02
-1.476518064737319946e-01
-7.443817704916000366e-02
-1.066776737570762634e-01
-4.645591974258422852e-01
6.336586177349090576e-02
3.020319342613220215e-01
-3.006401360034942627e-01
-4.741136729717254639e-01
3.255615532398223877e-01
7.784536480903625488e-02
-2.245607227087020874e-02
-1.170023903250694275e-02
1.300498843193054199e-01
-6.474544852972030640e-02
1.026811078190803528e-01
-2.874181792140007019e-02
7.516900449991226196e-02
1.903413534164428711e-01
-2.588312923908233643e-01
-4.112164676189422607e-02
-3.646826604381203651e-03
1.762727200984954834e-01
-9.540732204914093018e-02
1.138372495770454407e-01
-1.615655571222305298e-01
-1.256530433893203735e-01
3.813484907150268555e-01
3.328891396522521973e-01
-2.953012585639953613e-01
-8.737762272357940674e-02
1.816616356372833252e-01
-4.989124834537506104e-02
1.491034030914306641e-01
-9.042291343212127686e-02
-8.352821320295333862e-02
-2.623542845249176025e-01
-5.754752829670906067e-02
-1.174049675464630127e-01
-7.497579604387283325e-02
2.074783295392990112e-01
-1.968567669391632080e-01
-1.367716789245605469e-01
-2.705074548721313477e-01
-1.131961792707443237e-01
-1.440417617559432983e-01
-1.931159049272537231e-01
-1.956757903099060059e-02
-1.423722058534622192e-01
-1.247540488839149475e-01
5.146240070462226868e-02
-5.054947733879089355e-02
-1.072049885988235474e-01
-8.851294964551925659e-02
7.534534484148025513e-02
1.845643483102321625e-02
-1.293133664876222610e-02
-2.372084558010101318e-02
-1.524242162704467773e-01
5.367393791675567627e-02
-4.976984485983848572e-02
1.072589755058288574e-01
2.439413666725158691e-01
-3.790889307856559753e-02
-3.524673637002706528e-03
1.733956933021545410e-01
-1.902740150690078735e-01
1.401623636484146118e-01
-1.911426186561584473e-01
-1.518371235579252243e-02
-7.998811453580856323e-02
-1.562112122774124146e-01
9.719920158386230469e-02
7.634973619133234024e-03
2.799174785614013672e-01
-1.119221374392509460e-01
1.560406535863876343e-01
5.746576189994812012e-02
6.772177666425704956e-02
4.354227706789970398e-02
-1.702521890401840210e-01
-1.017778962850570679e-01
2.873406410217285156e-01
-9.321953170001506805e-03
-5.799864232540130615e-02
1.928385943174362183e-01
-1.246010363101959229e-01
1.438255757093429565e-01
1.032552123069763184e-01
-1.108615472912788391e-01
-1.304188370704650879e-01
3.217951208353042603e-02
-1.529571563005447388e-01
3.678250685334205627e-02
1.781350187957286835e-02
1.665247976779937744e-01
-3.722574189305305481e-02
-9.205979853868484497e-02
2.696276083588600159e-02
-9.069310873746871948e-02
1.423114240169525146e-01
-1.633472442626953125e-01
-8.252703398466110229e-02
4.464304149150848389e-01
-7.338574621826410294e-03
3.229924663901329041e-02
-5.033449735492467880e-03
4.440570771694183350e-01
2.835415303707122803e-01
-3.239129483699798584e-01
-2.829015851020812988e-01
-6.034008860588073730e-01
-1.742384955286979675e-02
5.330254510045051575e-02
-5.772734992206096649e-03
-8.069714158773422241e-02
-3.921636845916509628e-03
-2.700228989124298096e-01
-1.623476892709732056e-01
7.341961562633514404e-02
1.453194394707679749e-02
-3.525633364915847778e-02
1.990849524736404419e-02
-2.380795776844024658e-02
2.629965776577591896e-03
6.681960821151733398e-02
1.291852891445159912e-01
-1.110182851552963257e-01
2.709460556507110596e-01
-1.569742262363433838e-01
-2.212769687175750732e-01
2.802302241325378418e-01
8.648978918790817261e-02
-1.408932805061340332e-01
-1.390312165021896362e-01
-7.532265037298202515e-02
-3.083648905158042908e-02
3.062943741679191589e-02
-2.415749803185462952e-02
1.863907556980848312e-03
3.568385243415832520e-01
2.144629806280136108e-01
-2.776376605033874512e-01
1.900194883346557617e-01
-2.506925165653228760e-02
1.254501342773437500e-01
9.733611345291137695e-02
1.016448289155960083e-01
-1.593474596738815308e-01
3.283023089170455933e-02
1.433674246072769165e-01
6.727555394172668457e-02
-1.192998588085174561e-01
-1.445564329624176025e-01
9.671511501073837280e-02
1.016593128442764282e-01
-9.133123792707920074e-03
-2.513342909514904022e-02
-3.052542544901371002e-02
-1.086207572370767593e-02
2.258180677890777588e-01
1.625483036041259766e-01
-5.034924298524856567e-02
-8.358684368431568146e-03
2.569856345653533936e-01
-2.637613192200660706e-02
-8.864092081785202026e-02
-9.201098233461380005e-02
-1.661175936460494995e-01
2.267507612705230713e-01
-1.142178997397422791e-01
1.170023828744888306e-01
-6.884143501520156860e-02
-7.254077494144439697e-02
-6.469707936048507690e-02
8.870083093643188477e-02
7.553238421678543091e-02
7.470211386680603027e-02
4.023087676614522934e-03
1.723518781363964081e-02
1.639568060636520386e-01
1.018175631761550903e-01
4.441061522811651230e-03
-1.666046679019927979e-01
-1.558954715728759766e-01
7.136153429746627808e-02
2.438137121498584747e-02
7.539058476686477661e-02
8.256883919239044189e-02
-5.915065854787826538e-02
1.806963980197906494e-02
1.001764461398124695e-01
-7.969569414854049683e-02
-3.139496222138404846e-02
2.161939442157745361e-01
-2.222510427236557007e-02
-3.935319557785987854e-02
-1.676644831895828247e-01
-1.038560718297958374e-01
1.936800479888916016e-01
3.386884033679962158e-01
-6.868261843919754028e-03
-6.841208785772323608e-02
6.353003531694412231e-02
1.006244197487831116e-01
1.267703026533126831e-01
-7.854513823986053467e-02
-2.146856486797332764e-01
2.751922905445098877e-01
1.446600258350372314e-01
2.114291191101074219e-01
3.074024319648742676e-01
1.644908785820007324e-01
-1.012628898024559021e-01
-6.942164897918701172e-02
7.906700670719146729e-02
-4.730825126171112061e-02
-1.964514888823032379e-02
-1.885589510202407837e-01
-7.750491052865982056e-02
-6.870924681425094604e-02
-9.029480814933776855e-02
-1.239317059516906738e-01
9.526585042476654053e-02
9.922477602958679199e-02
2.952005565166473389e-01
1.604731529951095581e-01
2.232697010040283203e-01
-1.646646559238433838e-01
-7.388269156217575073e-02
2.207620888948440552e-01
2.232125699520111084e-01
-2.649220637977123260e-02
-3.260926529765129089e-02
1.450280100107192993e-01
-2.198282033205032349e-01
2.235354930162429810e-01
7.187865674495697021e-02
4.057423397898674011e-02
-1.848169229924678802e-02
2.535605430603027344e-01
-2.072619497776031494e-01
9.178196638822555542e-02
1.348043978214263916e-01
-6.005258765071630478e-03
1.960758864879608154e-01
2.531796097755432129e-01
1.354099065065383911e-02
-1.305523961782455444e-01
1.199489980936050415e-01
-6.476551294326782227e-02
-1.404524594545364380e-01
-1.389299333095550537e-01
-1.014778017997741699e-01
1.514122188091278076e-01
3.341664373874664307e-02
-2.144680544734001160e-02
-8.431739360094070435e-02
-3.486702442169189453e-01
-2.704796493053436279e-01
-5.761022865772247314e-02
-1.131425052881240845e-01
-1.253899931907653809e-01
-9.526657313108444214e-02
-4.020711779594421387e-02
1.426967978477478027e-01
2.071007639169692993e-01
-2.664707228541374207e-02
-1.136057171970605850e-02
-9.170354902744293213e-02
1.373968645930290222e-02
1.778216809034347534e-01
-2.212016880512237549e-01
-2.399458885192871094e-01
6.837189942598342896e-02
1.924560517072677612e-01
-1.444222927093505859e-01
-3.420913964509963989e-02
-6.444855034351348877e-02
-1.564113050699234009e-01
1.471461504697799683e-01
-1.547576785087585449e-01
6.022648885846138000e-02
-7.551682740449905396e-02
2.601828239858150482e-02
7.368168979883193970e-02
-1.535481121391057968e-02
1.174130216240882874e-01
-8.706106245517730713e-02
-3.416756913065910339e-02
3.378638625144958496e-02
-7.806165516376495361e-02
-2.417388260364532471e-01
-1.528438329696655273e-01
-2.140653133392333984e-01
5.895217135548591614e-02
-5.256923614069819450e-04
-1.499956995248794556e-01
-3.630017116665840149e-02
-2.836859785020351410e-02
-1.939090341329574585e-01
5.854187607765197754e-01
-6.921703368425369263e-02
-3.362105488777160645e-01
2.907601296901702881e-01
-1.585186570882797241e-01
-3.982459008693695068e-02
1.385513544082641602e-01
-1.631337851285934448e-01
-3.602335974574089050e-02
2.090905159711837769e-01
-7.856891304254531860e-02
1.336399763822555542e-01
-1.156509965658187866e-01
6.192220374941825867e-02
-1.937730014324188232e-01
-2.494882419705390930e-02
-3.408355638384819031e-02
-1.143712475895881653e-01
-9.882433339953422546e-03
-9.569924324750900269e-02
2.614596299827098846e-02
7.769685983657836914e-02
2.095338329672813416e-02
-1.699950098991394043e-01
-1.046786457300186157e-01
-1.232535094022750854e-01
6.399891804903745651e-03
-7.558851689100265503e-02
-1.156702563166618347e-01
5.515886843204498291e-02
1.888189231976866722e-03
-1.563968509435653687e-01
1.292039752006530762e-01
2.830731272697448730e-01
1.726529449224472046e-01
-1.614846140146255493e-01
-1.598188281059265137e-01
1.128914505243301392e-01
1.841051727533340454e-01
1.927683949470520020e-01
-5.753336474299430847e-02
-1.129973083734512329e-01
1.557136625051498413e-01
1.204607188701629639e-01
-6.240575388073921204e-02
-2.381785660982131958e-01
4.677449539303779602e-02
-7.025499362498521805e-03
1.153608262538909912e-01
5.356456153094768524e-03
5.821013450622558594e-02
4.543908685445785522e-02
-1.640115082263946533e-01
-1.122492551803588867e-01
-3.717541322112083435e-02
4.395928233861923218e-02
1.070139184594154358e-01
3.820078969001770020e-01
1.784184388816356659e-02
1.559251546859741211e-01
-1.778851151466369629e-01
2.653256990015506744e-02
-4.785199835896492004e-02
1.667403578758239746e-01
-1.137819364666938782e-01
-7.592026889324188232e-02
-3.718712031841278076e-01
2.034565620124340057e-02
1.424984335899353027e-01
-6.116543710231781006e-02
4.719428420066833496e-01
2.597806453704833984e-01
6.522616744041442871e-02
-9.834427386522293091e-02
1.203473731875419617e-01
1.381158977746963501e-01
1.457945853471755981e-01
-4.489094391465187073e-02
2.159718722105026245e-01
-8.959895372390747070e-02
-3.622640296816825867e-02
7.974468916654586792e-02
1.738255620002746582e-01
2.010126411914825439e-02
4.503179714083671570e-02
-9.977433085441589355e-02
-1.283351629972457886e-01
5.281492695212364197e-02
-1.877305284142494202e-02
-6.316588819026947021e-02
-6.466579623520374298e-03
-2.423155456781387329e-01
1.096357032656669617e-01
6.297967582941055298e-02
5.039130151271820068e-02
-6.473049521446228027e-02
1.568703502416610718e-01
1.504067890346050262e-02
-3.701025843620300293e-01
1.244022697210311890e-01
-1.795044839382171631e-01
-4.862622171640396118e-02
-3.028686158359050751e-03
6.403835117816925049e-02
1.547235846519470215e-01
-2.843541204929351807e-01
-1.427229344844818115e-01
-6.602092385292053223e-01
-2.342218011617660522e-01
-2.198926806449890137e-01
-5.816641822457313538e-02
1.245868504047393799e-01
3.330713883042335510e-02
-1.153668165206909180e-01
-2.675108313560485840e-01
1.126028504222631454e-02
-1.485372800379991531e-02
1.121395919471979141e-02
-2.439755015075206757e-02
-1.006132084876298904e-02
5.017451941967010498e-02
-3.922423720359802246e-02
3.681863099336624146e-02
-5.434773862361907959e-02
-1.343104541301727295e-01
-6.233413517475128174e-02
-4.937716946005821228e-02
-1.611848473548889160e-01
-5.786645412445068359e-02
-2.225756496191024780e-01
-2.730107009410858154e-01
-4.754363596439361572e-01
-2.718141376972198486e-01
-2.652824819087982178e-01
-4.049194976687431335e-02
-2.945991046726703644e-02
5.683453083038330078e-01
-3.835352361202239990e-01
-2.751264572143554688e-01
5.220419168472290039e-02
3.927847743034362793e-02
4.549657180905342102e-02
-1.807425171136856079e-02
2.135278284549713135e-01
-4.240175783634185791e-01
3.058499656617641449e-02
1.087044924497604370e-01
3.760772198438644409e-02
2.110975794494152069e-02
-6.005949154496192932e-02
9.386114776134490967e-03
-1.257068756967782974e-02
-4.436480626463890076e-02
5.412974394857883453e-03
-1.521177310496568680e-02
-3.023611307144165039e-01
-3.148860931396484375e-01
-1.087818294763565063e-01
-1.110772714018821716e-01
1.912288963794708252e-01
2.359760701656341553e-01
-7.320534437894821167e-02
-7.825255393981933594e-02
5.472188442945480347e-02
3.422835767269134521e-01
1.330338865518569946e-01
3.349700197577476501e-02
-9.155352599918842316e-03
6.874243915081024170e-02
7.080962508916854858e-02
1.834642440080642700e-01
1.812337040901184082e-01
8.146427571773529053e-02
3.238480389118194580e-01
1.630724966526031494e-02
-1.930550634860992432e-01
-1.263346970081329346e-01
7.247209548950195312e-02
6.543199717998504639e-02
-6.721701472997665405e-02
-3.924788907170295715e-02
7.308129966259002686e-02
-1.221564412117004395e-02
1.141202300786972046e-01
-1.827181689441204071e-02
-7.083756476640701294e-02
8.123021572828292847e-02
1.611510515213012695e-01
1.328422576189041138e-01
9.346973150968551636e-02
3.242304921150207520e-02
4.118631780147552490e-02
-1.048602089285850525e-01
8.990862406790256500e-03
-7.861284166574478149e-02
-7.700885087251663208e-02
7.340876758098602295e-02
-1.983487904071807861e-01
-9.633787721395492554e-02
1.804839633405208588e-02
-9.372954070568084717e-02
-1.255770027637481689e-02
-3.750815689563751221e-01
5.179923176765441895e-01
-6.879651546478271484e-01
-1.309386342763900757e-01
-1.561694145202636719e-01
-4.662797749042510986e-01
6.396779417991638184e-02
1.046040505170822144e-01
3.520725667476654053e-02
1.453871186822652817e-02
-3.833267837762832642e-02
-3.518663048744201660e-01
-6.178443506360054016e-02
3.746874630451202393e-02
-1.010671481490135193e-01
2.217415021732449532e-03
6.429801136255264282e-02
-8.982206135988235474e-02
-5.873721465468406677e-02
1.591407060623168945e-01
2.127210348844528198e-01
1.487603783607482910e-01
-3.019660711288452148e-02
9.750185161828994751e-02
1.565885543823242188e-01
-1.188956722617149353e-01
-9.719269722700119019e-02
2.571071088314056396e-01
5.143683403730392456e-02
1.385836452245712280e-01
-8.626978099346160889e-02
1.213140040636062622e-01
1.102036312222480774e-01
-2.496531307697296143e-01
1.486464440822601318e-01
1.854159086942672729e-01
1.772115975618362427e-01
-1.776087880134582520e-01
-5.865256860852241516e-02
-1.943737268447875977e-01
-2.667749114334583282e-02
-5.772234126925468445e-02
-6.236484646797180176e-02
-2.325624823570251465e-01
4.120739176869392395e-03
-1.017721891403198242e-01
1.101003810763359070e-01
1.732115261256694794e-02
1.958802575245499611e-03
4.727549478411674500e-02
2.374705858528614044e-02
-3.730877302587032318e-03
-1.567828655242919922e-01
-1.774863302707672119e-01
2.144726067781448364e-01
-1.727496385574340820e-01
-1.425981372594833374e-01
5.705701187252998352e-02
1.693668365478515625e-01
-2.798000350594520569e-02
-6.528577953577041626e-02
-1.885193400084972382e-02
1.536203175783157349e-01
1.951827704906463623e-01
5.396068468689918518e-02
-5.239815637469291687e-02
-2.590348124504089355e-01
-1.404739618301391602e-01
1.485061049461364746e-01
2.072870731353759766e-03
6.080404520034790039e-01
-7.976043224334716797e-02
-6.543826311826705933e-02
2.450319938361644745e-02
1.830556094646453857e-01
-1.123912408947944641e-01
1.007898226380348206e-01
-1.714483946561813354e-01
-9.558374062180519104e-03
-5.635893344879150391e-02
-1.028493419289588928e-01
1.986316293478012085e-01
-1.452300101518630981e-01
9.876305609941482544e-02
-3.603414073586463928e-02
5.219811573624610901e-02
-1.054051518440246582e-01
1.433752924203872681e-01
1.854192465543746948e-01
3.550244495272636414e-02
-2.053556442260742188e-01
-1.402361690998077393e-01
-8.882684260606765747e-02
-7.324180752038955688e-02
4.029052555561065674e-01
-2.285300046205520630e-01
8.709578961133956909e-02
-2.041685394942760468e-02
2.867158502340316772e-02
4.219988361001014709e-02
-1.521629691123962402e-01
1.587830334901809692e-01
8.068963885307312012e-02
4.897053539752960205e-02
-2.194552719593048096e-01
6.202460825443267822e-02
8.101298660039901733e-02
-3.870306611061096191e-01
-3.037598356604576111e-02
-1.049579158425331116e-01
5.594372283667325974e-03
-1.252375394105911255e-01
-1.012911051511764526e-01
-6.259266752749681473e-03
-1.370852887630462646e-01
-1.166008263826370239e-01
-3.153301030397415161e-02
8.059783279895782471e-02
-1.338811963796615601e-01
-4.193269312381744385e-01
-6.875681132078170776e-02
-5.950131639838218689e-02
9.192641824483871460e-02
1.611462533473968506e-01
7.451321929693222046e-02
1.053713560104370117e-01
-4.366214275360107422e-01
2.774311304092407227e-01
-1.582670807838439941e-01
-1.127797439694404602e-01
7.446351647377014160e-02
1.012501642107963562e-01
4.989403784275054932e-01
8.446170389652252197e-02
1.732963174581527710e-01
1.184438318014144897e-01
-8.844436705112457275e-02
2.745670974254608154e-01
-1.999354809522628784e-01
4.289235547184944153e-02
-2.850405275821685791e-01
1.271482706069946289e-01
1.296469271183013916e-01
1.244616881012916565e-01
3.780919942073523998e-04
1.473921388387680054e-01
-2.817158401012420654e-02
-1.305077075958251953e-01
1.517758518457412720e-02
9.800472110509872437e-02
2.734923362731933594e-02
-1.179842576384544373e-01
-1.061757355928421021e-01
2.043488323688507080e-01
-2.726265490055084229e-01
-2.815552242100238800e-02
3.584820777177810669e-02
-6.165597215294837952e-02
-3.469452261924743652e-02
-2.963652908802032471e-01
8.463387936353683472e-02
1.657257378101348877e-01
-2.243289202451705933e-01
-1.731741726398468018e-01
-1.903269626200199127e-02
6.352055817842483521e-02
1.808929741382598877e-01
-7.048121839761734009e-02
-1.990696340799331665e-01
4.927475005388259888e-02
1.049778684973716736e-01
6.089266762137413025e-02
1.338596493005752563e-01
1.320266425609588623e-01
1.205305010080337524e-01
-7.434932887554168701e-02
-6.460667401552200317e-02
8.799640834331512451e-02
-8.849424123764038086e-02
4.304056987166404724e-03
-9.174934029579162598e-02
-5.684665590524673462e-02
2.233231812715530396e-02
-5.839873105287551880e-02
-9.460455924272537231e-02
-1.510338187217712402e-01
-3.202721849083900452e-02
-7.911197841167449951e-03
-7.360959053039550781e-02
-5.080999061465263367e-02
-1.082736700773239136e-01
-2.114577218890190125e-02
3.041208088397979736e-01
-1.898600459098815918e-01
-4.431914091110229492e-01
-1.185193005949258804e-02
-3.341041803359985352e-01
4.008015394210815430e-01
-4.821266531944274902e-01
3.563449680805206299e-01
-1.098152846097946167e-01
1.582852005958557129e-01
6.272583268582820892e-04
-2.214390337467193604e-01
-2.201194614171981812e-01
-2.006177008152008057e-01
1.840478926897048950e-01
5.545169860124588013e-02
1.349128633737564087e-01
-2.421126067638397217e-01
-8.876040577888488770e-03
-6.495345383882522583e-02
-7.264074683189392090e-02
-1.434305123984813690e-02
-3.796521632466465235e-04
-8.983640931546688080e-03
-9.538833051919937134e-02
3.616646230220794678e-01
3.539003729820251465e-01
1.478043347597122192e-01
1.212990805506706238e-01
-1.449125558137893677e-01
-3.321323543787002563e-02
3.122076019644737244e-02
1.796320527791976929e-01
-5.005174502730369568e-02
4.252588748931884766e-02
-2.933284938335418701e-01
2.381964772939682007e-01
-1.084397882223129272e-01
-5.338942259550094604e-02
-4.318207968026399612e-03
8.184409886598587036e-02
1.424336284399032593e-01
-1.432005614042282104e-01
1.803337931632995605e-01
1.743522435426712036e-01
1.711313724517822266e-01
1.510994285345077515e-01
1.128490567207336426e-01
-2.059661597013473511e-02
-6.687199324369430542e-02
4.586108773946762085e-02
-1.190845891833305359e-01
-5.407266691327095032e-02
1.841865479946136475e-02
2.621423825621604919e-02
-2.015223912894725800e-02
9.339869022369384766e-02
-1.093058064579963684e-01
-7.295862585306167603e-02
-1.143416240811347961e-01
-9.380277246236801147e-02
-1.926840543746948242e-01
2.015630304813385010e-01
-1.922658272087574005e-02
-3.241278603672981262e-02
-3.264149129390716553e-01
-2.152450829744338989e-01
-5.995609164237976074e-01
5.469142794609069824e-01
3.923400770872831345e-03
1.039644256234169006e-01
9.309516847133636475e-02
3.117429316043853760e-01
-5.040094628930091858e-02
1.835318654775619507e-02
-2.542287856340408325e-02
2.220815420150756836e-01
2.278794199228286743e-01
-5.347546935081481934e-02
-2.271040678024291992e-01
-2.374187298119068146e-02
8.046119473874568939e-03
3.265246748924255371e-02
-6.091320514678955078e-02
8.647273480892181396e-02
9.961944073438644409e-02
1.828894391655921936e-02
-5.866738036274909973e-03
-2.749164705164730549e-04
5.370538681745529175e-02
-1.566626131534576416e-02
2.749358415603637695e-01
2.488561868667602539e-01
1.968739181756973267e-02
-9.654643386602401733e-02
1.379652917385101318e-01
-9.406930953264236450e-02
-1.672984957695007324e-01
3.568158298730850220e-02
4.304979927837848663e-03
-1.162238121032714844e-01
1.154544670134782791e-02
-1.622799485921859741e-01
4.846031591296195984e-02
-7.924929261207580566e-02
5.969086289405822754e-02
1.031175330281257629e-01
-1.872976422309875488e-01
3.602160885930061340e-02
-2.532168328762054443e-01
-6.270340085029602051e-02
1.286039799451828003e-01
8.351258188486099243e-02
-1.602729260921478271e-01
1.480991840362548828e-01
-1.352237462997436523e-01
7.292070239782333374e-02
-1.391162574291229248e-01
1.452000588178634644e-01
-6.436013430356979370e-02
-3.397993370890617371e-02
-2.033078372478485107e-01
1.153388470411300659e-01
3.296067006886005402e-03
3.530957996845245361e-01
2.526351213455200195e-01
1.042249575257301331e-01
-1.796371070668101311e-03
2.339553087949752808e-01
-1.358464360237121582e-01
2.632926963269710541e-02
-2.608853578567504883e-01
-3.237677514553070068e-01
1.123750284314155579e-01
3.916111290454864502e-01
1.252275258302688599e-01
7.035177946090698242e-02
5.286213941872119904e-03
1.260833591222763062e-01
-1.303012520074844360e-01
2.611583471298217773e-01
9.202413260936737061e-03
-1.721149384975433350e-01
2.069566994905471802e-01
3.387240227311849594e-03
-3.888418525457382202e-02
1.544057279825210571e-01
8.409921079874038696e-02
6.944733113050460815e-02
2.878887951374053955e-01
2.096923440694808960e-02
-4.524187743663787842e-02
-1.368455737829208374e-01
-6.479638069868087769e-02
-4.211854934692382812e-02
-5.671906471252441406e-02
9.069062769412994385e-02
1.542997658252716064e-01
1.105559095740318298e-01
3.408525884151458740e-02
-9.670230746269226074e-02
-1.288026291877031326e-02
-4.741246625781059265e-02
-2.576199732720851898e-02
-2.336551435291767120e-02
1.034567281603813171e-01
-5.933703184127807617e-01
-3.010740280151367188e-01
-2.243426144123077393e-01
-1.041418537497520447e-01
-1.246392875909805298e-01
-2.237194776535034180e-01
9.555760771036148071e-02
1.370029151439666748e-01
-1.055413559079170227e-01
6.929221004247665405e-02
-7.802180200815200806e-02
3.200346231460571289e-02
1.687709689140319824e-01
-1.508926898241043091e-01
1.747481226921081543e-01
5.325325205922126770e-02
-4.334030151367187500e-01
4.886704683303833008e-02
1.874556206166744232e-02
-6.428757309913635254e-02
-1.086130812764167786e-01
3.869261592626571655e-02
1.472068876028060913e-01
-6.824649870395660400e-02
2.347485870122909546e-01
3.144329190254211426e-01
-3.090658411383628845e-02
-9.606245905160903931e-02
-9.875465184450149536e-03
8.395738154649734497e-02
3.282916173338890076e-02
1.311759203672409058e-01
2.707261443138122559e-01
-1.504492908716201782e-01
-5.598995089530944824e-01
5.969481915235519409e-02
9.818319976329803467e-02
-1.616098582744598389e-01
-1.357413530349731445e-01
1.137458086013793945e-01
1.514490246772766113e-01
1.300019677728414536e-03
2.228166610002517700e-01
1.915039867162704468e-01
1.412716507911682129e-01
-2.045669965445995331e-02
2.655555605888366699e-01
2.745196409523487091e-02
-1.824686974287033081e-01
-7.446007430553436279e-02
8.936250209808349609e-02
2.852462977170944214e-02
-3.647219762206077576e-02
-7.175883650779724121e-02
5.658559873700141907e-02
4.914400726556777954e-02
-2.863127738237380981e-03
2.448213100433349609e-01
8.954098820686340332e-02
1.452851146459579468e-01
8.675885945558547974e-02
-3.604632243514060974e-02
-1.418268233537673950e-01
-1.008717194199562073e-01
8.069080114364624023e-02
3.629467785358428955e-01
5.861712247133255005e-02
5.887363553047180176e-01
2.546068429946899414e-01
6.268998980522155762e-02
6.882464885711669922e-02
-1.200775522738695145e-02
-2.769578993320465088e-01
1.497716903686523438e-01
1.252091974020004272e-01
-1.903597116470336914e-01
-3.227527439594268799e-01
-1.376406401395797729e-01
-8.912254869937896729e-02
-1.336423009634017944e-01
1.528017520904541016e-01
-1.991389989852905273e-01
-4.516961425542831421e-02
5.081322416663169861e-02
-1.670378446578979492e-02
3.808369114995002747e-02
-1.100229322910308838e-01
1.689732447266578674e-02
6.291777640581130981e-02
7.483237236738204956e-02
-4.401892796158790588e-02
-3.226550668478012085e-02
-9.828920662403106689e-02
1.535820811986923218e-01
2.191804051399230957e-01
-1.214239448308944702e-01
3.767085820436477661e-02
-6.866312026977539062e-02
-4.219096302986145020e-01
-3.460787236690521240e-01
6.684256196022033691e-01
2.489667572081089020e-02
1.442491449415683746e-02
7.191354781389236450e-02
4.320294260978698730e-01
2.681278884410858154e-01
3.144884109497070312e-02
-2.906585633754730225e-01
3.361367583274841309e-01
-1.573310643434524536e-01
-1.489813178777694702e-01
1.429697424173355103e-01
-3.930301368236541748e-01
8.733917959034442902e-03
-9.173290431499481201e-02
3.485249727964401245e-02
-1.480165123939514160e-01
-4.572312161326408386e-02
-3.853513672947883606e-02
-1.526655256748199463e-01
-1.004680022597312927e-01
-1.658996380865573883e-02
1.581300050020217896e-01
3.673394620418548584e-01
2.519950866699218750e-01
1.429862901568412781e-02
-8.465614169836044312e-02
-2.590606687590479851e-03
-6.458032876253128052e-03
9.441247582435607910e-02
8.922959119081497192e-02
1.137141883373260498e-01
-1.832759231328964233e-01
1.955884099006652832e-01
7.453121244907379150e-02
1.626819670200347900e-01
6.210392341017723083e-02
-3.239621818065643311e-01
8.480382710695266724e-02
-1.651187241077423096e-01
-6.494802236557006836e-02
-1.814394295215606689e-01
-2.222882956266403198e-01
-5.491505563259124756e-02
1.739277988672256470e-01
-8.880836516618728638e-02
9.192690998315811157e-02
-1.302253603935241699e-01
1.677204966545104980e-01
1.363816857337951660e-01
-7.549992203712463379e-02
-6.757304817438125610e-02
9.569046646356582642e-02
-5.146797373890876770e-02
1.568723022937774658e-01
1.080842241644859314e-01
5.099140107631683350e-02
7.491085678339004517e-02
4.730002209544181824e-02
-7.466042786836624146e-02
-2.054655402898788452e-01
8.750130981206893921e-02
1.511781364679336548e-01
2.608617544174194336e-01
-4.709499180316925049e-01
2.779861688613891602e-01
-2.392562329769134521e-01
1.783671528100967407e-01
-9.633674472570419312e-02
4.281822219491004944e-02
5.612865090370178223e-01
1.313749104738235474e-01
-9.569676220417022705e-02
1.004559248685836792e-01
3.333519995212554932e-01
-1.182420272380113602e-02
1.503422856330871582e-02
1.480187475681304932e-01
-9.086267650127410889e-02
1.696664392948150635e-01
2.007325589656829834e-01
2.672446072101593018e-01
6.883594393730163574e-02
3.794639930129051208e-02
-3.993847407400608063e-03
-1.113916411995887756e-01
-3.522232547402381897e-02
8.108102530241012573e-02
-8.179631084203720093e-02
1.751386076211929321e-01
2.915553450584411621e-01
6.491249799728393555e-02
-8.426719903945922852e-02
1.526567935943603516e-01
-6.105694919824600220e-02
2.802814170718193054e-02
-7.793718576431274414e-02
1.538855023682117462e-02
2.469965666532516479e-01
2.917928695678710938e-01
2.252893000841140747e-01
-1.162085216492414474e-02
2.605536766350269318e-02
1.805767416954040527e-01
-4.874577745795249939e-02
9.226384013891220093e-02
-1.508125662803649902e-01
5.953484177589416504e-01
3.391209244728088379e-01
-1.141213476657867432e-01
-1.830593869090080261e-02
-8.977361023426055908e-02
-1.996915601193904877e-02
-6.470061838626861572e-02
-4.122893884778022766e-02
1.157273277640342712e-01
7.278321683406829834e-02
-4.477605596184730530e-02
-6.096072494983673096e-03
4.353036731481552124e-02
-5.299717187881469727e-02
-1.406434327363967896e-01
-2.263487577438354492e-01
-2.833236455917358398e-01
-1.902267634868621826e-01
-1.278283633291721344e-02
8.591102808713912964e-02
-5.244425311684608459e-02
1.019803881645202637e-01
-9.813966602087020874e-02
1.247937306761741638e-01
-1.175055578351020813e-01
-1.640703380107879639e-01
-2.196274101734161377e-01
-1.519305557012557983e-01
1.522387862205505371e-01
-1.043548285961151123e-01
-3.745376318693161011e-02
2.588788047432899475e-02
1.389521211385726929e-01
-1.321817040443420410e-01
-1.374300718307495117e-01
5.737176164984703064e-02
-6.572220474481582642e-02
1.187118366360664368e-01
-1.546045392751693726e-01
-3.984928503632545471e-02
6.127597391605377197e-02
9.171184152364730835e-02
4.765309765934944153e-02
-3.912710025906562805e-02
1.329383403062820435e-01
-6.099820137023925781e-02
2.168898936361074448e-03
1.069830805063247681e-01
1.752281188964843750e-01
2.321933507919311523e-01
-1.666219532489776611e-01
-1.662626266479492188e-01
1.879179030656814575e-01
-6.444870680570602417e-02
-5.131072551012039185e-02
7.864186912775039673e-02
4.855246469378471375e-02
-2.178996205329895020e-01
4.338028132915496826e-01
1.777278073132038116e-02
1.567515283823013306e-01
-1.737028509378433228e-01
-2.512589693069458008e-01
-2.593928575515747070e-01
-8.661043643951416016e-02
8.495043963193893433e-02
-3.783910870552062988e-01
8.739828132092952728e-03
7.937446236610412598e-02
-2.421886920928955078e-01
-1.048443466424942017e-01
-5.127388518303632736e-03
1.127658877521753311e-02
-3.558104112744331360e-02
-1.019415780901908875e-01
9.198740124702453613e-02
-2.911194786429405212e-02
-6.040139123797416687e-02
-5.053344368934631348e-02
-2.543785236775875092e-02
-2.297408133745193481e-02
2.849912345409393311e-01
2.446447163820266724e-01
-1.034503355622291565e-01
9.352397173643112183e-02
1.687529087066650391e-01
4.449691995978355408e-02
1.477724462747573853e-01
8.699587732553482056e-02
-1.069975718855857849e-01
-2.633943855762481689e-01
1.293598022311925888e-02
-7.562334835529327393e-02
-2.988660521805286407e-02
-2.739470005035400391e-01
4.004588425159454346e-01
-1.900299042463302612e-01
-2.025495916604995728e-01
1.512669622898101807e-01
-1.323863565921783447e-01
1.099858134984970093e-01
4.603398963809013367e-02
-1.605281829833984375e-01
-8.627564460039138794e-02
1.473158895969390869e-01
1.322187781333923340e-01
2.858109772205352783e-02
-1.354046911001205444e-01
-1.326965987682342529e-01
7.628684490919113159e-02
-9.456858038902282715e-02
-4.075514152646064758e-02
2.076637931168079376e-02
1.443193405866622925e-01
2.157908231019973755e-01
-6.395144015550613403e-02
1.554572433233261108e-01
2.555058598518371582e-01
-4.558660089969635010e-02
1.326479613780975342e-01
-1.220887303352355957e-01
-1.158383935689926147e-01
5.949961394071578979e-02
2.840524613857269287e-01
6.574914604425430298e-02
-5.392553657293319702e-02
9.645482525229454041e-03
-3.378862515091896057e-02
1.044995412230491638e-01
7.370302826166152954e-02
-2.104894630610942841e-02
1.839119195938110352e-01
-1.520655453205108643e-01
4.526289179921150208e-02
1.186184287071228027e-01
7.698346674442291260e-02
6.565668433904647827e-02
3.193987309932708740e-01
-4.738011956214904785e-02
1.009091213345527649e-01
-1.677289307117462158e-01
-4.479583725333213806e-02
-7.612559944391250610e-02
5.907120928168296814e-02
-8.843320608139038086e-02
2.816376090049743652e-02
4.566156119108200073e-02
1.954713910818099976e-01
3.962201997637748718e-02
-3.304330408573150635e-01
4.036699235439300537e-02
1.902908533811569214e-01
1.082221940159797668e-01
-1.266283839941024780e-01
-7.176941633224487305e-02
-1.432012170553207397e-01
1.785907298326492310e-01
6.935181617736816406e-01
-1.999558955430984497e-01
3.740300610661506653e-02
7.229735702276229858e-02
2.615064978599548340e-01
-4.406184554100036621e-01
-2.133777886629104614e-01
-1.785709857940673828e-01
-4.112783968448638916e-01
-1.051848828792572021e-01
-1.182619854807853699e-01
1.407915353775024414e-01
-6.445066630840301514e-02
1.006501838564872742e-01
-2.567286789417266846e-01
-1.685045659542083740e-01
1.426174188964068890e-03
2.066647261381149292e-02
1.117709428071975708e-01
-2.831458859145641327e-02
-9.502385742962360382e-03
-6.400744616985321045e-02
6.521573755890130997e-03
-3.513526543974876404e-02
1.378400065004825592e-02
-1.144094765186309814e-01
1.985041797161102295e-01
1.452775299549102783e-01
-1.765542030334472656e-01
-3.049656376242637634e-02
3.871639072895050049e-02
-3.488969802856445312e-01
1.534265875816345215e-01
2.514350116252899170e-01
2.145722955465316772e-01
2.266532182693481445e-01
-1.786976307630538940e-01
1.506717503070831299e-01
2.813329100608825684e-01
3.043207228183746338e-01
4.348595440387725830e-02
4.099352955818176270e-01
-1.046046707779169083e-02
-1.362300813198089600e-01
3.910329192876815796e-02
-2.023495584726333618e-01
2.409703657031059265e-02
1.028987243771553040e-01
1.356476694345474243e-01
-3.150945156812667847e-02
-1.063908562064170837e-01
1.225729808211326599e-01
-7.045317441225051880e-02
-7.893831282854080200e-02
-1.097343638539314270e-01
2.247117459774017334e-03
1.972886025905609131e-01
-7.467339932918548584e-02
-3.017700612545013428e-01
-2.287536114454269409e-01
1.175140291452407837e-01
-2.768322825431823730e-01
-1.043587103486061096e-01
7.166594266891479492e-02
-3.096984922885894775e-01
-1.058687269687652588e-01
6.513414382934570312e-01
2.983882129192352295e-01
4.549916461110115051e-02
-4.789411276578903198e-02
8.974764496088027954e-02
-6.993184685707092285e-01
-3.657823503017425537e-01
-1.903475970029830933e-01
4.666631221771240234e-01
6.190738826990127563e-02
-6.107001006603240967e-02
4.404930025339126587e-02
1.724772751331329346e-01
8.511174470186233521e-02
-2.113637924194335938e-01
8.511479198932647705e-02
-6.294338405132293701e-02
1.961839152500033379e-03
7.972174137830734253e-02
7.938071340322494507e-02
-2.909372560679912567e-02
-9.861586987972259521e-02
1.319681294262409210e-02
2.127914726734161377e-01
1.562001258134841919e-01
-3.722887337207794189e-01
-1.557489633560180664e-01
-1.126849576830863953e-01
-2.236376702785491943e-01
-2.048188149929046631e-01
-1.183887347579002380e-01
1.863143295049667358e-01
-2.533522807061672211e-02
-2.329658269882202148e-01
9.882168471813201904e-02
-1.149857789278030396e-01
1.635448634624481201e-02
2.986403740942478180e-02
-6.012557446956634521e-02
-4.315424859523773193e-01
-2.222497761249542236e-01
-2.477036416530609131e-02
-4.702631831169128418e-01
-1.747342497110366821e-01
2.588055729866027832e-01
-1.720639318227767944e-01
-9.183643758296966553e-02
-1.646416932344436646e-01
1.391084641218185425e-01
2.045754902064800262e-02
-5.535541474819183350e-02
5.407797917723655701e-02
6.103285122662782669e-03
-5.725988373160362244e-02
1.062982156872749329e-01
5.333755537867546082e-02
-1.888902634382247925e-01
-3.246408998966217041e-01
1.100936383008956909e-01
6.155081838369369507e-02
-3.745046257972717285e-02
5.061539635062217712e-02
1.074222996830940247e-01
-2.957213297486305237e-02
-5.338329821825027466e-02
1.428123563528060913e-01
3.603602349758148193e-01
4.898233339190483093e-02
-7.448914647102355957e-02
-6.879819929599761963e-02
1.904094070196151733e-01
2.373375296592712402e-01
1.558907479047775269e-01
3.343522176146507263e-02
-1.355566382408142090e-01
5.742633715271949768e-02
-1.255389675498008728e-02
1.850150376558303833e-01
4.577187448740005493e-02
-6.126085296273231506e-03
-1.555358469486236572e-01
-1.024512946605682373e-01
-9.997297823429107666e-02
-1.207852661609649658e-01
1.428722888231277466e-01
-2.554462291300296783e-02
1.267676949501037598e-01
-4.204715136438608170e-03
6.592965871095657349e-02
1.647107750177383423e-01
-1.377934366464614868e-01
-2.113267481327056885e-01
-1.134769544005393982e-01
-4.114180058240890503e-02
-2.419820055365562439e-03
1.481329351663589478e-01
-2.987385354936122894e-02
3.556710854172706604e-02
-1.158498898148536682e-01
1.059150230139493942e-02
-1.715004295110702515e-01
2.260881513357162476e-01
-8.720276877284049988e-03
1.614439934492111206e-01
4.596067965030670166e-02
-1.839620172977447510e-01
1.397196948528289795e-01
3.166655600070953369e-01
-8.952458947896957397e-02
1.084406301379203796e-01
-5.703461542725563049e-02
1.284307837486267090e-01
1.566685587167739868e-01
6.952355802059173584e-02
1.532560288906097412e-01
3.460044041275978088e-03
-8.357677608728408813e-02
-9.072656184434890747e-02
-6.015291437506675720e-02
-8.195243775844573975e-02
2.532261889427900314e-03
-7.381356507539749146e-02
2.518042027950286865e-01
1.540450900793075562e-01
-4.299043491482734680e-02
1.236862316727638245e-01
-6.697078794240951538e-02
-1.153844743967056274e-01
4.078673571348190308e-02
-5.990530923008918762e-02
-6.349586881697177887e-03
-8.247177302837371826e-02
-1.119922250509262085e-01
1.956640742719173431e-03
-5.565679445862770081e-02
-1.419526524841785431e-02
-1.367991417646408081e-01
5.754442512989044189e-02
7.680181413888931274e-02
-1.583375632762908936e-01
6.023378670215606689e-02
-1.679093390703201294e-01
-6.169497221708297729e-02
2.376126646995544434e-01
5.289425700902938843e-02
2.140122056007385254e-01
8.486235886812210083e-02
1.644459664821624756e-01
1.349957436323165894e-01
-9.547921270132064819e-02
1.123961433768272400e-01
2.426600642502307892e-02
6.877819448709487915e-02
-3.785372897982597351e-02
-1.073016896843910217e-01
-1.550289839506149292e-01
-5.821629986166954041e-02
-7.156283827498555183e-04
1.248455420136451721e-01
-1.205668747425079346e-01
-7.671952992677688599e-02
1.211574152112007141e-01
-1.106208488345146179e-01
-4.521060287952423096e-01
-2.013103961944580078e-01
-1.070555090904235840e+00
-1.291890591382980347e-01
1.225443184375762939e-01
-7.610104233026504517e-02
1.761013567447662354e-01
-4.723664373159408569e-02
-1.323550939559936523e-01
-1.865324974060058594e-01
4.367202147841453552e-02
-1.077144779264926910e-02
-1.695289462804794312e-01
8.247356116771697998e-02
-2.008107900619506836e-01
1.083216592669487000e-01
-2.042401731014251709e-01
2.233354449272155762e-01
1.734218895435333252e-01
4.258977994322776794e-02
3.818370774388313293e-02
-3.433243557810783386e-02
-3.112589195370674133e-02
-3.484166227281093597e-03
-8.709493279457092285e-02
-3.442089855670928955e-01
-2.585509121417999268e-01
1.799286808818578720e-03
1.364967077970504761e-01
-6.543119996786117554e-02
-2.609796263277530670e-02
1.560602895915508270e-02
-1.118330955505371094e-01
1.402728557586669922e-01
1.304420232772827148e-01
3.576042056083679199e-01
1.417148560285568237e-01
-1.314697973430156708e-02
2.899919403716921806e-03
-1.053720116615295410e-01
3.827798739075660706e-02
-2.840134203433990479e-01
1.565882191061973572e-02
-1.729425936937332153e-01
1.012914925813674927e-01
-2.560839429497718811e-02
-6.553095579147338867e-02
1.890124566853046417e-02
-1.456711292266845703e-01
1.531305909156799316e-01
-1.765238642692565918e-01
7.010941207408905029e-02
-1.507363319396972656e-01
-1.087759509682655334e-01
1.286371797323226929e-01
-1.178417578339576721e-01
-6.630309671163558960e-02
-3.645318374037742615e-02
-2.560902833938598633e-01
-3.882093727588653564e-02
-1.850920356810092926e-02
-1.499319374561309814e-01
-2.099115774035453796e-02
-1.661012694239616394e-02
1.730769127607345581e-01
1.095987036824226379e-01
-1.545725273899734020e-03
8.049882203340530396e-02
-3.193471133708953857e-01
8.092740178108215332e-02
-1.639977991580963135e-01
7.718976587057113647e-02
3.331261277198791504e-01
-1.027832478284835815e-01
6.174016371369361877e-02
7.130765169858932495e-02
-2.369156032800674438e-01
1.800692230463027954e-01
1.337890326976776123e-01
-3.342828899621963501e-02
9.870357066392898560e-02
7.257813215255737305e-02
2.374915927648544312e-01
7.640235871076583862e-02
-2.032590843737125397e-02
7.030864804983139038e-02
-1.782203465700149536e-02
1.671025902032852173e-02
4.495314508676528931e-02
6.507744640111923218e-02
-1.513132452964782715e-01
-9.857742115855216980e-03
-3.328407704830169678e-01
2.382745780050754547e-02
-2.523705661296844482e-01
-1.238936856389045715e-01
-2.262545526027679443e-01
6.339619308710098267e-02
1.224175188690423965e-02
1.040699519217014313e-02
7.780428230762481689e-02
-4.033970460295677185e-02
1.204524934291839600e-02
-8.560296893119812012e-02
2.730885706841945648e-02
-1.713860481977462769e-01
-2.805150747299194336e-01
1.455757319927215576e-01
-7.266709208488464355e-02
2.999348938465118408e-01
2.104677855968475342e-01
3.157790750265121460e-02
2.462412714958190918e-01
9.247725456953048706e-02
-4.245855286717414856e-02
-1.839184314012527466e-01
1.660833507776260376e-01
5.382976494729518890e-03
-5.341120809316635132e-02
-1.002754792571067810e-01
2.438519708812236786e-02
2.245108038187026978e-02
-1.588443368673324585e-01
-7.286608219146728516e-02
-4.894438199698925018e-03
-1.381465792655944824e-01
-1.978758424520492554e-01
1.557318717241287231e-01
-7.463746517896652222e-02
-1.930369734764099121e-01
2.544877678155899048e-02
4.754678159952163696e-02
-1.278336644172668457e-01
7.256433367729187012e-02
4.022454470396041870e-02
1.054628789424896240e-01
3.524859622120857239e-02
-7.781060039997100830e-02
-3.121876120567321777e-01
1.577509939670562744e-01
1.653096526861190796e-01
1.102722287178039551e-01
8.201412856578826904e-02
-2.885394990444183350e-01
5.557405948638916016e-02
-6.678479164838790894e-02
-2.019533216953277588e-01
2.212559618055820465e-02
-5.944534391164779663e-02
7.094476372003555298e-02
1.783341914415359497e-02
-1.250359863042831421e-01
1.590131670236587524e-01
-9.496811777353286743e-02
1.174569353461265564e-01
-5.700893327593803406e-02
-1.541707664728164673e-01
-5.641859769821166992e-02
-7.730095530860126019e-04
4.753664601594209671e-03
1.091051846742630005e-03
1.177913472056388855e-01
2.846556901931762695e-01
1.105740815401077271e-01
2.058888971805572510e-01
-4.217712879180908203e-01
-1.494357138872146606e-01
4.201438277959823608e-02
2.352022193372249603e-02
1.320919990539550781e-01
2.275370806455612183e-01
7.095561027526855469e-01
-1.543866395950317383e-01
-1.581084132194519043e-01
1.824328675866127014e-02
3.368742167949676514e-01
2.147864848375320435e-01
-8.814441412687301636e-02
-1.754626482725143433e-01
-1.126141324639320374e-01
2.281500212848186493e-02
-3.396619483828544617e-02
6.266779899597167969e-01
1.314017921686172485e-01
8.117783814668655396e-02
-4.758238419890403748e-02
-1.866695582866668701e-01
6.166196614503860474e-02
5.401987209916114807e-02
-8.152038790285587311e-03
1.649146378040313721e-01
1.048469915986061096e-01
2.856508456170558929e-02
-2.787217199802398682e-01
9.336383640766143799e-02
-2.149234414100646973e-01
2.729323804378509521e-01
-2.829674482345581055e-01
-2.518542706966400146e-01
-7.452183216810226440e-02
-1.965252608060836792e-01
1.465126574039459229e-01
-1.040814146399497986e-01
-1.621357798576354980e-01
3.339860215783119202e-02
3.439005911350250244e-01
-2.413279116153717041e-01
-1.671430617570877075e-01
1.957321166992187500e-01
-1.037507206201553345e-01
1.358623653650283813e-01
5.231105685234069824e-01
-1.126244291663169861e-01
4.303932189941406250e-02
1.963272839784622192e-01
-1.480499356985092163e-01
-8.886800706386566162e-02
9.219258092343807220e-03
-3.136020526289939880e-02
-3.573779761791229248e-02
-6.484022829681634903e-03
-2.445438131690025330e-02
2.208970114588737488e-02
3.183715045452117920e-01
5.763157084584236145e-02
6.780248880386352539e-02
1.097384989261627197e-01
2.437239289283752441e-01
1.612808406352996826e-01
-9.273783862590789795e-02
-2.755071967840194702e-02
1.816630065441131592e-01
1.872301250696182251e-01
8.087684512138366699e-01
5.421098787337541580e-03
-7.235223054885864258e-02
-1.178121194243431091e-01
7.952965795993804932e-03
-1.487064510583877563e-01
4.305517300963401794e-02
2.205503880977630615e-01
-3.950506448745727539e-01
1.262502670288085938e-01
-5.883629247546195984e-02
-2.240478396415710449e-01
2.357718497514724731e-01
-1.488882303237915039e-01
-2.100385427474975586e-01
-3.802533447742462158e-02
1.379380375146865845e-01
-5.499008670449256897e-02
3.491328284144401550e-02
1.790842972695827484e-02
6.925357133150100708e-02
1.427433639764785767e-01
3.623458743095397949e-02
2.290949374437332153e-01
1.432152241468429565e-01
-2.182239890098571777e-01
-1.566736698150634766e-01
1.003282666206359863e-01
3.629084303975105286e-02
-8.704857528209686279e-02
1.349181085824966431e-01
-1.396622229367494583e-02
-6.836289912462234497e-02
1.713854074478149414e-02
-1.683382689952850342e-01
1.654627360403537750e-02
1.008688956499099731e-01
3.156370669603347778e-02
2.698709070682525635e-01
-1.234386935830116272e-01
5.878887698054313660e-02
8.258316665887832642e-02
-1.573393642902374268e-01
2.767119370400905609e-02
1.604771241545677185e-02
4.717046394944190979e-02
2.178442031145095825e-01
-1.577749289572238922e-02
1.713779270648956299e-01
6.708125025033950806e-02
-1.963012292981147766e-02
-7.438483089208602905e-02
1.317224055528640747e-01
-1.562506146728992462e-02
-2.937798947095870972e-02
-1.438085585832595825e-01
-1.799343526363372803e-01
-3.285010904073715210e-02
2.713770568370819092e-01
1.967260539531707764e-01
-8.291893452405929565e-02
1.212720870971679688e-01
-1.067602261900901794e-01
1.458318084478378296e-01
-5.870786681771278381e-02
5.400567874312400818e-02
-2.184915915131568909e-02
2.184997498989105225e-01
-4.975442215800285339e-02
8.256916701793670654e-02
1.510565578937530518e-01
-1.688223183155059814e-01
7.383941207081079483e-03
-9.079135954380035400e-02
-2.444569319486618042e-01
2.586087882518768311e-01
2.139108031988143921e-01
-2.101991772651672363e-01
1.755657941102981567e-01
1.491901725530624390e-01
-9.520045667886734009e-02
-1.461789608001708984e-01
