-7.649436593055725098e-03
-1.480996012687683105e-01
-9.729001671075820923e-02
-7.194728404283523560e-02
-1.239768266677856445e-01
1.186669766902923584e-01
-6.948845088481903076e-02
-4.327536001801490784e-02
7.701217383146286011e-02
-2.670922549441456795e-03
-2.400695346295833588e-03
4.754226654767990112e-03
2.813526429235935211e-02
-9.852182865142822266e-02
9.209137409925460815e-03
1.335577014833688736e-02
-9.624121594242751598e-04
-1.844856441020965576e-01
6.756155192852020264e-02
-1.111484244465827942e-01
2.705524303019046783e-02
-1.281096935272216797e-01
-1.864783167839050293e-01
-2.952645123004913330e-01
-2.069531530141830444e-01
-1.132228896021842957e-01
-6.452471017837524414e-02
-6.154173240065574646e-02
-2.475696653127670288e-01
-1.469612568616867065e-01
-1.478610783815383911e-01
-1.175398081541061401e-01
3.033174946904182434e-02
-2.372775488765910268e-04
-1.240807026624679565e-01
-1.494642347097396851e-02
7.786987349390983582e-03
-4.613222181797027588e-02
-2.828584611415863037e-01
9.513278491795063019e-03
-6.894806027412414551e-02
-8.846801519393920898e-02
-2.297506779432296753e-01
-9.400230832397937775e-03
7.152068614959716797e-02
-1.783346235752105713e-01
-1.426639556884765625e-01
-5.396089050918817520e-03
9.065075218677520752e-02
-2.785837091505527496e-02
7.529155910015106201e-02
-1.373314857482910156e-01
-1.038784626871347427e-02
2.482461370527744293e-02
-5.389541760087013245e-02
7.164730876684188843e-02
1.544400863349437714e-02
-1.664504259824752808e-01
1.998350583016872406e-02
-3.567102849483489990e-01
-6.523117423057556152e-03
-3.389908373355865479e-02
-1.944439411163330078e-01
-1.152649000287055969e-01
-3.086019158363342285e-01
-2.013763636350631714e-01
-5.902805179357528687e-02
5.370456725358963013e-02
-9.801623225212097168e-02
-8.927864581346511841e-02
-7.224833965301513672e-02
3.472876921296119690e-02
-2.797416225075721741e-02
5.766521021723747253e-02
-2.399735897779464722e-01
-9.246086329221725464e-02
1.143026426434516907e-01
-3.929632902145385742e-02
1.299268156290054321e-01
2.197346091270446777e-02
-2.286362349987030029e-01
-8.514608256518840790e-03
-1.998123712837696075e-02
-1.426869630813598633e-01
-1.209784001111984253e-01
-7.129581272602081299e-02
-1.439420878887176514e-01
-3.228705525398254395e-01
-1.958446055650711060e-01
1.426312141120433807e-02
3.074135631322860718e-02
2.156131528317928314e-02
-9.826505556702613831e-03
-1.751294583082199097e-01
2.403408102691173553e-02
-2.733949571847915649e-02
2.594637125730514526e-02
-7.261745631694793701e-02
-1.436531990766525269e-01
-3.209317475557327271e-02
9.399601072072982788e-02
-2.598323822021484375e-01
-1.053707953542470932e-02
2.390792220830917358e-02
-4.733486101031303406e-02
5.901823937892913818e-02
5.623254179954528809e-02
-1.501245200634002686e-01
-6.067825481295585632e-02
-2.472977899014949799e-02
-1.232999004423618317e-02
-1.750448159873485565e-02
-3.398890793323516846e-02
-1.218825504183769226e-01
-1.055691093206405640e-01
-5.214092880487442017e-02
-2.765822596848011017e-02
-2.424462325870990753e-02
-1.032808274030685425e-01
-3.105350024998188019e-02
-1.315870881080627441e-01
-1.559540331363677979e-01
-5.915360897779464722e-02
-8.669719099998474121e-02
1.013140082359313965e-01
6.337802112102508545e-02
-3.605893626809120178e-02
-1.801540888845920563e-02
-6.776688247919082642e-02
-2.950480580329895020e-02
-6.784944236278533936e-02
-2.660107426345348358e-02
-4.273033235222101212e-03
-2.800444066524505615e-01
-4.112444445490837097e-02
3.569596633315086365e-02
2.221921831369400024e-02
-1.662555783987045288e-01
4.528106003999710083e-02
-1.528806686401367188e-01
2.632188238203525543e-02
-6.413662433624267578e-02
-1.556808203458786011e-01
-1.830246895551681519e-01
-2.803295850753784180e-02
-9.019878506660461426e-02
5.133457481861114502e-02
1.249351445585489273e-02
-2.482230961322784424e-01
1.110065802931785583e-01
-2.617569454014301300e-02
-6.194650381803512573e-02
-1.477549076080322266e-01
-5.066944286227226257e-02
-2.087381929159164429e-01
-1.896246671676635742e-01
-2.234786450862884521e-01
-2.748480439186096191e-01
-3.060058653354644775e-01
-1.320014335215091705e-02
-2.281860560178756714e-01
4.869571328163146973e-02
-1.890512853860855103e-01
-7.136079668998718262e-02
-4.776553809642791748e-02
-1.284042298793792725e-01
-2.756468951702117920e-01
3.518646955490112305e-02
1.363177783787250519e-02
4.242205992341041565e-02
5.771983880549669266e-03
4.097173362970352173e-02
3.482771664857864380e-02
-9.044831246137619019e-02
-1.193032637238502502e-01
7.159022986888885498e-02
-1.615185290575027466e-01
-3.534571733325719833e-03
-1.063321679830551147e-01
-6.844930350780487061e-02
-2.526581101119518280e-02
1.877019740641117096e-02
-2.622053213417530060e-02
-2.669882476329803467e-01
4.294923692941665649e-02
6.071539595723152161e-02
-3.608410432934761047e-02
-1.527978032827377319e-01
2.807096578180789948e-02
-1.502325534820556641e-01
-1.099795326590538025e-01
-1.005242168903350830e-01
-2.981200627982616425e-02
8.796051889657974243e-02
-9.807690978050231934e-02
1.650728285312652588e-02
-2.213111370801925659e-01
-1.131264865398406982e-02
-1.031001806259155273e-01
-5.898414924740791321e-02
-1.013146564364433289e-01
-6.934847682714462280e-02
-3.060185536742210388e-02
-1.804931610822677612e-01
-1.149376556277275085e-01
1.324707176536321640e-03
2.144494652748107910e-02
-5.926975607872009277e-02
-2.115313112735748291e-01
-4.817870631814002991e-02
-3.362642228603363037e-02
-6.740959733724594116e-02
-3.915322199463844299e-02
2.189080230891704559e-02
2.217293232679367065e-01
-2.015061676502227783e-01
4.066312685608863831e-02
-1.942977458238601685e-01
7.773253321647644043e-02
-1.292631924152374268e-01
-2.430037558078765869e-01
-1.656963080167770386e-01
-6.510397046804428101e-02
-1.781883649528026581e-02
-1.183354482054710388e-01
-3.825995028018951416e-01
-9.314361214637756348e-02
-4.187303408980369568e-02
1.692100800573825836e-02
-2.076889127492904663e-01
-1.320437341928482056e-01
-1.056935638189315796e-01
-7.376623153686523438e-02
6.636300683021545410e-02
2.429493889212608337e-02
1.147852018475532532e-01
-3.772211074829101562e-02
3.102548420429229736e-02
-4.795143380761146545e-02
3.205543011426925659e-02
1.058215275406837463e-01
-5.197219178080558777e-02
-1.095910146832466125e-01
-3.861656179651618004e-03
-1.177570149302482605e-01
-1.551000624895095825e-01
-4.341302812099456787e-02
-9.230899810791015625e-02
-5.285058915615081787e-02
-1.573888771235942841e-02
-7.861080020666122437e-02
-1.021160408854484558e-01
-5.041912198066711426e-02
-1.058241799473762512e-01
-2.841375023126602173e-02
-4.647297784686088562e-02
