6.616048514842987061e-02
-6.684216111898422241e-02
-4.339132085442543030e-02
1.366982311010360718e-01
-1.782271545380353928e-03
1.115019619464874268e-01
-4.735578224062919617e-02
-2.694254927337169647e-02
6.988667696714401245e-02
-1.054455712437629700e-02
4.370531067252159119e-02
7.677237689495086670e-02
1.940393596887588501e-01
1.822634786367416382e-01
1.611330658197402954e-01
1.543224090710282326e-03
-7.622175663709640503e-02
4.604807868599891663e-02
1.537353694438934326e-01
7.885465770959854126e-02
-5.643437430262565613e-02
1.763788163661956787e-01
-7.302186638116836548e-02
1.971810758113861084e-01
2.679827809333801270e-02
-1.607678085565567017e-02
2.125949710607528687e-01
9.451708942651748657e-02
1.243159547448158264e-01
1.344705224037170410e-01
4.761586710810661316e-02
-1.511857286095619202e-02
1.025302931666374207e-01
1.286285370588302612e-01
8.043499290943145752e-02
-1.497831046581268311e-01
-2.949552796781063080e-02
1.727460473775863647e-01
-7.945962995290756226e-02
1.207733675837516785e-01
1.096705347299575806e-01
-4.561511427164077759e-02
2.319021522998809814e-01
-8.372678607702255249e-02
9.653902053833007812e-02
1.189327090978622437e-01
2.840587496757507324e-01
8.346088230609893799e-02
-8.100128918886184692e-02
-3.063698858022689819e-02
-2.063601091504096985e-02
-1.689102202653884888e-01
1.364668160676956177e-01
9.827652573585510254e-02
-5.952890589833259583e-02
2.339966446161270142e-01
8.392453310079872608e-05
-8.680633455514907837e-02
-3.079513460397720337e-02
1.585299819707870483e-01
1.370988935232162476e-01
-1.234919484704732895e-02
9.838027507066726685e-02
7.428121566772460938e-02
-4.569373652338981628e-02
6.516032153740525246e-04
-2.131860330700874329e-02
1.049207076430320740e-01
-5.877246707677841187e-02
1.352861523628234863e-01
1.375140994787216187e-01
8.244835585355758667e-02
1.130507811903953552e-01
1.231635138392448425e-01
1.215320080518722534e-01
1.327605992555618286e-01
-1.334938104264438152e-03
8.618248254060745239e-02
4.323064163327217102e-02
1.954552251845598221e-03
-6.682665116386488080e-05
1.092541143298149109e-01
-1.127186347730457783e-03
2.778317630290985107e-01
-1.126869171857833862e-01
1.207718178629875183e-01
-2.961953915655612946e-02
-3.673836588859558105e-02
-8.461310714483261108e-02
8.285963535308837891e-02
-4.305039718747138977e-02
-3.126749768853187561e-02
-7.845556735992431641e-02
-3.039342164993286133e-02
2.195215821266174316e-01
1.467916369438171387e-01
3.922767646145075560e-04
9.779912233352661133e-02
-2.377703189849853516e-01
-4.144048318266868591e-02
1.351994872093200684e-01
-5.283181369304656982e-02
1.499933600425720215e-01
1.321346312761306763e-01
1.200315803289413452e-01
1.020366922020912170e-01
9.107911586761474609e-02
-3.241819213144481182e-04
2.321748137474060059e-01
2.760073244571685791e-01
8.989213407039642334e-02
9.920363873243331909e-02
-4.886169731616973877e-02
1.229898706078529358e-01
1.098913257010281086e-03
2.639424800872802734e-02
2.099907547235488892e-01
-6.904124468564987183e-02
1.276501417160034180e-01
-6.588129699230194092e-02
5.538364872336387634e-02
-6.466820091009140015e-02
-3.480642661452293396e-02
1.164636909961700439e-01
7.552531361579895020e-02
7.451931387186050415e-02
7.720231264829635620e-02
-2.501434274017810822e-02
